svm_type c_svc
kernel_type rbf
gamma 0.0078125
nr_class 10
nr_binary 45
total_sv 3476
rho 0.258194 0.302886 0.0876566 0.232357 0.333555 0.407862 0.211622 0.356687 0.288183 0.0483786 -0.174577 -0.0274912 0.0823548 0.167163 -0.0492678 0.108458 0.0324107 -0.221232 -0.0757144 0.0341791 0.11977 -0.0975025 0.06067 -0.0159776 0.147827 0.253671 0.332394 0.126527 0.277446 0.205816 0.10959 0.194219 -0.0218782 0.135213 0.059906 0.0861116 -0.131148 0.0266402 -0.0504462 -0.217006 -0.0604473 -0.136423 0.15688 0.0816105 -0.0770801
label 0 7 4 6 2 5 8 1 9 3
nr_sv 251 353 373 321 351 363 375 355 373 361
nr_sv_binary 604 624 572 601 613 625 604 624 611 726 674 704 716 727 707 726 713 694 724 736 747 726 746 733 672 684 695 674 694 681 714 725 704 724 711 736 716 735 722 728 747 734 726 713 734
I 0
1 0
1 1
1 0
1 2
1 0
1 3
1 0
1 4
1 0
1 5
1 0
1 6
1 0
1 7
1 0
1 8
1 0
1 9
1 1
1 2
1 1
1 3
1 1
1 4
1 1
1 5
1 1
1 6
1 1
1 7
1 1
1 8
1 1
1 9
1 2
1 3
1 2
1 4
1 2
1 5
1 2
1 6
1 2
1 7
1 2
1 8
1 2
1 9
1 3
1 4
1 3
1 5
1 3
1 6
1 3
1 7
1 3
1 8
1 3
1 9
1 4
1 5
1 4
1 6
1 4
1 7
1 4
1 8
1 4
1 9
1 5
1 6
1 5
1 7
1 5
1 8
1 5
1 9
1 6
1 7
1 6
1 8
1 6
1 9
1 7
1 8
1 7
1 9
1 8
1 9
alpha
0 1 2 3 4 5 6 7 8 9 10 11 12 13 14 15 16 17 18 19 20 21 22 23 24 25 26 27 28 29 30 31 32 33 34 35 36 37 38 39 40 41 42 43 44 45 46 47 48 49 50 51 52 53 54 55 56 57 58 59 60 61 62 63 64 65 66 67 68 69 70 71 72 73 74 75 76 77 78 79 80 81 82 83 84 85 86 87 88 89 90 91 92 93 94 95 96 97 98 99 100 101 102 103 104 105 106 107 108 109 110 111 112 113 114 115 116 117 118 119 120 121 122 123 124 125 126 127 128 129 130 131 132 133 134 135 136 137 138 139 140 141 142 143 144 145 146 147 148 149 150 151 152 153 154 155 156 157 158 159 160 161 162 163 164 165 166 167 168 169 170 171 172 173 174 175 176 177 178 179 180 181 182 183 184 185 186 187 188 189 190 191 192 193 194 195 196 197 198 199 200 201 202 203 204 205 206 207 208 209 210 211 212 213 214 215 216 217 218 219 220 221 222 223 224 225 226 227 228 229 230 231 232 233 234 235 236 237 238 239 240 241 242 243 244 245 246 247 248 249 250 251 252 253 254 255 256 257 258 259 260 261 262 263 264 265 266 267 268 269 270 271 272 273 274 275 276 277 278 279 280 281 282 283 284 285 286 287 288 289 290 291 292 293 294 295 296 297 298 299 300 301 302 303 304 305 306 307 308 309 310 311 312 313 314 315 316 317 318 319 320 321 322 323 324 325 326 327 328 329 330 331 332 333 334 335 336 337 338 339 340 341 342 343 344 345 346 347 348 349 350 351 352 353 354 355 356 357 358 359 360 361 362 363 364 365 366 367 368 369 370 371 372 373 374 375 376 377 378 379 380 381 382 383 384 385 386 387 388 389 390 391 392 393 394 395 396 397 398 399 400 401 402 403 404 405 406 407 408 409 410 411 412 413 414 415 416 417 418 419 420 421 422 423 424 425 426 427 428 429 430 431 432 433 434 435 436 437 438 439 440 441 442 443 444 445 446 447 448 449 450 451 452 453 454 455 456 457 458 459 460 461 462 463 464 465 466 467 468 469 470 471 472 473 474 475 476 477 478 479 480 481 482 483 484 485 486 487 488 489 490 491 492 493 494 495 496 497 498 499 500 501 502 503 504 505 506 507 508 509 510 511 512 513 514 515 516 517 518 519 520 521 522 523 524 525 526 527 528 529 530 531 532 533 534 535 536 537 538 539 540 541 542 543 544 545 546 547 548 549 550 551 552 553 554 555 556 557 558 559 560 561 562 563 564 565 566 567 568 569 570 571 572 573 574 575 576 577 578 579 580 581 582 583 584 585 586 587 588 589 590 591 592 593 594 595 596 597 598 599 600 601 602 603 
0.4628495775148752 0.893671201519225 1.103112011462779 0.6224053715366156 0.08889990740287375 0.2048827438693112 0.5595449482206484 0.2252574891125916 0.880195478081444 0.3782774486899996 1.076686166662631 1.249450223547602 0.400984784307676 1.170924795359035 0.8955146977519626 0.7736343117161157 1.000219950615057 0.8512974872565892 0.06022654622140715 1.245773968996073 0.1804721517524396 0.9947383583301891 1.030183911571626 0.6309964086070557 0.4599487828736613 0.7392153737456021 0.3610558663257164 0.9069668767213667 0.2079618170915573 0.233828616947038 1.16627348806646 0.4202884002538939 0.3274127072830424 0.05385382236644885 0.1420724711652504 1.024914979375713 0.1935131279856042 0.06873417276939951 0.7288596158888541 0.4078778896738507 0.9666616905421458 0.4595228369991126 0.9328170608812831 0.6449562340916246 1.022375946566135 0.9176779287868633 0.7544631647956817 0.2755682639034993 0.5425247249694576 0.421880480499192 0.2423984395475823 0.5310260922210946 0.6868484704305537 0.1547916893269529 0.7851091434405176 0.7077943500638199 1.146771552251803 0.7419101902473798 1.091093208458848 0.1686435572555809 0.529148537623507 1.104898269836481 0.6191129705632294 0.9801089858242581 0.7037391813611745 0.2432428411153236 0.7521651380382035 0.005707169187580573 0.1350722516416467 0.1873010192102082 0.8641435185630748 1.189970054159539 0.7500624756188428 0.5290538873802746 0.2010523522649169 0.20785029921207 0.8423847693326429 0.492471733882017 0.6950609826966488 0.6874827187122691 0.911045457513167 0.5353178110689837 0.5306783225370394 0.08659871691534077 0.8098979471076869 0.8357554808372766 0.4997158866642422 0.4076253511582699 0.4340378342260773 0.420227809537394 0.3423308229384368 0.6827852779956975 0.3686247438416719 0.03499446654154502 0.1066476566325913 0.02521199579560854 0.2000299427080894 0.8092509606948628 0.335286513154711 0.367035133887975 0.3594745892075432 0.2126600128708033 0.1160194356914145 0.1732707555981931 0.6547178579775355 0.1995835844371241 0.02718936565803561 0.6736864816957376 0.2645586179581654 1.245854231945429 0.7741026484298602 0.6947564379666535 0.2814337117239672 0.9266908964847909 0.6033627196793645 0.8679654977394533 0.5232541849943116 0.5494849082066848 0.4703391583830768 1.223020818369929 0.8561073608561715 0.271222981330189 1.045191935307151 0.3483375386981785 1.022863481159851 0.5948481384495115 0.9179414308906992 0.3115229045601366 0.3384083434660102 0.3489729675244723 0.7027846094912085 0.1709969901937392 0.3496971358378412 0.425212447382363 0.5319190885967249 0.6421683665559617 0.3319458920093283 0.2688313419924141 0.2700141718090061 0.6609003410623606 0.9273730304912337 0.8457398578823258 0.9581732376226721 0.5209394167915342 0.321189374120553 0.7804682182533056 0.3667520847382072 0.1308485216152969 0.5408750920111629 0.1652395464756289 0.06337924491217405 0.1137200402244987 0.8571249284435344 0.8329281035528664 0.579375922221422 0.2624056161232943 0.4532665961867631 0.3720905669863189 0.8083722955059413 0.6769876570127858 1.232980676987744 1.142454649731269 0.8737721808531318 0.3311394434606123 0.1134754248405271 0.1883691013841837 0.0805213032379225 0.7692803094637198 0.636845374347949 0.763573728921894 0.1182580688142653 1.0147706263428 0.204682499522589 0.1064163230041255 0.1963327070724418 0.09767372271885896 0.2936658436498817 0.3681932872447331 0.5731815287878173 0.7509400705604091 0.4312328769761685 0.6815036808476542 1.242002337531846 0.5745894065141087 0.5973519694230595 0.7330039564731667 0.3988530750659778 0.2733449464068706 0.9281390258957503 0.1740764657426058 0.07688276358621494 0.4159387099344843 0.8289702502397394 0.0109825812536848 0.3239737140357682 0.8887199784937106 0.7489288707507281 0.5661740404300467 0.9770127810686093 0.5469977608892159 0.1288035028002472 0.4268902006937197 0.3336700450916578 0.2992519260739201 0.7352023647270722 0.4339023161576826 0.614014337348271 0.4408152988794334 0.6092554232356252 0.03559725595287849 0.6249484026183507 0.4438259846060554 0.7928523357269501 0.998957810845281 0.5002201887319018 0.6542864044507757 0.6435997423034677 1.239970573574821 0.3671159590338164 0.3295934364843141 0.5653532979358243 0.7921989833005411 0.101659216143019 0.07766655838594697 0.7408928422538626 0.1880341568812 0.03903536892086336 0.4104359196672165 0.5352296745875427 0.520709096488823 0.9960513987075548 0.4845710986834181 0.5355367408386614 0.7329163783446613 0.749885431517093 0.2789660187069897 0.05898790279043123 0.8595561762946111 0.9074519220020457 0.04327691865298382 0.9890304099015937 0.7686850824307155 0.6943137727875012 0.02533501559932774 0.2537052492104911 0.9713272657140761 0.7210046185727527 0.226676835098396 0.551429438152765 0.4291974859776512 0.6324686913302049 -0.1097398235739532 -0.6501503465198396 -0.5160711346937934 -0.01405424930511161 -0.544027618216727 -0.3140356487373768 -0.4514974041243328 -0.2873397788518064 -0.3652394932401569 -0.4534681981172406 -0.4202736086260802 -0.01091224563420854 -0.13356437573532 -0.06234442962422891 -0.3835984823018385 -0.6941922514616238 -0.2327208642036632 -0.7067490373483059 -0.4710851114036395 -0.6803199197815822 -0.5990614463950767 -0.4968169628592501 -0.6950389780940396 -0.3635589512390489 -0.5694335427729389 -0.7325408823192995 -0.5518320886337263 -0.3849088921693115 -0.6411767684597808 -0.4048348140549979 -0.4039836432741427 -0.6053830971557955 -0.3625589986859327 -0.6495630500845357 -0.4679966984298081 -0.4495177418916093 -0.2869509939714256 -0.5555333177179647 -0.3880152744739246 -0.1402811877033231 -0.1665376506831791 -0.09323019314715725 -0.332705983630972 -0.4652703410437649 -0.5071061529753171 -0.4775891310305913 -0.5738094500984503 -0.2788883001251024 -0.5401920894395149 -0.1710932658663646 -0.5844017039183954 -0.4402203783055607 -0.3760914233161665 -0.1503209809716188 -0.2363232380592229 -0.7228100910911224 -0.2948448040566824 -0.1914709959908468 -0.6098088882808561 -0.6390694100583888 -0.1274685426395471 -0.1753763358931987 -0.332429193829004 -0.2545026591726924 -0.2906895646769561 -0.2698148821643973 -0.05610581793488155 -0.373990179878243 -0.06963124691047448 -0.386005090701878 -0.6203486315980906 -0.4187611187148398 -0.4082158778366377 -0.3703684135091674 -0.2529296720091299 -0.620918102996613 -0.06846345152439241 -0.1738333945236943 -0.2549375942954184 -0.2021207791160872 -0.4818477605564078 -0.6454160021450123 -0.09482858156021984 -0.4606168801552443 -0.3436360352242662 -0.3523825881939632 -0.5158290852223318 -0.009250409982982866 -0.3576197906949247 -0.185130648564628 -0.7302982697462967 -0.04588936724444208 -0.5371564653783447 -0.2569953372942777 -0.4305999160450159 -0.1745406994442054 -0.6991440601196313 -0.6177116406010319 -0.7117553236993377 -0.09816071735142737 -0.5921767664368123 -0.08399442338241829 -0.2290027936436471 -0.4605488099267922 -0.5329026561532235 -0.3684962459252535 -0.71568366288012 -0.6747712972218143 -0.5709901653651394 -0.4925458788002354 -0.4592640263586682 -0.3157452488317742 -0.2650284847956167 -0.3974649019320403 -0.2935480462536366 -0.1799489799067518 -0.5423856377605831 -0.2785830579713015 -0.4925752069922139 -0.4544703507755685 -0.1209221719888765 -0.1887282837715056 -0.3347516465147288 -0.5220350252569725 -0.5823482380929215 -0.3032851691338301 -0.21529816035497 -0.4520261576135198 -0.4336764904618367 -0.1985524334673357 -0.2336431862206817 -0.542506267488793 -0.3590443502609721 -0.2387395629489027 -0.04858664783963517 -0.5240810751099534 -0.7015980137557332 -0.3928880037172443 -0.4006720033743498 -0.3820021453915683 -0.05329576599902028 -0.2866486051144365 -0.3176166275368203 -0.6085557637309068 -0.4423129808902772 -0.3355027756248603 -0.3156814876851631 -0.1134373041619566 -0.5845035815755796 -0.2646433109447576 -0.2024473527897877 -0.2763002953004289 -0.4107323881606127 -0.001796085030698906 -0.3648163872805477 -0.3412790673847657 -0.262986161133859 -0.08314716120818483 -0.7281270000859903 -0.1799972391750291 -0.645071858462865 -0.6540163133195135 -0.6698622380946154 -0.4977058434116228 -0.3340938593035828 -0.5905381864583708 -0.1316491642977189 -0.4237427155738279 -0.6696871233699053 -0.575284315469522 -0.4437724367135191 -0.7224397688388445 -0.6887363897915783 -0.2446317826734986 -0.4748545069872632 -0.286365488978287 -0.3464519330184578 -0.278856779948653 -0.4388493270758286 -0.6950688115653247 -0.6182903254028717 -0.5073932301634019 -0.0525638550312945 -0.5445506359664648 -0.2998774626247559 -0.4815883207787084 -0.4315215620315399 -0.1179544920693843 -0.3737426206156724 -0.2075680304642441 -0.1263913780666008 -0.378420481750448 -0.5129067329273309 -0.09537750049028086 -0.2307657847733675 -0.5663243562537673 -0.3048933796746516 -0.2657999857252802 -0.06896199749871396 -0.319819726197076 -0.367160306581826 -0.5024593891659178 -0.5739305938161171 -0.2363744109387575 -0.3779622970728373 -0.1841277693854632 -0.5720556771608365 -0.5265200120241083 -0.319392832951608 -0.2467607439850527 -0.2424847595231202 -0.253649653708896 -0.1353817244566433 -0.04424249801939177 -0.3052020128513426 -0.3418994609761831 -0.3513111370879416 -0.2009094358221298 -0.2337695851707854 -0.585161851259923 -0.2071713299731714 -0.3250271628278116 -0.198284936963315 -0.3157878230217244 -0.5894140728630891 -0.3816343381050046 -0.3585392679192625 -0.3170661589790864 -0.6775006406391927 -0.5713683883565939 -0.3835104321359417 -0.6582888551275911 -0.1290495707163122 -0.1714120535676391 -0.2026580529087416 -0.5850326603440299 -0.5394490089286789 -0.3737039991795356 -0.3707635604279154 -0.5110760311504688 -0.2675322590971072 -0.1052107563283588 -0.3959623991750013 -0.2709344562463935 -0.4214938337576274 -0.6013788996554474 -0.4171472132807175 -0.1273957414564958 -0.4517126751468803 -0.371181698159835 -0.398302469364111 -0.7357655484809194 -0.4663145134506889 -0.09382441404430912 -0.5716969119401373 -0.6964040719768725 -0.5978382322991139 -0.2984252382321312 -0.4603553938124191 -0.6918221802937361 -0.5968127795077317 -0.3091350854903587 -0.4337793074212055 -0.7030431616076298 -0.5281161816963541 -0.4076939526712801 -0.3363002623330135 -0.5168113767093964 -0.7030963586393504 -0.588937473210971 -0.3517252279762436 -0.04510239558642105 -0.1363468069119012 -0.327819034167045 -0.08766692817603262 -0.323245829292508 -0.5777527858440621 -0.001779601908590583 -0.2382524509765071 -0.7322118193521779 -0.6064988384417511 -0.3169533824634596 -0.6484293892484734 -0.3304849014865219 -0.6757718899535149 -0.6357684195315647 -0.3787141279110272 -0.4955197621464193 -0.1579068628368251 -0.4637984716372109 -0.4141222918151711 -0.5034756551853041 -0.3099136837165031 -0.5109076327198868 -0.4195404294919103 -0.464775900933529 -0.5323603100528463 -0.011686242306586 -0.4689399377445061 -0.5514753036085487 -0.695848649361837 -0.2744724773011304 -0.438200388808223 -0.1998330248184279 -0.333648385530852 -0.2314140184635139 -0.2121229484180731 -0.5375626388100445 -0.5892023019117936 -0.6982384122151148 -0.6647546599486575 -0.3031836158757294 -0.213286293028715 -0.3818600656110117 -0.1027855146215262 -0.1074988132235145 -0.2417259715343803 -0.01989186540615068 -0.2236897606510797 -0.3722025155225953 -0.3484118808878606 -0.5426167265266792 -0.4959308159761672 -0.6131925108733569 -0.3254413134182712 -0.3871111404031841 -0.7171264470375449 -0.4692087346053279 -0.3873053934270832 -0.5343925560412468 -0.4409621309421796 -0.0739310731194496 -0.6127916329804457 -0.1799785563848282 -0.2053030523964219 -0.3723366562013722 -0.3692977314165358 -0.5608661720254174 -0.3778168759954101 -0.4083628917085421 -0.7404923112230331 -0.4455845587733053 -0.1876645689221368 -0.7379784154343069 -0.3628580124623649 -0.07508060884277674 -0.6264234925954916 -0.4609210181741298 -0.3654018887688371 -0.7103509463454758 -0.4651070966835641 -0.3947889091789387 -0.4881417672708503 
0 1 2 3 4 5 6 7 8 9 10 11 12 13 14 15 16 17 18 19 20 21 22 23 24 25 26 27 28 29 30 31 32 33 34 35 36 37 38 39 40 41 42 43 44 45 46 47 48 49 50 51 52 53 54 55 56 57 58 59 60 61 62 63 64 65 66 67 68 69 70 71 72 73 74 75 76 77 78 79 80 81 82 83 84 85 86 87 88 89 90 91 92 93 94 95 96 97 98 99 100 101 102 103 104 105 106 107 108 109 110 111 112 113 114 115 116 117 118 119 120 121 122 123 124 125 126 127 128 129 130 131 132 133 134 135 136 137 138 139 140 141 142 143 144 145 146 147 148 149 150 151 152 153 154 155 156 157 158 159 160 161 162 163 164 165 166 167 168 169 170 171 172 173 174 175 176 177 178 179 180 181 182 183 184 185 186 187 188 189 190 191 192 193 194 195 196 197 198 199 200 201 202 203 204 205 206 207 208 209 210 211 212 213 214 215 216 217 218 219 220 221 222 223 224 225 226 227 228 229 230 231 232 233 234 235 236 237 238 239 240 241 242 243 244 245 246 247 248 249 250 604 605 606 607 608 609 610 611 612 613 614 615 616 617 618 619 620 621 622 623 624 625 626 627 628 629 630 631 632 633 634 635 636 637 638 639 640 641 642 643 644 645 646 647 648 649 650 651 652 653 654 655 656 657 658 659 660 661 662 663 664 665 666 667 668 669 670 671 672 673 674 675 676 677 678 679 680 681 682 683 684 685 686 687 688 689 690 691 692 693 694 695 696 697 698 699 700 701 702 703 704 705 706 707 708 709 710 711 712 713 714 715 716 717 718 719 720 721 722 723 724 725 726 727 728 729 730 731 732 733 734 735 736 737 738 739 740 741 742 743 744 745 746 747 748 749 750 751 752 753 754 755 756 757 758 759 760 761 762 763 764 765 766 767 768 769 770 771 772 773 774 775 776 777 778 779 780 781 782 783 784 785 786 787 788 789 790 791 792 793 794 795 796 797 798 799 800 801 802 803 804 805 806 807 808 809 810 811 812 813 814 815 816 817 818 819 820 821 822 823 824 825 826 827 828 829 830 831 832 833 834 835 836 837 838 839 840 841 842 843 844 845 846 847 848 849 850 851 852 853 854 855 856 857 858 859 860 861 862 863 864 865 866 867 868 869 870 871 872 873 874 875 876 877 878 879 880 881 882 883 884 885 886 887 888 889 890 891 892 893 894 895 896 897 898 899 900 901 902 903 904 905 906 907 908 909 910 911 912 913 914 915 916 917 918 919 920 921 922 923 924 925 926 927 928 929 930 931 932 933 934 935 936 937 938 939 940 941 942 943 944 945 946 947 948 949 950 951 952 953 954 955 956 957 958 959 960 961 962 963 964 965 966 967 968 969 970 971 972 973 974 975 976 
0.4795207564105837 0.9258828930548141 1.142719220036533 0.6443750448859207 0.09274763565522791 0.212161485975397 0.5793298730366372 0.2332912375938111 0.91131404439742 0.391844851768488 1.115140931326096 1.293818120319133 0.4152702047793393 1.212324202734592 0.9274942165500859 0.8011803043292588 1.036369749158828 0.8816295363169633 0.06246931901655006 1.290251712246444 0.1872099188087403 1.029967427366163 1.06708912612493 0.6532466709515324 0.4755929692832176 0.7654198032555448 0.3739455027810356 0.939602706106244 0.2151419376580883 0.242403478293414 1.207901555289891 0.4352273196294477 0.3393294863742864 0.05519711293541621 0.147005453864997 1.061554757819925 0.2001712563350962 0.07151254067552552 0.7545238686445961 0.4217048190858338 1.001106535447278 0.4756139329567859 0.9672848379024999 0.6677634890183846 1.058663216555868 0.9504186002097788 0.7814260057410806 0.2855540622347476 0.5622551105951584 0.4369394648436644 0.2508412701585262 0.5497038451366549 0.7117783887843838 0.1602490997477796 0.8127139919381312 0.732647600137013 1.188192874816955 0.7684898071264216 1.130029107263831 0.1748522605206929 0.5473487708127445 1.144403146963941 0.6403537345157413 1.015334496858324 0.7285853838785306 0.2516795067170788 0.779309818428226 0.005795716181507732 0.1401555985042196 0.1937729169298089 0.895462692421307 1.232036013751906 0.7764630265761611 0.547354355459474 0.20824206438365 0.2156836823067859 0.8724509835328074 0.5095039694495351 0.7199433472809578 0.7117322419643517 0.9432907118163646 0.5540976098719909 0.5493194190615656 0.08960507368235648 0.8385543459750291 0.8653818673638166 0.5173273350509285 0.4219437318883185 0.4506404439594673 0.4351772766718587 0.3546857541685156 0.7072981921485346 0.382108359971391 0.03654148559016648 0.1109885468436687 0.02586354902011269 0.2071593208830455 0.8377702465746686 0.3467497557774993 0.3798392769264323 0.3726826728063538 0.2203323890765876 0.1202892466495901 0.1793004291836477 0.6783768218998143 0.2062107158156201 0.02752096798081379 0.6977688686476839 0.274255671618722 1.333127768033814 0.8014268423827368 0.7194232031190834 0.2907329704577618 0.9596278874308708 0.625323620649791 0.8993014360947141 0.5414882646679933 0.5687549732862693 0.4871800399532545 1.266835825326853 0.8861309583868577 0.2814197601409356 1.084688833071363 0.3610819136179837 1.059563919165098 0.6159214153407755 0.9509846750082376 0.3233087673855299 0.3497211592339092 0.3612892858510329 0.7275944152446477 0.1771449501274266 0.362107899164831 0.4407255417049299 0.5502760587279799 0.6647881980630743 0.3442002822390307 0.2783507369631614 0.2794531742598602 0.6843496131786571 0.9602343167659598 0.8754756198006485 0.9939208069771283 0.5406435074446738 0.3346995728819999 0.8080511916485066 0.3795860008735621 0.1354419457968085 0.5607901243992104 0.1715164939897991 0.06523736536169525 0.1177487926896889 0.8874862025068095 0.8626462994439997 0.599865011226576 0.2715740140757392 0.4699456441947807 0.384997182794826 0.8376160756056796 0.70118690460907 1.277485053455398 1.183126158653562 0.9048389321438015 0.3428761137872608 0.1175521159194169 0.1957966675375238 0.08330234645497624 0.7970823403960495 0.6596196550081174 0.7912626166916441 0.1220832772829768 1.0508059310772 0.2111421006116763 0.1099167830007686 0.2035680658598785 0.1006620812894547 0.3038575172485259 0.3814546766459944 0.5933397368395149 0.7775029093353525 0.4462461004187015 0.7056382551731978 1.288256685907648 0.5956524524253268 0.6183577447492503 0.759190359927945 0.4129528673149759 0.2828803328133855 0.9610447574261354 0.1803446463342959 0.07909702079583274 0.4308373554872014 0.8580722724643466 0.01123077761235075 0.3351189013411965 0.9201985525375176 0.77579961335143 0.5869098224611529 1.011483230335767 0.5661366822813003 0.1335355306998209 0.4421486837266897 0.3452887969795354 0.310446071980823 0.7613542173358709 0.4493821239953201 0.635166115696759 0.4569522363918498 0.6309029419577984 0.03732899980609526 0.647043247957484 0.4598935461855624 0.8206045717599142 1.034287433659983 0.5180462890348185 0.6775325187038966 0.6661151379216287 1.283608648279066 0.3802087837695734 0.3415847651628109 0.5854500092515186 0.8205663410810148 0.1052012245738193 0.08034939443417004 0.7675436982158076 0.1944378272619416 0.04077770951687804 0.4254384672442492 0.5541701190866329 0.5389743020128925 1.030920872906526 0.5020618662041519 0.5536452930957951 0.7589312509046381 0.7769951342475878 0.2891228397679393 0.06130921179635949 0.8903457604653326 0.9396371530802934 0.04522104363293448 1.025231644850512 0.7956662574185208 0.7192337077675358 0.0258261014975878 0.2625526064295773 1.006541615845197 0.7469482865545676 0.2343902435472127 0.5707690219979097 0.4447832535741778 0.654627670060845 -0.5562409647109504 -0.58398126214777 -0.6104827488147823 -0.6853912786998466 -0.6357348403283086 -0.296564948850867 -0.5489905730133897 -0.4184277549552881 -0.05171927143319171 -0.183400665617137 -0.353001397005756 -0.2412913647982284 -0.08529999274182004 -0.2208581958436139 -0.1734089576950684 -0.2216313720423327 -0.2217782785398946 -0.29718947462638 -0.4054582107007194 -0.3963288529446815 -0.3050484536949421 -0.4569916899664871 -0.2200232194752189 -0.2279768248258135 -0.3483445983605676 -0.6000180032624451 -0.5707935238316783 -0.5274301816842268 -0.6469911394417333 -0.1606635308713444 -0.5533038128467617 -0.685352108803071 -0.5587525713500051 -0.6079150310094642 -0.2982132531921706 -0.4383252207363996 -0.4255618978982411 -0.4143514218206908 -0.5435251184289347 -0.2297975878175132 -0.6915265380107534 -0.5013567785529848 -0.1896853671708879 -0.2419581151172348 -0.2796613439690213 -0.2317448625430016 -0.3354646348555574 -0.1526073796534389 -0.3419998366405598 -0.2028828711827466 -0.6043102344840969 -0.5475370272960047 -0.4057679634359014 -0.3439939276751103 -0.3274822829121365 -0.5222344392710458 -0.6269404935142588 -0.4509525212134846 -0.1358653866463243 -0.5577444172070622 -0.4994304532174554 -0.6505495761513821 -0.3296378345587995 -0.3271398812878297 -0.3253092302567462 -0.5429909462823199 -0.484529887157211 -0.4379744799408783 -0.5095837362557905 -0.03717904144893312 -0.1693839909981307 -0.3824123357783505 -0.5897448224800191 -0.4617082806835373 -0.5858378027850775 -0.3599116611517245 -0.4809230454500089 -0.4002545646377365 -0.624502433004279 -0.2757885173744005 -0.6958172032584745 -0.09802325640734 -0.4031528937099436 -0.4676734679287513 -0.5000610198591544 -0.2540593571211832 -0.3241244359787321 -0.0297614447494032 -0.3193244906665256 -0.3091306846711757 -0.3011081449850521 -0.4358116906394456 -0.5464152273577534 -0.4108590355107787 -0.2598461399569321 -0.5688838305885755 -0.4722890467079748 -0.4050148481668555 -0.3978363138893021 -0.3101223181669375 -0.4971896800960739 -0.07934060614409735 -0.2758355538680636 -0.3221999032468265 -0.2011972850556626 -0.1738660396930214 -0.224496090268939 -0.05426436716155227 -0.5349923168749928 -0.439038339038193 -0.4237623828237949 -0.2052782609839899 -0.310175875769565 -0.645811343740111 -0.273851651397339 -0.4325268311509083 -0.1993245253573318 -0.539261975124764 -0.1251086417013481 -0.3781225955336505 -0.125520740463414 -0.4808813933531429 -0.3720212362946058 -0.4381813494963931 -0.1453454128797942 -0.1715129856162229 -0.5135596404287001 -0.192414120779579 -0.3604614048888841 -0.6031744880818505 -0.5602794354853806 -0.6578751064992362 -0.6701879728558375 -0.5182217842272725 -0.5804652141958544 -0.4857861466880641 -0.4173672805094756 -0.5834204802463699 -0.4636974923399886 -0.5575098138857185 -0.5765256987769916 -0.3635376647353946 -0.5870802817509846 -0.3435843934112549 -0.2546094020018566 -0.4645955357039007 -0.4082162506030064 -0.3537288737319642 -0.1009857531069076 -0.03191466224749054 -0.2734290650905637 -0.1154078677280831 -0.583926016280943 -0.3307862772204059 -0.1800159745186494 -0.4300283708151706 -0.2043633834401137 -0.4419873439886027 -0.5408822706713725 -0.69723357988614 -0.5038884015569639 -0.2990851457901543 -0.4055431525556287 -0.6225085851490935 -0.5121768245315949 -0.3754812038193984 -0.547584619029846 -0.2212260348253077 -0.644893824703437 -0.3542986015660115 -0.4766664246887869 -0.3350982846400972 -0.3174253661450616 -0.6281412808467562 -0.56421279735956 -0.1006790315772133 -0.3545897507755038 -0.4061455230059141 -0.1349084690942759 -0.6099058311725218 -0.5810540558916055 -0.5701708130332024 -0.005720263441014922 -0.1842087693296001 -0.2744972233192332 -0.4156189984122548 -0.1221305249076631 -0.5605160847184733 -0.2051670312878603 -0.5683022601797798 -0.371564262810439 -0.008736926383851575 -0.1856531791808089 -0.1984127443687353 -0.2124688133996667 -0.3499392228701808 -0.4046295998627652 -0.2820638033785868 -0.3834257002200104 -0.2408923422981305 -0.1803041615819809 -0.4486191899938872 -0.4303770647400134 -0.1583659307537314 -0.2767962766590216 -0.6315326857551853 -0.36600623982299 -0.5889941405163703 -0.4259795590744169 -0.60275394185437 -0.4643950887748028 -0.3920693721696251 -0.315620317355374 -0.4789633636338524 -0.4640287812353203 -0.05070489449325285 -0.6201913142745948 -0.53923771057758 -0.2588727193638091 -0.3551501048235161 -0.5870687076830375 -0.09825386270877047 -0.6967665256463638 -0.2582093559443883 -0.3762738946653957 -0.5244138276727948 -0.6479742349019894 -0.4897579210861985 -0.248267317263305 -0.2572535306787875 -0.4437201973902568 -0.4172155649118583 -0.1555805580489923 -0.02660110787201449 -0.1182894276531425 -0.350408341199953 -0.4397769419294749 -0.5037717798124679 -0.1875987678743679 -0.3549910190828381 -0.3728184459934971 -0.4906681152671228 -0.4803358265470971 -0.5133319245592957 -0.5044451005854371 -0.3545315592248993 -0.5259228379773091 -0.2440482154097842 -0.3107828059676232 -0.01086711774988439 -0.648170754122847 -0.1915312604436245 -0.3756593024051233 -0.5691898714510064 -0.2451138765153223 -0.5807647606832226 -0.4999515612702265 -0.5581695933815252 -0.5010810950127602 -0.5941560577277907 -0.3700175109369923 -0.63631166598626 -0.5254308582386286 -0.5159890755846486 -0.3162934736709292 -0.5244135853259593 -0.1295014782243546 -0.3729043648356158 -0.01530749992945843 -0.4916443205323952 -0.07883127412425123 -0.258754115326049 -0.4784381074387827 -0.08364284873155839 -0.4338119980511722 -0.5372838540223406 -0.4357678604047016 -0.5974675806105434 -0.4930220150944993 -0.4963137460558934 -0.4078972119313631 -0.4711960824201084 -0.3618834457423183 -0.3985209166524324 -0.01536460499571585 -0.3676038426612642 -0.1692453181509201 -0.3704857884127515 -0.6557209145047119 -0.4353307148699591 -0.6094264791777609 -0.442137931511824 -0.3641955439674083 -0.2304117217925053 -0.5141219737799732 -0.1040886426696965 -0.5566702281334769 -0.4845312337623341 -0.3872364893307915 -0.1458725330910881 -0.2333649833870526 -0.4016724492440629 -0.04245493965780206 -0.3858554097455064 -0.3356695892921885 -0.2037913044950311 -0.6971536326584902 -0.3197355206524882 -0.2534988248019914 -0.3767371704149293 -0.2854458340201038 -0.3767320863580438 -0.1728022779951274 -0.525630622747266 -0.303461065325495 -0.2699712550936277 -0.2969267024836462 -0.3233852074481549 -0.2245498125977895 -0.3662580179645309 -0.5731656115861201 -0.1489612543212819 -0.4969486140712126 -0.4608929342201407 -0.6082746369185462 -0.5843344079077719 -0.02466825439564466 -0.55210086402331 -0.5669269424837373 -0.5910656668743742 -0.5955362621012361 -0.2548833576960614 -0.4378412511544202 -0.2100174817565532 -0.238303405445432 -0.3832543753845666 -0.4026690043147353 -0.02971801321363219 -0.2932391910175809 -0.496050809675011 -0.04594679145297033 -0.1215468249657869 -0.2674712889208334 -0.4057721963548395 -0.2541946652631408 -0.3783639252209946 -0.3567670654484996 -0.5164749029979863 -0.6340114949173028 -0.2480580026219394 -0.302058243473449 -0.4183165447496854 -0.458919839206083 -0.6117102124295943 -0.627937272901794 -0.6078131623298352 -0.6612521576616894 -0.1527320654451683 -0.4118587292249217 -0.4935581554932959 -0.316276740118994 -0.1009052908755899 -0.2823811696527646 -0.2567815105538004 -0.3322106269164824 -0.2219627797077254 -0.4126656917046002 -0.5958900655491238 -0.3015385392691109 -0.2985548233503831 -0.4289890386198825 -0.595027125466247 -0.3868474151952278 
0 1 2 3 4 5 6 7 8 9 10 11 12 13 14 15 16 17 18 19 20 21 22 23 24 25 26 27 28 29 30 31 32 33 34 35 36 37 38 39 40 41 42 43 44 45 46 47 48 49 50 51 52 53 54 55 56 57 58 59 60 61 62 63 64 65 66 67 68 69 70 71 72 73 74 75 76 77 78 79 80 81 82 83 84 85 86 87 88 89 90 91 92 93 94 95 96 97 98 99 100 101 102 103 104 105 106 107 108 109 110 111 112 113 114 115 116 117 118 119 120 121 122 123 124 125 126 127 128 129 130 131 132 133 134 135 136 137 138 139 140 141 142 143 144 145 146 147 148 149 150 151 152 153 154 155 156 157 158 159 160 161 162 163 164 165 166 167 168 169 170 171 172 173 174 175 176 177 178 179 180 181 182 183 184 185 186 187 188 189 190 191 192 193 194 195 196 197 198 199 200 201 202 203 204 205 206 207 208 209 210 211 212 213 214 215 216 217 218 219 220 221 222 223 224 225 226 227 228 229 230 231 232 233 234 235 236 237 238 239 240 241 242 243 244 245 246 247 248 249 250 977 978 979 980 981 982 983 984 985 986 987 988 989 990 991 992 993 994 995 996 997 998 999 1000 1001 1002 1003 1004 1005 1006 1007 1008 1009 1010 1011 1012 1013 1014 1015 1016 1017 1018 1019 1020 1021 1022 1023 1024 1025 1026 1027 1028 1029 1030 1031 1032 1033 1034 1035 1036 1037 1038 1039 1040 1041 1042 1043 1044 1045 1046 1047 1048 1049 1050 1051 1052 1053 1054 1055 1056 1057 1058 1059 1060 1061 1062 1063 1064 1065 1066 1067 1068 1069 1070 1071 1072 1073 1074 1075 1076 1077 1078 1079 1080 1081 1082 1083 1084 1085 1086 1087 1088 1089 1090 1091 1092 1093 1094 1095 1096 1097 1098 1099 1100 1101 1102 1103 1104 1105 1106 1107 1108 1109 1110 1111 1112 1113 1114 1115 1116 1117 1118 1119 1120 1121 1122 1123 1124 1125 1126 1127 1128 1129 1130 1131 1132 1133 1134 1135 1136 1137 1138 1139 1140 1141 1142 1143 1144 1145 1146 1147 1148 1149 1150 1151 1152 1153 1154 1155 1156 1157 1158 1159 1160 1161 1162 1163 1164 1165 1166 1167 1168 1169 1170 1171 1172 1173 1174 1175 1176 1177 1178 1179 1180 1181 1182 1183 1184 1185 1186 1187 1188 1189 1190 1191 1192 1193 1194 1195 1196 1197 1198 1199 1200 1201 1202 1203 1204 1205 1206 1207 1208 1209 1210 1211 1212 1213 1214 1215 1216 1217 1218 1219 1220 1221 1222 1223 1224 1225 1226 1227 1228 1229 1230 1231 1232 1233 1234 1235 1236 1237 1238 1239 1240 1241 1242 1243 1244 1245 1246 1247 1248 1249 1250 1251 1252 1253 1254 1255 1256 1257 1258 1259 1260 1261 1262 1263 1264 1265 1266 1267 1268 1269 1270 1271 1272 1273 1274 1275 1276 1277 1278 1279 1280 1281 1282 1283 1284 1285 1286 1287 1288 1289 1290 1291 1292 1293 1294 1295 1296 1297 
0.4002050184160232 0.7729448789624318 0.9541198722689652 0.5377819397422685 0.07666410600826623 0.1772115117731774 0.4838030813936395 0.1940299999405289 0.7606183819178924 0.3275822081079161 0.9320139477183774 1.114704016951048 0.3458854232396666 1.012461612628001 0.7742883263018943 0.6686763243099967 0.8649502097529158 0.7359176564424258 0.05188433025837538 1.076918539790143 0.1556541522741898 0.860112530238232 0.8912436436384839 0.5454168299968923 0.3971091943896825 0.6393840037000592 0.3119987674070644 0.7842933075035364 0.1796860000382264 0.2022233952900213 1.008314646325503 0.3632936634868001 0.2824718503317808 0.04628213186428022 0.1226762454071901 0.8866327977736091 0.1669261821174506 0.0588163143375867 0.6298881225851989 0.3525063479016608 0.8358164400616028 0.3974108778972582 0.8125620723957784 0.5572231729085397 0.8841733394931717 0.7932367074963168 0.6523796334941122 0.2380119736818416 0.4690879625426608 0.3647008717600818 0.2093951254409594 0.458637244306498 0.594585377419048 0.1313982614899381 0.6782009136681254 0.6116684896518804 0.9910498304050084 0.64108841330351 0.9435754524691821 0.1457878618610952 0.4576338183944225 0.9551587678921662 0.5349383636449023 0.8477991049017735 0.6081701919890945 0.2096247882592727 0.6506418844607216 0.005053743521162917 0.116225836246675 0.1611151365775197 0.7487907961480651 1.028517220126539 0.6477590434695851 0.4570074545285042 0.1742272475725791 0.1792980588142754 0.7286569949092319 0.425520731819235 0.6024612088535946 0.5942266565164164 0.7873837077333316 0.462785583062654 0.458542017675129 0.07446829114436938 0.7001518002905001 0.722793561856202 0.4325568844858647 0.352240951996513 0.3753893723012902 0.3634076060321449 0.2955007234983954 0.5894927676330484 0.3183245264050613 0.04028612247833858 0.09321262985152282 0.0216702612427319 0.1724091427137842 0.6995624031255109 0.2885741760047277 0.3173422024395123 0.3106040877181955 0.1836036555331429 0.1002883138232982 0.1500121561824678 0.5663021131039728 0.172533100995851 0.02567881246437814 0.5888922771137539 0.229662582123127 1.07729699807006 0.6691387149100447 0.6006925689360838 0.2425896758417785 0.8013413184378606 0.5218117469182464 0.7508374617295868 0.452488355186537 0.4750406554453036 0.4066772733332523 1.057473339378006 0.7392424853504992 0.2348105556054352 0.9034185680956074 0.301468493494192 0.8844018721778899 0.5142279492894174 0.7941426423694509 0.2737751772935135 0.2921420248966151 0.3016147667693747 0.608923139480804 0.1478053975683682 0.3017243350337646 0.3680140578483748 0.459845694069773 0.5554883747013959 0.2879456101978545 0.2306524687007317 0.2319965063030498 0.5711225432521009 0.8019023689290783 0.731153261983671 0.8278990646953426 0.4506160891170947 0.2779571866987249 0.6750579027768864 0.3164378733103342 0.1136718455059747 0.4682192773255747 0.1428854755574699 0.05420218933341778 0.09872227061250061 0.7421542201159685 0.7203538519821691 0.5009604290779245 0.2257825382065167 0.3923673226981738 0.3218683595886229 0.6988060827467227 0.5850404891557563 1.066221687506071 0.9884531530273685 0.7555655638384045 0.2860108052661416 0.09798860996795283 0.1624805236014338 0.06911136141535675 0.676258788675096 0.5511355943042524 0.6688455758374119 0.104655249752609 0.8796130311223492 0.1752848639571091 0.09216021426280818 0.1698944347998998 0.08394672172789704 0.2533480164498508 0.3184407590028306 0.4951824729845891 0.6491415623885264 0.3848616450350864 0.5889926536850368 1.075579652556999 0.5035342628167507 0.5165406961374874 0.6333064857401397 0.3447413997537049 0.2365367178662035 0.8021312654376276 0.1506753707031553 0.06554644536072089 0.3589890977961478 0.7166872108174615 0.009676627544401371 0.2798756864585945 0.7715786676470262 0.6476896291418744 0.4896236869576047 0.8448510835613626 0.4722288714343788 0.1115072233741137 0.3692106316508909 0.2938851330971265 0.2579586413322487 0.6355922098655723 0.3753238512965633 0.541157423017006 0.3800741132869259 0.5309605648577844 0.03268557166424221 0.5411762846138271 0.3838769041251426 0.6855068443503979 0.8634736606059924 0.4325990123327063 0.565838829385689 0.5571642119242696 1.071764665760099 0.317485331551414 0.2843253176330609 0.4886482388694939 0.6858604396692858 0.0877113611929653 0.06669519859353279 0.6406488274444883 0.162425661847158 0.03413486081058054 0.35505890765272 0.4624771364051724 0.450052393435795 0.8607758919912079 0.4187855642758811 0.4624269136413399 0.6334763167983635 0.6482846301156816 0.2508548362617186 0.05247585270958258 0.7492970618369004 0.7844313609737067 0.03669041407133748 0.8550552440864791 0.6645414737631115 0.6017087202663689 0.02145708122313193 0.2185745864584763 0.8399157798559773 0.6249608887883604 0.1959219366851673 0.4770756480534119 0.3714039797895976 0.546651256530988 -0.5328403370118775 -0.08559782594036558 -0.2832241513649015 -0.2458331567817114 -0.1288076599654961 -0.2423042827296354 -0.2730041098668509 -0.4056509476592399 -0.3370423874668209 -0.5119525313469143 -0.1220557093194035 -0.3589472524576701 -0.4832668030143412 -0.2497217626422748 -0.005294488783218257 -0.2941590213502634 -0.317594541487952 -0.02510863510756275 -0.2137753505493711 -0.04516067190841704 -0.4706094207437881 -0.5725209420980479 -0.04612379760739072 -0.4443368684186628 -0.3014908408001504 -0.08006943584766509 -0.5282916867664599 -0.28987190515807 -0.1896905585416981 -0.5060892136409532 -0.7002009965777981 -0.5594351929753856 -0.8000556140475354 -0.5054983240120229 -0.3988456420301891 -0.1313646728345869 -0.1114393388428962 -0.4425933814614501 -0.525811499432468 -0.05902652847161063 -0.4796322724060705 -0.3292697859377346 -0.561122278750142 -0.01541037954440893 -0.1272809429569153 -0.0466145239933056 -0.4941681869337154 -0.5448415221107534 -0.2588025644812398 -0.3304837829372094 -0.4811121280449939 -0.2475690475436301 -0.6644287319804418 -0.3859460863716591 -0.1562060020221046 -0.3884504161076785 -0.4301712185421873 -0.3516111430832968 -0.0384051772939393 -0.4507879418217246 -0.2327774336632173 -0.2397283505779627 -0.6614713629809461 -0.7954798186077879 -0.7611574296838869 -0.4742024114576519 -0.02789407990531736 -0.2873669481715882 -0.456470230133968 -0.203367508996104 -0.2643499439012814 -0.4075031810305083 -0.2365005038377493 -0.6050651404276215 -0.4624484621383673 -0.3093290647322398 -0.1859065817705814 -0.7469301138518704 -0.1923051131245457 -0.2253902628503694 -0.1264873181694573 -0.677805646987489 -0.1986818783724466 -0.4238450608524128 -0.2508820685233543 -0.3512293806164958 -0.3105965507992509 -0.005620736810500251 -0.5116021796262626 -0.4053622040910207 -0.4527176903298243 -0.5824210080124801 -0.4529172994629359 -0.4261211228127447 -0.48940907102044 -0.2089173009153714 -0.7667110438957301 -0.40217929948623 -0.3879531896026449 -0.2603210642569532 -0.5870467441335013 -0.102488277642724 -0.1320367119120031 -0.4405575273462333 -0.0655609658788574 -0.3886397798556321 -0.02156431536629343 -0.2227195952980421 -0.5227509477362299 -0.2316734632340239 -0.6396922709469367 -0.02472021657748877 -0.2738696256543676 -0.5043359786288009 -0.7580984165850304 -0.4732290605690255 -0.3156896537663859 -0.3995500105739415 -0.3541879694918574 -0.191059863205765 -0.8368038275867781 -0.1897411199439927 -0.7806874872447248 -0.0226528792657129 -0.4992102121808634 -0.2496267415309303 -0.1479099650987487 -0.06800138481557887 -0.2727913838143319 -0.1996343401813378 -0.7125037174580943 -0.3431379501841573 -0.4544497163596575 -0.1742926409033318 -0.5530309921566663 -0.337137008657211 -0.2447684447821869 -0.2934206420466562 -0.4285762655048867 -0.3057199373426276 -0.6427034825378026 -0.591627411673585 -0.9118976702138603 -0.8362537783974632 -0.5845204305027604 -0.6136383720447111 -0.9003341079810001 -0.4123861900282456 -0.1251081719116351 -0.2803275896619754 -0.266452765007075 -0.4504032662914719 -0.6707459675696007 -0.7321182654836083 -0.6754327602088902 -0.5126763309182001 -0.3337062424957714 -0.0696302071407679 -0.07657557527455058 -0.4315821880491892 -0.2041713902788611 -0.6832713616686867 -0.6987286534655043 -0.2867262524024503 -0.4565805462494757 -0.04199463885882862 -0.09057304732935378 -0.1267784446051271 -0.06601490643585102 -0.4639224126157948 -0.5822562281293324 -0.1433008617490347 -0.1153998426243176 -0.08805168292719806 -0.5386030287406049 -0.2718605749316963 -0.2387691658037041 -0.2211817099321527 -0.3272753148181582 -0.2290012319410362 -0.5368938702367638 -0.4242357224878701 -0.546285384418991 -0.7123939881363296 -0.03115278060690404 -0.4049193078518227 -0.2505322453129173 -0.7025216621895277 -0.1461652695476142 -0.3905280957656381 -0.09698021177526896 -0.4328095709218937 -0.1127465537395962 -0.3583400802909701 -0.3385690680479657 -0.6801094333655451 -0.7671832463080894 -0.6678283676429186 -0.2134411965064281 -0.6096618787605264 -0.1746851768167436 -0.6999910199135677 -0.7061034447487722 -0.5272520804871197 -0.1526736463925744 -0.227343562679631 -0.4699470685868528 -0.0331265274009693 -0.2320429478086916 -0.1773128261345285 -0.5035280272734218 -0.05668753846452817 -0.494748028669199 -0.06282224979130803 -0.1012523582337575 -0.5101813189842545 -0.05590486728859353 -0.6966250314876904 -0.5492371618561984 -0.006760545658667476 -0.1599558431606997 -0.4971139866529158 -0.3664868074211477 -0.1296655730204331 -0.7246704370845888 -0.2418939281903954 -0.566330986787125 -0.5940998084165374 -0.4058434140720367 -0.2096923049849157 -0.02177357412902135 -0.3484729351995633 -0.1278030446361963 -0.3250889941112056 -0.01605823392457414 -0.4165709005869404 -0.3584879369910615 -0.9089835136907892 -0.5376224672264382 -0.396023007452587 -0.4844885298262955 -0.6688545313602745 -0.2817065066136063 -0.5883718216610967 -0.3221376032420364 -0.7642111268796288 -0.1197297719142664 -0.6642000184337167 -0.8081978824057829 -0.04999167885725633 -0.6791166986669717 -0.414164118711324 -0.08043412844266194 -0.5475072624430867 -0.2053136986802182 -0.856513391697264 -0.4021498595606707 -0.00204180085639489 -0.02067665959784098 -0.2156417566681 -0.06752036166302036 -0.3035184122960037 -0.5732798001709216 -0.8217275767915428 -0.7414934877365096 -0.625223475931974 -0.6859847935304314 -0.8808553278617128 -0.3779422201293657 -0.4229736719194095 -0.775385933913573 -0.3884966805779871 -0.5998419118856209 -0.5167245199797664 -0.09852574659414533 -0.7391085533098796 -0.4007641774936034 -0.09178878372051485 -0.1467593282557043 -0.01651963825150539 -0.7663095483480455 -0.1845752255933533 -0.6541795599456269 -0.1424748513498558 -0.08001760184616677 -0.5486023226072131 -0.05238637356486766 -0.3824009237967627 -0.09391425519281216 -0.1020673662089878 -0.459028711820277 -0.6448826215769973 -0.7511382727419751 -0.3276952135556301 -0.1345856727209202 -0.7969923787452712 -0.4871776587771086 -0.502626210342205 -0.3320723108789231 -0.1975583735083052 -0.4508312041593501 -0.1197227394535876 -0.3861003440567297 -0.0479713605720755 -0.5910932796814425 -0.05704029539273608 -0.3918369034666475 -0.3674482419238352 -0.6256274235111259 -0.6235210081454698 -0.5676746825954521 -0.3257392881746057 -0.3474173849032615 -0.09004041212400385 -0.02808821953408403 -0.509148001783399 -0.4019900948848042 -0.5235287973303623 -0.3627536364162503 -0.0286801849492977 -0.2241402584020822 
0 1 2 3 4 5 6 7 8 9 10 11 12 13 14 15 16 17 18 19 20 21 22 23 24 25 26 27 28 29 30 31 32 33 34 35 36 37 38 39 40 41 42 43 44 45 46 47 48 49 50 51 52 53 54 55 56 57 58 59 60 61 62 63 64 65 66 67 68 69 70 71 72 73 74 75 76 77 78 79 80 81 82 83 84 85 86 87 88 89 90 91 92 93 94 95 96 97 98 99 100 101 102 103 104 105 106 107 108 109 110 111 112 113 114 115 116 117 118 119 120 121 122 123 124 125 126 127 128 129 130 131 132 133 134 135 136 137 138 139 140 141 142 143 144 145 146 147 148 149 150 151 152 153 154 155 156 157 158 159 160 161 162 163 164 165 166 167 168 169 170 171 172 173 174 175 176 177 178 179 180 181 182 183 184 185 186 187 188 189 190 191 192 193 194 195 196 197 198 199 200 201 202 203 204 205 206 207 208 209 210 211 212 213 214 215 216 217 218 219 220 221 222 223 224 225 226 227 228 229 230 231 232 233 234 235 236 237 238 239 240 241 242 243 244 245 246 247 248 249 250 1298 1299 1300 1301 1302 1303 1304 1305 1306 1307 1308 1309 1310 1312 1313 1314 1315 1316 1317 1318 1319 1320 1321 1322 1323 1324 1325 1326 1327 1328 1329 1330 1331 1332 1333 1334 1335 1336 1337 1338 1339 1340 1341 1342 1343 1344 1345 1346 1347 1348 1349 1350 1351 1352 1353 1354 1355 1356 1357 1358 1359 1360 1361 1362 1363 1364 1365 1366 1367 1368 1369 1370 1371 1372 1373 1374 1375 1376 1377 1378 1379 1380 1381 1382 1383 1384 1385 1386 1387 1388 1389 1390 1391 1392 1393 1394 1395 1396 1397 1398 1399 1400 1401 1402 1403 1404 1405 1406 1407 1408 1409 1410 1411 1412 1413 1414 1415 1416 1417 1418 1419 1420 1421 1422 1423 1424 1425 1426 1427 1428 1429 1430 1431 1432 1433 1434 1435 1436 1437 1438 1439 1440 1441 1442 1443 1444 1445 1446 1447 1448 1449 1450 1451 1452 1453 1454 1455 1456 1457 1458 1459 1460 1461 1462 1463 1464 1465 1466 1467 1468 1469 1470 1471 1472 1473 1474 1475 1476 1477 1478 1479 1480 1481 1482 1483 1484 1485 1486 1487 1488 1489 1490 1491 1492 1493 1494 1495 1496 1497 1498 1499 1500 1501 1502 1503 1504 1505 1506 1507 1508 1509 1510 1511 1512 1513 1514 1515 1516 1517 1518 1519 1520 1521 1522 1523 1524 1525 1526 1527 1528 1529 1530 1531 1532 1533 1534 1535 1536 1537 1538 1539 1540 1541 1542 1543 1544 1545 1546 1547 1548 1549 1550 1551 1552 1553 1554 1555 1556 1557 1558 1559 1560 1561 1562 1563 1564 1565 1566 1567 1568 1569 1570 1571 1572 1573 1574 1575 1576 1577 1578 1579 1580 1581 1582 1583 1584 1585 1586 1587 1588 1589 1590 1591 1592 1593 1594 1595 1596 1597 1598 1599 1600 1601 1602 1603 1604 1605 1606 1607 1608 1609 1610 1611 1612 1613 1614 1615 1616 1617 1618 1619 1620 1621 1622 1623 1624 1625 1626 1627 1628 1629 1630 1631 1632 1633 1634 1635 1636 1637 1638 1639 1640 1641 1642 1643 1644 1645 1646 1647 1648 
0.4532905126401741 0.8756523385909336 1.080514518832402 0.6093754332786678 0.0872710462420119 0.2005605070270988 0.5480435836778288 0.2209281855281042 0.8618631560135039 0.3708480472430291 1.054757322208533 1.223935069940509 0.3924217373547946 1.146804423034974 0.8772520328710471 0.7578584240822479 0.9796484837401666 0.8338034220773873 0.05896188904031027 1.220559455983098 0.1769790175325547 0.9744564046980818 1.009048518712983 0.6180566140242568 0.4502396789987176 0.7242057018517891 0.3537133022110631 0.8880335840247113 0.2031733109624152 0.2292721681932954 1.142414312218276 0.4120494062680767 0.3209156624328821 0.05230647833327681 0.1396336869831236 1.004009078998185 0.1894403371889866 0.06730090323548944 0.7144139708369996 0.3993448432051979 0.9470423581245743 0.4502221655001492 0.9138568798144223 0.6311906585212791 1.001205651266424 0.8987758467813589 0.739075486471238 0.269807137599212 0.531651278323574 0.4132191094187686 0.2373432581485194 0.5197838371226066 0.6727795606948788 0.1515595328442876 0.7685464737584737 0.6933252763647686 1.123356416265894 0.7272700644505754 1.068807636295713 0.1649228146084259 0.5184893826637748 1.082250576327912 0.6061498576756086 0.9602951196407306 0.6889888099525736 0.2380870316669205 0.7370161585802653 0.005884660769196978 0.1319509785366201 0.1831567233731769 0.8467643053427466 1.165787615439859 0.7344139628246545 0.5176040666977599 0.1969506766442096 0.2039659466855128 0.825291849579165 0.4822195263403097 0.6810505941424808 0.6738182621437605 0.8924579876667801 0.5242023556110614 0.5199504075814316 0.08479636543090956 0.7932216114529083 0.8189868541352293 0.4903585002537986 0.3993414195881814 0.4256961521250538 0.4115881980557956 0.3348544837204218 0.6689178852991701 0.3612552531212913 0.03475389079568705 0.1050301812341765 0.02452311560390932 0.1956326126814579 0.7924640103786543 0.3281486008772316 0.3588124714273711 0.3523458517094236 0.2081877383910267 0.1141108041351104 0.1694735443407653 0.6417200178728604 0.1947320899825822 0.0264608290016507 0.6595873727792372 0.2585541957076303 1.220419687936027 0.7585677056671269 0.6802956333679214 0.2753684260295782 0.9075794370760358 0.5912616924904239 0.8504975602442091 0.513169328427183 0.5380535475803327 0.4615249435026363 1.198052845642553 0.8382587192497968 0.2657929511880249 1.023252573423878 0.3411258745145267 1.003309214861139 0.5828317360823296 0.8992867787674785 0.3055373549962422 0.3313915331742741 0.3416921871766853 0.6885043535000013 0.1673482486848613 0.342100380007904 0.4166643088365469 0.5208940726342183 0.628919044066701 0.3255611097940848 0.2632202069771563 0.2645761163070361 0.6476020398801171 0.9082078964758806 0.8284870230510514 0.9379983995905463 0.5105693901884739 0.3144337956030461 0.7644394195387416 0.3592529838556265 0.1285123559840385 0.529880470374245 0.1621177298037964 0.06169767260289638 0.111904990911284 0.839525902891008 0.816187005960017 0.5670832780418668 0.2569043514990025 0.4444228038863836 0.3643627706541451 0.791699506191638 0.6631800191034952 1.208103213940647 1.119108960846144 0.8557863328373765 0.3245272616341019 0.1111358160693351 0.1846551418044958 0.0784858668459571 0.7533819325642076 0.6240077959521788 0.7481441182634769 0.115710155153584 0.9938612126845522 0.2003692225087986 0.1045137024551926 0.1931259278299504 0.09553757140435253 0.2874103013506886 0.3609045939839948 0.5605582006427537 0.7355231785272767 0.4223589605511845 0.6675293368229929 1.217017112951602 0.5629989110355718 0.5851937377643897 0.7182006629989247 0.3910093518156162 0.2678351560611222 0.9090426064700423 0.1705554723189621 0.07503227352747899 0.4071573875891517 0.8118092628644258 0.01037988606023789 0.3177356551091902 0.8703475720686631 0.7334848011210029 0.5547658754865104 0.9569363628489425 0.5357145181044263 0.1262875434705217 0.4182843797080865 0.3267124922305085 0.2935032219024983 0.7200237400319154 0.4254864261258127 0.6010338031519193 0.43172772454891 0.5957568517090742 0.03513022648777268 0.6123433791964544 0.4351792682803546 0.7760846663619986 0.9782363308932754 0.4900936352204689 0.6409590421652658 0.6308779054015911 1.214123263112668 0.3600840693992796 0.3228060307647492 0.5535942069848445 0.7765966928153349 0.09992982900479808 0.07530814954027948 0.7255499571209707 0.1847832214896725 0.03871318454145352 0.4022287359034579 0.525011397061194 0.510067096824681 0.9751587585017455 0.4752673509411331 0.5239680163286898 0.7181039930131707 0.7346858625379423 0.2736249013082999 0.05758457686262067 0.8424948945648093 0.8887255345395788 0.04240340633130273 0.968823009890451 0.753212822604821 0.6803065567701247 0.02404201809895609 0.2481451277500768 0.9511975960132648 0.7068176007290862 0.2218179498896699 0.5396571422993398 0.4207678608271072 0.619341530776063 -0.412055242711891 -0.08616793105375475 -0.3599961648273413 -0.3492956357581632 -0.2130009426664798 -0.1531841850849906 -0.2738933634998281 -0.1277356004270608 -0.4017266313439039 -0.3577288952387158 -0.4444478908844215 -0.05205727789786471 -0.4965462373175939 -0.03848568232140843 -0.04091904852424385 -0.3259443800328813 -0.550841994622673 -0.316353945081319 -0.2046818306261912 -0.3138676108462455 -0.3937813961907065 -0.04656510369415891 -0.2231035149845758 -0.4492579955795629 -0.3801209604169806 -0.4175872089687735 -0.5867659642906947 -0.4172552558692876 -0.6748270148119401 -0.2981748808024561 -0.6566001807920167 -0.4909881422840529 -0.1948805101517928 -0.2994590751185333 -0.3894909206828138 -0.1848880697902023 -0.4163746658248482 -0.0248534858668425 -0.4566462599264877 -0.04812349045081583 -0.0844873657189136 -0.1456338081708558 -0.1725534666552924 -0.2971980429654478 -0.1967920739755981 -0.08595054924869758 -0.1938204567315445 -0.6092772702045337 -0.04558473040202354 -0.1238820999582323 -0.2410466854728454 -0.05399181362624416 -0.3444528093826749 -0.4131714658506835 -0.4340212682639151 -0.07159408242675197 -0.4917878234650624 -0.02515858839703127 -0.1488602009775346 -0.5467787453515577 -0.6914598667347802 -0.591127945423879 -0.435737108978224 -0.4382337093693185 -0.698333167054749 -0.6668966805085501 -0.7045751019090083 -0.6769863050250366 -0.2664073923923534 -0.288088934252127 -0.5805015494770913 -0.3249724344435206 -0.3141690187060394 -0.4833559825618579 -0.03829427287589259 -0.2863678379729952 -0.2858770714082245 -0.3567111934476402 -0.6900992432637484 -0.5575598998270632 -0.1604251809668489 -0.4243919279635802 -0.3306578041317036 -0.6268462068543977 -0.5522424373086777 -0.310425702613067 -0.358403731152537 -0.327808231935431 -0.615459846706879 -0.6766629829424138 -0.4196328568446391 -0.7078970041931311 -0.4810912931472577 -0.4589885291615609 -0.2381163448609264 -0.4146700922416203 -0.4370558265337603 -0.3336723499850189 -0.3895923842511404 -0.6745970844697138 -0.0537666380180086 -0.3782584056832085 -0.7261855403769347 -0.6096958077886022 -0.3618630859681326 -0.3840753571721106 -0.6403452004905229 -0.1856890511391802 -0.329289934232498 -0.6006245255529373 -0.1559625813180306 -0.1233406711363001 -0.3594826044619384 -0.438180558619614 -0.6069021082752305 -0.5010416133285995 -0.2381234267560716 -0.6057256502626518 -0.3660991219975251 -0.2725879352618477 -0.7062271952738249 -0.5214301657706235 -0.4451898885022821 -0.3742669861663562 -0.4187146409035981 -0.4467576791040626 -0.399571688173651 -0.6388936451960514 -0.6179625118758543 -0.3284055870694073 -0.7636562377621768 -0.4134699824768023 -0.5178407483548605 -0.5021690249317429 -0.6779334120666664 -0.6865061799540461 -0.6110918521900778 -0.7406848317625339 -0.6449436646987049 -0.5518994715460138 -0.3140908888484996 -0.5045098735711478 -0.212635875288734 -0.1629734875001098 -0.3787040972690943 -0.3826728302843865 -0.366678838386955 -0.5958814691145125 -0.3042982926546487 -0.3370224620786049 -0.5880401758063291 -0.4264180837628808 -0.2245880028524454 -0.5409626320361618 -0.4542314903074245 -0.7386821600753396 -0.4010331953596218 -0.5280013320428183 -0.6353739576008565 -0.5816861735251009 -0.09140326021485738 -0.472238280926674 -0.4737408167110662 -0.3970962621731658 -0.3884484789535154 -0.1647800475697984 -0.567302573066463 -0.3973502455696337 -0.4808213941677315 -0.449239156813259 -0.3253085887183966 -0.4092976717748325 -0.4620300597009316 -0.5934729966948665 -0.5765015086516103 -0.3334868715827021 -0.6940417830939088 -0.703910074517873 -0.677420062074105 -0.6268323815957761 -0.1823605218469077 -0.1109212646224881 -0.009522412103596691 -0.04243053245939677 -0.1521630857678607 -0.7501030347534341 -0.7376373791549338 -0.2515490333988617 -0.1985648194427722 -0.5828513436244671 -0.3971555336409911 -0.4585414601031345 -0.5912522603836234 -0.560153617530035 -0.679740984316348 -0.2104766985953287 -0.1459461750129254 -0.1734781170621 -0.1231625924433353 -0.3599944237498242 -0.2315240731529245 -0.4153496996648811 -0.228542497315786 -0.4232483184051048 -0.6625400625656638 -0.1670835950531597 -0.04690263342887287 -0.1347384114221776 -0.7372844410171449 -0.04793602455284773 -0.4063977806138213 -0.3770424933454901 -0.3123433274600924 -0.6601736239609078 -0.1825795620452383 -0.6835970386627642 -0.712231962606495 -0.2750897661115564 -0.3395366555817723 -0.3429523827613126 -0.1738524589018091 -0.6831209133134563 -0.3020835528585598 -0.5763561276584072 -0.09146131401015663 -0.2439726195354803 -0.5170579406327193 -0.438243885711511 -0.4737327797373457 -0.6114754399164783 -0.418384612734132 -0.07915607872511093 -0.1320641347778109 -0.3797669455827344 -0.5037404873233657 -0.2236944110721118 -0.03694508298099174 -0.1861095881890939 -0.04880823964666813 -0.1822060876035398 -0.4607363476977802 -0.5904306376724733 -0.6345113003437751 -0.5019293806848989 -0.4603834596233327 -0.627411333196594 -0.4302120309817649 -0.3795297050561713 -0.2935891873354729 -0.2445653443595921 -0.2651548445791543 -0.30697735278638 -0.2342876960270209 -0.1764337355766483 -0.6477669948449614 -0.420937739440454 -0.5635078724557057 -0.3669885989177214 -0.4043337969284726 -0.2712660765686875 -0.2680641425474387 -0.2806169661652703 -0.5644330825917979 -0.7531216947079259 -0.5301473440788029 -0.06303085848426487 -0.1648863375618252 -0.1019243762119699 -0.2373937199897466 -0.4918164516815155 -0.03169193288795916 -0.05698402766368939 -0.4712769367724559 -0.4289356126009482 -0.6333101341787256 -0.3619649731757951 -0.22256646537994 -0.305424719000119 -0.3105177923020574 -0.3594000072183668 -0.4581523299353961 -0.2485040449477786 -0.3904482325489075 -0.3168955183567474 -0.7635705240565916 -0.1795190078922238 -0.1457965877548374 -0.2607922915715343 -0.03233169222278155 -0.176579906724601 -0.1057826643605299 -0.5819506459667695 -0.4519698435146314 -0.2681734738623568 -0.3721626319090059 -0.2135787496568197 -0.6539217552204258 -0.4981524156705106 -0.4681722179789908 -0.3776457266049352 -0.3610656762979705 -0.296497556267819 -0.02509269078829718 -0.280760098033021 -0.6018611762965271 -0.5707628335969546 -0.5578724237926449 -0.3506998712880514 -0.3899059921850505 -0.3945522389570668 -0.3899322285083543 -0.5400354822896384 -0.2547076820906311 -0.07588885017419907 -0.2889881546249874 -0.3537891897333696 -0.5249289362986168 -0.5020301115317064 -0.03476246061684728 -0.6135991459541653 -0.6971828490321846 -0.701805215719006 -0.4984519651393438 -0.4468194737531253 -0.6785531284441444 -0.6460404648615043 -0.00582008774978799 -0.3903185810910637 -0.498045710468602 -0.4970951178805083 -0.3208449200239055 -0.5547790119070461 -0.2391797976855936 -0.03553899677273096 -0.4603124583717398 -0.2250407763188858 -0.1952873974620208 -0.3473846420171928 -0.4014561308535168 -0.6200349993467269 -0.7381652911787741 -0.3695315387823511 -0.5391008765576605 -0.434200546986639 -0.3076927888353204 -0.459901224090937 -0.3748952759777394 -0.5482228854750496 -0.1341638190282087 -0.3228787940865329 
0 1 2 3 4 5 6 7 8 9 10 11 12 13 14 15 16 17 18 19 20 21 22 23 24 25 26 27 28 29 30 31 32 33 34 35 36 37 38 39 40 41 42 43 44 45 46 47 48 49 50 51 52 53 54 55 56 57 58 59 60 61 62 63 64 65 66 67 68 69 70 71 72 73 74 75 76 77 78 79 80 81 82 83 84 85 86 87 88 89 90 91 92 93 94 95 96 97 98 99 100 101 102 103 104 105 106 107 108 109 110 111 112 113 114 115 116 117 118 119 120 121 122 123 124 125 126 127 128 129 130 131 132 133 134 135 136 137 138 139 140 141 142 143 144 145 146 147 148 149 150 151 152 153 154 155 156 157 158 159 160 161 162 163 164 165 166 167 168 169 170 171 172 173 174 175 176 177 178 179 180 181 182 183 184 185 186 187 188 189 190 191 192 193 194 195 196 197 198 199 200 201 202 203 204 205 206 207 208 209 210 211 212 213 214 215 216 217 218 219 220 221 222 223 224 225 226 227 228 229 230 231 232 233 234 235 236 237 238 239 240 241 242 243 244 245 246 247 248 249 250 1649 1650 1651 1652 1653 1654 1655 1656 1657 1658 1659 1660 1661 1662 1663 1664 1665 1666 1667 1668 1669 1670 1671 1672 1673 1674 1675 1676 1677 1678 1679 1680 1681 1682 1683 1684 1685 1686 1687 1688 1689 1690 1691 1692 1693 1694 1695 1696 1697 1698 1699 1700 1701 1702 1703 1704 1705 1706 1707 1708 1709 1710 1711 1712 1713 1714 1715 1716 1717 1718 1719 1720 1721 1722 1723 1724 1725 1726 1727 1728 1729 1730 1731 1732 1733 1734 1735 1736 1737 1738 1739 1740 1741 1742 1743 1744 1745 1746 1747 1748 1749 1750 1751 1752 1753 1754 1755 1756 1757 1758 1759 1760 1761 1762 1763 1764 1765 1766 1767 1768 1769 1770 1771 1772 1773 1774 1775 1776 1777 1778 1779 1780 1781 1782 1783 1784 1785 1786 1787 1788 1789 1790 1791 1792 1793 1794 1795 1796 1797 1798 1799 1800 1801 1802 1803 1804 1805 1806 1807 1808 1809 1810 1811 1812 1813 1814 1815 1816 1817 1818 1819 1820 1821 1822 1823 1824 1825 1826 1827 1828 1829 1830 1831 1832 1833 1834 1835 1836 1837 1838 1839 1840 1841 1842 1843 1844 1845 1846 1847 1848 1849 1850 1851 1852 1853 1854 1855 1856 1857 1858 1859 1860 1861 1862 1863 1864 1865 1866 1867 1868 1869 1870 1871 1872 1873 1874 1875 1876 1877 1878 1879 1880 1881 1882 1883 1884 1885 1886 1887 1888 1889 1890 1891 1892 1893 1894 1895 1896 1897 1898 1899 1900 1901 1902 1903 1904 1905 1906 1907 1908 1909 1910 1911 1912 1913 1914 1915 1916 1917 1918 1919 1920 1921 1922 1923 1924 1925 1926 1927 1928 1929 1930 1931 1932 1933 1934 1935 1936 1937 1938 1939 1940 1941 1942 1943 1944 1945 1946 1947 1948 1949 1950 1951 1952 1953 1954 1955 1956 1957 1958 1959 1960 1961 1962 1963 1964 1965 1966 1967 1968 1969 1970 1971 1972 1973 1974 1975 1976 1977 1978 1979 1980 1981 1982 1983 1984 1985 1986 1987 1988 1989 1990 1991 1992 1993 1994 1995 1996 1997 1999 2000 2001 2002 2003 2004 2005 2006 2007 2008 2009 2010 2011 
0.4905622350697448 0.947737899497181 1.169669570890978 0.6593307167285511 0.09424669150408228 0.2174700103350224 0.5934911197949873 0.2389040761188339 0.9329072743946187 0.4018689819510378 1.141231849947384 1.327719197098844 0.4246034922161055 1.241000055348428 0.9486944833629988 0.8200578289937721 1.060358221382136 0.9024192603089456 0.06438906141995393 1.320806157541951 0.1913823027910257 1.054395481308622 1.09237690815769 0.6687751319654321 0.4872603309736853 0.7836630522125106 0.3826686502944361 0.9614231560602822 0.2199473919216838 0.2484105671836182 1.236428343942663 0.445896689633026 0.3468007111888066 0.05660349718291006 0.1508185554126057 1.087814322581127 0.2051517008933045 0.07296719612858128 0.7728752316954018 0.4316795764915353 1.025270908570058 0.4872438677243578 0.9894968951157718 0.6836703547066642 1.083750854859626 0.974788879354173 0.7997257794381375 0.2918095260481867 0.5763381002001113 0.4470140686407522 0.2565063190518725 0.5620400818363028 0.7284456533274959 0.1639548958646238 0.8319660395125209 0.7503108754190936 1.21588699848634 0.7865563748681415 1.156313268738758 0.1788488732951179 0.5603303904983363 1.171266106215086 0.6557213418634746 1.039301523465384 0.7453152136142775 0.2572703127140927 0.7973937253885864 0.006755576017619733 0.1433231422897789 0.1988127219633752 0.9161217935778072 1.261767823898635 0.7949039480954874 0.5602550883395587 0.2143311181915159 0.2200587757780581 0.893091565907665 0.5219518891084275 0.7373824207507231 0.7284302602720107 0.9651457193234072 0.5675858491060269 0.5631469406392929 0.09202158988604234 0.8581785099215107 0.8856731344558986 0.5304913062588748 0.4330837550770646 0.4606869992738502 0.4450330437089219 0.3625284440433832 0.7244982398537834 0.3908011689213442 0.03828542564551851 0.1131400099047851 0.02606705089882894 0.2121611221217911 0.8586273593404873 0.3552128828258898 0.3886840120890507 0.3808398200291326 0.2250934081709093 0.1229801931510062 0.1836827612736628 0.6939693608015373 0.2112870828569975 0.02805294868119505 0.7137231667806136 0.2801146865450991 1.320575485099858 0.8202846575402212 0.7363347411483792 0.2973638087303552 0.9820557887404947 0.6392973771465179 0.920631744397596 0.5549876895463335 0.5824697284481219 0.4989223768710084 1.296424679957399 0.9069861093645397 0.2881740386581611 1.107437487995104 0.3691336593376829 1.084320568513695 0.6306955727462085 0.9750338058094977 0.3305414790372253 0.3582244674957279 0.3701333023401066 0.7450229450496405 0.1819636921772035 0.3715160140348359 0.451345679244199 0.5637578683454808 0.6806899134926063 0.3524260678100852 0.2841045714227359 0.2865452056298747 0.7009086971805909 0.9830905827921201 0.8964577198860157 1.01551775866696 0.5526889450242314 0.3408474763286466 0.8278806270481287 0.388562249141819 0.1393842311182481 0.5734183507279844 0.175578773049431 0.0668647708606166 0.1207388817808486 0.9077872442340337 0.8837529896704298 0.6140069656245998 0.277851330763361 0.4813256083588346 0.3940983480762487 0.8568104551401432 0.7175843000062656 1.307221290203087 1.210698209140063 0.9256834879895208 0.351007472034305 0.1202203086014048 0.1997073617449485 0.08606299432595828 0.8161589940090419 0.6751453320445902 0.8098313723700035 0.1243746809781928 1.076757605091146 0.2169676041826771 0.1126227428397291 0.2085331985549694 0.1033270848347316 0.3104906404210261 0.3903249374294779 0.6070008068400757 0.7960231323669178 0.4572205591331799 0.7220211301776056 1.316825215319726 0.6094860980070255 0.6334853500598361 0.7774325636478647 0.4230406126778437 0.289509572459826 0.987670349867444 0.1848110955543678 0.08063504451407673 0.4404814320402031 0.8786523032728989 0.01135921773463181 0.3433064271988301 0.9418860919370863 0.793528569518267 0.6004629440899621 1.035537605448259 0.5794588673302815 0.1366020369859268 0.4526156481614555 0.3537650756875046 0.3170454660590322 0.7793960918982671 0.4606088824003093 0.6508088229334404 0.4668798008910643 0.6458096432772791 0.03798987774759082 0.6631795068543649 0.4706886749913625 0.8397027827434191 1.058491622434386 0.5306083053209326 0.6938469468323293 0.6825413822227252 1.313887756741984 0.3891945053975467 0.349511549437617 0.5993393454339571 0.8403381261035213 0.1092205571860889 0.08232977655999631 0.7852905136365177 0.1992813830843277 0.0412172796931678 0.4353576405324037 0.5673384400948048 0.5521240577786878 1.05553575056032 0.5142809872855485 0.5684460583821382 0.7767288501440149 0.7943027485199612 0.2960394597005048 0.06510174923537866 0.9116396460403793 0.9616196764790403 0.0463142075975325 1.048786137805832 0.8147291416840883 0.7358051891310777 0.02622928519570899 0.2689215453658899 1.029571096428501 0.7646622677483511 0.2398407182014858 0.5839862991647944 0.4551603314295483 0.6699987163777662 -0.6308869043814906 -0.3008520367100103 -0.3647814021797013 -0.5650945737284547 -0.5214505245955906 -0.4083949258432608 -0.4262246431231584 -0.319389650908272 -0.382726735872167 -0.4876155425080804 -0.5299953147858479 -0.3925322902335438 -0.57473854791087 -0.1951049651288536 -0.4738104347502319 -0.3339037947611118 -0.4681427095984317 -0.1381887420338964 -0.3684310249795044 -0.3259854926415759 -0.3730792041400146 -0.576082792317532 -0.3660975975190331 -0.5247530202400733 -0.5798801923006087 -0.4677413622412667 -0.3284356824755825 -0.5137920094187822 -0.4631672640842691 -0.2098608926920294 -0.244616411814948 -0.2252200137635315 -0.237050448937239 -0.2539791826206695 -0.1011605030241065 -0.3532905972275989 -0.5530412517955942 -0.3411812037644746 -0.4894694742974464 -0.2405720775531749 -0.3775905451584226 -0.4397933950644848 -0.5447135664277098 -0.2560800611438844 -0.6152292492965179 -0.6545669686726782 -0.6056187530016373 -0.492095580532894 -0.1537260526948046 -0.3596991924255729 -0.245102111215727 -0.1043604840024382 -0.5453355599518467 -0.4902405853879773 -0.1512148228497707 -0.6254540793431914 -0.5199753463697707 -0.3978635786328913 -0.4160919173957961 -0.1975451085043328 -0.4539723604824051 -0.1800239631551649 -0.1366850315536621 -0.3415653028511967 -0.2711947287950542 -0.2644806917261217 -0.3999434491937239 -0.4855130037521742 -0.2298287173910483 -0.1306340280083786 -0.4572291939367215 -0.05667706588262528 -0.02071628088118931 -0.4368007147588246 -0.628617471112663 -0.3039378571877802 -0.343806400301524 -0.4632162473909904 -0.2674622160271285 -0.4089433959274257 -0.6559253170405971 -0.5959845529597808 -0.4294450744401397 -0.5310552084276547 -0.5286675133967278 -0.5508091918269927 -0.6055638592647931 -0.6246128284813526 -0.5551453617386602 -0.4522482016268925 -0.3974188964821289 -0.4670343378549416 -0.5735998980605809 -0.537539006416293 -0.06533450268632149 -0.5875182949708128 -0.1196171004951591 -0.4816236477091971 -0.4503127788343575 -0.2442975231967667 -0.3659409237408979 -0.4384301061262417 -0.002981166722611609 -0.1295165701152108 -0.5493934769077885 -0.1651447675858594 -0.4447328877433043 -0.1929840469644963 -0.3073775481759343 -0.3298648668579861 -0.3303963716514451 -0.1805144393018829 -0.4350239300535009 -0.5466231981000054 -0.5306804383501408 -0.5969949787535297 -0.4463409878343176 -0.5294325910493181 -0.5322657117412698 -0.371215151696199 -0.6546094627006899 -0.1533975964068019 -0.5255233946166459 -0.2250779170019934 -0.3418618472856391 -0.3867383262621932 -0.4473712329826103 -0.4216156937829129 -0.368026121379846 -0.4213534949051507 -0.4206016710344161 -0.4309862180101168 -0.6005058036570835 -0.5340668791156219 -0.6616731003820414 -0.04043661335850904 -0.3123565439877249 -0.450172437664168 -0.3331507661878191 -0.5449102432548578 -0.3463683170999987 -0.1813858252839888 -0.2763822604620718 -0.5760680929521982 -0.5017812344639636 -0.4317722607380572 -0.4698967583184069 -0.3720213380669771 -0.2071838882032105 -0.287782820019865 -0.4787642030462991 -0.2993065272118899 -0.3641036114741459 -0.3513074530536803 -0.05297192866149467 -0.341275345425296 -0.6095365091550538 -0.4542723409515883 -0.4120505019945703 -0.5871193802486823 -0.2621858464704274 -0.5485586523188415 -0.6329100633242631 -0.6417620922978864 -0.5788145636597495 -0.5931159551983477 -0.2858057893934294 -0.5511865185758157 -0.4425294828754414 -0.338208509355412 -0.5829692193704799 -0.4597954255112705 -0.3402919781836109 -0.302837843866446 -0.4485402247738276 -0.3417603267808537 -0.5748417702233966 -0.509060273627258 -0.4090784382253501 -0.5596342406461231 -0.567486910943751 -0.4401133952210205 -0.3840860727868288 -0.3383556206201493 -0.3541915548075799 -0.1107983763618023 -0.3231254894720542 -0.4832565156138796 -0.3615743647305957 -0.3769044462653801 -0.492539096005611 -0.06806287341090503 -0.5967817762013783 -0.3593440188197266 -0.4492915557692942 -0.4221213869012966 -0.4061122337201544 -0.5171644864257818 -0.3039286470881572 -0.4692047835538956 -0.317242042977376 -0.6393482970688134 -0.3368068098988061 -0.6009306095196891 -0.5581622379987714 -0.3132813065161979 -0.585769028222777 -0.5918201480477174 -0.404910767262943 -0.4141074722040214 -0.4864614329145547 -0.2170180087118369 -0.1473189191398991 -0.4057596311619456 -0.5340798224982547 -0.1242024447277578 -0.5799092882061384 -0.4809300980172934 -0.571206895436387 -0.6548250143066647 -0.5711667639229209 -0.5810395820704677 -0.1704789251606099 -0.5443887545505885 -0.5330796220558626 -0.4768266257312878 -0.1200175350686462 -0.325411113272407 -0.2307694448464583 -0.1710228402534925 -0.1104709860011952 -0.2191694512090892 -0.1793387103720215 -0.4322045283799474 -0.3865422864815015 -0.08863582434371564 -0.4713600880007822 -0.2532287399307104 -0.3351340666177251 -0.1208302088338651 -0.3373057515213893 -0.2916215054698232 -0.4843053851546882 -0.3262016502607283 -0.5206325202290437 -0.5640496053187398 -0.4103044603388665 -0.6316289981852657 -0.5549574333526246 -0.4332674834431968 -0.01111973241353367 -0.2958094486615513 -0.4744890057717864 -0.2684981929502 -0.5768526256412437 -0.3323645195287038 -0.5255279333966881 -0.3482942861036618 -0.273767402652832 -0.4785936905702133 -0.6246959753924342 -0.4153876311034481 -0.2453777601861982 -0.5947207182382312 -0.4053598395502617 -0.5321386759571153 -0.6236036416801218 -0.4349597862366358 -0.5452722316583576 -0.4766547572714733 -0.4765335555533145 -0.3342361183179239 -0.5459229557377947 -0.5170792877800955 -0.4816535677624778 -0.5952218438099764 -0.6235559144220229 -0.5498381127795972 -0.6032535213235966 -0.5107993507342244 -0.3432937176271932 -0.5145978992422813 -0.3788469169539155 -0.371412163683848 -0.4631764783928342 -0.3584064706750371 -0.5956018793226036 -0.4022437428562489 -0.155867420361508 -0.4756136245185517 -0.2816422575375636 -0.411048116004006 -0.6583904804045319 -0.5705462979246132 -0.3318487676774994 -0.6408455965510647 -0.3570131748636622 -0.2617012163064584 -0.1661846245119487 -0.3940288493503827 -0.5347027163725735 -0.2093677905787862 -0.1745737960542562 -0.6173612842028846 -0.565647747836341 -0.1558940527049646 -0.3855204537520432 -0.2079300356155859 -0.4656320492783432 -0.5519614916986371 -0.4533702754000362 -0.4950869102342544 -0.408725826753926 -0.6466097767584806 -0.1552252231995224 -0.1497759060158085 -0.4833735123183859 -0.5163810001975865 -0.3118229116028717 -0.5669420079767019 -0.3731180566956415 -0.3206840352743469 -0.4758997733506242 -0.2255144994370165 -0.2145648704792586 -0.5769581806300115 -0.3883617203253462 -0.3757602881383455 -0.444057348483113 -0.1745280950164893 -0.3007962178587091 -0.4866046228968921 -0.4236100318722977 -0.07088381450526868 -0.5403149661770009 -0.4043384527928047 -0.2212498503050114 -0.1273762640391922 -0.2172013515673276 -0.1886943491961973 -0.5128181885763984 -0.5036049908796876 -0.4744103036813951 -0.3329622090142773 -0.2883919975175356 -0.6192867504528292 -0.330328775854092 -0.5123507271613419 -0.2140594583228016 -0.3556049482169659 -0.5192734526577213 -0.5635164688306757 -0.3851130434376641 -0.5264868341075064 -0.3858226612942415 -0.4499734620347927 -0.4616542155346002 -0.471937049843152 -0.5735585771586243 -0.6053687321805712 -0.4390227276097651 -0.07623419771530107 
0 1 2 3 4 5 6 7 8 9 10 11 12 13 14 15 16 17 18 19 20 21 22 23 24 25 26 27 28 29 30 31 32 33 34 35 36 37 38 39 40 41 42 43 44 45 46 47 48 49 50 51 52 53 54 55 56 57 58 59 60 61 62 63 64 65 66 67 68 69 70 71 72 73 74 75 76 77 78 79 80 81 82 83 84 85 86 87 88 89 90 91 92 93 94 95 96 97 98 99 100 101 102 103 104 105 106 107 108 109 110 111 112 113 114 115 116 117 118 119 120 121 122 123 124 125 126 127 128 129 130 131 132 133 134 135 136 137 138 139 140 141 142 143 144 145 146 147 148 149 150 151 152 153 154 155 156 157 158 159 160 161 162 163 164 165 166 167 168 169 170 171 172 173 174 175 176 177 178 179 180 181 182 183 184 185 186 187 188 189 190 191 192 193 194 195 196 197 198 199 200 201 202 203 204 205 206 207 208 209 210 211 212 213 214 215 216 217 218 219 220 221 222 223 224 225 226 227 228 229 230 231 232 233 234 235 236 237 238 239 240 241 242 243 244 245 246 247 248 249 250 2012 2013 2014 2015 2016 2017 2018 2019 2020 2021 2022 2023 2024 2025 2026 2027 2028 2029 2030 2031 2032 2033 2034 2035 2036 2037 2038 2039 2040 2041 2042 2043 2044 2045 2046 2047 2048 2049 2050 2051 2052 2053 2054 2055 2056 2057 2058 2059 2060 2061 2062 2063 2064 2065 2066 2067 2068 2069 2070 2071 2072 2073 2074 2075 2076 2077 2078 2079 2080 2081 2082 2083 2084 2085 2086 2087 2088 2089 2090 2091 2092 2093 2094 2095 2096 2097 2098 2099 2100 2101 2102 2103 2104 2105 2106 2107 2108 2109 2110 2111 2112 2113 2114 2115 2116 2117 2118 2119 2120 2121 2122 2123 2124 2125 2126 2127 2128 2129 2130 2131 2132 2133 2134 2135 2136 2137 2138 2139 2140 2141 2142 2143 2144 2145 2146 2147 2148 2149 2150 2151 2152 2153 2154 2155 2156 2157 2158 2159 2160 2161 2162 2163 2164 2165 2166 2167 2168 2169 2170 2171 2172 2173 2174 2175 2176 2177 2178 2179 2180 2181 2182 2183 2184 2185 2186 2187 2188 2189 2190 2191 2192 2193 2194 2195 2196 2197 2198 2199 2200 2201 2202 2203 2204 2205 2206 2207 2208 2209 2210 2211 2212 2213 2214 2215 2216 2217 2218 2219 2220 2221 2222 2223 2224 2225 2226 2227 2228 2229 2230 2231 2232 2233 2234 2235 2236 2237 2238 2239 2240 2241 2242 2243 2244 2245 2246 2247 2248 2249 2250 2251 2252 2253 2254 2255 2256 2257 2258 2259 2260 2261 2262 2263 2264 2265 2266 2267 2268 2269 2270 2271 2272 2273 2274 2275 2276 2277 2278 2279 2280 2281 2282 2283 2284 2285 2286 2287 2288 2289 2290 2291 2292 2293 2294 2295 2296 2297 2298 2299 2300 2301 2302 2303 2304 2305 2306 2308 2309 2310 2311 2312 2313 2314 2315 2316 2317 2318 2319 2320 2321 2322 2323 2324 2325 2326 2327 2328 2329 2330 2331 2332 2333 2334 2335 2336 2337 2338 2339 2340 2341 2342 2343 2344 2345 2346 2347 2348 2349 2350 2351 2352 2353 2354 2355 2356 2357 2358 2359 2360 2361 2362 2363 2364 2365 2366 2367 2368 2369 2370 2371 2372 2373 2374 2375 2376 2377 2378 2379 2380 2381 2382 2383 2384 2385 2386 
0.5184765086405704 1.000305292518709 1.234850841498209 0.6960779013521399 0.1008491378076029 0.2294226786597669 0.6264601073701556 0.2520002985790193 0.9848336392885529 0.4234895233066579 1.204894362184535 1.398614677319703 0.4485380568077087 1.310621971095683 1.002275161219015 0.8655447740012686 1.119380807731064 0.9522533909120777 0.06752659961467748 1.394421076256733 0.202234680780354 1.113269155194613 1.153412617435338 0.7060113703468902 0.515086212693063 0.827354065110541 0.4036281475260586 1.014678209889279 0.2328226099993679 0.2620539092023639 1.304890511473026 0.4700478159166813 0.3668165570125902 0.05959438936368718 0.1584500296964208 1.152153081548236 0.2165376789885452 0.07676111154676962 0.8157393797671573 0.4564595772002574 1.08287306743966 0.5143017591580803 1.046967990548492 0.7215786184774065 1.144556750453068 1.026808627741181 0.8446560451891472 0.3085199562989387 0.6068738829376433 0.471682449191873 0.2712555646854897 0.5935928740157962 0.7692801268156985 0.1728370684564296 0.8784380049231422 0.7920679259101829 1.283408248527022 0.8298981718156331 1.221377702962783 0.1885096008361724 0.5920261826367924 1.236018286029316 0.6920922359744031 1.097220990790668 0.7872671793467232 0.2713301753455848 0.8420649945075112 0.006592460564820102 0.151324873959003 0.2098692566587709 0.9703084806610505 1.333638472392666 0.839361497522337 0.591349016470341 0.225122063479818 0.2323671882958489 0.9434689872717099 0.5513676185645673 0.7780792950780354 0.7694700709537776 1.018893175303651 0.5986231082337543 0.5944056551541276 0.09712695613417074 0.90622446501138 0.9356560561528896 0.5594584762196509 0.4561843982742117 0.4862432773699066 0.4702153410262147 0.3825313246415347 0.7642490263918792 0.4129024102302912 0.03978013743689632 0.1192027270475795 0.02813717713287162 0.2249057058321484 0.9067411443941219 0.3753000440635519 0.4105322250340265 0.4022730910253486 0.2376917822744181 0.1294725032494156 0.1938149589536248 0.7329664157959034 0.2228791985127677 0.0300128655971995 0.7536761972872443 0.2957083658421873 1.393958149962435 0.8663212237690814 0.7769267008145005 0.3144421680997087 1.036902937489321 0.6752297002588403 0.9719668762995515 0.5861526588015693 0.6154335226993988 0.5267346535818621 1.368094748077994 0.9591674241197234 0.3039485040770013 1.169404859994955 0.3906890021579132 1.145150077140377 0.6658191753469445 1.027797456243416 0.3492929309534497 0.3782452686028964 0.3899364876884913 0.7867143778860014 0.1917562014216794 0.3910558932328826 0.4761285704365695 0.5954932274988416 0.717990229943658 0.3712960401005804 0.3003206364569025 0.3016896531445562 0.7394283675423287 1.03780678361773 0.946253150417405 1.071640634858731 0.5829434137832626 0.360062542304845 0.8731804552089169 0.4099414494894468 0.1466789220814502 0.6057613791474463 0.1855292660501136 0.07009824856782899 0.1276287028702746 0.9594364458941291 0.9324479123241071 0.6484073183043993 0.29372482145949 0.508384437312941 0.4162455148063602 0.904787615785429 0.7569966292093491 1.379739428835381 1.278553120187279 0.9777960457022992 0.3703130075343152 0.1267184558548769 0.2113958346629992 0.09006425641767281 0.8625039883470172 0.7139699212528169 0.8574933960197468 0.1318685732823186 1.13562071681607 0.2291521809696894 0.1187543976319664 0.2206005437985464 0.1092291390027774 0.3281877281001424 0.4120875065531235 0.6412318077702676 0.8410435678678228 0.483042367553371 0.7628039616162777 1.39211970888281 0.6433497574159822 0.6693686387677771 0.8207776786219391 0.4468719158018107 0.3061874488056196 1.038268369697245 0.195132602213301 0.08566895804195568 0.4655960296857753 0.9275123710645562 0.01219945262498373 0.3620850787603734 0.994572172148308 0.838190203387165 0.6344415059012902 1.093273020256394 0.6116549762992431 0.1440171485662751 0.4779031437592325 0.3761531150319352 0.3346442820602561 0.8227628092405512 0.4865011721302261 0.688972302328464 0.4929181921142143 0.6817550625673787 0.04001519742364906 0.6995011586456704 0.4965260644029671 0.8868445331591076 1.118209320378983 0.5597302095406779 0.7324759691957774 0.7204126589639891 1.386882290643202 0.4101623735432683 0.3690101538358135 0.6322640784786974 0.8866885998964242 0.1139335010137381 0.08582380325667975 0.8292229529247468 0.2106821592107063 0.04411388184275861 0.4598714214789723 0.5991691656817195 0.5827202473501052 1.114350653320235 0.5426302445023319 0.5981175518094888 0.8203153067037108 0.8387726248020843 0.3123659584886453 0.06734757768132808 0.9634281160022832 1.015067417092217 0.04803211262855505 1.106333259416196 0.8602416131910741 0.7771614392152442 0.02751007142900887 0.2833808297487126 1.086550291001319 0.8075850590633019 0.2531037829135533 0.617164707426609 0.4822884296330558 0.7076436431834519 -0.553507679987988 -0.4378791123273963 -0.3518085984261579 -0.4896016971986593 -0.5304695581840382 -0.2260261140204494 -0.1143030504992388 -0.4734432961525713 -0.1967883388320872 -0.3724255724778049 -0.3637190004649807 -0.5641439966816525 -0.5412893558576221 -0.5870951264187316 -0.5822548270755225 -0.5720316904150912 -0.4558875405214537 -0.2541865642725291 -0.4592210691720337 -0.481103753932295 -0.1945393137532917 -0.5340452555357095 -0.3447718148874429 -0.4529837104709474 -0.3098958611518762 -0.5047042716902386 -0.495821041031309 -0.3155887342959097 -0.5697554506706373 -0.2872717821226948 -0.3413342543048439 -0.3005809895791545 -0.338483519682975 -0.5193829921714053 -0.5433569089286933 -0.2927467368114176 -0.3738167057028733 -0.3473214983758726 -0.3628435226949002 -0.3357382799650745 -0.4097626033566814 -0.2699502130736195 -0.4084405318387471 -0.3435624416780059 -0.3693411068872469 -0.3215061645065061 -0.5307475650930495 -0.528097352280563 -0.3323450668289371 -0.5801108302078537 -0.4385184457778247 -0.3994819418714501 -0.3280043349464854 -0.1865273658586139 -0.4470468535947599 -0.421021921198898 -0.4781477793449876 -0.5037336970177999 -0.4485270169255017 -0.364417805976573 -0.5554304469241649 -0.3314381573903902 -0.4796045321903685 -0.4085354821177865 -0.546905441412474 -0.4231133184330465 -0.3748849590052935 -0.172216433601828 -0.5723949278279313 -0.2992359480251104 -0.1639098134894639 -0.4418451516116543 -0.4013811274404682 -0.2731141483205165 -0.5296664650750945 -0.5240409672678049 -0.5654783202619207 -0.177271639296616 -0.4077503433774707 -0.5573785541109022 -0.5625068241320034 -0.5249591951704001 -0.5144241813097432 -0.5542840403657926 -0.5268320072661826 -0.519558029850038 -0.4650290704258869 -0.5324302171499979 -0.5012062442106796 -0.5604920216716317 -0.238242560173571 -0.5140618283843119 -0.3589279259591112 -0.3496469850249803 -0.3934232059290924 -0.4163548186759092 -0.4310369851009345 -0.1836068854814798 -0.3771186748142796 -0.4297004462600549 -0.542125693601358 -0.1761097772773142 -0.1520513457518998 -0.4209062974536735 -0.1435720320251269 -0.4543614184140132 -0.1154883004237976 -0.3571288862369106 -0.5834460324399818 -0.2343137813340919 -0.538171058638179 -0.3542772894152864 -0.3155952863234692 -0.4228989208754669 -0.5471807882859573 -0.370855648487838 -0.4699777201932821 -0.4456595146733905 -0.4565232691579724 -0.3301329140292297 -0.208673635747115 -0.5811502990539819 -0.4033835218210965 -0.2729616320593914 -0.2620921810137417 -0.407774218652606 -0.4179130913558827 -0.4626362417716896 -0.4799435885082799 -0.2711875875838705 -0.2742944531386247 -0.2197892268266199 -0.4208333766111277 -0.4772394528125417 -0.3897742568034736 -0.5836078886057151 -0.5600807125333965 -0.3651252594170664 -0.2324723085568227 -0.4592239199756351 -0.3793103875433587 -0.309813900922533 -0.3281402769502567 -0.3259649270003458 -0.2411461152821602 -0.2834369592015231 -0.3256499989470156 -0.4993343080697822 -0.3983947172303866 -0.05574998321766252 -0.5566236760442358 -0.4209150449644851 -0.2917329914752617 -0.3124516541833051 -0.5550708531748801 -0.5817613880443857 -0.5813282761815763 -0.5824501658687119 -0.5242386238032286 -0.473500818748806 -0.4329892712478828 -0.4509183783705762 -0.5421650244107954 -0.5122068309813272 -0.5160600931915376 -0.4937950231114508 -0.4205620812783091 -0.5626358046825528 -0.3099030055357712 -0.4325348573986163 -0.2396659817199509 -0.5123611610611396 -0.4937586723679834 -0.3764508610129751 -0.4113790017639481 -0.4062562862448957 -0.4824411908192272 -0.5557967879304408 -0.3190330395980441 -0.5616641840138198 -0.4108282004266408 -0.2233953771605516 -0.3965365058600607 -0.04755263102907532 -0.4978817197075366 -0.5391993042736506 -0.4063661960048936 -0.3552322351997995 -0.4134008222540581 -0.5704033437575832 -0.5396420733715037 -0.407778001537645 -0.4560844543625571 -0.3122235657261249 -0.467371006783439 -0.3041340304884479 -0.5441968463087068 -0.5751593522931824 -0.3763878607986144 -0.5833743812648727 -0.5685640354406023 -0.1381216437043357 -0.2922843348713572 -0.4525092292237026 -0.3216333812875223 -0.4646800881025483 -0.5480109436767098 -0.3824558218713302 -0.4385033952683912 -0.2670332553864532 -0.50059492793538 -0.5450303810034642 -0.591310738692748 -0.4795769234399696 -0.2028951836363698 -0.3036285408013994 -0.4406996483065365 -0.01400933139428262 -0.34769828778033 -0.4513347106314851 -0.4486889131828107 -0.1609407732797292 -0.5719326599655048 -0.5600274648610848 -0.2800201040131166 -0.3042645668450918 -0.5116553278468052 -0.3230101430541868 -0.5636147839374945 -0.2438273205561218 -0.5701769419470412 -0.3809856064932707 -0.3183073646608637 -0.4511088744325437 -0.4947489462758509 -0.473759522464827 -0.4647971393408311 -0.4170866873441672 -0.2713524843017062 -0.2671044457329603 -0.218468259496848 -0.5169177665391943 -0.3622313600399885 -0.4798313090296266 -0.5228083178682953 -0.254406973505841 -0.2150374492012561 -0.1663816425336717 -0.2061551719755562 -0.3145447887625384 -0.3529025241988912 -0.02707144716027923 -0.4680299401764175 -0.5024479482923117 -0.3849949324273683 -0.5390996634218548 -0.3088306175537536 -0.3194145744866855 -0.2787755317867501 -0.5587799679095605 -0.4839422390568284 -0.4585442342861484 -0.5169289849040715 -0.4649211589420535 -0.522579762346878 -0.5790784560772964 -0.3375754190403679 -0.4755751388670745 -0.5774630720477612 -0.558675635272498 -0.4248033822588252 -0.3074250004007249 -0.4321270614635141 -0.4248005690568045 -0.4362141019566139 -0.4649878821933483 -0.4907225486049054 -0.4930611081599612 -0.5376629694078477 -0.1372580091539226 -0.5485428027296492 -0.5151742237414529 -0.4931641859078356 -0.4681441022952255 -0.5329433763771101 -0.4763886957924771 -0.4830294502068168 -0.3934122174322358 -0.461135763320082 -0.3567278362994584 -0.5685954786605532 -0.4330486228992414 -0.4054039765379983 -0.4290326115105518 -0.1695455808402589 -0.228317286301795 -0.3483341395387514 -0.5759431691687183 -0.427822389963756 -0.3391075664393806 -0.5533853705500584 -0.3722359008724647 -0.4379465051306554 -0.5701511723311373 -0.3566608824779998 -0.4104362265302198 -0.248738440434491 -0.2201095648999063 -0.4078465199445045 -0.3889103766580484 -0.2486611685124134 -0.5564391752283194 -0.5526503304657193 -0.5644697098641821 -0.5245204217200538 -0.583669354855314 -0.5517533238271513 -0.5717793935995148 -0.4507283404739598 -0.5241168905880831 -0.4376064513113285 -0.1701455005864018 -0.2878415518853618 -0.5275446550435523 -0.4965781670617329 -0.2466810350009503 -0.2852536317845843 -0.4290656534278212 -0.1798037065700819 -0.2607644595653613 -0.5372951828364904 -0.3933306679218707 -0.2948024082109595 -0.3957007387569099 -0.5513403609308565 -0.4227293331637166 -0.3573464391191099 -0.2331960935160069 -0.3802858155906669 -0.4229894452814513 -0.4087244706753598 -0.543091244199649 -0.4811101569371686 -0.4845879455741809 -0.4335983246435332 -0.4251570236987755 -0.5038973556338884 -0.5763721830676595 -0.5902988891305804 -0.2966817471255617 -0.4364510500717746 -0.3751751282063239 -0.2152580265848557 -0.1526795387769144 -0.3699315490592414 -0.5085320601357016 -0.5265798905761832 -0.4410084390499217 -0.5215082837308483 -0.2802620585926111 -0.2630136203809692 -0.3957043867569651 -0.4466423910978164 -0.5519511994996305 -0.5111768035678542 -0.4619173838439723 -0.4062484416401022 -0.497340747691095 -0.447915190994667 -0.5764132850811873 -0.493657029206777 -0.4339672228348052 -0.2613619109394894 -0.5190588447836749 
0 1 2 3 4 5 6 7 8 9 10 11 12 13 14 15 16 17 18 19 20 21 22 23 24 25 26 27 28 29 30 31 32 33 34 35 36 37 38 39 40 41 42 43 44 45 46 47 48 49 50 51 52 53 54 55 56 57 58 59 60 61 62 63 64 65 66 67 68 69 70 71 72 73 74 75 76 77 78 79 80 81 82 83 84 85 86 87 88 89 90 91 92 93 94 95 96 97 98 99 100 101 102 103 104 105 106 107 108 109 110 111 112 113 114 115 116 117 118 119 120 121 122 123 124 125 126 127 128 129 130 131 132 133 134 135 136 137 138 139 140 141 142 143 144 145 146 147 148 149 150 151 152 153 154 155 156 157 158 159 160 161 162 163 164 165 166 167 168 169 170 171 172 173 174 175 176 177 178 179 180 181 182 183 184 185 186 187 188 189 190 191 192 193 194 195 196 197 198 199 200 201 202 203 204 205 206 207 208 209 210 211 212 213 214 215 216 217 218 219 220 221 222 223 224 225 226 227 228 229 230 231 232 233 234 235 236 237 238 239 240 241 242 243 244 245 246 247 248 249 250 2387 2388 2389 2390 2391 2392 2393 2394 2395 2396 2397 2398 2399 2400 2401 2402 2403 2404 2405 2406 2407 2408 2409 2410 2411 2412 2413 2414 2415 2416 2417 2418 2419 2420 2421 2422 2423 2424 2425 2426 2427 2428 2429 2430 2431 2432 2433 2434 2435 2436 2437 2438 2439 2440 2441 2442 2443 2444 2445 2446 2447 2448 2449 2450 2451 2452 2453 2454 2455 2456 2457 2458 2459 2460 2461 2462 2463 2464 2465 2466 2467 2468 2469 2470 2471 2472 2473 2474 2475 2476 2477 2478 2479 2480 2481 2482 2483 2484 2485 2486 2487 2488 2489 2490 2491 2492 2493 2494 2495 2496 2497 2498 2499 2500 2501 2502 2503 2504 2505 2506 2507 2508 2509 2510 2511 2512 2513 2514 2515 2516 2517 2518 2519 2520 2521 2522 2523 2524 2525 2526 2527 2528 2529 2530 2531 2532 2533 2534 2535 2536 2537 2538 2539 2540 2541 2542 2543 2544 2545 2546 2547 2548 2549 2550 2551 2552 2553 2554 2555 2556 2557 2558 2559 2561 2562 2563 2564 2565 2566 2567 2568 2569 2570 2571 2572 2573 2574 2575 2576 2577 2579 2580 2581 2582 2583 2584 2585 2586 2587 2588 2589 2590 2591 2592 2593 2594 2595 2596 2597 2598 2599 2600 2601 2602 2603 2604 2605 2606 2607 2608 2609 2610 2611 2612 2613 2614 2615 2616 2617 2618 2619 2620 2621 2622 2623 2624 2625 2626 2627 2628 2629 2630 2631 2632 2633 2634 2635 2636 2637 2638 2639 2640 2641 2642 2643 2644 2645 2646 2647 2648 2649 2650 2651 2652 2653 2654 2655 2656 2657 2658 2659 2660 2661 2662 2663 2664 2665 2666 2667 2668 2669 2670 2671 2672 2673 2674 2675 2676 2677 2678 2679 2680 2681 2682 2683 2684 2685 2686 2687 2688 2689 2690 2691 2692 2693 2694 2695 2696 2697 2698 2699 2700 2701 2702 2703 2704 2705 2706 2707 2708 2709 2710 2711 2712 2713 2714 2715 2716 2717 2718 2719 2720 2721 2722 2723 2724 2725 2726 2727 2728 2729 2730 2731 2732 2733 2734 2735 2736 2737 2738 2739 2740 2741 
