svm_type c_svc
kernel_type rbf
gamma 0.0625
nr_class 3
nr_binary 3
total_sv 21
rho -0.309419 -0.029962 0.686919
label 1 2 3
nr_sv 2 10 9
nr_sv_binary 3 4 18
I 0
1 0
1 1
1 0
1 2
1 1
1 2
alpha
0 1 11 
12.31946837335027 11.58984874618753 -23.90931711953779 
0 1 12 18 
5.547518274947393 2.214013817447154 -6.350265628801389 -1.411266463593158 
2 3 4 5 6 7 8 9 10 12 13 14 15 16 17 18 19 20 
7.321025720823442 64 36.38967839419907 64 64 64 64 64 64 -53.73528610650822 -38.79519548650579 -52.47777055702522 -64 -64 -35.35517097667187 -64 -55.34728098831138 -64 
SV
1:-0.555556 2:0.0833333 3:-0.762712 4:-0.666667 
1:-0.888889 2:-0.75 3:-0.898305 4:-0.833333 
1:0.444444 2:-0.0833334 3:0.322034 4:0.166667 
1:0.222222 2:-0.333333 3:0.220339 4:0.166667 
1:-0.277778 2:-0.166667 3:0.186441 4:0.166667 
1:0.0555554 2:-0.833333 3:0.186441 4:0.166667 
1:-0.111111 3:0.288136 4:0.416667 
1:0.111111 2:-0.583333 3:0.322034 4:0.166667 
1:0.333333 2:-0.166667 3:0.355932 4:0.333333 
1:-0.0555556 2:-0.416667 3:0.38983 4:0.25 
1:-0.388889 2:-0.166667 3:0.186441 4:0.166667 
1:-0.555556 2:-0.583333 3:-0.322034 4:-0.166667 
1:-0.666667 2:-0.583333 3:0.186441 4:0.333333 
1:-0.0555556 2:-0.833333 3:0.355932 4:0.166667 
1:0.111111 2:-0.416667 3:0.322034 4:0.416667 
1:0.0555554 2:-0.333333 3:0.288136 4:0.416667 
1:-1.32455e-07 2:-0.166667 3:0.322034 4:0.416667 
1:0.611111 2:-0.166667 3:0.627119 4:0.25 
1:0.111111 2:-0.333333 3:0.38983 4:0.166667 
1:-1.32455e-07 2:-0.5 3:0.559322 4:0.0833333 
1:-0.0555556 2:-0.166667 3:0.288136 4:0.416667 
0.030000	0.040000	0.180000	
Margin:0.144576	0.253780	0.048156	
Accuracy:0.96	0.99	0.95	
Span0.083696	0.077118	0.003634	