svm_type c_svc
kernel_type rbf
gamma 0.0625
nr_class 3
nr_binary 3
total_sv 34
rho -0.309419 -0.686835 14.7609
label 1 2 3
nr_sv 3 17 14
nr_sv_binary 3 18 32
I 2
1 0
2 1 2
1 2
2 0 1
1 1
2 0 2
alpha
0 2 19 
12.31946837335027 11.58984874618753 -23.90931711953779 
3 4 9 10 11 12 13 15 16 20 23 24 25 26 27 28 29 31 
-7.428796134005201 -64 -36.25268621020015 -64 -64 -64 -64 -64 -64 53.65843170249795 38.89000450641699 52.46166510755661 64 64 35.4312480490077 64 55.24013297872612 64 
0 1 3 4 5 6 7 8 9 10 11 12 13 14 15 16 17 18 20 21 22 23 24 25 26 27 28 29 30 31 32 33 
-64 -64 64 64 64 6.750933340514492 64 36.26705104095773 64 64 64 64 64 64 64 64 64 62.19213663809109 -64 -42.61911596850381 -40.34077181756253 -64 -64 -64 -64 -64 -64 -64 -64 -64 -22.25023323349703 -64 
SV
1:-0.555556 2:0.0833333 3:-0.762712 4:-0.666667 
1:-0.388889 2:0.166667 3:-0.830508 4:-0.75 
1:-0.888889 2:-0.75 3:-0.898305 4:-0.833333 
1:0.444444 2:-0.0833334 3:0.322034 4:0.166667 
1:0.222222 2:-0.333333 3:0.220339 4:0.166667 
1:0.111111 2:0.0833333 3:0.254237 4:0.25 
1:-0.666667 2:-0.666667 3:-0.220339 4:-0.25 
1:-0.5 2:-0.416667 3:-0.0169491 4:0.0833333 
1:-0.611111 2:-1 3:-0.152542 4:-0.25 
1:-0.277778 2:-0.166667 3:0.186441 4:0.166667 
1:0.0555554 2:-0.833333 3:0.186441 4:0.166667 
1:-0.111111 3:0.288136 4:0.416667 
1:0.111111 2:-0.583333 3:0.322034 4:0.166667 
1:0.333333 2:-0.166667 3:0.355932 4:0.333333 
1:-0.0555556 2:-0.25 3:0.186441 4:0.166667 
1:-0.0555556 2:-0.416667 3:0.38983 4:0.25 
1:-0.388889 2:-0.166667 3:0.186441 4:0.166667 
1:-0.0555556 2:0.166667 3:0.186441 4:0.25 
1:0.333333 2:-0.0833334 3:0.254237 4:0.166667 
1:-0.555556 2:-0.583333 3:-0.322034 4:-0.166667 
1:-0.666667 2:-0.583333 3:0.186441 4:0.333333 
1:0.222222 3:0.38983 4:0.583333 
1:0.222222 2:-0.166667 3:0.525424 4:0.416667 
1:-0.0555556 2:-0.833333 3:0.355932 4:0.166667 
1:0.111111 2:-0.416667 3:0.322034 4:0.416667 
1:0.0555554 2:-0.333333 3:0.288136 4:0.416667 
1:-1.32455e-07 2:-0.166667 3:0.322034 4:0.416667 
1:0.611111 2:-0.166667 3:0.627119 4:0.25 
1:0.111111 2:-0.333333 3:0.38983 4:0.166667 
1:-1.32455e-07 2:-0.5 3:0.559322 4:0.0833333 
1:0.166667 2:-0.0833334 3:0.525424 4:0.416667 
1:-0.0555556 2:-0.166667 3:0.288136 4:0.416667 
1:0.111111 2:-0.583333 3:0.355932 4:0.5 
1:-0.111111 2:-0.166667 3:0.38983 4:0.416667 
0.020000	0.120000	0.213333	
Margin:0.144576	0.048163	0.031259	
Accuracy:1.00	0.97	0.97	
Span0.083696	0.003634	0.042483	