svm_type c_svc
kernel_type rbf
gamma 0.015625
nr_class 5
nr_binary 5
total_sv 771
rho 29.5772 28.5239 -15.6627 14.6102 3.58094
label 1 2 4 5 3
nr_sv 381 197 66 104 23
nr_sv_binary 629 346 120 214 42
I 1
1 0
4 1 2 3 4
1 1
4 0 2 3 4
1 2
4 0 1 3 4
1 3
4 0 1 2 4
1 4
4 0 1 2 3
alpha
0 1 4 6 7 8 9 10 11 12 13 14 15 16 17 18 19 20 21 22 25 28 30 32 33 34 35 36 37 39 41 42 44 46 47 48 49 50 51 52 54 55 57 58 59 60 61 62 63 66 67 69 70 71 72 73 75 76 77 78 81 82 84 85 86 87 88 90 91 92 93 94 95 96 98 99 100 102 104 105 106 107 108 110 111 112 113 114 115 116 118 119 120 121 122 124 125 126 127 128 129 130 131 132 134 135 137 139 140 141 142 143 144 147 150 152 153 154 155 156 157 158 159 161 162 163 165 166 167 168 169 170 172 173 177 178 179 180 181 182 183 184 185 186 187 188 189 190 191 193 194 195 196 198 199 200 201 202 203 204 205 208 209 211 212 213 214 215 216 217 218 219 220 221 222 223 224 225 226 227 229 230 231 232 233 234 235 236 237 238 239 240 241 243 244 245 246 247 248 249 250 251 252 253 254 255 256 257 258 259 260 261 262 263 264 266 267 268 269 270 271 272 273 274 275 276 277 278 279 280 281 282 283 284 285 286 287 288 289 290 291 292 293 294 295 296 297 298 299 300 301 302 303 304 305 307 308 309 310 311 312 313 318 320 321 322 323 324 325 326 327 328 329 331 332 333 334 336 337 338 339 340 341 342 343 344 346 347 348 349 351 352 354 355 356 357 359 360 361 362 363 364 365 366 367 368 369 373 374 375 376 379 380 381 382 383 384 385 386 387 388 389 390 394 395 396 397 398 399 400 401 402 404 405 406 407 408 409 410 411 412 413 414 415 416 417 418 419 420 421 422 423 424 425 426 428 429 430 431 432 434 435 436 439 440 441 442 443 444 445 446 447 448 449 450 451 452 453 454 455 457 458 459 460 461 462 463 464 466 467 468 469 470 471 472 473 474 475 476 477 478 479 480 481 482 483 484 486 487 488 489 490 491 492 493 496 497 498 499 502 503 505 506 508 509 510 511 512 513 514 517 518 519 520 521 522 523 524 525 526 527 529 530 531 533 534 535 536 537 538 539 540 541 542 543 544 545 546 547 548 549 551 556 557 558 559 560 561 562 565 566 567 568 569 570 571 572 575 576 579 580 581 582 584 585 586 587 588 590 593 598 599 601 602 603 604 605 606 610 612 613 614 616 617 620 621 624 625 626 627 628 629 631 632 633 635 636 637 638 639 640 641 642 643 646 647 648 651 652 653 655 656 657 658 660 661 662 663 664 666 667 668 669 670 671 672 673 674 675 676 677 678 679 681 682 683 684 686 687 688 689 690 691 692 693 694 695 696 697 698 699 700 701 702 703 704 705 706 707 708 709 710 711 712 713 714 715 716 717 721 723 724 726 727 728 729 730 732 733 734 735 736 737 738 739 740 742 743 744 747 748 749 750 751 752 753 754 755 756 757 758 759 760 763 765 767 768 769 770 
512 512 512 512 512 512 512 512 512 512 512 512 512 512 512 512 512 512 512 512 512 512 512 512 512 512 512 512 512 512 512 512 512 512 512 512 512 512 512 512 512 512 512 512 512 512 512 512 512 512 512 512 512 512 512 184.6719512314339 512 512 512 512 512 512 123.8347176838563 512 512 512 512 512 512 512 512 512 512 512 512 512 512 512 512 512 512 512 512 512 512 512 512 512 512 512 512 512 512 512 512 512 512 512 512 512 512 512 512 512 512 512 512 512 512 512 512 512 512 512 512 512 512 512 512 512 512 512 312.6563944501191 512 512 512 426.1279852412601 512 512 512 512 512 512 512 297.8013968422445 512 512 512 512 512 512 512 512 512 512 512 512 512 512 512 512 512 512 512 512 512 512 512 512 512 512 512 512 512 512 512 512 512 512 512 512 512 512 512 512 512 512 512 512 512 512 512 512 512 512 512 512 512 512 512 512 512 512 512 512 512 512 512 512 512 512 512 512 512 512 512 512 512 512 512 512 512 512 512 512 512 107.320254521242 512 512 512 512 512 512 512 512 512 512 512 512 512 512 512 512 512 512 512 326.7256095655735 512 512 512 512 512 512 512 512 512 512 512 512 512 512 512 512 512 512 512 512 512 512 512 512 512 512 512 512 512 512 512 512 512 512 512 512 512 512 512 512 512 512 512 512 512 512 512 512 512 512 512 512 512 512 512 512 512 512 512 512 512 512 512 512 512 512 512 512 512 512 512 512 512 512 512 512 -512 -512 -512 -512 -512 -512 -512 -512 -512 -512 -512 -512 -512 -512 -512 -512 -512 -512 -512 -512 -512 -512 -512 -512 -512 -512 -512 -40.69466586770358 -512 -512 -512 -512 -512 -512 -512 -512 -512 -512 -93.3165540859785 -512 -512 -512 -512 -512 -512 -512 -102.6568020540046 -508.0586045983084 -512 -512 -512 -512 -512 -512 -512 -512 -512 -512 -512 -512 -512 -512 -512 -512 -512 -512 -512 -512 -512 -512 -512 -512 -512 -512 -512 -512 -512 -512 -512 -512 -512 -512 -512 -512 -512 -512 -512 -512 -512 -512 -512 -512 -512 -512 -512 -512 -512 -512 -512 -512 -512 -512 -512 -512 -512 -512 -512 -512 -173.6676973196347 -512 -512 -512 -512 -512 -512 -512 -512 -512 -512 -512 -512 -512 -512 -512 -512 -512 -512 -512 -512 -512 -512 -512 -512 -512 -512 -512 -512 -512 -512 -512 -512 -512 -512 -512 -512 -512 -512 -512 -512 -384.9800049089094 -512 -512 -512 -512 -512 -512 -512 -512 -512 -512 -512 -512 -512 -512 -512 -512 -512 -512 -512 -512 -512 -512 -512 -108.251036362509 -512 -512 -512 -512 -512 -512 -512 -512 -512 -512 -512 -512 -512 -512 -512 -512 -512 -512 -512 -512 -512 -512 -512 -512 -512 -512 -512 -512 -512 -512 -512 -512 -512 -512 -512 -512 -512 -512 -512 -512 -512 -512 -512 -512 -512 -512 -512 -512 -512 -512 -512 -512 -512 -512 -512 -512 -512 -512 -512 -512 -512 -512 -512 -512 -512 -512 -512 -512 -512 -512 -512 -512 -512 -512 -512 -512 -512 -512 -512 -512 -512 -512 -512 -512 -512 -512 -512 -512 -512 -512 -512 -512 -512 -512 -512 -512 -512 -512 -512 -512 -512 -512 -512 -512 -512 -512 -512 -236.8065626720805 -512 -512 -512 -512 -512 -512 -512 -512 -512 -512 -512 -512 -512 -204.0419656434075 -512 -512 -512 -512 -512 -512 -512 -512 -512 -344.7279459635245 -512 -512 -512 -93.93647005966724 -512 -512 -512 -512 -512 -512 
0 1 3 5 15 17 19 28 30 31 32 35 49 63 66 71 74 78 85 89 90 100 108 109 110 111 121 126 127 129 130 131 132 133 135 136 138 139 140 142 143 145 146 148 149 151 152 153 154 156 157 162 167 168 169 172 173 174 175 176 179 180 183 184 191 192 193 194 197 200 201 203 205 206 207 210 212 215 216 217 220 225 231 233 234 236 237 242 244 245 248 249 250 252 254 255 259 260 262 265 266 270 273 276 278 280 281 283 286 291 292 293 294 295 296 297 298 306 309 310 314 315 316 317 320 321 322 323 324 325 326 329 332 333 334 336 337 338 341 342 344 351 357 360 370 371 373 375 380 381 382 383 386 387 388 389 390 391 392 393 394 395 396 397 398 399 400 402 403 404 405 406 407 409 410 413 414 416 417 418 420 421 422 424 425 426 427 428 429 430 431 432 433 434 436 437 438 439 440 441 442 443 444 445 446 447 448 449 450 451 452 453 454 456 457 458 459 461 462 464 465 466 467 468 471 472 473 474 475 477 478 479 480 481 482 483 484 485 486 487 488 489 490 491 492 493 494 495 496 497 498 499 500 501 502 503 504 505 506 507 508 509 510 511 512 513 514 515 516 517 518 519 520 521 522 523 524 525 526 527 528 529 530 532 533 534 535 536 538 539 540 541 542 543 544 545 546 549 550 551 552 553 554 555 557 559 561 563 564 566 568 569 570 571 573 574 575 576 577 580 581 590 598 601 604 605 607 610 613 616 617 620 621 624 627 631 632 637 639 640 641 643 646 652 689 691 
-512 -512 -512 -512 -512 -512 -512 -512 -512 -512 -512 -512 -512 -512 -512 -512 -512 -512 -512 -448.6292902455347 -512 -512 -512 -3.431912022732055 -512 -512 -512 -512 -512 -512 -512 -512 -512 -512 -512 -512 -512 -512 -512 -512 -512 -512 -485.3091373169873 -512 -239.3666769234162 -512 -512 -512 -512 -512 -512 -512 -512 -175.5271971939231 -512 -512 -512 -512 -512 -512 -512 -333.0873429293478 -512 -512 -512 -512 -512 -512 -512 -512 -512 -512 -512 -512 -512 -512 -512 -512 -512 -512 -512 -512 -512 -512 -512 -512 -512 -512 -512 -512 -512 -299.9249517065538 -512 -512 -512 -512 -512 -512 -512 -512 -512 -512 -512 -512 -512 -512 -215.8533548533626 -512 -512 -512 -512 -512 -512 -512 -512 -512 -512 -512 -512 -512 -512 -512 -512 -512 -512 -512 -512 -512 -512 -512 -120.2840903300666 -512 -512 -512 -512 -512 -512 -512 -512 -512 -512 -512 -512 -512 -512 -512 -512 -512 -512 512 512 512 512 512 512 512 512 512 512 512 512 512 512 512 512 422.9516954704376 512 512 512 512 512 512 512 512 512 512 512 512 512 512 512 512 512 512 512 512 512 512 512 512 512 512 512 512 512 512 512 512 512 512 512 512 512 512 512 512 512 512 512 512 512 512 512 512 512 512 512 512 512 512 512 512 512 512 512 512 512 512 512 512 512 512 512 512 512 512 512 512 512 512 512 512 512 512 512 512 512 512 512 512 512 512 512 512 512 512 512 512 512 512 512 512 512 512 512 512 512 512 512 512 512 512 512 512 512 512 512 512 512 512 512 512 512 512 512 512 512 512 512 512 512 512 512 512 512 512 512 512 512 512 512 512 512 512 512 512 512 512 512 512 512 512 512 512 512 512 512 512 512 -221.6668999515567 -512 -453.2298675036632 -512 -512 -512 -512 -512 -512 -512 -512 -512 -246.0870594880281 -252.5539150052692 -512 -512 -512 -512 -512 -512 -512 -512 -512 -512 -512 -512 -512 
1 35 41 49 66 78 128 137 139 140 141 142 144 212 217 220 225 233 234 244 254 255 259 266 270 273 278 280 283 286 297 298 326 347 379 380 391 392 393 403 427 434 464 495 504 505 507 515 521 528 532 552 554 563 564 573 574 579 580 581 582 584 585 586 587 588 590 591 592 593 594 595 596 597 598 599 601 602 603 604 605 606 607 608 610 611 612 613 614 615 616 617 618 619 620 621 622 623 624 625 626 627 628 629 631 632 633 635 636 637 638 639 640 641 642 643 680 691 709 725 
-512 -512 -512 -512 -222.9642106572123 -512 -512 -512 -512 -512 -26.03133957349781 -512 -512 -512 -512 -512 -512 -512 -512 -512 -512 -512 -512 -512 -512 -512 -512 -512 -512 -512 -512 -512 -512 -512 -512 -512 -512 -512 -512 -512 -512 -512 -512 -512 -512 -512 -512 -512 -512 -512 -512 -512 -512 -512 -512 -512 -512 512 512 512 512 512 512 512 246.5516739281511 512 512 512 512 512 512 512 512 512 512 512 512 512 512 512 512 512 512 512 512 512 512 512 512 501.0434549060374 512 512 512 512 512 512 512 512 512 512 512 512 512 512 512 512 512 512 512 512 512 512 512 512 512 512 -342.2292071791441 -512 -156.3703714243339 -512 
6 11 13 14 16 23 24 25 26 27 28 29 37 38 39 40 43 45 46 47 48 52 53 55 56 61 63 73 76 79 80 81 83 84 85 86 92 93 94 95 96 97 98 99 101 102 103 104 105 106 107 110 112 113 115 116 117 118 119 123 124 125 160 161 162 164 170 171 189 208 228 279 310 311 328 330 331 335 340 341 343 345 346 347 348 349 350 353 358 359 372 432 446 458 477 482 487 498 522 535 585 587 589 600 609 629 630 644 645 646 647 648 649 650 651 652 653 654 655 656 657 658 659 660 661 662 663 664 665 666 667 668 669 670 671 672 673 674 675 676 677 678 679 680 681 682 683 684 685 686 687 688 689 690 691 692 693 694 695 696 697 698 699 700 701 702 703 704 705 706 707 708 709 710 711 712 713 714 715 716 717 718 719 720 721 722 723 724 725 726 727 728 729 730 731 732 733 734 735 736 737 738 739 740 741 742 743 744 746 747 757 762 764 766 
-512 -512 -512 -512 -512 -512 -146.7508651668516 -512 -62.60600336700533 -512 -512 -512 -512 -512 -512 -49.77651718090824 -512 -512 -512 -512 -512 -512 -512 -512 -490.1579529686734 -512 -430.6004891788879 -0.5631144755840569 -512 -512 -512 -512 -512 -512 -512 -512 -512 -512 -512 -512 -512 -512 -512 -512 -512 -512 -512 -512 -512 -512 -512 -512 -328.0830614914676 -512 -512 -512 -512 -512 -512 -512 -512 -512 -362.7064972924866 -512 -512 -512 -512 -511.0128880024903 -512 -512 -512 -512 -512 -512 -512 -512 -512 -185.0742569078575 -512 -512 -512 -512 -512 -512 -512 -512 -512 -512 -512 -512 -512 -512 -512 -512 -512 -512 -107.2831722443576 -512 -43.48635349009243 -512 -512 -512 -512 -105.0920720073629 -269.0871348249352 -512 -512 512 512 512 512 512 512 512 512 512 512 512 512 512 512 512 512 512 512 512 512 512 512 512 512 512 512 512 512 512 512 512 512 512 512 512 512 512 512 512 512 512 512 512 512 512 512 512 512 512 512 512 512 512 512 512 512 512 512 512 512 512 512 512 512 512 512 512 512 512 512 512 512 512 512 512 512 512 512 512 512 512 512 512 512 512 512 512 79.29934310527796 512 512 512 512 512 512 512 512 512 512 512 512 512 190.4338816683846 512 -512 -499.9517819905744 -17.17047603969801 -244.3305881444288 
2 64 65 68 288 300 301 312 313 319 376 377 378 410 578 583 584 603 625 634 665 678 745 748 749 750 751 752 753 754 755 756 757 758 759 761 762 765 767 768 769 770 
-31.81740720166251 -512 -512 -512 -512 -37.89145887259093 -512 -512 -512 -1.095808002409906 -512 -512 -185.9377087169046 -512 -392.5463087552167 -512 -201.5780045079934 -25.32448600293615 -270.0747873716205 -372.1709337386342 -476.5375913907352 -512 -512 512 512 512 512 512 512 512 512 512 512 177.7806334834668 512 88.40686072922099 192.7870003480175 512 512 512 512 512 
SV
1:-0.990037 2:-0.981884 3:-0.999681 4:-0.995557 5:-0.407173 6:-0.422175 7:-0.996367 8:-0.999818 9:-0.99987 10:-1 
1:-0.990037 2:-0.996377 3:-0.999958 4:-0.998536 5:0.578059 6:1 7:-0.997174 8:-0.999939 9:-0.99987 10:-1 
1:-0.990037 2:-0.992754 3:-0.999889 4:-0.997791 5:0.0147679 6:0.430704 7:-0.997174 8:-0.999939 9:-0.999827 10:-1 
1:-0.990037 2:-0.974638 3:-0.999542 4:-0.994067 5:-0.318565 6:-0.119403 7:-0.994348 8:-0.999515 9:-0.99948 10:-1 
1:-0.990037 2:-0.934783 3:-0.998778 4:-0.985873 5:-0.620253 6:-0.279318 7:-0.998183 8:-0.999091 9:-0.998656 10:-0.998131 
1:-0.992528 2:-0.981884 3:-0.999764 4:-0.994439 5:-0.229958 6:-0.0660981 7:-0.996367 8:-0.999818 9:-0.999783 10:-1 
1:-0.970112 2:-0.913043 3:-0.995583 4:-0.992864 5:-0.616034 6:-0.522388 7:-0.996019 8:-0.995819 9:-0.996271 10:-0.996263 
1:-0.975093 2:-0.974638 3:-0.998875 4:-0.997318 5:0.113924 6:1 7:-0.998345 8:-0.997334 9:-0.996488 10:-0.994394 
1:-0.975093 2:-0.974638 3:-0.998875 4:-0.997318 5:-0.246835 6:-0.115139 7:-0.98587 8:-0.998243 9:-0.998482 10:-1 
1:-0.975093 2:-0.974638 3:-0.998875 4:-0.997318 5:0.160338 6:1 7:-0.998026 8:-0.997213 9:-0.996488 10:-0.995017 
1:-0.977584 2:-0.98913 3:-0.999542 4:-0.998536 5:-0.318565 6:-0.279318 7:-0.994348 8:-0.999515 9:-0.99961 10:-1 
1:-0.972603 2:-0.978261 3:-0.99893 4:-0.997855 5:-0.658228 6:0.110874 7:-0.99895 8:-0.999334 9:-0.998179 10:-0.997509 
1:-0.982565 2:-0.992754 3:-0.999764 4:-0.998629 5:-0.229958 6:-0.24307 7:-0.996367 8:-0.999818 9:-0.99987 10:-1 
1:-0.982565 2:-0.974638 3:-0.999208 4:-0.996302 5:-0.616034 6:-0.432836 7:-0.998385 8:-0.999515 9:-0.999393 10:-0.998754 
1:-0.980075 2:-0.956522 3:-0.998472 4:-0.994648 5:-0.605485 6:-0.147122 7:-0.998518 8:-0.998728 9:-0.997962 10:-0.996886 
1:-1 2:-0.960145 3:-0.999931 4:-0.955333 5:0.120253 6:1 7:-0.998991 8:-1 9:-0.999783 10:-0.999377 
1:-0.987547 2:-0.905797 3:-0.997847 4:-0.983266 5:-0.78481 6:-0.10661 7:-0.999281 8:-0.998909 9:-0.996921 10:-0.995017 
1:-1 2:-0.905797 3:-0.999722 4:-0.899466 5:0.14135 6:1 7:-0.998789 8:-0.999455 9:-0.999133 10:-0.998131 
1:-0.997509 2:-0.891304 3:-0.999236 4:-0.942297 5:-0.700422 6:-0.0319829 7:-0.999596 8:-0.999697 9:-0.998916 10:-0.996886 
1:-1 2:-0.960145 3:-0.999931 4:-0.955333 5:0.120253 6:1 7:-0.998991 8:-1 9:-0.999783 10:-0.999377 
1:-0.975093 2:-0.974638 3:-0.998875 4:-0.997318 5:0.377637 6:1 7:-0.997275 8:-0.996668 9:-0.996488 10:-0.99564 
1:-0.975093 2:-0.974638 3:-0.998875 4:-0.997318 5:-0.175105 6:-0.138593 7:-0.984659 8:-0.998061 9:-0.998526 10:-1 
1:-0.975093 2:-0.978261 3:-0.999028 4:-0.997657 5:0.149789 6:1 7:-0.998082 8:-0.997637 9:-0.996965 10:-0.99564 
1:-0.977584 2:-0.956522 3:-0.998292 4:-0.995184 5:-0.881857 6:0.328358 7:-0.999463 8:-0.999576 9:-0.996445 10:-0.996886 
1:-0.985056 2:-0.952899 3:-0.998736 4:-0.992577 5:-0.721519 6:0.172708 7:-0.993137 8:-0.999334 9:-0.997702 10:-1 
1:-0.982565 2:-0.974638 3:-0.999208 4:-0.996302 5:-0.681435 6:-0.398721 7:-0.998656 8:-0.999636 9:-0.99935 10:-0.998754 
1:-0.940224 2:-0.746377 3:-0.975442 4:-0.989449 5:-0.616034 6:0.462687 7:-0.999507 8:-0.97522 9:-0.942722 10:-0.884148 
1:-0.972603 2:-0.974638 3:-0.998764 4:-0.997542 5:-0.691983 6:1 7:-0.999552 8:-0.999273 9:-0.996141 10:-0.995017 
1:-0.955168 2:-0.557971 3:-0.967636 4:-0.975914 5:-0.921941 6:-0.942431 7:-0.916835 8:-0.987882 9:-0.991285 10:-1 
1:-0.985056 2:-0.905797 3:-0.997472 4:-0.985661 5:-0.896624 6:0.187633 7:-0.99887 8:-0.999273 9:-0.99523 10:-0.997509 
1:-1 2:-0.971014 3:-0.999972 4:-0.966506 5:0.531646 6:1 7:-0.997578 8:-1 9:-0.999913 10:-1 
1:-0.995019 2:-0.978261 3:-0.999806 4:-0.991337 5:0.196203 6:0.187633 7:-0.995155 8:-0.999636 9:-0.99974 10:-1 
1:-1 2:-0.826087 3:-0.999417 4:-0.817528 5:-0.506329 6:1 7:-0.997578 8:-0.999576 9:-0.998179 10:-0.999377 
1:-0.972603 2:-0.974638 3:-0.998764 4:-0.997542 5:0.187764 6:0.933902 7:-0.998022 8:-0.996849 9:-0.996271 10:-0.994394 
1:-0.972603 2:-0.974638 3:-0.998764 4:-0.997542 5:-0.0991561 6:-0.0660981 7:-0.981833 8:-0.997637 9:-0.998222 10:-1 
1:-0.972603 2:-0.974638 3:-0.998764 4:-0.997542 5:0.561181 6:1 7:-0.994267 8:-0.995819 9:-0.996141 10:-0.997509 
1:-0.972603 2:-0.978261 3:-0.99893 4:-0.997855 5:0.07173 6:1 7:-0.998296 8:-0.997576 9:-0.996661 10:-0.995017 
1:-0.967621 2:-0.938406 3:-0.996597 4:-0.995236 5:-0.774262 6:0.162047 7:-0.999059 8:-0.998001 9:-0.99367 10:-0.993149 
1:-0.910336 2:-0.637681 3:-0.948189 4:-0.989858 5:-0.514768 6:0.34968 7:-0.999419 8:-0.936625 9:-0.887742 10:-0.731548 
1:-0.917808 2:-0.59058 3:-0.946259 4:-0.987538 5:-0.888186 6:-0.490405 7:-0.999358 8:-0.975826 9:-0.949746 10:-0.902834 
1:-0.972603 2:-0.974638 3:-0.998764 4:-0.997542 5:-0.493671 6:1 7:-0.999148 8:-0.998728 9:-0.996141 10:-0.995017 
1:-0.980075 2:-0.985507 3:-0.999472 4:-0.997955 5:0.390295 6:0.763326 7:-0.996096 8:-0.998485 9:-0.998569 10:-0.998754 
1:-0.975093 2:-0.974638 3:-0.998875 4:-0.997318 5:0.160338 6:1 7:-0.998757 8:-0.997213 9:-0.996488 10:-0.992526 
1:-0.945205 2:-0.90942 3:-0.991791 4:-0.995817 5:-0.523207 6:0.914712 7:-0.999677 8:-0.990367 9:-0.975415 10:-0.94332 
1:-0.980075 2:-0.981884 3:-0.999347 4:-0.997542 5:0.297468 6:0.486141 7:-0.993137 8:-0.998243 9:-0.998526 10:-0.999377 
1:-0.987547 2:-0.956522 3:-0.999014 4:-0.991955 5:-0.839662 6:0.098081 7:-0.99973 8:-0.999818 9:-0.998352 10:-0.996886 
1:-0.985056 2:-0.938406 3:-0.998347 4:-0.990451 5:-0.85865 6:-0.168443 7:-0.99954 8:-0.999515 9:-0.997832 10:-0.996263 
1:-0.985056 2:-0.92029 3:-0.997861 4:-0.987788 5:-0.913502 6:0.0191898 7:-0.999855 8:-0.999515 9:-0.996531 10:-0.993771 
1:-0.985056 2:-0.974638 3:-0.999319 4:-0.995769 5:-0.770042 6:-0.0277186 7:-0.999677 8:-0.999879 9:-0.999046 10:-0.997509 
1:-0.975093 2:-0.974638 3:-0.998875 4:-0.997318 5:0.424051 6:0.976546 7:-0.996096 8:-0.996547 9:-0.996531 10:-0.996886 
1:-0.975093 2:-0.978261 3:-0.999028 4:-0.997657 5:-0.122363 6:-0.10661 7:-0.98587 8:-0.998243 9:-0.998699 10:-1 
1:-0.975093 2:-0.974638 3:-0.998875 4:-0.997318 5:0.352321 6:0.976546 7:-0.996298 8:-0.996728 9:-0.996531 10:-0.996886 
1:-0.950187 2:-0.619565 3:-0.969178 4:-0.981225 5:-0.822785 6:-0.287846 7:-0.9996 8:-0.982127 9:-0.962104 10:-0.905948 
1:-0.987547 2:-0.902174 3:-0.997764 4:-0.982644 5:-0.808017 6:-0.0021322 7:-0.999713 8:-0.99897 9:-0.996445 10:-0.991903 
1:-0.967621 2:-0.865942 3:-0.992708 4:-0.989918 5:-0.594937 6:-0.0895522 7:-0.999213 8:-0.992548 9:-0.98903 10:-0.973217 
1:-0.965131 2:-0.891304 3:-0.993638 4:-0.992328 5:-0.679325 6:-0.140725 7:-0.998805 8:-0.994668 9:-0.990938 10:-0.985674 
1:-0.980075 2:-0.971014 3:-0.998972 4:-0.996302 5:-0.772152 6:0.710021 7:-0.999746 8:-0.999636 9:-0.997268 10:-0.99564 
1:-0.995019 2:-0.800725 3:-0.997764 4:-0.930502 5:-0.972574 6:-0.0660981 7:-0.999847 8:-0.999758 9:-0.996661 10:-0.99564 
1:-0.972603 2:-0.974638 3:-0.998764 4:-0.997542 5:-0.185654 6:-0.0447761 7:-0.983448 8:-0.997879 9:-0.998179 10:-1 
1:-0.975093 2:-0.974638 3:-0.998875 4:-0.997318 5:0.400844 6:1 7:-0.997222 8:-0.996607 9:-0.996488 10:-0.99564 
1:-0.975093 2:-0.974638 3:-0.998875 4:-0.997318 5:0.377637 6:1 7:-0.996827 8:-0.996668 9:-0.996488 10:-0.996263 
1:-0.985056 2:-0.963768 3:-0.999028 4:-0.994175 5:-0.808017 6:0.0575693 7:-0.99977 8:-0.999758 9:-0.998439 10:-0.996263 
1:-0.982565 2:-0.978261 3:-0.999319 4:-0.996767 5:-0.432489 6:-0.217484 7:-0.997981 8:-0.999334 9:-0.999263 10:-0.998754 
1:-0.955168 2:0.644928 3:-0.880016 4:-0.910837 5:-0.938819 6:-0.929638 7:-0.986887 8:-0.957831 9:-0.964705 10:-0.987543 
1:-0.982565 2:-0.992754 3:-0.999764 4:-0.998629 5:-0.14346 6:0.289979 7:-0.999516 8:-0.999758 9:-0.99961 10:-0.997509 
1:-0.982565 2:-0.992754 3:-0.999764 4:-0.998629 5:-0.0548523 6:0.289979 7:-0.999193 8:-0.999697 9:-0.99961 10:-0.998131 
1:-0.987547 2:-0.996377 3:-0.999931 4:-0.998786 5:0.297468 6:1 7:-0.997174 8:-0.999939 9:-0.999783 10:-1 
1:-0.985056 2:-0.996377 3:-0.999903 4:-0.998961 5:0.246835 6:0.848614 7:-0.999495 8:-0.999879 9:-0.99974 10:-0.998131 
1:-0.982565 2:-0.992754 3:-0.999764 4:-0.998629 5:-0.14346 6:0.377399 7:-0.999294 8:-0.999758 9:-0.999566 10:-0.998131 
1:-0.977584 2:-0.974638 3:-0.998986 4:-0.997047 5:0.314346 6:1 7:-0.99677 8:-0.997152 9:-0.996835 10:-0.996886 
1:-0.977584 2:-0.978261 3:-0.999125 4:-0.997419 5:-0.204641 6:-0.217484 7:-0.988292 8:-0.998606 9:-0.999003 10:-1 
1:-0.977584 2:-0.974638 3:-0.998986 4:-0.997047 5:0.341772 6:1 7:-0.996702 8:-0.997092 9:-0.996835 10:-0.996886 
1:-0.977584 2:-0.974638 3:-0.998986 4:-0.997047 5:0.156118 6:1 7:-0.997981 8:-0.997516 9:-0.996835 10:-0.99564 
1:-0.907846 2:0.481884 3:-0.783687 4:-0.959843 5:-0.57384 6:0.15565 7:-0.999435 8:-0.760679 9:-0.592594 10:0.0277172 
1:-0.995019 2:-0.677536 3:-0.996347 4:-0.888293 5:-0.0316456 6:0.801706 7:-0.999459 8:-0.992063 9:-0.98968 10:-0.963874 
1:-0.980075 2:-0.971014 3:-0.998972 4:-0.996302 5:0.219409 6:0.577825 7:-0.998345 8:-0.997334 9:-0.997485 10:-0.994394 
1:-0.920299 2:-0.423913 3:-0.926757 4:-0.98197 5:-0.647679 6:-0.302772 7:-0.997844 8:-0.930506 9:-0.911243 10:-0.887263 
1:-0.980075 2:-0.960145 3:-0.998597 4:-0.995061 5:0.198312 6:0.880597 7:-0.99847 8:-0.996365 9:-0.995881 10:-0.991903 
1:-0.995019 2:-0.992754 3:-0.999972 4:-0.996302 5:0.531646 6:0.526652 7:-0.997578 8:-1 9:-1 10:-1 
1:-0.942715 2:-0.655797 3:-0.968094 4:-0.985128 5:-0.670886 6:-0.0575693 7:-0.99912 8:-0.971342 9:-0.949963 10:-0.906571 
1:-0.942715 2:-0.771739 3:-0.978762 4:-0.990093 5:-0.630802 6:0.0831557 7:-0.999039 8:-0.97934 9:-0.962364 10:-0.936468 
1:-0.980075 2:-0.92029 3:-0.997222 4:-0.990506 5:-0.753165 6:-0.452026 7:-0.999225 8:-0.998304 9:-0.997442 10:-0.993149 
1:-0.985056 2:-0.98913 3:-0.999708 4:-0.997899 5:-0.506329 6:-0.371002 7:-0.997174 8:-0.999939 9:-0.99987 10:-1 
1:-0.945205 2:-0.0217391 3:-0.913519 4:-0.956141 5:-0.843882 6:-0.366738 7:-0.999649 8:-0.952802 9:-0.903222 10:-0.739022 
1:-0.985056 2:-0.923913 3:-0.997958 4:-0.98832 5:-0.780591 6:-0.0255864 7:-0.999758 8:-0.99897 9:-0.996835 10:-0.99128 
1:-0.985056 2:-0.981884 3:-0.999514 4:-0.996834 5:-0.658228 6:-0.522388 7:-0.99677 8:-0.999879 9:-0.999783 10:-1 
1:-0.985056 2:-0.985507 3:-0.999611 4:-0.997367 5:-0.687764 6:-0.217484 7:-0.997578 8:-1 9:-0.999653 10:-1 
1:-0.982565 2:-0.514493 3:-0.985096 4:-0.937176 5:-0.947257 6:-0.50533 7:-0.999782 8:-0.995395 9:-0.986559 10:-0.966988 
1:-0.982565 2:-0.746377 3:-0.992208 4:-0.966972 5:-0.822785 6:-0.313433 7:-0.999875 8:-0.995759 9:-0.990851 10:-0.963874 
1:-0.997509 2:-0.978261 3:-0.999903 4:-0.986991 5:-0.0548523 6:0.848614 7:-0.998991 8:-1 9:-0.99974 10:-0.999377 
1:-1 2:-0.967391 3:-0.999958 4:-0.962782 5:0.578059 6:1 7:-0.998789 8:-0.999939 9:-0.99987 10:-0.999377 
1:-0.987547 2:-0.996377 3:-0.999931 4:-0.998786 5:0.120253 6:1 7:-0.997578 8:-1 9:-0.999783 10:-1 
1:-0.987547 2:-0.902174 3:-0.997764 4:-0.982644 5:-0.795359 6:-0.332623 7:-0.99981 8:-0.998909 9:-0.997572 10:-0.990034 
1:-0.980075 2:-0.945652 3:-0.998097 4:-0.993404 5:-0.64135 6:-0.110874 7:-0.999867 8:-0.998485 9:-0.997312 10:-0.985674 
1:-0.967621 2:-0.898551 3:-0.994458 4:-0.992313 5:-0.814346 6:-0.0618337 7:-0.999746 8:-0.996971 9:-0.991458 10:-0.978823 
1:-0.977584 2:-0.960145 3:-0.99843 4:-0.995557 5:-0.723629 6:-0.296375 7:-0.999516 8:-0.999091 9:-0.998266 10:-0.994394 
1:-0.980075 2:-0.945652 3:-0.998097 4:-0.993404 5:-0.772152 6:-0.0660981 7:-0.999629 8:-0.999031 9:-0.997182 10:-0.993149 
1:-0.980075 2:-0.945652 3:-0.998097 4:-0.993404 5:-0.670886 6:0.0234542 7:-0.99954 8:-0.998606 9:-0.996921 10:-0.991903 
1:-0.982565 2:-0.963768 3:-0.998875 4:-0.994905 5:-0.774262 6:-0.115139 7:-0.999697 8:-0.999576 9:-0.998482 10:-0.99564 
1:-0.985056 2:-0.905797 3:-0.997472 4:-0.985661 5:-0.763713 6:-0.285714 7:-0.999362 8:-0.998546 9:-0.997052 10:-0.993149 
1:-1 2:-0.960145 3:-0.999931 4:-0.955333 5:0.120253 6:1 7:-0.999697 8:-1 9:-0.999783 10:-0.998131 
1:-0.977584 2:-0.960145 3:-0.99843 4:-0.995557 5:-0.635021 6:0.0575693 7:-0.999314 8:-0.998788 9:-0.997398 10:-0.994394 
1:-0.980075 2:-0.927536 3:-0.997472 4:-0.991337 5:-0.740506 6:-0.0383795 7:-0.999738 8:-0.998425 9:-0.996098 10:-0.988166 
1:-0.980075 2:-0.949275 3:-0.998222 4:-0.993817 5:-0.734177 6:0.0533049 7:-0.999758 8:-0.99897 9:-0.997052 10:-0.99128 
1:-0.980075 2:-0.942029 3:-0.997972 4:-0.992991 5:-0.723629 6:-0.00426439 7:-0.999697 8:-0.998728 9:-0.996791 10:-0.990657 
1:-0.977584 2:-0.934783 3:-0.997458 4:-0.99295 5:-0.810127 6:-0.4371 7:-0.999193 8:-0.998788 9:-0.997615 10:-0.995017 
1:-0.977584 2:-0.960145 3:-0.99843 4:-0.995557 5:-0.810127 6:-0.45629 7:-0.999261 8:-0.999394 9:-0.998656 10:-0.996886 
1:-0.977584 2:-0.793478 3:-0.992041 4:-0.978424 5:-0.938819 6:-0.654584 7:-0.99975 8:-0.997576 9:-0.994667 10:-0.98256 
1:-0.990037 2:-0.992754 3:-0.999889 4:-0.997791 5:0.156118 6:1 7:-0.998587 8:-0.999879 9:-0.999653 10:-0.999377 
1:-0.990037 2:-0.974638 3:-0.999542 4:-0.994067 5:0.156118 6:0.946695 7:-0.999524 8:-0.99897 9:-0.998612 10:-0.993771 
1:-0.985056 2:-0.905797 3:-0.997472 4:-0.985661 5:-0.943038 6:-0.759062 7:-0.999394 8:-0.999515 9:-0.998873 10:-0.996886 
1:-1 2:-0.952899 3:-0.999903 4:-0.947884 5:0.0949367 6:1 7:-0.999326 8:-0.999939 9:-0.999696 10:-0.998754 
1:-0.980075 2:-0.916667 3:-0.997097 4:-0.990093 5:-0.660338 6:-0.134328 7:-0.999887 8:-0.997637 9:-0.995924 10:-0.9782 
1:-0.977584 2:-0.865942 3:-0.994819 4:-0.985873 5:-0.71519 6:-0.144989 7:-0.999851 8:-0.996122 9:-0.992672 10:-0.968234 
1:-0.980075 2:-0.931159 3:-0.997597 4:-0.99175 5:-0.618143 6:-0.0660981 7:-0.99975 8:-0.997879 9:-0.996401 10:-0.984429 
1:-0.985056 2:-0.934783 3:-0.99825 4:-0.989918 5:-0.681435 6:-0.266525 7:-0.999495 8:-0.998788 9:-0.997962 10:-0.993149 
1:-0.982565 2:-0.98913 3:-0.999653 4:-0.998164 5:-0.582278 6:-0.398721 7:-0.997174 8:-0.999939 9:-0.999827 10:-1 
1:-0.980075 2:-0.90942 3:-0.996847 4:-0.989266 5:-0.740506 6:-0.0298507 7:-0.999851 8:-0.99794 9:-0.995057 10:-0.981937 
1:-0.977584 2:-0.869565 3:-0.994958 4:-0.986246 5:-0.78481 6:-0.157783 7:-0.999843 8:-0.996971 9:-0.992976 10:-0.975086 
1:-0.977584 2:-0.963768 3:-0.998569 4:-0.995929 5:-0.687764 6:0.0298507 7:-0.999516 8:-0.999091 9:-0.997702 10:-0.994394 
1:-0.985056 2:-0.844203 3:-0.995819 4:-0.976614 5:-0.753165 6:-0.162047 7:-0.999766 8:-0.997274 9:-0.994233 10:-0.980069 
1:-0.990037 2:-0.98913 3:-0.999819 4:-0.997047 5:0.156118 6:1 7:-0.999435 8:-0.999697 9:-0.999436 10:-0.997509 
1:-0.980075 2:-0.271739 3:-0.974845 4:-0.916435 5:-0.92616 6:-0.590618 7:-0.999879 8:-0.990851 9:-0.980271 10:-0.924634 
1:-0.980075 2:-0.898551 3:-0.996472 4:-0.988026 5:-0.71308 6:-0.0618337 7:-0.999806 8:-0.997455 9:-0.994623 10:-0.980069 
1:-0.950187 2:-0.956522 3:-0.996305 4:-0.997721 5:-0.755274 6:-0.47548 7:-0.999475 8:-0.997637 9:-0.996661 10:-0.988166 
1:-0.955168 2:-0.956522 3:-0.996666 4:-0.997479 5:-0.656118 6:0.0426439 7:-0.999794 8:-0.997213 9:-0.994407 10:-0.978823 
1:-0.987547 2:-0.974638 3:-0.999431 4:-0.995061 5:0.253165 6:0.823028 7:-0.999152 8:-0.998546 9:-0.998396 10:-0.994394 
1:-0.987547 2:-0.98913 3:-0.999764 4:-0.997542 5:0.297468 6:1 7:-0.997174 8:-0.999455 9:-0.999263 10:-0.999377 
1:-0.980075 2:-1 3:-0.999972 4:-0.999613 5:1 6:1 7:-0.99677 8:-0.999879 9:-0.999913 10:-1 
1:-0.990037 2:-0.938406 3:-0.998847 4:-0.986618 5:0.343882 6:1 7:-0.999015 8:-0.996668 9:-0.996401 10:-0.989411 
1:-0.990037 2:-0.98913 3:-0.999819 4:-0.997047 5:0.367089 6:0.573561 7:-0.997578 8:-0.999576 9:-0.99961 10:-0.999377 
1:-0.990037 2:-0.978261 3:-0.999611 4:-0.994812 5:0.276371 6:0.75693 7:-0.998857 8:-0.999031 9:-0.998959 10:-0.996886 
1:-0.990037 2:-0.98913 3:-0.999819 4:-0.997047 5:0.261603 6:0.680171 7:-0.999092 8:-0.999636 9:-0.999566 10:-0.998131 
1:-0.990037 2:-0.978261 3:-0.999611 4:-0.994812 5:0.156118 6:0.75693 7:-0.998991 8:-0.999152 9:-0.998959 10:-0.996886 
1:-0.977584 2:-0.771739 3:-0.991207 4:-0.97619 5:-0.71097 6:-0.279318 7:-0.999548 8:-0.993093 9:-0.989203 10:-0.96512 
1:-1 2:-0.913043 3:-0.99975 4:-0.906915 5:1 6:1 7:-0.990311 8:-0.998909 9:-0.99922 10:-1 
1:-0.990037 2:-0.960145 3:-0.999264 4:-0.991087 5:0.156118 6:0.78678 7:-0.999193 8:-0.998243 9:-0.997962 10:-0.993149 
1:-0.985056 2:-0.996377 3:-0.999903 4:-0.998961 5:0.698312 6:0.695096 7:-0.995559 8:-0.999697 9:-0.999783 10:-1 
1:-0.997509 2:-0.981884 3:-0.999931 4:-0.988853 5:0.120253 6:0.823028 7:-0.997578 8:-1 9:-0.999827 10:-1 
1:-0.995019 2:-0.992754 3:-0.999972 4:-0.996302 5:0.531646 6:0.526652 7:-0.997578 8:-1 9:-1 10:-1 
1:-1 2:-0.978261 3:-1 4:-0.973955 5:1 6:1 7:-0.997578 8:-1 9:-1 10:-1 
1:-0.990037 2:-0.996377 3:-0.999958 4:-0.998536 5:0.367089 6:0.360341 7:-0.997578 8:-1 9:-1 10:-1 
1:-0.992528 2:-0.996377 3:-0.999986 4:-0.998164 5:0.736287 6:0.733475 7:-0.997578 8:-1 9:-1 10:-1 
1:-0.992528 2:-0.992754 3:-0.999931 4:-0.997233 5:0.297468 6:0.823028 7:-0.999326 8:-0.999939 9:-0.999827 10:-0.998754 
1:-0.985056 2:-0.996377 3:-0.999903 4:-0.998961 5:0.396624 6:0.390192 7:-0.996367 8:-0.999818 9:-0.99987 10:-1 
1:-0.992528 2:-0.967391 3:-0.999542 4:-0.990715 5:0.156118 6:0.573561 7:-0.998789 8:-0.99897 9:-0.998916 10:-0.996886 
1:-0.990037 2:-0.992754 3:-0.999889 4:-0.997791 5:0.156118 6:0.147122 7:-0.99677 8:-0.999879 9:-0.999913 10:-1 
1:-0.990037 2:-0.996377 3:-0.999958 4:-0.998536 5:0.367089 6:0.360341 7:-0.997578 8:-1 9:-1 10:-1 
1:-0.992528 2:-0.916667 3:-0.998764 4:-0.977679 5:0.0991561 6:0.910448 7:-0.99958 8:-0.997092 9:-0.996314 10:-0.983806 
1:-0.990037 2:-0.894928 3:-0.998014 4:-0.977679 5:0.128692 6:0.914712 7:-0.999419 8:-0.995092 9:-0.99406 10:-0.9782 
1:-0.987547 2:-0.98913 3:-0.999764 4:-0.997542 5:0.120253 6:1 7:-0.998518 8:-0.999576 9:-0.999263 10:-0.998754 
1:-0.990037 2:-0.905797 3:-0.998222 4:-0.979914 5:0.170886 6:0.985075 7:-0.999459 8:-0.995456 9:-0.994493 10:-0.978823 
1:-0.990037 2:-0.98913 3:-0.999819 4:-0.997047 5:0.367089 6:1 7:-0.999463 8:-0.999576 9:-0.999436 10:-0.996886 
1:-0.987547 2:-0.98913 3:-0.999764 4:-0.997542 5:0.297468 6:1 7:-0.998789 8:-0.999455 9:-0.999263 10:-0.998131 
1:-0.990037 2:-0.974638 3:-0.999542 4:-0.994067 5:0.314346 6:0.946695 7:-0.999193 8:-0.998788 9:-0.998612 10:-0.995017 
1:-0.982565 2:-0.98913 3:-0.999653 4:-0.998164 5:0.14346 6:1 7:-0.99931 8:-0.999273 9:-0.998916 10:-0.996263 
1:-0.990037 2:-0.978261 3:-0.999611 4:-0.994812 5:0.337553 6:1 7:-0.999193 8:-0.99897 9:-0.998786 10:-0.99564 
1:-0.990037 2:-0.978261 3:-0.999611 4:-0.994812 5:0.156118 6:1 7:-0.999463 8:-0.999152 9:-0.998786 10:-0.995017 
1:-0.982565 2:-0.971014 3:-0.999097 4:-0.995836 5:-0.523207 6:-0.0660981 7:-0.999249 8:-0.999212 9:-0.998743 10:-0.996263 
1:-0.985056 2:-0.992754 3:-0.999806 4:-0.998428 5:0.0949367 6:1 7:-0.999193 8:-0.999697 9:-0.999393 10:-0.998131 
1:-0.982565 2:-0.992754 3:-0.999764 4:-0.998629 5:-0.0548523 6:1 7:-0.999193 8:-0.999697 9:-0.999263 10:-0.998131 
1:-0.982565 2:-0.938406 3:-0.998097 4:-0.991646 5:-0.742616 6:-0.15565 7:-0.999394 8:-0.998909 9:-0.997442 10:-0.994394 
1:-0.977584 2:-0.876812 3:-0.995236 4:-0.986991 5:-0.917722 6:-0.797441 7:-0.999326 8:-0.998485 9:-0.997919 10:-0.993149 
1:-0.985056 2:-0.992754 3:-0.999806 4:-0.998428 5:0.0949367 6:1 7:-0.998789 8:-0.999697 9:-0.999393 10:-0.998754 
1:-0.947696 2:-0.76087 3:-0.979623 4:-0.988685 5:-0.64346 6:0.827292 7:-0.999229 8:-0.980673 9:-0.941595 10:-0.930863 
1:-0.935243 2:-0.619565 3:-0.960343 4:-0.985404 5:-0.559072 6:-0.113006 7:-0.998203 8:-0.955165 9:-0.940988 10:-0.915291 
1:-0.932752 2:-0.887681 3:-0.987652 4:-0.995769 5:-0.14135 6:0.424307 7:-0.997998 8:-0.975523 9:-0.971946 10:-0.957646 
1:-1 2:-0.956522 3:-0.999917 4:-0.951608 5:0.512658 6:1 7:-0.998385 8:-0.999818 9:-0.99974 10:-0.999377 
1:-1 2:-0.684783 3:-0.998875 4:-0.672275 5:-0.702532 6:1 7:-1 8:-0.999394 9:-0.996488 10:-0.990034 
1:-1 2:-0.681159 3:-0.998861 4:-0.668551 5:-0.706751 6:1 7:-0.999976 8:-0.999394 9:-0.996445 10:-0.990657 
1:-0.982565 2:-0.753623 3:-0.99243 4:-0.967903 5:-0.902954 6:-0.398721 7:-0.999847 8:-0.997152 9:-0.992065 10:-0.976331 
1:-0.990037 2:-0.956522 3:-0.999194 4:-0.990343 5:-0.78481 6:0.279318 7:-0.996367 8:-0.999818 9:-0.998439 10:-1 
1:-0.970112 2:-0.797101 3:-0.989805 4:-0.983694 5:0.462025 6:1 7:-0.995761 8:-0.96698 9:-0.968174 10:-0.970726 
1:-0.990037 2:-0.98913 3:-0.999819 4:-0.997047 5:-0.265823 6:-0.279318 7:-0.997174 8:-0.999939 9:-0.999957 10:-1 
1:-0.992528 2:-0.98913 3:-0.999875 4:-0.996302 5:-0.0548523 6:-0.0660981 7:-0.997174 8:-0.999939 9:-0.999957 10:-1 
1:-0.992528 2:-0.98913 3:-0.999875 4:-0.996302 5:-0.185654 6:-0.198294 7:-0.997578 8:-1 9:-1 10:-1 
1:-0.990037 2:-0.98913 3:-0.999819 4:-0.997047 5:-0.160338 6:-0.172708 7:-0.99677 8:-0.999879 9:-0.999913 10:-1 
1:-0.980075 2:0.880435 3:-0.935091 4:-0.784835 5:-0.938819 6:-0.47548 7:-0.999851 8:-0.977522 9:-0.937822 10:-0.828714 
1:-0.985056 2:-0.289855 3:-0.980943 4:-0.895209 5:-0.957806 6:-0.4371 7:-0.999798 8:-0.994426 9:-0.980792 10:-0.959514 
1:-1 2:-0.101449 3:-0.996639 4:-0.0726397 5:-0.744726 6:1 7:-0.999992 8:-0.997819 9:-0.989507 10:-0.974463 
1:-1 2:-0.0507246 3:-0.996444 4:-0.0204975 5:-0.78903 6:1 7:-0.999988 8:-0.998001 9:-0.9889 10:-0.976331 
1:-1 2:-0.278986 3:-0.997319 4:-0.255137 5:-0.835443 6:1 7:-0.999984 8:-0.998849 9:-0.991632 10:-0.985051 
1:-1 2:-0.485507 3:-0.998111 4:-0.467431 5:-0.829114 6:1 7:-0.999976 8:-0.999273 9:-0.994103 10:-0.989411 
1:-1 2:-0.608696 3:-0.998583 4:-0.594062 5:-0.723629 6:1 7:-0.99998 8:-0.999212 9:-0.995577 10:-0.988789 
1:-1 2:-0.557971 3:-0.998389 4:-0.54192 5:-0.765823 6:1 7:-0.99998 8:-0.999212 9:-0.99497 10:-0.988789 
1:-1 2:-0.681159 3:-0.998861 4:-0.668551 5:-0.753165 6:1 7:-0.999972 8:-0.999515 9:-0.996445 10:-0.991903 
1:-0.967621 2:-0.797101 3:-0.989013 4:-0.984864 5:0.396624 6:0.872068 7:-0.995608 8:-0.965889 9:-0.967784 10:-0.970726 
1:-0.932752 2:-0.887681 3:-0.987652 4:-0.995769 5:-0.0527426 6:0.454158 7:-0.99757 8:-0.97322 9:-0.971383 10:-0.96076 
1:-0.980075 2:0.844203 3:-0.936341 4:-0.788973 5:-0.951477 6:-0.518124 7:-0.999822 8:-0.979461 9:-0.942939 10:-0.850514 
1:-0.982565 2:-0.865942 3:-0.995875 4:-0.982335 5:-0.839662 6:-0.185501 7:-0.999653 8:-0.998061 9:-0.99445 10:-0.987543 
1:-0.997509 2:-0.753623 3:-0.99818 4:-0.871533 5:-0.92616 6:-0.0511727 7:-0.999919 8:-0.999697 9:-0.997268 10:-0.994394 
1:-0.967621 2:-0.797101 3:-0.989013 4:-0.984864 5:0.455696 6:0.936034 7:-0.995527 8:-0.964556 9:-0.966743 10:-0.970103 
1:-0.992528 2:-0.648551 3:-0.994652 4:-0.908777 5:-0.00632911 6:0.957356 7:-0.99954 8:-0.988004 9:-0.983653 10:-0.940828 
1:-1 2:-0.398551 3:-0.997778 4:-0.378044 5:-0.704641 6:1 7:-0.999988 8:-0.998485 9:-0.993062 10:-0.981314 
1:-0.997509 2:0.00724638 3:-0.992346 4:-0.480466 5:-0.951477 6:0.0298507 7:-0.99998 8:-0.997879 9:-0.987122 10:-0.975709 
1:-0.982565 2:-0.431159 3:-0.98254 4:-0.926468 5:-0.894515 6:-0.394456 7:-0.999867 8:-0.992608 9:-0.981355 10:-0.940206 
1:-0.967621 2:-0.797101 3:-0.989013 4:-0.984864 5:0.424051 6:0.895522 7:-0.995624 8:-0.965283 9:-0.967394 10:-0.970103 
1:-0.992528 2:-0.644928 3:-0.994597 4:-0.907846 5:-0.0485232 6:0.876333 7:-0.999435 8:-0.988367 9:-0.98413 10:-0.948926 
1:-0.985056 2:0.137681 3:-0.969469 4:-0.832426 5:-0.991561 6:-0.603412 7:-0.999948 8:-0.992911 9:-0.976629 10:-0.932108 
1:-0.997509 2:-0.626812 3:-0.997208 4:-0.806355 5:-0.976793 6:-0.00426439 7:-0.999968 8:-0.999636 9:-0.995534 10:-0.993149 
1:-1 2:-0.362319 3:-0.997639 4:-0.3408 5:-0.681435 6:1 7:-0.999988 8:-0.998243 9:-0.992629 10:-0.978823 
1:-1 2:-0.644928 3:-0.998722 4:-0.631306 5:-0.704641 6:1 7:-0.999976 8:-0.999273 9:-0.996011 10:-0.989411 
1:-1 2:-0.75 3:-0.999125 4:-0.739315 5:-0.687764 6:1 7:-0.999968 8:-0.999576 9:-0.997268 10:-0.992526 
1:-1 2:-0.626812 3:-0.998653 4:-0.612684 5:-0.704641 6:1 7:-0.99998 8:-0.999212 9:-0.995794 10:-0.988789 
1:-1 2:-0.735507 3:-0.999069 4:-0.724417 5:-0.71097 6:1 7:-0.999968 8:-0.999576 9:-0.997095 10:-0.992526 
1:-1 2:-0.576087 3:-0.998458 4:-0.560542 5:-0.7173 6:1 7:-0.99998 8:-0.999091 9:-0.995187 10:-0.987543 
1:-0.997509 2:-0.952899 3:-0.999708 4:-0.973955 5:-0.280591 6:0.010661 7:-0.998922 8:-0.999758 9:-0.999653 10:-0.998754 
1:-0.985056 2:-0.731884 3:-0.992805 4:-0.960122 5:0.28481 6:0.801706 7:-0.998179 8:-0.9794 9:-0.979664 10:-0.961383 
1:-0.975093 2:-0.931159 3:-0.997041 4:-0.993255 5:-0.639241 6:-0.336887 7:-0.999362 8:-0.997455 9:-0.996748 10:-0.988789 
1:-0.967621 2:-0.960145 3:-0.997764 4:-0.996834 5:0.28481 6:0.682303 7:-0.996669 8:-0.993699 9:-0.994103 10:-0.993149 
1:-0.977584 2:-0.416667 3:-0.977595 4:-0.93969 5:-0.151899 6:0.0895522 7:-0.99801 8:-0.955892 9:-0.960066 10:-0.923388 
1:-0.980075 2:-0.971014 3:-0.998972 4:-0.996302 5:0.42616 6:0.763326 7:-0.997424 8:-0.996849 9:-0.997182 10:-0.99564 
1:-0.995019 2:-0.992754 3:-0.999972 4:-0.996302 5:0.531646 6:0.526652 7:-0.997578 8:-1 9:-1 10:-1 
1:-0.967621 2:-0.985507 3:-0.999125 4:-0.998696 5:-0.175105 6:-0.0362473 7:-0.997901 8:-0.998546 9:-0.998743 10:-0.997509 
1:-0.980075 2:-0.952899 3:-0.998347 4:-0.994231 5:0.379747 6:0.712154 7:-0.997408 8:-0.995032 9:-0.995577 10:-0.993149 
1:-0.985056 2:-0.949275 3:-0.998639 4:-0.992045 5:0.377637 6:0.938166 7:-0.997913 8:-0.995941 9:-0.995881 10:-0.993149 
1:-0.995019 2:-0.98913 3:-0.999931 4:-0.995061 5:0.472574 6:0.466951 7:-0.99677 8:-0.999879 9:-0.999913 10:-1 
1:-1 2:-0.978261 3:-1 4:-0.973955 5:1 6:1 7:-0.997578 8:-1 9:-1 10:-1 
1:-0.970112 2:-0.981884 3:-0.999014 4:-0.998305 5:-0.189873 6:-0.17484 7:-0.986677 8:-0.998364 9:-0.998786 10:-1 
1:-0.980075 2:-0.960145 3:-0.998597 4:-0.995061 5:0.257384 6:0.447761 7:-0.996367 8:-0.996183 9:-0.996835 10:-0.996263 
1:-0.985056 2:-0.978261 3:-0.999417 4:-0.996302 5:0.827004 6:0.91258 7:-0.99132 8:-0.997698 9:-0.998266 10:-0.999377 
1:-0.980075 2:-0.974638 3:-0.999097 4:-0.996715 5:0.120253 6:0.940299 7:-0.991926 8:-0.997879 9:-0.997268 10:-0.999377 
1:-0.942715 2:-0.644928 3:-0.967094 4:-0.984663 5:0.814346 6:0.914712 7:-0.992301 8:-0.86907 9:-0.901357 10:-0.933354 
1:-0.977584 2:-0.967391 3:-0.998708 4:-0.996302 5:-0.0548523 6:-0.0021322 7:-0.980218 8:-0.997395 9:-0.998005 10:-1 
1:-0.942715 2:-0.550725 3:-0.958427 4:-0.980629 5:0.820675 6:0.91258 7:-0.991809 8:-0.83405 9:-0.875558 10:-0.920274 
1:-0.995019 2:-0.992754 3:-0.999972 4:-0.996302 5:0.531646 6:0.526652 7:-0.997578 8:-1 9:-1 10:-1 
1:-0.977584 2:-0.938406 3:-0.997597 4:-0.993322 5:0.274262 6:0.78678 7:-0.997602 8:-0.993275 9:-0.993279 10:-0.990034 
1:-0.942715 2:-0.521739 3:-0.95576 4:-0.979385 5:0.803797 6:0.927505 7:-0.992866 8:-0.825083 9:-0.866539 10:-0.90408 
1:-0.937733 2:-0.387681 3:-0.938702 4:-0.975676 5:-0.71308 6:0.80597 7:-0.999782 8:-0.949955 9:-0.826128 10:-0.663033 
1:-0.942715 2:-0.434783 3:-0.947759 4:-0.975661 5:0.799578 6:0.910448 7:-0.993 8:-0.793759 9:-0.843819 10:-0.884771 
1:-0.977584 2:-0.971014 3:-0.998847 4:-0.996674 5:0.248945 6:0.336887 7:-0.976988 8:-0.99691 9:-0.997615 10:-1 
1:-0.977584 2:-0.967391 3:-0.998708 4:-0.996302 5:-0.139241 6:-0.151386 7:-0.981833 8:-0.997637 9:-0.998309 10:-1 
1:-0.945205 2:-0.554348 3:-0.960482 4:-0.979948 5:0.875527 6:1 7:-0.993456 8:-0.837807 9:-0.876642 10:-0.903457 
1:-0.995019 2:-0.992754 3:-0.999972 4:-0.996302 5:0.765823 6:0.763326 7:-0.997174 8:-0.999939 9:-0.999957 10:-1 
1:-0.995019 2:-0.992754 3:-0.999972 4:-0.996302 5:0.531646 6:0.526652 7:-0.997578 8:-1 9:-1 10:-1 
1:-0.980075 2:-0.938406 3:-0.997847 4:-0.992577 5:0.219409 6:0.880597 7:-0.997461 8:-0.994244 9:-0.99367 10:-0.991903 
1:-1 2:-0.858696 3:-0.999542 4:-0.851048 5:0.78903 6:1 7:-0.995559 8:-0.998243 9:-0.998569 10:-0.998754 
1:-1 2:-0.887681 3:-0.999653 4:-0.880844 5:-0.185654 6:1 7:-0.999596 8:-0.999576 9:-0.998916 10:-0.996263 
1:-0.942715 2:-0.615942 3:-0.964427 4:-0.983423 5:0.805907 6:0.96162 7:-0.993577 8:-0.859073 9:-0.890908 10:-0.914668 
1:-0.980075 2:-0.971014 3:-0.998972 4:-0.996302 5:-0.0147679 6:2.22045e-16 7:-0.983448 8:-0.997879 9:-0.998439 10:-1 
1:-0.977584 2:-0.971014 3:-0.998847 4:-0.996674 5:0.343882 6:0.550107 7:-0.996233 8:-0.996668 9:-0.997225 10:-0.996886 
1:-0.942715 2:-0.554348 3:-0.95876 4:-0.980782 5:0.793249 6:0.916844 7:-0.993678 8:-0.837867 9:-0.876339 10:-0.900343 
1:-0.995019 2:-0.98913 3:-0.999931 4:-0.995061 5:0.297468 6:0.289979 7:-0.997174 8:-0.999939 9:-0.999957 10:-1 
1:-0.980075 2:-0.938406 3:-0.997847 4:-0.992577 5:0.2827 6:0.750533 7:-0.997525 8:-0.993941 9:-0.994103 10:-0.99128 
1:-0.995019 2:-0.992754 3:-0.999972 4:-0.996302 5:0.765823 6:0.763326 7:-0.997174 8:-0.999939 9:-0.999957 10:-1 
1:-0.960149 2:-0.268116 3:-0.952162 4:-0.955552 5:0.841772 6:0.997868 7:-0.994675 8:-0.807028 9:-0.8508 10:-0.86048 
1:-0.980075 2:-0.974638 3:-0.999097 4:-0.996715 5:0.327004 6:0.496802 7:-0.995458 8:-0.997455 9:-0.997919 10:-0.998131 
1:-0.980075 2:-0.974638 3:-0.999097 4:-0.996715 5:0.413502 6:0.556503 7:-0.995155 8:-0.997274 9:-0.997832 10:-0.998131 
1:-0.960149 2:-0.619565 3:-0.975067 4:-0.976804 5:0.845992 6:1 7:-0.994538 8:-0.899182 9:-0.92217 10:-0.928994 
1:-0.960149 2:-0.0398551 3:-0.937286 4:-0.94175 5:0.833333 6:1 7:-0.995228 8:-0.747955 9:-0.804232 10:-0.798194 
1:-0.960149 2:-0.115942 3:-0.942244 4:-0.946349 5:0.816456 6:0.993603 7:-0.995168 8:-0.77013 9:-0.820275 10:-0.818125 
1:-0.980075 2:-0.942029 3:-0.997972 4:-0.992991 5:0.21308 6:0.833689 7:-0.99782 8:-0.994608 9:-0.99419 10:-0.99128 
1:-0.960149 2:-0.648551 3:-0.976956 4:-0.978555 5:0.850211 6:1 7:-0.994396 8:-0.906634 9:-0.928067 10:-0.935846 
1:-0.942715 2:-0.402174 3:-0.944759 4:-0.974264 5:0.799578 6:0.957356 7:-0.993508 8:-0.782066 9:-0.830985 10:-0.8692 
1:-0.995019 2:-0.992754 3:-0.999972 4:-0.996302 5:0.765823 6:0.763326 7:-0.997174 8:-0.999939 9:-0.999957 10:-1 
1:-0.995019 2:-0.992754 3:-0.999972 4:-0.996302 5:0.765823 6:0.763326 7:-0.997174 8:-0.999939 9:-0.999957 10:-1 
1:-0.977584 2:-0.967391 3:-0.998708 4:-0.996302 5:-0.0126582 6:-0.0021322 7:-0.979411 8:-0.997274 9:-0.998005 10:-1 
1:-0.977584 2:-0.945652 3:-0.997875 4:-0.994067 5:0.196203 6:0.921109 7:-0.997905 8:-0.994426 9:-0.993626 10:-0.990657 
1:-0.980075 2:-0.934783 3:-0.997722 4:-0.992164 5:0.272152 6:0.724947 7:-0.996924 8:-0.993638 9:-0.993843 10:-0.992526 
1:-0.995019 2:-0.992754 3:-0.999972 4:-0.996302 5:0.765823 6:1 7:-0.997174 8:-0.999939 9:-0.999913 10:-1 
1:-0.945205 2:-0.525362 3:-0.957926 4:-0.978651 5:0.894515 6:1 7:-0.992023 8:-0.825629 9:-0.868664 10:-0.914045 
1:-0.977584 2:-0.971014 3:-0.998847 4:-0.996674 5:0.297468 6:0.336887 7:-0.988292 8:-0.996789 9:-0.997615 10:-0.999377 
1:-0.995019 2:-0.98913 3:-0.999931 4:-0.995061 5:0.472574 6:0.466951 7:-0.99677 8:-0.999879 9:-0.999913 10:-1 
1:-0.980075 2:-0.934783 3:-0.997722 4:-0.992164 5:0.297468 6:0.776119 7:-0.997335 8:-0.993517 9:-0.99367 10:-0.99128 
1:-0.942715 2:-0.387681 3:-0.943425 4:-0.973646 5:0.85443 6:0.997868 7:-0.993524 8:-0.770251 9:-0.823614 10:-0.861725 
1:-0.987547 2:-0.742754 3:-0.994097 4:-0.955333 5:0.164557 6:0.98081 7:-0.998757 8:-0.984611 9:-0.981746 10:-0.96076 
1:-1 2:-0.978261 3:-1 4:-0.973955 5:1 6:1 7:-0.997578 8:-1 9:-1 10:-1 
1:-0.942715 2:-0.246377 3:-0.930424 4:-0.967594 5:0.843882 6:0.982942 7:-0.993432 8:-0.718994 9:-0.784547 10:-0.833074 
1:-0.942715 2:-0.568841 3:-0.960093 4:-0.981404 5:0.845992 6:0.940299 7:-0.99178 8:-0.838655 9:-0.878897 10:-0.922765 
1:-0.972603 2:-0.963768 3:-0.998264 4:-0.996611 5:0.265823 6:0.434968 7:-0.995442 8:-0.995214 9:-0.996098 10:-0.996263 
1:-0.995019 2:-0.98913 3:-0.999931 4:-0.995061 5:0.824895 6:0.823028 7:-0.995963 8:-0.999758 9:-0.999827 10:-1 
1:-0.942715 2:-0.387681 3:-0.943425 4:-0.973646 5:0.839662 6:0.993603 7:-0.993985 8:-0.77213 9:-0.823917 10:-0.853005 
1:-0.975093 2:-0.923913 3:-0.996736 4:-0.992577 5:0.259494 6:0.673774 7:-0.996883 8:-0.990912 9:-0.991415 10:-0.989411 
1:-0.995019 2:-0.98913 3:-0.999931 4:-0.995061 5:0.824895 6:0.823028 7:-0.995963 8:-0.999758 9:-0.999827 10:-1 
1:-0.945205 2:-0.568841 3:-0.96176 4:-0.980596 5:0.877637 6:1 7:-0.993363 8:-0.842957 9:-0.880631 10:-0.907817 
1:-0.945205 2:-0.286232 3:-0.936841 4:-0.967962 5:0.839662 6:0.997868 7:-0.994376 8:-0.74535 9:-0.803105 10:-0.824977 
1:-0.995019 2:0.532609 3:-0.982429 4:-0.47365 5:0.0232068 6:0.0554371 7:-0.945256 8:-0.959043 9:-0.969562 10:-0.997509 
1:-0.945205 2:-0.507246 3:-0.956329 4:-0.97784 5:0.694093 6:0.859275 7:-0.993686 8:-0.83714 9:-0.872697 10:-0.89972 
1:-0.995019 2:-0.98913 3:-0.999931 4:-0.995061 5:0.647679 6:0.823028 7:-0.996367 8:-0.999818 9:-0.999827 10:-1 
1:-0.798257 2:0.134058 3:-0.642451 4:-0.985765 5:-0.485232 6:-0.0618337 7:-0.996027 8:-0.538867 9:-0.439969 10:-0.562753 
1:-1 2:-0.971014 3:-0.999972 4:-0.966506 5:1 6:1 7:-0.99677 8:-0.999879 9:-0.999913 10:-1 
1:-0.945205 2:-0.550725 3:-0.960163 4:-0.979784 5:0.900844 6:1 7:-0.992027 8:-0.834474 9:-0.875645 10:-0.918405 
1:-0.972603 2:-0.967391 3:-0.99843 4:-0.996924 5:0.314346 6:0.537313 7:-0.995733 8:-0.995517 9:-0.996228 10:-0.996263 
1:-0.995019 2:-0.98913 3:-0.999931 4:-0.995061 5:1 6:1 7:-0.995559 8:-0.999697 9:-0.999783 10:-1 
1:-0.942715 2:-0.514493 3:-0.955093 4:-0.979076 5:0.812236 6:0.927505 7:-0.992858 8:-0.821509 9:-0.864545 10:-0.902211 
1:-0.975093 2:-0.923913 3:-0.996736 4:-0.992577 5:0.223629 6:0.710021 7:-0.997154 8:-0.991154 9:-0.991241 10:-0.988789 
1:-0.995019 2:-0.98913 3:-0.999931 4:-0.995061 5:0.824895 6:0.823028 7:-0.995963 8:-0.999758 9:-0.999827 10:-1 
1:-0.975093 2:-0.923913 3:-0.996736 4:-0.992577 5:0.206751 6:0.744136 7:-0.996593 8:-0.991275 9:-0.991068 10:-0.990657 
1:-0.81071 2:-0.0217391 3:-0.71025 4:-0.98692 5:-0.101266 6:0.454158 7:-0.99585 8:-0.395698 9:-0.327234 10:-0.449393 
1:-0.982565 2:-0.956522 3:-0.998653 4:-0.993974 5:0.28903 6:0.609808 7:-0.997618 8:-0.996244 9:-0.996618 10:-0.994394 
1:-0.982565 2:-0.956522 3:-0.998653 4:-0.993974 5:0.331224 6:0.609808 7:-0.997537 8:-0.996122 9:-0.996618 10:-0.994394 
1:-0.985056 2:-0.956522 3:-0.998833 4:-0.99311 5:0.535865 6:0.976546 7:-0.997218 8:-0.996122 9:-0.996401 10:-0.995017 
1:-0.985056 2:-0.956522 3:-0.998833 4:-0.99311 5:0.559072 6:0.953092 7:-0.997981 8:-0.996062 9:-0.996445 10:-0.993149 
1:-0.985056 2:-0.934783 3:-0.99825 4:-0.989918 5:0.28692 6:0.840085 7:-0.99843 8:-0.995092 9:-0.99497 10:-0.989411 
1:-0.985056 2:-0.956522 3:-0.998833 4:-0.99311 5:0.303797 6:0.765458 7:-0.997323 8:-0.996728 9:-0.996791 10:-0.99564 
1:-0.985056 2:-0.934783 3:-0.99825 4:-0.989918 5:0.28692 6:0.808102 7:-0.998312 8:-0.995092 9:-0.995057 10:-0.990034 
1:-0.995019 2:-0.626812 3:-0.995763 4:-0.870911 5:0.168776 6:0.324094 7:-0.996387 8:-0.988973 9:-0.991068 10:-0.988789 
1:-0.985056 2:-0.985507 3:-0.999611 4:-0.997367 5:0.639241 6:0.635394 7:-0.988696 8:-0.998667 9:-0.999046 10:-1 
1:-0.982565 2:-1 3:-0.999986 4:-0.999561 5:1 6:1 7:-0.997174 8:-0.999939 9:-0.999957 10:-1 
1:-0.785803 2:-0.583333 3:-0.859917 4:-0.995061 5:-0.253165 6:-0.245203 7:-0.958034 8:-0.752439 9:-0.818454 10:-0.976331 
1:-0.81071 2:-0.0724638 3:-0.725223 4:-0.987594 5:-0.128692 6:-0.08742 7:-0.971147 8:-0.442775 9:-0.580193 10:-0.92152 
1:-0.855542 2:-0.699275 3:-0.931257 4:-0.994722 5:0.280591 6:0.381663 7:-0.940509 8:-0.802666 9:-0.847808 10:-0.98692 
1:-0.960149 2:-0.934783 3:-0.995611 4:-0.995862 5:-0.345992 6:-0.319829 7:-0.976786 8:-0.993335 9:-0.99497 10:-0.999377 
1:-0.990037 2:-0.75 3:-0.995236 4:-0.947884 5:-0.729958 6:-0.24307 7:-0.999839 8:-0.996607 9:-0.993973 10:-0.972594 
1:-0.957659 2:-0.923913 3:-0.994597 4:-0.995475 5:-0.337553 6:-0.0383795 7:-0.99455 8:-0.991639 9:-0.991502 10:-0.994394 
1:-0.960149 2:-0.963768 3:-0.9975 4:-0.997616 5:-0.421941 6:-0.208955 7:-0.996298 8:-0.996728 9:-0.996791 10:-0.996886 
1:-0.995019 2:-0.985507 3:-0.999889 4:-0.993817 5:0.0147679 6:0.573561 7:-0.998789 8:-0.999939 9:-0.999783 10:-0.999377 
1:-0.960149 2:-0.923913 3:-0.994902 4:-0.995207 5:-0.432489 6:-0.266525 7:-0.996944 8:-0.993154 9:-0.993713 10:-0.991903 
1:-0.987547 2:-0.833333 3:-0.99618 4:-0.970853 5:-0.736287 6:-0.172708 7:-0.999754 8:-0.997395 9:-0.994797 10:-0.981314 
1:-0.985056 2:-0.416667 3:-0.984346 4:-0.913831 5:-0.907173 6:-0.63113 7:-0.999802 8:-0.99382 9:-0.98877 10:-0.955154 
1:-0.960149 2:-0.880435 3:-0.992069 4:-0.992577 5:-0.850211 6:-0.799574 7:-0.993238 8:-0.996122 9:-0.996401 10:-0.998131 
1:-0.805729 2:-0.427536 3:-0.825622 4:-0.992529 5:-0.436709 6:-0.347548 7:-0.979653 8:-0.757528 9:-0.799853 10:-0.95204 
1:-0.81071 2:-0.115942 3:-0.738058 4:-0.988175 5:-0.170886 6:-0.0170576 7:-0.987214 8:-0.49173 9:-0.572302 10:-0.840548 
1:-0.818182 2:-0.34058 3:-0.811996 4:-0.990816 5:0.0379747 6:0.172708 7:-0.949132 8:-0.554135 9:-0.640897 10:-0.964497 
1:-1 2:-0.938406 3:-0.999847 4:-0.932986 5:-0.28903 6:1 7:-0.998991 8:-1 9:-0.999523 10:-0.999377 
1:-0.992528 2:-0.655797 3:-0.994763 4:-0.910639 5:-0.229958 6:0.473348 7:-0.99952 8:-0.99073 9:-0.987773 10:-0.955154 
1:-0.992528 2:-0.655797 3:-0.994763 4:-0.910639 5:-0.0991561 6:0.739872 7:-0.99937 8:-0.989276 9:-0.985691 10:-0.955777 
1:-0.990037 2:-0.862319 3:-0.997389 4:-0.970975 5:-0.189873 6:0.266525 7:-0.998975 8:-0.995274 9:-0.994754 10:-0.985674 
1:-0.980075 2:-0.971014 3:-0.998972 4:-0.996302 5:-0.432489 6:-0.289979 7:-0.995155 8:-0.998849 9:-0.998916 10:-0.999377 
1:-0.985056 2:-0.98913 3:-0.999708 4:-0.997899 5:-0.204641 6:0.390192 7:-0.999435 8:-0.999697 9:-0.999436 10:-0.997509 
1:-1 2:-0.855072 3:-0.999528 4:-0.847324 5:-0.28692 6:1 7:-0.999972 8:-0.999455 9:-0.998526 10:-0.99128 
1:-1 2:-0.858696 3:-0.999542 4:-0.851048 5:-0.265823 6:1 7:-0.999972 8:-0.999455 9:-0.998569 10:-0.99128 
1:-1 2:-0.851449 3:-0.999514 4:-0.843599 5:-0.255274 6:1 7:-0.999976 8:-0.999394 9:-0.998482 10:-0.990657 
1:-1 2:-0.858696 3:-0.999542 4:-0.851048 5:-0.265823 6:1 7:-0.999972 8:-0.999455 9:-0.998569 10:-0.99128 
1:-1 2:-0.876812 3:-0.999611 4:-0.869671 5:-0.204641 6:1 7:-0.999972 8:-0.999515 9:-0.998786 10:-0.991903 
1:-1 2:-0.884058 3:-0.999639 4:-0.877119 5:-0.341772 6:1 7:-0.999964 8:-0.999697 9:-0.998873 10:-0.993771 
1:-0.990037 2:-0.996377 3:-0.999958 4:-0.998536 5:0.578059 6:0.573561 7:-0.997174 8:-0.999939 9:-0.999957 10:-1 
1:-0.985056 2:-0.800725 3:-0.994652 4:-0.970231 5:-0.808017 6:-0.277186 7:-0.999774 8:-0.997031 9:-0.993496 10:-0.9782 
1:-0.985056 2:-0.811594 3:-0.994944 4:-0.971828 5:-0.921941 6:-0.609808 7:-0.999798 8:-0.998425 9:-0.996358 10:-0.98692 
1:-1 2:-0.65942 3:-0.998778 4:-0.646204 5:-0.310127 6:1 7:-0.999988 8:-0.998243 9:-0.996184 10:-0.978823 
1:-0.987547 2:-0.967391 3:-0.999264 4:-0.993817 5:-0.723629 6:0.253731 7:-0.999665 8:-0.999758 9:-0.998612 10:-0.996886 
1:-0.990037 2:-0.931159 3:-0.998708 4:-0.985128 5:-0.751055 6:-0.108742 7:-0.999778 8:-0.999394 9:-0.998222 10:-0.993771 
1:-1 2:-0.673913 3:-0.998833 4:-0.661102 5:-0.367089 6:1 7:-0.999988 8:-0.998485 9:-0.996358 10:-0.981314 
1:-0.997509 2:-0.833333 3:-0.998792 4:-0.912502 5:-0.751055 6:-0.0426439 7:-0.999943 8:-0.999455 9:-0.998222 10:-0.991903 
1:-1 2:-0.833333 3:-0.999444 4:-0.824977 5:-0.392405 6:1 7:-0.999943 8:-0.999455 9:-0.998266 10:-0.991903 
1:-0.985056 2:-0.974638 3:-0.999319 4:-0.995769 5:-0.658228 6:0.200426 7:-0.999713 8:-0.999697 9:-0.998786 10:-0.996263 
1:-1 2:-0.724638 3:-0.999028 4:-0.713244 5:-0.424051 6:1 7:-0.999984 8:-0.998909 9:-0.996965 10:-0.985674 
1:-1 2:-0.833333 3:-0.999444 4:-0.824977 5:-0.21097 6:1 7:-0.99998 8:-0.999212 9:-0.998266 10:-0.988789 
1:-1 2:-0.851449 3:-0.999514 4:-0.843599 5:-0.305907 6:1 7:-0.999972 8:-0.999455 9:-0.998482 10:-0.99128 
1:-0.987547 2:-0.706522 3:-0.993263 4:-0.949124 5:-0.890295 6:-0.486141 7:-0.999875 8:-0.997334 9:-0.993843 10:-0.976331 
1:-0.990037 2:-0.960145 3:-0.999264 4:-0.991087 5:-0.687764 6:-0.136461 7:-0.999713 8:-0.999697 9:-0.999089 10:-0.996263 
1:-0.990037 2:-0.793478 3:-0.996069 4:-0.956823 5:-0.919831 6:-0.579957 7:-0.999927 8:-0.998849 9:-0.997052 10:-0.98692 
1:-1 2:-0.84058 3:-0.999472 4:-0.832426 5:-0.35865 6:1 7:-0.999972 8:-0.999455 9:-0.998352 10:-0.99128 
1:-0.835616 2:0.0688406 3:-0.724626 4:-0.983571 5:-0.924051 6:-0.52452 7:-0.999782 8:-0.894517 9:-0.755366 10:-0.294301 
1:-0.987547 2:-0.626812 3:-0.99143 4:-0.93547 5:-0.900844 6:-0.58209 7:-0.999596 8:-0.996668 9:-0.993323 10:-0.981314 
1:-0.945205 2:-0.67029 3:-0.970705 4:-0.985128 5:-0.803797 6:0.0021322 7:-0.999822 8:-0.981884 9:-0.951481 10:-0.868577 
1:-0.985056 2:-0.923913 3:-0.997958 4:-0.98832 5:-0.905063 6:-0.272921 7:-0.999855 8:-0.999515 9:-0.997615 10:-0.993771 
1:-0.825654 2:-0.880435 3:-0.966566 4:-0.998242 5:-0.911392 6:-0.550107 7:-0.999633 8:-0.986671 9:-0.97173 10:-0.926503 
1:-0.990037 2:-0.949275 3:-0.999055 4:-0.988853 5:-0.913502 6:-0.392324 7:-0.999839 8:-1 9:-0.999176 10:-0.997509 
1:-0.985056 2:-0.862319 3:-0.996305 4:-0.979277 5:-0.799578 6:-0.108742 7:-0.99973 8:-0.998001 9:-0.994623 10:-0.985674 
1:-0.985056 2:-0.949275 3:-0.998639 4:-0.992045 5:-0.727848 6:0.168443 7:-0.99931 8:-0.999273 9:-0.997529 10:-0.996263 
1:-0.987547 2:-0.978261 3:-0.999514 4:-0.99568 5:0.396624 6:0.695096 7:-0.988292 8:-0.998606 9:-0.998743 10:-1 
1:-0.945205 2:-0.931159 3:-0.993708 4:-0.996786 5:-0.0400844 6:0.30064 7:-0.991853 8:-0.986307 9:-0.986905 10:-0.993771 
1:-0.907846 2:-0.181159 3:-0.88028 4:-0.977776 5:-0.468354 6:0.249467 7:-0.997541 8:-0.841503 9:-0.757794 10:-0.770165 
1:-0.947696 2:-0.931159 3:-0.993986 4:-0.996641 5:-0.518987 6:0.0831557 7:-0.998244 8:-0.992972 9:-0.98942 10:-0.986297 
1:-0.955168 2:-0.960145 3:-0.99693 4:-0.997672 5:-0.470464 6:-0.196162 7:-0.997307 8:-0.996244 9:-0.995968 10:-0.995017 
1:-0.900374 2:-0.76087 3:-0.961941 4:-0.99394 5:-0.179325 6:-0.00426439 7:-0.986811 8:-0.926992 9:-0.937346 10:-0.9782 
1:-0.990037 2:-0.985507 3:-0.99975 4:-0.996302 5:0.409283 6:0.402985 7:-0.993137 8:-0.999334 9:-0.999523 10:-1 
1:-0.907846 2:0.235507 3:-0.81958 4:-0.966506 5:-0.529536 6:-0.138593 7:-0.995159 8:-0.783944 9:-0.737849 10:-0.829337 
1:-0.985056 2:-0.938406 3:-0.998347 4:-0.990451 5:-0.757384 6:-0.200426 7:-0.999342 8:-0.999152 9:-0.997919 10:-0.99564 
1:-1 2:-0.923913 3:-0.999792 4:-0.918088 5:0.137131 6:1 7:-0.999354 8:-0.999636 9:-0.99935 10:-0.997509 
1:-0.987547 2:-0.956522 3:-0.999014 4:-0.991955 5:-0.622363 6:-0.0938166 7:-0.999193 8:-0.999334 9:-0.998656 10:-0.996886 
1:-0.952677 2:-0.934783 3:-0.994819 4:-0.996488 5:-0.0654008 6:0.38806 7:-0.995345 8:-0.989034 9:-0.988553 10:-0.99128 
1:-0.952677 2:-0.894928 3:-0.991763 4:-0.994439 5:-0.196203 6:0.140725 7:-0.994881 8:-0.984671 9:-0.984781 10:-0.988789 
1:-0.952677 2:-0.938406 3:-0.995097 4:-0.996674 5:-0.0780591 6:0.110874 7:-0.992507 8:-0.989761 9:-0.991198 10:-0.995017 
1:-0.952677 2:-0.945652 3:-0.995652 4:-0.997047 5:-0.0548523 6:0.08742 7:-0.989637 8:-0.99073 9:-0.992369 10:-0.996886 
1:-0.952677 2:-0.887681 3:-0.991207 4:-0.994067 5:-0.202532 6:0.0511727 7:-0.991865 8:-0.983762 9:-0.984911 10:-0.992526 
1:-0.932752 2:-0.706522 3:-0.968205 4:-0.989117 5:-0.537975 6:-0.30064 7:-0.996811 8:-0.962678 9:-0.961497 10:-0.957023 
1:-0.932752 2:-0.84058 3:-0.982596 4:-0.994041 5:-0.333333 6:0.0191898 7:-0.997231 8:-0.972311 9:-0.970819 10:-0.963874 
1:-0.955168 2:-0.902174 3:-0.992708 4:-0.994536 5:0.130802 6:0.812367 7:-0.995139 8:-0.98146 9:-0.979274 10:-0.985674 
1:-0.982565 2:-0.887681 3:-0.996541 4:-0.985128 5:-0.261603 6:-0.0746269 7:-0.986544 8:-0.994184 9:-0.994797 10:-0.998754 
1:-0.982565 2:-0.902174 3:-0.996986 4:-0.986991 5:-0.185654 6:-0.0746269 7:-0.992491 8:-0.994487 9:-0.995491 10:-0.997509 
1:-0.920299 2:-0.351449 3:-0.917589 4:-0.979709 5:-0.611814 6:0.170576 7:-0.999725 8:-0.915601 9:-0.843039 10:-0.480536 
1:-0.975093 2:0.0942029 3:-0.953801 4:-0.897436 5:-0.723629 6:-0.560768 7:-0.998397 8:-0.963405 9:-0.961627 10:-0.924011 
1:-0.975093 2:-0.985507 3:-0.999333 4:-0.998331 5:0.272152 6:0.41791 7:-0.995559 8:-0.998243 9:-0.998569 10:-0.998754 
1:-0.975093 2:0.0942029 3:-0.953801 4:-0.897436 5:-0.791139 6:-0.705757 7:-0.99738 8:-0.970009 9:-0.971426 10:-0.958891 
1:-0.853051 2:-0.797101 3:-0.952593 4:-0.996488 5:-0.139241 6:0.639659 7:-0.998825 8:-0.905059 9:-0.877032 10:-0.749611 
1:-0.907846 2:-0.543478 3:-0.933063 4:-0.987579 5:-0.130802 6:0.722814 7:-0.999027 8:-0.864829 9:-0.818237 10:-0.591405 
1:-0.907846 2:-0.655797 3:-0.949426 4:-0.990618 5:-0.200422 6:0.65032 7:-0.999075 8:-0.905059 9:-0.868014 10:-0.702896 
1:-0.912827 2:-0.985507 3:-0.997597 4:-0.999508 5:0.274262 6:0.609808 7:-0.997226 8:-0.993275 9:-0.99393 10:-0.99128 
1:-0.985056 2:-0.98913 3:-0.999708 4:-0.997899 5:0.396624 6:0.848614 7:-0.996367 8:-0.999212 9:-0.999176 10:-0.999377 
1:-0.995019 2:-0.594203 3:-0.995388 4:-0.859737 5:-0.244726 6:-0.1258 7:-0.994792 8:-0.992002 9:-0.993366 10:-0.994394 
1:-0.995019 2:-0.789855 3:-0.997639 4:-0.926777 5:-0.107595 6:-0.119403 7:-0.966492 8:-0.995335 9:-0.996661 10:-1 
1:-0.997509 2:-0.931159 3:-0.999542 4:-0.962782 5:0.314346 6:0.307036 7:-0.989503 8:-0.998788 9:-0.999133 10:-1 
1:-0.997509 2:-0.637681 3:-0.997291 4:-0.811942 5:0.0295359 6:0.452026 7:-0.996003 8:-0.99382 9:-0.9938 10:-0.994394 
1:-0.992528 2:-0.300725 3:-0.989318 4:-0.819391 5:-0.554852 6:-0.550107 7:-0.986677 8:-0.988064 9:-0.991111 10:-0.996886 
1:-0.997509 2:-0.938406 3:-0.999597 4:-0.966506 5:0.297468 6:0.347548 7:-0.990715 8:-0.99897 9:-0.99922 10:-1 
1:-0.997509 2:-0.923913 3:-0.999486 4:-0.959057 5:0.472574 6:0.466951 7:-0.987081 8:-0.998425 9:-0.998873 10:-1 
1:-0.997509 2:-0.938406 3:-0.999597 4:-0.966506 5:0.590717 6:0.643923 7:-0.988696 8:-0.998667 9:-0.999003 10:-1 
1:-0.997509 2:-0.923913 3:-0.999486 4:-0.959057 5:0.377637 6:0.710021 7:-0.994146 8:-0.998546 9:-0.998656 10:-0.999377 
1:-0.995019 2:-0.583333 3:-0.995263 4:-0.856013 5:-0.297468 6:-0.0788913 7:-0.986879 8:-0.992305 9:-0.992846 10:-0.998131 
1:-1 2:-0.967391 3:-0.999958 4:-0.962782 5:1 6:1 7:-0.996367 8:-0.999818 9:-0.99987 10:-1 
1:-1 2:-0.956522 3:-0.999917 4:-0.951608 5:1 6:1 7:-0.995155 8:-0.999636 9:-0.99974 10:-1 
1:-1 2:-0.974638 3:-0.999986 4:-0.970231 5:1 6:1 7:-0.997174 8:-0.999939 9:-0.999957 10:-1 
1:-1 2:-0.844203 3:-0.999486 4:-0.836151 5:-0.582278 6:1 7:-0.999516 8:-0.999758 9:-0.998396 10:-0.997509 
1:-0.997509 2:-0.931159 3:-0.999542 4:-0.962782 5:0.419831 6:0.733475 7:-0.988696 8:-0.998667 9:-0.998786 10:-1 
1:-0.997509 2:-0.931159 3:-0.999542 4:-0.962782 5:0.525316 6:0.680171 7:-0.987889 8:-0.998546 9:-0.998829 10:-1 
1:-0.995019 2:-0.594203 3:-0.995388 4:-0.859737 5:-0.35654 6:-0.326226 7:-0.988191 8:-0.993093 9:-0.994754 10:-0.998131 
1:-0.997509 2:-0.82971 3:-0.998764 4:-0.910639 5:0.208861 6:0.311301 7:-0.988292 8:-0.996789 9:-0.997485 10:-0.999377 
1:-0.995019 2:-0.583333 3:-0.995263 4:-0.856013 5:-0.35865 6:-0.341151 7:-0.975373 8:-0.992911 9:-0.99471 10:-0.999377 
1:-0.997509 2:-0.938406 3:-0.999597 4:-0.966506 5:0.413502 6:0.407249 7:-0.989907 8:-0.998849 9:-0.999176 10:-1 
1:-0.995019 2:-0.525362 3:-0.994597 4:-0.836151 5:-0.0443038 6:0.0575693 7:-0.992329 8:-0.988307 9:-0.990721 10:-0.994394 
1:-1 2:-0.942029 3:-0.999861 4:-0.936711 5:0.504219 6:1 7:-0.999092 8:-0.999636 9:-0.999566 10:-0.998131 
1:-1 2:-0.974638 3:-0.999986 4:-0.970231 5:1 6:1 7:-0.997174 8:-0.999939 9:-0.999957 10:-1 
1:-0.997509 2:-0.753623 3:-0.99818 4:-0.871533 5:0.204641 6:0.799574 7:-0.996064 8:-0.995214 9:-0.994884 10:-0.99564 
1:-0.997509 2:-0.836957 3:-0.998819 4:-0.914364 5:0.128692 6:0.490405 7:-0.993137 8:-0.997152 9:-0.997268 10:-0.998754 
1:-1 2:-0.797101 3:-0.999305 4:-0.787733 5:-0.147679 6:1 7:-0.998906 8:-0.998849 9:-0.997832 10:-0.996263 
1:-1 2:-0.967391 3:-0.999958 4:-0.962782 5:0.78903 6:1 7:-0.99677 8:-0.999879 9:-0.99987 10:-1 
1:-0.997509 2:-0.583333 3:-0.996875 4:-0.784008 5:0.189873 6:0.577825 7:-0.993185 8:-0.99176 9:-0.992239 10:-0.99564 
1:-0.997509 2:-0.942029 3:-0.999625 4:-0.968368 5:0.130802 6:0.938166 7:-0.997711 8:-0.999212 9:-0.998873 10:-0.998754 
1:-0.977584 2:-0.996377 3:-0.999819 4:-0.999281 5:0.0506329 6:0.147122 7:-0.995963 8:-0.999758 9:-0.999783 10:-1 
1:-0.997509 2:-0.597826 3:-0.996986 4:-0.791457 5:-0.0632911 6:-0.0575693 7:-0.977998 8:-0.993699 9:-0.995404 10:-0.999377 
1:-1 2:-0.84058 3:-0.999472 4:-0.832426 5:0.485232 6:1 7:-0.998115 8:-0.998364 9:-0.998352 10:-0.996886 
1:-1 2:-0.887681 3:-0.999653 4:-0.880844 5:0.407173 6:1 7:-0.998082 8:-0.999031 9:-0.998916 10:-0.998131 
1:-1 2:-0.956522 3:-0.999917 4:-0.951608 5:0.350211 6:1 7:-0.998587 8:-0.999879 9:-0.99974 10:-0.999377 
1:-0.997509 2:-0.557971 3:-0.99668 4:-0.770973 5:-0.0548523 6:-0.0575693 7:-0.950747 8:-0.992972 9:-0.994927 10:-1 
1:-1 2:-0.873188 3:-0.999597 4:-0.865946 5:0.413502 6:1 7:-0.996904 8:-0.998849 9:-0.998743 10:-0.998754 
1:-1 2:-0.934783 3:-0.999833 4:-0.929262 5:0.554852 6:1 7:-0.99889 8:-0.999515 9:-0.99948 10:-0.998131 
1:-1 2:-0.971014 3:-0.999972 4:-0.966506 5:0.531646 6:1 7:-0.997578 8:-1 9:-0.999913 10:-1 
1:-0.995019 2:-0.231884 3:-0.991221 4:-0.735591 5:-0.438819 6:-0.324094 7:-0.995583 8:-0.988125 9:-0.989811 10:-0.990034 
1:-1 2:-0.818841 3:-0.999389 4:-0.810079 5:-0.116034 6:1 7:-0.999435 8:-0.99897 9:-0.998092 10:-0.994394 
1:-0.955168 2:0.67029 3:-0.878169 4:-0.909463 5:-0.00632911 6:0.334755 7:-0.993589 8:-0.722266 9:-0.738629 10:-0.831205 
1:-1 2:-0.815217 3:-0.999375 4:-0.806355 5:0.0253165 6:1 7:-0.994752 8:-0.998728 9:-0.998049 10:-0.999377 
1:-1 2:-0.554348 3:-0.998375 4:-0.538195 5:-0.172996 6:1 7:-0.997231 8:-0.997092 9:-0.994927 10:-0.996263 
1:-1 2:-0.974638 3:-0.999986 4:-0.970231 5:0.736287 6:1 7:-0.997578 8:-1 9:-0.999957 10:-1 
1:-1 2:-0.804348 3:-0.999333 4:-0.795182 5:0.0801688 6:1 7:-0.996233 8:-0.998546 9:-0.997919 10:-0.998754 
1:-1 2:-0.586957 3:-0.9985 4:-0.571715 5:-0.687764 6:1 7:-0.998547 8:-0.999031 9:-0.995317 10:-0.997509 
1:-1 2:-0.963768 3:-0.999944 4:-0.959057 5:1 6:1 7:-0.995963 8:-0.999758 9:-0.999827 10:-1 
1:-0.997509 2:-0.771739 3:-0.998319 4:-0.880844 5:0.0105485 6:0.117271 7:-0.993541 8:-0.996304 9:-0.997052 10:-0.998131 
1:-0.992528 2:-0.586957 3:-0.993708 4:-0.892948 5:-0.21097 6:-0.0938166 7:-0.99321 8:-0.988549 9:-0.990591 10:-0.993771 
1:-1 2:-0.898551 3:-0.999694 4:-0.892017 5:0.126582 6:1 7:-0.999544 8:-0.999394 9:-0.999046 10:-0.99564 
1:-1 2:-0.942029 3:-0.999861 4:-0.936711 5:-0.240506 6:1 7:-0.999697 8:-1 9:-0.999566 10:-0.998131 
1:-0.932752 2:0.192029 3:-0.871751 4:-0.95613 5:-0.989451 6:-0.991471 7:-0.987889 8:-0.968494 9:-0.973681 10:-0.990034 
1:-1 2:-0.938406 3:-0.999847 4:-0.932986 5:0.881857 6:1 7:-0.993541 8:-0.999394 9:-0.999523 10:-1 
1:-1 2:-0.978261 3:-1 4:-0.973955 5:1 6:1 7:-0.997578 8:-1 9:-1 10:-1 
1:-1 2:-0.57971 3:-0.998472 4:-0.564266 5:-0.280591 6:1 7:-0.998082 8:-0.997637 9:-0.99523 10:-0.99564 
1:-1 2:-0.724638 3:-0.999028 4:-0.713244 5:-0.259494 6:1 7:-0.998317 8:-0.998546 9:-0.996965 10:-0.996886 
1:-1 2:-0.902174 3:-0.999708 4:-0.895742 5:0.924051 6:1 7:-0.989503 8:-0.998788 9:-0.999089 10:-1 
1:-1 2:-0.876812 3:-0.999611 4:-0.869671 5:0.639241 6:1 7:-0.9965 8:-0.998667 9:-0.998786 10:-0.998754 
1:-1 2:-0.952899 3:-0.999903 4:-0.947884 5:0.0949367 6:1 7:-0.999596 8:-0.999939 9:-0.999696 10:-0.998131 
1:-1 2:-0.92029 3:-0.999778 4:-0.914364 5:0.632911 6:1 7:-0.992733 8:-0.999273 9:-0.999306 10:-1 
1:-1 2:-0.934783 3:-0.999833 4:-0.929262 5:0.333333 6:1 7:-0.998656 8:-0.999636 9:-0.99948 10:-0.998754 
1:-1 2:-0.963768 3:-0.999944 4:-0.959057 5:0.424051 6:1 7:-0.998789 8:-0.999939 9:-0.999827 10:-0.999377 
1:-1 2:-0.956522 3:-0.999917 4:-0.951608 5:0.350211 6:1 7:-0.999193 8:-0.999879 9:-0.99974 10:-0.998754 
1:-1 2:-0.942029 3:-0.999861 4:-0.936711 5:0.628692 6:1 7:-0.998518 8:-0.999576 9:-0.999566 10:-0.998754 
1:-1 2:-0.949275 3:-0.999889 4:-0.944159 5:0.719409 6:1 7:-0.99778 8:-0.999636 9:-0.999653 10:-0.999377 
1:-0.980075 2:-0.956522 3:-0.998472 4:-0.994648 5:-0.892405 6:0.471215 7:-0.998789 8:-0.999697 9:-0.996488 10:-0.998754 
1:-0.987547 2:-0.978261 3:-0.999514 4:-0.99568 5:-0.607595 6:0.339019 7:-0.996367 8:-0.999818 9:-0.999046 10:-1 
1:-1 2:-0.836957 3:-0.999458 4:-0.828702 5:-0.605485 6:1 7:-0.999847 8:-0.999758 9:-0.998309 10:-0.99564 
1:-1 2:-0.851449 3:-0.999514 4:-0.843599 5:-0.455696 6:1 7:-0.999354 8:-0.999636 9:-0.998482 10:-0.997509 
1:-1 2:-0.942029 3:-0.999861 4:-0.936711 5:0.751055 6:1 7:-0.997376 8:-0.999515 9:-0.999566 10:-0.999377 
1:-1 2:-0.952899 3:-0.999903 4:-0.947884 5:0.850211 6:1 7:-0.995155 8:-0.999636 9:-0.999696 10:-1 
1:-1 2:-0.873188 3:-0.999597 4:-0.865946 5:0.120253 6:1 7:-0.998708 8:-0.999152 9:-0.998743 10:-0.997509 
1:-1 2:-0.942029 3:-0.999861 4:-0.936711 5:0.504219 6:1 7:-0.99778 8:-0.999636 9:-0.999566 10:-0.999377 
1:-0.997509 2:-0.952899 3:-0.999708 4:-0.973955 5:-0.506329 6:0.618337 7:-0.997174 8:-0.999939 9:-0.999306 10:-1 
1:-0.995019 2:-0.34058 3:-0.992471 4:-0.772835 5:-0.0801688 6:0.098081 7:-0.988381 8:-0.984187 9:-0.986559 10:-0.995017 
1:-1 2:-0.898551 3:-0.999694 4:-0.892017 5:1 6:1 7:-0.988696 8:-0.998667 9:-0.999046 10:-1 
1:-1 2:-0.952899 3:-0.999903 4:-0.947884 5:0.850211 6:1 7:-0.995155 8:-0.999636 9:-0.999696 10:-1 
1:-0.940224 2:0.0833333 3:-0.89592 4:-0.955333 5:-0.972574 6:-0.98081 7:-0.984122 8:-0.9711 9:-0.97728 10:-0.993149 
1:-0.997509 2:-0.822464 3:-0.998708 4:-0.906915 5:-0.139241 6:-0.0447761 7:-0.994215 8:-0.997637 9:-0.998092 10:-0.998754 
1:-0.997509 2:-0.264493 3:-0.99443 4:-0.620133 5:-0.240506 6:0.319829 7:-0.996165 8:-0.990245 9:-0.98825 10:-0.990657 
1:-0.987547 2:-0.48913 3:-0.988263 4:-0.91188 5:-0.867089 6:-0.763326 7:-0.997767 8:-0.994487 9:-0.99393 10:-0.99128 
1:-1 2:-0.952899 3:-0.999903 4:-0.947884 5:0.698312 6:1 7:-0.995559 8:-0.999697 9:-0.999696 10:-1 
1:-1 2:-0.73913 3:-0.999083 4:-0.728142 5:0.189873 6:1 7:-0.99889 8:-0.997698 9:-0.997138 10:-0.993149 
1:-0.950187 2:-0.996377 3:-0.999514 4:-0.999672 5:0.447257 6:0.441365 7:-0.987889 8:-0.998546 9:-0.998959 10:-1 
1:-1 2:-0.942029 3:-0.999861 4:-0.936711 5:0.875527 6:1 7:-0.993944 8:-0.999455 9:-0.999566 10:-1 
1:-0.997509 2:-0.981884 3:-0.999931 4:-0.988853 5:0.297468 6:1 7:-0.998789 8:-0.999939 9:-0.999783 10:-0.999377 
1:-0.995019 2:-0.807971 3:-0.997847 4:-0.932986 5:-0.341772 6:-0.0255864 7:-0.997 8:-0.996849 9:-0.996661 10:-0.996263 
1:-0.995019 2:-0.963768 3:-0.999639 4:-0.986369 5:-0.341772 6:0.289979 7:-0.999193 8:-0.999697 9:-0.99935 10:-0.998131 
1:-0.995019 2:-0.0652174 3:-0.989305 4:-0.678484 5:-0.242616 6:-0.10661 7:-0.995038 8:-0.981097 9:-0.984087 10:-0.985674 
1:-0.990037 2:0.202899 3:-0.97697 4:-0.751978 5:-0.320675 6:-0.251599 7:-0.985608 8:-0.962678 9:-0.970472 10:-0.990034 
1:-0.997509 2:-0.981884 3:-0.999931 4:-0.988853 5:0.297468 6:1 7:-0.998789 8:-0.999939 9:-0.999783 10:-0.999377 
1:-0.997509 2:-0.826087 3:-0.998736 4:-0.908777 5:-0.0337553 6:-0.0447761 7:-0.980218 8:-0.997395 9:-0.998136 10:-1 
1:-1 2:-0.884058 3:-0.999639 4:-0.877119 5:0.297468 6:1 7:-0.998922 8:-0.999091 9:-0.998873 10:-0.996886 
1:-1 2:-0.905797 3:-0.999722 4:-0.899466 5:-0.251055 6:1 7:-0.999665 8:-0.999758 9:-0.999133 10:-0.996886 
1:-1 2:-0.923913 3:-0.999792 4:-0.918088 5:-0.0548523 6:1 7:-0.999665 8:-0.999758 9:-0.99935 10:-0.996886 
1:-1 2:-0.768116 3:-0.999194 4:-0.757937 5:0.253165 6:1 7:-0.999193 8:-0.997879 9:-0.997485 10:-0.991903 
1:-0.985056 2:-0.836957 3:-0.995625 4:-0.975553 5:-0.736287 6:-0.484009 7:-0.997117 8:-0.996971 9:-0.996054 10:-0.996263 
1:-0.997509 2:-0.971014 3:-0.999847 4:-0.983266 5:0.0632911 6:0.0533049 7:-0.996367 8:-0.999818 9:-0.99987 10:-1 
1:-0.997509 2:-0.836957 3:-0.998819 4:-0.914364 5:-0.0316456 6:0.0490405 7:-0.981429 8:-0.997576 9:-0.998092 10:-1 
1:-1 2:-0.956522 3:-0.999917 4:-0.951608 5:0.675105 6:1 7:-0.998183 8:-0.999758 9:-0.99974 10:-0.999377 
1:-0.995019 2:-0.536232 3:-0.994722 4:-0.839875 5:-0.466245 6:-0.328358 7:-0.99564 8:-0.993275 9:-0.993973 10:-0.994394 
1:-0.990037 2:-0.978261 3:-0.999611 4:-0.994812 5:-0.687764 6:-0.462687 7:-0.997578 8:-1 9:-0.999827 10:-1 
1:-0.987547 2:-0.833333 3:-0.99618 4:-0.970853 5:-0.683544 6:-0.701493 7:-0.977392 8:-0.996971 9:-0.997832 10:-1 
1:-0.992528 2:-0.934783 3:-0.999042 4:-0.982335 5:-0.527426 6:-0.317697 7:-0.998284 8:-0.999152 9:-0.999046 10:-0.998131 
1:-1 2:-0.942029 3:-0.999861 4:-0.936711 5:1 6:1 7:-0.993541 8:-0.999394 9:-0.999566 10:-1 
1:-1 2:-0.934783 3:-0.999833 4:-0.929262 5:0.445148 6:1 7:-0.998518 8:-0.999576 9:-0.99948 10:-0.998754 
1:-0.987547 2:-0.927536 3:-0.998347 4:-0.986991 5:-0.590717 6:-0.590618 7:-0.987889 8:-0.998546 9:-0.998916 10:-1 
1:-0.982565 2:-0.945652 3:-0.998319 4:-0.992577 5:-0.270042 6:0.34968 7:-0.999374 8:-0.997334 9:-0.996445 10:-0.988166 
1:-0.997509 2:-0.952899 3:-0.999708 4:-0.973955 5:-0.130802 6:0.010661 7:-0.995155 8:-0.999636 9:-0.999653 10:-1 
1:-0.997509 2:-0.771739 3:-0.998319 4:-0.880844 5:-0.202532 6:0.151386 7:-0.998817 8:-0.997092 9:-0.996965 10:-0.991903 
1:-0.997509 2:-0.648551 3:-0.997375 4:-0.817528 5:-0.0970464 6:0.260128 7:-0.996609 8:-0.994729 9:-0.994754 10:-0.994394 
1:-0.997509 2:-0.775362 3:-0.998347 4:-0.882706 5:-0.390295 6:-0.0490405 7:-0.996064 8:-0.997819 9:-0.997529 10:-0.998131 
1:-0.997509 2:-0.644928 3:-0.997347 4:-0.815666 5:-0.575949 6:0.181237 7:-0.998567 8:-0.997395 9:-0.995014 10:-0.993771 
1:-1 2:-0.90942 3:-0.999736 4:-0.903191 5:1 6:1 7:-0.989907 8:-0.998849 9:-0.999176 10:-1 
1:-1 2:-0.956522 3:-0.999917 4:-0.951608 5:1 6:1 7:-0.995155 8:-0.999636 9:-0.99974 10:-1 
1:-1 2:-0.873188 3:-0.999597 4:-0.865946 5:-0.464135 6:1 7:-0.999665 8:-0.999758 9:-0.998743 10:-0.996886 
1:-0.997509 2:-0.887681 3:-0.999208 4:-0.940435 5:-0.021097 6:2.22045e-16 7:-0.987081 8:-0.998425 9:-0.998829 10:-1 
1:-0.987547 2:-0.862319 3:-0.996847 4:-0.975817 5:-0.704641 6:-0.712154 7:-0.982237 8:-0.997698 9:-0.998309 10:-1 
1:-0.972603 2:0.00362319 3:-0.953759 4:-0.913742 5:-0.877637 6:-0.82516 7:-0.993981 8:-0.978249 9:-0.979534 10:-0.986297 
1:-1 2:-0.923913 3:-0.999792 4:-0.918088 5:0.905063 6:1 7:-0.991926 8:-0.999152 9:-0.99935 10:-1 
1:-1 2:-0.945652 3:-0.999875 4:-0.940435 5:1 6:1 7:-0.993944 8:-0.999455 9:-0.99961 10:-1 
1:-1 2:-0.949275 3:-0.999889 4:-0.944159 5:0.719409 6:1 7:-0.995155 8:-0.999636 9:-0.999653 10:-1 
1:-1 2:-0.923913 3:-0.999792 4:-0.918088 5:0.616034 6:1 7:-0.998587 8:-0.999334 9:-0.99935 10:-0.998131 
1:-1 2:-0.963768 3:-0.999944 4:-0.959057 5:1 6:1 7:-0.995963 8:-0.999758 9:-0.999827 10:-1 
1:-1 2:-0.978261 3:-1 4:-0.973955 5:1 6:1 7:-0.997578 8:-1 9:-1 10:-1 
1:-1 2:-0.967391 3:-0.999958 4:-0.962782 5:0.578059 6:1 7:-0.998789 8:-0.999939 9:-0.99987 10:-0.999377 
1:-0.910336 2:-1 3:-0.999583 4:-0.999926 5:1 6:1 7:-0.985466 8:-0.998182 9:-0.998699 10:-1 
1:-1 2:-0.952899 3:-0.999903 4:-0.947884 5:0.246835 6:1 7:-0.999193 8:-0.999879 9:-0.999696 10:-0.998754 
1:-0.997509 2:-0.945652 3:-0.999653 4:-0.970231 5:-0.582278 6:2.22045e-16 7:-0.999326 8:-0.999939 9:-0.999566 10:-0.998754 
1:-1 2:-0.934783 3:-0.999833 4:-0.929262 5:0.111814 6:1 7:-0.998922 8:-0.999758 9:-0.99948 10:-0.998754 
1:-1 2:-0.963768 3:-0.999944 4:-0.959057 5:0.808017 6:1 7:-0.996367 8:-0.999818 9:-0.999827 10:-1 
1:-1 2:-0.960145 3:-0.999931 4:-0.955333 5:0.472574 6:1 7:-0.99677 8:-0.999879 9:-0.999783 10:-1 
1:-1 2:-0.952899 3:-0.999903 4:-0.947884 5:0.246835 6:1 7:-0.998587 8:-0.999879 9:-0.999696 10:-0.999377 
1:-1 2:-0.949275 3:-0.999889 4:-0.944159 5:0.436709 6:1 7:-0.998922 8:-0.999758 9:-0.999653 10:-0.998754 
1:-1 2:-0.952899 3:-0.999903 4:-0.947884 5:1 6:1 7:-0.994752 8:-0.999576 9:-0.999696 10:-1 
1:-1 2:-0.898551 3:-0.999694 4:-0.892017 5:0.85443 6:1 7:-0.994954 8:-0.998788 9:-0.999046 10:-0.999377 
1:-0.992528 2:-0.971014 3:-0.999597 4:-0.991646 5:0.179325 6:0.170576 7:-0.991522 8:-0.999091 9:-0.99935 10:-1 
1:-1 2:-0.873188 3:-0.999597 4:-0.865946 5:0.120253 6:1 7:-0.998284 8:-0.999152 9:-0.998743 10:-0.998131 
1:-1 2:-0.938406 3:-0.999847 4:-0.932986 5:-0.0548523 6:1 7:-0.999193 8:-0.999879 9:-0.999523 10:-0.998754 
1:-1 2:-0.833333 3:-0.999444 4:-0.824977 5:0.0126582 6:1 7:-0.990311 8:-0.998909 9:-0.998266 10:-1 
1:-0.985056 2:-1 3:-1 4:-0.999493 5:1 6:1 7:-0.997578 8:-1 9:-1 10:-1 
1:-0.940224 2:-0.391304 3:-0.941411 4:-0.974849 5:-0.656118 6:0.886994 7:-0.99977 8:-0.945471 9:-0.826866 10:-0.639988 
1:-1 2:-0.905797 3:-0.999722 4:-0.899466 5:-0.563291 6:1 7:-0.999839 8:-1 9:-0.999133 10:-0.997509 
1:-1 2:-0.862319 3:-0.999556 4:-0.854773 5:-0.459916 6:1 7:-0.999713 8:-0.999697 9:-0.998612 10:-0.996263 
1:-1 2:-0.880435 3:-0.999625 4:-0.873395 5:-0.364979 6:1 7:-0.999713 8:-0.999697 9:-0.998829 10:-0.996263 
1:-0.995019 2:-0.619565 3:-0.99568 4:-0.86843 5:-0.565401 6:-0.407249 7:-0.997856 8:-0.995456 9:-0.995621 10:-0.992526 
1:-1 2:-0.902174 3:-0.999708 4:-0.895742 5:0.021097 6:1 7:-0.999193 8:-0.999515 9:-0.999089 10:-0.997509 
1:-1 2:-0.967391 3:-0.999958 4:-0.962782 5:1 6:1 7:-0.996367 8:-0.999818 9:-0.99987 10:-1 
1:-1 2:-0.971014 3:-0.999972 4:-0.966506 5:0.765823 6:1 7:-0.997174 8:-0.999939 9:-0.999913 10:-1 
1:-1 2:-0.934783 3:-0.999833 4:-0.929262 5:0.223629 6:1 7:-0.998789 8:-0.999697 9:-0.99948 10:-0.998754 
1:-1 2:-0.844203 3:-0.999486 4:-0.836151 5:0.424051 6:1 7:-0.998252 8:-0.998485 9:-0.998396 10:-0.996886 
1:-1 2:-0.952899 3:-0.999903 4:-0.947884 5:1 6:1 7:-0.994752 8:-0.999576 9:-0.999696 10:-1 
1:-1 2:-0.894928 3:-0.999681 4:-0.888293 5:-0.265823 6:1 7:-0.999435 8:-0.999697 9:-0.999003 10:-0.997509 
1:-1 2:-0.887681 3:-0.999653 4:-0.880844 5:-0.120253 6:1 7:-0.999645 8:-0.999515 9:-0.998916 10:-0.99564 
1:-0.985056 2:-0.952899 3:-0.998736 4:-0.992577 5:-0.894515 6:-0.697228 7:-0.996367 8:-0.999818 9:-0.999436 10:-1 
1:-1 2:-0.949275 3:-0.999889 4:-0.944159 5:0.0147679 6:1 7:-0.999596 8:-0.999939 9:-0.999653 10:-0.998131 
1:-1 2:-0.775362 3:-0.999222 4:-0.765386 5:0.128692 6:1 7:-0.999471 8:-0.998182 9:-0.997572 10:-0.990657 
1:-1 2:-0.851449 3:-0.999514 4:-0.843599 5:-0.708861 6:1 7:-0.999758 8:-0.999939 9:-0.998482 10:-0.997509 
1:-1 2:-0.902174 3:-0.999708 4:-0.895742 5:-0.130802 6:1 7:-0.999528 8:-0.999636 9:-0.999089 10:-0.996886 
1:-1 2:-0.92029 3:-0.999778 4:-0.914364 5:-0.375527 6:1 7:-0.999758 8:-0.999939 9:-0.999306 10:-0.997509 
1:-1 2:-0.952899 3:-0.999903 4:-0.947884 5:-0.0548523 6:1 7:-0.999463 8:-1 9:-0.999696 10:-0.998754 
1:-1 2:-0.84058 3:-0.999472 4:-0.832426 5:-0.594937 6:1 7:-0.999847 8:-0.999758 9:-0.998352 10:-0.99564 
1:-0.942715 2:0.844203 3:-0.830081 4:-0.920882 5:0.675105 6:0.84435 7:-0.9848 8:-0.372796 9:-0.508563 10:-0.833697 
1:-0.992528 2:-0.612319 3:-0.994097 4:-0.899466 5:0.531646 6:0.628998 7:-0.977796 8:-0.980067 9:-0.984824 10:-0.996886 
1:-1 2:-0.931159 3:-0.999819 4:-0.925537 5:0.472574 6:1 7:-0.999193 8:-0.999515 9:-0.999436 10:-0.997509 
1:-0.975093 2:-0.0905797 3:-0.961593 4:-0.914703 5:-0.915612 6:-0.929638 7:-0.974667 8:-0.984974 9:-0.988943 10:-0.998131 
1:-0.990037 2:-0.539855 3:-0.991207 4:-0.90468 5:0.491561 6:0.496802 7:-0.935002 8:-0.970978 9:-0.979101 10:-0.998754 
1:-0.975093 2:0.543478 3:-0.934855 4:-0.855451 5:0.0843882 6:0.0831557 7:-0.923783 8:-0.839443 9:-0.884274 10:-0.991903 
1:-0.990037 2:-0.605072 3:-0.992458 4:-0.918088 5:0.0443038 6:0.0533049 7:-0.959899 8:-0.982187 9:-0.987036 10:-0.998754 
1:-1 2:-0.945652 3:-0.999875 4:-0.940435 5:0.869198 6:1 7:-0.994348 8:-0.999515 9:-0.99961 10:-1 
1:-1 2:-0.960145 3:-0.999931 4:-0.955333 5:0.297468 6:1 7:-0.998789 8:-0.999939 9:-0.999783 10:-0.999377 
1:-1 2:-0.974638 3:-0.999986 4:-0.970231 5:1 6:1 7:-0.997174 8:-0.999939 9:-0.999957 10:-1 
1:-1 2:-0.942029 3:-0.999861 4:-0.936711 5:1 6:1 7:-0.993541 8:-0.999394 9:-0.999566 10:-1 
1:-1 2:-0.974638 3:-0.999986 4:-0.970231 5:1 6:1 7:-0.997174 8:-0.999939 9:-0.999957 10:-1 
1:-1 2:-0.942029 3:-0.999861 4:-0.936711 5:1 6:1 7:-0.993541 8:-0.999394 9:-0.999566 10:-1 
1:-0.977584 2:1 3:-0.923284 4:-0.794064 5:0.57173 6:0.752665 7:-0.991805 8:-0.733293 9:-0.788276 10:-0.871691 
1:-1 2:-0.880435 3:-0.999625 4:-0.873395 5:-0.116034 6:1 7:-0.999972 8:-0.999455 9:-0.998829 10:-0.99128 
1:-0.997509 2:-0.641304 3:-0.997319 4:-0.813804 5:-0.139241 6:-0.0554371 7:-0.995761 8:-0.99485 9:-0.995924 10:-0.99564 
1:-0.997509 2:-0.815217 3:-0.998653 4:-0.903191 5:-0.622363 6:-0.00426439 7:-0.999798 8:-0.99897 9:-0.997919 10:-0.990657 
1:-1 2:-0.746377 3:-0.999111 4:-0.735591 5:-0.0105485 6:1 7:-0.999471 8:-0.998182 9:-0.997225 10:-0.990657 
1:-1 2:-0.931159 3:-0.999819 4:-0.925537 5:0.0506329 6:1 7:-0.999847 8:-0.999758 9:-0.999436 10:-0.99564 
1:-1 2:-0.619565 3:-0.998625 4:-0.605235 5:-0.194093 6:1 7:-0.999992 8:-0.997637 9:-0.995707 10:-0.972594 
1:-1 2:-0.974638 3:-0.999986 4:-0.970231 5:1 6:1 7:-0.997174 8:-0.999939 9:-0.999957 10:-1 
1:-1 2:-0.967391 3:-0.999958 4:-0.962782 5:1 6:1 7:-0.996367 8:-0.999818 9:-0.99987 10:-1 
1:-0.960149 2:0.231884 3:-0.919576 4:-0.925317 5:0.862869 6:0.995736 7:-0.985717 8:-0.672039 9:-0.749512 10:-0.907817 
1:-0.960149 2:0.235507 3:-0.919339 4:-0.925098 5:0.822785 6:0.991471 7:-0.988183 8:-0.677613 9:-0.749252 10:-0.891 
1:-0.957659 2:0.235507 3:-0.914589 4:-0.929262 5:0.677215 6:0.780384 7:-0.98285 8:-0.684338 9:-0.760872 10:-0.92588 
1:-0.997509 2:-0.913043 3:-0.999403 4:-0.953471 5:-0.350211 6:1 7:-0.998587 8:-0.999334 9:-0.998136 10:-0.998131 
1:-0.997509 2:-0.916667 3:-0.999431 4:-0.955333 5:-0.362869 6:1 7:-0.999031 8:-0.999394 9:-0.998222 10:-0.997509 
1:-0.997509 2:-0.927536 3:-0.999514 4:-0.960919 5:-0.156118 6:1 7:-0.997848 8:-0.999273 9:-0.998482 10:-0.998754 
1:-0.997509 2:-0.923913 3:-0.999486 4:-0.959057 5:-0.103376 6:1 7:-0.991926 8:-0.999152 9:-0.998396 10:-1 
1:-0.982565 2:-0.166667 3:-0.974428 4:-0.892483 5:0.729958 6:0.748401 7:-0.928139 8:-0.902817 9:-0.929628 10:-0.995017 
1:-1 2:-0.952899 3:-0.999903 4:-0.947884 5:1 6:1 7:-0.994752 8:-0.999576 9:-0.999696 10:-1 
1:-1 2:-0.971014 3:-0.999972 4:-0.966506 5:1 6:1 7:-0.99677 8:-0.999879 9:-0.999913 10:-1 
1:-0.997509 2:-0.778986 3:-0.998375 4:-0.884568 5:-0.156118 6:0.0724947 7:-0.995882 8:-0.997031 9:-0.997268 10:-0.997509 
1:-1 2:-0.931159 3:-0.999819 4:-0.925537 5:0.683544 6:1 7:-0.996972 8:-0.999394 9:-0.999436 10:-0.999377 
1:-1 2:-0.945652 3:-0.999875 4:-0.940435 5:1 6:1 7:-0.993944 8:-0.999455 9:-0.99961 10:-1 
1:-0.758406 2:-0.992754 3:-0.996014 4:-0.999911 5:-0.0970464 6:-0.0959488 7:-0.94348 8:-0.991881 9:-0.994103 10:-1 
1:-0.955168 2:-0.996377 3:-0.999569 4:-0.999635 5:0.611814 6:0.607676 7:-0.987889 8:-0.998546 9:-0.998959 10:-1 
1:-0.990037 2:-0.996377 3:-0.999958 4:-0.998536 5:0.578059 6:0.573561 7:-0.997174 8:-0.999939 9:-0.999957 10:-1 
1:-0.992528 2:-0.996377 3:-0.999986 4:-0.998164 5:0.736287 6:0.733475 7:-0.997578 8:-1 9:-1 10:-1 
1:-0.838107 2:-0.992754 3:-0.997347 4:-0.999858 5:0.276371 6:0.80597 7:-0.999354 8:-0.992548 9:-0.992499 10:-0.96948 
1:-0.770859 2:-0.98913 3:-0.99493 4:-0.999866 5:-0.225738 6:0.0724947 7:-0.999237 8:-0.990972 9:-0.991198 10:-0.966988 
1:-0.892902 2:-0.992754 3:-0.998264 4:-0.999773 5:0.151899 6:0.660981 7:-0.999407 8:-0.995638 9:-0.995491 10:-0.980691 
1:-0.897883 2:-0.978261 3:-0.996014 4:-0.999404 5:-0.514768 6:-0.211087 7:-0.999524 8:-0.995395 9:-0.994797 10:-0.976954 
1:-0.960149 2:-0.996377 3:-0.999625 4:-0.999587 5:0.379747 6:0.373134 7:-0.990715 8:-0.99897 9:-0.999263 10:-1 
1:-0.830635 2:-0.992754 3:-0.997222 4:-0.999866 5:0.246835 6:0.897655 7:-0.999564 8:-0.992366 9:-0.991762 10:-0.96076 
1:-0.972603 2:-0.996377 3:-0.999764 4:-0.999404 5:0.208861 6:0.289979 7:-0.994348 8:-0.999515 9:-0.99961 10:-1 
1:-0.352428 2:-0.894928 3:-0.891337 4:-0.999598 5:-0.976793 6:-0.940299 7:-0.999435 8:-0.970615 9:-0.969909 10:-0.872937 
1:-0.980075 2:-1 3:-0.999972 4:-0.999613 5:1 6:1 7:-0.99677 8:-0.999879 9:-0.999913 10:-1 
1:-0.970112 2:-1 3:-0.999917 4:-0.999739 5:1 6:1 7:-0.995155 8:-0.999636 9:-0.99974 10:-1 
1:-0.960149 2:-1 3:-0.999861 4:-0.999806 5:1 6:1 7:-0.993541 8:-0.999394 9:-0.999566 10:-1 
1:-0.975093 2:-1 3:-0.999944 4:-0.999687 5:1 6:1 7:-0.995963 8:-0.999758 9:-0.999827 10:-1 
1:-0.970112 2:-1 3:-0.999917 4:-0.999739 5:1 6:1 7:-0.995155 8:-0.999636 9:-0.99974 10:-1 
1:-0.967621 2:-1 3:-0.999903 4:-0.999762 5:1 6:1 7:-0.994752 8:-0.999576 9:-0.999696 10:-1 
1:-0.970112 2:-1 3:-0.999917 4:-0.999739 5:1 6:1 7:-0.995155 8:-0.999636 9:-0.99974 10:-1 
1:-0.965131 2:-1 3:-0.999889 4:-0.999777 5:1 6:1 7:-0.994348 8:-0.999515 9:-0.999653 10:-1 
1:-0.985056 2:-1 3:-1 4:-0.999493 5:1 6:1 7:-0.997578 8:-1 9:-1 10:-1 
1:-0.977584 2:-1 3:-0.999958 4:-0.999654 5:1 6:1 7:-0.996367 8:-0.999818 9:-0.99987 10:-1 
1:1 2:-0.963768 3:-0.877252 4:-0.999974 5:-0.706751 6:-0.635394 7:-0.99409 8:-0.898091 9:-0.91107 10:-0.933354 
1:-0.982565 2:-1 3:-0.999986 4:-0.999561 5:0.736287 6:1 7:-0.997578 8:-1 9:-0.999957 10:-1 
1:-0.935243 2:-0.98913 3:-0.998597 4:-0.999475 5:-0.407173 6:0.289979 7:-0.999366 8:-0.998243 9:-0.997182 10:-0.991903 
1:-0.935243 2:-0.98913 3:-0.998597 4:-0.999475 5:-0.308017 6:0.466951 7:-0.99937 8:-0.99794 9:-0.996791 10:-0.990657 
1:-0.982565 2:-1 3:-0.999986 4:-0.999561 5:1 6:1 7:-0.997174 8:-0.999939 9:-0.999957 10:-1 
1:-0.980075 2:-1 3:-0.999972 4:-0.999613 5:1 6:1 7:-0.99677 8:-0.999879 9:-0.999913 10:-1 
1:-0.980075 2:-0.996377 3:-0.999847 4:-0.999199 5:0.179325 6:0.407249 7:-0.995963 8:-0.999758 9:-0.99974 10:-1 
1:-1 2:-0.913043 3:-0.99975 4:-0.906915 5:1 6:1 7:-0.990311 8:-0.998909 9:-0.99922 10:-1 
1:-0.858032 2:-0.992754 3:-0.99768 4:-0.999832 5:-0.394515 6:-0.396588 7:-0.976585 8:-0.996849 9:-0.997702 10:-1 
1:-0.870486 2:-1 3:-0.999361 4:-0.999955 5:1 6:1 7:-0.979007 8:-0.997213 9:-0.998005 10:-1 
1:-0.985056 2:-1 3:-1 4:-0.999493 5:1 6:1 7:-0.997578 8:-1 9:-1 10:-1 
1:-0.967621 2:-1 3:-0.999903 4:-0.999762 5:1 6:1 7:-0.994752 8:-0.999576 9:-0.999696 10:-1 
1:-0.975093 2:-1 3:-0.999944 4:-0.999687 5:1 6:1 7:-0.995963 8:-0.999758 9:-0.999827 10:-1 
1:-0.980075 2:-1 3:-0.999972 4:-0.999613 5:1 6:1 7:-0.99677 8:-0.999879 9:-0.999913 10:-1 
1:-0.977584 2:-1 3:-0.999958 4:-0.999654 5:1 6:1 7:-0.996367 8:-0.999818 9:-0.99987 10:-1 
1:-0.957659 2:-1 3:-0.999847 4:-0.999818 5:1 6:1 7:-0.993137 8:-0.999334 9:-0.999523 10:-1 
1:-0.982565 2:-1 3:-0.999986 4:-0.999561 5:1 6:1 7:-0.997174 8:-0.999939 9:-0.999957 10:-1 
1:-0.982565 2:-1 3:-0.999986 4:-0.999561 5:1 6:1 7:-0.997174 8:-0.999939 9:-0.999957 10:-1 
1:-0.972603 2:-1 3:-0.999931 4:-0.999717 5:1 6:1 7:-0.995559 8:-0.999697 9:-0.999783 10:-1 
1:-0.972603 2:-1 3:-0.999931 4:-0.999717 5:1 6:1 7:-0.995559 8:-0.999697 9:-0.999783 10:-1 
1:-0.980075 2:-1 3:-0.999972 4:-0.999613 5:1 6:1 7:-0.99677 8:-0.999879 9:-0.999913 10:-1 
1:-0.980075 2:-1 3:-0.999972 4:-0.999613 5:1 6:1 7:-0.99677 8:-0.999879 9:-0.999913 10:-1 
1:-0.970112 2:-1 3:-0.999917 4:-0.999739 5:1 6:1 7:-0.995155 8:-0.999636 9:-0.99974 10:-1 
1:-0.96264 2:-1 3:-0.999875 4:-0.999791 5:1 6:1 7:-0.993944 8:-0.999455 9:-0.99961 10:-1 
1:-0.990037 2:-0.996377 3:-0.999958 4:-0.998536 5:0.78903 6:0.78678 7:-0.99677 8:-0.999879 9:-0.999913 10:-1 
1:-0.967621 2:-0.996377 3:-0.999708 4:-0.999493 5:0.021097 6:0.010661 7:-0.994348 8:-0.999515 9:-0.999653 10:-1 
1:-0.975093 2:-0.996377 3:-0.999792 4:-0.999348 5:0.232068 6:0.223881 7:-0.994752 8:-0.999576 9:-0.999696 10:-1 
1:-0.992528 2:-0.996377 3:-0.999986 4:-0.998164 5:1 6:1 7:-0.997174 8:-0.999939 9:-0.999957 10:-1 
1:-0.980075 2:-1 3:-0.999972 4:-0.999613 5:1 6:1 7:-0.99677 8:-0.999879 9:-0.999913 10:-1 
1:-0.987547 2:-0.927536 3:-0.998347 4:-0.986991 5:-0.691983 6:-0.185501 7:-0.99973 8:-0.998909 9:-0.997875 10:-0.99128 
1:0.0684932 2:-0.985507 3:-0.970233 4:-0.999981 5:-0.654008 6:-0.660981 7:-0.981631 8:-0.972251 9:-0.979708 10:-0.994394 
1:-0.977584 2:-1 3:-0.999958 4:-0.999654 5:0.78903 6:1 7:-0.99677 8:-0.999879 9:-0.99987 10:-1 
1:-0.982565 2:-1 3:-0.999986 4:-0.999561 5:1 6:1 7:-0.997174 8:-0.999939 9:-0.999957 10:-1 
1:-0.985056 2:-0.996377 3:-0.999903 4:-0.998961 5:0.246835 6:0.390192 7:-0.99677 8:-0.999879 9:-0.99987 10:-1 
1:-0.740971 2:-0.996377 3:-0.99718 4:-0.999955 5:0.00632911 6:0.00426439 7:-0.955591 8:-0.993699 9:-0.995447 10:-1 
1:-0.990037 2:-0.996377 3:-0.999958 4:-0.998536 5:0.367089 6:0.360341 7:-0.997578 8:-1 9:-1 10:-1 
1:-0.980075 2:-1 3:-0.999972 4:-0.999613 5:1 6:1 7:-0.99677 8:-0.999879 9:-0.999913 10:-1 
1:-0.985056 2:-1 3:-1 4:-0.999493 5:1 6:1 7:-0.997578 8:-1 9:-1 10:-1 
1:-0.977584 2:-1 3:-0.999958 4:-0.999654 5:1 6:1 7:-0.996367 8:-0.999818 9:-0.99987 10:-1 
1:-0.982565 2:-1 3:-0.999986 4:-0.999561 5:1 6:1 7:-0.997174 8:-0.999939 9:-0.999957 10:-1 
1:-0.985056 2:-1 3:-1 4:-0.999493 5:1 6:1 7:-0.997578 8:-1 9:-1 10:-1 
1:-0.985056 2:-1 3:-1 4:-0.999493 5:1 6:1 7:-0.997578 8:-1 9:-1 10:-1 
1:-0.980075 2:-1 3:-0.999972 4:-0.999613 5:1 6:1 7:-0.99677 8:-0.999879 9:-0.999913 10:-1 
1:-0.982565 2:-1 3:-0.999986 4:-0.999561 5:1 6:1 7:-0.997174 8:-0.999939 9:-0.999957 10:-1 
1:-0.882939 2:0.452899 3:-0.732071 4:-0.968834 5:-0.993671 6:-0.93177 7:-0.998736 8:-0.936322 9:-0.921649 10:-0.841171 
1:-0.890411 2:-0.717391 3:-0.950717 4:-0.993486 5:-0.92616 6:-0.716418 7:-0.998462 8:-0.981763 9:-0.970255 10:-0.96076 
1:-0.972603 2:-0.474638 3:-0.975762 4:-0.954711 5:-0.917722 6:-0.859275 7:-0.989637 8:-0.99073 9:-0.990548 10:-0.996886 
1:-0.982565 2:-0.945652 3:-0.998319 4:-0.992577 5:-0.780591 6:0.69936 7:-0.998385 8:-0.999212 9:-0.995534 10:-0.998131 
1:-0.980075 2:-0.967391 3:-0.998847 4:-0.995888 5:-0.805907 6:-0.0191898 7:-0.99778 8:-0.999636 9:-0.998266 10:-0.999377 
1:-0.872976 2:0.666667 3:-0.66712 4:-0.967009 5:-0.704641 6:-0.603412 7:-0.995753 8:-0.721297 9:-0.742835 10:-0.751479 
1:-0.907846 2:-0.75 3:-0.963149 4:-0.993166 5:-0.985232 6:-1 7:-0.992479 8:-0.990912 9:-0.993149 10:-0.99564 
1:-0.912827 2:-0.380435 3:-0.914089 4:-0.982231 5:-0.839662 6:-0.413646 7:-0.99845 8:-0.952378 9:-0.909856 10:-0.898474 
1:-0.985056 2:-0.971014 3:-0.999222 4:-0.995236 5:-0.808017 6:-0.624733 7:-0.99677 8:-0.999879 9:-0.999653 10:-1 
1:-0.910336 2:-0.742754 3:-0.963094 4:-0.992778 5:-0.85654 6:-0.584222 7:-0.997319 8:-0.980975 9:-0.970602 10:-0.974463 
1:-0.880448 2:-0.717391 3:-0.946328 4:-0.994022 5:-0.932489 6:-0.750533 7:-0.997432 8:-0.980794 9:-0.970212 10:-0.973217 
1:-0.905355 2:-0.75 3:-0.962177 4:-0.993341 5:-0.919831 6:-0.588486 7:-0.997578 8:-0.98558 9:-0.970082 10:-0.978823 
1:-0.92528 2:-0.746377 3:-0.969525 4:-0.991497 5:-0.774262 6:-0.501066 7:-0.996249 8:-0.979218 9:-0.972076 10:-0.979446 
1:-0.88543 2:0.0326087 3:-0.813385 4:-0.977363 5:-0.723629 6:-0.45629 7:-0.998518 8:-0.851439 9:-0.815679 10:-0.672999 
1:-0.912827 2:-0.655797 3:-0.952093 4:-0.990093 5:-0.907173 6:-0.690832 7:-0.997295 8:-0.98037 9:-0.969215 10:-0.97384 
1:-0.895392 2:-0.778986 3:-0.963066 4:-0.994655 5:-0.940928 6:-0.769723 7:-0.997727 8:-0.98758 9:-0.980618 10:-0.980691 
1:-0.920299 2:-0.902174 3:-0.987263 4:-0.996868 5:-0.902954 6:-0.554371 7:-0.998107 8:-0.994911 9:-0.989464 10:-0.990657 
1:-0.960149 2:-0.786232 3:-0.985929 4:-0.986883 5:-0.816456 6:-0.341151 7:-0.997537 8:-0.991821 9:-0.983914 10:-0.988166 
1:-0.990037 2:-0.978261 3:-0.999611 4:-0.994812 5:-0.626582 6:0.147122 7:-0.999326 8:-0.999939 9:-0.999393 10:-0.998754 
1:-0.980075 2:-0.942029 3:-0.997972 4:-0.992991 5:-0.805907 6:-0.15565 7:-0.999136 8:-0.999091 9:-0.997268 10:-0.996263 
1:-0.992528 2:-0.974638 3:-0.999653 4:-0.992577 5:-0.383966 6:2.22045e-16 7:-0.998183 8:-0.999758 9:-0.999566 10:-0.999377 
1:-0.790785 2:-0.753623 3:-0.918631 4:-0.997002 5:-0.761603 6:-0.191898 7:-0.999822 8:-0.941715 9:-0.888089 10:-0.580816 
1:-0.970112 2:-0.956522 3:-0.99775 4:-0.996302 5:-0.848101 6:-0.172708 7:-0.998991 8:-0.999152 9:-0.997008 10:-0.996886 
1:-0.967621 2:-0.934783 3:-0.996402 4:-0.994972 5:-0.839662 6:0.021322 7:-0.999261 8:-0.998364 9:-0.99406 10:-0.993149 
1:-0.967621 2:-0.934783 3:-0.996402 4:-0.994972 5:-0.871308 6:-0.0575693 7:-0.988292 8:-0.998606 9:-0.994493 10:-1 
1:-0.965131 2:-0.952899 3:-0.99718 4:-0.996551 5:-0.877637 6:-0.411514 7:-0.999629 8:-0.999031 9:-0.997225 10:-0.993149 
1:-0.985056 2:-0.916667 3:-0.997764 4:-0.987255 5:-0.896624 6:-0.496802 7:-0.999641 8:-0.999394 9:-0.998136 10:-0.995017 
1:-0.990037 2:-0.960145 3:-0.999264 4:-0.991087 5:-0.829114 6:-0.5629 7:-0.998789 8:-0.999939 9:-0.99961 10:-0.999377 
1:-0.982565 2:-0.985507 3:-0.999542 4:-0.997698 5:-0.529536 6:-0.172708 7:-0.998922 8:-0.999758 9:-0.999523 10:-0.998754 
1:-0.992528 2:-0.985507 3:-0.999819 4:-0.995371 5:-0.371308 6:0.573561 7:-0.999463 8:-1 9:-0.99961 10:-0.998754 
1:-0.985056 2:-0.949275 3:-0.998639 4:-0.992045 5:-0.869198 6:-0.503198 7:-0.999435 8:-0.999697 9:-0.998959 10:-0.997509 
1:-0.985056 2:-0.956522 3:-0.998833 4:-0.99311 5:-0.78481 6:-0.100213 7:-0.999596 8:-0.999576 9:-0.998396 10:-0.996263 
1:-0.992528 2:-0.978261 3:-0.999708 4:-0.993508 5:-0.506329 6:1 7:-0.999596 8:-0.999939 9:-0.999089 10:-0.998131 
1:-0.992528 2:-0.985507 3:-0.999819 4:-0.995371 5:-0.371308 6:0.573561 7:-0.999463 8:-1 9:-0.99961 10:-0.998754 
1:-0.990037 2:-0.992754 3:-0.999889 4:-0.997791 5:-0.124473 6:0.147122 7:-0.998991 8:-1 9:-0.999913 10:-0.999377 
1:-0.990037 2:-0.971014 3:-0.999472 4:-0.993322 5:-0.734177 6:0.00426439 7:-0.999758 8:-0.999939 9:-0.999263 10:-0.997509 
1:-0.753425 2:-0.826087 3:-0.932035 4:-0.998201 5:-0.913502 6:-0.279318 7:-0.999689 8:-0.972675 9:-0.915406 10:-0.839302 
1:-0.96264 2:-0.894928 3:-0.99343 4:-0.993043 5:-0.829114 6:-0.127932 7:-0.999479 8:-0.996547 9:-0.990504 10:-0.983183 
1:-0.977584 2:-0.978261 3:-0.999125 4:-0.997419 5:-0.778481 6:0.147122 7:-0.99977 8:-0.999758 9:-0.998482 10:-0.996263 
1:-0.987547 2:-0.985507 3:-0.999681 4:-0.996924 5:-0.618143 6:0.217484 7:-0.999697 8:-1 9:-0.99948 10:-0.998131 
1:-0.987547 2:-0.960145 3:-0.999097 4:-0.992577 5:-0.816456 6:-0.0362473 7:-0.999826 8:-0.999818 9:-0.998699 10:-0.996263 
1:-0.800747 2:-0.826087 3:-0.944967 4:-0.997773 5:-0.871308 6:-0.283582 7:-0.999491 8:-0.97322 9:-0.931796 10:-0.876674 
1:-0.987547 2:-0.981884 3:-0.999597 4:-0.996302 5:-0.700422 6:-0.24307 7:-0.998991 8:-1 9:-0.999653 10:-0.999377 
1:-0.987547 2:-0.971014 3:-0.999347 4:-0.994439 5:-0.797468 6:-0.501066 7:-0.998789 8:-0.999939 9:-0.99961 10:-0.999377 
1:-0.950187 2:-0.757246 3:-0.980262 4:-0.987966 5:-1 6:-0.899787 7:-0.998107 8:-0.995941 9:-0.993539 10:-0.992526 
1:-0.985056 2:-0.833333 3:-0.995527 4:-0.97502 5:-0.776371 6:-0.515991 7:-0.99807 8:-0.997274 9:-0.996184 10:-0.995017 
1:-0.970112 2:-0.974638 3:-0.998653 4:-0.997736 5:-0.78481 6:0.507463 7:-0.999972 8:-0.999455 9:-0.996835 10:-0.99128 
1:-0.982565 2:-1 3:-0.999986 4:-0.999561 5:0.736287 6:1 7:-0.997578 8:-1 9:-0.999957 10:-1 
1:-0.982565 2:-0.971014 3:-0.999097 4:-0.995836 5:-0.845992 6:-0.452026 7:-0.998587 8:-0.999879 9:-0.999306 10:-0.999377 
1:-0.980075 2:-0.981884 3:-0.999347 4:-0.997542 5:-0.251055 6:-0.0255864 7:-0.998183 8:-0.999091 9:-0.999089 10:-0.998131 
1:-0.977584 2:-0.960145 3:-0.99843 4:-0.995557 5:-0.670886 6:0.110874 7:-0.99973 8:-0.998909 9:-0.997268 10:-0.99128 
1:-0.942715 2:-0.938406 3:-0.994097 4:-0.997233 5:-0.816456 6:-0.328358 7:-0.999568 8:-0.996789 9:-0.993236 10:-0.98256 
1:-0.967621 2:-0.942029 3:-0.996791 4:-0.995505 5:-0.871308 6:-0.307036 7:-0.999677 8:-0.998788 9:-0.996314 10:-0.99128 
1:-0.947696 2:-0.923913 3:-0.993374 4:-0.996302 5:-0.883966 6:-0.123667 7:-0.999681 8:-0.997274 9:-0.990374 10:-0.98256 
1:-0.96264 2:-0.98913 3:-0.999208 4:-0.999095 5:-0.780591 6:2.22045e-16 7:-0.998385 8:-0.999818 9:-0.998829 10:-0.999377 
1:-0.96264 2:-0.927536 3:-0.99543 4:-0.995136 5:-0.909283 6:-0.0341151 7:-0.999758 8:-0.998485 9:-0.992802 10:-0.988166 
1:-0.970112 2:-0.985507 3:-0.999194 4:-0.998592 5:-0.850211 6:0.0149254 7:-0.997174 8:-0.999939 9:-0.998786 10:-1 
1:-0.985056 2:-0.963768 3:-0.999028 4:-0.994175 5:-0.862869 6:-0.0788913 7:-0.999677 8:-0.999879 9:-0.998656 10:-0.997509 
1:-0.912827 2:-0.82971 3:-0.976095 4:-0.995061 5:-0.808017 6:-0.200426 7:-0.998958 8:-0.985459 9:-0.967567 10:-0.957646 
1:-0.865504 2:-0.82971 3:-0.963427 4:-0.996775 5:-0.810127 6:-0.356077 7:-0.998684 8:-0.977704 9:-0.958678 10:-0.945811 
1:-0.870486 2:-0.82971 3:-0.96476 4:-0.996652 5:-0.727848 6:-0.334755 7:-0.99851 8:-0.972554 9:-0.959069 10:-0.939583 
1:-0.930262 2:-0.82971 3:-0.980762 4:-0.993862 5:-0.864979 6:-0.560768 7:-0.998361 8:-0.990609 9:-0.98413 10:-0.980691 
1:-0.950187 2:-0.98913 3:-0.99893 4:-0.999318 5:-0.455696 6:0.238806 7:-0.998906 8:-0.998849 9:-0.997962 10:-0.996263 
1:-0.955168 2:-0.833333 3:-0.987693 4:-0.990812 5:-0.945148 6:-0.89339 7:-0.998833 8:-0.996183 9:-0.995968 10:-0.989411 
1:-0.970112 2:-0.985507 3:-0.999194 4:-0.998592 5:-0.42827 6:0.0490405 7:-0.998284 8:-0.999152 9:-0.998743 10:-0.998131 
1:-0.940224 2:-0.971014 3:-0.996972 4:-0.998685 5:-0.71519 6:-0.202559 7:-0.999407 8:-0.997879 9:-0.996054 10:-0.990034 
1:-0.982565 2:-0.98913 3:-0.999653 4:-0.998164 5:-0.185654 6:0.134328 7:-0.997578 8:-0.999576 9:-0.99948 10:-0.999377 
1:-0.960149 2:-0.971014 3:-0.997972 4:-0.998056 5:-0.668776 6:-0.0724947 7:-0.999645 8:-0.998485 9:-0.997008 10:-0.990034 
1:-0.990037 2:-0.98913 3:-0.999819 4:-0.997047 5:-0.160338 6:0.253731 7:-0.998587 8:-0.999879 9:-0.99974 10:-0.999377 
1:-0.980075 2:-0.98913 3:-0.999597 4:-0.998372 5:-0.582278 6:0.466951 7:-0.99677 8:-0.999879 9:-0.999133 10:-1 
1:-0.972603 2:-0.98913 3:-0.999431 4:-0.998786 5:-0.493671 6:1 7:-0.999596 8:-0.999576 9:-0.998222 10:-0.996263 
1:-0.987547 2:-0.985507 3:-0.999681 4:-0.996924 5:-0.335443 6:1 7:-0.999516 8:-0.999758 9:-0.999003 10:-0.997509 
1:-0.987547 2:-0.956522 3:-0.999014 4:-0.991955 5:-0.892405 6:-0.17484 7:-0.998789 8:-0.999939 9:-0.998786 10:-0.999377 
1:-0.992528 2:-0.963768 3:-0.999486 4:-0.989784 5:-0.774262 6:0.855011 7:-0.999697 8:-1 9:-0.998526 10:-0.998131 
1:-0.867995 2:-0.82971 3:-0.964094 4:-0.996715 5:-0.808017 6:-0.569296 7:-0.997638 8:-0.978007 9:-0.970602 10:-0.966988 
1:-0.870486 2:-0.82971 3:-0.96476 4:-0.996652 5:-0.778481 6:-0.558635 7:-0.997239 8:-0.976189 9:-0.970602 10:-0.968857 
1:-0.872976 2:-0.82971 3:-0.965427 4:-0.996588 5:-0.818565 6:-0.603412 7:-0.997307 8:-0.979521 9:-0.973464 10:-0.972594 
1:-0.833126 2:-0.880435 3:-0.967983 4:-0.998164 5:-0.637131 6:-0.010661 7:-0.999419 8:-0.968979 9:-0.947622 10:-0.867954 
1:-0.835616 2:-0.894928 3:-0.972178 4:-0.998358 5:-0.753165 6:-0.151386 7:-0.999491 8:-0.979885 9:-0.960239 10:-0.907194 
1:-0.952677 2:-0.862319 3:-0.989263 4:-0.992763 5:-0.814346 6:-0.268657 7:-0.999108 8:-0.99382 9:-0.986602 10:-0.979446 
1:-0.987547 2:-0.942029 3:-0.99868 4:-0.989475 5:-0.820675 6:0.204691 7:-0.999273 8:-0.999576 9:-0.997529 10:-0.997509 
1:-0.910336 2:-0.931159 3:-0.989818 4:-0.998011 5:-0.833333 6:-0.720682 7:-0.9987 8:-0.994547 9:-0.994103 10:-0.986297 
1:-0.917808 2:-0.913043 3:-0.988291 4:-0.997289 5:-0.56962 6:0.00639659 7:-0.999572 8:-0.987216 9:-0.980618 10:-0.9346 
1:-0.917808 2:-0.905797 3:-0.987346 4:-0.997069 5:-0.647679 6:0.0490405 7:-0.999156 8:-0.988246 9:-0.978234 10:-0.960137 
1:-0.912827 2:-0.847826 3:-0.978595 4:-0.995579 5:-0.862869 6:-0.742004 7:-0.999164 8:-0.989458 9:-0.988033 10:-0.963874 
1:-0.96264 2:-0.898551 3:-0.993652 4:-0.993274 5:-0.805907 6:-0.0746269 7:-0.999362 8:-0.996365 9:-0.990331 10:-0.984429 
1:-0.788294 2:-0.76087 3:-0.920062 4:-0.997125 5:-0.763713 6:0.861407 7:-0.999447 8:-0.943048 9:-0.766769 10:-0.752102 
1:-0.750934 2:-0.644928 3:-0.861209 4:-0.996376 5:-0.814346 6:0.526652 7:-0.999588 8:-0.915723 9:-0.662967 10:-0.570227 
1:-0.927771 2:-0.786232 3:-0.975095 4:-0.992577 5:-0.78481 6:-0.157783 7:-0.999657 8:-0.983581 9:-0.964619 10:-0.907194 
1:-0.92279 2:-0.619565 3:-0.952982 4:-0.987687 5:-0.691983 6:-0.289979 7:-0.998563 8:-0.95977 9:-0.942158 10:-0.909063 
1:-0.92279 2:0.264493 3:-0.844527 4:-0.959288 5:-0.810127 6:-0.275053 7:-0.998805 8:-0.904211 9:-0.805316 10:-0.750856 
1:-0.92528 2:-0.623188 3:-0.954885 4:-0.987411 5:-0.599156 6:-0.159915 7:-0.99843 8:-0.952742 9:-0.935915 10:-0.900343 
1:-0.92528 2:-0.623188 3:-0.954885 4:-0.987411 5:-0.637131 6:-0.24307 7:-0.998244 8:-0.956316 9:-0.941421 10:-0.915914 
1:-0.92528 2:-0.869565 3:-0.984165 4:-0.995579 5:-0.71097 6:0.0511727 7:-0.999568 8:-0.987277 9:-0.972684 10:-0.935223 
1:-0.932752 2:-0.782609 3:-0.976373 4:-0.991911 5:-0.746835 6:-0.0469083 7:-0.999608 8:-0.982611 9:-0.962581 10:-0.907817 
1:-0.927771 2:-0.782609 3:-0.974678 4:-0.992454 5:-0.778481 6:-0.102345 7:-0.999645 8:-0.982975 9:-0.961974 10:-0.905325 
1:-0.930262 2:-0.782609 3:-0.975525 4:-0.992194 5:-0.85443 6:-0.21322 7:-0.999685 8:-0.987458 9:-0.967264 10:-0.92588 
1:-0.795766 2:0.134058 3:-0.63809 4:-0.985937 5:-0.481013 6:0.298507 7:-0.996871 8:-0.529537 9:-0.242293 10:-0.447524 
1:-0.867995 2:0.289855 3:-0.732321 4:-0.975404 5:-0.478903 6:0.264392 7:-0.99782 8:-0.651075 9:-0.452847 10:-0.439427 
1:-0.867995 2:0.289855 3:-0.732321 4:-0.975404 5:-0.42616 6:0.240938 7:-0.997893 8:-0.622478 9:-0.461692 10:-0.375895 
1:-0.795766 2:0.137681 3:-0.636937 4:-0.985892 5:-0.487342 6:0.134328 7:-0.996686 8:-0.532384 9:-0.327234 10:-0.478044 
1:-0.511831 2:-0.286232 3:-0.458295 4:-0.996283 5:-0.533755 6:-0.424307 7:-0.981457 8:-0.354923 9:-0.438191 10:-0.859234 
1:-0.775841 2:0.0289855 3:-0.639854 4:-0.988361 5:-0.776371 6:-0.780384 7:-0.954425 8:-0.752015 9:-0.814421 10:-0.9782 
1:-0.975093 2:-0.82971 3:-0.992763 4:-0.983773 5:-0.609705 6:-0.30064 7:-0.997436 8:-0.992851 9:-0.991371 10:-0.990034 
1:-0.932752 2:-0.891304 3:-0.988041 4:-0.995903 5:-0.07173 6:0.45629 7:-0.99738 8:-0.974553 9:-0.97225 10:-0.96512 
1:-0.932752 2:-0.887681 3:-0.987652 4:-0.995769 5:-0.0949367 6:0.449893 7:-0.997404 8:-0.974311 9:-0.971469 10:-0.964497 
1:-0.930262 2:-0.891304 3:-0.98761 4:-0.996045 5:-0.132911 6:0.415778 7:-0.997606 8:-0.97522 9:-0.97199 10:-0.963251 
1:-0.932752 2:-0.887681 3:-0.987652 4:-0.995769 5:-0.0801688 6:0.452026 7:-0.997558 8:-0.973947 9:-0.971426 10:-0.962006 
1:-0.932752 2:-0.887681 3:-0.987652 4:-0.995769 5:-0.135021 6:0.407249 7:-0.99757 8:-0.975341 9:-0.97225 10:-0.963874 
1:-0.932752 2:-0.891304 3:-0.988041 4:-0.995903 5:-0.0379747 6:0.503198 7:-0.997388 8:-0.973705 9:-0.971426 10:-0.963874 
1:-0.930262 2:-0.887681 3:-0.987207 4:-0.995918 5:-0.105485 6:0.402985 7:-0.997477 8:-0.973644 9:-0.971339 10:-0.962628 
1:-0.930262 2:-0.887681 3:-0.987207 4:-0.995918 5:-0.198312 6:0.336887 7:-0.997872 8:-0.976128 9:-0.972597 10:-0.96076 
1:-0.62142 2:-0.431159 3:-0.664315 4:-0.996179 5:0.128692 6:0.234542 7:-0.981449 8:-0.141291 9:-0.328622 10:-0.812519 
1:-0.795766 2:-0.463768 3:-0.828317 4:-0.993341 5:-0.291139 6:-0.1258 7:-0.988789 8:-0.709361 9:-0.747171 10:-0.896605 
1:-0.765878 2:-0.666667 3:-0.877377 4:-0.99638 5:0.314346 6:0.791045 7:-0.998938 8:-0.638958 9:-0.654815 10:0.0233572 
1:-0.770859 2:-0.626812 3:-0.865751 4:-0.995862 5:-0.158228 6:0.170576 7:-0.998688 8:-0.735898 9:-0.744136 10:-0.360324 
1:-0.536737 2:-0.507246 3:-0.644243 4:-0.997296 5:0.78692 6:0.98081 7:-0.988579 8:0.394608 9:0.101028 10:-0.511056 
1:-0.673724 2:0.978261 3:0.00283361 4:-0.984592 5:-0.329114 6:-0.102345 7:-0.992063 8:0.616843 9:0.511815 10:-0.195889 
1:-0.683686 2:0.253623 3:-0.383148 4:-0.989929 5:-0.267932 6:0.0767591 7:-0.995127 8:0.0732505 9:0.0907514 10:-0.156026 
1:-0.58406 2:-0.514493 3:-0.685067 4:-0.997032 5:0.620253 6:0.795309 7:-0.975046 8:0.125962 9:-0.11087 10:-0.816257 
1:-0.589041 2:0.706522 3:0.0882308 4:-0.989437 5:-0.352321 6:0.0341151 7:-0.993492 8:0.701666 9:0.856393 10:0.0214886 
1:-0.823163 2:-0.655797 3:-0.904088 4:-0.995061 5:-0.0801688 6:0.108742 7:-0.994069 8:-0.796001 9:-0.825782 10:-0.866708 
1:-0.536737 2:-0.492754 3:-0.633853 4:-0.997218 5:-0.234177 6:0.752665 7:-0.99851 8:-0.337171 9:0.010016 10:0.452507 
1:-0.843088 2:-0.73913 3:-0.935202 4:-0.995776 5:-0.259494 6:-0.183369 7:-0.971183 8:-0.886398 9:-0.910246 10:-0.984429 
1:-0.845579 2:-0.764493 3:-0.942342 4:-0.996123 5:-0.0738397 6:0.127932 7:-0.982491 8:-0.876765 9:-0.893726 10:-0.971971 
1:-0.840598 2:-0.822464 3:-0.954954 4:-0.997162 5:-0.151899 6:-0.0938166 7:-0.901159 8:-0.911057 9:-0.931709 10:-0.996886 
1:-0.845579 2:-0.717391 3:-0.930966 4:-0.995356 5:-0.396624 6:-0.396588 7:-0.924998 8:-0.898576 9:-0.925812 10:-0.995017 
0.114928	0.063219	0.021926	0.039101	0.007674	
Margin:0.004434	0.004904	0.006954	0.010228	0.029394	
Accuracy:0.96	0.98	0.99	0.99	1.00	
Span0.002973	0.007224	0.001656	0.025961	0.005133	