svm_type c_svc
kernel_type rbf
gamma 0.0625
nr_class 10
nr_binary 45
total_sv 7494
rho 0.0772349 0.0741269 0.0779102 0.000916959 0.0777271 0.0012802 -0.000198715 0.075735 -0.000923808 -0.00293677 0.000531779 -0.0759517 0.00031931 -0.0759517 -0.0772348 -0.00156797 -0.0772468 0.00360388 -0.0728391 0.00342198 -0.0728392 -0.0741269 0.00147784 -0.0741458 -0.076628 -0.000147608 -0.076628 -0.0779103 -0.00229261 -0.07792 0.0764445 0.000234921 -0.00108763 0.0744495 -0.00177842 -0.0764445 -0.0777271 -0.00209571 -0.0777373 -0.00144377 0.0744495 -0.00212138 0.075735 -0.000739237 -0.07575
label 8 2 1 4 6 0 5 9 7 3
nr_sv 719 780 779 780 720 780 720 719 778 719
nr_sv_binary 1499 1498 1499 1439 1499 1439 1438 1497 1438 1559 1560 1500 1560 1500 1499 1558 1499 1559 1499 1559 1499 1498 1557 1498 1500 1560 1500 1499 1558 1499 1500 1440 1439 1498 1439 1500 1499 1558 1499 1439 1498 1439 1497 1438 1497
I 0
1 0
1 1
1 0
1 2
1 0
1 3
1 0
1 4
1 0
1 5
1 0
1 6
1 0
1 7
1 0
1 8
1 0
1 9
1 1
1 2
1 1
1 3
1 1
1 4
1 1
1 5
1 1
1 6
1 1
1 7
1 1
1 8
1 1
1 9
1 2
1 3
1 2
1 4
1 2
1 5
1 2
1 6
1 2
1 7
1 2
1 8
1 2
1 9
1 3
1 4
1 3
1 5
1 3
1 6
1 3
1 7
1 3
1 8
1 3
1 9
1 4
1 5
1 4
1 6
1 4
1 7
1 4
1 8
1 4
1 9
1 5
1 6
1 5
1 7
1 5
1 8
1 5
1 9
1 6
1 7
1 6
1 8
1 6
1 9
1 7
1 8
1 7
1 9
1 8
1 9
alpha
0 1 2 3 4 5 6 7 8 9 10 11 12 13 14 15 16 17 18 19 20 21 22 23 24 25 26 27 28 29 30 31 32 33 34 35 36 37 38 39 40 41 42 43 44 45 46 47 48 49 50 51 52 53 54 55 56 57 58 59 60 61 62 63 64 65 66 67 68 69 70 71 72 73 74 75 76 77 78 79 80 81 82 83 84 85 86 87 88 89 90 91 92 93 94 95 96 97 98 99 100 101 102 103 104 105 106 107 108 109 110 111 112 113 114 115 116 117 118 119 120 121 122 123 124 125 126 127 128 129 130 131 132 133 134 135 136 137 138 139 140 141 142 143 144 145 146 147 148 149 150 151 152 153 154 155 156 157 158 159 160 161 162 163 164 165 166 167 168 169 170 171 172 173 174 175 176 177 178 179 180 181 182 183 184 185 186 187 188 189 190 191 192 193 194 195 196 197 198 199 200 201 202 203 204 205 206 207 208 209 210 211 212 213 214 215 216 217 218 219 220 221 222 223 224 225 226 227 228 229 230 231 232 233 234 235 236 237 238 239 240 241 242 243 244 245 246 247 248 249 250 251 252 253 254 255 256 257 258 259 260 261 262 263 264 265 266 267 268 269 270 271 272 273 274 275 276 277 278 279 280 281 282 283 284 285 286 287 288 289 290 291 292 293 294 295 296 297 298 299 300 301 302 303 304 305 306 307 308 309 310 311 312 313 314 315 316 317 318 319 320 321 322 323 324 325 326 327 328 329 330 331 332 333 334 335 336 337 338 339 340 341 342 343 344 345 346 347 348 349 350 351 352 353 354 355 356 357 358 359 360 361 362 363 364 365 366 367 368 369 370 371 372 373 374 375 376 377 378 379 380 381 382 383 384 385 386 387 388 389 390 391 392 393 394 395 396 397 398 399 400 401 402 403 404 405 406 407 408 409 410 411 412 413 414 415 416 417 418 419 420 421 422 423 424 425 426 427 428 429 430 431 432 433 434 435 436 437 438 439 440 441 442 443 444 445 446 447 448 449 450 451 452 453 454 455 456 457 458 459 460 461 462 463 464 465 466 467 468 469 470 471 472 473 474 475 476 477 478 479 480 481 482 483 484 485 486 487 488 489 490 491 492 493 494 495 496 497 498 499 500 501 502 503 504 505 506 507 508 509 510 511 512 513 514 515 516 517 518 519 520 521 522 523 524 525 526 527 528 529 530 531 532 533 534 535 536 537 538 539 540 541 542 543 544 545 546 547 548 549 550 551 552 553 554 555 556 557 558 559 560 561 562 563 564 565 566 567 568 569 570 571 572 573 574 575 576 577 578 579 580 581 582 583 584 585 586 587 588 589 590 591 592 593 594 595 596 597 598 599 600 601 602 603 604 605 606 607 608 609 610 611 612 613 614 615 616 617 618 619 620 621 622 623 624 625 626 627 628 629 630 631 632 633 634 635 636 637 638 639 640 641 642 643 644 645 646 647 648 649 650 651 652 653 654 655 656 657 658 659 660 661 662 663 664 665 666 667 668 669 670 671 672 673 674 675 676 677 678 679 680 681 682 683 684 685 686 687 688 689 690 691 692 693 694 695 696 697 698 699 700 701 702 703 704 705 706 707 708 709 710 711 712 713 714 715 716 717 718 719 720 721 722 723 724 725 726 727 728 729 730 731 732 733 734 735 736 737 738 739 740 741 742 743 744 745 746 747 748 749 750 751 752 753 754 755 756 757 758 759 760 761 762 763 764 765 766 767 768 769 770 771 772 773 774 775 776 777 778 779 780 781 782 783 784 785 786 787 788 789 790 791 792 793 794 795 796 797 798 799 800 801 802 803 804 805 806 807 808 809 810 811 812 813 814 815 816 817 818 819 820 821 822 823 824 825 826 827 828 829 830 831 832 833 834 835 836 837 838 839 840 841 842 843 844 845 846 847 848 849 850 851 852 853 854 855 856 857 858 859 860 861 862 863 864 865 866 867 868 869 870 871 872 873 874 875 876 877 878 879 880 881 882 883 884 885 886 887 888 889 890 891 892 893 894 895 896 897 898 899 900 901 902 903 904 905 906 907 908 909 910 911 912 913 914 915 916 917 918 919 920 921 922 923 924 925 926 927 928 929 930 931 932 933 934 935 936 937 938 939 940 941 942 943 944 945 946 947 948 949 950 951 952 953 954 955 956 957 958 959 960 961 962 963 964 965 966 967 968 969 970 971 972 973 974 975 976 977 978 979 980 981 982 983 984 985 986 987 988 989 990 991 992 993 994 995 996 997 998 999 1000 1001 1002 1003 1004 1005 1006 1007 1008 1009 1010 1011 1012 1013 1014 1015 1016 1017 1018 1019 1020 1021 1022 1023 1024 1025 1026 1027 1028 1029 1030 1031 1032 1033 1034 1035 1036 1037 1038 1039 1040 1041 1042 1043 1044 1045 1046 1047 1048 1049 1050 1051 1052 1053 1054 1055 1056 1057 1058 1059 1060 1061 1062 1063 1064 1065 1066 1067 1068 1069 1070 1071 1072 1073 1074 1075 1076 1077 1078 1079 1080 1081 1082 1083 1084 1085 1086 1087 1088 1089 1090 1091 1092 1093 1094 1095 1096 1097 1098 1099 1100 1101 1102 1103 1104 1105 1106 1107 1108 1109 1110 1111 1112 1113 1114 1115 1116 1117 1118 1119 1120 1121 1122 1123 1124 1125 1126 1127 1128 1129 1130 1131 1132 1133 1134 1135 1136 1137 1138 1139 1140 1141 1142 1143 1144 1145 1146 1147 1148 1149 1150 1151 1152 1153 1154 1155 1156 1157 1158 1159 1160 1161 1162 1163 1164 1165 1166 1167 1168 1169 1170 1171 1172 1173 1174 1175 1176 1177 1178 1179 1180 1181 1182 1183 1184 1185 1186 1187 1188 1189 1190 1191 1192 1193 1194 1195 1196 1197 1198 1199 1200 1201 1202 1203 1204 1205 1206 1207 1208 1209 1210 1211 1212 1213 1214 1215 1216 1217 1218 1219 1220 1221 1222 1223 1224 1225 1226 1227 1228 1229 1230 1231 1232 1233 1234 1235 1236 1237 1238 1239 1240 1241 1242 1243 1244 1245 1246 1247 1248 1249 1250 1251 1252 1253 1254 1255 1256 1257 1258 1259 1260 1261 1262 1263 1264 1265 1266 1267 1268 1269 1270 1271 1272 1273 1274 1275 1276 1277 1278 1279 1280 1281 1282 1283 1284 1285 1286 1287 1288 1289 1290 1291 1292 1293 1294 1295 1296 1297 1298 1299 1300 1301 1302 1303 1304 1305 1306 1307 1308 1309 1310 1311 1312 1313 1314 1315 1316 1317 1318 1319 1320 1321 1322 1323 1324 1325 1326 1327 1328 1329 1330 1331 1332 1333 1334 1335 1336 1337 1338 1339 1340 1341 1342 1343 1344 1345 1346 1347 1348 1349 1350 1351 1352 1353 1354 1355 1356 1357 1358 1359 1360 1361 1362 1363 1364 1365 1366 1367 1368 1369 1370 1371 1372 1373 1374 1375 1376 1377 1378 1379 1380 1381 1382 1383 1384 1385 1386 1387 1388 1389 1390 1391 1392 1393 1394 1395 1396 1397 1398 1399 1400 1401 1402 1403 1404 1405 1406 1407 1408 1409 1410 1411 1412 1413 1414 1415 1416 1417 1418 1419 1420 1421 1422 1423 1424 1425 1426 1427 1428 1429 1430 1431 1432 1433 1434 1435 1436 1437 1438 1439 1440 1441 1442 1443 1444 1445 1446 1447 1448 1449 1450 1451 1452 1453 1454 1455 1456 1457 1458 1459 1460 1461 1462 1463 1464 1465 1466 1467 1468 1469 1470 1471 1472 1473 1474 1475 1476 1477 1478 1479 1480 1481 1482 1483 1484 1485 1486 1487 1488 1489 1490 1491 1492 1493 1494 1495 1496 1497 1498 
1 1 1 1 1 1 1 1 1 1 1 1 1 1 1 1 1 1 1 1 1 1 1 1 1 1 1 1 1 1 1 1 1 1 1 1 1 1 1 1 1 1 1 1 1 1 1 1 1 1 1 1 1 1 1 1 1 1 1 1 1 1 1 1 1 1 1 1 1 1 1 1 1 1 1 1 1 1 1 1 1 1 1 1 1 1 1 1 1 1 1 1 1 1 1 1 1 1 1 1 1 1 1 1 1 1 1 1 1 1 1 1 1 1 1 1 1 1 1 1 1 1 1 1 1 1 1 1 1 1 1 1 1 1 1 1 1 1 1 1 1 1 1 1 1 1 1 1 1 1 1 1 1 1 1 1 1 1 1 1 1 1 1 1 1 1 1 1 1 1 1 1 1 1 1 1 1 1 1 1 1 1 1 1 1 1 1 1 1 1 1 1 1 1 1 1 1 1 1 1 1 1 1 1 1 1 1 1 1 1 1 1 1 1 1 1 1 1 1 1 1 1 1 1 1 1 1 1 1 1 1 1 1 1 1 1 1 1 1 1 1 1 1 1 1 1 1 1 1 1 1 1 1 1 1 1 1 1 1 1 1 1 1 1 1 1 1 1 1 1 1 1 1 1 1 1 1 1 1 1 1 1 1 1 1 1 1 1 1 1 1 1 1 1 1 1 1 1 1 1 1 1 1 1 1 1 1 1 1 1 1 1 1 1 1 1 1 1 1 1 1 1 1 1 1 1 1 1 1 1 1 1 1 1 1 1 1 1 1 1 1 1 1 1 1 1 1 1 1 1 1 1 1 1 1 1 1 1 1 1 1 1 1 1 1 1 1 1 1 1 1 1 1 1 1 1 1 1 1 1 1 1 1 1 1 1 1 1 1 1 1 1 1 1 1 1 1 1 1 1 1 1 1 1 1 1 1 1 1 1 1 1 1 1 1 1 1 1 1 1 1 1 1 1 1 1 1 1 1 1 1 1 1 1 1 1 1 1 1 1 1 1 1 1 1 1 1 1 1 1 1 1 1 1 1 1 1 1 1 1 1 1 1 1 1 1 1 1 1 1 1 1 1 1 1 1 1 1 1 1 1 1 1 1 1 1 1 1 1 1 1 1 1 1 1 1 1 1 1 1 1 1 1 1 1 1 1 1 1 1 1 1 1 1 1 1 1 1 1 1 1 1 1 1 1 1 1 1 1 1 1 1 1 1 1 1 1 1 1 1 1 1 1 1 1 1 1 1 1 1 1 1 1 1 1 1 1 1 1 1 1 1 1 1 1 1 1 1 1 1 1 1 1 1 1 1 1 1 1 1 1 1 1 1 1 1 1 1 1 1 1 1 1 1 1 1 1 1 1 1 1 1 1 1 1 1 1 1 1 1 1 1 1 1 1 1 1 1 1 1 1 1 1 1 1 1 1 1 1 1 1 1 1 1 1 1 1 1 1 1 1 1 1 1 1 1 1 1 1 1 1 1 1 1 1 1 1 1 1 1 1 1 1 1 1 1 1 1 1 1 1 1 1 1 1 1 1 1 1 1 1 1 1 1 1 1 1 1 1 1 1 1 1 1 1 1 1 1 1 1 1 1 1 1 1 1 1 1 1 1 1 1 1 1 1 1 1 1 1 -0.9222241020211303 -0.9229316451737911 -0.9230906708075142 -0.922804443034135 -0.9219573420294422 -0.9227974480084978 -0.9223600075684973 -0.922640472685134 -0.9227875873993019 -0.9227786074455823 -0.9228806365442795 -0.9223694414232452 -0.9223170336898415 -0.9225972796685078 -0.9218947348242162 -0.9228617055016916 -0.9223914304647824 -0.9224737445600718 -0.9226927669491636 -0.9222450640027847 -0.922796973866722 -0.9229196413222043 -0.9227944617853615 -0.9229199712728384 -0.9227874307419636 -0.9229777195330283 -0.9227939332520844 -0.9222902611006165 -0.9226584062881439 -0.9044540044018106 -0.9229777385251569 -0.9226928052087463 -0.9226780068562269 -0.9229449806970756 -0.922895678367199 -0.9227308301764836 -0.9229473830072481 -0.9227877987497008 -0.9223631348652193 -0.9225662411132619 -0.9221687151476321 -0.9227540802597262 -0.9227869542075404 -0.9219278145242835 -0.9227973278161101 -0.9226897928537662 -0.9224668978536015 -0.92274279525003 -0.9227945424842144 -0.9223133381135691 -0.9227972053651069 -0.9227923761465197 -0.9224349541037701 -0.9222873626781884 -0.9224963410259653 -0.9228638361623329 -0.9228004493146041 -0.9225721489775305 -0.9229629416913192 -0.9227974561572196 -0.9228541679724721 -0.9223831186766067 -0.824330754808085 -0.9226151165778738 -0.922786030397061 -0.9230899658010443 -0.9226117724820641 -0.9231011174719689 -0.9229492701555276 -0.9225931189465091 -0.9230285178901692 -0.9226277807645684 -0.9229483858895048 -0.9222965335522875 -0.9228378581388035 -0.923101262560247 -0.9227700620931328 -0.9219361057180776 -0.9223054998221962 -0.9227932394953381 -0.9228022720402957 -0.9227418602931629 -0.9220333853434094 -0.9229128306238563 -0.9227466669842105 -0.9230628056139573 -0.9227034719453386 -0.9229482305653939 -0.9224676096094565 -0.9227969738668557 -0.9229486491282038 -0.9216872217293715 -0.9228574866953017 -0.922785876859329 -0.9227427002503586 -0.922678375343302 -0.9229510904785655 -0.9226403879837823 -0.9227263453635695 -0.9227745544831512 -0.9226062393180164 -0.922774774631983 -0.9227358185974424 -0.9229037165490639 -0.9229220624458108 -0.9219921258641421 -0.9222864621201269 -0.9227879805224629 -0.9229432434663829 -0.9224681211162342 -0.92262748233512 -0.9224958466877847 -0.9221237505535188 -0.9228380854386518 -0.9229473595024664 -0.9223827670678328 -0.9227235586376042 -0.9227877296836667 -0.9228850921207437 -0.9222470546718797 -0.9222632437960938 -0.9229174885858265 -0.9229127206100565 -0.9195373435962919 -0.9227801130768488 -0.913054880114662 -0.9227874205048621 -0.9216550752181765 -0.9229777182929985 -0.9227949294641474 -0.9227427002953494 -0.9230995068658838 -0.9224827908747032 -0.9216878490831086 -0.923163288125875 -0.9226231662735025 -0.9217183612080719 -0.922451735057126 -0.9228423168901628 -0.922937892068364 -0.9223630217229788 -0.9228380920627938 -0.9229493613683134 -0.9227412800516973 -0.9228956384015965 -0.9227344473442098 -0.9229521677510689 -0.9230671160494421 -0.9230109273190223 -0.9229812355065502 -0.9231572851434833 -0.9229492630406586 -0.9221342819722265 -0.922881897649984 -0.9227969228423271 -0.9229223067697152 -0.9230110047918783 -0.9229530300394918 -0.9228504457949832 -0.9228685245440721 -0.9229443121406145 -0.9225141212807141 -0.9222971479895894 -0.9227973266971454 -0.9227877858918379 -0.9231347040771873 -0.9229387113422018 -0.9228379320473312 -0.9228170288432463 -0.9224736595425538 -0.9229482137217233 -0.9227965279109641 -0.9218342201069913 -0.9223793474931002 -0.9228523517032112 -0.9228909796373145 -0.922379347334374 -0.9228042253960173 -0.9223139542446387 -0.9227977253046696 -0.9226492080904091 -0.9226281706879158 -0.9229061899913559 -0.9222504022569233 -0.9229141834245698 -0.9228818189278976 -0.9231634429360859 -0.9223329163573499 -0.9224737916155831 -0.9229440660996276 -0.9226747400974151 -0.9227444460120624 -0.9171231235912065 -0.9226967547868793 -0.9218021994061114 -0.9214631529269334 -0.9230837545944596 -0.92264782518997 -0.9224011802337371 -0.9228140181222846 -0.9224963413379326 -0.9225342870804201 -0.9229215344703264 -0.9227953405238782 -0.9229450709027589 -0.9230257545154283 -0.922354627943899 -0.9227953216326928 -0.9227478363172557 -0.9226492074458511 -0.9229184506678869 -0.9221422470588603 -0.9207717052727677 -0.921562382187914 -0.9225062106792549 -0.9228525914075155 -0.9227454434041874 -0.9226818014726837 -0.9225791780192951 -0.9227285186631815 -0.9228786261729096 -0.9212947726276463 -0.9229475844555814 -0.9229198653723161 -0.9227721104593457 -0.9221848868544499 -0.9229339983045847 -0.9219581864970939 -0.9224285094792843 -0.9220566892435973 -0.9222874386650658 -0.9227825029458236 -0.9181380655587489 -0.922800028547635 -0.8887231943680596 -0.9227450008382452 -0.9226761272617872 -0.9215788131755734 -0.9229190196040297 -0.9229496851257164 -0.9229494540012056 -0.9192225452699261 -0.9224034019144922 -0.9134624730489881 -0.9220971682778177 -0.9227969261989736 -0.9222588921763731 -0.9229222344681669 -0.9229182988230725 -0.9229585325959015 -0.922741867591375 -0.9218286884278877 -0.9223272101121363 -0.922944770016916 -0.921745700069226 -0.9224023468089644 -0.9223831637998692 -0.9222798966697305 -0.9225306533966608 -0.9227445949338036 -0.9227713943311879 -0.9229214699698108 -0.9226682500521053 -0.9230844080948175 -0.9226439023245293 -0.9214447960213238 -0.9229458516327406 -0.9226247682279067 -0.9222101854202508 -0.9227861457340463 -0.9228903108957744 -0.9227445949363281 -0.9231014037425949 -0.9229230395099018 -0.9226233439321715 -0.9229374315464985 -0.9228809603255532 -0.9229214426207679 -0.9223271939893138 -0.9222975695056046 -0.9226172177130371 -0.9229449803110037 -0.9225266708494582 -0.9228655588093244 -0.9195155973121256 -0.9228047267865812 -0.9229538158517878 -0.9224617685128547 -0.9215489578123288 -0.9229449671613389 -0.922741676854231 -0.9226515440079411 -0.922937891188908 -0.9229489613325109 -0.9222975694074333 -0.920038441487912 -0.9204709996322463 -0.9228903173132325 -0.9231003679252329 -0.9229521151379659 -0.9223988014170844 -0.9223713780004332 -0.9229462315886878 -0.9226931479166802 -0.9222873041651118 -0.9229339876055859 -0.9231598462589017 -0.9229198116607864 -0.9224586186724542 -0.9231660568830993 -0.9217315680055667 -0.9223271405084725 -0.9229141262310135 -0.9227999981350535 -0.9229279886529331 -0.922568862383135 -0.9226305698541235 -0.9228003847413198 -0.9227869627211253 -0.9228524906989481 -0.922753667413174 -0.9227928268566623 -0.9225967785839246 -0.9231007680300065 -0.9231007961816085 -0.9227415534064448 -0.922620378110558 -0.9224695939051643 -0.9232339957215819 -0.922923708121006 -0.9230846518760606 -0.9220329512426385 -0.9204196888116059 -0.9227796258828745 -0.9226456781552896 -0.918143488578043 -0.9228808947883141 -0.9228008001277712 -0.9227945418400529 -0.9228818819239362 -0.9228903173101769 -0.9226065080512121 -0.9228653306394352 -0.9223792314357601 -0.9229365801381405 -0.9226818006521394 -0.9231015029342341 -0.9227427002620038 -0.9226037723578002 -0.9222874302811925 -0.9229775628783705 -0.9227945434827642 -0.9224676423117918 -0.9198970841867969 -0.922795728385555 -0.921946848358513 -0.922791423591578 -0.9227993772388959 -0.9222635731552498 -0.9229222241396002 -0.9231014955848362 -0.9216282354058157 -0.9227433023376012 -0.9224097788426051 -0.9229606721458679 -0.9226404721036779 -0.9224564003889739 -0.9227600888780257 -0.9226927424122858 -0.9227854098005176 -0.9229380850856667 -0.9229217877691946 -0.9217862226992624 -0.9227969691897334 -0.9224094773842557 -0.9227869482772042 -0.9227419655487821 -0.9230625777524882 -0.9227973620902483 -0.922314508130024 -0.9036168355621305 -0.9230516845760492 -0.9226276050135056 -0.9227963496603879 -0.9227732264301081 -0.9227876512381695 -0.902841758490726 -0.9229261966514513 -0.9223713304300958 -0.92215683212382 -0.922881675190687 -0.9225945794938879 -0.9179207171545517 -0.9231014087593223 -0.9224696800378817 -0.9224460147460647 -0.9228956821240383 -0.9227910942556891 -0.9227796267734423 -0.9227870765671188 -0.9224737910301795 -0.9204617344547962 -0.9227541001681604 -0.9224567701807103 -0.9223988012373371 -0.922787602628649 -0.9222425983626358 -0.9226456539463692 -0.9228011510751548 -0.9222635730166296 -0.9229199377909338 -0.9224598053936632 -0.922922337038207 -0.9222865983693143 -0.9227961005886542 -0.9227973267058724 -0.9227977506649601 -0.9225276047648791 -0.9222585826643158 -0.9227474857093793 -0.9227445257011306 -0.9225476016633838 -0.9226927380990477 -0.8765968906905055 -0.9227410889576673 -0.9217987587786695 -0.9226230840268838 -0.9230954463183155 -0.9222867105008391 -0.9229504878344768 -0.9228187507895257 -0.9195023797687333 -0.9163980224491765 -0.9129104527324147 -0.9224922261307451 -0.9229216099481146 -0.9227409852861528 -0.923101124257153 -0.9227798259643225 -0.9227525888543144 -0.9229512011998607 -0.9219741948722627 -0.9227876583888963 -0.9230327778457174 -0.9227445819341895 -0.8764283239214705 -0.9224409057935823 -0.9227466147220209 -0.9227800568571121 -0.9219966004326167 -0.9229328495426884 -0.9223438324145885 -0.9229473844173128 -0.9227847262211667 -0.9227870685418011 -0.9227462374558473 -0.9211268845487542 -0.9223625802565369 -0.9227856600418756 -0.9230080810743199 -0.9133984395104608 -0.9228640818738135 -0.9227445948574274 -0.9226690840852574 -0.9223115977897035 -0.9227288870571663 -0.9227945418474596 -0.9228050779641036 -0.9225972278674857 -0.9229223122381283 -0.922313863398616 -0.919672440076639 -0.9223137553094755 -0.9171052573106115 -0.9227869541908464 -0.9224958826638818 -0.9226579321466192 -0.9230816695712829 -0.9228540307218741 -0.9229482098865159 -0.9200376480181169 -0.9213485228789252 -0.922623166732946 -0.9222633785412634 -0.9227879664659938 -0.9221035262339844 -0.9228027016273865 -0.9229195021854435 -0.922065379454721 -0.9224451990261325 -0.9229176383630503 -0.9227895791705446 -0.9229380888346593 -0.9229296894390386 -0.9227427085810844 -0.9210892706073265 -0.921019246290709 -0.922838103277878 -0.9224574990405915 -0.9227999958570929 -0.9229492661007332 -0.9227972857964435 -0.9220153633626672 -0.9225966882952128 -0.9222581646699297 -0.9227452493577538 -0.9227970498565089 -0.9204480661256734 -0.9226365164906529 -0.9196494084797167 -0.9227268191984629 -0.9231015060658926 -0.9227044316397519 -0.9227953918987006 -0.9226229872323188 -0.9222469369638604 -0.9225979514962814 -0.9229492700842684 -0.9224733072815677 -0.9227427305820264 -0.9230837118916965 -0.9227953495204678 -0.9229491600214997 -0.9227418805455656 -0.922923705640415 -0.9228203691800156 -0.9223793417398455 -0.9229512383228095 -0.9229473773065201 -0.9229223370443458 -0.9227872030595483 -0.9229504296999351 -0.922327209983196 -0.9226749560531147 -0.9228818819346223 -0.9225059948325217 -0.9231421997419244 -0.92279702020886 -0.9230346650672154 -0.9227985691998335 -0.9102227960664626 -0.9222826347440677 -0.9210521939244658 -0.9228765288050218 -0.922838092069582 -0.9229311261852152 -0.9223073795065586 -0.9228041999727929 -0.9229539552139066 -0.9209372677241999 -0.922881476353123 -0.9228803255209218 -0.9229326195747192 -0.9220207777997024 -0.9225549699965095 -0.9229494835330931 -0.9228592461000398 -0.9222861252485681 -0.9218439459910284 -0.9215903061365325 -0.9227967690583357 -0.9208694105926888 -0.9222588923117521 -0.9227972973461502 -0.9222528180496831 -0.9227462852201923 -0.9229531759006513 -0.9231938741845079 -0.9227379202632966 -0.9227422272532521 -0.9227464500360623 -0.9216845775529485 -0.9227425375053323 -0.9226483149190038 -0.9041551522032968 -0.9228746265616129 -0.922814018036754 -0.922565163120343 -0.922880891596491 -0.9228816863392311 -0.9227124183073943 -0.9226274361356019 -0.9223795805734515 -0.9224853348728198 -0.8904448813999993 -0.9210901396314668 -0.9222816096713499 -0.9226818000628219 -0.9228985158868623 -0.9229359418837387 -0.9227999958748966 -0.922785958508854 -0.9224584071268092 -0.9228817148767725 -0.9226305954991492 -0.9226928262252766 -0.9229777813605247 -0.9228125711963387 -0.9223709647935217 -0.9222972488459972 -0.9224833962013261 -0.9041833239557862 -0.9228646391405818 -0.9227444460599248 -0.9227853724343708 -0.9227268472806592 -0.9229527889417937 -0.922272216272269 -0.9231014130774834 -0.8243644199323491 -0.9229529885827948 -0.919513772261001 -0.9227976264218698 -0.9228956384049937 -0.92265842717267 -0.9133132195021939 -0.9227965390274437 -0.9228000285475843 -0.9231634429355754 -0.9229100002239896 -0.9198652374563139 -0.9227993772244967 -0.9230495851877495 -0.9231938721211682 -0.9221948178078793 -0.9231031693400078 -0.9105572262651679 -0.9227973620901772 -0.9227452494149587 -0.9226818563724837 -0.9228041300421197 -0.9227420205885992 -0.9232365054675362 -0.9229364165606376 -0.9229491642552184 -0.9229127567870361 -0.9229448207625922 -0.9229535541825757 -0.9229777182935623 -0.9229118825556089 -0.922035096249155 -0.9225131983253027 -0.9227809166441988 -0.9227439731678351 -0.922799219169151 -0.9221977504430067 -0.9227988165470435 -0.9229617536699835 -0.9227540426857013 -0.9227584644434692 -0.9227429555125044 -0.9229118183767679 -0.9229304006021082 -0.9230949460073694 -0.9231011118936412 -0.9229053821491412 -0.9228817927483516 -0.9227924566131218 -0.9229539552123938 -0.9227745680528209 -0.9227977575793846 -0.9226220358636228 -0.9224695584093754 -0.9227866038204686 -0.9227432301332791 -0.9227462396096003 -0.9228568614081119 -0.9222406686512613 -0.9230354680882967 -0.9228304923103923 -0.9227856418351463 -0.9227321338361246 -0.9214571757310867 -0.9228140117467092 -0.9229898521406524 -0.9218178770433554 -0.9208824806007635 -0.9227994130891231 -0.9227443055173538 -0.9222869031810302 -0.9227878003342531 -0.9217192695629992 -0.9224676830883016 -0.9226376666962193 -0.9227424090940014 -0.922693771248268 -0.9227874826329436 -0.9217714359717522 -0.9222463576090392 -0.9227862104474204 -0.9139249507771685 -0.9227540823342263 -0.9227862124231366 -0.9227961192278082 -0.9230905969698904 -0.9224584401968228 -0.9225671545154919 -0.9227736206196451 -0.9225966203502477 -0.9227869542075404 -0.8905472086833647 -0.9223708051551757 -0.9220867880188583 -0.922374107620308 -0.9228474855524198 -0.9179022146470724 -0.9225422188923932 -0.9222836967358441 -0.922344496759971 -0.9227874825070187 -0.9221762228824484 -0.9230588292296769 -0.9222528181811905 -0.9227951013690311 -0.9227502374274659 -0.9230934668860673 -0.9230346650676571 -0.9228039844794571 -0.9231338758949215 -0.9228901921027334 -0.9227944332196554 -0.9227964788694367 -0.9229404431211494 -0.922723473343671 -0.9229342319377053 -0.9225840112770038 -0.9227454434443993 -0.9227957068590894 -0.9229712605542195 -0.9222462910485408 -0.9222465528097853 -0.9226279182533932 -0.9227897824568099 -0.9215286894883736 -0.9229702712989772 -0.9227429663916293 -0.9228576830780358 -0.9227446441841577 -0.92294498030956 -0.9223136986955058 -0.9227745684841615 -0.9223717887837547 -0.9229378876370751 -0.9229199377908945 -0.9225111539332591 -0.9225111542454354 -0.9224642398124917 -0.922791344891042 -0.9229223213830628 -0.9227872869947992 -0.9227237093770351 -0.9228726184314037 -0.9207270820438075 -0.9229386811874933 -0.9222865981952506 -0.9229937782972695 -0.9227043655714646 -0.9228816751950997 -0.9227463681224732 -0.9229128295275418 -0.9220083308897878 -0.9228378544013415 -0.9227351738947692 -0.9227952655236593 -0.9230846568422881 -0.9229446955237834 -0.9226838840230358 -0.9229379403494802 -0.9186414836551888 -0.9229459943511897 -0.9228972430778805 -0.9230846653714215 -0.9227801362556209 -0.9231598327807279 -0.9226922116786289 -0.904209959095664 -0.9214310091265232 -0.922276165960799 -0.9157059053650852 -0.9228811004106605 
0 1 2 3 4 5 6 7 8 9 10 11 12 13 14 15 16 17 18 19 20 21 22 23 24 25 26 27 28 29 30 31 32 33 34 35 36 37 38 39 40 41 42 43 44 45 46 47 48 49 50 51 52 53 54 55 56 57 58 59 60 61 62 63 64 65 66 67 68 69 70 71 72 73 74 75 76 77 78 79 80 81 82 83 84 85 86 87 88 89 90 91 92 93 94 95 96 97 98 99 100 101 102 103 104 105 106 107 108 109 110 111 112 113 114 115 116 117 118 119 120 121 122 123 124 125 126 127 128 129 130 131 132 133 134 135 136 137 138 139 140 141 142 143 144 145 146 147 148 149 150 151 152 153 154 155 156 157 158 159 160 161 162 163 164 165 166 167 168 169 170 171 172 173 174 175 176 177 178 179 180 181 182 183 184 185 186 187 188 189 190 191 192 193 194 195 196 197 198 199 200 201 202 203 204 205 206 207 208 209 210 211 212 213 214 215 216 217 218 219 220 221 222 223 224 225 226 227 228 229 230 231 232 233 234 235 236 237 238 239 240 241 242 243 244 245 246 247 248 249 250 251 252 253 254 255 256 257 258 259 260 261 262 263 264 265 266 267 268 269 270 271 272 273 274 275 276 277 278 279 280 281 282 283 284 285 286 287 288 289 290 291 292 293 294 295 296 297 298 299 300 301 302 303 304 305 306 307 308 309 310 311 312 313 314 315 316 317 318 319 320 321 322 323 324 325 326 327 328 329 330 331 332 333 334 335 336 337 338 339 340 341 342 343 344 345 346 347 348 349 350 351 352 353 354 355 356 357 358 359 360 361 362 363 364 365 366 367 368 369 370 371 372 373 374 375 376 377 378 379 380 381 382 383 384 385 386 387 388 389 390 391 392 393 394 395 396 397 398 399 400 401 402 403 404 405 406 407 408 409 410 411 412 413 414 415 416 417 418 419 420 421 422 423 424 425 426 427 428 429 430 431 432 433 434 435 436 437 438 439 440 441 442 443 444 445 446 447 448 449 450 451 452 453 454 455 456 457 458 459 460 461 462 463 464 465 466 467 468 469 470 471 472 473 474 475 476 477 478 479 480 481 482 483 484 485 486 487 488 489 490 491 492 493 494 495 496 497 498 499 500 501 502 503 504 505 506 507 508 509 510 511 512 513 514 515 516 517 518 519 520 521 522 523 524 525 526 527 528 529 530 531 532 533 534 535 536 537 538 539 540 541 542 543 544 545 546 547 548 549 550 551 552 553 554 555 556 557 558 559 560 561 562 563 564 565 566 567 568 569 570 571 572 573 574 575 576 577 578 579 580 581 582 583 584 585 586 587 588 589 590 591 592 593 594 595 596 597 598 599 600 601 602 603 604 605 606 607 608 609 610 611 612 613 614 615 616 617 618 619 620 621 622 623 624 625 626 627 628 629 630 631 632 633 634 635 636 637 638 639 640 641 642 643 644 645 646 647 648 649 650 651 652 653 654 655 656 657 658 659 660 661 662 663 664 665 666 667 668 669 670 671 672 673 674 675 676 677 678 679 680 681 682 683 684 685 686 687 688 689 690 691 692 693 694 695 696 697 698 699 700 701 702 703 704 705 706 707 708 709 710 711 712 713 714 715 716 717 718 1499 1500 1501 1502 1503 1504 1505 1506 1507 1508 1509 1510 1511 1512 1513 1514 1515 1516 1517 1518 1519 1520 1521 1522 1523 1524 1525 1526 1527 1528 1529 1530 1531 1532 1533 1534 1535 1536 1537 1538 1539 1540 1541 1542 1543 1544 1545 1546 1547 1548 1549 1550 1551 1552 1553 1554 1555 1556 1557 1558 1559 1560 1561 1562 1563 1564 1565 1566 1567 1568 1569 1570 1571 1572 1573 1574 1575 1576 1577 1578 1579 1580 1581 1582 1583 1584 1585 1586 1587 1588 1589 1590 1591 1592 1593 1594 1595 1596 1597 1598 1599 1600 1601 1602 1603 1604 1605 1606 1607 1608 1609 1610 1611 1612 1613 1614 1615 1616 1617 1618 1619 1620 1621 1622 1623 1624 1625 1626 1627 1628 1629 1630 1631 1632 1633 1634 1635 1636 1637 1638 1639 1640 1641 1642 1643 1644 1645 1646 1647 1648 1649 1650 1651 1652 1653 1654 1655 1656 1657 1658 1659 1660 1661 1662 1663 1664 1665 1666 1667 1668 1669 1670 1671 1672 1673 1674 1675 1676 1677 1678 1679 1680 1681 1682 1683 1684 1685 1686 1687 1688 1689 1690 1691 1692 1693 1694 1695 1696 1697 1698 1699 1700 1701 1702 1703 1704 1705 1706 1707 1708 1709 1710 1711 1712 1713 1714 1715 1716 1717 1718 1719 1720 1721 1722 1723 1724 1725 1726 1727 1728 1729 1730 1731 1732 1733 1734 1735 1736 1737 1738 1739 1740 1741 1742 1743 1744 1745 1746 1747 1748 1749 1750 1751 1752 1753 1754 1755 1756 1757 1758 1759 1760 1761 1762 1763 1764 1765 1766 1767 1768 1769 1770 1771 1772 1773 1774 1775 1776 1777 1778 1779 1780 1781 1782 1783 1784 1785 1786 1787 1788 1789 1790 1791 1792 1793 1794 1795 1796 1797 1798 1799 1800 1801 1802 1803 1804 1805 1806 1807 1808 1809 1810 1811 1812 1813 1814 1815 1816 1817 1818 1819 1820 1821 1822 1823 1824 1825 1826 1827 1828 1829 1830 1831 1832 1833 1834 1835 1836 1837 1838 1839 1840 1841 1842 1843 1844 1845 1846 1847 1848 1849 1850 1851 1852 1853 1854 1855 1856 1857 1858 1859 1860 1861 1862 1863 1864 1865 1866 1867 1868 1869 1870 1871 1872 1873 1874 1875 1876 1877 1878 1879 1880 1881 1882 1883 1884 1885 1886 1887 1888 1889 1890 1891 1892 1893 1894 1895 1896 1897 1898 1899 1900 1901 1902 1903 1904 1905 1906 1907 1908 1909 1910 1911 1912 1913 1914 1915 1916 1917 1918 1919 1920 1921 1922 1923 1924 1925 1926 1927 1928 1929 1930 1931 1932 1933 1934 1935 1936 1937 1938 1939 1940 1941 1942 1943 1944 1945 1946 1947 1948 1949 1950 1951 1952 1953 1954 1955 1956 1957 1958 1959 1960 1961 1962 1963 1964 1965 1966 1967 1968 1969 1970 1971 1972 1973 1974 1975 1976 1977 1978 1979 1980 1981 1982 1983 1984 1985 1986 1987 1988 1989 1990 1991 1992 1993 1994 1995 1996 1997 1998 1999 2000 2001 2002 2003 2004 2005 2006 2007 2008 2009 2010 2011 2012 2013 2014 2015 2016 2017 2018 2019 2020 2021 2022 2023 2024 2025 2026 2027 2028 2029 2030 2031 2032 2033 2034 2035 2036 2037 2038 2039 2040 2041 2042 2043 2044 2045 2046 2047 2048 2049 2050 2051 2052 2053 2054 2055 2056 2057 2058 2059 2060 2061 2062 2063 2064 2065 2066 2067 2068 2069 2070 2071 2072 2073 2074 2075 2076 2077 2078 2079 2080 2081 2082 2083 2084 2085 2086 2087 2088 2089 2090 2091 2092 2093 2094 2095 2096 2097 2098 2099 2100 2101 2102 2103 2104 2105 2106 2107 2108 2109 2110 2111 2112 2113 2114 2115 2116 2117 2118 2119 2120 2121 2122 2123 2124 2125 2126 2127 2128 2129 2130 2131 2132 2133 2134 2135 2136 2137 2138 2139 2140 2141 2142 2143 2144 2145 2146 2147 2148 2149 2150 2151 2152 2153 2154 2155 2156 2157 2158 2159 2160 2161 2162 2163 2164 2165 2166 2167 2168 2169 2170 2171 2172 2173 2174 2175 2176 2177 2178 2179 2180 2181 2182 2183 2184 2185 2186 2187 2188 2189 2190 2191 2192 2193 2194 2195 2196 2197 2198 2199 2200 2201 2202 2203 2204 2205 2206 2207 2208 2209 2210 2211 2212 2213 2214 2215 2216 2217 2218 2219 2220 2221 2222 2223 2224 2225 2226 2227 2228 2229 2230 2231 2232 2233 2234 2235 2236 2237 2238 2239 2240 2241 2242 2243 2244 2245 2246 2247 2248 2249 2250 2251 2252 2253 2254 2255 2256 2257 2258 2259 2260 2261 2262 2263 2264 2265 2266 2267 2268 2269 2270 2271 2272 2273 2274 2275 2276 2277 
1 1 1 1 1 1 1 1 1 1 1 1 1 1 1 1 1 1 1 1 1 1 1 1 1 1 1 1 1 1 1 1 1 1 1 1 1 1 1 1 1 1 1 1 1 1 1 1 1 1 1 1 1 1 1 1 1 1 1 1 1 1 1 1 1 1 1 1 1 1 1 1 1 1 1 1 1 1 1 1 1 1 1 1 1 1 1 1 1 1 1 1 1 1 1 1 1 1 1 1 1 1 1 1 1 1 1 1 1 1 1 1 1 1 1 1 1 1 1 1 1 1 1 1 1 1 1 1 1 1 1 1 1 1 1 1 1 1 1 1 1 1 1 1 1 1 1 1 1 1 1 1 1 1 1 1 1 1 1 1 1 1 1 1 1 1 1 1 1 1 1 1 1 1 1 1 1 1 1 1 1 1 1 1 1 1 1 1 1 1 1 1 1 1 1 1 1 1 1 1 1 1 1 1 1 1 1 1 1 1 1 1 1 1 1 1 1 1 1 1 1 1 1 1 1 1 1 1 1 1 1 1 1 1 1 1 1 1 1 1 1 1 1 1 1 1 1 1 1 1 1 1 1 1 1 1 1 1 1 1 1 1 1 1 1 1 1 1 1 1 1 1 1 1 1 1 1 1 1 1 1 1 1 1 1 1 1 1 1 1 1 1 1 1 1 1 1 1 1 1 1 1 1 1 1 1 1 1 1 1 1 1 1 1 1 1 1 1 1 1 1 1 1 1 1 1 1 1 1 1 1 1 1 1 1 1 1 1 1 1 1 1 1 1 1 1 1 1 1 1 1 1 1 1 1 1 1 1 1 1 1 1 1 1 1 1 1 1 1 1 1 1 1 1 1 1 1 1 1 1 1 1 1 1 1 1 1 1 1 1 1 1 1 1 1 1 1 1 1 1 1 1 1 1 1 1 1 1 1 1 1 1 1 1 1 1 1 1 1 1 1 1 1 1 1 1 1 1 1 1 1 1 1 1 1 1 1 1 1 1 1 1 1 1 1 1 1 1 1 1 1 1 1 1 1 1 1 1 1 1 1 1 1 1 1 1 1 1 1 1 1 1 1 1 1 1 1 1 1 1 1 1 1 1 1 1 1 1 1 1 1 1 1 1 1 1 1 1 1 1 1 1 1 1 1 1 1 1 1 1 1 1 1 1 1 1 1 1 1 1 1 1 1 1 1 1 1 1 1 1 1 1 1 1 1 1 1 1 1 1 1 1 1 1 1 1 1 1 1 1 1 1 1 1 1 1 1 1 1 1 1 1 1 1 1 1 1 1 1 1 1 1 1 1 1 1 1 1 1 1 1 1 1 1 1 1 1 1 1 1 1 1 1 1 1 1 1 1 1 1 1 1 1 1 1 1 1 1 1 1 1 1 1 1 1 1 1 1 1 1 1 1 1 1 1 1 1 1 1 1 1 1 1 1 1 1 1 1 1 1 1 1 1 1 1 1 1 1 1 1 1 1 1 1 1 1 1 1 1 1 1 1 1 1 1 1 1 1 1 1 1 1 1 1 1 1 1 1 1 1 1 1 1 1 1 1 1 1 1 1 1 1 1 1 1 1 1 1 1 1 1 1 1 1 1 1 1 1 1 1 1 1 1 1 1 1 1 1 1 -0.9259733146543093 -0.9258032618220945 -0.9253944619939061 -0.9259568139331321 -0.9259245366350453 -0.9259741409638313 -0.9259696085169372 -0.9250246618981506 -0.925974087600771 -0.9259600247529423 -0.9259148962191517 -0.914492859811084 -0.9253968898472598 -0.926253217748136 -0.9259711103897341 -0.9259701151752522 -0.9259823989044611 -0.9259698198141082 -0.9258566153108311 -0.9259707179935139 -0.9260077506210398 -0.9255558773607946 -0.9262588704493753 -0.9259188363601012 -0.9220537930593748 -0.9259884120468097 -0.8055727823581282 -0.925969716715507 -0.9253949227275993 -0.926258829314674 -0.9256377027836782 -0.9258707637459311 -0.9256687940417837 -0.9259824987880894 -0.92595903453727 -0.9257420480867696 -0.9261034144018427 -0.9259702766044529 -0.9188867671165699 -0.9259727267830165 -0.9262588605020463 -0.9259768759697995 -0.925987935353582 -0.925921466062339 -0.8892644469983385 -0.9262084579957589 -0.9259710432635744 -0.9258128978353507 -0.9234659188927732 -0.9259692239866836 -0.9259429555913982 -0.9261999066281845 -0.926258829314674 -0.9259924194904984 -0.9259758354082612 -0.9261992987643782 -0.9255774686970317 -0.9259816309160895 -0.9261670299689849 -0.9259703589278427 -0.9262587187685888 -0.9215932297860825 -0.9259684683048561 -0.9262480411535602 -0.9254839532286645 -0.9255134028411754 -0.9259509647307049 -0.9259150038232414 -0.9252632262551792 -0.9226948435691097 -0.9256813590194759 -0.9256120896918122 -0.9255458030232538 -0.9259136664499419 -0.925969831097469 -0.9258572954769331 -0.9252430876978852 -0.925542376913942 -0.9261989856804984 -0.9258128975846378 -0.9255137840669732 -0.9257444879470952 -0.9231787401621493 -0.92597627323402 -0.9256800721354818 -0.9258105725290079 -0.9141899388401233 -0.9258512251452726 -0.9261928106457045 -0.9256088857473931 -0.9259816455403311 -0.9259699450520155 -0.925980765330096 -0.9257089547735635 -0.9228427102098763 -0.9249508263266873 -0.9256645941154813 -0.9258527713345949 -0.922845544622185 -0.9259817903208858 -0.9259622663785088 -0.9259755548884042 -0.9256814763026004 -0.9254001593979008 -0.9259700285254032 -0.9184826986366083 -0.909219862512635 -0.9259438612485587 -0.8698198656601102 -0.9258713103279508 -0.9255531790666501 -0.9259708622231655 -0.9252701970360488 -0.9256881798177177 -0.9259698470792828 -0.9259700440820252 -0.9256677788604043 -0.9259643550398645 -0.9256514740132933 -0.9087587959244278 -0.925741781224221 -0.9257316494046933 -0.9257607651553225 -0.9257603998266909 -0.9254817171641625 -0.9259424975222101 -0.9258599891491898 -0.9255806094465975 -0.9259824987880894 -0.9258507825694031 -0.9257377755272207 -0.9248720458070697 -0.9259702766190399 -0.9259813495842 -0.9259703234709035 -0.9258500687368674 -0.9259661900675765 -0.9254346729736785 -0.9151195551914402 -0.9259831370349458 -0.9256446394531405 -0.9255541920764427 -0.9255350030785507 -0.9255526116468967 -0.9259706843794142 -0.9262588675874416 -0.8807004244840735 -0.925969716690257 -0.9259708940009914 -0.9253519276566446 -0.9257104174734793 -0.9258230734794276 -0.9218829588137429 -0.9258573014497101 -0.9256721587277981 -0.9259690017187682 -0.9259752759461787 -0.926199761916553 -0.9231656471576279 -0.9255135349357451 -0.9258447639260213 -0.9258434212051739 -0.9259698385037318 -0.9262587946868184 -0.9255661575591665 -0.8840224613795457 -0.9259701007895904 -0.9258692695953703 -0.9257400029904539 -0.9259833434788963 -0.9259834601640367 -0.9259590385114936 -0.9259833434776732 -0.9259741519553776 -0.9239937253142428 -0.9259245704769959 -0.9257465543938254 -0.9231829762474946 -0.9259869883068735 -0.9254540977633947 -0.9259770512584143 -0.9259191518647167 -0.9258747685804621 -0.9258572930271763 -0.9259777578823079 -0.926245747452289 -0.9250351485595267 -0.9253936603527451 -0.9259758399620327 -0.9258502503212683 -0.9259704668039752 -0.9255806069467334 -0.9120303565805677 -0.9258192863367632 -0.9258483436942768 -0.9259704723292012 -0.9256055718301641 -0.9256187512797575 -0.9257929326715952 -0.9259819037104901 -0.9259245200678856 -0.9257929387888816 -0.9214348588858878 -0.9259707050708221 -0.9259896320067003 -0.9260007554616186 -0.925935474657134 -0.9262588338428043 -0.9259424978969389 -0.9259085132091792 -0.9259783387522529 -0.9258551488656606 -0.9259150055420535 -0.9259492413842514 -0.9259708940009915 -0.9254961659320668 -0.9261989856804984 -0.9259697117293668 -0.9254449724284551 -0.9259699719582686 -0.9257972328195717 -0.9259816412983484 -0.9253950970342819 -0.9262788600056548 -0.9259028554411021 -0.9259833125748922 -0.9157932043625037 -0.9258178474690691 -0.9259214660623516 -0.9262588708836622 -0.9258205189668789 -0.9251063382560993 -0.9259691676850198 -0.920185897388841 -0.9253785973073368 -0.9193803376368864 -0.9258509573137083 -0.9259220199737314 -0.9259561587851275 -0.9254394089199619 -0.9255774548584939 -0.9258095189069292 -0.9259699434940515 -0.9260070896738037 -0.9258843456075582 -0.9258225454795825 -0.9259896273045227 -0.9254830902581247 -0.9255540704211143 -0.9259094436100926 -0.9253398446649512 -0.7896006849709629 -0.9258599891491898 -0.9259697159776195 -0.9262505066296766 -0.925981098233153 -0.9258887226236587 -0.9253865145893519 -0.9255958323744451 -0.9255965919606872 -0.9226414868565789 -0.9251833978116139 -0.9259739948480771 -0.9222733345044962 -0.9259285042753417 -0.9258346786378013 -0.9255558773607956 -0.9258637194249735 -0.9252261174218964 -0.9259693991786566 -0.9258424668413088 -0.92597000485105 -0.9254066384604522 -0.9257744837504239 -0.9259717954505184 -0.9258517430684189 -0.9258436685697058 -0.9256691078950762 -0.8695868133776368 -0.9259761432065973 -0.9244896212711149 -0.9256880050829157 -0.9254189816680591 -0.8991855928337482 -0.9254960081163253 -0.9259824987881016 -0.925968957763414 -0.9259702766190399 -0.9259836050069693 -0.9239261072685245 -0.9160699642550842 -0.9256369499829749 -0.9232360806794122 -0.9259426572464151 -0.9257929289042347 -0.9259310953189062 -0.925422714200167 -0.9247962746468129 -0.9245547465839301 -0.9255300090126845 -0.9256040346185417 -0.9258597917911361 -0.9258402734092505 -0.9246004487997643 -0.9259734852878564 -0.9259847538901809 -0.9246003394429319 -0.9259696119407517 -0.9230367945346121 -0.8888573986369827 -0.925760791925902 -0.9259702773354754 -0.9220644844183796 -0.9259149700474847 -0.9259335105601114 -0.9183384699559006 -0.9258546574405355 -0.9259773352797855 -0.9242363342147691 -0.9259696947169347 -0.925983343477673 -0.9258574151058048 -0.9257076136641624 -0.9255531787884097 -0.9259777578823711 -0.9257383408048883 -0.9253954739010525 -0.9258613992538454 -0.9256399786886521 -0.9253952999214152 -0.9258431512633372 -0.9262504399289416 -0.925972446571625 -0.9259701040098952 -0.9259706338044371 -0.9254227222519739 -0.925915896357027 -0.925969891125351 -0.9256016578758238 -0.9256032546311797 -0.9260063954327723 -0.9259697059279908 -0.9258521684481438 -0.9259700048660476 -0.925872647540547 -0.9239032310691654 -0.9259740001009533 -0.9259776374926117 -0.9261928104185405 -0.9254824907046393 -0.9259696563247971 -0.9256369499819829 -0.9259882831141852 -0.9259425469741144 -0.9259188082361094 -0.925975839959799 -0.9254961662156062 -0.9259490492828674 -0.9254227222640473 -0.9259739947180277 -0.9256056746251971 -0.9170791408011609 -0.8168976131154644 -0.9259762760727788 -0.925969274631225 -0.9259698440301772 -0.9254835142541217 -0.9147011148307643 -0.9259321232065488 -0.9257509326540898 -0.9259707693666599 -0.9259756584546861 -0.925839818790625 -0.9258582847130479 -0.9213765012384068 -0.925983678941747 -0.9258128975845651 -0.9258327806023938 -0.9259748589204061 -0.9254950253907206 -0.9258632595706563 -0.8611281601110085 -0.9254130568727907 -0.9259794807773323 -0.9255738805113638 -0.9254817171645053 -0.9243722501500707 -0.9259707301486743 -0.9259888450785425 -0.9258507811133821 -0.9259956326307395 -0.9259701517623463 -0.9259223438731652 -0.9223301698219074 -0.9258523787734688 -0.9259701151752522 -0.9250739102681883 -0.8985666442671253 -0.9255063153735644 -0.9259819537558605 -0.9258573018178665 -0.9257339161381021 -0.908701903803899 -0.9259714256041358 -0.9259424663407895 -0.9232208010503212 -0.9259742904882857 -0.881416653465237 -0.9249108603116288 -0.9258105725290147 -0.9259692214279227 -0.9259824987758543 -0.9258866050716789 -0.9257835488239662 -0.9257335617431186 -0.9259183870816873 -0.9251720195335916 -0.9258089236481197 -0.9254361864614818 -0.925969487800369 -0.9256079548575711 -0.9258563339532924 -0.9257610262339125 -0.9257189339843181 -0.9254830822607971 -0.9259221670772136 -0.92578708474593 -0.7392578989229462 -0.9259673832503121 -0.9256881794929066 -0.9255918381368995 -0.9258252695411904 -0.9259818832018011 -0.9251443357290011 -0.9259696424668379 -0.9259705200118367 -0.9260063954327724 -0.9257666164032288 -0.9259424978981228 -0.9259818894349472 -0.9253869606394542 -0.9259672651558313 -0.8467873346255004 -0.92555511029582 -0.9257607651553192 -0.9258572977290611 -0.9258095183424612 -0.9259752112953733 -0.925442850445407 -0.925977757854378 -0.9258575190550651 -0.9251926820659007 -0.9255278546017894 -0.9259783256332064 -0.9247554425018057 -0.9255470949678459 -0.9259758353856626 -0.9258371014687555 -0.925777742771086 -0.9259706338044371 -0.9259696601153599 -0.920620141259219 -0.92599241949003 -0.9259697552923289 -0.9259700415783076 -0.925969274631225 -0.9257815053561425 -0.9259509646463766 -0.9252758070512641 -0.9259705546657346 -0.8977279480631785 -0.9259813495842 -0.9261999003624455 -0.925974124555904 -0.9259696119407517 -0.9258508322093446 -0.9259873922798884 -0.9259818536055018 -0.9253116519283181 -0.9258592934351245 -0.9259706922417996 -0.9253481418129853 -0.9258230709159014 -0.9260011873962116 -0.9255805258295224 -0.9220820533941736 -0.925723658833452 -0.9259243211703733 -0.9259700415783076 -0.9262346194136184 -0.9259702270038865 -0.9261920002074522 -0.9258231390361429 -0.9258289299768416 -0.9127839081098732 -0.9258508322093446 -0.9260229969414836 -0.9254934901278602 -0.9262588409619139 -0.9258231092818272 -0.9259820070904168 -0.9259896273045226 -0.9258072248020996 -0.9259517305209339 -0.9259701581958901 -0.9258572954769538 -0.9259891083038306 -0.9249300748635425 -0.9257971698206275 -0.9258570751927255 -0.9258173587259556 -0.9258229609087457 -0.9258188778170813 -0.9255541920764019 -0.9259898663057835 -0.9259826492743096 -0.9258107714059566 -0.9259707323043102 -0.925781823725658 -0.9256703460997676 -0.9087556380704419 -0.9221522945778248 -0.9253483972205402 -0.9256800721353279 -0.9257929326769603 -0.925973543885209 -0.9253755864642953 -0.9258171925669281 -0.9259834716824467 -0.925095437372376 -0.9259823832536064 -0.9256724741248124 -0.9144571383110451 -0.9256176567668449 -0.9251683899565369 -0.9258032926606067 -0.9255560058862728 -0.925861902245417 -0.9259924170347511 -0.9257921850126527 -0.9262108191697184 -0.9259758229179345 -0.9259818533236739 -0.9255557369144276 -0.9259743080544365 -0.925985262679431 -0.9227572983116162 -0.9256294750900121 -0.9245251843793635 -0.9256369499872189 -0.9258976638625936 -0.9255063153735658 -0.9259698911331301 -0.9246225936803849 -0.9256106081798312 -0.9170392584046945 -0.9262622935125027 -0.925577769934702 -0.6983574861240907 -0.9259847538901809 -0.9259739947180277 -0.9258732858612897 -0.925318978105678 -0.925953140575249 -0.9189935561883802 -0.9259833572058647 -0.9258327806023849 -0.8622183695403607 -0.9245225316840406 -0.9259832367142098 -0.9258551545108883 -0.9257383072038604 -0.9078227959135321 -0.9237629903198029 -0.9259731924038658 -0.909312590439775 -0.9259701712264867 -0.9256687940867172 -0.9256151732308044 -0.925738472825284 -0.9256904110348644 -0.9262553189105964 -0.9180116252178329 -0.9259307918107823 -0.9259702773354754 -0.9259571543833081 -0.9259702700027543 -0.9259218859124435 -0.925950964886793 -0.9258179251817495 -0.9259830094229349 -0.9259891465319716 -0.9259620131167335 -0.9259150033975091 -0.9258599937314385 -0.9247435325184703 -0.9248998669573714 -0.9258848250267635 -0.9255971633305452 -0.9259700493995606 -0.9259715728514694 -0.9250984413164496 -0.9258755011563862 -0.9110179085939055 -0.9257607919259073 -0.9258673341991059 -0.9259758347231932 -0.9258067279943243 -0.9259188078600548 -0.9255309097886133 -0.9258032952727504 -0.9259313209817323 -0.9259152269889184 -0.9262390106676189 -0.9259706338044371 -0.9255557883184891 -0.9255560058862728 -0.925970705073032 -0.9259578606092038 -0.9257841644204011 -0.9259702766190399 -0.9254226665347273 -0.9259690782385265 -0.9258953019421621 -0.9259509648871458 -0.925918835334721 -0.926000770820662 -0.9255060318717386 -0.9258231087203753 -0.9259697075085076 -0.9258502516077032 -0.9174255539069249 -0.9256813595131003 -0.9048722579654817 -0.9177432451792754 -0.9257604027311649 -0.9258720800842739 -0.925971795226485 -0.9260062926774207 -0.9259731388509941 -0.9259700817062847 -0.9259696952683873 -0.925676341045209 -0.9259707165835014 -0.7919142424307337 -0.9259898277172712 -0.9259923949168152 -0.9253755728735926 -0.925942497830073 -0.9262006567472051 -0.9258826879242594 -0.9259747119375529 -0.925981868970611 -0.9250999571672619 -0.9259427517472079 -0.9258486889397785 -0.9258177479544899 -0.9146310848326511 -0.9231470996972273 -0.9250929512077497 -0.9259816411326225 -0.9255152142956022 -0.9258209953343446 -0.9259834716946893 -0.9259777578745712 -0.9260077506212753 -0.9258229733641915 -0.9257618298924646 -0.9244285188856733 -0.9251367205010117 -0.9219393389976757 -0.9229310611977479 -0.9259700961921334 -0.9258231081316426 -0.9258106660878783 -0.9259987849346741 -0.9255048743914772 -0.9258599866371974 -0.9262407415595937 -0.9259820124960227 -0.9258576212905362 -0.9254813062997812 -0.9259699489580665 -0.9259685966527414 -0.9259770512378052 -0.8815846423078688 -0.9259249770117435 -0.9257358866241457 -0.9022483027200813 -0.92597948117777 -0.9257382736050712 -0.9228974648275613 -0.9246206417797396 -0.9256079475036034 -0.9259768759697995 -0.9256698876962683 -0.9258246893880152 -0.9259692182767024 -0.9259414711568292 -0.925378874009254 -0.9259676268615722 -0.9234676210571532 -0.9259846561646472 -0.9259766978989763 -0.9243430753975411 -0.9259878825193307 -0.9259318259214602 -0.9259569393633587 -0.9258089206024741 -0.9259770512584143 -0.9258597880619196 -0.9256567515509951 -0.9262158757499561 -0.9259708855454819 -0.9254830908537 -0.9259697167025718 -0.9259189400415623 -0.9226354337916688 -0.9255155762302655 -0.9096429453272988 -0.9259822782614709 -0.9259794815920991 -0.9258597917870832 -0.9259770512667809 -0.9257833554220969 -0.9262588314043652 -0.925819286402117 -0.9258572151877748 -0.8470107230206433 -0.9258053626955157 -0.9257828895417198 -0.9259421492935632 -0.9259699198538359 -0.9255063110366495 -0.9259754864901503 -0.9259448196701436 -0.9129153658077307 -0.9253788738201287 -0.9248542193484562 -0.9204798632164416 -0.9258597148496036 -0.9246354682491552 -0.9236264291888223 -0.9259707182849634 -0.925688179492905 -0.9259833125748922 -0.9245807566249461 -0.9218677683883054 -0.9261946534582337 -0.9259227661714705 -0.9259709117327737 -0.9261929033971884 -0.9254389504325377 -0.9259930953809458 -0.9241992716892267 -0.9259697117112943 -0.9243241441427604 -0.9257438278701489 -0.9262587492785271 -0.8849744459403838 -0.9248573913724987 -0.9259706338044371 -0.9253967173118768 -0.9253968898472598 -0.9256079471262292 -0.9259692374248383 -0.9255539664080699 -0.9259768758678667 -0.925080662820292 -0.924667406762975 -0.9257929305108591 -0.9259752985728326 -0.9244371349296315 -0.9261034144017316 -0.9258560354012543 -0.9256151732303473 -0.9262588335290551 -0.9232006159433791 -0.9258402142515267 
0 1 2 3 4 5 6 7 8 9 10 11 12 13 14 15 16 17 18 19 20 21 22 23 24 25 26 27 28 29 30 31 32 33 34 35 36 37 38 39 40 41 42 43 44 45 46 47 48 49 50 51 52 53 54 55 56 57 58 59 60 61 62 63 64 65 66 67 68 69 70 71 72 73 74 75 76 77 78 79 80 81 82 83 84 85 86 87 88 89 90 91 92 93 94 95 96 97 98 99 100 101 102 103 104 105 106 107 108 109 110 111 112 113 114 115 116 117 118 119 120 121 122 123 124 125 126 127 128 129 130 131 132 133 134 135 136 137 138 139 140 141 142 143 144 145 146 147 148 149 150 151 152 153 154 155 156 157 158 159 160 161 162 163 164 165 166 167 168 169 170 171 172 173 174 175 176 177 178 179 180 181 182 183 184 185 186 187 188 189 190 191 192 193 194 195 196 197 198 199 200 201 202 203 204 205 206 207 208 209 210 211 212 213 214 215 216 217 218 219 220 221 222 223 224 225 226 227 228 229 230 231 232 233 234 235 236 237 238 239 240 241 242 243 244 245 246 247 248 249 250 251 252 253 254 255 256 257 258 259 260 261 262 263 264 265 266 267 268 269 270 271 272 273 274 275 276 277 278 279 280 281 282 283 284 285 286 287 288 289 290 291 292 293 294 295 296 297 298 299 300 301 302 303 304 305 306 307 308 309 310 311 312 313 314 315 316 317 318 319 320 321 322 323 324 325 326 327 328 329 330 331 332 333 334 335 336 337 338 339 340 341 342 343 344 345 346 347 348 349 350 351 352 353 354 355 356 357 358 359 360 361 362 363 364 365 366 367 368 369 370 371 372 373 374 375 376 377 378 379 380 381 382 383 384 385 386 387 388 389 390 391 392 393 394 395 396 397 398 399 400 401 402 403 404 405 406 407 408 409 410 411 412 413 414 415 416 417 418 419 420 421 422 423 424 425 426 427 428 429 430 431 432 433 434 435 436 437 438 439 440 441 442 443 444 445 446 447 448 449 450 451 452 453 454 455 456 457 458 459 460 461 462 463 464 465 466 467 468 469 470 471 472 473 474 475 476 477 478 479 480 481 482 483 484 485 486 487 488 489 490 491 492 493 494 495 496 497 498 499 500 501 502 503 504 505 506 507 508 509 510 511 512 513 514 515 516 517 518 519 520 521 522 523 524 525 526 527 528 529 530 531 532 533 534 535 536 537 538 539 540 541 542 543 544 545 546 547 548 549 550 551 552 553 554 555 556 557 558 559 560 561 562 563 564 565 566 567 568 569 570 571 572 573 574 575 576 577 578 579 580 581 582 583 584 585 586 587 588 589 590 591 592 593 594 595 596 597 598 599 600 601 602 603 604 605 606 607 608 609 610 611 612 613 614 615 616 617 618 619 620 621 622 623 624 625 626 627 628 629 630 631 632 633 634 635 636 637 638 639 640 641 642 643 644 645 646 647 648 649 650 651 652 653 654 655 656 657 658 659 660 661 662 663 664 665 666 667 668 669 670 671 672 673 674 675 676 677 678 679 680 681 682 683 684 685 686 687 688 689 690 691 692 693 694 695 696 697 698 699 700 701 702 703 704 705 706 707 708 709 710 711 712 713 714 715 716 717 718 2278 2279 2280 2281 2282 2283 2284 2285 2286 2287 2288 2289 2290 2291 2292 2293 2294 2295 2296 2297 2298 2299 2300 2301 2302 2303 2304 2305 2306 2307 2308 2309 2310 2311 2312 2313 2314 2315 2316 2317 2318 2319 2320 2321 2322 2323 2324 2325 2326 2327 2328 2329 2330 2331 2332 2333 2334 2335 2336 2337 2338 2339 2340 2341 2342 2343 2344 2345 2346 2347 2348 2349 2350 2351 2352 2353 2354 2355 2356 2357 2358 2359 2360 2361 2362 2363 2364 2365 2366 2367 2368 2369 2370 2371 2372 2373 2374 2375 2376 2377 2378 2379 2380 2381 2382 2383 2384 2385 2386 2387 2388 2389 2390 2391 2392 2393 2394 2395 2396 2397 2398 2399 2400 2401 2402 2403 2404 2405 2406 2407 2408 2409 2410 2411 2412 2413 2414 2415 2416 2417 2418 2419 2420 2421 2422 2423 2424 2425 2426 2427 2428 2429 2430 2431 2432 2433 2434 2435 2436 2437 2438 2439 2440 2441 2442 2443 2444 2445 2446 2447 2448 2449 2450 2451 2452 2453 2454 2455 2456 2457 2458 2459 2460 2461 2462 2463 2464 2465 2466 2467 2468 2469 2470 2471 2472 2473 2474 2475 2476 2477 2478 2479 2480 2481 2482 2483 2484 2485 2486 2487 2488 2489 2490 2491 2492 2493 2494 2495 2496 2497 2498 2499 2500 2501 2502 2503 2504 2505 2506 2507 2508 2509 2510 2511 2512 2513 2514 2515 2516 2517 2518 2519 2520 2521 2522 2523 2524 2525 2526 2527 2528 2529 2530 2531 2532 2533 2534 2535 2536 2537 2538 2539 2540 2541 2542 2543 2544 2545 2546 2547 2548 2549 2550 2551 2552 2553 2554 2555 2556 2557 2558 2559 2560 2561 2562 2563 2564 2565 2566 2567 2568 2569 2570 2571 2572 2573 2574 2575 2576 2577 2578 2579 2580 2581 2582 2583 2584 2585 2586 2587 2588 2589 2590 2591 2592 2593 2594 2595 2596 2597 2598 2599 2600 2601 2602 2603 2604 2605 2606 2607 2608 2609 2610 2611 2612 2613 2614 2615 2616 2617 2618 2619 2620 2621 2622 2623 2624 2625 2626 2627 2628 2629 2630 2631 2632 2633 2634 2635 2636 2637 2638 2639 2640 2641 2642 2643 2644 2645 2646 2647 2648 2649 2650 2651 2652 2653 2654 2655 2656 2657 2658 2659 2660 2661 2662 2663 2664 2665 2666 2667 2668 2669 2670 2671 2672 2673 2674 2675 2676 2677 2678 2679 2680 2681 2682 2683 2684 2685 2686 2687 2688 2689 2690 2691 2692 2693 2694 2695 2696 2697 2698 2699 2700 2701 2702 2703 2704 2705 2706 2707 2708 2709 2710 2711 2712 2713 2714 2715 2716 2717 2718 2719 2720 2721 2722 2723 2724 2725 2726 2727 2728 2729 2730 2731 2732 2733 2734 2735 2736 2737 2738 2739 2740 2741 2742 2743 2744 2745 2746 2747 2748 2749 2750 2751 2752 2753 2754 2755 2756 2757 2758 2759 2760 2761 2762 2763 2764 2765 2766 2767 2768 2769 2770 2771 2772 2773 2774 2775 2776 2777 2778 2779 2780 2781 2782 2783 2784 2785 2786 2787 2788 2789 2790 2791 2792 2793 2794 2795 2796 2797 2798 2799 2800 2801 2802 2803 2804 2805 2806 2807 2808 2809 2810 2811 2812 2813 2814 2815 2816 2817 2818 2819 2820 2821 2822 2823 2824 2825 2826 2827 2828 2829 2830 2831 2832 2833 2834 2835 2836 2837 2838 2839 2840 2841 2842 2843 2844 2845 2846 2847 2848 2849 2850 2851 2852 2853 2854 2855 2856 2857 2858 2859 2860 2861 2862 2863 2864 2865 2866 2867 2868 2869 2870 2871 2872 2873 2874 2875 2876 2877 2878 2879 2880 2881 2882 2883 2884 2885 2886 2887 2888 2889 2890 2891 2892 2893 2894 2895 2896 2897 2898 2899 2900 2901 2902 2903 2904 2905 2906 2907 2908 2909 2910 2911 2912 2913 2914 2915 2916 2917 2918 2919 2920 2921 2922 2923 2924 2925 2926 2927 2928 2929 2930 2931 2932 2933 2934 2935 2936 2937 2938 2939 2940 2941 2942 2943 2944 2945 2946 2947 2948 2949 2950 2951 2952 2953 2954 2955 2956 2957 2958 2959 2960 2961 2962 2963 2964 2965 2966 2967 2968 2969 2970 2971 2972 2973 2974 2975 2976 2977 2978 2979 2980 2981 2982 2983 2984 2985 2986 2987 2988 2989 2990 2991 2992 2993 2994 2995 2996 2997 2998 2999 3000 3001 3002 3003 3004 3005 3006 3007 3008 3009 3010 3011 3012 3013 3014 3015 3016 3017 3018 3019 3020 3021 3022 3023 3024 3025 3026 3027 3028 3029 3030 3031 3032 3033 3034 3035 3036 3037 3038 3039 3040 3041 3042 3043 3044 3045 3046 3047 3048 3049 3050 3051 3052 3053 3054 3055 3056 3057 
1 1 1 1 1 1 1 1 1 1 1 1 1 1 1 1 1 1 1 1 1 1 1 1 1 1 1 1 1 1 1 1 1 1 1 1 1 1 1 1 1 1 1 1 1 1 1 1 1 1 1 1 1 1 1 1 1 1 1 1 1 1 1 1 1 1 1 1 1 1 1 1 1 1 1 1 1 1 1 1 1 1 1 1 1 1 1 1 1 1 1 1 1 1 1 1 1 1 1 1 1 1 1 1 1 1 1 1 1 1 1 1 1 1 1 1 1 1 1 1 1 1 1 1 1 1 1 1 1 1 1 1 1 1 1 1 1 1 1 1 1 1 1 1 1 1 1 1 1 1 1 1 1 1 1 1 1 1 1 1 1 1 1 1 1 1 1 1 1 1 1 1 1 1 1 1 1 1 1 1 1 1 1 1 1 1 1 1 1 1 1 1 1 1 1 1 1 1 1 1 1 1 1 1 1 1 1 1 1 1 1 1 1 1 1 1 1 1 1 1 1 1 1 1 1 1 1 1 1 1 1 1 1 1 1 1 1 1 1 1 1 1 1 1 1 1 1 1 1 1 1 1 1 1 1 1 1 1 1 1 1 1 1 1 1 1 1 1 1 1 1 1 1 1 1 1 1 1 1 1 1 1 1 1 1 1 1 1 1 1 1 1 1 1 1 1 1 1 1 1 1 1 1 1 1 1 1 1 1 1 1 1 1 1 1 1 1 1 1 1 1 1 1 1 1 1 1 1 1 1 1 1 1 1 1 1 1 1 1 1 1 1 1 1 1 1 1 1 1 1 1 1 1 1 1 1 1 1 1 1 1 1 1 1 1 1 1 1 1 1 1 1 1 1 1 1 1 1 1 1 1 1 1 1 1 1 1 1 1 1 1 1 1 1 1 1 1 1 1 1 1 1 1 1 1 1 1 1 1 1 1 1 1 1 1 1 1 1 1 1 1 1 1 1 1 1 1 1 1 1 1 1 1 1 1 1 1 1 1 1 1 1 1 1 1 1 1 1 1 1 1 1 1 1 1 1 1 1 1 1 1 1 1 1 1 1 1 1 1 1 1 1 1 1 1 1 1 1 1 1 1 1 1 1 1 1 1 1 1 1 1 1 1 1 1 1 1 1 1 1 1 1 1 1 1 1 1 1 1 1 1 1 1 1 1 1 1 1 1 1 1 1 1 1 1 1 1 1 1 1 1 1 1 1 1 1 1 1 1 1 1 1 1 1 1 1 1 1 1 1 1 1 1 1 1 1 1 1 1 1 1 1 1 1 1 1 1 1 1 1 1 1 1 1 1 1 1 1 1 1 1 1 1 1 1 1 1 1 1 1 1 1 1 1 1 1 1 1 1 1 1 1 1 1 1 1 1 1 1 1 1 1 1 1 1 1 1 1 1 1 1 1 1 1 1 1 1 1 1 1 1 1 1 1 1 1 1 1 1 1 1 1 1 1 1 1 1 1 1 1 1 1 1 1 1 1 1 1 1 1 1 1 1 1 1 1 1 1 1 1 1 1 1 1 1 1 1 1 1 1 1 1 1 1 1 1 1 1 1 1 1 1 1 1 1 1 1 1 1 1 1 1 1 1 1 1 1 1 1 1 1 1 1 1 1 1 1 1 1 -0.9218795760575846 -0.9228061845890377 -0.9226492152131446 -0.9218732864302186 -0.9226501609580804 -0.9219355567527155 -0.9218978722179736 -0.9224616151632801 -0.9219488784187085 -0.9219360431688219 -0.9220122288976073 -0.9218795618302082 -0.9219358417842241 -0.9219133965553131 -0.9225732250938219 -0.921879865799986 -0.9219023452854435 -0.9218782729801099 -0.9218801600861347 -0.9218777600622254 -0.9218811781036124 -0.9218817180666781 -0.9222689001135925 -0.9216599152602357 -0.9218975253681132 -0.9221216580884249 -0.9219259824851009 -0.9218777017111724 -0.9224766282039046 -0.9218766433372314 -0.9221800712953325 -0.9226419994648827 -0.921974475615297 -0.9225808587072455 -0.9218774582566361 -0.9218758774607543 -0.9218777244377431 -0.9219359434168197 -0.9226501975844976 -0.9219199223222438 -0.9221826878658046 -0.9218014789684476 -0.9220600304973847 -0.9218771921222149 -0.9218769789653765 -0.9219386502020946 -0.9219199223339527 -0.9218838039012686 -0.9226451801078043 -0.9218812272803821 -0.921883608955 -0.9219356410733778 -0.9218785724662864 -0.9219743806333746 -0.9218798306843118 -0.9218842775031132 -0.9218813664378629 -0.9218825211518503 -0.9226897496496875 -0.9218786378283608 -0.9218798503077851 -0.9219024922122132 -0.9213946168193667 -0.9218768768955381 -0.9218783113809025 -0.9221827042322872 -0.9218932275891668 -0.9219656367550276 -0.9221209967046162 -0.9219745518849516 -0.9221689058594931 -0.9218778889172556 -0.9218768390574356 -0.9218513136252532 -0.9186344330996611 -0.9218790209573393 -0.9218779092427075 -0.9226488236902538 -0.9218925195419645 -0.9221807714838248 -0.922573227385402 -0.9226501029007504 -0.9218792870174186 -0.9225811059540521 -0.9224766420085502 -0.921919316783917 -0.9219655392970124 -0.9218823128353334 -0.9219143866602009 -0.9218783113735665 -0.9218866093995418 -0.9218779092111371 -0.9226498378295688 -0.9218833285775389 -0.9218774831952568 -0.9219356416315809 -0.9226501773670119 -0.9218785224099714 -0.9224137011249082 -0.9218891397227106 -0.9218792464138367 -0.9218884940310561 -0.9218768597358679 -0.9215238440913459 -0.9226894190736725 -0.9218793156109951 -0.9218798306835889 -0.9221827169222188 -0.9218777002171286 -0.9218818951810176 -0.9219742326480151 -0.9219073488354358 -0.9218776780462473 -0.9219356416314063 -0.9218135217092768 -0.9218773249902115 -0.9221826878405246 -0.9226500941739738 -0.9218884775514975 -0.9226501975884724 -0.9218798359506434 -0.9218769234808069 -0.9218795782917941 -0.9218865166250771 -0.9218819442297781 -0.9218857180262718 -0.921879386993684 -0.9218974438993066 -0.9219006190701933 -0.9219743803963185 -0.9227805432476868 -0.9226501038615166 -0.9218779124297979 -0.9218767496718576 -0.9218760543175671 -0.9218782970773117 -0.9219006202757233 -0.9218801932006577 -0.9225794556161725 -0.9219192770491782 -0.9226501975934989 -0.9226502189274957 -0.9218769234701927 -0.9226897496496875 -0.9221216556110251 -0.9218802045611673 -0.9218777313492241 -0.9221826556278108 -0.9218843404242106 -0.9221709052884763 -0.9218777337243441 -0.9218927306554375 -0.9218826134597494 -0.9224766510820603 -0.9218786103789779 -0.922581078472601 -0.9220122268084626 -0.9218815494071766 -0.9224766530239549 -0.9228022556624857 -0.9218849213776189 -0.9218826544361083 -0.9218775709933598 -0.9218793150972417 -0.9218833279980307 -0.9219007252028542 -0.921879209441588 -0.9221800715580126 -0.9226502457034852 -0.9218771019348332 -0.9219354621068672 -0.9218781020860313 -0.9218758283061602 -0.9222329839049697 -0.9222035199667564 -0.9219742329161434 -0.9218777599354795 -0.9218848312206837 -0.9225732128022731 -0.9225732383235492 -0.9219048052291587 -0.9219355553351483 -0.9219240513342734 -0.9219354801792665 -0.9217668842585841 -0.9219452391665989 -0.9218827491925498 -0.9218771780195043 -0.9218807001914066 -0.9226489891901309 -0.9226501880653279 -0.9225732077866989 -0.92212099379684 -0.9218777310352144 -0.9226501258037741 -0.9218833164257327 -0.9218785224111995 -0.9218759776939538 -0.9219066851440072 -0.9227742430739233 -0.9221708891747781 -0.9217455525267996 -0.9221800689985403 -0.9221810380990811 -0.9226501773670119 -0.922573207786562 -0.9219745518850612 -0.9225811175582754 -0.9220549089823268 -0.9218826134600702 -0.9225732127208831 -0.9227805305649751 -0.921923403982213 -0.9221709030561919 -0.9218819183291933 -0.9218831310495852 -0.9218774127905218 -0.922476651355671 -0.9227742431582157 -0.9218792836199936 -0.9218798302993424 -0.9218802060194522 -0.9226502545946177 -0.9225810785647997 -0.9222688864294586 -0.9218819444744003 -0.922170899875831 -0.9218806952630045 -0.9218841613289201 -0.9217922063263319 -0.9218843957926727 -0.9218768735471906 -0.9227031163125096 -0.9218925788209572 -0.9218419015140047 -0.9221800651386453 -0.9218819438013963 -0.9218780663970176 -0.9218843975809459 -0.9219282431065676 -0.9224766529513709 -0.9218807001919473 -0.9218793152606436 -0.9219657196313055 -0.9218882859720998 -0.9219656373082568 -0.9218769233756162 -0.9218966544648189 -0.922573238265092 -0.9219742327971656 -0.921935641712382 -0.9218849213779657 -0.9221696242842277 -0.9219745522655628 -0.9227031133692735 -0.921902511801186 -0.8394564686096059 -0.9218925787160135 -0.9219172707178505 -0.9226501674690574 -0.9218932532335331 -0.9227028807387333 -0.9225732384020252 -0.9219006193783836 -0.9219656373104084 -0.9218740141645567 -0.9218771921199895 -0.9213319624526448 -0.9226408420339697 -0.9219199218069906 -0.9218777600463994 -0.9218781027640272 -0.9218884949895005 -0.9219743805292362 -0.9219199223222443 -0.9219199223341501 -0.9218785558228262 -0.9218786148492558 -0.9227592802627546 -0.9218736521626728 -0.921928178679232 -0.9218819426439794 -0.921890118539065 -0.9221800709926787 -0.9218826121163934 -0.9218843894042531 -0.9218785719598067 -0.9218785223789164 -0.9218783111816303 -0.9226407722075105 -0.9219645361484103 -0.9222035199667724 -0.921877451605888 -0.8395856653484547 -0.9218389922244582 -0.9220535500330913 -0.9221701804526824 -0.9218778888384334 -0.9219073411045543 -0.9219073488654261 -0.92193635075378 -0.9225810218715189 -0.9221826395310351 -0.9218970574796888 -0.9219438449592537 -0.9218817926546341 -0.9218782032946632 -0.9219143855608867 -0.9219036382226364 -0.9215231545157276 -0.9225811159171461 -0.922645891088993 -0.9226409114641042 -0.9218777278524978 -0.9225731946713593 -0.9218792097311943 -0.9225732128460534 -0.9218773498128102 -0.9220408109155842 -0.9219355514254979 -0.9228061779662254 -0.9220132787994968 -0.9226501975935415 -0.9225732190094954 -0.9219452890474161 -0.92265018805858 -0.9227590464834006 -0.9218779008465694 -0.9227805392250482 -0.9218716005331432 -0.9219359434168184 -0.9218907559510047 -0.9220600305210707 -0.9219355567527147 -0.9219743803964361 -0.9219386502022254 -0.9219282208785124 -0.9218880110095115 -0.9226501028716252 -0.9225811161968377 -0.9219051770160658 -0.9218980247095712 -0.9219197150291933 -0.9218781027770472 -0.9225728679969245 -0.9219358419512419 -0.9218777600642283 -0.921928242628426 -0.922802521530268 -0.9218907537874123 -0.9218773850368794 -0.9219235803047695 -0.9221826449672674 -0.9219282431065683 -0.9218771888598483 -0.9225811173432481 -0.9218822687573893 -0.9218773249817112 -0.922059090879508 -0.9219073488661482 -0.92258107152219 -0.9219358401489012 -0.922058317393898 -0.9213343169645715 -0.9225730521108615 -0.9221709073816922 -0.9218837800457764 -0.9218794930177991 -0.9226501027024718 -0.9219747238955789 -0.9219281686056872 -0.9221209967044988 -0.9219356385351896 -0.9218774596192068 -0.9218785724662864 -0.9219743626049685 -0.9221709073815929 -0.9219235024288327 -0.9218833264855046 -0.9219355566784538 -0.92190480223273 -0.9218813669199762 -0.9218866694707305 -0.9219741556795187 -0.9226128518488403 -0.9218792701084302 -0.921881995174197 -0.9225685005111814 -0.9218443365705957 -0.9218760905763795 -0.921863294376658 -0.921907115041773 -0.9219139298631394 -0.9219657196311626 -0.9219743786217796 -0.9218819957534863 -0.921905189750001 -0.9218795781084363 -0.9219655457567665 -0.9218794939296742 -0.9201585657829142 -0.9221826556277803 -0.9219356252385541 -0.922650042323258 -0.921879386669281 -0.9218793153862286 -0.9219143866155126 -0.9220122289519966 -0.9227742304715946 -0.9227027756366063 -0.922170819271418 -0.9218798509086403 -0.9218925728689563 -0.9218829855132303 -0.9218774591622181 -0.9226501974799092 -0.9218778888384334 -0.9226501038829619 -0.9225808330486819 -0.9218829711616223 -0.9218781023711681 -0.9218793156100225 -0.9218765895102706 -0.9226501665646608 -0.9218823128510362 -0.9218833272642535 -0.9219282439955723 -0.9219048040766651 -0.9218793870025537 -0.9218857180262721 -0.9219355317904524 -0.9218882851754938 -0.9221701804529971 -0.9220600305106752 -0.9218802064286165 -0.9227031130751342 -0.9226501685076891 -0.9218843976755841 -0.9218792092051579 -0.9218791072710195 -0.9218758742052261 -0.9226501027215406 -0.9218789282445996 -0.9228061845054688 -0.9219386502562313 -0.9226885679121362 -0.9225729711294008 -0.9224766866041996 -0.9218785721727603 -0.9219742326477194 -0.9218793148287776 -0.9219141750876902 -0.9218783103703301 -0.9219281745150731 -0.9219120067883549 -0.9218761694133142 -0.9219073454744929 -0.921883321599876 -0.922573174169585 -0.9225811161998562 -0.9226499151584344 -0.9218907559573259 -0.9218939548272743 -0.9218793870025537 -0.9218837783261732 -0.9218802061328996 -0.921892186834578 -0.9218004121746516 -0.9221800712904795 -0.9218789453681393 -0.921882636856298 -0.9218880110696269 -0.9222688687742505 -0.9218812212214763 -0.9218777309235978 -0.921881227925521 -0.9218588705687147 -0.9225729843243872 -0.9218795444133235 -0.9226407618808297 -0.9218785719896041 -0.9218833145582773 -0.9220600304971013 -0.9218781108693087 -0.921881710644157 -0.9219332354483246 -0.9218798695811301 -0.9217471675437201 -0.9218931892305308 -0.9218783953216988 -0.921634144195992 -0.9225811152821227 -0.9218978712247753 -0.9218858270968181 -0.9218785814309564 -0.9218833285628101 -0.9227805429352928 -0.9226413937317104 -0.9218819957539169 -0.9218819442282499 -0.9226501590729517 -0.9220132786586743 -0.9218812273268823 -0.9218785223789164 -0.9225732078072738 -0.9225732128360491 -0.9218837800177826 -0.922650089530443 -0.9219073486724443 -0.9225716835138459 -0.9225811029164149 -0.9219143780101221 -0.9224766831685121 -0.9221800715580252 -0.9218803810931224 -0.9218768769563546 -0.9226501778907551 -0.9218925787399325 -0.9218812279227534 -0.9221826762009246 -0.9218788203196039 -0.921873945831843 -0.922182655907443 -0.9218774591622181 -0.9219282425395564 -0.9219024922119933 -0.9219743999110116 -0.9166580049998696 -0.9218782967180642 -0.9216613118134117 -0.9226499127444354 -0.921877852801287 -0.9228008989226462 -0.921863159770298 -0.9219356598746269 -0.9227805429353654 -0.9219386502562299 -0.9226488966947435 -0.9220122288976029 -0.921896652133848 -0.9218779092438912 -0.9218795378548014 -0.922573219261528 -0.9218767738421412 -0.9218925787930263 -0.9227805431787346 -0.9227742391343543 -0.918699360326322 -0.9218858064294495 -0.9050126086547636 -0.9220407599719127 -0.9218932532332677 -0.9225811151878698 -0.922060021778381 -0.9218884952777191 -0.921850767864872 -0.9226489072758969 -0.9218807004770816 -0.9219174276993254 -0.9226501975844975 -0.9219743778686083 -0.9218755875714443 -0.9218939548721806 -0.9226501019888012 -0.9218795781084363 -0.9226502584024355 -0.921881367257436 -0.9224766865007795 -0.922644359740232 -0.9220600305210637 -0.9219143838761031 -0.921881227925521 -0.9221826557699179 -0.9219643628836828 -0.9218789282325722 -0.9218986637901776 -0.9226130858467169 -0.9218770570786901 -0.9225732126440871 -0.9219451070694049 -0.92187686428413 -0.9224766530238315 -0.9219066865580273 -0.9226500993633397 -0.9218788208313492 -0.9221826557137852 -0.9226498799710122 -0.9218785717290257 -0.921877760180131 -0.9218817560504419 -0.9218817560499819 -0.922182704232255 -0.9226408454370281 -0.9218767496718576 -0.9222689001135755 -0.9225732082661579 -0.9226498804092091 -0.9218843974251615 -0.9218829861424332 -0.9225732194092189 -0.9228051302099066 -0.9219259824851015 -0.9218785719910686 -0.9218782955416833 -0.9218812277245482 -0.9218057928338367 -0.9221826879352913 -0.9218837254301033 -0.9218776945747778 -0.9226501757105169 -0.9218907559512876 -0.9218977055224518 -0.9218720557741971 -0.9225811175604501 -0.9218806952630045 -0.9218137189865028 -0.9222688903896313 -0.9218056179634462 -0.9225732128391407 -0.9225690754028867 -0.9218978721385876 -0.9218769241878629 -0.9218006827193916 -0.9218771770108671 -0.9218882861403839 -0.9219742329161451 -0.9218771780195043 -0.9222688787440892 -0.9218795782925633 -0.9218882843188539 -0.92196560592154 -0.9225811161306648 -0.9224766512604277 -0.9218790520613223 -0.9227031133639018 -0.9218806686986043 -0.9226501881247204 -0.9226499595879835 -0.9218779092093605 -0.9225718617565517 -0.9226418021652266 -0.9218773249880987 -0.9218821716872201 -0.92192357990157 -0.9218780543835433 -0.9218802064286165 -0.9218902648437086 -0.9218978724572485 -0.9218882622588528 -0.9227805430178195 -0.9219655398367923 -0.9219452889380956 -0.9225808007193446 -0.9227597748652022 -0.9219744271269422 -0.921913980575535 -0.9218589096770428 -0.9218770211740613 -0.9226500091090185 -0.921888285948181 -0.9220600449045838 -0.9219199161977529 -0.9219006202770366 -0.9050861679010477 -0.9218768845585038 -0.9218849212940688 -0.9218768268359192 -0.9226501975844976 -0.9218777313512299 -0.9218794939304438 -0.9218826134600702 -0.921876924021257 -0.921974214768327 -0.9218798642587225 -0.9219140730848288 -0.9225732384196023 -0.921907348651041 -0.9225810727690926 -0.9218818262665508 -0.9226501515520643 -0.9217918673742094 -0.9218843976755841 -0.9218783958771856 -0.9225732080836122 -0.921871788770013 -0.9218773248192259 -0.9219282439953903 -0.9227031149670104 -0.9218961035400708 -0.9218812292623728 -0.9218771772554869 -0.9219282366548497 -0.9218813672587856 -0.9225732384440052 -0.9219656184998964 -0.9218915402303617 -0.921877445085639 -0.9218798306889574 -0.9225810727796497 -0.9219199213140592 -0.9218858083111879 -0.9227805214317484 -0.922650178938588 -0.9218790519752775 -0.9218806952219516 -0.9218925788209569 -0.9221800676252555 -0.9225810980571814 -0.9223644031423288 -0.9226499580821184 -0.9218792870174186 -0.9218790519763828 -0.922802353131842 -0.9221701697775435 -0.9219143855608876 -0.9225732384442007 -0.9218793153862286 -0.9218882855806646 -0.9225731039115991 -0.9220407683520792 -0.9218782970787504 -0.9221209966314695 -0.9220549202936867 -0.921876881901558 -0.9219356410262968 -0.9225811175606219 -0.9218779090590333 -0.9219141194181483 -0.9218768558359833 -0.9218802066384542 -0.9220549202939734 -0.9218821716872201 -0.921974380377219 -0.9218770151892093 -0.9219655522303433 -0.9218978499506831 -0.9218961877764689 -0.9218798695826731 -0.921900691120732 -0.9218807004770816 -0.9218783075454462 -0.921974229912676 -0.9226501682886946 -0.9218424832932214 -0.9218778889131475 -0.9218788205878237 -0.9218833285622052 -0.9218882851754937 -0.9218768768894731 -0.9224766866041996 -0.9218794939121324 -0.9218966545411755 -0.9202892648264809 -0.9218843976303551 -0.9225811160854333 -0.9218782030082465 -0.9219438431742303 -0.9218768760797356 -0.9227393497728716 -0.9221826559075306 -0.9216341162828412 -0.9218819798640977 -0.9218767492406963 -0.9218513490316279 -0.9218784445300481 -0.9224136887948888 -0.9218771921209323 -0.9219073469707812 -0.9219355553353125 -0.9166562207319245 -0.9218767496334466 -0.9219207781972367 -0.9213805724138602 -0.9218723446894963 -0.9218773934502944 -0.9218425985159672 -0.921880382383075 -0.9226451007451794 -0.9218771921209323 -0.9218978722179737 
0 1 2 3 4 5 6 7 8 9 10 11 12 13 14 15 16 17 18 19 20 21 22 23 24 25 26 27 28 29 30 31 32 33 34 35 36 37 38 39 40 41 42 43 44 45 46 47 48 49 50 51 52 53 54 55 56 57 58 59 60 61 62 63 64 65 66 67 68 69 70 71 72 73 74 75 76 77 78 79 80 81 82 83 84 85 86 87 88 89 90 91 92 93 94 95 96 97 98 99 100 101 102 103 104 105 106 107 108 109 110 111 112 113 114 115 116 117 118 119 120 121 122 123 124 125 126 127 128 129 130 131 132 133 134 135 136 137 138 139 140 141 142 143 144 145 146 147 148 149 150 151 152 153 154 155 156 157 158 159 160 161 162 163 164 165 166 167 168 169 170 171 172 173 174 175 176 177 178 179 180 181 182 183 184 185 186 187 188 189 190 191 192 193 194 195 196 197 198 199 200 201 202 203 204 205 206 207 208 209 210 211 212 213 214 215 216 217 218 219 220 221 222 223 224 225 226 227 228 229 230 231 232 233 234 235 236 237 238 239 240 241 242 243 244 245 246 247 248 249 250 251 252 253 254 255 256 257 258 259 260 261 262 263 264 265 266 267 268 269 270 271 272 273 274 275 276 277 278 279 280 281 282 283 284 285 286 287 288 289 290 291 292 293 294 295 296 297 298 299 300 301 302 303 304 305 306 307 308 309 310 311 312 313 314 315 316 317 318 319 320 321 322 323 324 325 326 327 328 329 330 331 332 333 334 335 336 337 338 339 340 341 342 343 344 345 346 347 348 349 350 351 352 353 354 355 356 357 358 359 360 361 362 363 364 365 366 367 368 369 370 371 372 373 374 375 376 377 378 379 380 381 382 383 384 385 386 387 388 389 390 391 392 393 394 395 396 397 398 399 400 401 402 403 404 405 406 407 408 409 410 411 412 413 414 415 416 417 418 419 420 421 422 423 424 425 426 427 428 429 430 431 432 433 434 435 436 437 438 439 440 441 442 443 444 445 446 447 448 449 450 451 452 453 454 455 456 457 458 459 460 461 462 463 464 465 466 467 468 469 470 471 472 473 474 475 476 477 478 479 480 481 482 483 484 485 486 487 488 489 490 491 492 493 494 495 496 497 498 499 500 501 502 503 504 505 506 507 508 509 510 511 512 513 514 515 516 517 518 519 520 521 522 523 524 525 526 527 528 529 530 531 532 533 534 535 536 537 538 539 540 541 542 543 544 545 546 547 548 549 550 551 552 553 554 555 556 557 558 559 560 561 562 563 564 565 566 567 568 569 570 571 572 573 574 575 576 577 578 579 580 581 582 583 584 585 586 587 588 589 590 591 592 593 594 595 596 597 598 599 600 601 602 603 604 605 606 607 608 609 610 611 612 613 614 615 616 617 618 619 620 621 622 623 624 625 626 627 628 629 630 631 632 633 634 635 636 637 638 639 640 641 642 643 644 645 646 647 648 649 650 651 652 653 654 655 656 657 658 659 660 661 662 663 664 665 666 667 668 669 670 671 672 673 674 675 676 677 678 679 680 681 682 683 684 685 686 687 688 689 690 691 692 693 694 695 696 697 698 699 700 701 702 703 704 705 706 707 708 709 710 711 712 713 714 715 716 717 718 3058 3059 3060 3061 3062 3063 3064 3065 3066 3067 3068 3069 3070 3071 3072 3073 3074 3075 3076 3077 3078 3079 3080 3081 3082 3083 3084 3085 3086 3087 3088 3089 3090 3091 3092 3093 3094 3095 3096 3097 3098 3099 3100 3101 3102 3103 3104 3105 3106 3107 3108 3109 3110 3111 3112 3113 3114 3115 3116 3117 3118 3119 3120 3121 3122 3123 3124 3125 3126 3127 3128 3129 3130 3131 3132 3133 3134 3135 3136 3137 3138 3139 3140 3141 3142 3143 3144 3145 3146 3147 3148 3149 3150 3151 3152 3153 3154 3155 3156 3157 3158 3159 3160 3161 3162 3163 3164 3165 3166 3167 3168 3169 3170 3171 3172 3173 3174 3175 3176 3177 3178 3179 3180 3181 3182 3183 3184 3185 3186 3187 3188 3189 3190 3191 3192 3193 3194 3195 3196 3197 3198 3199 3200 3201 3202 3203 3204 3205 3206 3207 3208 3209 3210 3211 3212 3213 3214 3215 3216 3217 3218 3219 3220 3221 3222 3223 3224 3225 3226 3227 3228 3229 3230 3231 3232 3233 3234 3235 3236 3237 3238 3239 3240 3241 3242 3243 3244 3245 3246 3247 3248 3249 3250 3251 3252 3253 3254 3255 3256 3257 3258 3259 3260 3261 3262 3263 3264 3265 3266 3267 3268 3269 3270 3271 3272 3273 3274 3275 3276 3277 3278 3279 3280 3281 3282 3283 3284 3285 3286 3287 3288 3289 3290 3291 3292 3293 3294 3295 3296 3297 3298 3299 3300 3301 3302 3303 3304 3305 3306 3307 3308 3309 3310 3311 3312 3313 3314 3315 3316 3317 3318 3319 3320 3321 3322 3323 3324 3325 3326 3327 3328 3329 3330 3331 3332 3333 3334 3335 3336 3337 3338 3339 3340 3341 3342 3343 3344 3345 3346 3347 3348 3349 3350 3351 3352 3353 3354 3355 3356 3357 3358 3359 3360 3361 3362 3363 3364 3365 3366 3367 3368 3369 3370 3371 3372 3373 3374 3375 3376 3377 3378 3379 3380 3381 3382 3383 3384 3385 3386 3387 3388 3389 3390 3391 3392 3393 3394 3395 3396 3397 3398 3399 3400 3401 3402 3403 3404 3405 3406 3407 3408 3409 3410 3411 3412 3413 3414 3415 3416 3417 3418 3419 3420 3421 3422 3423 3424 3425 3426 3427 3428 3429 3430 3431 3432 3433 3434 3435 3436 3437 3438 3439 3440 3441 3442 3443 3444 3445 3446 3447 3448 3449 3450 3451 3452 3453 3454 3455 3456 3457 3458 3459 3460 3461 3462 3463 3464 3465 3466 3467 3468 3469 3470 3471 3472 3473 3474 3475 3476 3477 3478 3479 3480 3481 3482 3483 3484 3485 3486 3487 3488 3489 3490 3491 3492 3493 3494 3495 3496 3497 3498 3499 3500 3501 3502 3503 3504 3505 3506 3507 3508 3509 3510 3511 3512 3513 3514 3515 3516 3517 3518 3519 3520 3521 3522 3523 3524 3525 3526 3527 3528 3529 3530 3531 3532 3533 3534 3535 3536 3537 3538 3539 3540 3541 3542 3543 3544 3545 3546 3547 3548 3549 3550 3551 3552 3553 3554 3555 3556 3557 3558 3559 3560 3561 3562 3563 3564 3565 3566 3567 3568 3569 3570 3571 3572 3573 3574 3575 3576 3577 3578 3579 3580 3581 3582 3583 3584 3585 3586 3587 3588 3589 3590 3591 3592 3593 3594 3595 3596 3597 3598 3599 3600 3601 3602 3603 3604 3605 3606 3607 3608 3609 3610 3611 3612 3613 3614 3615 3616 3617 3618 3619 3620 3621 3622 3623 3624 3625 3626 3627 3628 3629 3630 3631 3632 3633 3634 3635 3636 3637 3638 3639 3640 3641 3642 3643 3644 3645 3646 3647 3648 3649 3650 3651 3652 3653 3654 3655 3656 3657 3658 3659 3660 3661 3662 3663 3664 3665 3666 3667 3668 3669 3670 3671 3672 3673 3674 3675 3676 3677 3678 3679 3680 3681 3682 3683 3684 3685 3686 3687 3688 3689 3690 3691 3692 3693 3694 3695 3696 3697 3698 3699 3700 3701 3702 3703 3704 3705 3706 3707 3708 3709 3710 3711 3712 3713 3714 3715 3716 3717 3718 3719 3720 3721 3722 3723 3724 3725 3726 3727 3728 3729 3730 3731 3732 3733 3734 3735 3736 3737 3738 3739 3740 3741 3742 3743 3744 3745 3746 3747 3748 3749 3750 3751 3752 3753 3754 3755 3756 3757 3758 3759 3760 3761 3762 3763 3764 3765 3766 3767 3768 3769 3770 3771 3772 3773 3774 3775 3776 3777 
1 1 1 1 1 1 1 1 1 1 1 1 1 1 1 1 1 1 1 1 1 1 1 1 1 1 1 1 1 1 1 1 1 1 1 1 1 1 1 1 1 1 1 1 1 1 1 1 1 1 1 1 1 1 1 1 1 1 1 1 1 1 1 1 1 1 1 1 1 1 1 1 1 1 1 1 1 1 1 1 1 1 1 1 1 1 1 1 1 1 1 1 1 1 1 1 1 1 1 1 1 1 1 1 1 1 1 1 1 1 1 1 1 1 1 1 1 1 1 1 1 1 1 1 1 1 1 1 1 1 1 1 1 1 1 1 1 1 1 1 1 1 1 1 1 1 1 1 1 1 1 1 1 1 1 1 1 1 1 1 1 1 1 1 1 1 1 1 1 1 1 1 1 1 1 1 1 1 1 1 1 1 1 1 1 1 1 1 1 1 1 1 1 1 1 1 1 1 1 1 1 1 1 1 1 1 1 1 1 1 1 1 1 1 1 1 1 1 1 1 1 1 1 1 1 1 1 1 1 1 1 1 1 1 1 1 1 1 1 1 1 1 1 1 1 1 1 1 1 1 1 1 1 1 1 1 1 1 1 1 1 1 1 1 1 1 1 1 1 1 1 1 1 1 1 1 1 1 1 1 1 1 1 1 1 1 1 1 1 1 1 1 1 1 1 1 1 1 1 1 1 1 1 1 1 1 1 1 1 1 1 1 1 1 1 1 1 1 1 1 1 1 1 1 1 1 1 1 1 1 1 1 1 1 1 1 1 1 1 1 1 1 1 1 1 1 1 1 1 1 1 1 1 1 1 1 1 1 1 1 1 1 1 1 1 1 1 1 1 1 0.9999999999998763 1 1 1 1 1 1 1 1 1 1 1 1 1 1 1 1 1 1 1 1 1 1 1 1 1 1 1 1 1 1 1 1 1 1 1 1 1 1 1 1 1 1 1 1 1 1 1 1 1 1 1 1 1 1 1 1 1 1 1 1 1 1 1 1 1 1 1 1 1 1 1 1 1 1 1 1 1 1 1 1 1 1 1 1 1 1 1 1 1 1 1 1 1 1 1 1 1 1 1 1 1 1 1 1 1 1 1 1 1 1 1 1 1 1 1 1 1 1 1 1 1 1 1 1 1 1 1 1 1 1 1 1 1 1 1 1 1 1 1 1 1 1 1 1 1 1 1 1 1 1 1 1 1 1 1 1 1 1 1 1 1 1 1 1 1 1 1 1 1 1 1 1 1 1 1 1 1 1 1 1 1 1 1 1 1 1 1 1 1 1 1 1 1 1 1 1 1 1 1 1 1 1 1 1 1 1 1 1 1 1 1 1 1 1 1 1 1 1 1 1 1 1 1 1 1 1 1 1 1 1 1 1 1 1 1 1 1 1 1 1 1 1 1 1 1 1 1 1 1 1 1 1 1 1 1 1 1 1 1 1 1 1 1 1 1 1 1 1 1 1 1 1 1 1 1 1 1 1 1 1 1 1 1 1 1 1 1 1 1 1 1 1 1 1 1 1 1 1 1 1 1 1 1 1 1 1 1 1 1 1 1 1 1 1 1 1 1 1 1 1 1 1 1 1 1 1 1 1 1 1 1 1 1 1 1 1 1 1 1 1 1 1 1 1 1 1 1 1 -0.9987337286457734 -0.999322555748279 -0.9983029511569683 -0.9987140077966561 -0.9987345038245777 -0.9971428239364025 -0.9987856749656761 -0.9987270785431684 -0.9993303259979781 -0.9988973250980459 -0.9980698512321076 -0.9987709556942267 -0.9993226177711731 -0.9987375847403672 -0.9993290426989494 -0.9991455121921515 -0.9992606959446168 -0.9993122620144382 -0.9993025225352943 -0.9993102483971265 -0.9807952658256605 -0.9914899054718904 -0.9993089606829402 -0.9993116399594079 -0.9955016797941182 -0.998790646891511 -0.9986925223878635 -0.9993175902603645 -0.9993291606612629 -0.9993289682659398 -0.9987860326170938 -0.9985671098977399 -0.9993121510087895 -0.9987600103782165 -0.9988960966226356 -0.9993130132414555 -0.9993306028497508 -0.98920811496726 -0.9987522538382141 -0.9993107883719143 -0.9986194489120436 -0.9991136411038539 -0.9993114074905711 -0.9987204932899919 -0.9987900523988408 -0.9984380155440408 -0.9993073646904926 -0.9985535848693148 -0.9988488580239766 -0.9993225339339289 -0.9993202013758454 -0.998747830675813 -0.9987691060042482 -0.9900950397724675 -0.9993097813136259 -0.9988660127127428 -0.9993152155277945 -0.9983371932373881 -0.9987475542574047 -0.998707266618014 -0.9987053781795638 -0.9993127216448816 -0.9993288294002246 -0.9987691491508967 -0.9985941060264329 -0.9987486887875019 -0.9987354862503562 -0.9987484043830038 -0.9987083042454294 -0.9993282729050229 -0.9993102530775353 -0.9993118731585575 -0.9987022795701027 -0.9993127878813731 -0.9986055922372014 -0.9993161705047167 -0.9987074020897131 -0.9986611728400929 -0.9987562840383867 -0.9987657969122837 -0.9992514766499798 -0.9993114312074293 -0.9988770761145147 -0.9993152438084458 -0.9993336338535694 -0.9981745509417368 -0.9993347149992277 -0.9992766375714067 -0.9993310835120874 -0.9987210286127407 -0.9983941820408875 -0.9993116394430067 -0.9993274934778499 -0.9982413196092434 -0.999315187654255 -0.9987258734395793 -0.9993301771188335 -0.9991010122632705 -0.9983906880722878 -0.9993178761971544 -0.9987478003713856 -0.9993371544598144 -0.9993121356268313 -0.9987123699453031 -0.9993117626126133 -0.9989038908714327 -0.9993130288864956 -0.9993382285854837 -0.9993131601067747 -0.9987477162503626 -0.9988474484758137 -0.9993148376427361 -0.9993110991234031 -0.9993293649804946 -0.9992655759573235 -0.9993114520942468 -0.9993124289321396 -0.9987964555120173 -0.9985880667115066 -0.9987380181093135 -0.9993283453836651 -0.9987367614714302 -0.9980027836235575 -0.9986801216785937 -0.999318219150091 -0.9986890848063695 -0.9987415250318491 -0.998816222334078 -0.9986323179649124 -0.9993309777461215 -0.9987606181504592 -0.9974028356046835 -0.9993096664045515 -0.9993250607299524 -0.9987603344916471 -0.999312171981208 -0.9983507946844279 -0.9993157936615712 -0.9987064036873562 -0.9993126154304575 -0.9993361638013398 -0.9987494399229921 -0.9990646581054586 -0.9993104502205437 -0.998718592997644 -0.9992871423927584 -0.998813417341846 -0.9993139884237396 -0.9993109413358363 -0.9987954465985591 -0.9993385690405983 -0.9993323498621335 -0.9987613274371612 -0.9987611921779732 -0.9993259494967874 -0.9993121377991255 -0.999325756724974 -0.9987607186255991 -0.9993296124605788 -0.9987345235570142 -0.9744232624761336 -0.9993287633456968 -0.9987187048607371 -0.9987450008567795 -0.997781531473468 -0.9993243251424894 -0.9992336832455375 -0.9757485315565939 -0.998727926875619 -0.9993273863991355 -0.9930303807727026 -0.9987260277513441 -0.9993307492817093 -0.9993112855116468 -0.9987612870836121 -0.999312453113454 -0.9982159385328558 -0.9986950137704286 -0.9744213252194674 -0.9986885360244888 -0.9987375465926965 -0.999323431076771 -0.9966975707670308 -0.9988500188729984 -0.9987285259179469 -0.9987185562009914 -0.999337606843393 -0.9973272441782118 -0.9988892256927207 -0.9988144586326049 -0.9987064782378295 -0.9993143525616169 -0.9987286573919418 -0.9993146642409764 -0.9987791419820233 -0.9992738213711241 -0.999324587343339 -0.9993128718402587 -0.9993144594116999 -0.9993219613685834 -0.9988503710440841 -0.9992895976588897 -0.9992799119066329 -0.9992808509110231 -0.9984878076241939 -0.9992848651590375 -0.9986995980070255 -0.9992712581876604 -0.9993115997087514 -0.9987365937247078 -0.998696354561039 -0.9993246460053341 -0.9993145695275445 -0.980576034678706 -0.9992899999282951 -0.9984752501175689 -0.9993151828455711 -0.9984644101829367 -0.9986879140570484 -0.9972465768930171 -0.9993129808437587 -0.9989692653110115 -0.9987508082809996 -0.9959131206752079 -0.9990878480792769 -0.9984438352170294 -0.9993306417207011 -0.9993119150135034 -0.9993125483642555 -0.9987379347761013 -0.9993306407962534 -0.9993121380251898 -0.9989811538618331 -0.9993300830993002 -0.998848070338997 -0.9986839528822133 -0.9993282695974592 -0.998694993016613 -0.9993297903054892 -0.9987397409373682 -0.99870740916179 -0.9993141599678268 -0.9993122498850787 -0.9986929185649746 -0.9992816409929236 -0.998877152527706 -0.998546483993769 -0.9992712685793768 -0.9993296896268704 -0.9993397992312377 -0.9993239459068943 -0.9986687607449123 -0.9986970378544705 -0.9993296972661562 -0.9991388086829318 -0.9993123191049963 -0.999323460421453 -0.9987606407752229 -0.9993257499472569 -0.9980967227337645 -0.9993307577983463 -0.9993145706122883 -0.9993150788653078 -0.9993107399627881 -0.9993274666190627 -0.9993160602924241 -0.9986754613675279 -0.9988536546793675 -0.9863254929688323 -0.9987381998005533 -0.999314996346613 -0.9993126741136982 -0.999311478148705 -0.9987015298560331 -0.9993228737309402 -0.9986624989162775 -0.9987656101224927 -0.9960208333294184 -0.9987378729090468 -0.9966860493547818 -0.9990479999965551 -0.9993116179011771 -0.9988178271533978 -0.996172754666277 -0.9993295554713347 -0.9988150624405865 -0.9993110110912069 -0.9993383102669539 -0.9992702382695295 -0.9988147091970622 -0.9993112677474667 -0.9993295377143452 -0.999315444598052 -0.9984163715302513 -0.9993296220318829 -0.9985188273010422 -0.9987476907024252 -0.9987105886611438 -0.9987353157212943 -0.9993296312724077 -0.9987514230915817 -0.9990168709366123 -0.9987494886815496 -0.9988779755182023 -0.9988144205143455 -0.999319897854849 -0.9987585437899832 -0.9993126635886267 -0.9972213915247127 -0.99889048747964 -0.9987184867485644 -0.9993107055855249 -0.9951886986785012 -0.9987579334223742 -0.9991056033338386 -0.9987033577614728 -0.9993043940634765 -0.9987517131765824 -0.9992651150029334 -0.9993296376468668 -0.9987528655950474 -0.998739599776626 -0.9988904532579326 -0.9993248989295682 -0.998811336986549 -0.9987328487082866 -0.9993108467151446 -0.999311441499976 -0.9986079245263917 -0.9993117873564077 -0.9993099370209833 -0.9993389316402885 -0.9988784806067712 -0.9993292842550029 -0.99932450238356 -0.9993112310661237 -0.999282203544858 -0.9993091017072536 -0.9993053600515182 -0.9993119294667184 -0.998691893396345 -0.9993140216353603 -0.9987387175579135 -0.9993335161637255 -0.9987370565613822 -0.9993202096294281 -0.998786993826406 -0.9988881646937903 -0.9993292708883865 -0.9988758739760922 -0.9987297995460009 -0.9993281588361582 -0.997484809140147 -0.9987603176144423 -0.9993154248639262 -0.9717566953103557 -0.9993118893846674 -0.9993058832255459 -0.9993132030284636 -0.9989883007518304 -0.9987698106962652 -0.9986073984068906 -0.9993089846597706 -0.999265112133406 -0.9993155526302191 -0.9984127744767561 -0.9987380190432132 -0.9993109611675537 -0.9987565559948951 -0.9986763337819298 -0.9987984113440808 -0.9993112997839554 -0.9993117395519118 -0.9990818969603451 -0.9993150176863285 -0.9986012901207033 -0.9988518384853708 -0.9992736705482103 -0.9993145398470207 -0.9987458690268654 -0.9988015151910071 -0.9993232612906368 -0.9993272142764191 -0.9993296650700922 -0.9987513152512553 -0.9987681596516034 -0.9993370772159554 -0.999315160037661 -0.998736110135754 -0.9986477896087586 -0.999306396752071 -0.9993117394134478 -0.9993288193267607 -0.9993171690507675 -0.999311985848114 -0.9993123188120282 -0.9993123672370861 -0.9993298430895345 -0.9987857512987489 -0.9993273275435448 -0.9987371423982816 -0.9993294767132596 -0.999323254545744 -0.9987842624156669 -0.9993110361479639 -0.9993124429860548 -0.9993322654527879 -0.9993301763725582 -0.9975749307720161 -0.9993148395697626 -0.9993174636648915 -0.9972330943810248 -0.9969075041003688 -0.9993322758924054 -0.9993250144851981 -0.9993381639992382 -0.9993103070960188 -0.9985239001398427 -0.9987017592600496 -0.9993245736257813 -0.9993103609608127 -0.9993116149956212 -0.9993111303687062 -0.9993398632726134 -0.9986801562970137 -0.9951871139495053 -0.9985365576644185 -0.999311454707931 -0.9987484442019777 -0.9992735372922913 -0.9993307583990371 -0.9987481234921264 -0.9987374272393458 -0.9987449811401274 -0.998975699756564 -0.9987501822959491 -0.998849441537182 -0.9987646766103777 -0.9986981351209707 -0.9985302514441514 -0.9993116311929513 -0.9991216797159794 -0.9988757897106939 -0.9993158309343299 -0.9993249118514882 -0.9993242352281897 -0.9987237315737127 -0.9986616449031466 -0.9987807923302787 -0.9993099664605659 -0.9807901276540646 -0.9993234369332054 -0.9988488172643193 -0.9993284468016154 -0.9987864025668228 -0.9986783790088298 -0.9993120898399137 -0.999327614445388 -0.9993104362434692 -0.9986951078223969 -0.9992777657175271 -0.9993152571414067 -0.9993286557012763 -0.9993164191060874 -0.9988149590225329 -0.9987498172224709 -0.9984012282241317 -0.9993235335643302 -0.9992632808688706 -0.9993113406888188 -0.9992891805403662 -0.9987338553880307 -0.9985657306703645 -0.9987439727490234 -0.9993302862104044 -0.9993272010445404 -0.9986953446460569 -0.9987345289886949 -0.9993131111334418 -0.9993376933632903 -0.9993108545047885 -0.9993348904358215 -0.998747680593755 -0.9993126402430477 -0.9993115968390011 -0.9987501196815119 -0.9992926404990018 -0.9993261253378758 -0.9992108819028792 -0.999322937090926 -0.9987488969710381 -0.9993150137653009 -0.9986249610812704 -0.9987265526838818 -0.9987653441064915 -0.9993336153461981 -0.9992379271994584 -0.9986888972988324 -0.9993180737995764 -0.9946522331012665 -0.9987459676057511 -0.9987565148926341 -0.9987176853014261 -0.9992979914151037 -0.9992897880849609 -0.9988504053874367 -0.9993114053623049 -0.9990792543944601 -0.999311382314053 -0.9989561409361346 -0.9987013387025006 -0.9993148583429071 -0.9993385778519916 -0.9993295447344585 -0.998749807831204 -0.9993265441737386 -0.9987386083647077 -0.9993126422896857 -0.9971367500517661 -0.9987829067659393 -0.9987885898851543 -0.9993158149919538 -0.9993152699695275 -0.9987584649813959 -0.9993222437115622 -0.9993232243064089 -0.9987314485498031 -0.9987425969476039 -0.9987478654284315 -0.999311504971176 -0.9993274483306172 -0.9986983809177458 -0.9993294381839964 -0.9990703612096462 -0.9984954974481828 -0.9993110772956082 -0.9987859413573262 -0.9993382401292679 -0.9987055708119084 -0.9976074840285013 -0.9993104541030914 -0.9993112757203464 -0.9987237683501483 -0.9993285772392528 -0.9987480203558877 -0.9993159453283718 -0.999325329955577 -0.9986981364146188 -0.9977577236588792 -0.9993356591389905 -0.9993112421035404 -0.9993113146905993 -0.9993122517328531 -0.9993383126718397 -0.9987335124642605 -0.9993273123644946 -0.9993099386457894 -0.9993115700442579 -0.9993139927536332 -0.999326919632145 -0.9992782704000498 -0.9988498641912562 -0.9987492150866001 -0.999299886617969 -0.9992568105038681 -0.9986881404966773 -0.9977420085787122 -0.9987432424966537 -0.9993245155553153 -0.9987618509316587 -0.9993120106768029 -0.9993376841323027 -0.9987839135774014 -0.9993161730544018 -0.9993384245173664 -0.9863264005183607 -0.9993096061317908 -0.998474716297078 -0.9987016692972691 -0.9987422039987177 -0.9987514644960096 -0.9988149210033089 -0.9993293599482874 -0.9987253002433023 -0.9993272012626387 -0.9993289265621317 -0.9993271292016295 -0.9993361547913855 -0.999339027188051 -0.9993091448305987 -0.9993118835243766 -0.9984710329130733 -0.9987936034369276 -0.9993388012756035 -0.9987228248228213 -0.9993145660251995 -0.9993114559812791 -0.9986534437602099 -0.9988197593249699 -0.9987034939749082 -0.9978033886342884 -0.9993121092763068 -0.999330887197982 -0.9993243187493571 -0.9987302371969972 -0.9993288811636697 -0.9993225408777571 -0.9987055564024304 -0.9993112207855475 -0.9993119638795408 -0.9993254570420526 -0.9993121662114283 -0.9987658883801459 -0.9990530250864814 -0.9993246633154328 -0.9993290750027197 -0.9993321646205993 -0.9987449535450799 -0.9993237586725315 -0.9992557957994382 -0.9993127177499437 -0.9993282754058329 -0.9993146824236387 -0.99931127188459 -0.9986957556023122 -0.998737442886193 -0.9988166761534283 -0.980624583098888 -0.9993336237321429 -0.9987303246474416 -0.9896376302469496 -0.9986931554363881 -0.9988362317540435 -0.9993294269686114 -0.9993273994846499 -0.9993231819188497 -0.9993111628612459 -0.9993178370246949 -0.9987374281617598 -0.9987587548264177 -0.9993126160892362 -0.9961182984794641 -0.999311545875448 -0.9993375028743779 -0.999314825712425 -0.9987619856964713 -0.9916046422379859 -0.9987369758685501 -0.9967526314656241 -0.9993283329824437 -0.9993141723069473 -0.9993289182922034 -0.9984990861377707 -0.9993094611564635 -0.9979063759109997 -0.999312393260696 -0.999311603712475 -0.9983547252635412 -0.9993106692609148 -0.998816182488421 -0.9993157781359332 -0.9987660159899745 -0.9987287265154356 -0.9993337318806593 -0.9993250470917051 -0.9993120753691254 -0.9986850203582944 -0.9979934190774199 -0.9987485273335901 -0.9993099356179337 -0.9987011558515989 -0.9993121096975942 -0.9993108829460878 -0.9987493230444516 -0.999314761921326 -0.9987447157652677 -0.9987087981796325 -0.9981426994320886 -0.9987383617024365 -0.9993102081729013 -0.9993338567137185 -0.9993173779497942 -0.9987574697010188 -0.9993386656233786 -0.9993121099628712 -0.999328940236485 -0.9993280952682949 -0.9993234746720761 -0.9992926989580854 -0.9993114414786424 -0.9970698165506924 -0.9993118427569688 -0.9987065694926373 -0.9993359806105908 -0.9986771157696874 -0.9992735695389996 -0.9987275081784766 -0.9993120569288864 -0.9993235407126454 -0.9987009590736327 -0.9993383013489542 -0.9974918473152447 -0.9987602610306308 -0.9987640373513461 -0.9979950939109804 -0.9993162046086247 -0.9993108691822947 -0.9993245521252015 -0.9987606503621366 -0.9992541294987882 -0.99876242545759 -0.9993111029761244 -0.9993114597841219 -0.9993174369044526 -0.9993178536242042 -0.9987595258114529 -0.999312232899653 -0.9979472072591477 -0.9992990227204351 -0.9988476481044036 
