svm_type c_svc
kernel_type rbf
gamma 0.0078125
nr_class 6
nr_binary 39
total_sv 1724
rho 0.26607 -10.3889 2.44232 16.7287 55.3478 -16.6595 23.1633 -65.734 24.2988 14.5932 23.7295 -33.8638 52.8378 29.8575 2.26413 -1.19194 -5.98717 22.9638 -0.139997 -2.83327 -56.6435 -35.4271 25.3721 29.9111 -60.0092 -29.4455 28.6268 30.9526 -43.1525 -33.4558 -8.3267 -6.07467 34.9302 -1.48935 -59.8263 -18.0232 -20.6724 -5.0196 15.7712
label 1 2 3 4 5 6
nr_sv 166 70 328 413 240 507
nr_sv_binary 617 573 24 110 225 85 317 504 442 213 243 72 267 83 32 28 97 86 414 761 795 52 434 116 824 88 283 941 669 183 412 112 657 274 493 95 283 29 376
I 3
2 0 3
2 2 4
2 0 5
2 2 4
1 1
1 5
2 3 4
1 0
3 3 4 5
2 0 1
2 1 2
1 0
3 0 4 5
2 1 2
2 1 5
1 3
3 0 2 4
2 1 5
3 2 3 5
2 1 4
2 4 5
2 0 2
1 1
1 4
3 2 4 5
2 0 1
2 4 5
1 1
1 5
2 0 1
1 2
1 4
1 0
2 4 5
1 3
1 4
1 2
2 0 3
1 5
3 0 3 4
2 2 5
1 3
2 0 1
1 3
2 3 5
2 0 2
1 5
1 2
4 0 2 4 5
1 3
1 1
3 0 3 4
2 0 4
2 1 5
3 1 3 4
2 0 5
4 0 1 4 5
2 2 3
3 0 1 4
1 5
2 0 2
2 1 3
1 0
4 1 3 4 5
2 2 3
2 0 5
2 0 5
2 1 4
1 5
1 3
2 1 4
2 2 3
3 0 1 4
3 2 3 5
1 1
1 3
2 3 5
1 2
alpha
0 1 2 4 5 6 10 14 17 18 19 21 25 26 27 38 39 40 46 48 49 50 61 62 66 67 70 74 75 77 79 82 95 97 101 102 109 114 116 117 118 121 122 123 124 127 128 129 131 132 133 137 138 141 142 143 144 145 146 147 148 149 150 153 155 156 157 158 159 160 161 162 163 164 165 238 241 244 246 247 250 251 252 254 256 257 258 262 264 265 266 267 270 271 272 273 274 275 276 277 278 281 282 284 285 286 287 288 290 291 292 293 294 295 297 298 299 300 301 302 303 304 305 306 307 309 310 311 312 313 314 315 316 317 319 320 321 322 324 325 326 327 328 329 331 332 334 335 336 337 338 339 340 341 342 343 344 351 352 353 354 359 360 361 362 363 364 365 367 368 369 370 371 372 373 374 375 376 377 378 379 382 385 386 387 388 390 392 393 397 398 400 401 402 404 406 407 408 409 412 416 417 418 419 420 421 422 423 424 426 427 428 429 430 431 432 433 434 435 436 438 439 442 443 444 447 448 449 450 451 452 454 455 456 457 458 459 460 463 464 466 467 468 469 472 473 474 475 476 478 479 480 482 483 484 485 486 487 488 489 491 492 494 495 496 497 499 500 501 502 503 505 506 508 509 511 518 520 521 522 524 528 532 533 534 535 543 544 545 547 549 551 552 554 555 557 562 564 566 568 575 579 591 593 594 595 598 607 613 617 618 626 628 630 631 632 634 638 639 640 641 644 650 651 655 656 660 661 664 669 673 675 676 677 678 679 680 684 686 688 690 694 698 699 712 715 719 720 725 729 730 731 732 736 738 743 750 751 752 753 756 758 759 760 763 764 766 767 769 771 772 774 779 786 789 795 797 798 799 800 801 802 803 804 805 808 810 812 813 814 816 817 818 819 820 822 823 825 826 827 828 831 833 838 839 841 842 845 846 850 851 852 853 854 855 856 857 858 859 860 861 862 863 864 865 866 867 868 869 870 871 872 873 874 876 877 878 879 880 881 882 883 884 885 886 887 889 890 891 892 893 894 895 896 897 898 899 900 901 902 903 904 905 906 907 908 909 910 911 912 913 914 915 916 917 918 919 920 921 922 923 924 925 926 927 928 929 930 931 932 933 934 935 936 937 938 939 940 941 942 943 944 945 946 947 948 949 950 951 952 953 954 955 956 957 958 959 960 961 962 963 965 966 972 974 975 979 980 983 986 987 989 990 991 992 993 994 995 997 998 999 1000 1003 1005 1006 1011 1013 1015 1018 1019 1020 1021 1024 1028 1029 1031 1032 1033 1035 1038 1039 1040 1042 1043 1045 1047 1054 1055 1056 1057 1058 1060 1061 1062 1065 1070 1076 1077 1078 1079 1080 1081 1082 1083 1087 1111 1125 1126 1132 1134 1136 1142 1152 1153 1154 1155 1158 1163 1164 1181 1182 1186 1187 1188 1189 1191 1192 1193 1195 1197 1199 1200 1201 1204 1206 1207 1214 
512 512 512 512 512 512 512 382.9337264732878 512 512 512 512 512 512 512 512 407.4305449544276 512 512 512 114.4814140890245 512 104.7911252480452 512 512 512 243.2657255022273 512 512 405.2649106674712 512 512 477.0316502118754 512 512 353.3471447473632 512 512 351.0877819334679 512 512 512 512 512 512 512 512 366.0120572827715 512 57.28866338891601 512 512 512 307.1554371992623 512 512 512 512 512 512 448.6519606404065 512 512 512 512 512 512 512 512 512 512 512 377.0345683508442 512 512 -512 -512 -512 -80.01979662386786 -512 -512 -512 -512 -46.65695444260238 -326.6088480979012 -512 -512 -511.7969106767842 -512 -512 -512 -512 -512 -512 -512 -512 -512 -512 -512 -512 -512 -512 -512 -512 -512 -512 -512 -512 -512 -512 -512 -512 -512 -512 -512 -512 -512 -453.7667180355987 -512 -512 -445.8883754429881 -439.6781877997969 -512 -505.325445227088 -512 -512 -512 -512 -512 -512 -512 -512 -512 -18.5448281286749 -512 -512 -512 -42.90659569382095 -512 -512 -512 -512 -512 -512 -512 -512 -512 -512 -512 -512 -512 -512 -512 -512 -512 -512 -512 -512 -512 -512 -512 -512 -512 -512 -512 -512 -512 -512 -512 -512 -512 -512 -135.2146869338552 -512 -114.8502136388756 -512 -512 -512 -512 -24.239471481833 -512 -512 -512 -512 -512 -512 -512 -512 -512 -512 -512 -512 -512 -512 -512 -512 -512 -512 -512 -119.6503044508955 -512 -512 -512 -490.1989783792962 -512 -512 -512 -512 -512 -512 -512 -512 -512 -512 -512 -512 -512 -512 -512 -512 -512 -512 -512 -512 -512 -512 -512 -512 -512 -512 -512 -512 -512 -512 -512 -512 -512 -512 -512 -512 -512 -231.5130684273675 -512 -512 -512 -512 -512 -512 -512 -512 -512 -512 -512 -512 -512 -512 -512 -512 -512 -512 -512 -512 -265.9857826990133 -59.08159178597695 -512 -512 -512 -512 -434.0220591197603 -512 -512 -512 -7.759406058209477 -512 -301.3486667306004 -512 -512 -512 -512 -512 -512 -399.2430906638222 -512 -512 -512 -512 -512 -512 -512 -512 -442.1544846348447 -512 -512 -512 -512 -512 -511.9384336513147 512 512 512 512 47.59590785059083 512 512 373.3237914237436 512 512 50.62932996210229 81.23149672417553 512 512 512 512 336.1193740780886 512 512 512 512 512 512 512 512 245.659959993901 389.1094096031309 512 512 512 512 512 512 512 512 274.1091496948188 512 512 512 512 512 512 378.1852514924234 512 512 512 512 512 512 512 512 512 512 512 512 512 512 512 512 512 463.2521938014863 512 512 512 512 512 512 512 473.8248178709821 512 512 512 512 512 512 512 512 512 512 512 512 512 512 512 512 512 512 512 512 512 512 512 512 512 512 512 323.7884636771698 512 512 512 512 512 512 512 512 512 512 512 512 512 512 512 512 512 512 512 512 512 512 512 512 512 512 512 512 276.4666546067743 512 512 512 512 512 512 512 512 512 512 512 512 512 512 512 512 512 512 512 512 512 512 512 512 512 512 512 512 512 512 512 512 512 512 512 512 512 512 512 512 512 512 512 512 512 512 512 512 512 512 512 512 512 512 512 512 512 512 512 512 512 512 512 512 512 512 512 512 512 512 512 512 512 512 512 425.943944727903 512 512 512 512 512 512 512 512 512 512 512 512 512 512 512 512 512 512 512 512 512 512 512 512 512 512 512 -512 -512 -512 -72.16170079057561 -512 -207.44253140463 -450.1979158782175 -512 -512 -512 -314.4821706049811 -512 -512 -512 -512 -512 -512 -512 -512 -512 -512 -512 -512 -512 -512 -512 -512 -512 -512 -512 -512 -512 -512 -512 -512 -512 -512 -512 -512 -113.2258103733192 -512 -512 -512 -512 -512 -512 -512 -512 -512 -512 -512 -512 -512 -512 -512 -512 -512 -512 -512 -512 -512 -328.0227308546742 -512 -512 -447.1431736539433 -141.1299854086691 -512 -241.8171333756661 -512 -512 -353.9543277984631 -490.9270165934439 -399.4752724319915 -152.1396598040573 -512 -512 -512 -512 -152.4252707564529 -512 -512 -512 -512 -238.3161735006211 -512 -59.75945631787985 -512 -12.00322782431091 -512 -512 -512 
0 1 2 4 6 9 10 11 14 16 17 18 19 21 25 27 28 38 39 40 46 47 48 49 61 62 66 67 74 75 77 79 82 95 97 101 106 109 110 114 117 118 121 122 123 124 126 127 128 129 130 131 133 136 137 138 139 141 142 143 144 145 146 147 148 149 150 152 153 155 156 157 158 159 160 161 162 163 164 165 236 238 240 241 242 244 246 247 249 250 251 252 254 257 258 260 262 264 265 266 267 270 271 272 273 274 275 276 277 278 281 282 284 285 286 287 289 290 291 292 293 294 295 297 299 301 305 307 308 309 310 311 312 313 314 315 316 319 320 321 324 325 326 327 328 329 332 334 335 337 339 340 341 343 344 346 353 354 357 360 361 362 363 364 367 368 369 370 375 376 382 385 386 387 388 390 392 393 396 397 398 400 420 421 422 423 426 430 433 434 439 442 447 449 450 451 454 457 463 464 465 466 473 474 478 482 486 487 489 490 492 496 500 505 508 518 520 522 524 528 534 535 537 552 554 556 563 977 978 979 980 981 983 986 987 988 989 990 991 992 993 994 995 997 998 999 1000 1002 1003 1005 1006 1007 1008 1011 1012 1013 1014 1015 1017 1018 1019 1020 1021 1022 1023 1024 1025 1027 1028 1029 1030 1031 1032 1033 1034 1035 1036 1037 1038 1039 1040 1041 1042 1043 1044 1045 1047 1051 1054 1055 1056 1057 1058 1060 1061 1062 1065 1067 1070 1073 1074 1075 1076 1077 1078 1079 1080 1081 1082 1083 1085 1086 1087 1088 1092 1093 1096 1098 1102 1104 1108 1111 1120 1123 1128 1131 1132 1134 1142 1145 1152 1154 1155 1158 1163 1164 1173 1181 1182 1186 1187 1188 1189 1190 1191 1192 1193 1195 1196 1197 1198 1199 1200 1201 1202 1203 1204 1206 1207 1209 1210 1211 1212 1213 1214 1215 1216 1217 1220 1222 1224 1226 1227 1228 1234 1242 1243 1246 1247 1248 1251 1253 1256 1257 1259 1260 1263 1278 1281 1290 1293 1302 1304 1322 1323 1324 1328 1329 1330 1347 1349 1351 1356 1357 1363 1365 1371 1376 1377 1383 1384 1385 1386 1387 1388 1391 1393 1412 1419 1421 1426 1428 1431 1435 1442 1446 1450 1451 1455 1457 1459 1460 1465 1469 1474 1475 1477 1478 1479 1480 1481 1482 1483 1485 1487 1493 1494 1496 1497 1498 1500 1506 1507 1510 1511 1512 1514 1519 1520 1522 1527 1531 1535 1539 1540 1542 1543 1545 1550 1551 1559 1561 1568 1569 1570 1571 1572 1573 1574 1576 1580 1581 1582 1584 1586 1587 1591 1593 1594 1596 1602 1603 1606 1607 1608 1609 1610 1611 1612 1613 1615 1616 1617 1618 1619 1621 1625 1626 1627 1630 1632 1634 1635 1636 1637 1640 1641 1643 1644 1646 1647 1648 1650 1653 1654 1656 1658 1660 1661 1662 1663 1664 1665 1666 1668 1671 1672 1675 1676 1677 1678 1679 1680 1681 1682 1683 1684 1685 1687 1688 1689 1690 1691 1692 1693 1694 1695 1696 1697 1698 1699 1700 1701 1702 1703 1704 1705 1706 1707 1708 1709 1716 1718 
512 512 512 512 512 196.8296326006475 512 512 512 146.1766972979696 512 512 273.3454923479682 405.6912779160263 84.41227011106938 512 512 512 512 512 512 512 512 512 239.5658037253272 512 512 512 512 512 512 512 512 512 512 512 512 512 512 512 512 390.2767167095153 512 512 512 512 393.8397324974033 512 512 512 512 512 512 31.16048777131273 479.8024417112775 512 406.6233646695249 512 512 512 512 512 512 512 512 413.3920934618472 512 459.8690818368737 512 512 512 512 512 512 512 512 512 512 512 512 -507.7249074383936 -512 -57.23189938627718 -512 -39.65113011889702 -512 -512 -512 -512 -512 -512 -512 -512 -512 -512 -512 -180.8799050175767 -512 -512 -512 -512 -512 -512 -512 -512 -232.5635387908899 -512 -512 -512 -512 -512 -512 -512 -512 -512 -512 -512 -512 -512 -512 -512 -512 -512 -408.0045709936503 -512 -512 -512 -512 -188.0272452408708 -512 -512 -342.0909717064541 -512 -512 -512 -512 -432.9649155490314 -512 -512 -512 -512 -512 -512 -512 -512 -337.4542647759365 -512 -512 -512 -512 -512 -512 -512 -512 -512 -508.2514573603812 -512 -512 -155.4556275610468 -512 -512 -512 -512 -512 -512 -512 -512 -512 -512 -512 -512 -512 -512 -512 -512 -512 -512 -512 -462.1494549627872 -512 -512 -512 -512 -382.0525880274263 -512 -512 -512 -512 -512 -512 -512 -512 -213.5747677040586 -512 -512 -512 -512 -512 -468.2573464423122 -512 -512 -512 -512 -512 -421.9003526351188 -192.3223113345968 -512 -512 -512 -512 -512 -277.9413602201319 -512 -313.426181437052 -512 -512 -437.4320283498606 -512 -435.548809981089 -512 -12.66238796494609 -512 -512 -86.1154422879833 -512 -512 -512 -38.36577305396477 -512 -512 -512 -512 -512 -512 -512 -512 -512 -512 -512 -512 -512 -512 -512 -512 -512 -512 -512 -512 -512 -512 -512 -512 -512 -512 -512 -512 -512 -512 -512 -512 -512 -512 -512 -488.8307151737415 -512 -512 -512 -512 -512 -512 -212.12107523645 -512 -512 -512 -512 -512 -512 -512 -512 -512 -512 -159.7693161853383 -512 -512 -512 -512 -512 -512 -512 -512 -512 -512 -512 -512 -512 -512 -512 -512 -512 -512 -512 -512 -512 -512 -512 -512 -512 -512 -512 -512 -512 -512 -512 -512 -512 -512 -150.3985530909212 -512 -512 -512 -512 -512 -512 -480.5974400645673 -512 -512 -512 -512 -512 -218.6953413840546 -512 -512 -512 -512 -96.03309828561297 -512 -512 -512 -512 -512 -512 -512 -72.46057516722841 -512 -512 -512 -512 -512 -512 -512 -512 -512 -512 -512 -441.553101435003 -512 -512 -512 -512 -512 -512 -512 -512 -512 -512 -512 -377.3094954024707 512 512 164.4935408287726 512 288.1802779499956 512 512 512 470.7645514890356 512 512 512 512 512 512 512 512 512 512 19.96930298775768 512 512 512 512 512 352.7037972439982 512 512 512 512 66.97648254676869 512 512 512 512 512 512 512 512 512 512 512 512 512 512 512 512 512 512 512 512 512 512 512 412.9588923784517 512 512 512 512 512 512 512 512 512 512 512 512 512 512 512 512 512 512 512 512 512 310.5114444991955 8.097076934179434 512 512 512 512 512 512 512 512 512 512 512 512 512 512 512 512 512 512 512 512 512 512 512 512 512 512 512 512 512 512 512 225.9703148209209 512 42.09802558905388 512 512 512 47.2909121242109 512 512 512 512 512 512 512 185.0070373591562 512 512 512 512 512 512 512 512 512 512 512 512 512 512 512 142.7498661042933 512 512 512 512 512 512 512 207.2591995673656 512 512 512 512 512 512 512 512 512 512 512 512 512 512 512 512 512 512 512 512 512 512 512 512 512 512 512 512 512 512 403.8021346862026 512 512 512 512 512 512 512 512 512 512 512 512 512 512 512 512 512 512 512 512 512 512 512 512 512 512 512 
168 169 171 173 174 180 196 214 220 229 233 234 1260 1323 1376 1391 1435 1459 1492 1494 1495 1616 1632 1694 
11.25341709154894 225.8731141340481 55.59918051508861 512 328.6456102259142 35.63494634247687 512 167.5715061636428 186.5572111161415 4.909999768050754 24.78353604150945 512 -181.5278322887957 -512 -22.69225262717141 -121.2179358413593 -303.5511180630558 -27.39466760632292 -512 -98.37347247508168 -302.0411205111251 -255.064881907335 -85.8234623154097 -155.1417777627648 
0 1 2 6 11 12 13 18 19 24 25 28 30 38 39 42 46 48 49 50 58 66 67 70 71 74 75 77 78 79 80 82 87 88 89 94 105 113 116 122 124 125 126 128 133 138 141 144 150 155 157 159 162 163 587 588 589 604 611 623 655 656 711 863 921 943 945 946 947 951 957 972 990 998 1009 1010 1028 1029 1033 1042 1045 1054 1055 1056 1057 1058 1077 1078 1079 1080 1081 1082 1083 1087 1100 1106 1124 1132 1134 1136 1149 1152 1153 1159 1163 1187 1192 1195 1197 1209 
-512 -154.2530716923046 -512 -512 -80.61150724775307 -512 -512 -512 -512 -329.8851985979037 -41.904730007904 -296.342725639485 -510.6147578790671 -512 -298.4308496864829 -512 -512 -512 -512 -512 -55.34338406173225 -512 -512 -512 -133.0837531275985 -512 -512 -512 -204.714993588347 -512 -512 -512 -393.0288272716142 -512 -512 -137.4428410208344 -512 -142.3615727481658 -512 -441.8613710044694 -512 -512 -512 -512 -124.6884043980454 -512 -38.56617118184655 -405.6327285579715 -512 -502.8165319114557 -512 -512 -201.096534538859 -276.9949094422267 512 461.4352976518393 512 512 408.9715223850584 512 25.66203808801434 442.3344083801855 60.41187957245837 170.7931378731551 35.59525648257785 248.7069884721901 283.9767745843757 512 512 324.7616343774898 512 239.0699615484168 512 512 101.430788797119 321.9396137429393 512 409.9499559884061 512 512 4.704022740293483 508.5827299342694 512 512 512 512 344.50567619561 512 512 391.6699208436365 512 512 512 368.0801153889324 88.71231257713056 68.80979112321147 512 512 512 232.391111779768 385.3973326683907 512 454.1089565205777 334.2873148090943 487.8640062513936 512 512 512 512 125.5223148275337 
0 1 2 6 11 12 13 18 19 20 24 27 28 30 32 36 38 39 42 48 49 50 53 54 58 59 62 65 66 69 70 71 75 77 78 79 80 81 82 84 85 86 87 88 89 90 94 98 100 104 105 114 116 117 122 124 125 126 128 131 133 138 141 142 144 150 155 157 158 159 162 163 165 168 169 171 172 173 174 175 177 180 183 185 188 189 190 193 196 200 201 202 204 205 206 207 208 209 210 211 212 214 216 217 218 223 224 226 229 230 231 232 233 234 587 588 589 598 604 621 623 631 640 649 654 696 729 738 753 819 863 910 913 921 943 945 946 947 951 956 957 982 990 995 997 998 1009 1010 1028 1029 1030 1031 1032 1033 1034 1042 1045 1050 1054 1055 1056 1057 1058 1077 1078 1079 1080 1081 1082 1083 1087 1089 1090 1100 1101 1103 1105 1106 1109 1122 1123 1124 1126 1132 1133 1134 1136 1137 1144 1149 1150 1151 1152 1153 1154 1155 1158 1159 1161 1162 1163 1167 1168 1170 1173 1174 1175 1177 1178 1180 1187 1192 1195 1197 1203 1209 1216 1398 1404 1425 1434 1492 1494 1495 1632 
-512 -203.3682740326198 -512 -512 -512 -318.7899172764631 -512 -512 -512 -512 -512 -191.3962867613607 -512 -512 -512 -512 -512 -512 -512 -512 -512 -512 -512 -512 -512 -62.15861659762118 -512 -512 -512 -116.6214874767711 -480.904520036973 -512 -512 -512 -512 -512 -508.9274460721072 -440.3221199560921 -512 -512 -512 -136.9694136619525 -512 -512 -512 -512 -512 -512 -285.9780024055871 -301.2482280697514 -512 -512 -512 -512 -512 -512 -512 -512 -512 -343.6659546965213 -512 -512 -129.7113780473065 -250.9108683380245 -512 -512 -512 -512 -284.1617112317469 -512 -421.9570269884977 -512 -70.27973141331087 -512 -512 -512 -255.4810182584954 -512 -512 -512 -512 -512 -512 -512 -512 -512 -204.1794868412092 -512 -512 -14.04422474900979 -422.5964610136198 -512 -512 -512 -435.6483223764326 -340.0412300146764 -38.81087616885499 -69.29594096740404 -341.4081418652621 -92.61520880028121 -218.2213434414444 -512 -231.4675862660907 -512 -214.2585784394423 -512 -512 -512 -512 -177.7749779557752 -512 -349.6800522636069 -315.84227216954 -512 512 512 512 512 512 512 512 512 512 512 512 380.4873055155791 512 512 98.48805675033459 512 512 14.67618249146641 333.9051658345725 435.7590841240665 512 324.5368756487216 512 512 512 431.9095603383441 512 512 512 20.72143441558761 512 512 175.2010601506274 512 512 512 241.2851006906358 247.4515304706788 512 512 512 512 512 11.30850735223559 512 512 512 512 512 512 512 512 484.2128432953666 512 512 512 284.8140006624733 512 210.1118138081952 512 348.3909064242551 512 512 512 512 512 512 512 512 512 131.7382572089002 512 512 512 512 512 407.033800713105 82.51895301947789 512 512 490.6346897095273 512 512 512 512 512 512 512 512 397.2570955246002 512 77.05806374496015 512 512 512 512 512 512 512 512 512 338.7915879698835 230.412693644702 512 75.07527079310259 295.410929341281 512 512 163.5459350111663 512 512 
0 1 6 11 17 18 21 40 46 48 50 67 75 100 116 117 122 123 124 128 133 138 141 142 143 144 145 146 147 148 149 150 153 155 156 157 159 160 161 162 163 169 173 174 176 181 186 191 213 232 234 235 247 248 252 254 265 266 271 273 274 275 277 286 343 382 425 432 457 459 460 464 465 474 492 493 500 511 516 534 535 541 549 551 557 
-512 -512 -512 -63.80551327647549 -512 -512 -512 -331.6692444545087 -56.34489967954309 -512 -385.6132719477293 -512 -146.9478475712264 -99.68661492525379 -335.7700728723968 -171.86241150208 -512 -90.64972626951553 -512 -512 -186.6133671005299 -512 -512 -512 -512 -512 -512 -512 -512 -371.4947067583454 -512 -3.035832753610921 -512 -512 -512 -512 -153.4010497015524 -512 -512 -512 -83.35107291130059 123.448315007436 167.6883602958128 244.3992630438389 158.4323539418838 397.4021979627824 130.8287508149396 506.4268713072088 166.3865034521219 81.54244846149773 24.92905573029904 65.56381823006113 512 512 512 512 512 512 512 512 512 512 402.4515240159657 75.33567623996792 449.93663139055 512 213.1839024098823 303.5149130132133 512 335.8137987773053 251.1841791797609 512 496.0726254378651 407.985443544821 512 512 512 512 335.3080805045329 381.6291035434715 512 512 512 276.925885304276 67.85593011457468 
3 6 16 17 18 21 27 33 40 47 48 61 67 74 122 123 124 127 128 131 133 135 137 138 141 142 143 145 146 147 148 149 150 153 155 156 157 158 160 161 162 163 165 166 168 169 171 173 174 175 176 178 180 181 182 183 189 191 193 195 196 201 202 203 204 206 208 213 214 215 221 226 229 232 234 238 241 244 246 247 248 249 250 251 252 253 254 255 256 257 258 259 260 263 264 265 266 267 270 271 273 275 276 277 278 280 281 284 285 286 287 289 290 291 292 293 294 295 299 300 301 305 308 309 312 313 314 316 319 320 321 324 325 326 327 331 334 335 337 339 343 344 346 348 351 354 359 360 361 363 364 368 369 370 374 375 376 382 390 393 396 398 400 415 420 422 423 425 426 430 432 433 434 442 449 451 457 464 465 473 474 478 482 486 490 492 493 500 505 516 518 520 528 535 537 541 554 556 559 560 561 563 995 1050 1079 1099 1110 1115 1117 1119 1122 1150 1161 1162 1163 1167 1172 1174 1178 1180 1189 1195 1197 1203 1246 1247 1248 1251 1278 1335 1347 1349 1371 1385 1388 1393 1426 1428 1450 1491 1492 1494 1495 1500 1506 1519 1520 1522 1539 1540 1543 1545 1550 1551 1559 1567 1569 1573 1576 1580 1581 1582 1593 1603 1606 1607 1608 1610 1611 1612 1615 1618 1619 1624 1626 1627 1630 1634 1636 1640 1643 1644 1647 1654 1658 1660 1661 1662 1663 1665 1668 1672 1677 1678 1679 1680 1682 1685 1688 1689 1690 1691 1693 1694 1695 1696 1697 1698 1699 1700 1702 1703 1704 1705 1706 1707 1708 
394.3047734721617 512 512 512 467.6500788973599 512 512 137.4502042842023 382.2028383860866 77.78180888974373 512 220.86849944018 512 512 512 512 512 512 512 512 512 189.0501532396855 163.6104366971412 286.6618406036852 512 512 512 512 512 512 512 512 132.3376250732017 512 512 512 512 356.6706272623237 512 512 512 512 512 -205.8453077989514 -512 -512 -512 -512 -512 -512 -504.018623035906 -45.37474378688724 -512 -512 -512 -407.4409983108906 -512 -512 -512 -107.8830529457251 -512 -41.25471651148957 -512 -363.5291514252172 -512 -512 -512 -512 -373.1730391017265 -222.7406683157089 -383.8854099438739 -512 -512 -512 -512 -512 -512 -512 -512 -512 -512 -512 -512 -512 -512 -258.4608292867707 -512 -512 -362.228269269078 -512 -512 -512 -512 -75.42187915284606 -512 -512 -512 -512 -512 -512 -512 -512 -512 -512 -512 -160.6956904175183 -512 -512 -512 -512 -512 -512 -512 -512 -285.223964413038 -512 -309.733332741199 -512 -512 -512 -512 -512 -144.1170810312294 -512 -512 -512 -512 -512 -273.7217180591938 -512 -512 -512 -512 -512 -512 -412.8465392566301 -512 -512 -512 -512 -512 -512 -512 -86.74716692851159 -291.0793649296159 -512 -53.26363360846693 -512 -512 -512 -512 -512 -512 -512 -512 -512 -512 -512 -408.8576128599752 -512 -512 -512 -512 -512 -512 -512 -512 -245.5061072895111 -512 -512 -207.1153551432014 -512 -512 -512 -512 -512 -512 -512 -512 -512 -512 -378.7352529285225 -201.8065329330044 -512 -512 -512 -512 -512 -8.781744629881144 -512 -512 -512 -133.4502867984794 -512 -512 -512 -512 -512 -49.51396952067894 -112.6992781070187 -202.6800178941961 -331.6411929975684 206.2937142092825 512 512 130.4645225119396 139.7570567975457 198.6955441881998 512 512 512 512 512 61.40309152101021 512 95.38379718351005 36.64638806805242 512 512 512 207.4350498095484 512 512 325.8372517709531 512 512 512 454.8305777790031 512 498.4114509658207 512 512 512 512 512 512 512 512 413.2665097221636 512 512 512 512 208.7115437654314 512 512 512 512 512 512 126.0918720867796 512 512 512 512 325.0318433038932 512 512 512 512 512 363.0212040638896 512 512 512 512 512 512 512 512 512 512 512 28.35016588999051 512 512 512 512 512 512 512 512 512 512 512 512 512 512 512 512 512 512 512 512 512 512 512 512 56.26681919510133 512 512 512 512 512 512 512 131.7334763276999 512 512 512 512 321.2517659669242 512 512 512 512 512 
168 169 173 174 175 182 204 214 218 223 226 229 231 234 564 565 566 567 568 569 570 571 572 573 574 575 576 577 580 581 582 583 584 585 586 590 591 592 593 594 595 596 598 599 601 602 603 605 606 607 608 609 610 611 612 613 614 615 616 617 618 619 620 621 622 624 625 626 627 628 629 630 632 634 635 637 638 639 640 641 643 644 645 646 648 650 651 652 653 654 655 656 657 658 660 662 663 664 665 666 668 669 672 673 674 675 676 677 680 681 685 686 687 688 689 690 691 692 693 694 695 697 698 700 701 702 704 705 707 708 709 710 711 712 713 714 715 716 717 718 719 720 721 722 723 725 726 727 728 734 735 736 737 738 739 740 741 742 743 744 746 747 748 752 753 754 755 756 757 758 759 760 761 763 764 766 767 769 770 771 772 773 777 781 782 783 784 785 786 787 791 792 793 794 795 796 797 799 800 802 804 805 807 809 811 813 815 817 818 819 821 823 827 828 829 830 833 835 839 840 847 849 850 851 852 857 858 859 863 866 868 869 870 871 874 875 876 877 879 886 897 902 906 907 911 923 927 930 937 938 940 941 954 956 958 963 964 965 966 967 968 970 971 973 974 975 976 1217 1218 1222 1227 1228 1231 1236 1238 1245 1246 1247 1248 1250 1251 1264 1265 1266 1268 1269 1270 1274 1275 1276 1278 1279 1280 1281 1282 1283 1285 1288 1290 1291 1294 1297 1298 1300 1303 1312 1313 1314 1315 1319 1324 1326 1335 1336 1338 1341 1344 1345 1346 1347 1349 1352 1353 1354 1365 1377 1384 1388 1391 1393 1396 1397 1398 1399 1400 1401 1404 1405 1409 1420 1421 1422 1423 1424 1425 1426 1428 1433 1434 1438 1439 1454 1488 1489 1491 1492 1497 1501 1503 1507 1508 1509 1510 1512 1516 1518 1519 1520 1522 1523 1526 1533 1538 1539 1540 1541 1542 1543 1545 1546 1547 1548 1549 1550 1551 1552 1554 1560 1561 1563 1564 1565 1566 1567 1568 1570 1571 1573 1575 1576 1577 1578 1579 1580 1581 1582 1583 1584 1586 1587 1588 1589 1590 1591 1592 1593 1594 1595 1598 1599 1600 1601 1602 1603 1604 1605 1606 1607 1608 1609 1610 1611 1612 1613 1617 1618 1619 1621 1623 1624 1625 1626 1627 1630 1631 1632 1633 1634 1635 1636 1638 1640 1641 1642 1643 1644 1645 1646 1647 1651 1652 1653 1654 1655 1658 1660 1661 1662 1663 1664 1667 1668 1670 1671 1672 1673 1677 1678 1679 1680 1682 1683 1685 1689 1690 1691 1693 1694 1695 1698 1699 1700 1702 1703 1704 1705 1706 1708 1710 1711 1712 1713 1714 1715 
512 512 444.390798647071 229.6063392194791 512 197.9749625268225 32.62697981774725 512 142.1763021289505 67.19709198143298 512 512 301.6434638823861 512 -512 -512 -512 -512 -512 -512 -512 -512 -512 -512 -512 -512 -512 -512 -225.0196600932517 -512 -247.1137915946843 -512 -512 -512 -512 -512 -512 -512 -512 -512 -311.4794953891563 -512 -512 -512 -512 -512 -512 -512 -512 -512 -512 -512 -512 -512 -512 -512 -512 -512 -512 -236.7010226623196 -512 -512 -512 -512 -512 -512 -512 -512 -512 -512 -512 -512 -512 -512 -512 -512 -512 -512 -512 -512 -512 -512 -63.27909578676893 -241.2593014348852 -512 -512 -512 -512 -512 -512 -512 -512 -512 -512 -512 -512 -512 -512 -512 -512 -512 -512 -299.8286702824286 -512 -512 -512 -512 -512 -263.5073932089502 -512 -512 -512 -512 -512 -512 -512 -512 -512 -512 -512 -512 -512 -512 -512 -512 -512 -512 -512 -512 -512 -512 -512 -512 -512 -512 -512 -512 -512 -512 -512 -512 -512 -512 -512 -512 -512 -512 -512 -512 -200.0117360782877 -512 -399.9322818736193 -512 -512 -512 -512 -512 -58.07998770116958 -512 -432.0026841916385 -512 -512 -512 -512 -512 -512 -512 -512 -512 -512 -512 -512 -512 -161.3145516533753 -512 -512 -512 -512 -512 -512 -512 -512 -512 -512 -512 -512 -512 -512 -512 -512 -512 -512 -512 -512 -512 -512 -512 -512 -512 -512 -512 -512 -512 -512 -512 -512 -512 -512 -512 -177.9342330605382 -512 -512 -512 -512 -512 -512 -512 -512 -512 -512 -512 -127.8640419149535 -363.8809524649578 -285.2069586120837 -512 -18.20179975038634 -512 -512 -512 -512 -512 -512 -512 -512 -512 -326.3055058826155 -512 -512 -512 -512 -512 -512 -211.765813239893 -390.7134288894209 -61.1288131856776 -512 -512 -512 -512 -49.61785412743795 -512 -24.85989316509822 -512 -512 -512 -512 -512 -512 -298.5370796033707 -512 -512 -512 -512 -512 -512 -512 -512 512 27.47953355507794 512 512 512 512 512 512 512 512 512 243.9209607064466 512 512 512 512 512 512 512 512 512 512 512 512 512 512 512 512 512 512 512 512 512 512 512 415.8250418266383 512 512 512 512 512 485.174830073535 512 512 512 512 512 512 512 109.0195655620557 512 512 512 512 512 512 512 512 512 512 512 512 100.9194966821448 512 512 512 512 512 512 512 512 512 512 512 512 512 512 512 512 512 512 512 512 512 512 512 157.3193709725386 512 512 118.0422767472556 512 512 295.7705885219016 512 512 512 481.1318578415894 512 512 512 512 512 512 512 512 512 512 512 512 512 512 512 386.9467770971708 512 512 512 512 512 512 512 512 512 512 512 512 512 512 512 512 512 109.091634058843 512 512 512 512 512 512 512 512 512 512 512 512 512 512 512 512 512 512 512 512 512 512 512 512 512 512 512 512 512 512 512 512 512 512 512 512 512 512 512 512 512 512 512 512 512 512 512 512 512 512 512 512 512 512 512 512 512 512 105.4868164076277 512 512 512 512 512 512 512 512 512 512 512 512 512 512 512 512 512 512 512 512 512 512 512 512 512 512 512 512 512 512 512 512 512 512 512 512 455.4893249420773 512 512 512 512 512 512 56.31203264817234 512 512 512 
19 20 32 65 67 76 100 115 168 169 171 172 173 174 175 176 177 179 180 181 182 183 185 187 188 189 190 191 193 196 201 203 205 206 208 213 215 221 224 228 230 233 234 235 238 239 244 246 249 250 256 257 260 262 267 269 270 272 276 278 281 282 284 285 286 289 291 292 293 294 295 299 303 305 308 309 311 316 319 320 321 324 326 327 328 332 334 339 346 354 355 360 361 368 369 370 371 375 376 377 378 390 392 397 398 400 401 422 433 434 442 444 449 463 468 478 485 486 487 489 496 520 547 554 556 562 563 977 978 979 980 981 983 984 985 986 987 988 989 991 992 993 994 996 999 1000 1001 1002 1003 1004 1005 1006 1007 1008 1011 1012 1013 1014 1015 1016 1017 1018 1019 1020 1021 1023 1024 1025 1026 1027 1035 1036 1037 1038 1039 1040 1043 1044 1047 1049 1050 1051 1052 1053 1060 1061 1062 1063 1065 1066 1067 1070 1071 1072 1073 1074 1075 1084 1085 1087 1088 1091 1092 1093 1095 1098 1102 1104 1107 1108 1111 1114 1115 1116 1120 1122 1123 1128 1129 1130 1131 1135 1138 1150 1152 1154 1158 1163 1164 1169 1174 1178 1180 1181 1182 1185 1186 1188 1190 1191 1193 1196 1198 1199 1200 1204 1205 1206 1207 1209 1210 1211 1212 1213 1214 1215 1217 1228 1233 1234 1242 1243 1246 1247 1248 1251 1253 1256 1257 1259 1260 1262 1263 1278 1281 1290 1293 1304 1308 1310 1313 1323 1324 1331 1334 1347 1349 1351 1356 1357 1361 1363 1364 1368 1371 1376 1377 1383 1385 1386 1387 1388 1390 1391 1393 1396 1398 1403 1412 1416 1419 1421 1426 1430 1431 1435 1441 1443 1446 1448 1449 1450 1452 1453 1454 1455 1457 1458 1459 1460 1462 1465 1467 1468 1469 1470 1471 1474 1475 1477 1478 1479 1480 1481 1482 1483 1490 1493 1496 1498 1500 1506 1507 1510 1511 1512 1519 1520 1522 1527 1531 1539 1540 1541 1544 1545 1551 1559 1561 1568 1569 1571 1573 1576 1581 1583 1584 1593 1594 1603 1606 1607 1608 1610 1611 1612 1615 1616 1617 1618 1619 1627 1628 1630 1632 1634 1636 1640 1641 1643 1644 1647 1650 1653 1654 1656 1658 1661 1665 1666 1668 1671 1672 1675 1677 1679 1682 1684 1685 1687 1688 1689 1690 1691 1692 1693 1694 1695 1696 1697 1698 1699 1700 1701 1702 1704 1705 1706 1707 1708 1709 1718 
224.5762216069449 61.36961330259466 512 64.81718185467966 169.912770254751 281.3215582856683 512 39.64163510459126 -512 -512 -512 -512 -312.7734656317309 -512 -512 -55.2603004903121 -259.1926865120112 -500.6125982092877 -512 -239.482298527983 -43.37475083310943 -512 -512 -512 -102.5204788250704 -512 -512 -466.6331271154386 -147.0583211241901 -512 -512 -188.1742220791631 -512 -281.9337114542735 -373.6216160902591 -512 -512 -38.62877737714037 -512 -97.93238523064248 -232.5975599994695 -299.0743963699688 -512 -461.1299724336876 180.5476287968103 512 512 512 512 512 512 512 512 512 512 512 512 512 512 512 512 512 512 512 296.6372790664974 512 512 512 512 512 512 512 242.9028936616287 148.2705233895314 512 512 512 512 512 512 512 512 512 512 512 512 512 512 512 512 505.8997833480211 512 317.1769788175241 512 512 512 231.45450381123 512 512 512 512 512 512 512 512 512 512 512 512 512 512 194.0385804610944 512 512 512 424.8230365315914 512 512 512 512 382.1752215486173 512 512 512 512 175.5449750143877 322.2984422061439 512 512 512 512 512 512 512 512 512 512 512 512 512 512 512 512 254.850072193915 512 512 186.7201861026249 512 512 93.17687371341904 512 512 512 512 512 512 512 512 512 512 512 512 512 512 512 512 512 512 512 512 512 42.54596572891339 512 512 512 512 512 512 512 512 512 512 512 7.184954035790575 512 512 512 512 512 512 512 512 512 512 512 512 512 512 294.2434722099 512 512 512 512 512 512 512 512 505.869949392027 512 512 512 512 512 265.7106086364236 512 512 169.7771098341514 512 512 512 512 512 457.1152731041633 162.9324007472271 512 512 512 512 512 11.4606520541183 512 410.972531413952 512 512 512 512 512 512 512 512 512 512 512 512 512 512 512 512 512 512 512 512 512 512 512 512 -512 -512 -512 -512 -512 -512 -512 -512 -512 -364.0288047095282 -512 -273.2785683708474 -512 -512 -512 -512 -74.35109015524684 -512 -512 -512 -512 -512 -512 -512 -360.5785039328349 -512 -512 -484.6239798239354 -512 -512 -512 -512 -512 -512 -224.1251344767767 -512 -512 -477.5445604465535 -512 -512 -512 -512 -512 -512 -512 -512 -229.5473791160761 -512 -512 -512 -512 -512 -512 -512 -512 -512 -512 -512 -456.3153166860496 -512 -472.7966770971584 -512 -512 -512 -512 -512 -512 -512 -512 -512 -512 -380.9202660654867 -512 -512 -152.9080156986305 -512 -512 -127.8168584266135 -512 -61.4798453839982 -73.87048452801594 -512 -512 -512 -512 -512 -512 -512 -512 -512 -512 -512 -512 -512 -512 -512 -512 -512 -512 -512 -512 -512 -512 -512 -512 -512 -512 -512 -512 -512 -512 -512 -512 -512 -512 -343.8062586267292 -512 -512 -512 -512 -512 -512 -512 -512 -512 -512 -512 -512 -224.4590591964956 -512 -512 -512 -353.2298495901976 -512 -512 -458.1025204366923 -512 -512 -512 -512 -512 -512 -512 -512 -512 -512 -227.7763873591075 -512 -512 -512 -512 -512 -512 -328.9599458675809 -512 -512 -512 -512 -512 -512 -512 -512 -512 -512 -220.6145630494132 -512 -512 -512 -512 -512 -512 -512 -512 -512 -512 -512 -512 -512 -512 -512 -512 -512 -512 -512 -512 -238.8341388812306 
171 173 175 180 196 202 214 229 231 233 234 239 253 255 289 382 396 517 556 566 588 589 596 598 617 623 631 632 638 640 644 655 674 675 685 738 852 863 963 978 979 980 981 983 986 987 989 991 992 993 994 995 999 1000 1003 1005 1006 1007 1008 1011 1013 1014 1015 1017 1018 1019 1020 1021 1022 1023 1024 1025 1027 1035 1036 1037 1038 1039 1040 1041 1042 1043 1047 1051 1055 1060 1061 1062 1065 1066 1070 1073 1074 1075 1085 1086 1087 1088 1092 1098 1108 1111 1121 1128 1131 1147 1152 1154 1157 1164 1181 1182 1185 1186 1188 1189 1191 1193 1195 1197 1198 1199 1200 1201 1204 1206 1207 1209 1210 1212 1214 1219 1228 1233 1234 1242 1253 1257 1259 1260 1262 1263 1267 1293 1302 1308 1323 1328 1334 1351 1356 1357 1363 1364 1370 1376 1382 1383 1385 1386 1387 1391 1394 1412 1413 1417 1429 1430 1435 1443 1446 1452 1453 1455 1456 1457 1459 1460 1461 1463 1465 1469 1470 1474 1475 1477 1478 1479 1480 1481 1482 1483 1485 1490 1493 1494 1495 1496 1507 1511 1514 1531 1572 1616 1632 1650 1659 1665 1684 1692 1709 1718 1719 
-373.0031526703872 -512 -395.2217813979448 -485.8625482306055 -512 -34.79243734377514 -512 -512 -330.3879678582166 -124.9061276155964 -512 225.0172017845366 512 512 320.91354280728 512 264.5590350653416 512 303.2055932241756 512 512 368.1212756073871 305.8740992487679 512 512 512 512 512 512 512 512 273.2749775231104 512 512 254.5198991181147 459.8974972301648 281.5631484176916 512 245.2626845666581 -512 -512 -512 -512 -512 -512 -512 -512 -512 -512 -512 -512 -512 -512 -512 -512 -512 -512 -512 -512 -512 -512 -512 -512 -512 -512 -512 -512 -512 -512 -512 -512 -512 -512 -512 -418.3851392953581 -276.6331230548909 -512 -512 -512 -75.0721176490036 -512 -512 -512 -512 -512 -512 -512 -512 -512 -512 -512 -512 -512 -512 -512 -512 -512 -512 -512 -512 -379.2668252714133 -512 -398.8080178524772 -512 -67.88739510386706 -473.1688964201269 -512 -512 -174.3311276367245 -512 -512 -512 -512 -512 -512 -512 -512 -512 -512 -512 -512 -512 -267.2915181469793 -512 -512 -512 -512 -512 -512 -512 -512 465.198502779345 512 248.5366287709136 512 512 512 512 512 512 512 512 436.8558364842696 512 512 512 512 313.9520248638069 512 512 512 315.2567828419275 512 512 512 512 512 512 80.33477317712665 512 512 463.7734630755842 33.57526702737263 512 123.9234602438976 463.6328394572565 298.7444818523679 512 512 512 512 389.2767481874526 512 512 180.3462217091956 512 512 512 347.5440629305174 512 512 512 512 512 512 512 73.0456519640629 512 512 512 512 512 512 454.2310991491764 512 512 20.25591594875496 512 512 512 512 512 512 512 512 512 512 512 105.1735761770995 512 512 512 255.1518843140102 
0 2 13 18 19 20 28 30 32 36 38 39 42 49 53 62 65 66 67 69 70 71 73 74 75 76 77 79 80 81 82 83 84 85 86 88 94 100 116 120 124 126 128 144 150 159 237 238 239 241 243 244 246 249 250 256 257 258 260 267 269 270 276 278 279 281 283 284 285 286 287 289 292 293 294 299 301 308 316 318 320 321 326 327 332 334 335 348 349 351 354 355 358 360 361 368 369 371 375 376 377 378 390 391 396 398 400 401 403 413 415 425 433 434 442 444 449 471 478 496 504 520 524 537 554 556 982 990 995 997 998 1010 1028 1030 1033 1042 1045 1054 1055 1056 1057 1058 1077 1079 1080 1081 1082 1083 1119 1122 1124 1132 1134 1152 1153 1163 1167 1173 1187 1189 1192 1195 1197 1201 1203 1209 1216 1247 1274 1279 1290 1313 1347 1349 1371 1385 1393 1396 1398 1400 1404 1434 1495 1506 1518 1519 1520 1522 1526 1539 1540 1543 1545 1551 1559 1567 1569 1576 1593 1603 1606 1607 1608 1610 1611 1612 1615 1618 1619 1624 1626 1627 1630 1632 1640 1643 1644 1647 1654 1658 1661 1672 1677 1679 1680 1682 1685 1689 1690 1691 1693 1694 1695 1696 1698 1699 1700 1702 1704 1705 1706 1707 1708 
-512 -162.5756034834065 -481.5299187692769 -40.53423409287106 -512 -512 -512 -512 -46.91685121046114 -512 -512 -512 -512 -512 -512 -512 -511.0864440461567 -512 -512 -404.2033993948676 -512 -512 -288.087913725857 -484.8982841926419 -512 -349.5710442363392 -512 -512 -512 -512 -512 -58.78587620214933 -512 -70.9713625925334 -230.4732082421811 -512 -512 -198.4717200389149 -512 -249.507234666139 -512 -512 -512 -512 -512 -512 -161.890803891718 -512 -512 -450.3326823649298 -88.47788091957578 -512 -140.8349141429896 -512 -512 -512 -512 -512 -512 -512 -512 -512 -512 -512 -170.3481440311203 -512 -512 -512 -512 -380.5342983734304 -512 -512 -512 -512 -512 -512 -151.5364799904793 -512 -512 -512 -512 -512 -512 -512 -512 -512 -512 -512 -409.6517084563185 -512 -512 -175.6549579306225 -227.803632050155 -512 -268.442011321294 -512 -512 -512 -512 -512 -454.6175331829006 -512 -512 -512 -455.1713740668261 -512 -512 -512 -368.0349601800071 -512 -512 -274.6627282080451 -512 -512 -512 -440.5212819140449 -512 -78.38403106222425 -512 -157.4157488895415 -55.62130061962705 -512 -289.3577432479632 -330.872420114657 -512 -512 234.320530922261 512 512 512 512 512 512 512 512 512 512 512 512 512 512 512 512 512 512 512 512 512 15.9436879992061 236.5976908555221 512 512 512 512 512 512 512 109.7973763374298 512 512 512 512 512 512 512 370.8399221971915 512 512 275.8720172119781 512 512 512 512 512 512 387.5132206180331 512 512 512 512 512 512 72.17792218276087 512 334.1785649207603 512 512 512 109.3926060345677 512 512 512 512 512 512 512 512 512 512 512 512 512 512 512 249.8122146727549 512 1.45568430695135 512 512 320.1953873029021 512 512 512 512 245.6829042899454 512 512 512 512 512 512 512 512 512 512 512 512 512 512 512 512 512 512 512 512 512 512 512 512 512 512 512 512 
168 169 171 173 174 175 176 180 181 182 183 185 187 188 189 191 193 196 198 199 203 205 206 207 213 215 221 224 226 229 230 232 234 982 995 1000 1004 1024 1031 1048 1050 1053 1064 1070 1075 1079 1097 1099 1100 1115 1117 1118 1122 1141 1143 1150 1161 1162 1163 1164 1165 1174 1178 1180 1184 1185 1191 1195 1197 1205 1209 1212 
512 512 412.7212115277757 512 512 512 66.90424519956865 512 350.8969337702579 219.4696743570554 512 447.2338018221636 270.102696166098 204.0702175237016 512 241.2843904090959 208.6842174840489 512 11.1717686625471 94.6213235032903 408.9901666768473 512 487.3324701520687 239.375679634549 512 65.60332878192975 280.312729156564 182.2929869975885 391.1020999141828 254.5201234725296 102.5164923086903 265.2442178973797 512 -37.09854781697269 -32.54518338014041 -170.1659095624531 -6.567988243426149 -512 -280.5401260006958 -82.78270403101925 -512 -474.1771345048151 -170.5870720263631 -70.47778474307754 -512 -125.6497398544619 -512 -372.9061553620936 -330.9750385245103 -425.4527847341465 -383.9339629379375 -55.75381009543865 -512 -116.8453858947411 -220.9999805089041 -502.8833508178577 -512 -427.9439180693952 -512 -106.3498013207399 -288.6807895148732 -365.3555549078791 -512 -512 -363.077926069349 -37.05875745677183 -111.5573734778951 -118.4461940660658 -387.7005451822618 -181.206295037799 -193.3048846011458 -299.4260766747042 
0 1 2 5 6 10 11 12 13 17 18 19 20 21 24 25 27 28 32 36 38 39 40 41 42 43 46 48 49 50 51 53 54 59 62 65 66 69 70 71 75 77 78 79 80 82 85 87 88 89 94 98 99 100 101 104 105 108 111 114 116 117 118 122 124 125 126 127 128 129 131 133 136 137 138 140 141 142 143 144 145 146 147 148 149 150 153 155 156 157 158 159 160 161 162 163 165 168 169 171 172 173 174 175 177 180 183 185 187 188 189 190 193 196 201 202 203 204 205 206 207 208 209 210 211 212 214 216 217 223 224 226 227 229 230 231 232 233 234 239 247 248 251 254 255 262 265 266 269 271 275 343 382 421 432 457 459 460 464 465 473 474 490 492 500 507 508 511 512 514 517 530 534 535 539 541 549 550 551 556 557 559 977 982 990 997 998 1028 1029 1030 1031 1032 1033 1034 1042 1045 1054 1055 1056 1057 1058 1059 1077 1078 1079 1080 1081 1082 1083 1087 1089 1090 1100 1101 1103 1105 1106 1109 1113 1122 1123 1124 1125 1126 1132 1134 1136 1137 1143 1144 1146 1149 1150 1152 1153 1155 1158 1159 1161 1162 1163 1167 1170 1173 1174 1175 1177 1178 1180 1184 1187 1192 1195 1197 1203 1209 1398 1402 1403 1425 1434 1440 1492 1494 1495 1518 1632 
-512 -512 -512 -217.7076779336589 -512 -325.6298061237786 -512 -109.0837382112718 -512 -512 -512 -512 -512 -512 -24.52481382247293 -124.5025171740192 -512 -512 -512 -512 -512 -512 -512 -512 -512 -0.3864577595744139 -359.374634624776 -512 -512 -512 -165.6467522812056 -512 -512 -49.60553319169853 -512 -512 -512 -512 -254.8452719914434 -512 -512 -512 -512 -512 -87.8969042948674 -512 -224.3492001780955 -512 -42.71975365472481 -512 -512 -512 -29.11748512737202 -207.8359567116353 -376.2717618623574 -512 -512 -398.2253624044455 -9.348708650295416 -512 -512 -512 -512 -512 -512 -159.2983804124977 -512 -512 -512 -512 -512 -512 -86.44621965572449 -512 -512 -11.92920519444499 -512 -512 -512 -512 -512 -512 -512 -512 -512 -512 -512 -512 -512 -512 -512 -512 -512 -512 -512 -512 -512 -512 -512 -512 -512 -512 -512 -512 -512 -512 -512 -512 -134.6000969176587 -348.0695393293219 -512 -323.4745859136574 -49.66585202912336 -512 -512 -512 -384.8769862069657 -512 -512 -304.1752925466946 -11.99704493012286 -349.995764804619 -129.5011186151654 -512 -136.8976500706392 -497.261547961916 -512 -158.6325107937685 -512 -284.262112934909 -465.5029370106268 -512 -82.27360815433367 -512 -230.3914368213629 -276.6225319583653 -191.7876889487272 -360.449341598961 -512 512 512 512 512 512 512 512 512 512 512 512 512 512 512 497.3557295650017 339.5389877393685 512 512 475.645489373787 512 224.3938269924406 512 512 207.547333609267 512 512 512 512 512 313.7018708283462 512 170.6787402628993 125.0398473653988 512 512 260.78608603558 69.82324729293168 395.7305885109976 46.11437650170732 512 11.39067921911387 512 18.4291650035262 432.5060799495562 512 500.2742739548152 512 512 512 512 512 512 512 512 512 512 298.1272580320302 512 512 512 512 512 83.08861282040655 512 512 512 512 512 512 512 158.2221041769855 512 512 512 512 512 512 512 512 512 512 512 512 489.3850257742786 512 512 512 512 512 141.8696758744655 512 307.0063917720101 512 512 512 512 512 512 459.4016304899079 512 396.847689732242 512 512 292.4205356335517 512 162.0644334907539 512 512 512 512 512 512 363.4837576943592 512 512 512 451.2300910939098 512 293.0802600176595 512 512 512 512 512 512 512 512 512 
168 169 171 172 173 174 175 176 178 180 181 182 183 185 187 188 189 191 193 194 196 199 200 202 203 204 205 206 207 208 211 213 214 224 226 230 232 234 982 1004 1050 1053 1068 1069 1079 1090 1097 1099 1100 1110 1117 1118 1122 1141 1143 1144 1150 1161 1162 1163 1165 1168 1172 1174 1178 1180 1184 1185 1197 1335 1391 1399 1491 1492 1494 1495 1529 1559 1615 1617 1665 1696 1707 
-512 -512 -512 -2.026460967698517 -512 -512 -512 -78.08515369075907 -3.648296347146384 -512 -416.4364245555738 -27.6300427821847 -512 -340.76110414506 -154.8439923774605 -196.0975467743418 -512 -189.9511767572035 -511.9264336418451 -8.362160859892048 -512 -96.73669263731794 -94.57844249080128 -512 -512 -512 -512 -355.2109852784568 -21.79566150085662 -307.1403103481663 -285.9278499832417 -512 -512 -365.8332041583889 -512 -26.47893482409496 -338.0580203464452 -512 72.59165780598019 339.5649254036216 512 330.9647718344693 33.50039153391588 380.0072113832595 5.489387308834112 55.07535179946689 331.4725145787702 212.6101077343064 65.44933927628622 326.4448028982295 512 296.842505935334 512 141.2457901422648 45.159273686551 440.8094331242563 432.1671913721978 512 512 512 512 168.7996700340019 14.2754993557595 393.4047497606782 512 400.04012362503 383.3883738983895 26.05650534521666 299.6487259868021 109.4429456001027 468.5429532376465 95.91685958877798 512 512 512 512 176.9869718165225 40.06479341002771 47.91019650239203 82.80314224978156 385.8424224123523 245.9741216738899 45.03618415182024 
6 20 65 155 162 169 171 173 174 180 196 202 204 214 234 1260 1323 1351 1357 1385 1388 1391 1435 1459 1492 1494 1495 1506 1630 1632 1694 1706 
-197.3298807900864 -265.7811410104179 -65.13961521138216 -47.93270271702549 -278.3981544220652 -273.3787900246652 -9.142074374038124 -512 -172.9867943291224 -167.4251186803167 -512 -343.8198553916752 -64.20012631665813 -92.19825929231979 -440.5974613499161 29.59925629278198 512 25.04717418683482 28.66700899940724 108.9312698121242 145.882760225382 120.4785649788664 313.4125073262007 170.0635345760953 512 4.617151009229858 512 70.09025345987656 129.2593886931349 191.8948674499073 407.4076359247734 160.9786009750754 
239 252 262 269 286 301 316 375 382 396 465 517 554 556 989 990 1010 1065 1070 1092 1189 1195 1197 1201 1209 1210 1212 1216 
272.2034119297735 510.0186043497326 112.8391022510572 63.83736320965354 461.3682361476142 102.5475602231907 178.9323141737039 373.7919539958837 512 359.3103983779055 63.77355697237079 58.18147336365365 20.30736431477927 396.7794903722387 -79.27812444056622 -37.33252341319906 -256.4965274983595 -105.8528128408322 -189.9945569846913 -94.52315440647313 -512 -236.2945679179495 -296.0396956460831 -512 -76.89680313655562 -294.0459220187359 -512 -283.1361413781123 
0 2 11 12 13 18 19 24 28 30 38 42 46 48 49 50 62 66 67 70 74 75 76 77 78 79 82 87 88 89 90 94 105 112 113 114 116 124 125 126 128 133 138 144 150 157 159 990 997 998 1028 1030 1033 1042 1045 1055 1056 1057 1058 1077 1078 1079 1080 1081 1082 1083 1087 1106 1122 1124 1132 1133 1134 1136 1149 1152 1153 1158 1163 1167 1173 1177 1187 1192 1195 1197 1203 1216 1398 1403 1404 1425 1434 1606 1661 1700 1708 
512 411.2987522512796 463.0483835872443 140.6137728594319 239.9047041390455 512 512 158.511336850511 512 512 512 512 512 512 512 512 245.2921201741987 512 512 512 512 512 5.633027579169957 512 37.37392800170449 512 311.913778301428 191.7553870560696 512 512 120.1425194104309 466.5435546095572 512 123.0996292903069 127.5820396239509 61.70540693498644 512 512 512 512 512 104.5835498258483 37.46318017539751 233.4646245701071 512 512 503.5080477834012 -367.0247143068183 -512 -512 -512 -512 -512 -512 -452.7192500351623 -512 -512 -512 -512 -382.7965503585283 -512 -512 -184.3981729006693 -238.1781040912138 -512 -512 -499.9354743027384 -35.28497842083326 -17.93709315842125 -512 -512 -35.56150219925556 -512 -73.26815897363346 -26.46516593341772 -512 -512 -1.13440519036007 -489.2701911674141 -317.5064504275585 -132.6612801708682 -10.73413870436447 -512 -512 -512 -512 -98.20874977140737 -173.7999170852883 -512 -512 -290.295729204237 -257.169749185538 -165.0564227937991 -48.8698263231079 -512 -512 -197.1617183194345 
566 567 570 572 588 589 591 594 596 598 607 608 611 615 617 620 621 623 628 631 632 635 637 638 639 640 641 644 651 655 656 675 677 690 738 852 863 866 957 963 965 975 980 983 986 989 992 995 999 1000 1003 1005 1006 1011 1013 1015 1018 1019 1020 1021 1024 1041 1043 1045 1054 1055 1056 1061 1062 1065 1070 1081 1092 1120 1152 1164 1182 1188 1189 1191 1195 1201 1207 1210 1212 1214 
512 302.727126198285 60.99996429208763 16.85840094111522 512 512 211.421583005783 512 345.3139917956543 498.662401461589 118.9010744932487 512 194.4778942163129 88.69272243638301 512 512 435.9130079699627 512 512 512 512 512 512 512 512 267.8582899721507 262.4890131542068 512 174.8003194048661 512 512 512 50.56021297378303 512 231.7686455972452 512 291.3049482370877 512 73.91806468723826 512 512 512 -512 -140.8705365933235 -45.35550076461476 -60.95334794223039 -35.75550108663838 -512 -512 -512 -512 -512 -263.5048021743295 -512 -398.1832790671259 -512 -512 -400.645661742741 -512 -512 -204.0749088749997 -209.6176880870092 -52.65353345825867 -444.7210852325717 -170.0309646261269 -199.8619139706635 -512 -377.8888122255057 -512 -512 -512 -232.4407886951793 -458.2210012121965 -186.8753558532921 -512 -102.3354779854747 -90.3639790982043 -512 -387.5473676238652 -512 -424.8321190937842 -512 -512 -275.9340354288636 -512 -512 
1 6 16 17 18 21 27 33 40 48 122 123 127 128 131 133 134 135 137 138 139 141 142 143 144 145 146 147 149 150 152 153 155 156 157 158 159 160 161 162 163 165 238 239 241 244 246 247 248 249 250 251 252 256 257 258 259 260 262 264 265 266 267 269 270 271 272 273 274 275 276 277 278 281 282 283 284 285 286 287 290 291 292 293 294 295 296 297 299 300 301 305 307 309 310 311 312 313 314 315 316 319 320 321 324 325 326 327 328 329 331 332 334 335 337 338 339 340 341 342 343 344 345 348 351 353 354 359 360 361 362 363 364 365 367 368 369 370 371 372 374 375 376 377 378 382 385 386 387 388 390 392 393 394 395 396 397 398 400 401 404 405 406 409 416 417 418 420 421 422 423 424 426 430 433 434 436 439 442 443 444 447 448 449 450 451 452 453 454 455 456 457 459 460 463 464 465 466 467 468 470 471 472 473 476 477 478 480 482 483 485 486 487 489 490 492 493 495 496 499 500 501 504 505 509 511 514 515 516 518 520 522 524 527 528 531 535 538 539 541 544 545 547 549 550 551 552 553 554 555 556 557 575 579 595 603 636 645 679 699 719 725 731 732 736 750 753 758 762 763 767 769 770 771 774 776 779 780 789 798 799 800 803 804 805 808 810 812 813 814 816 818 820 822 823 825 826 827 831 833 838 839 841 842 845 846 850 851 853 854 855 856 857 858 859 860 861 862 864 865 867 868 869 870 871 872 873 874 877 878 879 880 881 882 883 884 885 886 887 889 890 891 892 893 894 895 896 897 898 899 900 901 902 903 904 905 906 907 908 909 910 911 912 913 914 915 916 917 918 919 920 921 922 923 924 925 926 927 928 929 930 931 932 933 934 935 936 937 938 939 940 942 943 944 945 946 947 948 949 950 951 952 953 954 955 956 957 958 959 960 961 962 966 972 
-512 -512 -358.5048047257799 -512 -512 -512 -512 -376.7797310319263 -512 -512 -512 -512 -512 -512 -512 -512 -21.82683830597868 -512 -90.99723846015901 -512 -275.6140993928429 -512 -512 -512 -512 -512 -512 -512 -512 -290.7123583241211 -512 -512 -512 -512 -512 -512 -512 -512 -512 -512 -403.2761461662178 -512 512 295.1801988759132 512 304.5589940251262 400.0964148680127 512 512 154.7847420992303 512 341.3184246924455 512 512 512 512 512 512 280.9050106856255 512 512 512 512 178.6893033495706 512 512 512 512 512 512 512 512 512 512 407.9398201402783 495.6553614227885 512 512 512 512 512 512 512 512 512 512 422.828606756753 512 512 512 512 512 512 512 512 512 512 512 512 512 512 512 512 512 512 512 512 512 512 512 512 512 512 512 512 512 512 512 512 512 512 512 512 311.4764418984117 512 512 512 512 512 512 512 512 512 512 512 512 512 512 62.2955475009873 512 512 512 512 512 512 512 512 512 512 512 512 512 512 512 512 378.3994785001206 512 512 512 512 512 512 272.2535295622129 512 512 512 425.9339255000599 512 512 512 512 512 512 512 512 512 512 512 512 512 512 512 512 512 512 512 512 53.19722910031329 512 512 36.60426905932112 512 448.2207676064166 512 512 512 512 512 512 512 512 136.3754568002624 512 512 512 176.4687491335766 512 512 408.0917425372385 257.2856939494938 512 512 512 512 512 512 512 512 250.2088623380026 512 512 512 160.9652053241537 512 142.4337454573005 512 512 320.836588984485 512 383.1280486008042 512 512 512 512 512 512 512 184.573156908324 331.3741254311813 512 512 503.9427848474679 512 512 479.4183399293896 512 512 419.5135375881762 512 512 512 512 -512 -512 -151.76146314055 -512 -151.181149788267 -190.3815808878461 -512 -512 -512 -512 -512 -512 -512 -512 -512 -510.2039262627957 -512 -512 -512 -512 -512 -512 -495.8726452148156 -176.8654172805528 -512 -512 -512 -512 -512 -512 -512 -512 -512 -512 -512 -512 -512 -512 -512 -512 -512 -512 -512 -512 -512 -392.8785103546419 -512 -512 -512 -512 -512 -512 -512 -512 -512 -512 -512 -512 -512 -512 -512 -512 -512 -512 -512 -512 -512 -512 -512 -512 -319.7426099110758 -512 -512 -512 -512 -512 -512 -512 -512 -512 -512 -512 -354.6033456744676 -512 -512 -358.4429337631362 -512 -512 -512 -512 -512 -512 -512 -512 -512 -512 -512 -512 -512 -512 -512 -512 -512 -512 -512 -512 -512 -512 -512 -512 -512 -512 -512 -512 -512 -512 -512 -512 -512 -512 -512 -512 -512 -512 -512 -512 -512 -512 -512 -512 -512 -512 -512 -512 -512 -512 -512 -512 -512 -512 -512 -512 -512 -512 -512 -512 -409.3093047882722 -512 -512 -512 -512 -512 -512 -512 -512 -512 -512 -512 -512 -512 -512 -512 
25 91 564 565 566 567 568 569 570 571 572 573 574 575 576 577 578 579 580 581 582 583 584 585 586 590 591 592 593 594 596 597 599 600 602 603 605 606 607 608 609 610 611 612 613 614 615 616 618 619 620 621 622 624 625 626 627 628 629 630 634 635 636 637 638 639 641 643 644 646 647 648 651 652 653 654 657 658 659 660 661 662 663 664 665 666 667 668 669 670 671 672 674 675 676 677 680 681 682 683 684 686 687 688 689 690 691 692 693 694 695 697 698 699 700 701 702 703 704 705 706 707 708 709 710 711 712 713 714 715 716 717 718 719 720 721 722 723 725 726 727 728 732 733 734 735 736 737 739 740 741 742 743 744 745 746 747 748 750 751 752 753 754 755 756 757 758 759 760 761 762 763 764 765 766 768 769 770 771 772 773 774 775 776 777 778 779 781 782 783 784 785 786 787 788 790 791 792 793 794 795 796 797 799 800 801 802 804 805 806 807 809 811 813 815 817 818 821 823 824 825 827 828 829 830 832 833 835 836 837 839 840 843 847 848 849 851 852 854 855 857 859 868 869 870 874 875 876 877 880 882 883 885 886 888 890 895 911 918 923 930 949 954 958 963 965 966 967 968 970 971 973 974 975 976 977 978 979 980 981 983 985 986 987 989 991 992 993 994 999 1000 1002 1003 1005 1006 1007 1008 1011 1012 1013 1014 1015 1017 1018 1019 1020 1021 1022 1023 1024 1025 1027 1035 1036 1037 1038 1039 1040 1043 1044 1046 1047 1049 1051 1060 1062 1063 1065 1067 1070 1071 1073 1074 1075 1085 1086 1087 1088 1092 1093 1096 1098 1102 1108 1111 1112 1120 1128 1130 1131 1145 1147 1154 1155 1156 1157 1164 1181 1182 1185 1186 1188 1189 1191 1193 1194 1196 1198 1199 1200 1202 1204 1206 1207 1208 1209 1210 1211 1212 1213 1214 1215 1217 1219 1220 1221 1222 1223 1224 1226 1227 1228 1229 1230 1231 1234 1235 1238 1239 1240 1241 1242 1246 1247 1248 1251 1254 1256 1257 1258 1259 1260 1261 1262 1265 1267 1268 1270 1271 1272 1273 1274 1275 1276 1277 1278 1279 1280 1281 1282 1283 1284 1285 1288 1289 1290 1291 1292 1293 1296 1298 1299 1300 1302 1303 1304 1306 1307 1308 1312 1313 1314 1316 1318 1319 1320 1322 1323 1324 1325 1327 1328 1331 1332 1333 1335 1338 1340 1341 1343 1344 1345 1346 1347 1348 1349 1350 1351 1352 1354 1356 1357 1359 1360 1361 1363 1364 1365 1366 1368 1369 1370 1371 1373 1375 1376 1377 1383 1384 1385 1386 1387 1388 1391 1393 1395 1396 1397 1398 1399 1400 1401 1403 1404 1406 1407 1408 1409 1410 1411 1412 1413 1415 1419 1421 1422 1423 1425 1426 1428 1434 1435 1436 1437 1438 1439 1441 1442 1443 1446 1447 1450 1451 1453 1454 1455 1457 1459 1460 1465 1466 1470 1471 1473 1474 1475 1476 1477 1478 1479 1480 1481 1482 1483 1487 1490 1491 1492 1493 1494 1495 1496 1497 1498 1500 1501 1502 1505 1506 1507 1509 1510 1511 1512 1513 1514 1515 1516 1517 1518 1519 1520 1521 1522 1523 1524 1526 1527 1528 1529 1532 1533 1535 1537 1538 1539 1540 1541 1542 1543 1545 1548 1549 1550 1551 1552 1553 1554 1558 1559 1561 1563 1564 1565 1566 1567 1568 1569 1570 1571 1573 1574 1575 1576 1578 1579 1580 1581 1582 1583 1584 1586 1587 1588 1589 1590 1591 1592 1593 1594 1595 1598 1599 1601 1602 1603 1604 1605 1606 1607 1608 1609 1610 1611 1612 1613 1614 1615 1616 1617 1618 1619 1620 1621 1623 1624 1625 1626 1627 1628 1629 1630 1631 1632 1633 1634 1635 1636 1637 1638 1639 1640 1641 1642 1643 1644 1645 1646 1647 1648 1649 1650 1651 1652 1653 1654 1655 1656 1657 1658 1659 1660 1661 1662 1663 1664 1665 1667 1668 1670 1671 1672 1673 1675 1676 1677 1678 1679 1680 1682 1683 1684 1685 1686 1687 1688 1689 1690 1691 1693 1694 1695 1696 1697 1698 1699 1700 1702 1703 1704 1705 1706 1707 1708 1709 1711 1715 1716 1718 1719 1723 
-30.04433562722858 -406.4381817495098 -512 -512 -512 -512 -512 -119.9805635767182 -512 -512 -512 -512 -512 -512 -512 -512 -512 -499.0731629688322 -512 -512 -512 -512 -512 -512 -512 -220.6902077506068 -512 -512 -512 -512 -101.2179151021023 -512 -512 -512 -512 -512 -512 -512 -220.24057655961 -512 -512 -512 -512 -512 -512 -512 -512 -512 -512 -512 -512 -512 -512 -512 -512 -512 -512 -512 -512 -512 -512 -512 -512 -512 -512 -512 -512 -512 -512 -512 -512 -512 -512 -512 -512 -139.8539389112905 -512 -512 -512 -512 -512 -512 -512 -512 -512 -512 -512 -512 -512 -512 -512 -512 -300.0272915443422 -512 -512 -512 -512 -512 -512 -512 -512 -512 -512 -512 -512 -512 -512 -512 -512 -512 -512 -512 -512 -512 -512 -512 -512 -512 -512 -512 -512 -512 -512 -512 -512 -512 -512 -512 -512 -512 -512 -512 -512 -512 -512 -512 -512 -512 -512 -512 -512 -512 -390.7323283974901 -411.0181125934536 -512 -512 -512 -512 -512 -512 -512 -512 -512 -512 -512 -512 -512 -512 -512 -512 -512 -512 -512 -512 -512 -512 -512 -512 -512 -512 -512 -512 -512 -512 -512 -512 -512 -512 -512 -512 -512 -512 -512 -411.9036729834431 -512 -414.3555019323237 -512 -512 -512 -512 -512 -512 -512 -512 -512 -512 -512 -512 -512 -512 -512 -512 -512 -512 -347.0760716940064 -255.3634498768367 -512 -512 -512 -512 -512 -512 -512 -512 -512 -512 -512 -512 -512 -512 -512 -512 -512 -512 -512 -512 -512 -512 -223.3534424215038 -512 -512 -512 -512 -512 -512 -512 -512 -512 -512 -512 -512 -512 -512 -512 -512 -512 -512 -512 -512 -257.5403752884208 -512 -512 -419.289737945518 -512 -512 -115.1652170400827 -124.1497328630457 -512 -13.15537222327652 -512 -512 -512 -512 -512 -512 -512 -512 -512 -512 -512 -512 -512 -512 -512 -512 -512 -512 -512 -512 -512 -512 -215.1633355945467 -512 -512 -512 -512 -512 -512 -512 -512 -512 -512 -512 -512 -512 -512 -512 -512 -512 -512 -512 -512 -512 -512 -512 -512 -512 -512 -512 -512 -512 -512 -512 -512 -512 -512 -512 -512 -512 -512 -318.2223895972097 -512 -512 -474.6782659692848 -512 -512 -512 -512 -512 -512 -273.8790818759649 -512 -512 -512 -512 -512 -512 -512 -512 -512 -152.3998650378033 -512 -512 -121.0236767710488 -512 -121.1363183795658 -512 -512 -512 -512 -512 -512 -512 -118.834617546608 -487.7698345625551 -512 -512 -512 -512 -512 -512 -512 -41.34951259594753 -507.4040738135853 -512 -512 -512 -512 -512 -512 -512 -512 -512 -512 -512 -512 -512 -512 -512 -512 -512 -512 512 512 512 512 512 29.1864367232982 512 115.0190039914145 512 512 151.8777793616517 512 512 139.9933511463862 512 74.61471167528616 512 512 512 512 512 512 512 512 512 512 512 512 512 512 512 281.7261316681665 512 512 512 512 512 512 512 512 512 512 512 512 512 499.3011369549162 512 512 512 512 512 512 408.5839231463258 512 512 386.5844730291086 512 512 512 391.0983597217346 512 512 512 512 512 89.66847314242474 512 512 512 512 512 512 512 512 228.1434853875157 512 512 512 512 512 512 512 484.3842921036486 512 512 512 512 512 512 512 512 512 512 512 512 512 512 512 512 512 457.5786287308952 512 512 512 512 512 512 269.2890853969184 311.9213540940568 512 352.736336842088 512 512 512 512 512 512 512 512 512 512 512 512 512 512 512 512 512 512 512 512 512 512 512 512 512 512 512 512 512 320.4885027496748 512 512 512 512 512 512 512 512 512 512 512 129.766787710559 512 512 512 512 512 512 512 512 512 512 512 512 512 512 512 512 512 512 512 512 512 512 512 512 512 512 512 512 512 512 512 512 512 512 400.2754558867761 418.3845495363772 512 512 512 303.0772837594881 512 512 512 512 512 512 512 512 512 512 512 355.9638810527257 512 512 512 512 512 512 512 512 512 512 325.6859553680465 512 512 512 512 512 512 512 512 512 512 512 512 512 512 512 512 512 512 512 512 512 512 512 512 512 512 512 512 512 512 512 512 345.9124881029077 290.3938685320746 512 512 512 512 512 512 512 512 512 512 512 512 512 512 512 512 512 512 512 512 512 512 512 512 512 512 512 512 512 512 512 512 512 512 512 512 512 512 512 512 512 512 512 512 512 512 512 512 512 512 512 512 512 512 512 512 246.2676536458333 512 512 512 512 512 512 512 425.4427686119379 512 512 512 512 512 512 512 512 512 512 512 512 512 19.16400272152633 512 512 512 512 512 512 512 512 512 512 512 512 512 512 512 512 512 512 512 512 512 512 512 512 512 512 512 512 512 512 512 512 512 512 512 512 512 512 512 512 512 512 512 512 512 512 512 512 512 512 
238 247 252 257 258 259 262 264 267 270 272 273 274 275 276 278 281 283 284 285 287 290 291 293 294 295 297 299 300 301 302 305 307 309 310 311 312 313 315 316 319 320 321 324 326 327 328 329 332 334 335 337 338 339 340 341 342 343 344 351 352 353 354 358 359 361 362 363 364 366 367 368 369 370 372 375 376 377 381 382 384 385 386 387 390 392 393 398 400 401 406 407 409 410 412 416 417 418 420 422 423 426 428 429 430 431 433 436 438 439 442 443 444 448 449 450 452 454 455 456 457 463 467 468 469 472 475 477 478 479 480 486 487 489 491 496 497 499 500 501 502 505 506 519 520 522 525 527 531 532 533 536 543 544 545 546 547 555 564 565 566 567 568 570 571 572 573 574 575 576 577 579 580 581 582 583 584 585 586 589 590 591 592 593 594 595 596 598 599 600 601 602 603 605 606 607 608 609 610 611 612 613 614 615 616 617 618 619 620 621 622 623 624 625 626 627 628 629 630 631 632 634 635 636 637 638 639 640 641 642 643 644 645 648 651 652 653 654 655 656 657 658 659 660 661 662 663 664 665 666 667 668 669 670 671 672 673 675 676 677 679 680 681 682 684 685 686 687 688 689 690 691 692 693 694 695 697 698 699 700 701 702 703 704 705 706 707 708 709 710 711 712 713 714 715 716 717 718 719 720 721 722 723 724 725 726 727 728 729 730 731 732 733 734 735 736 737 739 740 741 742 743 744 746 747 748 750 751 752 753 754 755 756 757 758 759 760 761 762 763 764 766 767 768 769 770 771 772 773 774 775 776 777 778 779 780 781 782 783 784 785 786 787 789 790 791 792 793 794 795 796 797 798 799 800 801 802 803 804 805 806 807 808 809 810 811 812 813 814 815 816 817 818 819 820 821 822 823 824 825 826 827 828 829 830 831 832 833 835 838 839 840 841 842 843 845 846 847 849 850 851 852 853 854 855 856 857 858 859 860 861 862 863 864 865 866 867 868 869 870 871 872 873 874 875 876 877 878 879 880 881 882 883 884 885 886 887 888 889 890 891 892 893 894 895 896 897 898 899 900 901 902 903 904 905 906 907 908 909 910 911 912 913 914 915 916 917 918 919 920 921 922 923 924 925 926 927 928 929 930 931 932 933 934 935 936 937 938 939 940 941 942 943 944 945 946 947 948 949 950 951 952 953 954 955 956 957 958 959 960 961 962 963 964 965 966 967 968 969 970 971 972 973 974 975 976 1217 1226 1227 1228 1231 1232 1236 1238 1244 1245 1246 1247 1248 1249 1250 1251 1264 1265 1266 1268 1269 1270 1272 1274 1275 1276 1279 1280 1281 1282 1283 1285 1286 1288 1290 1291 1292 1294 1297 1298 1300 1303 1312 1313 1314 1319 1323 1324 1325 1326 1332 1335 1336 1339 1340 1341 1342 1344 1345 1346 1349 1352 1353 1354 1355 1362 1365 1377 1380 1388 1391 1395 1396 1397 1398 1399 1400 1401 1402 1404 1405 1408 1409 1411 1412 1420 1421 1422 1423 1424 1425 1428 1433 1434 1438 1439 1440 1445 1454 1488 1489 1491 1492 1495 1497 1501 1502 1503 1507 1508 1509 1512 1513 1514 1516 1518 1519 1520 1522 1523 1526 1530 1533 1534 1538 1539 1540 1541 1542 1545 1546 1548 1549 1550 1551 1552 1554 1558 1560 1561 1562 1563 1564 1565 1566 1567 1570 1571 1575 1577 1578 1579 1580 1581 1582 1583 1584 1586 1587 1588 1589 1590 1591 1592 1593 1594 1595 1598 1599 1600 1601 1602 1603 1604 1605 1606 1607 1608 1609 1610 1611 1612 1613 1616 1617 1618 1619 1621 1623 1624 1625 1626 1627 1628 1629 1630 1631 1632 1633 1634 1635 1636 1638 1640 1641 1642 1643 1644 1645 1646 1647 1651 1652 1653 1654 1655 1658 1660 1661 1662 1663 1664 1667 1668 1670 1671 1672 1673 1677 1678 1679 1680 1682 1683 1689 1690 1691 1693 1695 1698 1700 1702 1704 1705 1710 1711 1713 1714 1715 
512 512 512 512 512 512 306.1451902611194 512 512 512 512 512 512 512 512 512 512 512 512 512 512 512 512 512 512 512 512 512 362.6362014832154 512 223.8178181020033 512 512 512 512 512 512 512 512 512 512 512 512 512 512 512 512 67.08767543956765 512 512 512 512 512 512 512 512 512 512 512 512 512 512 512 512 512 512 512 512 512 512 512 512 512 512 512 512 512 512 512 355.2231418661921 143.7822273149639 512 512 512 512 512 512 512 512 512 512 512 512 512 512 512 395.9392780410304 512 512 512 512 512 512 512 512 95.51885752681648 512 512 512 512 512 512 512 512 512 512 512 512 512 512 512 512 161.3435222854847 512 195.023612415727 512 512 512 512 512 215.8633270840686 512 512 512 512 512 512 512 108.8030390691838 512 512 259.3104605736078 512 240.5022323624169 512 512 512 512 512 512 400.7028001105863 163.070318119402 512 512 512 512 512 209.4571145326383 -512 -512 -512 -512 -512 -512 -512 -512 -512 -512 -512 -512 -512 -512 -512 -512 -512 -512 -512 -512 -512 -512 -167.7105246294346 -512 -512 -512 -512 -512 -512 -512 -512 -512 -97.20236236470646 -512 -512 -512 -512 -512 -512 -512 -512 -512 -512 -512 -512 -512 -512 -512 -512 -512 -512 -512 -512 -512 -512 -512 -512 -512 -512 -512 -512 -512 -512 -512 -512 -512 -512 -512 -512 -512 -512 -512 -512 -512 -512 -512 -512 -512 -512 -512 -512 -512 -512 -512 -512 -512 -512 -512 -512 -512 -512 -512 -512 -512 -512 -512 -512 -512 -512 -512 -512 -512 -512 -512 -512 -512 -512 -493.0144265058916 -512 -512 -512 -512 -512 -512 -512 -512 -512 -512 -512 -512 -512 -512 -512 -512 -512 -512 -512 -512 -512 -512 -512 -512 -512 -512 -512 -512 -512 -512 -512 -512 -512 -512 -512 -512 -512 -512 -512 -512 -512 -512 -295.7584000548273 -512 -512 -512 -512 -254.9289620987349 -512 -512 -512 -512 -512 -512 -512 -512 -512 -512 -512 -512 -512 -512 -512 -512 -512 -512 -512 -512 -512 -512 -512 -512 -512 -512 -512 -512 -512 -11.50438246506566 -512 -512 -512 -512 -512 -512 -512 -512 -512 -512 -512 -512 -512 -512 -512 -512 -512 -512 -512 -512 -512 -512 -512 -512 -512 -512 -512 -512 -512 -512 -512 -512 -512 -512 -512 -512 -512 -512 -512 -512 -512 -512 -512 -512 -512 -512 -512 -512 -512 -350.42607220728 -512 -512 -512 -512 -512 -512 -158.6041214118319 -512 -512 -512 -512 -512 -512 -512 -512 -512 -512 -512 -512 -512 -512 -512 -512 -512 -512 -512 -512 -512 -512 -512 -512 -512 -512 -512 -512 -512 -512 -512 -512 -512 -512 -512 -512 -512 -512 -512 -512 -512 -512 -512 -512 -512 -512 -512 -512 -512 -512 -512 -512 -512 -512 -512 -512 -512 -512 -512 -512 -512 -386.0076075554101 -512 -512 -512 -512 -512 -512 -512 -512 -512 -512 -512 -512 -512 -512 -512 -512 -512 -512 -512 -512 -512 -512 -512 -512 -512 -512 -512 -512 -512 -512 -512 -512 -512 -512 -512 -512 -512 -512 -512 -512 -512 -512 -512 -512 -512 -512 -512 -512 -512 -512 -512 -512 -512 -512 -512 -512 -512 -512 -512 -512 -512 -512 -512 -512 -512 -512 -512 -512 -512 -512 -512 -512 -512 -512 -512 -512 -512 -512 -512 -512 -512 -512 -512 512 59.48756546585516 512 512 512 146.4794496462182 312.7191011491288 98.24977068372766 512 512 512 512 472.8850847711623 512 512 512 512 512 512 512 512 512 411.3857566590402 472.0275505575213 512 512 512 512 512 512 512 512 62.6633314926887 512 512 512 512 512 512 512 512 512 512 512 512 512 512 512 512 512 512 512 512 512 512 512 23.25892885362384 512 512 512 512 512 440.0878529040866 512 512 512 512 512 52.14348113644822 512 512 220.6182850071711 512 512 512 512 512 512 487.4354859876145 512 512 512 512 512 31.44687341679768 512 512 512 512 512 512 512 512 512 488.7695105684348 512 164.9000352497955 101.2796555509326 512 512 60.94041658857763 512 512 512 275.7192715481075 512 512 398.3739077323989 512 512 512 512 512 512 512 512 512 512 512 512 512 512 512 499.1994650510796 512 512 497.782455797371 512 512 512 512 512 512 512 512 512 512 512 512 512 512 512 512 512 512 512 512 512 512 512 512 512 512 512 512 512 512 512 512 512 512 512 512 512 512 512 512 512 512 296.2249651097329 512 512 512 512 512 338.8114563147343 512 436.0800079079395 512 512 512 512 512 512 512 512 221.3975263696507 512 512 512 512 512 512 512 415.4685381612762 512 512 512 512 512 512 512 512 512 512 512 512 512 260.9370765044249 512 223.3123578535851 512 512 512 512 512 512 512 512 512 512 512 512 512 512 512 512 512 512 512 512 512 512 430.4452571148576 512 512 512 512 512 512 512 512 512 512 512 512 512 150.3996215511766 512 
6 13 20 42 50 64 65 84 124 126 153 155 157 159 162 163 168 169 171 173 175 177 180 196 214 226 229 231 234 587 588 589 596 598 604 617 620 623 631 632 638 640 644 650 654 696 729 738 863 945 956 957 
334.3123417860601 390.2523114425924 512 252.2800207865376 512 81.9590085986228 117.2666363920667 499.9566524482896 484.4364885530132 334.7688030890439 251.1211672312232 341.5760634398748 25.46154526317737 376.2243669372866 512 28.86733172544265 253.1660678806622 206.8024343242009 512 512 261.8528734451171 44.50481101635299 512 292.4348321094263 494.7082348307755 35.81639726983216 512 512 512 -480.5639644405556 -512 -489.3584714881802 -307.0284523304327 -512 -512 -453.0340442218833 -59.17745755773387 -512 -512 -512 -341.6880699814828 -512 -211.7619077722287 -295.461187325801 -512 -480.2254845941206 -512 -423.3796094524586 -512 -512 -30.08973940472173 -512 
0 13 19 20 53 65 75 79 83 84 98 100 116 124 125 126 159 162 236 237 238 241 244 246 249 250 256 257 258 259 260 261 262 264 267 269 270 272 273 276 278 279 281 282 283 284 285 286 287 289 290 291 292 293 294 295 296 297 298 299 301 303 305 306 307 308 309 310 311 312 313 316 317 319 320 321 324 326 327 328 329 331 332 334 335 337 338 339 341 343 344 345 346 348 349 351 352 353 354 355 356 357 358 359 360 361 362 363 364 365 368 369 370 371 372 375 376 377 378 380 381 385 386 387 389 390 391 392 393 394 397 398 399 400 401 403 404 406 413 414 416 417 418 420 422 423 424 426 428 429 430 433 434 436 439 440 441 442 443 444 445 447 448 449 450 452 453 454 455 456 461 462 463 466 467 468 471 472 473 475 476 477 478 480 481 482 483 484 485 486 487 489 491 496 497 499 501 504 505 506 510 520 522 524 525 526 527 528 529 531 532 533 537 542 543 544 545 546 547 552 554 556 563 575 587 588 589 591 595 603 604 617 623 631 640 655 656 673 679 685 719 729 730 731 732 736 738 750 753 767 779 798 799 800 802 803 804 805 808 810 812 814 816 818 820 825 826 831 833 838 839 841 842 843 845 846 850 853 854 856 857 858 860 861 862 864 865 866 867 871 872 873 874 877 878 879 880 881 882 884 885 887 889 890 891 892 893 894 895 896 897 898 899 900 901 902 903 904 905 906 907 908 909 910 912 913 914 915 916 917 918 919 920 921 922 923 924 925 926 927 928 929 931 932 933 934 935 936 937 938 939 940 941 942 943 944 945 946 947 948 949 950 951 952 953 954 955 956 957 958 959 960 961 962 969 972 1247 1278 1347 1349 1357 1371 1385 1388 1393 1421 1495 1506 1520 1522 1539 1540 1545 1559 1567 1569 1573 1576 1593 1594 1606 1607 1608 1615 1618 1619 1627 1630 1632 1643 1644 1647 1658 1661 1668 1677 1679 1680 1685 1690 1691 1693 1694 1695 1696 1698 1699 1700 1701 1702 1705 1706 1707 1708 
-512 -512 -1.515176570887337 -512 -512 -512 -512 -512 -512 -512 -239.0096526361818 -512 -512 -389.9359683673345 -103.1277227969766 -512 -512 -62.75493770376038 -23.91932920298279 -310.6724279374487 -512 -512 -512 -512 -512 -512 -512 -512 -512 -512 -512 -512 -117.0251249255897 -512 -512 -1.680785055763796 -512 -512 -512 -512 -512 -142.575625412337 -512 -512 -512 -512 -512 -512 -512 -235.713146597845 -512 -512 -512 -512 -512 -512 -512 -512 -512 -512 -512 -512 -512 -0.9065011857179069 -512 -512 -512 -512 -512 -512 -512 -512 -349.2710225176577 -512 -512 -512 -512 -512 -512 -512 -324.107847006389 -458.5934653523425 -512 -512 -512 -512 -512 -512 -512 -306.7465284004591 -512 -512 -512 -512 -512 -512 -22.39012068141569 -512 -512 -512 -512 -159.0419426795282 -320.3594920251437 -512 -512 -512 -512 -512 -512 -512 -512 -512 -512 -512 -512 -512 -512 -512 -512 -512 -267.0412633734931 -512 -512 -512 -512 -512 -512 -512 -512 -512 -512 -512 -393.1366358327917 -512 -512 -512 -512 -463.5587151590203 -512 -512 -512 -512 -512 -512 -512 -376.771222375873 -512 -512 -512 -512 -512 -512 -512 -32.35346549668906 -512 -512 -512 -512 -512 -512 -512 -512 -512 -512 -512 -512 -512 -512 -512 -512 -20.37178571676197 -147.1045364072076 -512 -512 -512 -512 -235.5682544646208 -512 -129.3385018475377 -512 -512 -512 -512 -512 -512 -512 -512 -512 -512 -512 -512 -512 -512 -512 -512 -512 -512 -512 -512 -1.910147310937454 -321.365250099983 -512 -512 -512 -512 -512 -512 -512 -200.2005064822295 -512 -512 -512 -512 -512 -512 -491.2512835411827 -512 -512 -512 -512 -512 -512 -10.55528785072481 418.3846595372292 512 512 512 476.5789045317151 466.5883986677283 512 512 512 512 512 508.3517869170572 512 512 512 512 512 512 512 512 512 512 512 353.8486968879908 512 512 512 512 512 512 512 512 512 512 512 512 512 512 512 512 512 512 512 512 395.8735150550507 512 512 512 512 512 240.7971904940745 512 512 512 512 512 512 512 512 512 512 512 512 512 512 512 512 512 512 512 512 512 512 512 512 512 512 512 512 512 364.518490479929 512 512 512 512 512 512 512 512 512 512 512 512 512 512 512 512 512 512 512 512 512 512 512 512 512 512 512 512 512 512 512 512 512 512 512 512 512 512 512 512 512 512 512 512 512 512 512 512 512 512 512 512 512 512 512 512 159.1759795956185 512 512 512 512 512 512 512 512 19.3884708601277 512 512 512 512 13.80678613876411 512 512 512 512 512 512 512 512 512 512 512 141.9550204096286 512 512 512 512 512 512 512 219.2643264989175 512 294.6679685818369 512 512 283.0757453068575 512 512 512 512 267.3202627743929 512 512 512 512 512 512 512 512 512 512 512 512 512 512 280.3778444867567 512 512 512 512 512 512 512 512 219.899625791141 512 512 512 512 512 
239 244 249 250 256 258 260 267 269 270 276 278 281 284 285 286 287 289 293 294 299 305 308 316 320 321 324 326 327 334 346 354 360 361 368 369 371 375 376 377 378 382 390 391 397 398 400 401 423 433 434 442 444 449 478 485 520 524 547 554 556 1247 1347 1349 1371 1393 1426 1506 1519 1520 1539 1540 1545 1551 1559 1569 1576 1593 1603 1606 1607 1608 1610 1611 1612 1618 1619 1626 1627 1630 1643 1644 1647 1654 1658 1661 1677 1679 1680 1682 1685 1690 1691 1693 1694 1695 1696 1698 1699 1700 1702 1704 1705 1706 1707 1708 
-142.6305983529456 -326.2348652952099 -512 -512 -512 -283.1142149061673 -512 -512 -58.7808193238028 -512 -512 -512 -512 -512 -512 -512 -512 -54.2848912393904 -512 -53.05075504563624 -512 -512 -466.8316610997966 -512 -512 -512 -512 -512 -512 -512 -129.624454059219 -512 -486.0972911233266 -172.8973904732149 -512 -512 -271.9115458641767 -512 -512 -265.72638128026 -512 -125.4013275370132 -512 -512 -512 -512 -512 -512 -326.9098164993284 -512 -512 -269.9903052608271 -89.42554893650338 -512 -512 -512 -512 -79.61831693081294 -162.5977604196167 -512 -512 512 512 512 235.2386758981273 512 171.787751779835 512 512 512 512 512 512 512 512 477.3126222727057 512 512 453.6667474143996 512 512 512 512 512 512 512 512 68.38350414327175 83.40537393663382 512 512 512 266.6471927101271 405.6018523553522 512 512 512 306.8218189303937 512 512 512 512 512 512 512 512 272.2624042064017 512 512 512 512 512 512 512 512 512 
12 28 29 34 37 42 45 55 56 68 72 84 93 124 125 126 238 257 258 259 262 264 267 270 272 273 274 276 278 281 283 284 285 287 290 291 293 294 295 297 299 301 305 307 309 310 311 312 313 315 316 319 320 321 324 326 327 328 329 332 334 335 336 337 338 339 340 341 343 344 347 351 352 353 354 358 359 361 362 363 364 366 367 368 369 370 372 375 376 377 381 385 386 389 390 392 393 397 398 400 401 402 406 407 409 410 412 416 420 422 423 424 426 428 429 430 431 433 434 438 439 442 443 444 448 449 450 452 454 455 456 463 466 467 468 469 472 475 477 478 479 480 484 486 487 488 489 491 496 497 498 499 501 502 505 506 519 520 522 525 527 531 532 533 543 544 545 546 547 552 555 564 565 566 567 568 570 571 572 573 574 575 576 577 578 579 580 581 582 583 584 585 586 587 588 589 590 591 592 593 594 595 596 597 598 599 600 601 602 603 604 605 606 607 608 609 610 611 612 613 614 615 616 617 618 619 620 621 622 623 624 625 626 627 628 629 630 631 632 633 634 635 636 637 638 639 640 641 642 643 644 645 646 648 649 650 651 652 653 654 655 656 657 658 659 660 661 662 663 664 665 666 667 668 669 670 671 672 673 674 675 676 677 679 680 681 682 683 684 685 686 687 688 689 690 691 692 693 694 695 697 698 699 700 701 702 703 704 705 706 707 708 709 710 711 712 713 714 715 716 717 718 719 720 721 722 723 724 725 726 727 728 729 730 731 732 733 734 735 736 737 738 739 740 741 742 743 744 745 746 747 748 749 750 751 752 753 754 755 756 757 758 759 760 761 762 763 764 766 767 769 770 771 772 773 774 775 776 777 778 779 780 781 782 783 784 785 786 787 789 790 791 792 793 794 795 796 797 798 799 800 801 802 803 804 805 806 807 808 809 810 811 812 813 814 815 816 817 818 819 820 821 822 823 824 825 827 828 829 830 831 832 833 835 837 838 839 840 841 842 843 844 845 846 847 849 850 851 852 853 854 855 856 857 858 859 860 861 862 863 864 865 866 867 868 869 870 871 872 873 874 875 876 877 878 879 880 881 882 883 884 885 886 887 888 889 890 891 892 893 894 895 896 897 898 899 900 901 902 903 904 905 906 907 908 909 910 911 912 913 914 915 916 917 918 919 920 921 922 923 924 925 926 927 928 929 930 931 932 933 934 935 936 937 938 939 940 941 942 943 944 945 946 947 948 949 950 951 952 953 954 955 956 957 958 959 960 961 962 963 964 965 966 967 968 969 970 971 972 973 974 975 976 995 1065 1125 1134 1141 1191 1217 1218 1226 1227 1228 1231 1232 1236 1244 1245 1246 1247 1249 1250 1251 1252 1255 1264 1265 1266 1268 1269 1270 1274 1275 1276 1279 1280 1281 1282 1283 1285 1286 1288 1290 1291 1292 1294 1295 1297 1298 1300 1303 1312 1313 1314 1319 1321 1323 1324 1325 1326 1332 1335 1336 1340 1341 1344 1345 1346 1347 1349 1352 1354 1355 1362 1365 1377 1379 1384 1388 1391 1397 1399 1401 1404 1405 1408 1409 1411 1420 1421 1422 1424 1428 1433 1438 1439 1445 1454 1472 1488 1489 1491 1492 1495 1497 1499 1501 1502 1503 1504 1505 1508 1509 1512 1513 1514 1516 1518 1519 1520 1522 1523 1526 1530 1533 1534 1535 1538 1539 1540 1541 1542 1543 1545 1546 1548 1549 1550 1551 1552 1554 1558 1560 1561 1562 1563 1564 1565 1566 1567 1570 1571 1575 1576 1577 1578 1579 1580 1581 1582 1583 1584 1586 1587 1588 1589 1590 1591 1592 1593 1595 1597 1598 1599 1600 1601 1602 1603 1604 1605 1607 1608 1609 1610 1611 1612 1613 1617 1618 1619 1621 1623 1624 1625 1626 1627 1629 1630 1631 1633 1634 1635 1636 1638 1640 1641 1642 1643 1644 1645 1646 1647 1651 1652 1653 1654 1655 1657 1658 1660 1661 1662 1663 1664 1667 1668 1670 1671 1672 1673 1677 1678 1679 1680 1682 1683 1689 1690 1691 1693 1695 1698 1700 1704 1705 1710 1711 1713 1714 1715 1717 1720 1721 
512 512 512 285.6534174314741 26.56774953331367 512 450.8407806470453 512 512 512 512 512 512 512 512 512 512 512 512 449.2687290155522 303.4264673889201 512 512 512 512 512 512 512 512 512 512 512 512 512 512 512 512 512 512 512 512 443.9868797951106 512 512 512 512 512 512 512 512 512 512 512 512 512 512 512 512 369.026655220184 512 512 512 512 512 512 512 512 512 512 512 255.6692998081669 512 326.1959225579897 512 512 512 512 512 512 512 512 512 512 512 512 512 512 512 512 512 512 512 512 512 512 512 512 414.5289644556161 512 512 512 49.52775847845079 512 512 512 512 512 512 512 512 304.0664281336806 376.1569279477833 512 512 512 512 512 512 109.5582151769449 269.847259804198 512 512 512 512 512 512 512 512 512 512 512 512 309.2144950426028 512 512 512 512 512 512 512 512 512 324.0523194984349 512 512 254.1335959260681 512 512 512 512 24.19706679815485 512 512 512 357.4724024929374 512 512 512 512 512 512 512 512 512 512 512 512 512 512 512 12.05054336971 -512 -512 -512 -512 -512 -512 -512 -512 -512 -512 -512 -512 -512 -512 -512 -512 -512 -512 -512 -512 -512 -512 -512 -512 -512 -512 -512 -512 -512 -512 -512 -512 -512 -512 -512 -512 -512 -512 -512 -512 -512 -512 -512 -512 -512 -512 -512 -512 -512 -512 -512 -512 -512 -512 -512 -512 -512 -512 -512 -512 -512 -512 -512 -512 -512 -512 -512 -512 -512 -512 -512 -512 -512 -512 -512 -512 -512 -512 -512 -512 -512 -512 -512 -65.69077278208547 -512 -512 -512 -512 -512 -512 -512 -512 -512 -512 -512 -512 -512 -512 -512 -512 -512 -512 -512 -512 -512 -512 -512 -512 -512 -512 -512 -512 -512 -512 -512 -512 -512 -512 -512 -512 -512 -512 -512 -512 -512 -512 -512 -512 -512 -512 -512 -512 -512 -512 -512 -512 -512 -512 -512 -512 -512 -512 -512 -512 -512 -512 -512 -512 -512 -512 -512 -512 -512 -512 -512 -512 -512 -512 -512 -512 -512 -512 -512 -512 -512 -512 -512 -512 -512 -512 -251.4958413020405 -512 -512 -512 -512 -512 -512 -512 -512 -512 -512 -512 -512 -512 -512 -512 -512 -512 -512 -512 -512 -512 -512 -512 -512 -512 -512 -512 -512 -512 -512 -512 -512 -512 -512 -512 -512 -512 -512 -512 -512 -512 -512 -512 -512 -512 -512 -512 -512 -512 -512 -512 -512 -512 -512 -512 -512 -512 -512 -512 -512 -512 -512 -512 -512 -512 -512 -512 -512 -512 -512 -512 -512 -512 -512 -512 -512 -512 -512 -512 -512 -512 -512 -512 -512 -512 -512 -512 -512 -512 -512 -512 -512 -384.0027028728452 -512 -512 -512 -512 -512 -512 -512 -512 -512 -512 -512 -512 -512 -512 -512 -512 -512 -512 -512 -512 -512 -512 -512 -512 -512 -512 -512 -512 -512 -512 -512 -512 -512 -512 -512 -512 -512 -512 -512 -512 -512 -512 -512 -512 -512 -512 -512 -512 -512 -512 -512 -512 -512 -512 -79.67783609880591 -512 -512 -512 -512 -512 -512 -512 -512 -512 -512 -512 -512 -512 -512 -512 -512 -512 -512 -512 -512 -512 -512 -512 -512 -512 -512 -512 -512 -512 -512 -512 -512 -512 -512 -512 -512 -512 -512 -512 -512 -512 -512 -512 -512 -512 -512 -512 -512 -512 -512 -512 -512 -512 -512 -512 -512 -512 -512 -512 -512 -512 -512 -512 -512 -512 -512 -512 -512 -512 -512 -512 -512 -512 -512 -512 -512 -512 -512 -512 -512 -512 -512 -512 512 512 490.1501998757989 0.388854830083736 72.76402946353275 503.5202261643425 512 512 512 512 512 512 512 512 512 512 512 512 512 512 512 512 512 512 512 512 512 512 512 19.01176603729841 255.6828129629029 512 512 512 512 512 512 512 397.6838761719912 512 512 512 512 512 512 512 512 512 512 512 512 512 512 176.1538676472653 512 512 512 512 512 512 512 512 512 428.6660883421388 512 512 85.19228760081572 512 512 512 458.859423775926 512 512 512 512 223.8145102921739 512 512 512 512 512 512 205.0293968180435 512 512 512 512 512 512 512 512 512 512 345.2347708661874 74.98263286782655 512 432.8548472382733 512 512 512 512 245.4942673767309 131.1715802992043 184.5629762407845 512 512 512 286.862381896272 512 512 512 512 318.6541857303168 512 512 512 512 512 512 512 512 512 512 512 512 512 512 348.1188195709036 512 512 17.32237738132164 512 512 512 512 512 512 512 512 512 512 512 512 512 512 512 512 512 512 512 512 512 512 512 512 512 512 512 512 512 512 512 512 512 512 512 512 512 512 393.8824095111129 512 512 512 512 512 512 512 512 512 512 512 512 512 512 512 512 512 512 512 512 512 512 512 512 512 512 512 512 512 512 512 512 512 512 512 512 512 461.0750232617078 512 512 512 512 512 512 512 340.1176093156132 512 512 512 512 512 512 512 512 512 512 512 512 512 512 512 512 512 512 512 512 512 512 512 512 512 512 512 512 512 512 512 512 456.1740529948699 512 512 
6 31 61 67 76 155 168 169 171 173 174 175 180 181 182 183 184 187 188 189 191 193 196 202 203 204 205 206 211 213 214 215 220 221 223 224 225 226 229 230 231 232 233 234 569 598 638 640 644 650 651 654 678 696 738 753 819 863 878 982 1004 1050 1053 1069 1075 1097 1109 1115 1117 1118 1122 1140 1143 1144 1150 1161 1162 1163 1165 1172 1174 1178 1180 1183 1184 1199 1205 1211 
-65.3420159601463 -40.90879476356481 -212.1289003620672 -340.8100425139131 -345.2224913811223 -64.26612059253242 512 512 512 512 512 512 512 512 429.5288931184802 512 58.52736439684579 240.1748807725723 468.5994728678333 512 254.964900032854 512 512 512 512 63.35435662469007 512 512 79.93308360555525 512 246.7669685086819 41.93183944636633 79.9876300064051 395.5565044238292 237.6280160804436 512 201.3381154422817 512 512 54.36395186365427 512 219.2797319812759 165.0434105579797 512 -55.46413465181878 -512 -32.41094897951177 -512 -0.1485814850724098 -512 -512 -512 -42.75184087210468 -165.9844050218958 -512 -21.0433451767787 -512 -512 -101.6549898995156 -232.582514522246 -512 -512 -363.3877468963906 -339.0743094773077 -421.4208089623246 -512 -112.3305334559738 -205.6090398005583 -512 -230.3148366594144 -512 -155.8701433049586 -110.1909531469421 -133.2220378380482 -512 -512 -474.3592960000615 -512 -168.7204338772511 -50.37793224349348 -32.13434004410801 -512 -512 -131.3577337314964 -89.40878772230216 -201.8325882865959 -51.80610874494976 -292.8423633552823 
0 6 32 37 42 67 76 100 124 125 155 162 168 169 172 174 175 176 179 180 181 182 183 185 187 189 190 191 192 193 196 201 205 206 207 208 213 215 221 222 224 228 230 234 235 977 978 979 980 981 983 984 985 986 987 988 989 991 992 993 994 995 999 1000 1002 1003 1005 1006 1007 1008 1011 1012 1013 1014 1015 1017 1018 1019 1020 1021 1022 1023 1024 1025 1026 1027 1035 1036 1037 1038 1039 1040 1043 1044 1047 1048 1049 1051 1060 1061 1062 1063 1065 1066 1067 1070 1071 1073 1074 1075 1079 1085 1086 1087 1088 1091 1092 1093 1096 1098 1102 1104 1107 1108 1111 1114 1120 1122 1128 1129 1130 1131 1135 1142 1147 1148 1150 1154 1156 1158 1161 1163 1164 1165 1174 1175 1178 1180 1181 1182 1185 1186 1188 1189 1191 1193 1196 1197 1198 1199 1200 1204 1206 1207 1209 1210 1211 1212 1213 1214 1215 1217 1219 1228 1233 1234 1242 1243 1248 1253 1256 1257 1259 1260 1262 1263 1281 1293 1302 1304 1308 1310 1322 1323 1331 1334 1351 1356 1357 1363 1364 1368 1370 1371 1374 1376 1381 1382 1383 1385 1386 1387 1388 1390 1391 1398 1403 1407 1411 1412 1413 1416 1417 1419 1429 1430 1432 1435 1441 1443 1446 1448 1449 1452 1453 1454 1455 1456 1457 1459 1460 1461 1463 1465 1471 1473 1474 1475 1476 1477 1478 1479 1480 1481 1482 1483 1490 1493 1496 1506 1507 1511 1512 1514 1531 1544 1572 1594 1615 1616 1632 1656 1659 1665 1675 1687 1692 1696 1706 1709 1716 1718 1719 
461.9065637107505 434.885679648729 351.651628389451 512 253.6692704527526 119.6077576584127 350.5447025367527 512 13.09054450078085 512 512 95.34589999217735 -512 -512 -63.25947319171383 -512 -512 -434.60342083785 -0.4281968005526477 -512 -87.63968187380716 -200.0537719593254 -512 -512 -512 -512 -512 -146.4308809654049 -389.4918776743322 -501.6563063045252 -320.3239654496854 -512 -512 -512 -10.55010427391207 -198.9882277055179 -512 -512 -168.2057399215583 -177.4425147057688 -512 -5.425932826185128 -512 -512 -493.3328200233825 512 512 512 512 512 512 512 512 512 512 512 512 512 512 512 512 512 512 512 512 512 512 512 512 512 512 512 512 512 512 512 512 512 512 512 512 512 512 512 494.0492742205942 512 512 337.8168146863261 512 512 512 512 512 512 512 314.7384368631393 512 512 512 512 512 512 512 512 512 512 512 512 512 512 308.6237392409477 512 90.48135789116915 512 512 512 512 238.2769452434846 330.6899792603121 512 512 245.8792983535852 512 512 512 512 512 512 512 512 185.3812467632944 220.7962894822623 512 304.2162666872064 512 512 441.908580876216 512 243.6336649903207 143.8954077053196 512 512 512 198.6943121953568 512 326.9574588701564 512 512 512 512 512 512 512 140.6265937019351 512 512 512 512 512 512 512 512 512 512 512 512 317.8833576413846 512 512 512 512 -512 -143.5868801286729 -512 -512 -512 -512 -141.930658830781 -512 -512 -47.54805576763719 -512 -512 -512 -512 -512 -512 -512 -512 -512 -512 -512 -512 -512 -512 -512 -512 -512 -512 -512 -512 -35.44004573195932 -512 -337.0935098922101 -512 -512 -512 -512 -512 -512 -512 -512 -512 -251.8317511498127 -373.5646461619089 -512 -512 -512 -512 -512 -512 -512 -246.5700103270459 -512 -180.925750021505 -512 -403.0962643718283 -512 -485.6220681421692 -512 -512 -512 -512 -512 -512 -512 -512 -512 -512 -512 -512 -512 -512 -512 -365.2551822770352 -512 -512 -512 -512 -512 -512 -512 -512 -512 -512 -512 -512 -512 -512 -456.3612507873904 -512 -512 -512 -512 -512 -363.122691364264 -459.7687634794962 -512 -152.7961306955166 -512 -512 -512 -404.8461710102695 -512 -512 -60.97353442706163 -512 -224.8098197270113 -512 -512 -121.2381245831714 -512 -47.03684817254568 
0 2 6 7 8 9 10 11 12 13 17 18 19 24 27 28 29 30 32 35 36 38 39 41 42 44 46 47 48 49 51 53 54 56 61 62 66 67 69 70 74 75 77 78 79 80 82 83 84 88 97 101 103 106 114 116 117 121 122 124 125 126 128 129 131 133 138 141 144 145 150 153 155 157 158 159 160 162 163 165 170 173 180 219 232 234 564 565 566 567 568 570 571 572 573 574 575 576 577 578 579 580 581 582 583 584 585 586 587 588 589 590 591 592 593 594 596 597 599 600 601 602 603 604 605 606 607 608 609 610 611 612 613 614 615 616 618 619 620 621 622 623 624 625 626 627 628 629 630 633 634 635 636 637 638 639 641 642 643 644 645 646 647 648 649 650 651 652 653 654 655 656 657 658 659 660 661 662 663 664 665 666 667 668 669 670 671 672 673 674 675 676 677 679 680 681 682 683 684 685 686 687 688 689 690 691 692 693 694 695 697 698 699 700 701 702 703 704 705 706 707 708 709 710 711 712 713 714 715 716 717 718 719 720 721 722 723 724 725 726 727 728 730 732 733 734 735 736 737 739 740 741 742 743 744 745 746 747 748 750 751 753 754 755 756 757 758 759 760 761 762 763 764 765 766 768 769 770 771 772 773 775 776 777 778 781 782 783 784 785 786 787 788 790 791 792 793 794 795 796 797 799 800 801 802 803 804 805 806 807 809 811 813 814 815 818 821 823 824 825 827 828 829 830 832 834 835 836 837 838 839 840 843 844 845 847 849 851 852 853 855 856 858 859 861 862 863 866 868 869 870 871 874 875 876 877 879 881 882 883 886 888 890 892 895 902 906 907 911 923 930 941 943 945 947 954 955 957 958 960 963 964 966 967 968 969 970 971 972 973 974 975 976 977 978 979 980 981 982 983 986 987 989 990 991 992 993 994 995 997 998 999 1000 1002 1003 1005 1006 1007 1008 1009 1010 1011 1012 1013 1014 1015 1017 1018 1019 1020 1021 1022 1024 1025 1027 1028 1029 1030 1031 1032 1033 1034 1035 1036 1037 1038 1039 1040 1042 1043 1044 1045 1046 1047 1048 1049 1054 1055 1056 1057 1058 1060 1061 1062 1063 1065 1067 1070 1072 1073 1074 1076 1077 1078 1079 1080 1081 1082 1083 1084 1085 1086 1087 1088 1092 1093 1094 1096 1098 1102 1108 1111 1112 1120 1123 1124 1128 1130 1131 1132 1134 1139 1142 1145 1147 1148 1149 1152 1154 1155 1156 1157 1158 1164 1168 1173 1181 1182 1185 1186 1187 1188 1189 1190 1191 1192 1193 1194 1195 1196 1197 1198 1199 1200 1201 1202 1203 1204 1206 1207 1208 1209 1210 1211 1212 1213 1214 1215 1216 1217 1218 1219 1220 1221 1222 1223 1224 1225 1226 1227 1228 1229 1230 1231 1232 1237 1238 1239 1241 1242 1246 1247 1248 1251 1252 1254 1255 1256 1257 1258 1259 1260 1261 1264 1265 1267 1268 1269 1270 1271 1272 1273 1274 1275 1276 1277 1278 1279 1281 1282 1283 1284 1285 1286 1287 1288 1289 1290 1291 1293 1296 1298 1299 1300 1301 1302 1303 1304 1305 1307 1308 1309 1312 1313 1314 1316 1320 1322 1323 1324 1325 1326 1328 1331 1332 1333 1335 1336 1337 1340 1342 1345 1346 1347 1349 1350 1351 1354 1356 1357 1358 1360 1362 1363 1364 1365 1366 1367 1370 1371 1372 1373 1375 1376 1377 1378 1379 1383 1384 1385 1386 1387 1388 1391 1393 1395 1396 1397 1399 1401 1404 1406 1407 1408 1409 1410 1411 1412 1413 1414 1418 1419 1420 1421 1422 1426 1427 1428 1435 1439 1442 1443 1446 1450 1451 1454 1455 1459 1460 1463 1464 1465 1466 1471 1473 1474 1475 1476 1477 1478 1479 1480 1481 1482 1483 1484 1485 1486 1487 1490 1491 1492 1493 1494 1496 1497 1498 1500 1501 1502 1503 1504 1505 1506 1507 1508 1509 1510 1511 1512 1513 1514 1516 1519 1520 1521 1522 1523 1524 1525 1526 1527 1528 1529 1530 1532 1533 1535 1536 1538 1539 1540 1541 1542 1543 1545 1546 1548 1549 1550 1551 1552 1553 1554 1555 1556 1557 1558 1559 1560 1561 1562 1563 1564 1565 1566 1567 1568 1569 1570 1571 1573 1574 1575 1576 1577 1578 1579 1580 1581 1582 1583 1584 1585 1586 1587 1588 1589 1590 1591 1592 1593 1594 1595 1596 1597 1598 1599 1602 1603 1604 1605 1606 1607 1608 1609 1610 1611 1612 1613 1615 1616 1617 1618 1619 1620 1621 1622 1623 1624 1625 1626 1627 1628 1629 1630 1631 1632 1633 1634 1635 1636 1637 1638 1639 1640 1641 1642 1643 1644 1645 1646 1647 1648 1649 1650 1651 1652 1653 1654 1655 1656 1657 1658 1660 1661 1662 1663 1664 1665 1667 1668 1669 1670 1671 1672 1673 1674 1675 1676 1677 1678 1679 1680 1681 1682 1683 1684 1685 1686 1687 1688 1689 1690 1691 1693 1694 1695 1696 1697 1698 1699 1700 1702 1703 1704 1705 1706 1707 1708 1709 1711 1713 1714 1715 1716 1718 1719 1720 1722 1723 
-512 -512 -512 -112.4855394422246 -40.86900858369591 -372.3597224693428 -512 -512 -512 -512 -344.189519694436 -512 -512 -512 -512 -512 -512 -512 -512 -114.0160421425629 -268.6679640643123 -512 -512 -375.908447617299 -512 -512 -17.25245215023425 -125.1082438574786 -512 -512 -512 -512 -512 -512 -143.889813786767 -512 -512 -512 -512 -512 -512 -512 -512 -512 -512 -505.3205541835522 -512 -78.35254033151017 -512 -512 -512 -512 -512 -512 -512 -512 -512 -317.8256544952595 -512 -512 -512 -512 -512 -66.15792071354055 -414.9997290616369 -512 -512 -512 -305.7117679945324 -512 -512 -512 -6.939420148116533 -512 -512 -512 -158.0706423172727 -512 -467.4305202893356 -480.9385703948488 47.2238087866969 512 512 125.8143631068533 59.35328767474306 512 512 512 512 512 512 512 512 512 512 512 512 512 512 512 512 512 512 512 512 512 512 512 512 512 512 512 512 512 512 512 512 512 512 512 512 512 512 512 512 512 512 512 512 512 512 512 512 512 512 512 512 512 512 512 512 512 512 512 512 512 512 512 512 512 512 512 512 512 512 512 512 512 512 232.5954526842939 512 512 512 512 512 77.87412145259002 308.5953827078564 512 512 512 512 512 512 512 512 512 512 512 512 512 512 512 512 512 512 512 512 512 512 512 512 512 512 512 496.4519986090286 512 512 512 512 512 512 512 512 512 512 512 512 512 512 512 512 512 512 512 512 512 512 512 512 512 512 512 512 512 512 512 512 512 512 512 512 512 512 512 512 512 512 512 512 512 512 512 512 512 512 512 512 512 512 512 512 512 512 512 512 512 512 512 512 512 512 512 512 512 512 512 512 512 512 512 512 512 512 512 512 512 512 512 512 512 512 512 512 512 512 512 512 512 512 512 512 512 512 512 512 512 512 512 512 512 512 331.0614007125241 512 512 512 512 512 512 512 512 512 512 512 512 512 512 512 512 512 512 512 512 512 512 512 177.2213190051848 512 512 512 512 512 512 512 69.96690824416903 512 512 512 512 55.87981796648955 196.3836317980179 512 512 324.1291316949444 512 512 512 82.56709992706436 512 512 512 512 512 512 512 512 512 512 512 512 512 512 512 512 512 512 512 512 512 512 512 512 512 454.8477579149832 512 306.0517307202481 512 252.7412174259082 512 512 512 512 512 512 512 512 512 512 512 512 512 512 512 512 512 512 512 512 512 296.588251833962 512 512 512 512 512 512 512 512 512 247.6274839986147 512 512 512 512 512 512 512 512 512 512 119.6168481153797 512 512 512 512 512 512 512 512 512 512 512 512 512 512 512 512 512 16.73551528128379 512 512 512 323.9095297146683 512 512 512 512 512 512 512 512 512 512 512 512 10.65177255229404 512 512 512 512 512 512 512 512 512 512 512 512 512 512 512 512 512 512 512 512 512 512 512 512 184.0219238172786 512 512 512 512 512 399.176124632441 512 512 512 512 512 512 512 512 188.9986190265303 36.34543428449918 512 512 512 512 512 145.1826476569061 512 512 512 16.39924355116527 512 512 512 512 320.3449148587379 512 124.8924504066346 512 512 512 512 512 512 512 512 512 512 324.7438108391086 512 512 512 512 512 512 512 512 512 512 479.0227233709974 512 512 512 512 512 512 512 512 512 512 512 512 512 512 -512 -512 -512 -512 -77.16575003577887 -512 -512 -512 -512 -512 -512 -512 -512 -512 -512 -512 -44.36817574148738 -87.20880524657976 -512 -512 -512 -512 -512 -512 -512 -306.9383758826417 -512 -512 -512 -512 -512 -478.3508042670395 -512 -512 -512 -512 -512 -512 -512 -512 -512 -512 -512 -512 -512 -512 -280.0250483983681 -512 -512 -512 -512 -512 -512 -512 -512 -512 -512 -512 -512 -512 -512 -512 -512 -512 -512 -278.7703211772225 -512 -512 -512 -512 -512 -512 -512 -512 -512 -512 -512 -512 -512 -512 -512 -512 -512 -512 -512 -512 -512 -512 -512 -512 -512 -512 -512 -512 -512 -512 -512 -512 -512 -512 -512 -204.1615885935231 -512 -512 -512 -512 -512 -512 -133.9200388151565 -512 -60.56909889231309 -512 -512 -512 -512 -512 -1.619062707510871 -512 -512 -512 -351.5411733877569 -512 -512 -512 -512 -512 -512 -512 -512 -512 -512 -372.6046923507131 -512 -512 -512 -346.6688392169744 -512 -512 -512 -512 -512 -512 -512 -512 -512 -512 -512 -512 -512 -512 -512 -512 -512 -512 -512 -512 -512 -512 -512 -512 -290.3404015328212 -73.3536588926176 -512 -512 -512 -512 -485.8588338732416 -512 -512 -512 -512 -512 -512 -512 -512 -512 -512 -512 -512 -512 -512 -512 -512 -512 -512 -512 -512 -512 -512 -512 -512 -512 -512 -512 -512 -512 -512 -512 -512 -512 -512 -512 -512 -512 -512 -512 -512 -512 -512 -512 -512 -512 -512 -512 -512 -512 -512 -512 -512 -512 -512 -512 -512 -512 -512 -512 -512 -512 -512 -512 -512 -512 -512 -512 -512 -78.25497356321063 -512 -492.6697617769917 -512 -512 -512 -512 -512 -512 -512 -476.2998845177192 -512 -512 -512 -512 -512 -512 -512 -512 -512 -512 -512 -512 -512 -512 -512 -512 -512 -512 -512 -512 -512 -512 -512 -512 -512 -512 -512 -512 -512 -222.9796977198402 -512 -512 -512 -512 -512 -512 -512 -512 -512 -512 -512 -512 -512 -512 -512 -512 -512 -512 -512 -512 -512 -512 -512 -512 -512 -512 -512 -512 -512 -512 -512 -512 -512 -512 -512 -512 -512 -512 -512 -512 -512 -512 -512 -512 -512 -512 -512 -512 -512 -476.4084977730929 -512 -512 -512 -512 -512 -512 -512 -512 -512 -512 -512 -512 -512 -512 -512 -512 -512 -425.6280477531952 -512 -512 -512 -512 -512 -512 -512 -512 -512 -512 -512 -512 -512 -512 -512 -512 -512 -512 -512 -512 -512 -512 -512 -512 -512 -512 -512 -512 -512 -512 -512 -512 -512 -512 -512 -512 -512 -512 -512 -512 -512 -512 -512 -512 -512 -512 -512 -166.8161185183374 
