svm_type c_svc
kernel_type rbf
gamma 0.0078125
nr_class 6
nr_binary 6
total_sv 1519
rho -3.27031 -24.1964 4.2673 67.9186 56.8728 13.312
label 1 2 3 4 5 6
nr_sv 115 57 275 412 207 453
nr_sv_binary 166 93 472 830 364 777
I 1
1 0
5 1 2 3 4 5
1 1
5 0 2 3 4 5
1 2
5 0 1 3 4 5
1 3
5 0 1 2 4 5
1 4
5 0 1 2 3 5
1 5
5 0 1 2 3 4
alpha
0 1 2 3 4 5 7 8 9 10 14 15 16 24 25 26 27 30 31 32 33 34 35 40 42 44 45 46 49 53 54 56 57 58 60 63 64 67 70 71 72 73 74 76 78 79 80 82 83 84 85 86 88 89 90 92 93 94 95 96 97 98 99 100 101 102 104 105 106 107 108 109 110 111 112 113 114 115 124 128 131 152 179 183 186 187 194 196 197 205 295 326 336 353 359 360 361 364 374 387 389 395 401 402 404 405 406 418 422 423 428 434 435 436 441 442 470 471 472 487 503 506 568 838 864 871 877 878 904 905 906 907 908 909 918 921 928 929 930 931 932 952 953 954 955 956 957 958 961 985 993 995 1005 1007 1008 1013 1016 1024 1036 1041 1044 1046 1058 1217 1221 1245 
512 512 512 512 512 512 512 512 512 82.04648459835056 294.1109160403414 512 512 512 512 183.0777157333344 512 512 512 512 512 64.05737955982073 512 512 512 221.1199857829914 512 512 488.5408972980827 196.9259447299935 512 512 512 512 512 210.8767977213793 512 512 512 512 23.12851717526097 12.68004536704516 512 512 512 512 512 512 512 439.8980535418627 512 512 119.2814258702053 512 512 20.95666975448917 512 512 512 512 512 512 512 287.7119197980101 341.5403289380087 512 512 512 512 512 512 512 512 512 512 512 512 -23.61284365339001 -328.5646509122801 -329.9646466420417 -2.001495470300474 -21.23698049730637 -512 -207.3174942702626 -512 -278.8082161515395 -6.532447759176461 -512 -512 -68.08303360340277 -512 -512 -435.2165077511606 -512 -512 -512 -332.9090482183877 -512 -512 -79.70572531475335 -512 -512 -512 -512 -512 -512 -255.2033877045104 -100.4705123338978 -512 -512 -192.9157755478235 -512 -130.0475184110653 -512 -42.89888845009212 -512 -512 -512 -512 -512 -512 -512 -98.32787992830035 -91.02088303434617 -241.9348055843038 -512 -512 -512 -397.4101755304123 -199.3039585985632 -512 -69.06095096167313 -512 -512 -512 -130.634007551842 -512 -512 -512 -512 -512 -512 -512 -512 -512 -512 -512 -512 -169.549485317345 -512 -512 -512 -115.3310559334811 -512 -512 -104.5836730873983 -298.9367067598072 -185.7281793543722 -512 -512 -512 -276.1416995473907 -79.17375763445939 -512 -512 -253.3266903940907 
40 46 55 116 117 118 119 121 122 123 125 127 128 129 130 133 134 135 137 138 140 141 142 143 144 145 146 147 150 151 152 153 157 158 159 160 161 162 164 165 166 168 169 170 175 194 199 408 441 452 481 521 523 527 532 534 561 579 621 702 745 864 883 925 927 941 943 950 965 969 974 978 979 981 983 998 1001 1006 1014 1015 1016 1018 1023 1025 1029 1031 1054 1060 1298 1299 1301 1302 1461 
-127.3276797893284 -215.4511378958774 -214.4629375854035 104.7762421532368 512 512 512 512 512 512 463.4124023030191 512 512 276.4064282147567 512 165.4686755867563 391.6920219519163 512 212.4294736982909 512 512 62.8832104819432 142.2984108496087 512 512 512 512 407.6365940104909 317.7933561952573 94.49417662095281 512 512 255.9046662804145 123.2924844604869 512 512 428.4103395449744 512 512 242.1412464921256 512 135.4775307496963 512 512 -512 -260.3241842951914 -280.3430899401555 -512 -68.00966751709934 -432.5018319476808 -358.6794935865388 -236.800442600396 -512 -201.2368934208493 -106.6918522652285 -200.8732022161763 -140.5726705102138 -94.78163153935701 -512 -512 -481.8134122269591 -52.67452349620966 -222.3639964629947 -512 -396.3312305450952 -512 -346.2558858540733 -58.06685951491981 -236.1547733685087 -263.834400412944 -235.9128181553743 -508.4987789949583 -512 -106.8143206750875 -512 -31.33180212172022 -512 -512 -512 -325.6645754607 -512 -369.7316669072395 -101.699864628146 -395.1999217370689 -512 -121.1972124576838 -346.7848035049945 -99.54307574712475 -274.087480980831 -512 -512 -512 -8.499141231797703 
3 6 7 8 11 15 20 26 31 76 77 81 82 83 85 86 87 88 90 91 93 94 95 97 98 99 101 103 104 105 106 107 108 110 111 112 113 114 120 123 163 172 173 174 175 176 177 178 179 180 181 182 183 184 186 187 188 189 190 191 192 193 194 195 196 197 198 199 200 201 202 203 204 205 206 207 208 209 210 211 212 213 214 215 217 218 219 220 221 222 223 224 225 226 227 228 229 230 231 232 233 234 235 236 237 238 239 240 241 242 243 244 245 246 247 248 249 250 252 253 254 255 256 258 259 260 261 262 263 264 265 266 267 268 269 270 271 272 273 274 275 276 277 278 279 280 281 283 284 285 286 287 288 289 290 291 292 293 295 296 297 298 299 301 302 303 304 305 306 307 308 309 310 311 312 314 315 321 322 323 324 325 326 327 328 329 331 334 337 338 339 340 342 343 344 345 346 347 348 349 350 351 352 353 354 355 356 357 358 359 361 362 363 364 365 366 367 368 370 371 372 373 375 376 377 378 380 381 383 384 385 386 387 388 389 390 391 392 394 395 396 398 399 403 404 405 406 407 410 411 412 414 415 416 417 419 423 424 425 426 427 428 431 432 433 434 435 436 437 438 439 440 441 442 443 444 445 446 458 486 562 602 608 614 615 619 633 636 650 653 662 663 681 682 683 686 687 688 691 693 695 697 699 701 703 705 706 708 709 716 719 720 722 723 726 727 731 733 735 736 737 738 739 741 742 743 744 746 747 749 753 754 755 756 759 760 761 762 763 764 766 767 769 771 772 773 774 775 776 777 778 779 780 781 782 783 784 785 786 787 788 789 790 791 792 794 795 796 797 798 799 800 801 802 803 804 805 806 807 808 809 810 811 813 814 815 816 817 818 819 820 821 822 824 825 826 827 828 829 830 831 832 833 834 835 836 837 838 839 841 842 843 844 848 980 1038 1044 1046 1058 1092 1123 1174 1176 1195 1205 1213 1262 1311 1325 1327 1341 1342 1346 1351 1356 1366 1370 1373 1389 1399 1402 1403 1404 1407 1411 1414 1415 1430 1440 1443 1454 1457 1464 1471 1473 1476 1479 1484 1485 1487 1488 1489 1490 1492 1493 1495 1497 1500 1501 1502 1503 1504 
-512 -512 -512 -166.7018647381608 -512 -512 -512 -512 -512 -512 -512 -179.0829221727465 -512 -512 -174.6566018320065 -512 -512 -347.8997724536848 -512 -218.1173048925656 -512 -512 -512 -512 -512 -512 -512 -196.1893527271968 -512 -512 -512 -512 -480.7145875797084 -512 -512 -512 -501.3502897011072 -512 -415.1100926257922 -108.2606667148209 -14.79491502475684 512 396.6829008242513 512 512 512 512 512 512 512 512 512 512 512 185.7956542822983 512 512 512 512 512 512 388.416541120034 512 512 512 512 512 289.0893316719186 512 512 512 512 512 512 512 512 512 512 512 512 512 512 512 512 512 512 512 512 512 512 512 512 512 512 512 512 512 512 512 512 512 512 512 512 512 512 512 512 512 512 512 203.9884290506256 512 512 512 512 512 358.00952442838 512 512 512 512 512 512 512 512 512 512 512 512 512 512 163.4778907308357 512 512 352.7531622171958 512 512 512 512 512 512 512 512 512 512 512 512 512 512 512 512 512 512 512 512 512 512 512 512 512 512 241.1086649601726 512 512 512 512 512 512 478.3281667542738 512 512 13.92381371818986 512 512 512 512 107.1946554905704 512 512 128.0010226176061 512 512 512 512 512 512 512 512 512 512 51.70412520785641 512 512 512 271.5635310784627 512 511.2399195167898 512 512 512 512 385.0741391672548 512 512 512 512 511.4980524399336 512 512 13.76433361525822 512 512 512 512 512 512 512 512 166.0315313529308 512 512 512 512 512 512 512 512 512 512 512 512 512 512 512 512 512 512 512 512 512 512 512 512 512 512 26.84088184328957 512 512 512 512 512 488.7313269063694 512 512 512 512 512 169.6359660106228 132.6975432876903 358.887121752604 512 512 75.52640646212424 512 512 512 512 512 322.3876528108322 512 512 512 313.7066977794349 373.7461066781773 165.4124904645142 61.42574144343835 512 -512 -512 -512 -512 -512 -512 -512 -512 -512 -512 -512 -26.04554075675274 -512 -46.73118052964953 -512 -512 -512 -512 -512 -512 -512 -512 -512 -512 -512 -512 -512 -512 -178.5807170406414 -512 -512 -512 -512 -512 -512 -512 -512 -512 -512 -512 -512 -512 -512 -512 -512 -334.57682416554 -512 -512 -512 -512 -512 -512 -512 -512 -512 -512 -512 -512 -512 -512 -512 -512 -512 -512 -512 -512 -512 -512 -512 -512 -512 -512 -512 -512 -512 -512 -512 -512 -512 -512 -512 -512 -512 -512 -512 -512 -512 -512 -512 -512 -512 -512 -512 -512 -512 -512 -512 -512 -512 -512 -512 -512 -512 -512 -512 -512 -512 -512 -512 -512 -512 -512 -512 -512 -512 -512 -512 -512 -512 -512 -512 -512 -490.2402984579741 -512 -512 -512 -512 -512 -512 -512 -512 -512 -512 -512 -512 -177.3526541648532 -512 -63.91566350289884 -280.7739778941059 -512 -19.38812105910121 -512 -512 -512 -512 -512 -123.8900585148327 -512 -484.8304465742344 -512 -512 -512 -404.7132172043388 -512 -512 -512 -512 -512 -397.0260022086628 -512 -512 -512 -512 -512 -512 -512 -172.3533545333764 -512 -512 -512 -512 -512 -512 -512 -512 -512 -438.2656045969003 -512 -512 -512 -512 -512 -512 -241.0812940175311 -512 -512 -512 -512 -512 -512 -512 -512 -512 -512 
5 16 17 22 23 27 29 37 38 39 47 51 61 66 78 79 80 117 118 123 145 153 156 162 164 166 170 174 189 190 191 194 195 198 200 202 203 204 206 208 209 211 212 213 215 217 218 220 221 222 224 226 228 230 231 233 234 235 236 237 239 240 241 242 243 245 247 248 249 250 253 255 256 257 258 259 260 261 262 263 264 265 269 270 271 272 275 277 278 279 280 282 283 284 285 286 288 290 291 292 294 296 297 300 301 303 304 308 309 311 312 313 316 317 318 319 320 322 324 325 327 328 329 331 332 333 334 335 337 338 341 342 344 345 346 349 350 351 354 356 357 358 363 366 367 368 369 372 375 376 377 378 379 380 382 384 385 386 388 392 393 394 396 397 399 400 409 410 411 413 414 419 420 421 429 430 431 432 433 437 440 447 448 449 450 451 452 453 454 455 456 457 458 459 460 461 462 463 464 465 466 467 468 469 470 471 472 473 474 475 476 477 478 479 480 481 482 483 484 485 486 487 488 489 490 491 492 493 494 495 496 497 498 499 500 501 502 503 504 505 506 507 508 509 510 511 512 513 514 515 516 517 518 519 520 521 522 523 524 525 526 527 528 529 531 532 533 534 535 536 537 538 539 540 541 542 543 544 545 546 547 548 549 550 551 552 553 554 555 556 557 558 559 560 562 563 564 565 566 567 568 569 570 571 572 573 574 575 576 577 578 579 580 581 582 583 584 585 586 587 588 589 590 591 592 593 594 595 596 597 598 599 600 601 602 603 604 605 606 607 608 609 610 611 612 613 614 615 616 617 618 619 620 621 622 623 624 625 626 627 628 629 630 631 632 633 634 635 636 637 638 639 640 641 642 643 644 645 646 647 649 650 652 653 654 655 656 657 658 659 660 661 662 663 664 665 666 667 668 669 670 671 672 673 674 675 676 677 678 679 680 681 682 683 684 685 686 687 688 689 690 691 692 693 694 695 696 697 698 699 700 701 702 703 704 705 706 707 708 710 711 712 713 714 715 716 717 719 720 721 722 723 724 725 726 727 728 730 731 732 733 734 735 736 737 738 739 740 741 742 743 744 745 746 747 748 749 750 751 752 753 754 755 756 757 758 759 760 761 762 763 764 765 766 767 768 769 770 771 772 773 774 775 776 777 778 779 780 781 782 783 784 785 786 787 788 789 790 791 792 793 794 795 796 797 798 799 800 801 802 803 804 805 806 807 808 809 810 811 812 813 814 815 816 817 818 819 820 821 822 823 824 825 826 827 828 829 830 831 832 833 834 835 836 837 838 839 840 841 842 843 844 845 846 847 848 849 850 851 852 853 854 855 856 857 858 876 938 1040 1066 1067 1072 1074 1075 1077 1079 1080 1084 1089 1090 1091 1092 1094 1095 1096 1097 1099 1108 1109 1110 1113 1114 1115 1119 1120 1121 1124 1125 1126 1127 1128 1130 1131 1132 1133 1134 1135 1137 1138 1140 1141 1143 1145 1148 1149 1150 1151 1153 1156 1157 1158 1162 1165 1166 1168 1169 1171 1172 1173 1174 1176 1179 1180 1181 1186 1189 1199 1200 1204 1208 1210 1216 1218 1220 1222 1223 1227 1228 1230 1240 1241 1242 1244 1247 1250 1255 1256 1266 1280 1295 1296 1298 1299 1307 1308 1309 1310 1313 1314 1317 1319 1321 1323 1324 1325 1327 1328 1330 1333 1336 1337 1338 1340 1341 1342 1343 1344 1345 1346 1347 1348 1349 1350 1351 1352 1354 1355 1357 1358 1359 1360 1361 1362 1363 1364 1367 1368 1372 1373 1374 1375 1376 1377 1378 1379 1380 1381 1382 1383 1384 1385 1386 1387 1388 1389 1391 1393 1394 1395 1396 1397 1398 1399 1400 1401 1403 1404 1405 1406 1407 1408 1409 1413 1414 1415 1417 1419 1420 1421 1422 1423 1425 1426 1427 1429 1430 1431 1432 1434 1436 1437 1438 1439 1440 1441 1442 1443 1447 1448 1449 1450 1451 1453 1454 1456 1457 1458 1459 1460 1463 1464 1465 1466 1467 1468 1471 1472 1473 1474 1476 1477 1483 1484 1485 1487 1489 1492 1495 1497 1500 1501 1506 1507 1508 1509 1510 1511 1513 1516 1517 
-512 -512 -512 -74.31049584717698 -222.3028732701916 -512 -185.7064135223193 -512 -512 -73.87145035600712 -512 -512 -512 -512 -512 -512 -512 -512 -512 -188.7224274810253 -68.98781247091885 -365.5122024014128 -209.8082553769626 -70.00940800817121 -512 -508.8148291903231 -512 -512 -512 -512 -512 -82.94727496801048 -512 -512 -512 -512 -512 -512 -512 -512 -512 -512 -512 -512 -512 -512 -512 -512 -512 -512 -512 -512 -341.9199099751066 -512 -512 -512 -512 -512 -512 -512 -512 -512 -512 -512 -512 -512 -512 -512 -512 -207.2217114644705 -512 -512 -512 -512 -512 -512 -512 -512 -512 -71.8845602230997 -512 -512 -512 -512 -512 -512 -512 -512 -512 -512 -259.8262918402814 -512 -512 -512 -512 -512 -512 -512 -512 -512 -512 -512 -512 -207.8446704876534 -512 -512 -512 -512 -512 -512 -512 -512 -512 -512 -512 -512 -512 -512 -512 -512 -512 -415.9713348815923 -47.20401530013406 -512 -512 -512 -512 -512 -512 -120.0286165231755 -512 -512 -512 -512 -512 -512 -512 -512 -512 -512 -512 -512 -512 -512 -435.3368799069982 -512 -512 -512 -512 -50.48241436301186 -512 -512 -512 -512 -426.0608662085968 -512 -512 -512 -512 -512 -512 -512 -512 -512 -149.6715606656816 -512 -512 -512 -512 -512 -512 -512 -512 -512 -512 -512 -512 -512 -512 -281.5314968760968 -213.7165660163744 512 512 512 512 512 44.18229850980588 512 512 512 512 512 512 512 512 512 512 512 512 512 512 512 512 512 512 512 512 512 512 512 512 512 512 512 512 512 512 512 512 512 512 512 512 512 512 512 512 512 512 512 512 512 512 512 512 512 512 512 512 512 512 512 512 512 512 512 512 512 512 512 512 512 512 512 512 512 512 512 512 512 512 512 512 512 512 199.1909002906411 512 512 512 512 512 512 512 512 512 512 512 512 512 512 512 512 512 512 512 512 512 512 512 512 512 512 512 512 512 512 512 512 37.70609152347428 512 512 512 512 512 512 512 512 512 512 512 512 512 512 512 512 512 512 512 512 512 512 512 512 512 512 512 512 512 512 512 512 512 512 512 512 512 512 512 512 512 512 512 512 512 512 512 512 512 512 512 512 512 512 512 512 512 512 512 512 512 373.0530894876288 512 512 512 512 512 512 512 512 512 512 512 512 512 512 512 512 512 512 512 512 512 512 512 512 512 512 512 512 512 512 512 512 512 512 512 512 512 512 512 512 290.4553980816767 512 512 512 512 512 512 512 512 512 512 512 512 512 512 512 512 512 512 512 512 512 512 512 512 512 512 512 512 512 512 512 512 512 512 512 512 512 512 512 512 512 512 512 512 512 512 512 512 512 512 512 512 512 512 512 512 512 114.7864033751016 512 512 512 512 512 512 512 512 512 512 512 512 512 512 512 512 512 512 512 512 512 512 512 512 512 512 512 512 512 512 512 512 512 512 512 512 512 512 512 512 512 512 512 512 512 512 512 512 512 512 512 512 512 512 512 512 512 512 512 512 512 512 512 512 512 512 512 512 512 512 512 512 512 512 512 512 512 512 512 512 512 512 512 512 512 512 512 512 512 512 512 512 512 512 512 512 512 512 512 512 512 512 512 512 512 512 512 512 512 512 512 512 512 512 512 512 512 512 512 512 512 512 512 512 512 512 -512 -512 -140.4287187926552 -512 -512 -7.21053189198284 -512 -512 -512 -512 -512 -512 -512 -512 -512 -512 -512 -512 -512 -512 -512 -512 -512 -512 -512 -512 -512 -143.4668599572409 -512 -512 -512 -512 -512 -512 -512 -512 -512 -512 -512 -512 -512 -512 -512 -512 -319.7884495415274 -512 -512 -512 -512 -512 -512 -256.6386298569104 -512 -512 -512 -512 -512 -512 -512 -512 -93.93800910208176 -512 -512 -156.2047056665322 -512 -512 -512 -512 -512 -512 -512 -512 -112.7294279289684 -512 -512 -512 -512 -512 -512 -500.4774069583825 -394.7106731407395 -512 -512 -512 -512 -512 -512 -512 -512 -512 -512 -512 -483.8016843620874 -512 -441.8673447220114 -512 -512 -512 -512 -512 -315.3643730685483 -512 -422.4028910632375 -370.4247951678168 -512 -512 -512 -512 -512 -512 -512 -512 -512 -512 -512 -512 -512 -512 -512 -512 -512 -512 -512 -512 -512 -512 -512 -512 -512 -512 -512 -512 -512 -512 -512 -512 -512 -512 -512 -512 -512 -512 -428.0148096980624 -512 -512 -512 -512 -512 -512 -512 -512 -512 -512 -512 -512 -512 -512 -512 -512 -512 -406.7111924994426 -512 -512 -512 -512 -512 -512 -512 -512 -512 -512 -512 -512 -512 -512 -512 -512 -512 -512 -512 -512 -512 -512 -512 -512 -380.6633461615982 -512 -512 -512 -512 -512 -512 -512 -512 -512 -512 -512 -512 -512 -512 -512 -512 -512 -512 -512 -512 -512 -512 -512 -512 -512 -512 -512 -512 -512 -512 -512 -512 -512 -512 -512 -512 -512 -512 -327.2317016231174 -512 -512 -512 -512 -512 -512 -512 -61.49862241479052 -512 -512 -512 -512 -256.1056700258006 -512 -512 -512 -512 -512 -512 
0 2 4 8 9 12 13 18 19 21 24 28 30 31 32 35 36 41 42 43 45 48 49 50 52 53 54 56 57 58 59 60 62 63 64 65 68 69 72 73 74 75 76 80 83 90 96 102 109 117 118 119 121 122 123 126 127 130 132 133 134 135 136 139 140 142 145 146 148 149 154 155 158 160 162 165 167 168 170 171 185 187 295 307 330 449 478 490 500 514 515 521 527 734 740 847 859 860 861 862 863 865 866 867 868 869 870 871 872 873 874 875 876 877 878 879 880 881 882 884 885 886 887 888 889 890 891 892 893 894 895 896 897 898 899 900 901 902 903 904 905 906 908 909 910 911 912 913 914 915 916 917 918 919 920 921 923 926 928 929 930 931 932 933 934 935 937 938 939 940 942 944 946 948 949 950 951 952 953 954 955 956 957 958 959 960 961 962 963 966 967 968 970 971 972 973 975 977 980 982 983 984 985 986 987 988 989 990 992 993 994 995 996 997 999 1000 1002 1004 1005 1006 1007 1008 1009 1010 1012 1013 1014 1016 1017 1018 1019 1020 1021 1022 1024 1026 1027 1028 1029 1030 1031 1032 1033 1034 1035 1036 1037 1038 1039 1040 1041 1042 1044 1045 1046 1047 1048 1049 1050 1051 1052 1053 1055 1056 1058 1059 1060 1061 1062 1063 1065 1066 1076 1077 1081 1082 1087 1088 1098 1100 1101 1103 1104 1105 1106 1107 1136 1144 1146 1147 1154 1155 1156 1160 1161 1164 1178 1182 1183 1187 1188 1193 1194 1198 1201 1202 1203 1206 1207 1209 1211 1212 1233 1236 1237 1238 1239 1248 1252 1258 1259 1260 1264 1267 1268 1269 1270 1271 1272 1273 1274 1275 1277 1281 1282 1283 1285 1286 1287 1288 1289 1290 1291 1293 1297 1300 1303 1312 1316 1317 1319 1334 1369 1390 1392 1412 1413 1428 1446 1455 1462 1486 1505 1514 
-512 -512 -512 -512 -512 -512 -337.2027657182059 -512 -305.7651996042939 -512 -512 -320.8559850595051 -86.10856726937926 -101.6191123852799 -512 -451.8734622183655 -80.36468785298617 -512 -512 -512 -512 -512 -512 -512 -512 -321.9108136424506 -512 -512 -512 -512 -59.56958626286574 -512 -512 -512 -512 -512 -512 -283.9407422281727 -469.6186498973985 -512 -512 -512 -203.012006885558 -512 -512 -205.5386215758785 -512 -459.3991086169607 -512 -16.17322551303553 -512 -173.6165591525488 -114.0284938440262 -512 -512 -401.1014752568796 -512 -512 -512 -512 -317.8221255459748 -512 -512 -512 -512 -512 -117.4920461112761 -512 -512 -133.1506153544578 -512 -90.94635037065459 -512 -185.4239082076905 -248.1423079703804 -474.3250147419705 -27.7423259897041 -191.4267175961681 -512 -512 -512 -512 -113.7748424770955 -512 -277.1405906250069 -512 -512 -512 -512 -512 -512 -315.4670234003615 -512 -512 -57.8717323521283 -473.189144662856 512 512 512 512 512 512 512 512 512 512 512 512 512 512 512 512 512 512 512 512 512 512 512 512 512 512 512 153.3597106864484 512 512 512 512 512 512 512 512 512 512 512 512 512 512 512 512 512 512 512 512 512 512 512 512 512 512 512 512 512 512 512 512 512 375.3990010555999 512 512 512 512 512 512 512 512 512 512 512 475.5327375814804 512 512 391.3068405438451 512 512 512 512 512 512 512 512 512 512 512 512 512 512 512 512 512 512 512 115.8827416627262 218.9422432890209 512 512 512 420.8903863845601 468.7021236014848 512 512 512 512 512 24.50675991941726 512 512 512 42.10280336831077 512 512 512 512 1.483642327496922 512 206.885911473461 512 437.3431049972815 162.1955310010958 496.1566703630895 512 512 512 512 90.01957938721259 512 512 512 512 81.29609876976409 512 112.4074980179015 7.230909949018429 512 512 512 155.8692032298213 384.9951543754391 512 512 512 512 512 512 512 512 512 512 354.2116909887296 512 512 512 512 512 512 512 512 512 512 352.8170973152294 512 512 512 512 512 512 356.1995243330934 512 512 512 512 -512 -512 -512 -512 -512 -512 -310.3341916365797 -512 -164.1709409623449 -512 -512 -512 -163.4814080201782 -512 -512 -512 -512 -512 -512 -512 -512 -512 -512 -512 -512 -512 -512 -512 -512 -512 -512 -434.6947664741287 -512 -408.4314994310331 -512 -512 -512 -512 -78.3321640138868 -512 -385.6694027508813 -512 -512 -512 -280.6821030963162 -512 -320.1205356614253 -512 -512 -297.9768218808883 -512 -512 -512 -512 -512 -512 -512 -399.6757509858491 -512 -512 -512 -512 -512 -512 -512 -512 -512 -512 -512 -512 -512 -512 -512 -512 -512 -512 -512 -512 -430.9422297750268 -512 -512 -363.663995023063 -512 -512 -512 -68.37195045104423 -331.895658836332 -27.67951404684569 -36.8274016520804 -111.172821534112 -512 -512 -512 
121 127 140 143 177 181 182 188 210 213 216 220 232 243 247 248 251 255 267 276 291 293 302 307 309 337 350 383 424 439 441 446 447 448 449 450 451 453 454 455 456 457 458 459 460 461 462 463 464 465 466 467 468 469 473 474 475 476 477 479 480 482 483 485 488 489 490 491 492 493 494 495 496 497 498 499 501 502 503 504 505 507 508 509 510 511 512 513 517 518 520 521 522 524 526 527 528 529 530 531 534 535 536 537 540 541 542 543 544 545 546 547 548 549 550 551 552 553 554 555 557 558 559 560 563 564 565 566 567 569 570 571 572 573 574 575 576 577 578 580 581 582 583 584 585 586 587 588 589 590 591 592 593 594 595 596 597 598 599 600 601 603 604 605 606 607 608 609 610 611 617 618 619 620 622 623 624 625 626 627 628 629 630 631 633 634 635 637 638 639 640 641 642 643 644 645 646 647 648 649 651 652 653 654 655 656 657 658 659 660 664 665 666 667 668 669 670 671 673 674 675 676 677 678 679 680 683 684 685 687 688 689 690 692 694 696 698 700 701 704 706 707 708 710 711 712 713 715 716 717 718 720 721 724 728 729 730 733 734 736 737 741 750 751 752 756 757 758 764 765 768 770 812 831 836 840 845 847 848 849 850 852 853 855 856 857 858 859 860 861 862 863 865 867 868 870 872 873 874 875 879 880 881 882 884 885 886 887 889 890 891 892 893 894 895 896 897 898 899 900 901 902 903 911 912 913 914 915 916 919 920 922 923 924 933 935 936 938 940 944 945 947 948 949 950 959 960 961 962 963 964 966 968 975 976 982 989 991 992 1002 1003 1009 1010 1011 1012 1017 1032 1033 1034 1035 1037 1039 1040 1042 1043 1045 1047 1048 1049 1051 1053 1055 1056 1057 1058 1059 1060 1061 1062 1063 1064 1066 1068 1069 1070 1071 1072 1073 1074 1075 1077 1078 1079 1083 1085 1086 1087 1088 1089 1091 1092 1093 1096 1100 1101 1102 1103 1104 1105 1106 1109 1111 1112 1113 1114 1115 1116 1117 1118 1119 1120 1121 1122 1123 1124 1125 1126 1127 1128 1129 1130 1132 1133 1134 1136 1139 1141 1142 1143 1144 1145 1146 1147 1148 1149 1150 1151 1152 1154 1155 1156 1157 1158 1159 1160 1161 1162 1163 1165 1166 1167 1168 1169 1170 1171 1172 1174 1175 1176 1177 1178 1179 1180 1182 1183 1184 1185 1187 1188 1189 1190 1191 1192 1193 1195 1196 1197 1198 1199 1203 1204 1205 1206 1207 1208 1210 1213 1214 1215 1216 1217 1218 1219 1220 1221 1222 1224 1225 1226 1227 1228 1229 1230 1231 1232 1233 1234 1235 1239 1241 1242 1243 1245 1246 1247 1249 1251 1252 1253 1254 1255 1256 1257 1258 1259 1260 1261 1262 1263 1265 1266 1267 1269 1270 1271 1274 1275 1276 1278 1279 1281 1282 1283 1284 1285 1286 1287 1288 1289 1290 1291 1292 1293 1294 1297 1298 1299 1300 1301 1302 1303 1304 1305 1306 1307 1308 1309 1310 1311 1312 1314 1315 1316 1317 1318 1319 1320 1321 1322 1323 1324 1325 1326 1327 1328 1329 1330 1331 1332 1334 1335 1336 1338 1339 1340 1341 1342 1343 1344 1345 1346 1348 1349 1350 1351 1352 1353 1354 1355 1356 1358 1360 1361 1362 1363 1364 1365 1366 1367 1368 1370 1371 1372 1373 1375 1376 1377 1378 1379 1380 1381 1382 1383 1384 1385 1386 1387 1388 1389 1390 1391 1394 1395 1397 1398 1399 1400 1401 1402 1403 1404 1405 1406 1407 1408 1409 1410 1411 1412 1413 1414 1415 1416 1417 1418 1419 1420 1421 1422 1423 1424 1425 1426 1427 1428 1429 1430 1431 1432 1433 1434 1435 1436 1437 1438 1439 1440 1441 1442 1443 1444 1445 1446 1447 1448 1449 1450 1451 1452 1453 1454 1456 1457 1458 1459 1460 1461 1462 1463 1464 1465 1466 1467 1468 1469 1470 1471 1472 1473 1474 1475 1476 1477 1478 1479 1480 1481 1482 1483 1484 1485 1487 1488 1489 1490 1491 1492 1493 1494 1495 1496 1497 1498 1499 1500 1501 1502 1503 1504 1505 1507 1510 1511 1512 1514 1515 1518 
-512 -512 -259.8223550551813 -132.3689246971696 -271.0445243993809 -512 -512 -122.9734974953743 -512 -512 -512 -512 -414.2352382805068 -512 -512 -196.870634058475 -512 -512 -10.26958841703744 -512 -512 -512 -512 -512 -512 -512 -512 -512 -28.34628995315538 -512 -512 -512 -512 -512 -512 -512 -512 -512 -512 -512 -512 -512 -512 -512 -512 -512 -254.9806727400589 -512 -512 -512 -512 -512 -512 -512 -512 -512 -512 -512 -512 -71.43860049727225 -512 -512 -512 -512 -512 -512 -512 -512 -512 -512 -512 -512 -84.20406338888502 -512 -512 -512 -512 -512 -512 -512 -512 -512 -512 -512 -512 -512 -512 -512 -512 -512 -512 -512 -512 -512 -512 -438.2220461148905 -139.871791236733 -512 -512 -512 -477.6322969670508 -512 -512 -99.66524325219235 -512 -512 -512 -512 -512 -512 -512 -512 -512 -512 -512 -512 -512 -512 -512 -512 -445.9699891015323 -512 -512 -512 -512 -512 -512 -512 -512 -512 -512 -512 -512 -512 -512 -512 -512 -512 -512 -512 -512 -512 -512 -512 -512 -512 -512 -512 -512 -512 -512 -512 -512 -512 -512 -512 -512 -512 -512 -512 -512 -512 -512 -512 -512 -43.6666720310288 -512 -512 -512 -512 -512 -512 -512 -512 -512 -512 -512 -512 -512 -512 -512 -512 -512 -512 -169.008630101484 -512 -512 -512 -512 -512 -512 -512 -512 -512 -512 -512 -512 -512 -512 -512 -512 -512 -512 -512 -512 -512 -512 -512 -512 -512 -512 -512 -512 -512 -512 -512 -512 -512 -512 -512 -512 -512 -512 -512 -512 -512 -172.3012462096031 -512 -512 -512 -512 -512 -512 -512 -512 -512 -512 -512 -512 -512 -512 -512 -89.22516369899127 -512 -512 -512 -512 -512 -512 -512 -512 -512 -512 -512 -512 -82.55479829726123 -512 -120.8549003437714 -445.8204777545129 -512 -512 -512 -512 -512 -512 -512 -512 -512 -512 -512 -512 -512 -512 -436.1709103447301 -250.8862954510641 -512 -512 -512 -284.4526235632525 -512 -512 -512 -512 -512 -512 -512 -512 -512 -512 -512 -512 -512 -512 -512 -512 -512 -512 -512 -512 -512 -512 -512 -512 -512 -512 -512 -512 -512 -512 -512 -512 -512 -512 -512 -512 -512 -512 -512 -512 -512 -512 -512 -512 -512 -512 -512 -512 -512 -512 -512 -512 -240.2022278006537 -512 -512 -512 -512 -512 -512 -512 -512 -512 -41.01613435233345 -512 -512 -512 -512 -370.4836483089899 -512 -512 -512 -512 -512 -512 -512 -414.6665024684681 -512 -512 -512 -512 -489.5920025243267 -512 -512 -147.1128958197722 -25.15829087708342 -394.8585841605345 -512 -512 -512 -512 -512 -512 -150.7359716074945 -512 -512 -183.2351024754261 -512 -512 -512 -512 -512 -512 -512 -512 -512 -512 -512 -512 -512 -512 -512 -512 512 512 511.3208427120553 512 512 512 512 512 512 512 512 512 512 512 512 512 512 512 512 512 512 512 512 512 512 512 512 188.2425046103234 46.96182150502575 512 102.2155724274984 512 512 273.9967170384862 512 132.5578627298873 512 512 512 512 512 512 512 512 491.4866093631331 512 512 512 512 512 512 512 512 512 512 512 121.463675827616 512 512 512 512 512 512 512 512 418.7672363924905 512 468.9636251707887 512 512 512 113.9187987529784 200.692147350196 512 512 512 54.96412175948448 512 344.5423424175455 512 512 512 512 512 512 512 512 512 512 512 512 512 512 512 512 512 512 512 512 512 59.45061281669975 512 512 512 512 512 512 512 512 512 512 512 512 512 512 512 512 512 512 512 512 512 512 512 512 512 512 47.51506668877215 512 512 512 512 512 59.10891939325034 512 512 512 512 512 512 242.4465079546713 512 512 512 512 512 512 84.04763444251888 267.5939970980753 490.770775941352 512 512 512 512 512 512 512 512 512 512 512 512 512 512 512 512 426.9648561361197 512 512 512 512 512 512 512 512 512 512 512 512 512 150.1956458839505 19.91993549462698 512 512 512 512 512 512 512 512 512 512 512 512 512 512 512 512 512 512 512 512 512 512 512 185.3750557935629 512 512 512 512 512 469.4351160065996 512 512 512 512 512 512 329.3188440364922 512 512 512 512 512 512 512 512 512 512 512 512 512 512 512 512 512 512 512 512 512 512 512 512 512 512 512 512 512 512 478.3341918265481 512 512 512 512 512 512 512 512 512 512 512 512 512 512 512 512 512 512 512 512 512 512 512 512 512 512 512 512 512 512 512 512 512 512 512 509.9564137024169 512 512 512 512 512 512 512 512 512 512 512 512 512 512 512 512 512 512 512 512 512 512 512 512 512 512 512 512 512 512 512 512 512 512 512 512 512 512 512 512 512 512 512 512 512 512 512 512 512 512 512 512 512 512 512 512 512 512 512 512 512 512 512 512 512 512 512 512 512 512 512 512 512 512 512 512 512 512 512 512 512 512 512 512 512 197.3913825725044 512 512 512 512 512 512 512 512 512 512 512 512 512 512 
SV
1:-0.03125 2:0.0181818 3:-0.047619 4:-0.140496 5:-0.225806 6:-0.0545455 7:-0.0315789 8:-0.1875 9:-0.375 10:0.0873786 11:0.0526316 12:-0.1875 15:-0.0652174 16:-0.220339 17:-0.28125 18:-0.0679612 19:-0.0361446 20:-0.203252 21:-0.138462 22:0.0873786 23:0.2 24:-0.072 25:0.3125 26:0.230769 27:0.0804598 28:-0.0833333 29:-0.169231 30:-0.128713 31:-0.284211 32:-0.234375 33:-0.28125 34:0.00970874 35:-0.0315789 36:-0.125 
1:-0.03125 2:0.0909091 3:0.047619 4:-0.206612 5:0.290323 6:0.309091 7:0.221053 8:-0.078125 9:0.375 10:0.553398 11:0.431579 12:0.046875 13:0.129032 14:0.538462 15:0.304348 17:0.09375 18:0.475728 19:0.373494 20:0.00813008 21:0.107692 22:0.398058 23:0.311111 24:0.072 25:0.0625 26:0.403846 27:0.356322 28:-0.0333333 29:-0.0461538 30:0.445545 31:0.305263 32:-0.015625 33:-0.1875 34:0.339806 35:0.221053 36:-0.015625 
1:-0.03125 2:0.309091 3:0.285714 4:0.00826446 5:-0.129032 6:-0.0909091 7:-0.0105263 8:-0.21875 9:-0.28125 10:-0.242718 11:-0.157895 12:-0.21875 13:-0.129032 14:0.346154 15:0.326087 16:-0.0338983 17:-0.15625 18:0.106796 19:0.0843373 20:-0.138211 21:0.0769231 22:0.262136 23:0.222222 24:-0.024 25:0.125 26:0.519231 27:0.425287 29:0.138462 30:0.485149 31:0.284211 32:0.078125 33:0.25 34:0.631068 35:0.578947 36:0.140625 
1:-0.0625 2:0.0363636 3:0.0714286 4:-0.107438 5:0.354839 6:0.181818 7:0.157895 8:-0.046875 9:0.53125 10:0.533981 11:0.347368 12:0.015625 13:0.677419 14:0.692308 15:0.456522 16:0.169492 17:0.78125 18:0.708738 19:0.662651 20:0.105691 21:0.630769 22:0.533981 23:0.444444 24:-0.008 25:0.78125 26:0.807692 27:0.724138 28:0.15 29:0.507692 30:0.762376 31:0.515789 32:0.046875 33:0.625 34:0.475728 35:0.221053 36:-0.1875 
1:-0.125 2:0.0909091 3:0.142857 4:-0.0909091 5:-0.354839 6:-0.127273 7:-0.136842 8:-0.234375 9:-0.5 10:-0.203883 11:-0.305263 12:-0.296875 13:-0.129032 14:0.0769231 15:-0.0652174 16:-0.220339 17:-0.40625 18:-0.126214 19:-0.301205 20:-0.398374 21:-0.507692 22:-0.203883 23:-0.222222 24:-0.264 25:-0.0625 26:0.326923 27:0.172414 28:-0.0833333 29:-0.261538 30:0.029703 31:-0.2 32:-0.234375 33:-0.5 34:-0.300971 35:-0.284211 36:-0.359375 
1:-0.125 2:0.127273 3:0.0952381 4:-0.239669 5:-0.225806 6:0.0545455 7:-0.157895 8:-0.328125 9:-0.25 10:0.0485437 11:-0.157895 12:-0.265625 13:-0.0967742 14:0.384615 15:0.304348 16:-0.118644 17:-0.125 18:0.242718 19:-0.0361446 20:-0.284553 21:-0.230769 22:0.00970874 23:-0.0888889 24:-0.28 25:-0.03125 26:0.538462 27:0.494253 28:0.0333333 29:-0.138462 30:0.425743 31:0.242105 32:-0.15625 33:-0.28125 34:0.165049 35:-0.178947 36:-0.28125 
1:-0.125 2:0.363636 3:0.404762 4:-0.107438 5:-0.0967742 6:0.218182 7:0.0947368 8:-0.15625 9:-0.25 10:0.126214 11:-0.0736842 12:-0.328125 13:0.16129 14:0.634615 15:0.5 16:0.118644 17:0.125 18:0.650485 19:0.590361 20:0.0569106 21:-0.107692 22:0.475728 23:0.4 24:-0.056 25:0.375 26:0.711538 27:0.494253 28:0.0333333 29:0.107692 30:0.584158 31:0.536842 32:0.046875 33:-0.15625 34:0.553398 35:0.431579 36:-0.015625 
1:-0.15625 2:-0.0909091 3:-0.0238095 4:-0.173554 5:0.129032 6:0.163636 7:0.157895 8:-0.109375 9:0.21875 10:0.475728 11:0.263158 12:-0.046875 13:0.709677 14:0.692308 15:0.543478 16:0.0847458 17:0.65625 18:0.805825 19:0.638554 20:0.138211 21:0.323077 22:0.805825 23:0.644444 24:0.152 25:0.25 26:0.519231 27:0.218391 28:-0.05 29:0.261538 30:0.663366 31:0.473684 32:0.078125 33:0.125 34:0.631068 35:0.368421 36:0.015625 
1:-0.15625 2:-0.0909091 3:-0.0238095 4:-0.239669 5:-0.258065 6:-0.290909 7:-0.157895 8:-0.21875 9:-0.28125 10:0.0485437 11:0.0736842 12:-0.109375 13:-0.129032 14:0.0961538 15:0.0434783 16:-0.0847458 17:0.0625 18:0.262136 19:0.180723 20:-0.0894309 21:0.2 22:0.262136 23:0.333333 24:0.04 25:0.125 26:0.442308 27:0.333333 28:0.0666667 29:0.261538 30:0.663366 31:0.578947 32:0.140625 33:0.5 34:0.708738 35:0.705263 36:0.140625 
1:-0.15625 2:0.0181818 3:-0.047619 4:-0.239669 5:-0.387097 6:-0.181818 7:-0.263158 8:-0.34375 9:-0.53125 10:-0.203883 11:-0.263158 12:-0.28125 13:-0.0322581 14:0.326923 15:0.108696 16:-0.0508475 17:-0.28125 18:0.00970874 19:-0.228916 20:-0.284553 21:-0.476923 22:-0.300971 23:-0.244444 24:-0.344 25:-0.40625 26:-0.115385 27:0.0114943 28:-0.25 29:-0.384615 30:-0.0891089 31:-0.0947368 32:-0.28125 33:-0.28125 34:-0.106796 35:-0.0947368 36:-0.28125 
1:-0.15625 2:0.0363636 3:-0.119048 4:-0.173554 5:-0.129032 6:0.0363636 7:-0.0105263 8:-0.15625 9:-0.40625 10:-0.0291262 11:-0.157895 12:-0.28125 13:-0.258065 14:-0.0769231 15:-0.0434783 16:-0.20339 17:-0.28125 18:0.00970874 19:-0.301205 20:-0.252033 21:-0.353846 22:-0.0679612 23:-0.133333 24:-0.184 25:-0.375 26:0.0384615 27:-0.149425 28:-0.25 29:-0.107692 30:0.227723 31:0.178947 32:-0.09375 33:-0.125 34:0.378641 35:0.284211 36:-0.03125 
1:-0.15625 2:0.0363636 3:-0.119048 4:-0.305785 6:0.163636 7:0.0736842 8:-0.15625 9:0.09375 10:0.398058 11:0.157895 12:-0.109375 13:-0.129032 14:0.346154 15:0.0434783 16:-0.20339 17:0.0625 18:0.456311 19:0.39759 20:-0.0894309 21:0.0769231 22:0.708738 23:0.533333 24:0.088 25:0.125 26:0.615385 27:0.54023 29:0.138462 30:0.742574 31:0.473684 32:0.140625 34:0.708738 35:0.473684 36:0.140625 
1:-0.15625 2:0.163636 3:0.142857 4:-0.0247934 5:-0.387097 6:-0.127273 7:0.0526316 8:-0.15625 9:-0.40625 10:0.165049 11:0.136842 12:-0.015625 13:-0.0322581 14:0.403846 15:0.391304 16:0.0677966 17:-0.28125 18:0.0873786 19:0.156627 20:-0.105691 21:-0.384615 22:0.00970874 23:-0.0666667 24:-0.168 25:0.09375 26:0.557692 27:0.632184 28:0.0666667 29:-0.0153846 30:0.425743 31:0.263158 32:0.015625 33:-0.15625 34:-0.0291262 35:-0.0105263 36:-0.21875 
1:-0.15625 2:0.181818 3:0.0714286 4:-0.0578512 5:-0.354839 6:0.0363636 7:-0.0105263 8:-0.15625 9:-0.28125 10:-0.0679612 11:-0.0105263 12:-0.203125 13:-0.225806 14:0.115385 15:0.0652174 16:-0.152542 17:-0.375 18:0.0485437 19:-0.180723 20:-0.317073 21:-0.353846 22:0.0485437 23:-0.111111 24:-0.2 25:-0.375 26:0.153846 27:0.172414 28:-0.15 29:-0.353846 30:0.267327 31:0.221053 32:-0.125 33:-0.25 34:0.242718 35:0.326316 36:-0.078125 
1:-0.15625 2:0.236364 3:0.047619 4:-0.239669 5:0.129032 6:0.309091 7:0.242105 8:-0.09375 9:0.21875 10:0.631068 11:0.536842 12:0.109375 13:-0.258065 14:0.0769231 15:-0.0652174 16:-0.237288 17:-0.1875 18:0.242718 19:0.156627 20:-0.235772 21:0.0769231 22:0.417476 23:0.288889 24:0.008 25:-0.28125 26:0.0961538 27:-0.241379 28:-0.25 29:-0.138462 30:0.425743 31:0.157895 32:-0.109375 33:0.09375 34:0.650485 35:0.452632 36:0.125 
1:-0.15625 2:0.272727 3:0.380952 4:-0.0578512 5:-0.129032 6:0.0363636 7:0.0736842 8:-0.09375 9:0.0625 10:0.262136 11:0.157895 12:-0.046875 13:0.16129 14:0.519231 15:0.347826 16:0.0338983 17:0.125 18:0.456311 19:0.325301 20:0.0406504 21:0.261538 22:0.631068 23:0.666667 24:0.168 25:0.25 26:0.538462 27:0.586207 28:0.0333333 29:0.138462 30:0.584158 31:0.431579 32:0.046875 33:0.375 34:0.728155 35:0.642105 36:0.15625 
1:-0.15625 2:0.309091 3:0.261905 4:-0.0247934 5:-0.129032 6:0.0909091 7:0.0526316 8:-0.15625 9:-0.28125 10:0.00970874 11:0.0526316 12:-0.09375 13:-0.258065 14:-0.0769231 15:0.108696 16:-0.118644 17:-0.0625 18:0.417476 19:0.349398 20:-0.0569106 21:-0.0461538 22:0.417476 23:0.288889 24:-0.04 25:-0.28125 26:-0.25 27:-0.149425 28:-0.25 29:-0.261538 30:0.0693069 31:0.0736842 32:-0.109375 33:-0.03125 34:0.320388 35:0.452632 36:0.015625 
1:-0.15625 2:0.309091 3:0.285714 4:-0.123967 5:-0.129032 6:0.163636 7:0.0736842 8:-0.21875 9:-0.15625 10:0.184466 11:-0.0947368 12:-0.21875 13:-0.258065 14:0.442308 15:0.326087 16:-0.0338983 17:-0.28125 18:0.262136 19:0.180723 20:-0.252033 21:-0.138462 22:0.262136 23:0.0444444 24:-0.184 25:-0.125 26:0.442308 27:0.333333 28:-0.116667 29:-0.107692 30:0.227723 31:0.0105263 32:-0.15625 33:-0.125 34:0.300971 35:0.0947368 36:-0.15625 
1:-0.15625 2:0.363636 3:0.5 4:0.0578512 5:0.0967742 6:0.436364 7:0.557895 8:0.171875 9:0.1875 10:0.631068 11:0.663158 12:0.125 13:-0.0967742 14:0.519231 15:0.26087 16:0.101695 18:0.631068 19:0.542169 20:0.105691 21:0.261538 22:0.708738 23:0.666667 24:0.168 25:-0.25 26:0.384615 27:0.37931 28:-0.0333333 29:-0.107692 30:0.425743 31:0.431579 32:0.09375 33:-0.03125 34:0.553398 35:0.515789 36:0.15625 
1:-0.15625 2:0.381818 3:0.380952 4:-0.0578512 5:-0.129032 6:0.309091 7:0.263158 8:-0.109375 9:-0.15625 10:0.320388 11:0.157895 12:-0.109375 13:-0.258065 14:0.346154 15:0.23913 16:-0.0847458 17:-0.28125 18:0.262136 19:0.301205 20:-0.138211 21:-0.138462 22:0.262136 23:0.333333 24:-0.024 25:-0.25 26:0.365385 27:0.333333 28:-0.116667 29:-0.230769 30:0.148515 31:0.284211 32:-0.09375 33:-0.125 34:0.203883 35:0.368421 36:0.015625 
1:-0.1875 2:0.163636 3:0.142857 4:-0.206612 5:0.0967742 6:0.327273 7:0.221053 8:-0.015625 9:0.1875 10:0.669903 11:0.410526 12:0.046875 13:-0.129032 14:0.384615 15:0.130435 16:-0.101695 17:0.09375 18:0.650485 19:0.518072 20:0.0894309 21:0.230769 22:0.650485 23:0.644444 24:0.152 25:-0.0625 26:0.442308 27:0.402299 29:0.0769231 30:0.742574 31:0.452632 32:0.125 33:0.0625 34:0.708738 35:0.452632 36:0.125 
1:-0.1875 2:0.327273 3:0.452381 4:-0.0247934 5:-0.16129 6:0.4 7:0.515789 8:0.15625 9:0.0625 10:0.669903 11:0.515789 12:0.109375 13:-0.129032 14:0.384615 15:0.23913 16:0.0338983 17:-0.28125 18:0.475728 19:0.518072 20:-0.0243902 21:-0.138462 22:0.572816 23:0.644444 24:0.104 25:-0.28125 26:0.346154 27:0.402299 28:-0.0666667 29:-0.138462 30:0.485149 31:0.452632 32:0.0625 33:0.0625 34:0.533981 35:0.557895 36:0.171875 
1:-0.1875 2:0.4 3:0.238095 4:0.0413223 5:-0.16129 6:0.4 7:0.410526 8:-0.015625 9:-0.1875 10:0.417476 11:0.221053 12:-0.0625 13:-0.258065 14:0.230769 15:0.0434783 16:-0.220339 17:-0.28125 18:0.320388 19:0.180723 20:-0.203252 21:-0.138462 22:0.320388 23:0.133333 24:-0.136 25:-0.28125 26:0.0961538 27:0.0114943 28:-0.35 29:-0.261538 30:0.128713 31:-0.0947368 32:-0.3125 33:-0.15625 34:0.106796 35:-0.178947 36:-0.265625 
1:-0.1875 2:0.4 3:0.452381 4:-0.0247934 5:-0.16129 6:0.327273 7:0.221053 8:-0.0625 9:-0.28125 10:0.417476 11:0.305263 12:-0.015625 13:-0.258065 14:0.307692 15:0.130435 16:-0.152542 17:-0.15625 18:0.320388 19:0.0843373 20:-0.203252 21:-0.138462 22:0.320388 23:0.133333 24:-0.088 25:-0.28125 26:0.0961538 27:-0.0804598 28:-0.35 29:-0.138462 30:0.128713 31:-0.178947 32:-0.265625 33:-0.28125 34:0.00970874 35:-0.263158 36:-0.3125 
1:-0.25 2:0.0181818 3:0.142857 4:-0.0909091 5:-0.225806 6:-0.0545455 7:0.0526316 8:-0.125 9:-0.5 10:-0.145631 11:-0.0315789 12:-0.125 13:-0.258065 14:0.0769231 15:0.108696 16:-0.0847458 17:-0.28125 18:0.00970874 19:0.060241 20:-0.138211 21:-0.384615 22:-0.0679612 23:0.0222222 24:-0.072 25:-0.28125 26:0.0769231 27:0.172414 28:-0.15 29:-0.261538 30:0.108911 31:0.0526316 32:-0.125 33:-0.1875 34:0.0873786 35:0.0526316 36:-0.125 
1:-0.25 2:0.0545455 3:-0.0952381 4:-0.173554 5:-0.225806 6:0.0545455 7:0.0105263 8:-0.15625 9:-0.125 10:0.203883 11:0.0947368 12:-0.09375 13:-0.354839 14:0.0769231 15:-0.0652174 16:-0.186441 17:-0.25 18:0.165049 19:0.156627 20:-0.170732 21:-0.107692 22:0.242718 23:0.2 24:-0.056 25:0.09375 26:0.307692 27:0.172414 28:-0.116667 29:-0.0153846 30:0.346535 31:0.136842 32:-0.09375 33:0.09375 34:0.242718 35:0.242105 36:-0.015625 
1:-0.25 2:0.0545455 3:-0.0952381 4:-0.289256 5:-0.0967742 6:0.218182 7:0.178947 8:-0.15625 9:0.125 10:0.631068 11:0.473684 12:0.015625 13:-0.0967742 14:0.230769 15:0.0217391 16:-0.186441 17:-0.03125 18:0.475728 19:0.493976 20:0.00813008 21:0.138462 22:0.728155 23:0.6 24:0.12 25:0.09375 26:0.384615 27:0.287356 28:-0.116667 29:0.230769 30:0.663366 31:0.536842 32:0.109375 33:0.09375 34:0.631068 35:0.536842 36:0.109375 
1:-0.25 2:0.0909091 3:0.142857 4:-0.140496 5:-0.0967742 6:0.163636 7:0.136842 8:-0.078125 9:-0.125 10:0.242718 11:0.136842 12:-0.125 14:0.307692 15:0.108696 16:-0.0847458 17:0.09375 18:0.242718 19:0.277108 20:-0.0569106 21:0.107692 22:0.320388 23:0.2 24:-0.072 25:-0.1875 26:0.0769231 27:0.0804598 28:-0.216667 29:-0.169231 30:0.108911 31:-0.0315789 32:-0.1875 33:-0.1875 34:0.165049 35:0.136842 36:-0.0625 
1:-0.25 2:0.163636 3:0.142857 4:-0.0247934 5:-0.354839 6:0.163636 7:0.221053 8:-0.078125 9:-0.375 10:0.0873786 11:0.221053 12:-0.015625 13:-0.387097 14:-0.0769231 15:0.0217391 16:-0.152542 17:-0.40625 18:0.165049 19:0.156627 20:-0.0569106 21:-0.138462 22:0.398058 23:0.311111 24:0.008 25:-0.28125 26:0.0769231 27:0.172414 28:-0.0833333 29:-0.384615 30:0.029703 31:-0.115789 32:-0.1875 33:-0.28125 34:-0.0679612 35:0.136842 36:-0.125 
1:-0.25 2:0.236364 3:0.238095 4:-0.0909091 5:-0.354839 6:0.0181818 7:0.0526316 8:-0.234375 9:-0.59375 10:-0.0679612 11:-0.221053 12:-0.296875 13:-0.258065 14:0.153846 15:-0.0652174 16:-0.152542 17:-0.28125 18:0.165049 19:-0.0361446 20:-0.203252 21:-0.384615 22:0.0873786 23:-0.133333 24:-0.2 25:-0.5 27:-0.195402 28:-0.216667 29:-0.384615 30:0.108911 31:0.0526316 32:-0.1875 33:-0.40625 34:0.0873786 35:0.0526316 36:-0.1875 
1:-0.25 2:0.290909 3:0.309524 4:-0.0413223 5:-0.0967742 6:0.290909 7:0.284211 8:-0.03125 9:-0.125 10:0.456311 11:0.284211 12:-0.03125 13:-0.580645 14:-0.0769231 15:0.108696 17:-0.25 18:0.320388 19:0.253012 20:-0.121951 21:-0.230769 22:0.398058 23:0.4 24:-0.056 25:-0.75 26:-0.865385 27:0.37931 28:0.516667 29:-0.630769 30:-0.386139 31:0.326316 32:0.171875 33:-0.40625 34:0.165049 35:0.136842 36:-0.15625 
1:-0.28125 2:-0.0181818 3:0.0714286 4:-0.123967 6:0.236364 7:0.452632 8:0.015625 9:-0.15625 10:0.184466 11:0.157895 12:-0.109375 13:0.225806 14:0.25 15:0.23913 16:0.0338983 17:0.1875 18:0.359223 19:0.39759 20:0.0243902 21:-0.0461538 22:0.262136 23:0.333333 24:-0.136 25:0.5 26:0.692308 27:0.793103 28:0.133333 29:0.507692 30:0.663366 31:0.473684 32:0.015625 33:0.125 34:0.203883 35:0.0947368 36:-0.265625 
1:-0.28125 2:-0.0545455 3:-0.238095 4:-0.256198 5:-0.483871 6:-0.345455 7:-0.284211 8:-0.359375 9:-0.40625 10:-0.223301 11:-0.284211 12:-0.296875 13:-0.387097 14:-0.115385 15:-0.130435 16:-0.288136 17:-0.28125 18:-0.106796 19:-0.108434 20:-0.333333 21:-0.384615 22:0.0485437 23:-0.0444444 24:-0.2 25:-0.28125 26:0.25 27:0.195402 28:-0.116667 29:-0.261538 30:0.287129 31:0.157895 32:-0.09375 33:-0.375 34:0.262136 35:0.263158 36:-0.046875 
1:-0.28125 2:-0.0909091 3:-0.285714 4:-0.421488 5:-0.129032 6:0.0363636 7:-0.0947368 8:-0.28125 9:-0.03125 10:0.242718 11:0.0736842 12:-0.15625 13:-0.258065 14:0.0961538 15:-0.217391 16:-0.322034 17:-0.15625 18:0.359223 19:0.0843373 20:-0.252033 21:0.0769231 22:0.456311 23:0.422222 24:-0.024 25:-0.125 26:0.288462 27:0.218391 28:-0.183333 29:0.138462 30:0.663366 31:0.473684 32:0.015625 33:0.125 34:0.708738 35:0.473684 36:0.140625 
1:-0.28125 2:-0.127273 3:-0.0238095 4:-0.22314 5:-0.258065 6:-0.0545455 7:-0.263158 8:-0.203125 9:-0.375 10:-0.0679612 11:-0.178947 12:-0.203125 13:-0.354839 14:0.0384615 15:-0.195652 16:-0.220339 17:-0.125 18:0.203883 19:0.204819 20:-0.138211 21:-0.107692 22:0.378641 23:0.355556 24:-0.008 25:-0.25 26:0.230769 27:0.37931 28:-0.1 29:-0.230769 30:0.346535 31:0.326316 32:-0.078125 33:-0.125 34:0.475728 35:0.326316 36:-0.078125 
1:-0.28125 2:0.0363636 3:-0.0238095 4:-0.173554 5:-0.258065 6:0.0363636 7:-0.0947368 8:-0.203125 9:-0.28125 10:0.00970874 11:-0.178947 12:-0.15625 13:-0.354839 14:-0.115385 15:-0.195652 16:-0.220339 17:-0.375 18:0.0485437 19:-0.0843373 20:-0.268293 21:-0.230769 22:0.0485437 23:0.0666667 24:-0.136 25:-0.125 26:0.0769231 27:-0.0114943 28:-0.216667 29:-0.230769 30:0.188119 31:0.136842 32:-0.125 33:-0.375 34:0.0873786 35:0.0526316 36:-0.125 
1:-0.28125 2:0.0363636 3:-0.119048 4:-0.22314 5:-0.258065 6:-0.0545455 7:-0.178947 8:-0.15625 9:-0.15625 10:0.184466 11:0.157895 12:-0.09375 13:-0.354839 14:0.0384615 15:-0.108696 16:-0.220339 17:-0.25 18:0.0485437 19:0.0120482 20:-0.203252 21:-0.230769 22:0.126214 23:0.0666667 24:-0.136 25:-0.25 26:0.153846 27:0.172414 28:-0.15 29:-0.353846 30:0.108911 31:0.0526316 32:-0.125 33:-0.25 34:0.0873786 35:-0.0315789 36:-0.1875 
1:-0.28125 2:0.0909091 3:-0.047619 4:-0.322314 5:-0.258065 6:0.163636 7:0.0526316 8:-0.234375 9:-0.1875 10:0.495146 11:0.221053 12:-0.0625 13:-0.129032 14:0.384615 15:0.0434783 16:-0.152542 17:0.09375 18:0.398058 19:0.0843373 20:-0.268293 21:-0.138462 22:0.398058 23:0.333333 24:-0.088 25:-0.15625 26:0.519231 27:0.402299 28:-0.0666667 29:-0.261538 30:0.287129 31:0.157895 32:-0.203125 33:-0.28125 34:0.184466 35:0.157895 36:-0.15625 
1:-0.28125 2:0.0909091 3:-0.142857 4:-0.256198 5:-0.258065 6:0.0909091 7:-0.0315789 8:-0.296875 9:-0.28125 10:0.242718 11:0.0526316 12:-0.234375 14:0.461538 15:0.23913 16:-0.101695 17:-0.15625 18:0.398058 19:0.0843373 20:-0.203252 21:0.107692 22:0.398058 23:0.133333 24:-0.2 25:-0.0625 26:0.615385 27:0.517241 29:-0.138462 30:0.564356 31:0.347368 32:-0.046875 33:-0.28125 34:0.262136 35:0.157895 36:-0.203125 
1:-0.28125 2:0.272727 3:-0.0238095 4:-0.173554 5:-0.354839 6:0.0363636 7:-0.178947 8:-0.3125 9:-0.28125 10:0.00970874 11:-0.178947 12:-0.3125 13:-0.0967742 14:0.442308 15:0.152174 16:-0.0847458 17:-0.125 18:0.203883 19:0.108434 20:-0.268293 21:-0.230769 22:0.126214 23:-0.111111 24:-0.312 25:0.125 26:0.634615 27:0.494253 28:0.0333333 29:-0.107692 30:0.425743 31:0.326316 32:-0.125 33:-0.125 34:0.242718 35:-0.0315789 36:-0.234375 
1:-0.28125 2:0.363636 3:0.285714 4:0.00826446 5:-0.258065 6:0.436364 7:0.347368 8:-0.046875 9:-0.28125 10:0.533981 11:0.347368 12:-0.046875 13:-0.580645 14:-0.25 15:0.152174 16:-0.0169492 17:-0.375 18:0.300971 19:0.325301 20:-0.138211 21:-0.230769 22:0.378641 23:0.355556 24:-0.008 25:-0.90625 26:-0.865385 27:0.494253 28:0.516667 29:-0.784615 30:-0.584158 31:0.221053 32:0.21875 33:-0.59375 34:-0.0679612 35:0.136842 36:-0.015625 
1:-0.28125 2:0.472727 3:0.619048 4:0.0743802 5:-0.258065 6:0.472727 7:0.557895 8:0.078125 9:-0.15625 10:0.475728 11:0.557895 12:0.015625 13:-0.354839 14:0.25 15:0.23913 16:-0.152542 17:-0.28125 18:0.456311 19:0.301205 20:-0.0243902 21:-0.261538 22:0.533981 23:0.422222 24:-0.024 25:-0.6875 26:-0.326923 27:0.126437 28:0.0666667 29:-0.569231 30:-0.227723 31:0.178947 32:-0.03125 33:-0.375 34:0.300971 35:0.284211 36:-0.09375 
1:-0.375 2:-0.0181818 3:-0.190476 4:-0.173554 5:-0.354839 6:-0.163636 7:-0.157895 8:-0.15625 9:-0.59375 10:-0.320388 11:-0.242105 12:-0.15625 13:-0.225806 14:0.0769231 15:0.108696 16:-0.0677966 17:-0.25 18:0.00970874 19:0.060241 20:-0.170732 21:-0.476923 22:-0.145631 23:0.0222222 24:-0.104 25:-0.28125 26:0.0769231 27:0.172414 28:-0.116667 29:-0.261538 30:0.029703 31:0.0526316 32:-0.09375 33:-0.40625 34:-0.0679612 35:-0.0315789 36:-0.09375 
1:-0.375 2:-0.0181818 3:-0.190476 4:-0.289256 5:-0.354839 6:-0.0181818 7:-0.157895 8:-0.21875 9:-0.125 10:0.203883 11:0.178947 12:-0.09375 13:-0.354839 14:0.230769 15:0.195652 16:-0.118644 17:-0.25 18:0.242718 19:0.373494 20:-0.121951 21:-0.230769 22:0.320388 23:0.4 24:-0.056 25:-0.03125 26:0.461538 27:0.37931 28:-0.0333333 29:-0.138462 30:0.50495 31:0.326316 32:-0.015625 33:-0.03125 34:0.475728 35:0.242105 36:-0.015625 
1:-0.375 2:-0.0545455 3:-0.214286 4:-0.471074 5:-0.258065 6:0.0363636 7:-0.178947 8:-0.3125 9:-0.15625 10:0.359223 11:0.0736842 12:-0.203125 13:-0.225806 14:0.115385 15:-0.108696 16:-0.271186 17:-0.125 18:0.300971 19:0.204819 20:-0.203252 21:0.138462 22:0.631068 23:0.555556 24:0.04 25:-0.125 26:0.230769 27:0.0804598 28:-0.216667 29:-0.0153846 30:0.50495 31:0.431579 32:0.046875 33:0.125 34:0.728155 35:0.515789 36:0.09375 
1:-0.375 2:-0.2 3:-0.119048 4:-0.22314 5:-0.451613 6:-0.272727 7:-0.0947368 8:-0.15625 9:-0.59375 10:-0.359223 11:-0.0947368 12:-0.203125 13:-0.354839 14:0.0384615 15:-0.195652 16:-0.152542 17:-0.375 18:-0.106796 19:-0.180723 20:-0.203252 21:-0.569231 22:-0.320388 23:-0.2 24:-0.136 25:-0.25 26:0.0769231 27:0.172414 28:-0.1 29:-0.230769 30:0.029703 31:0.0526316 32:-0.125 33:-0.5 34:-0.145631 35:-0.0315789 36:-0.125 
1:-0.375 2:-0.327273 3:0.047619 4:0.0909091 5:-0.580645 6:-0.563636 7:0.136842 8:0.328125 9:-0.6875 10:-0.825243 11:0.326316 12:0.546875 13:-0.129032 14:0.153846 15:0.0217391 16:-0.152542 17:-0.28125 18:0.00970874 19:0.060241 20:-0.138211 21:-0.384615 22:-0.203883 23:0.0222222 24:0.008 25:-0.0625 26:0.403846 27:0.356322 28:-0.0333333 29:-0.0461538 30:0.445545 31:0.221053 32:-0.0625 33:-0.1875 34:0.00970874 35:-0.0315789 36:-0.125 
1:-0.375 2:0.0181818 3:0.047619 4:-0.140496 5:-0.483871 6:-0.0545455 7:-0.136842 8:-0.234375 9:-0.375 10:0.00970874 11:-0.0315789 12:-0.125 13:-0.387097 14:-0.0769231 15:-0.0652174 16:-0.220339 17:-0.40625 18:0.0873786 19:-0.0361446 20:-0.268293 21:-0.261538 22:0.242718 23:0.111111 24:-0.136 25:-0.40625 26:0.230769 27:0.0804598 28:-0.15 29:-0.476923 30:0.029703 31:-0.0315789 32:-0.1875 33:-0.40625 34:0.0873786 35:-0.0315789 36:-0.1875 
1:-0.375 2:0.0181818 3:0.047619 4:-0.206612 5:-0.354839 6:0.0181818 7:-0.0315789 8:-0.125 9:-0.25 10:0.165049 11:0.0526316 12:-0.078125 13:-0.129032 14:0.0769231 15:0.108696 16:-0.0847458 17:-0.40625 18:0.0873786 19:0.060241 20:-0.203252 21:-0.261538 22:0.165049 23:0.111111 24:-0.072 25:-0.28125 27:-0.0114943 28:-0.15 29:-0.169231 30:0.267327 31:0.136842 32:-0.015625 33:-0.1875 34:0.165049 35:0.221053 36:-0.0625 
1:-0.375 2:0.0181818 3:0.238095 4:-0.0247934 5:-0.354839 6:-0.327273 7:0.0526316 8:0.09375 9:-0.59375 10:-0.533981 11:0.136842 12:0.328125 13:-0.129032 14:0.384615 15:0.217391 17:-0.15625 18:0.165049 19:0.060241 20:-0.203252 21:-0.261538 22:0.00970874 23:0.111111 24:-0.072 25:-0.28125 26:-0.0769231 27:0.172414 28:-0.15 29:-0.0461538 30:0.445545 31:0.305263 32:-0.015625 33:-0.0625 34:0.417476 35:0.221053 36:-0.0625 
1:-0.375 2:0.0363636 3:-0.119048 4:-0.22314 5:-0.354839 6:-0.127273 7:-0.0947368 8:-0.15625 9:-0.28125 10:0.106796 11:-0.0105263 12:-0.15625 13:-0.354839 14:0.0384615 15:-0.0217391 16:-0.220339 17:-0.375 18:-0.106796 19:-0.180723 20:-0.268293 21:-0.353846 22:-0.106796 23:-0.111111 24:-0.2 25:-0.25 26:0.153846 27:0.0804598 28:-0.15 29:-0.353846 30:0.108911 31:-0.0315789 32:-0.1875 33:-0.125 34:0.0873786 35:-0.0315789 36:-0.1875 
1:-0.375 2:0.109091 3:0.0714286 4:-0.173554 5:-0.354839 6:-0.127273 7:-0.0947368 8:-0.15625 9:-0.28125 10:0.00970874 11:-0.0105263 12:-0.15625 13:-0.354839 14:-0.0384615 15:-0.195652 16:-0.220339 17:-0.25 18:0.0485437 19:-0.180723 20:-0.203252 21:-0.230769 22:0.126214 23:-0.0222222 24:-0.136 25:-0.25 26:0.230769 27:0.0804598 28:-0.216667 29:-0.107692 30:0.188119 31:-0.0315789 32:-0.1875 33:-0.375 34:0.0873786 35:-0.0315789 36:-0.1875 
1:-0.375 2:0.127273 3:0.0952381 4:-0.173554 5:-0.354839 6:0.0545455 7:0.0947368 8:-0.15625 9:-0.25 10:0.378641 11:0.368421 12:-0.03125 13:-0.354839 14:-0.0769231 15:-0.173913 16:-0.237288 17:-0.5 18:-0.203883 19:-0.349398 20:-0.349593 21:-0.230769 22:0.0873786 23:0.0222222 24:-0.056 25:-0.40625 26:-0.134615 27:-0.264368 28:-0.383333 29:-0.507692 30:-0.188119 31:-0.263158 32:-0.28125 33:-0.28125 34:0.00970874 35:-0.0315789 36:-0.15625 
1:-0.375 2:0.127273 3:0.309524 4:0.00826446 5:-0.580645 6:-0.418182 7:0.178947 8:0.3125 9:-0.6875 10:-0.92233 11:0.368421 12:0.546875 13:-0.354839 14:0.230769 15:0.195652 16:-0.0677966 17:-0.375 18:0.0873786 19:0.253012 20:-0.0569106 21:-0.353846 22:-0.281553 23:0.111111 24:0.12 25:-0.40625 26:0.153846 27:0.172414 28:-0.0333333 29:-0.138462 30:0.425743 31:0.242105 32:-0.015625 33:-0.15625 34:0.165049 35:0.0526316 36:-0.15625 
1:-0.40625 2:-0.0545455 3:-0.142857 4:-0.206612 5:-0.258065 6:-0.127273 7:0.136842 8:-0.125 9:-0.0625 10:0.417476 11:0.305263 12:-0.015625 13:-0.129032 14:-0.0384615 15:-0.0434783 16:-0.220339 17:-0.28125 18:-0.242718 19:-0.180723 20:-0.268293 21:-0.261538 22:0.0485437 23:0.133333 24:-0.088 25:-0.15625 26:0.0961538 27:0.103448 28:-0.116667 29:0.0769231 30:0.287129 31:0.157895 32:-0.046875 33:0.1875 34:0.262136 35:0.263158 36:0.015625 
1:-0.40625 2:-0.0545455 3:0.452381 4:0.22314 5:-0.806452 6:-0.709091 7:0.305263 8:0.453125 9:-0.71875 10:-0.572816 11:0.305263 12:0.390625 13:-0.129032 14:0.557692 15:0.326087 16:0.101695 17:-0.5 18:-0.165049 19:0.301205 20:0.0406504 21:-0.6 22:-0.475728 23:0.0444444 24:0.216 25:-0.15625 26:0.615385 27:0.402299 28:0.05 29:-0.353846 30:0.207921 31:0.263158 32:0.0625 33:-0.78125 34:-0.747573 35:0.157895 36:0.453125 
1:-0.40625 2:-0.127273 3:0.047619 4:-0.173554 5:-0.387097 6:0.0909091 7:0.136842 8:-0.015625 9:-0.15625 10:0.398058 11:0.242105 12:-0.015625 13:-0.258065 14:0.0769231 15:0.108696 16:-0.0508475 17:-0.40625 18:0.00970874 19:-0.13253 20:-0.235772 21:-0.261538 22:-0.0679612 23:0.2 24:-0.104 25:-0.03125 26:0.384615 27:0.310345 29:-0.138462 30:-0.00990099 31:-0.0105263 32:-0.21875 33:-0.28125 34:-0.242718 35:-0.157895 36:-0.21875 
1:-0.40625 2:-0.163636 3:-0.0238095 4:-0.239669 5:-0.387097 6:-0.163636 7:-0.0947368 8:-0.28125 9:-0.28125 10:-0.106796 11:-0.0947368 12:-0.28125 13:-0.354839 14:0.0961538 15:-0.0434783 16:-0.20339 17:-0.28125 18:0.262136 19:0.180723 20:-0.138211 21:-0.261538 22:0.262136 23:0.222222 24:-0.072 25:-0.25 26:0.365385 27:0.218391 28:-0.05 29:-0.230769 30:0.326733 31:0.284211 32:-0.03125 33:-0.375 34:0.300971 35:0.284211 36:-0.03125 
1:-0.40625 2:-0.181818 3:-0.309524 4:-0.371901 5:-0.516129 6:-0.254545 7:-0.263158 8:-0.28125 9:-0.28125 10:0.00970874 11:-0.0315789 12:-0.15625 13:-0.258065 15:-0.23913 16:-0.237288 17:-0.5 18:-0.300971 19:-0.325301 20:-0.414634 21:-0.384615 22:-0.223301 23:-0.244444 24:-0.28 25:-0.40625 26:-0.115385 27:-0.0804598 28:-0.316667 29:-0.261538 30:-0.0891089 31:-0.0947368 32:-0.28125 33:-0.40625 34:0.0485437 35:-0.0947368 36:-0.21875 
1:-0.40625 2:0.0181818 3:-0.214286 4:-0.239669 5:-0.387097 6:0.236364 7:0.242105 8:-0.09375 9:-0.28125 10:0.398058 11:0.326316 12:-0.015625 13:-0.387097 14:0.0769231 15:0.0217391 16:-0.186441 17:-0.40625 18:0.165049 19:0.156627 20:-0.170732 21:-0.261538 22:0.417476 23:0.377778 24:0.008 25:-0.5 26:0.0961538 27:0.195402 28:-0.133333 29:-0.261538 30:0.425743 31:0.347368 32:0.015625 33:-0.15625 34:0.398058 35:0.263158 36:0.015625 
1:-0.40625 2:0.0909091 3:0.142857 4:-0.0247934 5:-0.129032 6:0.309091 7:0.242105 8:-0.015625 9:-0.15625 10:0.165049 11:0.0526316 12:-0.15625 13:-0.387097 15:-0.152174 16:-0.186441 17:-0.28125 18:-0.0679612 19:0.156627 20:-0.170732 21:-0.0461538 22:0.417476 23:0.377778 24:0.008 25:-0.15625 26:-0.0384615 27:0.0114943 28:-0.25 29:-0.261538 30:-0.227723 31:-0.157895 32:-0.21875 33:-0.28125 34:0.0485437 35:0.0736842 36:-0.109375 
1:-0.46875 2:-0.0181818 3:-0.0952381 4:-0.239669 5:-0.354839 6:-0.0909091 7:-0.157895 8:-0.21875 9:-0.25 10:0.0485437 11:-0.157895 12:-0.15625 13:-0.354839 15:-0.0652174 16:-0.118644 17:-0.25 18:0.242718 19:0.060241 20:-0.235772 21:-0.107692 22:0.165049 23:0.0222222 24:-0.168 25:-0.28125 26:0.230769 27:0.0804598 28:-0.183333 29:-0.138462 30:0.267327 31:0.242105 32:-0.09375 33:0.09375 34:0.242718 35:0.242105 36:-0.015625 
1:-0.46875 2:-0.0545455 3:-0.119048 4:-0.22314 5:-0.354839 6:0.0363636 7:-0.0947368 8:-0.203125 9:-0.375 10:-0.0679612 11:-0.0947368 12:-0.15625 13:-0.451613 14:-0.0384615 15:-0.108696 16:-0.220339 17:-0.375 18:0.0485437 19:0.0120482 20:-0.268293 21:-0.353846 22:-0.106796 23:-0.111111 24:-0.2 25:-0.375 27:-0.126437 28:-0.216667 29:-0.230769 30:0.188119 31:0.0526316 32:-0.125 33:-0.375 34:0.0873786 35:-0.0315789 36:-0.1875 
1:-0.46875 2:-0.163636 3:-0.190476 4:-0.289256 5:-0.580645 6:-0.163636 7:-0.157895 8:-0.265625 9:-0.46875 10:-0.0291262 11:-0.0736842 12:-0.21875 13:-0.483871 14:-0.0769231 15:-0.26087 16:-0.305085 17:-0.5 18:-0.0679612 19:-0.0361446 20:-0.349593 21:-0.353846 22:0.00970874 23:-0.0888889 24:-0.168 25:-0.53125 26:-0.134615 27:-0.264368 28:-0.316667 29:-0.384615 30:0.029703 31:-0.0947368 32:-0.21875 33:-0.28125 34:0.165049 35:0.0526316 36:-0.15625 
1:-0.5 2:-0.0545455 3:-0.047619 4:-0.206612 5:-0.387097 6:0.0181818 7:-0.0315789 8:-0.1875 9:-0.28125 10:0.0873786 11:0.0526316 12:-0.125 13:-0.258065 14:0.0961538 15:0.0434783 16:-0.152542 17:-0.40625 18:-0.106796 19:-0.108434 20:-0.333333 21:-0.261538 22:0.0485437 23:-0.0444444 24:-0.136 25:-0.28125 26:0.0961538 27:-0.0804598 28:-0.233333 29:-0.261538 30:0.029703 31:-0.178947 32:-0.15625 33:-0.15625 34:0.184466 35:0.157895 36:-0.09375 
1:-0.5 2:0.0909091 3:0.047619 4:-0.140496 5:-0.258065 6:0.0909091 7:0.221053 8:-0.125 9:-0.28125 10:0.339806 11:0.305263 12:-0.0625 13:-0.483871 14:0.0961538 15:0.130435 16:-0.101695 17:-0.40625 18:0.0485437 19:0.180723 20:-0.154472 21:-0.384615 22:0.184466 23:0.222222 24:-0.088 25:-0.59375 26:0.0961538 27:0.310345 28:-0.116667 29:-0.569231 30:0.128713 31:0.157895 32:-0.15625 33:-0.46875 34:0.184466 35:0.157895 36:-0.09375 
1:-0.59375 2:-0.0545455 3:-0.047619 4:-0.206612 5:-0.483871 6:0.0181818 7:-0.0315789 8:-0.234375 9:-0.5 10:0.0873786 11:0.0526316 12:-0.1875 13:-0.387097 14:0.0769231 15:-0.0652174 16:-0.220339 17:-0.03125 18:0.398058 19:0.156627 20:-0.138211 21:-0.138462 22:0.475728 23:0.311111 24:-0.072 25:-0.5 26:0.0769231 27:0.0804598 28:-0.266667 29:-0.384615 30:0.188119 31:-0.0315789 32:-0.1875 33:-0.1875 34:0.417476 35:0.221053 36:-0.0625 
1:-0.59375 2:-0.163636 3:-0.190476 4:-0.289256 5:-0.451613 6:-0.0909091 7:-0.0736842 8:-0.21875 9:-0.375 10:0.0485437 11:0.0105263 12:-0.21875 13:-0.483871 14:-0.0769231 15:-0.0652174 16:-0.305085 17:-0.375 18:0.00970874 19:-0.156627 20:-0.235772 21:-0.230769 22:0.165049 23:0.111111 24:-0.104 25:-0.40625 27:-0.0804598 28:-0.25 29:-0.261538 30:0.188119 31:0.0526316 32:-0.15625 33:-0.28125 34:0.320388 35:0.136842 36:-0.15625 
1:-0.59375 2:-0.236364 3:-0.285714 4:-0.355372 5:-0.677419 6:-0.290909 7:-0.326316 8:-0.265625 9:-0.6875 10:-0.242718 11:-0.242105 12:-0.265625 13:-0.677419 14:-0.211538 15:-0.347826 16:-0.372881 17:-0.59375 18:-0.281553 19:-0.445783 20:-0.349593 21:-0.569231 22:-0.339806 23:-0.355556 24:-0.392 25:-0.65625 26:-0.288462 27:-0.448276 28:-0.383333 29:-0.723077 30:-0.326733 31:-0.494737 32:-0.40625 33:-0.65625 34:-0.339806 35:-0.431579 36:-0.34375 
1:-0.59375 2:-0.327273 3:-0.452381 4:-0.322314 5:-0.677419 6:-0.254545 7:-0.305263 8:-0.359375 9:-0.59375 10:-0.281553 11:-0.389474 12:-0.296875 13:-0.645161 14:-0.211538 15:-0.478261 16:-0.355932 17:-0.65625 18:-0.281553 19:-0.493976 20:-0.398374 21:-0.723077 22:-0.339806 23:-0.466667 24:-0.392 25:-0.71875 26:-0.230769 27:-0.195402 28:-0.4 29:-0.6 30:-0.207921 31:-0.284211 32:-0.359375 33:-0.625 34:-0.300971 35:-0.368421 36:-0.359375 
1:-0.625 2:-0.218182 3:-0.285714 4:-0.355372 5:-0.483871 6:-0.163636 7:-0.242105 8:-0.28125 9:-0.40625 10:-0.0291262 11:-0.157895 12:-0.21875 13:-0.580645 14:-0.0769231 15:-0.130435 16:-0.322034 17:-0.59375 18:-0.145631 19:-0.301205 20:-0.430894 21:-0.569231 22:-0.0679612 23:-0.0444444 24:-0.248 25:-0.46875 26:-0.115385 27:-0.149425 28:-0.366667 29:-0.661538 30:-0.306931 31:-0.410526 32:-0.390625 33:-0.59375 34:-0.184466 35:-0.326316 36:-0.265625 
1:-0.625 2:-0.218182 3:-0.285714 4:-0.355372 5:-0.612903 6:-0.218182 7:-0.242105 8:-0.328125 9:-0.5 10:-0.106796 11:-0.242105 12:-0.28125 13:-0.580645 15:-0.217391 16:-0.271186 17:-0.59375 18:-0.0679612 19:-0.108434 20:-0.365854 21:-0.569231 22:-0.145631 23:-0.222222 24:-0.36 25:-0.46875 26:-0.0384615 27:0.0344828 28:-0.25 29:-0.446154 30:-0.0891089 31:-0.157895 32:-0.328125 33:-0.6875 34:-0.320388 35:-0.410526 36:-0.390625 
1:-0.625 2:-0.218182 3:-0.380952 4:-0.305785 5:-0.709677 6:-0.290909 7:-0.242105 8:-0.28125 9:-0.625 10:-0.242718 11:-0.242105 12:-0.328125 13:-0.580645 14:-0.153846 15:-0.217391 16:-0.322034 17:-0.6875 18:-0.145631 19:-0.204819 20:-0.365854 21:-0.661538 22:-0.145631 23:-0.222222 24:-0.296 25:-0.59375 26:0.0384615 27:0.0344828 28:-0.25 29:-0.569231 30:-0.00990099 31:-0.0736842 32:-0.265625 33:-0.59375 34:-0.106796 35:0.0105263 36:-0.265625 
1:-0.6875 2:-0.254545 3:-0.357143 4:-0.38843 5:-0.580645 6:-0.327273 7:-0.389474 8:-0.296875 9:-0.59375 10:-0.339806 11:-0.389474 12:-0.40625 13:-0.645161 14:-0.288462 15:-0.478261 16:-0.355932 17:-0.75 18:-0.339806 19:-0.566265 20:-0.463415 21:-0.630769 22:-0.339806 23:-0.4 24:-0.328 25:-0.625 26:-0.230769 27:-0.287356 28:-0.4 29:-0.6 30:-0.287129 31:-0.368421 32:-0.359375 33:-0.71875 34:-0.300971 35:-0.452632 36:-0.421875 
1:-0.6875 2:-0.290909 3:-0.285714 4:-0.289256 5:-0.580645 6:-0.290909 7:-0.326316 8:-0.265625 9:-0.375 10:-0.106796 11:-0.242105 12:-0.265625 13:-0.580645 14:-0.346154 15:-0.434783 16:-0.423729 17:-0.5 18:-0.203883 19:-0.349398 20:-0.349593 21:-0.230769 22:0.0873786 23:0.111111 24:-0.104 25:-0.65625 26:-0.346154 27:-0.448276 28:-0.383333 29:-0.630769 30:-0.188119 31:-0.347368 32:-0.34375 33:-0.40625 34:-0.126214 35:-0.263158 36:-0.28125 
1:-0.6875 2:-0.290909 3:-0.380952 4:-0.289256 5:-0.677419 6:-0.290909 7:-0.242105 8:-0.265625 9:-0.59375 10:-0.242718 11:-0.326316 12:-0.265625 13:-0.580645 14:-0.288462 15:-0.434783 16:-0.305085 17:-0.59375 18:-0.339806 19:-0.445783 20:-0.463415 21:-0.476923 22:-0.203883 23:-0.266667 24:-0.28 25:-0.75 26:-0.346154 27:-0.517241 28:-0.45 29:-0.630769 30:-0.326733 31:-0.431579 32:-0.34375 33:-0.65625 34:-0.203883 35:-0.347368 36:-0.34375 
1:0.0625 2:0.181818 3:0.166667 4:-0.0578512 5:0.225806 6:0.181818 7:0.263158 8:0.015625 9:0.1875 10:0.359223 11:0.347368 12:0.0625 13:0.290323 14:0.615385 15:0.565217 16:0.169492 17:0.5 18:0.708738 19:0.807229 20:0.105691 21:0.507692 22:0.631068 23:0.555556 24:0.04 25:0.375 26:0.711538 27:0.724138 28:0.15 29:0.630769 30:0.762376 31:0.747368 32:0.15625 33:0.375 34:0.650485 35:0.515789 36:0.046875 
1:0.09375 2:0.163636 3:0.166667 4:-0.123967 5:0.258065 6:0.381818 7:0.263158 8:-0.046875 9:-0.03125 10:0.475728 11:0.263158 12:-0.109375 13:0.709677 14:0.788462 15:0.543478 16:0.20339 17:0.3125 18:0.805825 19:0.638554 20:0.0894309 21:-0.0461538 22:0.631068 23:0.533333 24:0.04 25:0.25 26:0.615385 27:0.54023 28:0.0666667 29:0.138462 30:0.663366 31:0.368421 32:0.015625 33:-0.125 34:0.533981 35:0.368421 36:-0.03125 
1:0.09375 2:0.163636 3:0.261905 4:-0.0247934 5:0.129032 6:0.236364 7:0.136842 8:-0.09375 9:-0.15625 10:0.0873786 11:-0.0315789 12:-0.21875 13:-0.16129 14:0.0769231 15:-0.0652174 16:-0.186441 17:-0.1875 18:0.165049 19:0.156627 20:-0.105691 21:-0.0461538 22:0.339806 23:0.2 24:-0.04 25:-0.15625 26:0.0961538 27:0.0114943 28:-0.183333 29:-0.384615 30:-0.00990099 31:-0.157895 32:-0.28125 33:-0.40625 34:-0.106796 35:-0.0105263 36:-0.21875 
1:0.09375 2:0.236364 3:0.142857 4:-0.107438 5:-0.129032 6:0.0181818 7:-0.0315789 8:-0.21875 9:-0.40625 10:-0.126214 11:-0.263158 12:-0.34375 13:-0.16129 14:0.153846 15:0.108696 16:-0.0508475 17:-0.0625 18:0.339806 19:0.156627 20:-0.105691 21:-0.261538 22:0.00970874 23:-0.155556 24:-0.216 25:-0.40625 26:-0.0384615 27:-0.149425 28:-0.316667 29:-0.384615 30:-0.0891089 31:-0.0105263 32:-0.21875 33:-0.40625 34:-0.106796 35:-0.0947368 36:-0.28125 
1:0.09375 2:0.236364 3:0.142857 4:-0.107438 6:0.236364 7:0.136842 8:-0.09375 9:0.09375 10:0.242718 11:0.242105 12:-0.015625 13:-0.16129 14:0.153846 15:0.0217391 16:-0.118644 17:-0.1875 18:0.0873786 19:0.060241 20:-0.235772 21:-0.169231 22:0.0873786 23:0.0222222 24:-0.168 25:-0.40625 26:0.173077 27:0.103448 28:-0.183333 29:-0.138462 30:0.128713 31:-0.0947368 32:-0.15625 33:-0.15625 34:0.106796 35:-0.0105263 36:-0.15625 
1:0.125 2:0.218182 3:0.190476 4:-0.0413223 5:-0.0967742 6:0.218182 7:0.284211 8:-0.03125 9:-0.46875 10:0.0485437 11:0.0947368 12:-0.15625 13:0.419355 14:0.538462 15:0.5 16:0.0677966 17:-0.125 18:0.475728 19:0.373494 20:-0.0569106 21:-0.569231 22:0.242718 23:0.2 24:-0.056 25:0.21875 26:0.538462 27:0.609195 28:0.1 29:-0.138462 30:0.50495 31:0.326316 32:0.046875 33:-0.53125 34:0.242718 35:0.242105 36:-0.09375 
1:0.125 2:0.236364 3:0.357143 4:-0.0909091 5:0.290323 6:0.454545 7:0.431579 8:0.046875 9:-0.03125 10:0.398058 11:0.221053 12:-0.078125 13:0.419355 14:0.538462 15:0.413043 16:0.0677966 17:0.21875 18:0.631068 19:0.493976 20:0.00813008 21:-0.138462 22:0.398058 23:0.4 24:0.008 25:0.1875 26:0.480769 27:0.586207 28:0.0333333 29:0.0769231 30:0.623762 31:0.305263 32:0.046875 33:-0.1875 34:0.495146 35:0.305263 36:-0.015625 
1:0.125 2:0.454545 3:0.47619 4:0.0413223 5:0.419355 6:0.618182 7:0.642105 8:0.15625 9:0.625 10:0.728155 11:0.747368 12:0.15625 15:0.217391 17:0.21875 18:0.475728 19:0.614458 20:0.0731707 21:0.384615 22:0.631068 23:0.733333 24:0.136 25:0.0625 26:0.0769231 27:0.264368 28:-0.0833333 29:-0.169231 30:-0.128713 31:0.0526316 32:-0.125 33:0.0625 34:0.0873786 35:0.136842 36:-0.015625 
1:0.125 2:0.527273 3:0.404762 4:0.00826446 5:0.16129 6:0.436364 7:0.368421 8:0.015625 9:0.125 10:0.456311 11:0.284211 12:0.078125 13:0.16129 14:0.634615 15:0.5 16:0.118644 17:0.25 18:0.553398 19:0.590361 20:0.00813008 21:0.138462 22:0.553398 23:0.511111 24:0.072 25:0.375 26:0.615385 27:0.609195 28:0.1 29:0.384615 30:0.50495 31:0.431579 32:0.046875 33:-0.03125 34:0.00970874 35:0.242105 36:-0.015625 
1:0.125 2:0.545455 3:0.571429 4:0.0413223 5:0.16129 6:0.545455 7:0.515789 8:0.09375 9:0.25 10:0.553398 11:0.515789 12:0.046875 13:0.258065 14:0.461538 15:0.413043 16:0.135593 17:0.375 18:0.631068 19:0.614458 20:0.0731707 21:0.384615 22:0.475728 23:0.511111 24:0.072 25:0.1875 26:0.480769 27:0.356322 28:0.0333333 29:0.2 30:0.524752 31:0.305263 32:0.046875 33:0.1875 34:0.495146 35:0.305263 36:0.046875 
1:0.1875 2:0.181818 3:0.285714 4:0.00826446 5:0.225806 6:0.272727 7:0.347368 8:0.0625 9:-0.0625 10:0.262136 11:0.263158 12:-0.15625 13:0.548387 14:0.692308 15:0.695652 16:0.169492 17:0.5 18:0.631068 19:0.542169 20:-0.0243902 21:0.138462 22:0.203883 23:0.155556 24:-0.248 25:0.625 26:0.711538 27:0.83908 28:0.15 29:0.384615 30:0.683168 31:0.515789 32:0.046875 33:-0.03125 34:0.0873786 35:-0.0315789 36:-0.125 
1:0.21875 2:0.527273 3:0.595238 4:0.107438 5:0.129032 6:0.527273 7:0.536842 8:0.109375 9:0.09375 10:0.728155 11:0.536842 12:0.109375 13:0.0967742 14:0.403846 15:0.195652 17:0.1875 18:0.669903 19:0.46988 20:0.00813008 21:0.0769231 22:0.669903 23:0.6 24:0.136 25:0.09375 26:0.634615 27:0.517241 28:0.116667 29:0.230769 30:0.683168 31:0.557895 32:0.125 33:0.21875 34:0.650485 35:0.557895 36:0.078125 
1:0.25 2:0.0909091 3:-0.047619 4:-0.206612 5:-0.0967742 6:0.0181818 7:0.0526316 8:-0.125 9:-0.03125 10:0.320388 11:0.221053 12:-0.078125 14:0.461538 15:0.304348 16:0.0677966 17:-0.03125 18:0.553398 19:0.373494 20:-0.0569106 21:-0.0153846 22:0.475728 23:0.511111 24:0.008 25:-0.1875 26:0.480769 27:0.471264 28:0.0333333 29:-0.169231 30:0.524752 31:0.305263 32:-0.015625 33:-0.1875 34:0.592233 35:0.410526 36:-0.015625 
1:0.25 2:0.436364 3:0.190476 4:-0.0413223 5:0.290323 6:0.527273 7:0.473684 8:0.078125 9:0.125 10:0.631068 11:0.368421 12:0.015625 13:0.290323 14:0.153846 15:-0.0652174 16:-0.186441 17:-0.125 18:0.0873786 19:0.060241 20:-0.170732 21:-0.0153846 22:0.320388 23:0.288889 24:-0.056 25:-0.03125 26:0.461538 27:0.37931 28:0.0333333 29:-0.0153846 30:0.584158 31:0.326316 32:-0.015625 33:-0.03125 34:0.475728 35:0.431579 36:-0.015625 
1:0.25 2:0.527273 3:0.642857 4:0.140496 5:0.548387 6:0.6 7:0.705263 8:0.140625 9:0.5 10:0.631068 11:0.473684 12:0.015625 13:0.419355 14:0.711538 15:0.630435 16:0.186441 17:0.625 18:0.728155 19:0.855422 20:0.121951 21:0.384615 22:0.650485 23:0.6 24:0.072 25:0.21875 26:0.461538 27:0.609195 28:0.1 29:0.384615 30:0.663366 31:0.642105 32:0.109375 33:0.375 34:0.475728 35:0.431579 36:-0.015625 
1:0.34375 2:0.381818 3:0.380952 4:-0.0578512 5:0.387097 6:0.545455 7:0.557895 8:0.015625 9:0.46875 10:0.650485 11:0.452632 12:0.078125 13:0.225806 14:0.692308 15:0.326087 16:0.0847458 17:0.1875 18:0.631068 19:0.518072 20:-0.0243902 21:-0.0461538 22:0.533981 23:0.422222 24:-0.024 26:0.442308 27:0.218391 28:-0.05 29:-0.230769 30:0.405941 31:0.0947368 32:-0.03125 33:-0.25 34:0.378641 35:0.284211 36:-0.03125 
1:0.34375 2:0.545455 3:0.619048 4:0.00826446 5:0.516129 6:0.545455 7:0.452632 8:0.078125 9:0.21875 10:0.475728 11:0.347368 12:-0.046875 13:0.225806 14:0.615385 15:0.434783 16:0.0338983 17:-0.0625 18:0.533981 19:0.39759 20:-0.0894309 21:-0.138462 22:0.456311 23:0.422222 24:0.04 25:-0.25 26:0.365385 27:0.126437 28:-0.05 29:-0.230769 30:0.405941 31:0.284211 32:-0.03125 33:-0.375 34:0.378641 35:0.284211 36:-0.09375 
1:0.375 2:0.309091 3:0.142857 4:-0.239669 6:0.163636 7:-0.0947368 8:-0.34375 9:0.09375 10:0.398058 11:0.242105 12:-0.15625 13:0.483871 14:0.75 15:0.5 16:0.135593 17:0.3125 18:0.592233 19:0.349398 20:-0.0569106 21:0.2 22:0.592233 23:0.377778 24:0.008 25:0.21875 26:0.461538 27:0.402299 28:-0.0666667 29:-0.0153846 30:0.346535 31:0.263158 32:-0.046875 33:-0.15625 34:0.398058 35:0.347368 36:0.015625 
1:0.375 2:0.436364 3:0.309524 4:-0.0413223 5:0.677419 6:0.6 7:0.473684 8:0.140625 9:0.78125 10:0.708738 11:0.578947 12:0.140625 13:0.677419 14:0.711538 15:0.630435 16:0.186441 17:0.78125 18:0.825243 19:0.73494 20:0.121951 21:0.507692 22:0.728155 23:0.6 24:0.072 25:0.09375 26:0.538462 27:0.37931 28:-0.0333333 29:0.230769 30:0.663366 31:0.536842 32:0.109375 33:0.21875 34:0.553398 35:0.431579 36:-0.015625 
1:0.375 2:0.454545 3:0.357143 4:0.0413223 5:0.419355 6:0.454545 7:0.515789 8:0.046875 9:-0.125 10:0.475728 11:0.326316 12:-0.015625 13:0.548387 14:0.461538 15:0.413043 16:0.135593 17:0.21875 18:0.553398 19:0.614458 20:0.0731707 21:-0.138462 22:0.475728 23:0.4 24:0.072 25:0.71875 26:0.576923 27:0.471264 28:0.0333333 29:0.446154 30:0.524752 31:0.410526 32:0.109375 33:0.0625 34:0.495146 35:0.515789 36:0.046875 
1:0.375 2:0.545455 3:0.571429 4:0.0413223 6:0.0181818 7:-0.0315789 8:-0.125 9:-0.25 10:0.00970874 11:-0.0315789 12:-0.1875 13:0.419355 14:0.461538 15:0.413043 17:-0.03125 18:0.00970874 19:-0.0361446 20:-0.268293 21:-0.261538 22:-0.0679612 23:0.0222222 24:-0.136 25:0.1875 26:0.326923 27:0.356322 28:0.0333333 29:0.323077 30:0.267327 31:0.0526316 32:-0.0625 33:-0.1875 34:-0.145631 35:-0.284211 36:-0.234375 
1:0.40625 2:0.363636 3:0.285714 4:0.00826446 5:0.225806 6:0.181818 7:0.263158 8:-0.09375 9:-0.0625 10:0.184466 11:0.157895 12:-0.046875 13:0.548387 14:0.519231 15:0.26087 16:0.101695 17:0.125 18:0.300971 19:0.204819 20:-0.0731707 21:-0.107692 22:0.300971 23:0.355556 24:-0.008 25:0.375 26:0.538462 27:0.37931 28:0.0333333 29:0.384615 30:0.584158 31:0.515789 32:0.046875 33:-0.125 34:0.475728 35:0.326316 36:-0.015625 
1:0.4375 2:0.327273 3:0.238095 4:-0.0743802 5:0.225806 6:0.327273 7:0.305263 8:-0.015625 9:0.1875 10:0.495146 11:0.515789 12:0.046875 13:0.258065 14:0.384615 15:0.130435 16:-0.101695 17:0.09375 18:0.398058 19:0.301205 20:-0.0894309 21:-0.138462 22:0.398058 23:0.422222 24:-0.024 25:0.0625 26:0.346154 27:0.195402 29:-0.138462 30:0.386139 31:0.263158 32:0.015625 33:-0.46875 34:0.359223 35:0.263158 36:0.015625 
1:0.4375 2:0.4 3:0.333333 4:-0.0247934 5:0.483871 6:0.563636 7:0.515789 8:0.109375 9:0.4375 10:0.76699 11:0.515789 12:0.109375 13:0.387097 14:0.634615 15:0.543478 16:0.0338983 17:0.46875 18:0.650485 19:0.518072 20:0.0406504 21:0.230769 22:0.475728 23:0.422222 24:-0.024 25:0.1875 26:0.615385 27:0.517241 29:-0.0461538 30:0.564356 31:0.347368 32:-0.046875 33:-0.15625 34:0.456311 35:0.347368 36:0.015625 
1:0.46875 2:0.309091 3:0.166667 4:-0.123967 5:0.258065 6:0.309091 7:0.157895 8:-0.109375 9:0.09375 10:0.398058 11:0.263158 12:-0.046875 13:0.225806 14:0.25 15:0.0434783 16:-0.0847458 17:0.0625 18:0.359223 19:0.180723 20:-0.0243902 21:-0.138462 22:0.359223 23:0.333333 24:0.04 26:0.288462 27:0.218391 28:-0.116667 29:-0.230769 30:0.405941 31:0.284211 32:-0.03125 33:-0.46875 34:0.300971 35:0.284211 36:-0.03125 
1:0.5 2:0.309091 3:0.357143 4:-0.0247934 5:0.16129 6:0.236364 7:0.136842 8:-0.078125 9:-0.125 10:0.398058 11:0.326316 12:-0.078125 13:0.258065 14:0.307692 15:0.0217391 16:-0.0847458 17:-0.15625 18:0.320388 19:0.277108 20:-0.0569106 21:-0.261538 22:0.320388 23:0.4 24:-0.072 25:0.3125 26:0.403846 27:0.264368 28:-0.0833333 29:0.0769231 30:0.366337 31:0.136842 32:-0.0625 33:-0.28125 34:0.339806 35:0.0526316 36:-0.015625 
1:0.5 2:0.527273 3:0.52381 4:0.00826446 5:0.16129 6:0.127273 7:0.0947368 8:-0.265625 9:-0.25 10:-0.0291262 11:-0.0736842 12:-0.265625 13:0.419355 14:0.634615 15:0.5 16:0.0677966 17:-0.03125 18:0.0873786 19:-0.0361446 20:-0.170732 21:-0.230769 22:0.00970874 23:0.0222222 24:-0.168 25:0.375 26:0.461538 27:0.494253 28:-0.0333333 29:-0.0153846 30:0.029703 31:-0.0315789 32:-0.21875 33:-0.28125 34:-0.0679612 35:-0.0315789 36:-0.15625 
1:0.5 2:0.618182 3:0.571429 4:0.157025 5:0.419355 6:0.545455 7:0.515789 8:0.09375 9:0.375 10:0.728155 11:0.515789 12:0.09375 13:0.419355 14:0.615385 15:0.413043 16:0.0677966 17:0.21875 18:0.553398 19:0.277108 20:0.00813008 21:-0.0153846 22:0.475728 23:0.4 24:0.072 25:0.1875 26:0.653846 27:0.356322 28:0.0333333 29:-0.0461538 30:0.524752 31:0.305263 32:-0.015625 33:-0.1875 34:0.242718 35:0.0526316 36:-0.1875 
1:0.5 2:0.618182 3:0.595238 4:0.107438 5:0.419355 6:0.309091 7:0.136842 8:-0.21875 9:-0.03125 10:0.242718 11:-0.0947368 12:-0.34375 13:0.483871 14:0.653846 15:0.5 16:0.135593 17:0.4375 18:0.76699 19:0.590361 20:0.0731707 21:0.323077 22:0.592233 23:0.377778 24:0.008 25:0.46875 26:0.634615 27:0.517241 28:0.0666667 29:0.230769 30:0.50495 31:0.347368 32:-0.046875 33:-0.03125 34:0.320388 35:0.263158 36:-0.046875 
1:0.53125 2:0.436364 3:0.380952 4:0.00826446 5:0.709677 6:0.6 7:0.557895 8:0.0625 9:0.65625 10:0.805825 11:0.557895 12:0.171875 13:0.677419 14:0.519231 15:0.347826 16:-0.0169492 17:0.25 18:0.533981 19:0.204819 20:-0.0731707 21:0.261538 22:0.631068 23:0.555556 24:0.104 25:0.625 26:0.461538 27:0.264368 28:-0.216667 29:0.261538 30:0.188119 31:-0.0315789 32:-0.1875 33:-0.125 34:0.0873786 35:0.0526316 36:-0.125 
1:0.625 2:0.436364 3:0.404762 4:-0.0413223 5:0.290323 6:0.436364 7:0.178947 8:-0.03125 9:0.25 10:0.631068 11:0.473684 12:0.078125 13:0.677419 14:0.461538 15:0.195652 16:-0.186441 17:0.25 18:0.165049 19:-0.0361446 20:-0.235772 21:-0.107692 22:0.0873786 23:0.111111 24:-0.104 25:0.09375 26:0.538462 27:0.37931 28:-0.0333333 29:-0.0153846 30:0.50495 31:0.326316 32:0.046875 33:-0.03125 34:0.553398 35:0.326316 36:-0.015625 
1:0.625 2:0.6 3:0.52381 4:0.140496 5:0.83871 6:0.6 7:0.578947 8:0.140625 9:0.625 10:0.533981 11:0.368421 12:-0.03125 13:0.83871 14:0.807692 15:0.630435 16:0.186441 17:0.5 18:0.728155 19:0.590361 20:0.00813008 21:0.630769 22:0.475728 23:0.288889 24:-0.168 25:0.21875 26:0.615385 27:0.609195 28:0.1 29:0.230769 30:0.584158 31:0.431579 32:-0.015625 33:0.09375 34:0.553398 35:0.326316 36:-0.015625 
1:0.625 2:0.618182 3:0.714286 4:0.157025 5:0.83871 6:0.709091 7:0.642105 8:0.15625 9:0.5 10:0.728155 11:0.515789 12:0.046875 13:0.129032 14:0.538462 15:0.304348 17:0.21875 18:0.631068 19:0.614458 20:0.0731707 21:0.230769 22:0.553398 23:0.511111 24:0.008 25:-0.28125 26:0.153846 27:0.172414 28:-0.216667 29:-0.261538 30:0.366337 31:0.136842 32:-0.0625 33:-0.1875 34:0.417476 35:0.221053 36:-0.015625 
1:0.625 2:0.618182 3:0.833333 4:0.157025 5:0.419355 6:0.545455 7:0.515789 8:0.046875 9:-0.03125 10:0.0873786 11:-0.0315789 12:-0.125 13:0.419355 14:0.615385 15:0.630435 16:0.135593 17:0.375 18:0.475728 19:0.493976 20:-0.0569106 21:-0.0153846 22:0.00970874 23:0.0222222 24:-0.2 25:0.0625 26:0.0769231 27:0.172414 28:-0.0333333 29:0.2 30:0.366337 31:0.305263 32:0.046875 33:0.3125 34:0.242718 35:0.0526316 36:-0.0625 
1:0.65625 2:0.6 3:0.619048 4:0.0578512 5:0.709677 6:0.690909 7:0.557895 8:0.171875 9:0.3125 10:0.805825 11:0.557895 12:0.125 13:0.290323 14:0.519231 15:0.152174 16:-0.0169492 17:0.25 18:0.631068 19:0.542169 20:0.0406504 21:0.138462 22:0.631068 23:0.444444 24:0.04 25:0.25 26:0.153846 27:-0.0114943 28:-0.216667 29:-0.107692 30:0.108911 31:0.0526316 32:-0.125 33:-0.03125 34:0.320388 35:0.221053 36:-0.078125 
1:0.65625 2:0.6 3:0.619048 4:0.123967 5:0.580645 6:0.436364 7:0.347368 8:0.015625 9:0.40625 10:0.533981 11:0.347368 12:0.015625 13:0.548387 14:0.692308 15:0.456522 16:0.169492 17:0.25 18:0.631068 19:0.421687 20:-0.0243902 21:0.138462 22:0.533981 23:0.444444 24:0.04 25:0.375 26:0.711538 27:0.586207 28:0.0833333 29:0.138462 30:0.683168 31:0.431579 32:-0.015625 33:-0.03125 34:0.475728 35:0.221053 36:-0.078125 
1:0.78125 2:0.6 3:0.642857 4:0.140496 5:0.677419 6:0.436364 7:0.368421 8:-0.03125 9:0.25 10:0.533981 11:0.178947 12:-0.03125 13:0.548387 14:0.711538 15:0.5 16:0.0677966 17:0.625 18:0.475728 19:0.253012 20:-0.235772 21:0.261538 22:0.165049 23:0.0222222 24:-0.168 25:0.21875 26:0.538462 27:0.494253 28:-0.0333333 29:0.107692 30:0.584158 31:0.326316 32:-0.015625 33:-0.03125 34:0.475728 35:0.326316 36:0.046875 
1:0.78125 2:0.709091 3:0.714286 4:0.157025 5:0.548387 6:0.618182 7:0.515789 8:0.046875 9:0.625 10:0.475728 11:0.221053 12:-0.1875 13:0.258065 14:0.615385 15:0.521739 16:0.135593 17:0.21875 18:0.553398 19:0.493976 20:-0.0569106 21:0.107692 22:0.553398 23:0.4 24:0.008 25:-0.28125 26:0.326923 27:0.172414 28:-0.0833333 29:-0.169231 30:0.445545 31:0.221053 32:-0.015625 33:-0.28125 34:0.417476 35:0.410526 36:0.046875 
2:0.436364 3:0.404762 4:0.00826446 5:0.16129 6:0.527273 7:0.368421 8:0.015625 9:0.125 10:0.533981 11:0.368421 12:0.015625 13:0.16129 14:0.634615 15:0.5 16:0.0677966 17:0.125 18:0.650485 19:0.590361 20:0.0569106 21:0.261538 22:0.553398 23:0.6 24:0.072 25:0.21875 26:0.461538 27:0.494253 28:0.1 29:0.384615 30:0.663366 31:0.536842 32:0.109375 33:0.375 34:0.475728 35:0.431579 36:0.046875 
1:-0.03125 2:-0.0181818 3:-0.119048 4:-0.173554 5:-0.387097 6:-0.563636 7:0.0736842 8:0.3125 9:-0.8125 10:-0.902913 11:0.0736842 12:0.359375 13:-0.0322581 14:0.0961538 15:-0.217391 16:-0.271186 17:0.0625 18:0.00970874 19:-0.0120482 20:-0.0243902 21:-0.569231 22:-0.68932 23:0.222222 24:0.376 26:0.0384615 27:-0.241379 28:-0.366667 29:0.138462 30:0.148515 31:0.0105263 32:-0.21875 33:-0.125 34:-0.242718 35:0.178947 36:0.078125 
1:-0.03125 2:0.0181818 3:-0.119048 4:-0.239669 5:-0.516129 6:-0.563636 7:0.326316 8:0.234375 9:-0.875 10:-0.805825 11:0.768421 12:0.6875 13:0.354839 14:0.230769 15:-0.152174 16:-0.237288 17:0.1875 18:0.0873786 19:-0.0361446 20:-0.349593 21:-0.261538 22:-0.436893 23:0.288889 24:0.184 25:0.21875 26:0.307692 27:-0.0804598 28:-0.316667 29:0.230769 30:0.346535 31:-0.0947368 32:-0.28125 33:-0.03125 34:-0.0291262 35:-0.0947368 36:-0.21875 
1:-0.0625 2:0.0181818 3:-0.333333 4:-0.454545 5:-0.16129 6:-0.0545455 7:-0.284211 8:-0.46875 9:-0.1875 10:0.00970874 11:-0.2 12:-0.421875 13:-0.129032 14:0.0384615 15:-0.282609 16:-0.474576 17:-0.28125 18:-0.0291262 19:-0.277108 20:-0.382114 21:-0.261538 22:-0.106796 23:0.0444444 24:-0.136 25:-0.46875 26:-0.307692 27:0.0114943 28:-0.0666667 29:-0.569231 30:-0.564356 31:0.263158 32:0.234375 33:-0.78125 34:-0.747573 35:0.452632 36:0.453125 
1:-0.125 2:-0.0909091 3:-0.190476 4:-0.239669 5:-0.225806 6:-0.163636 7:0.0105263 8:-0.15625 9:-0.46875 10:-0.456311 11:0.0105263 12:0.078125 13:-0.0967742 14:-0.0769231 15:-0.0652174 16:-0.237288 17:-0.25 18:-0.0679612 19:-0.253012 20:-0.284553 21:-0.107692 22:-0.0679612 23:-0.266667 24:-0.344 25:-0.15625 26:-0.0769231 27:-0.448276 28:-0.533333 29:-0.138462 30:-0.108911 31:-0.431579 32:-0.546875 33:-0.15625 34:-0.203883 35:-0.431579 36:-0.609375 
1:-0.1875 2:-0.2 3:0.047619 4:-0.140496 5:0.354839 6:0.254545 7:0.136842 8:-0.1875 9:0.5625 10:0.495146 11:0.221053 12:-0.125 13:-0.612903 14:-0.538462 15:0.23913 16:0.101695 17:0.09375 18:0.106796 19:0.0843373 20:-0.268293 21:0.476923 22:0.398058 23:0.222222 24:-0.136 25:-0.78125 26:-0.75 27:0.402299 28:0.35 29:-0.446154 30:-0.346535 31:0.157895 32:0.015625 33:0.3125 34:0.262136 35:0.0736842 36:-0.203125 
1:-0.25 2:-0.163636 3:0.190476 4:-0.173554 5:0.419355 6:0.363636 7:0.178947 8:-0.15625 9:0.5 10:0.631068 11:0.284211 12:-0.03125 13:-0.677419 14:-0.538462 15:0.304348 16:0.186441 17:-0.03125 18:0.165049 19:0.156627 20:-0.235772 21:0.507692 22:0.475728 23:0.288889 24:-0.056 25:-0.75 26:-0.807692 27:0.609195 28:0.516667 29:-0.384615 30:-0.386139 31:0.136842 32:-0.015625 33:0.21875 34:0.242718 35:0.0526316 36:-0.21875 
1:-0.25 2:-0.163636 4:-0.173554 5:-0.451613 6:-0.490909 7:0.0105263 8:0.078125 9:-0.46875 10:-0.456311 11:0.284211 12:0.140625 13:-0.225806 14:-0.0769231 15:-0.26087 16:-0.237288 17:-0.125 18:-0.0679612 19:-0.349398 20:-0.414634 21:-0.0153846 22:-0.0679612 23:-0.266667 24:-0.456 25:-0.15625 26:-0.134615 27:-0.448276 28:-0.6 29:-0.138462 30:-0.188119 31:-0.431579 32:-0.609375 33:-0.15625 34:-0.126214 35:-0.578947 36:-0.609375 
1:-0.25 2:-0.236364 4:-0.107438 5:-0.0967742 6:-0.0909091 7:-0.157895 8:-0.21875 9:-0.25 10:-0.106796 11:0.0105263 12:-0.15625 13:-0.0967742 15:0.0217391 16:-0.186441 17:-0.125 18:-0.0679612 19:-0.0361446 20:-0.284553 21:-0.230769 22:-0.0679612 23:-0.177778 24:-0.216 25:-0.28125 26:-0.211538 27:-0.172414 28:-0.383333 29:-0.138462 30:-0.049505 31:-0.431579 32:-0.484375 33:-0.15625 34:-0.126214 35:-0.431579 36:-0.546875 
1:-0.25 2:-0.363636 3:-0.0952381 4:-0.173554 5:-0.354839 6:-0.418182 7:0.0105263 8:-0.03125 9:-0.25 10:-0.184466 11:0.0105263 12:-0.09375 13:0.419355 14:0.307692 15:0.108696 16:-0.305085 17:-0.03125 18:0.0873786 19:0.060241 20:-0.284553 21:-0.107692 22:0.00970874 23:0.111111 24:-0.168 25:0.375 26:0.461538 27:0.287356 28:-0.183333 29:-0.0153846 30:0.029703 31:-0.0947368 32:-0.34375 33:-0.28125 34:-0.203883 35:-0.178947 36:-0.34375 
1:-0.25 2:0.218182 3:0.0952381 4:-0.173554 5:-0.354839 6:0.127273 7:0.0947368 8:-0.15625 9:-0.59375 10:-0.0291262 11:0.0947368 12:-0.09375 13:-0.483871 14:-0.0769231 15:0.0217391 16:-0.118644 17:-0.8125 18:-0.592233 19:-0.0361446 20:0.121951 21:-0.876923 22:-0.825243 23:0.2 24:0.472 25:-0.28125 26:0.153846 27:0.287356 28:0.0333333 29:-0.630769 30:-0.643564 31:0.326316 32:0.5 33:-0.875 34:-0.961165 35:0.536842 36:0.625 
1:-0.28125 2:-0.272727 3:0.142857 4:-0.140496 5:0.354839 6:0.254545 7:0.136842 8:-0.234375 9:0.4375 10:0.417476 11:0.221053 12:-0.125 13:-0.612903 14:-0.596154 15:0.23913 16:0.220339 17:-0.03125 18:-0.0291262 19:-0.0120482 20:-0.333333 21:0.353846 22:0.398058 23:0.222222 24:-0.136 25:-0.875 26:-0.865385 27:0.517241 28:0.65 29:-0.569231 30:-0.425743 31:0.157895 32:0.0625 33:0.0625 34:0.262136 35:0.0736842 36:-0.265625 
1:-0.28125 2:-0.4 3:-0.619048 4:-0.553719 5:-0.387097 6:-0.345455 7:-0.473684 8:-0.453125 9:-0.28125 10:-0.300971 11:-0.536842 12:-0.5625 13:-0.677419 14:-0.692308 15:-0.0434783 16:0.152542 17:-0.875 18:-0.805825 19:0.0843373 20:0.203252 21:-0.569231 22:-0.495146 23:-0.222222 24:-0.248 25:-0.875 26:-0.961538 27:0.218391 28:0.316667 29:-0.846154 30:-0.920792 31:0.178947 32:0.359375 33:-0.875 34:-0.805825 35:0.0105263 36:0.015625 
1:-0.375 2:-0.418182 4:-0.0413223 5:-0.225806 6:-0.236364 7:0.0105263 8:-0.09375 9:-0.125 10:-0.0291262 11:-0.157895 12:-0.21875 14:0.0769231 15:0.0217391 16:-0.237288 17:-0.125 18:0.00970874 19:0.060241 20:-0.235772 21:-0.107692 22:-0.0679612 23:0.0222222 24:-0.216 25:-0.03125 27:-0.0804598 28:-0.383333 29:-0.261538 30:-0.188119 31:-0.178947 32:-0.34375 33:-0.15625 34:-0.0679612 35:-0.431579 36:-0.484375 
1:-0.375 2:0.181818 3:0.285714 4:-0.173554 5:-0.258065 6:0.363636 7:0.263158 8:0.015625 9:-0.28125 10:0.533981 11:0.347368 12:-0.046875 13:-0.677419 14:-0.326923 15:0.0652174 16:0.101695 17:-0.59375 18:-0.242718 19:0.204819 20:-0.0731707 21:-0.353846 22:0.300971 23:0.355556 24:-0.072 25:-0.90625 26:-0.923077 27:0.494253 28:0.633333 29:-0.876923 30:-0.861386 31:0.431579 32:0.5 33:-0.8125 34:-0.592233 35:0.221053 36:0.21875 
1:-0.375 2:0.218182 3:0.309524 4:-0.107438 5:-0.225806 6:0.290909 7:0.284211 8:-0.03125 9:-0.125 10:0.378641 11:0.284211 12:-0.03125 13:-0.806452 14:-0.596154 15:0.195652 16:0.254237 17:-0.59375 18:-0.0679612 19:0.156627 20:-0.0569106 21:-0.230769 22:0.320388 23:0.288889 24:-0.056 25:-0.875 26:-0.903846 27:0.494253 28:0.583333 29:-0.723077 30:-0.861386 31:0.326316 32:0.5 33:-0.65625 34:-0.398058 35:0.326316 36:0.171875 
1:-0.40625 2:-0.345455 3:-0.547619 4:-0.487603 5:-0.258065 6:-0.345455 7:-0.536842 8:-0.5625 9:-0.28125 10:-0.300971 11:-0.621053 12:-0.625 13:-0.870968 14:-0.807692 15:0.0434783 16:0.271186 17:-0.59375 18:-0.495146 19:-0.301205 20:-0.317073 21:-0.353846 22:-0.359223 23:-0.466667 24:-0.584 25:-0.875 26:-0.923077 27:0.218391 28:0.366667 29:-0.846154 30:-0.80198 31:0.0105263 32:0.015625 33:-0.59375 34:-0.514563 35:-0.410526 36:-0.5625 
1:-0.40625 2:0.0909091 3:0.142857 4:-0.173554 5:-0.258065 6:0.236364 7:0.0526316 8:-0.15625 9:-0.28125 10:0.320388 11:0.136842 12:-0.15625 13:-0.806452 14:-0.634615 15:0.282609 16:0.372881 17:-0.5 18:-0.145631 19:0.156627 20:-0.105691 21:-0.384615 22:0.165049 23:0.111111 24:-0.168 25:-0.9375 26:-0.942308 27:0.402299 28:0.683333 29:-0.784615 30:-0.861386 31:0.263158 32:0.484375 33:-0.71875 34:-0.533981 35:0.0736842 36:0.125 
1:-0.46875 2:-0.490909 3:-0.47619 4:-0.471074 5:-0.451613 6:-0.490909 7:-0.326316 8:-0.390625 9:-0.59375 10:-0.631068 11:-0.157895 12:-0.15625 13:-0.580645 14:-0.596154 15:-0.173913 16:-0.118644 17:-0.59375 18:-0.650485 19:-0.0361446 20:0.00813008 21:-0.784615 22:-0.825243 23:0.111111 24:0.248 25:-0.75 26:-0.807692 27:0.172414 28:0.166667 29:-0.630769 30:-0.90099 31:0.0526316 32:0.234375 33:-0.75 34:-0.864078 35:0.136842 36:0.234375 
1:-0.5 2:-0.454545 3:-0.357143 4:-0.256198 5:-0.580645 6:-0.618182 7:-0.136842 8:-0.125 9:-0.59375 10:-0.650485 11:-0.0315789 12:0.046875 13:-0.741935 14:-0.807692 15:0.0217391 16:0.20339 17:-0.75 18:-0.805825 19:0.156627 20:0.138211 21:-0.630769 22:-0.902913 23:0.111111 24:0.264 25:0.0625 26:0.153846 27:-0.0114943 28:-0.266667 29:-0.261538 30:-0.425743 31:0.136842 32:0.109375 33:-0.8125 34:-0.902913 35:0.136842 36:0.328125 
1:-0.5 2:-0.6 3:-0.333333 4:-0.38843 5:-0.612903 6:-0.709091 7:0.136842 8:0.109375 9:-0.8125 10:-0.961165 11:0.410526 12:0.625 13:-0.387097 14:-0.480769 15:-0.369565 16:-0.338983 17:-0.40625 18:-0.592233 19:-0.180723 20:-0.0894309 21:-0.6 22:-0.805825 23:0.333333 24:0.392 25:-0.6875 26:-0.576923 27:-0.172414 28:-0.116667 29:-0.753846 30:-0.80198 31:0.157895 32:0.34375 33:-0.9375 34:-0.961165 35:0.347368 36:0.5625 
1:-0.5 2:-0.618182 3:-0.452381 4:-0.487603 5:-0.387097 6:-0.509091 7:-0.326316 8:-0.328125 9:-0.40625 10:-0.592233 11:-0.157895 12:-0.046875 13:-0.580645 14:-0.576923 15:-0.456522 16:-0.322034 17:-0.6875 18:-0.572816 19:-0.204819 20:-0.138211 21:-0.753846 22:-0.805825 23:0.222222 24:0.376 25:-0.96875 26:-0.923077 27:0.0344828 28:0.316667 29:-0.846154 30:-0.80198 31:0.0947368 32:0.140625 33:-0.6875 34:-0.631068 35:0.0947368 36:0.140625 
1:-0.5 2:-0.727273 3:-0.0238095 4:0.322314 5:-0.806452 6:-0.872727 7:-0.0947368 8:0.1875 9:-0.71875 10:-0.805825 11:-0.0105263 12:0.078125 13:-0.0322581 14:-0.230769 15:0.0434783 16:0.0338983 17:-0.59375 18:-0.68932 19:-0.0120482 20:0.0894309 21:-0.569231 22:-0.572816 23:-0.0444444 24:-0.024 26:0.115385 27:-0.149425 28:-0.3 29:-0.230769 30:-0.0891089 31:-0.242105 32:-0.328125 33:-0.125 34:0.0485437 35:-0.157895 36:-0.390625 
1:-0.59375 2:-0.418182 3:0.190476 4:0.322314 5:-0.677419 6:-0.927273 7:0.368421 8:0.546875 9:-0.78125 10:-0.92233 11:0.284211 12:0.59375 13:-0.354839 14:0.0769231 15:0.195652 17:-0.375 18:-0.281553 19:0.060241 20:0.0569106 21:-0.569231 22:-0.533981 23:0.2 24:0.36 25:-0.15625 26:0.384615 27:0.287356 28:-0.0333333 29:-0.138462 30:0.188119 31:0.0526316 32:-0.15625 33:-0.28125 34:0.00970874 35:0.0526316 36:-0.09375 
1:-0.59375 2:-0.6 3:0.0714286 4:0.123967 5:-0.677419 6:-0.527273 7:0.0736842 8:0.125 9:-0.78125 10:-0.805825 11:0.263158 12:0.453125 13:-0.0967742 14:-0.0384615 15:-0.195652 16:-0.220339 17:-0.25 18:-0.106796 19:0.0120482 20:-0.203252 21:-0.446154 22:-0.456311 23:0.0666667 24:0.104 25:-0.125 26:-0.0769231 27:-0.0114943 28:-0.266667 29:-0.230769 30:-0.049505 31:-0.221053 32:-0.234375 33:-0.125 34:-0.0679612 35:-0.305263 36:-0.359375 
1:-0.625 2:-0.563636 3:0.285714 4:0.0743802 5:0.129032 6:0.0363636 7:0.0736842 8:-0.21875 9:0.46875 10:0.398058 11:0.157895 12:-0.15625 13:-0.774194 14:-0.75 15:0.326087 16:0.389831 17:-0.46875 18:-0.359223 19:0.180723 20:-0.0243902 21:0.323077 22:0.262136 23:0.133333 24:-0.184 25:-0.875 26:-0.807692 27:0.425287 28:0.433333 29:-0.661538 30:-0.742574 31:0.284211 32:0.25 33:-0.25 34:-0.184466 35:0.0947368 36:-0.21875 
1:-0.65625 2:-0.763636 3:0.142857 4:0.107438 5:-0.387097 6:-0.563636 7:0.0526316 8:-0.15625 9:-0.28125 10:-0.281553 11:-0.263158 12:-0.40625 13:-0.258065 14:-0.442308 15:-0.23913 16:-0.305085 17:-0.1875 18:-0.300971 19:-0.228916 20:-0.414634 21:-0.169231 22:-0.145631 23:-0.333333 24:-0.52 25:-0.15625 26:-0.173077 27:-0.494253 28:-0.616667 29:-0.261538 30:-0.148515 31:-0.473684 32:-0.5625 33:-0.28125 34:-0.165049 35:-0.536842 36:-0.625 
1:-0.6875 2:-0.672727 3:0.047619 4:0.0909091 5:-0.225806 6:-0.254545 7:-0.136842 8:-0.234375 9:-0.125 10:0.0873786 11:-0.221053 12:-0.359375 13:-0.741935 14:-0.807692 15:0.217391 16:0.338983 17:-0.28125 18:-0.281553 19:-0.108434 20:-0.333333 21:-0.0153846 22:0.0873786 23:-0.222222 24:-0.392 25:-0.8125 26:-0.903846 27:0.264368 28:0.466667 29:-0.6 30:-0.683168 31:-0.115789 32:-0.015625 33:-0.1875 34:-0.223301 35:-0.368421 36:-0.53125 
1:-0.6875 2:-0.709091 3:-0.0238095 4:0.239669 5:-0.870968 6:-0.763636 7:0.157895 8:0.28125 9:-0.78125 10:-0.631068 11:0.157895 12:0.171875 13:-0.225806 14:-0.326923 15:-0.108696 16:-0.152542 17:-0.375 18:-0.378641 19:0.0120482 20:-0.0731707 21:-0.230769 22:-0.184466 23:0.0666667 24:-0.072 25:0.375 26:0.307692 27:0.172414 28:-0.333333 29:-0.0153846 30:0.108911 31:0.0526316 32:-0.234375 33:-0.125 34:0.00970874 35:0.0526316 36:-0.1875 
1:-0.6875 2:-0.763636 3:0.190476 4:0.190083 5:-0.580645 6:-0.709091 7:0.178947 8:0.140625 9:-0.375 10:-0.456311 11:0.0947368 12:-0.03125 13:-0.225806 14:-0.346154 15:-0.0652174 16:-0.186441 17:-0.125 18:-0.145631 19:-0.156627 20:-0.414634 21:-0.0153846 22:-0.0679612 23:-0.177778 24:-0.456 25:-0.15625 26:-0.134615 27:-0.448276 28:-0.666667 29:-0.138462 30:-0.108911 31:-0.494737 32:-0.546875 33:-0.15625 34:-0.126214 35:-0.578947 36:-0.609375 
1:-0.6875 2:-0.836364 3:0.357143 4:0.570248 5:-0.903226 6:-0.836364 7:0.431579 8:0.546875 9:-0.8125 10:-0.76699 11:0.221053 12:0.328125 13:-0.387097 14:-0.211538 15:-0.0652174 17:-0.53125 18:-0.339806 19:0.060241 20:0.00813008 21:-0.507692 22:-0.281553 23:0.2 24:0.008 25:-0.1875 27:-0.0114943 28:-0.15 29:-0.261538 30:-0.128713 31:0.136842 32:-0.015625 33:-0.40625 34:-0.223301 35:0.136842 36:0.046875 
1:-0.6875 2:-0.872727 3:0.357143 4:0.338843 5:-0.677419 6:-0.781818 7:0.136842 8:0.15625 9:-0.5 10:-0.533981 11:0.0526316 12:-0.015625 13:-0.387097 14:-0.538462 15:0.0217391 16:-0.152542 17:-0.28125 18:-0.281553 19:-0.301205 20:-0.463415 21:-0.138462 22:-0.0679612 23:-0.311111 24:-0.472 25:-0.1875 26:-0.307692 27:-0.195402 28:-0.4 29:-0.169231 30:-0.128713 31:-0.368421 32:-0.53125 33:-0.0625 34:-0.145631 35:-0.368421 36:-0.53125 
1:-0.71875 2:-0.672727 3:-0.380952 4:-0.355372 5:-0.612903 6:-0.727273 7:-0.389474 8:-0.328125 9:-0.625 10:-0.708738 11:-0.326316 12:-0.328125 13:-0.774194 14:-0.75 15:-0.130435 16:0.0338983 17:-0.6875 18:-0.747573 19:-0.373494 20:-0.252033 21:-0.846154 22:-0.864078 23:-0.288889 24:-0.136 25:-0.78125 26:-0.923077 27:0.218391 28:0.183333 29:-0.753846 30:-0.80198 31:-0.0736842 32:-0.09375 33:-0.875 34:-0.864078 35:-0.157895 36:-0.09375 
1:-0.71875 2:-0.818182 3:-0.0238095 4:0.0743802 5:-0.612903 6:-0.763636 7:-0.0105263 8:0.125 9:-0.625 10:-0.747573 11:-0.0105263 12:0.1875 13:-0.580645 14:-0.576923 15:-0.130435 16:-0.0338983 17:-0.375 18:-0.436893 19:-0.301205 20:-0.203252 21:-0.261538 22:-0.145631 23:-0.222222 24:-0.296 25:-0.125 26:0.0384615 27:-0.149425 28:-0.433333 29:0.0153846 30:0.326733 31:-0.242105 32:-0.328125 33:0.125 34:0.300971 35:0.0105263 36:-0.265625 
1:-0.71875 2:-0.872727 3:0.452381 4:0.520661 5:-0.612903 6:-0.6 7:0.305263 8:0.21875 9:0.0625 10:0.00970874 11:0.0526316 12:-0.1875 13:-0.806452 14:-0.807692 15:0.23913 16:0.355932 17:-0.625 18:-0.650485 19:0.301205 20:0.219512 21:-0.138462 22:-0.165049 23:0.133333 24:-0.136 25:-0.375 26:-0.307692 27:0.0114943 29:-0.0461538 30:0.029703 31:-0.0105263 32:-0.203125 33:0.1875 34:0.262136 35:-0.0105263 36:-0.265625 
1:-0.75 2:-0.818182 3:0.261905 4:0.305785 5:-0.258065 6:-0.327273 7:-0.0947368 8:-0.28125 9:-0.03125 10:0.0873786 11:-0.263158 12:-0.40625 13:-0.806452 14:-0.903846 15:0.195652 16:0.508475 17:-0.625 18:-0.68932 19:-0.13253 20:-0.0569106 21:-0.169231 22:-0.223301 23:-0.333333 24:-0.52 25:-0.40625 26:-0.307692 27:-0.149425 28:-0.316667 29:-0.138462 30:-0.148515 31:-0.242105 32:-0.453125 33:-0.15625 34:-0.0291262 35:-0.242105 36:-0.515625 
1:-0.78125 2:-0.763636 3:-0.119048 4:0.00826446 5:-0.677419 6:-0.763636 7:-0.326316 8:-0.203125 9:-0.875 10:-0.864078 11:-0.326316 12:-0.15625 13:-0.774194 14:-0.923077 15:0.152174 16:0.220339 17:-0.78125 18:-0.805825 19:-0.0843373 20:-0.138211 21:-0.846154 22:-0.864078 23:-0.111111 24:-0.072 25:-0.90625 26:-0.961538 27:0.264368 28:0.333333 29:-0.784615 30:-0.861386 31:0.136842 32:0.15625 33:-0.8125 34:-0.76699 35:-0.136842 36:0.046875 
1:-0.78125 2:-0.763636 3:0.285714 4:0.289256 5:-0.677419 6:-0.763636 7:0.157895 8:0.34375 9:-0.59375 10:-0.631068 11:0.263158 12:0.28125 13:-0.354839 14:-0.461538 15:0.0652174 16:-0.0169492 17:-0.25 18:-0.184466 19:-0.0843373 20:-0.268293 21:-0.107692 22:-0.0291262 23:-0.2 24:-0.424 25:-0.03125 26:-0.0769231 27:-0.218391 28:-0.516667 29:-0.107692 30:-0.049505 31:-0.473684 32:-0.53125 33:-0.25 34:-0.203883 35:-0.473684 36:-0.578125 
1:-0.78125 2:-0.818182 3:0.380952 4:0.471074 5:-0.677419 6:-0.345455 7:-0.0105263 8:-0.046875 9:-0.28125 10:0.106796 11:-0.0105263 12:-0.203125 13:-0.677419 14:-0.692308 15:-0.0217391 16:0.288136 17:-0.59375 18:-0.456311 19:0.0120482 20:-0.0731707 21:-0.446154 22:-0.106796 23:-0.2 24:-0.312 25:-0.5 26:-0.346154 27:-0.126437 28:-0.15 29:-0.476923 30:-0.267327 31:-0.136842 32:-0.125 33:-0.375 34:-0.281553 35:-0.136842 36:-0.1875 
1:-0.8125 2:-0.818182 3:0.285714 4:0.322314 5:-0.612903 6:-0.672727 7:0.263158 8:0.25 9:-0.15625 10:-0.165049 11:0.0736842 12:-0.15625 13:-0.354839 14:-0.307692 15:-0.0434783 16:0.0338983 17:-0.0625 18:0.00970874 19:-0.0120482 20:-0.252033 21:0.2 22:0.262136 23:0.0444444 24:-0.248 25:-0.125 26:-0.0384615 27:-0.425287 28:-0.55 29:-0.107692 30:-0.00990099 31:-0.326316 32:-0.5 33:-0.125 34:0.0485437 35:-0.157895 36:-0.390625 
1:-0.8125 2:-0.872727 3:-0.119048 4:0.190083 5:-0.709677 6:-0.818182 7:-0.0105263 8:0.078125 9:-0.625 10:-0.747573 11:-0.0105263 12:0.125 13:-0.580645 14:-0.692308 15:-0.0434783 16:0.152542 17:-0.59375 18:-0.572816 19:-0.108434 20:-0.0894309 21:-0.353846 22:-0.436893 23:-0.222222 24:-0.136 25:-0.25 26:-0.115385 27:-0.241379 28:-0.366667 29:-0.107692 30:0.0693069 31:-0.157895 32:-0.390625 34:0.300971 35:-0.242105 36:-0.328125 
1:-0.875 2:-0.818182 3:0.166667 4:0.289256 5:-0.774194 6:-0.763636 7:0.263158 8:0.28125 9:-0.78125 10:-0.747573 11:0.263158 12:0.28125 13:-0.677419 14:-0.75 15:0.152174 16:0.220339 17:-0.59375 18:-0.68932 19:0.204819 20:0.105691 21:-0.353846 22:-0.456311 23:0.155556 24:-0.008 25:-0.25 26:-0.346154 27:-0.0114943 28:-0.216667 29:-0.107692 30:-0.128713 31:-0.136842 32:-0.359375 33:-0.03125 34:-0.0679612 35:-0.221053 36:-0.46875 
1:-0.875 2:-0.963636 3:0.0714286 4:0.355372 5:-0.870968 6:-0.872727 7:0.157895 8:0.171875 9:-0.78125 10:-0.68932 11:0.0736842 12:0.0625 13:-0.580645 14:-0.576923 15:-0.0217391 16:0.0338983 17:-0.375 18:-0.242718 19:-0.0843373 20:-0.268293 21:-0.107692 22:-0.0291262 23:-0.0222222 24:-0.312 25:-0.125 26:0.0769231 27:-0.218391 28:-0.4 29:-0.0153846 30:0.108911 31:-0.136842 32:-0.359375 33:-0.03125 34:0.0873786 35:-0.221053 36:-0.46875 
1:-0.90625 2:-0.963636 3:0.238095 4:0.586777 5:-0.806452 6:-0.909091 7:0.221053 8:0.453125 9:-0.625 10:-0.68932 11:-0.115789 12:-0.015625 13:-0.612903 14:-0.596154 15:-0.195652 16:0.101695 17:-0.40625 18:-0.300971 19:-0.180723 20:-0.333333 21:-0.138462 22:-0.165049 23:-0.2 24:-0.44 25:-0.0625 26:0.0961538 27:-0.172414 28:-0.35 29:0.0769231 30:0.207921 31:-0.263158 32:-0.3125 33:0.0625 34:0.106796 35:-0.263158 36:-0.3125 
1:0.0625 2:-0.0545455 3:-0.0238095 4:0.00826446 5:-0.580645 6:-0.709091 7:0.157895 8:0.34375 9:-0.6875 10:-0.864078 11:0.157895 12:0.34375 13:0.16129 14:0.115385 15:-0.0217391 16:-0.220339 17:-0.125 18:-0.242718 19:0.204819 20:0.0406504 21:-0.661538 22:-0.805825 23:0.155556 24:0.344 25:-0.03125 26:0.0769231 27:-0.0114943 28:-0.333333 29:-0.0153846 30:0.188119 31:-0.0315789 32:-0.1875 33:-0.375 34:-0.339806 35:0.136842 36:0.15625 
1:0.09375 2:-0.0545455 3:0.047619 4:-0.173554 5:-0.516129 6:-0.618182 7:0.136842 8:0.234375 9:-0.875 10:-0.902913 11:0.136842 12:0.296875 13:-0.0322581 14:0.0769231 15:-0.152174 16:-0.305085 17:0.0625 18:0.0873786 19:0.060241 20:-0.170732 21:-0.384615 22:-0.572816 23:0.2 24:0.248 25:-0.03125 26:0.0961538 27:-0.241379 28:-0.366667 29:0.107692 30:0.128713 31:-0.0105263 32:-0.328125 33:0.09375 34:-0.165049 35:0.0736842 36:0.015625 
1:0.09375 2:-0.218182 3:0.0714286 4:0.00826446 5:-0.483871 6:-0.727273 7:-0.0105263 8:0.3125 9:-0.8125 10:-0.864078 11:-0.0947368 12:0.1875 13:0.0967742 14:0.0961538 15:-0.0434783 16:-0.271186 17:-0.0625 18:-0.223301 19:0.0843373 20:-0.0243902 21:-0.569231 22:-0.68932 23:0.0444444 24:0.152 26:0.192308 27:-0.0574713 28:-0.3 29:0.0153846 30:0.148515 31:-0.157895 32:-0.265625 33:-0.25 34:-0.106796 35:-0.242105 36:-0.328125 
1:0.09375 2:0.163636 3:-0.0238095 4:-0.305785 5:0.129032 6:0.109091 7:-0.0947368 8:-0.328125 9:-0.15625 10:0.0485437 11:-0.242105 12:-0.453125 13:0.0967742 14:0.173077 15:-0.130435 16:-0.271186 17:-0.15625 18:-0.0679612 19:-0.108434 20:-0.252033 21:-0.446154 22:-0.300971 23:0.0444444 24:-0.024 25:-0.46875 26:-0.576923 27:0.333333 28:0.25 29:-0.661538 30:-0.742574 31:0.578947 32:0.546875 33:-0.78125 34:-0.864078 35:0.578947 36:0.65625 
1:0.125 2:0.0545455 4:-0.239669 5:-0.0967742 6:-0.290909 7:0.178947 8:0.078125 9:-0.6875 10:-0.805825 11:0.0947368 12:0.3125 14:0.0769231 15:-0.0652174 16:-0.305085 17:-0.03125 18:0.165049 19:-0.0361446 20:-0.235772 21:-0.353846 22:-0.339806 23:0.2 24:0.184 25:0.09375 27:-0.172414 28:-0.383333 29:0.107692 30:0.108911 31:-0.0947368 32:-0.34375 33:0.09375 34:0.00970874 35:0.0526316 36:-0.15625 
1:0.1875 2:0.0909091 3:-0.142857 4:-0.256198 5:-0.258065 6:-0.472727 7:0.136842 8:0.046875 9:-0.71875 10:-0.864078 11:0.410526 12:0.5625 13:0.677419 14:0.461538 15:0.130435 16:-0.152542 17:0.09375 18:0.0485437 19:-0.108434 20:-0.268293 21:-0.476923 22:-0.650485 23:0.222222 24:0.216 25:0.65625 26:0.692308 27:0.310345 28:-0.0666667 29:0.538462 30:0.485149 31:0.157895 32:-0.203125 33:-0.15625 34:-0.145631 35:-0.178947 36:-0.203125 
1:0.21875 2:0.236364 3:-0.119048 4:-0.305785 6:-0.0909091 7:-0.0947368 8:-0.21875 9:-0.5 10:-0.708738 11:0.347368 12:0.421875 13:0.225806 14:0.173077 15:-0.0434783 16:-0.20339 17:0.1875 18:0.184466 19:-0.108434 20:-0.317073 21:-0.261538 22:-0.300971 23:0.133333 24:-0.024 25:0.125 26:0.115385 27:-0.149425 28:-0.3 29:0.261538 30:0.227723 31:-0.0736842 32:-0.265625 34:0.0485437 35:-0.0736842 36:-0.265625 
1:0.21875 2:0.309091 3:0.142857 4:-0.173554 5:0.419355 6:0.309091 7:0.326316 8:-0.09375 9:0.375 10:0.398058 11:0.242105 12:-0.09375 13:-0.709677 14:-0.75 15:0.391304 16:0.372881 17:-0.28125 18:-0.223301 19:0.156627 20:-0.170732 21:0.323077 22:0.339806 23:0.2 24:-0.216 25:-0.8125 26:-0.865385 27:0.517241 28:0.616667 29:-0.6 30:-0.584158 31:0.263158 32:0.1875 33:-0.03125 34:-0.0291262 35:-0.0105263 36:-0.28125 
1:0.25 2:0.127273 3:-0.190476 4:-0.421488 5:0.290323 6:0.127273 7:-0.157895 8:-0.328125 9:0.25 10:0.126214 11:-0.157895 12:-0.390625 13:0.16129 14:0.230769 15:-0.0652174 16:-0.372881 17:-0.03125 18:0.00970874 19:-0.0361446 20:-0.349593 21:-0.107692 22:-0.203883 23:0.111111 24:-0.056 25:-0.40625 26:-0.403846 27:0.172414 28:0.1 29:-0.630769 30:-0.643564 31:0.326316 32:0.359375 33:-0.875 34:-0.864078 35:0.642105 36:0.5625 
