svm_type c_svc
kernel_type rbf
gamma 0.25
nr_class 6
nr_binary 10
total_sv 1978
rho -0.341459 0.668419 0.821223 -0.136214 -0.39352 0.440839 -0.889929 -0.671805 0.500204 -0.0666276
label 1 2 3 4 5 6
nr_sv 244 129 360 415 316 514
nr_sv_binary 1325 1063 1359 929 921 953 824 1333 547 1394
I 2
3 0 1 3
3 2 4 5
3 0 3 5
3 1 2 4
3 0 3 4
3 1 2 5
3 1 3 5
3 0 2 4
3 1 4 5
3 0 2 3
3 0 4 5
3 1 2 3
3 0 1 2
3 3 4 5
3 0 1 5
3 2 3 4
3 2 3 5
3 0 1 4
3 1 3 4
3 0 2 5
alpha
0 1 2 4 6 7 9 10 11 13 14 17 19 20 21 23 24 25 26 28 29 31 33 34 35 37 42 47 48 58 61 62 63 64 66 68 70 72 73 74 75 76 77 79 80 83 84 90 96 97 98 100 102 107 108 110 112 113 114 116 117 120 122 124 128 131 133 135 136 137 138 139 141 142 145 146 147 148 149 150 151 152 153 155 156 157 158 159 161 162 164 165 167 168 170 172 173 174 175 176 177 178 180 182 183 184 188 190 191 192 193 194 197 198 199 200 201 202 203 204 206 207 208 209 210 211 213 214 215 216 217 218 220 221 222 223 224 225 226 227 228 229 230 231 232 233 234 235 236 237 238 239 240 241 243 244 245 248 249 251 252 254 255 257 258 259 260 261 262 263 267 269 271 272 273 274 276 277 281 282 283 284 285 289 290 291 292 293 295 296 299 300 303 304 305 306 307 308 309 310 311 312 313 314 315 316 317 318 319 320 321 322 323 324 325 327 328 330 335 338 339 342 343 344 345 347 348 351 353 355 357 359 361 362 363 364 366 367 368 369 370 371 372 375 376 378 379 380 382 384 385 388 389 390 393 394 396 397 399 402 404 405 406 408 409 410 411 412 413 414 415 416 417 418 421 422 425 426 427 428 430 431 433 434 435 436 438 440 441 442 443 445 446 448 449 450 451 452 453 454 455 457 458 459 460 462 463 464 465 466 469 470 472 473 474 475 476 477 478 479 481 482 485 489 491 492 496 497 498 499 500 501 502 503 505 507 508 509 510 512 513 514 515 516 521 525 526 527 528 529 531 533 534 539 540 541 542 544 546 547 548 549 554 555 559 560 561 562 563 565 567 568 569 570 571 572 574 575 576 577 579 582 583 584 585 586 587 588 591 592 593 594 595 596 598 599 600 603 604 607 608 609 610 611 612 614 617 620 622 623 624 625 626 627 628 630 631 634 637 638 639 643 645 646 649 650 652 653 654 656 657 658 659 661 668 672 673 676 677 679 682 683 686 687 688 690 691 696 699 700 701 702 703 705 708 709 710 711 713 717 718 720 723 724 727 728 729 730 733 734 735 736 737 738 739 740 741 742 743 744 745 746 747 748 749 750 751 752 753 754 755 756 757 758 759 760 761 762 763 764 765 766 767 768 769 770 771 772 773 774 775 776 777 778 779 780 781 782 783 784 785 786 787 788 789 790 791 792 793 794 795 796 797 798 799 800 801 802 803 804 805 806 807 808 809 810 811 812 813 814 815 816 817 818 819 820 821 822 823 824 825 826 827 828 829 830 831 832 833 834 835 836 837 838 839 840 841 842 843 844 845 846 847 848 849 850 851 852 853 854 855 856 857 858 859 860 861 862 863 864 865 866 867 868 869 870 871 872 873 874 875 876 877 878 879 880 881 882 883 884 885 886 887 888 889 890 891 892 893 894 895 896 897 898 899 900 901 902 903 904 905 906 907 908 909 910 911 912 913 914 915 916 917 918 919 920 921 922 923 924 925 926 927 928 929 930 931 932 933 934 935 936 937 938 939 940 941 942 943 944 945 946 947 948 949 950 951 952 953 954 955 956 957 958 959 960 961 962 963 964 965 966 967 968 969 970 971 972 973 974 975 976 977 978 979 980 981 982 983 984 985 986 987 988 989 990 991 992 993 994 995 996 997 998 999 1000 1001 1002 1003 1004 1005 1006 1007 1008 1009 1010 1011 1012 1013 1014 1015 1016 1017 1018 1019 1020 1021 1022 1023 1024 1025 1026 1027 1028 1029 1030 1031 1032 1033 1034 1035 1036 1037 1038 1039 1040 1041 1042 1043 1044 1045 1046 1047 1048 1049 1050 1051 1052 1053 1054 1055 1056 1057 1058 1059 1060 1061 1062 1063 1064 1065 1066 1067 1068 1069 1070 1071 1072 1073 1074 1075 1076 1077 1078 1079 1080 1081 1082 1083 1084 1085 1086 1087 1088 1089 1090 1091 1092 1093 1094 1095 1096 1097 1098 1099 1100 1101 1102 1103 1104 1105 1106 1107 1108 1109 1110 1111 1112 1113 1114 1115 1116 1117 1118 1119 1120 1121 1122 1123 1124 1125 1126 1127 1128 1129 1130 1131 1132 1133 1134 1135 1136 1137 1138 1139 1140 1141 1142 1143 1144 1145 1146 1147 1148 1152 1154 1156 1158 1160 1162 1167 1168 1169 1170 1173 1177 1184 1192 1198 1202 1203 1204 1205 1206 1207 1208 1216 1217 1218 1220 1222 1228 1232 1233 1234 1235 1236 1237 1238 1240 1241 1242 1243 1246 1247 1252 1261 1262 1263 1264 1265 1266 1267 1268 1269 1270 1271 1274 1276 1277 1278 1279 1289 1291 1292 1293 1294 1295 1297 1298 1299 1300 1302 1303 1306 1307 1310 1311 1313 1314 1315 1316 1323 1324 1325 1326 1327 1334 1337 1338 1339 1341 1342 1343 1344 1353 1354 1357 1358 1359 1361 1362 1366 1370 1372 1375 1376 1377 1378 1379 1382 1383 1385 1387 1388 1389 1390 1391 1392 1394 1395 1398 1399 1401 1402 1403 1404 1405 1408 1409 1410 1411 1413 1415 1417 1418 1421 1422 1423 1424 1427 1428 1433 1434 1436 1437 1438 1442 1444 1446 1447 1448 1450 1452 1454 1455 1463 1464 1467 1469 1472 1473 1475 1477 1481 1482 1486 1490 1491 1492 1493 1494 1497 1509 1510 1511 1513 1514 1515 1517 1518 1519 1520 1521 1524 1525 1526 1527 1528 1530 1532 1534 1535 1538 1541 1543 1544 1547 1554 1555 1557 1558 1560 1562 1564 1566 1567 1568 1572 1578 1579 1580 1581 1582 1583 1585 1586 1587 1588 1589 1590 1591 1592 1593 1595 1596 1597 1598 1600 1602 1604 1607 1615 1623 1628 1631 1635 1636 1637 1638 1639 1640 1641 1642 1643 1644 1645 1648 1649 1650 1651 1660 1661 1662 1663 1664 1665 1666 1667 1668 1675 1676 1678 1679 1680 1681 1682 1684 1685 1686 1697 1727 1747 1748 1751 1752 1753 1755 1756 1758 1759 1761 1762 1765 1766 1767 1771 1772 1773 1774 1776 1777 1779 1780 1781 1782 1783 1785 1786 1788 1791 1794 1795 1796 1798 1799 1800 1801 1802 1804 1806 1807 1808 1809 1810 1811 1812 1813 1815 1817 1818 1819 1820 1821 1822 1823 1824 1825 1828 1829 1831 1833 1834 1835 1836 1837 1838 1839 1840 1841 1843 1844 1845 1846 1847 1848 1849 1850 1851 1852 1853 1856 1857 1858 1859 1860 1861 1862 1864 1865 1866 1867 1868 1869 1870 1871 1874 1875 1876 1878 1880 1881 1882 1883 1884 1885 1887 1888 1889 1890 1891 1892 1893 1895 1896 1897 1898 1899 1900 1901 1902 1904 1905 1906 1908 1909 1910 1911 1912 1913 1914 1916 1917 1918 1919 1920 1921 1922 1923 1924 1925 1926 1927 1928 1929 1930 1931 1932 1933 1934 1935 1936 1937 1938 1939 1940 1941 1944 1945 1946 1947 1951 1953 1957 1959 1960 1961 1962 1963 1966 1968 1969 1970 1971 1972 
0.25 0.25 0.25 0.25 0.25 0.1904454682825174 0.25 0.25 0.25 0.25 0.25 0.25 0.25 0.25 0.25 0.25 0.25 0.25 0.25 0.25 0.25 0.2437544172326353 0.25 0.25 0.25 0.25 0.25 0.25 0.25 0.25 0.25 0.25 0.25 0.25 0.25 0.25 0.25 0.25 0.25 0.25 0.25 0.25 0.25 0.25 0.25 0.1703278745839373 0.25 0.25 0.25 0.25 0.25 0.25 0.25 0.25 0.25 0.25 0.25 0.2459587063305591 0.25 0.25 0.25 0.25 0.25 0.25 0.25 0.25 0.1263588657575828 0.25 0.25 0.25 0.25 0.25 0.25 0.25 0.25 0.25 0.25 0.25 0.25 0.25 0.25 0.25 0.25 0.25 0.04812830909711859 0.25 0.25 0.25 0.25 0.25 0.25 0.25 0.25 0.25 0.25 0.25 0.25 0.25 0.25 0.25 0.25 0.25 0.0370953785715803 0.25 0.25 0.25 0.25 0.25 0.25 0.25 0.25 0.25 0.25 0.25 0.25 0.25 0.25 0.25 0.25 0.25 0.25 0.1621437063156041 0.25 0.25 0.25 0.25 0.25 0.25 0.25 0.25 0.25 0.25 0.25 0.25 0.25 0.25 0.25 0.25 0.25 0.25 0.25 0.25 0.25 0.25 0.25 0.25 0.25 0.25 0.25 0.25 0.25 0.25 0.25 0.25 0.25 0.25 0.1733841760393906 0.25 0.25 0.05263000326024624 0.25 0.25 0.25 0.25 0.25 0.07373460864884571 0.25 0.25 0.1906011762770827 0.25 0.25 0.25 0.2068676564452684 0.25 0.03210903530717859 0.2357703566143774 0.25 0.25 0.25 0.25 0.25 0.25 0.25 0.25 0.25 0.25 0.1988061844996941 0.25 0.25 0.0943128331689989 0.25 0.25 0.25 0.25 0.25 0.25 0.03474525199260212 0.2086436640622188 0.25 0.1757912763824667 0.25 0.25 0.0003777290159286159 0.25 0.25 0.0008577161710970935 0.25 0.1949531892711456 0.004363507200412998 0.25 0.2288680092413407 0.25 0.25 0.25 0.25 0.25 0.25 0.25 0.25 0.03507483923683929 0.2087790275616706 0.25 0.05336615201916622 0.2444852278622974 0.2234334103346761 0.1096067781281516 0.06153848240955646 0.25 0.25 0.25 0.25 0.25 0.08275478213595555 0.25 0.25 0.25 0.25 0.25 0.25 0.25 0.25 0.1191132050521028 0.25 -0.25 -0.25 -0.25 -0.1996299759177714 -0.25 -0.25 -0.25 -0.25 -0.2364652285161664 -0.25 -0.25 -0.25 -0.25 -0.25 -0.25 -0.25 -0.25 -0.25 -0.25 -0.25 -0.25 -0.25 -0.25 -0.25 -0.25 -0.25 -0.25 -0.25 -0.25 -0.25 -0.25 -0.25 -0.25 -0.25 -0.25 -0.25 -0.25 -0.25 -0.25 -0.25 -0.25 -0.25 -0.25 -0.25 -0.25 -0.25 -0.25 -0.25 -0.25 -0.25 -0.25 -0.25 -0.25 -0.25 -0.25 -0.25 -0.25 -0.25 -0.25 -0.25 -0.25 -0.25 -0.25 -0.25 -0.25 -0.25 -0.25 -0.25 -0.25 -0.25 -0.25 -0.25 -0.2436290842275517 -0.25 -0.25 -0.25 -0.25 -0.25 -0.25 -0.24646030822536 -0.25 -0.25 -0.25 -0.25 -0.25 -0.1611949524452896 -0.25 -0.25 -0.25 -0.25 -0.25 -0.25 -0.25 -0.25 -0.25 -0.25 -0.25 -0.25 -0.25 -0.25 -0.25 -0.25 -0.25 -0.25 -0.25 -0.25 -0.25 -0.25 -0.25 -0.25 -0.25 -0.25 -0.25 -0.1430837340626995 -0.25 -0.25 -0.25 -0.25 -0.25 -0.25 -0.25 -0.25 -0.25 -0.25 -0.25 -0.25 -0.25 -0.25 -0.25 -0.25 -0.25 -0.1112953843995158 -0.25 -0.25 -0.25 -0.25 -0.25 -0.25 -0.1469574362064641 -0.25 -0.25 -0.25 -0.25 -0.25 -0.25 -0.25 -0.25 -0.25 -0.25 -0.25 -0.25 -0.25 -0.25 -0.25 -0.25 -0.25 -0.121907855789304 -0.25 -0.25 -0.25 -0.25 -0.25 -0.25 -0.25 -0.25 -0.25 -0.25 -0.25 -0.25 -0.25 -0.25 -0.1839996377952614 -0.25 -0.25 -0.25 -0.25 -0.01674618374496098 -0.2448772149264578 -0.25 -0.25 -0.25 -0.25 -0.25 -0.25 -0.25 -0.25 -0.25 -0.25 -0.25 -0.25 -0.25 -0.04577676781247907 -0.1904248500398609 -0.25 -0.25 -0.25 -0.25 -0.1348272891101945 -0.25 -0.03561031763637244 -0.25 -0.146128769283 -0.25 -0.008959717878669938 -0.25 -0.2277310337197083 -0.25 -0.25 -0.25 -0.25 -0.25 -0.25 -0.25 -0.25 -0.25 -0.25 -0.01399098575575749 -0.25 -0.1087297777230714 -0.25 -0.25 -0.1454384745631765 -0.2422932856218669 -0.1235272521190558 -0.25 0.25 0.25 0.25 0.25 0.25 0.25 0.25 0.25 0.25 0.25 0.25 0.25 0.25 0.25 0.25 0.25 0.25 0.25 0.25 0.25 0.25 0.25 0.25 0.25 0.25 0.25 0.25 0.25 0.25 0.25 0.25 0.25 0.25 0.25 0.25 0.25 0.25 0.25 0.25 0.25 0.25 0.25 0.25 0.25 0.25 0.25 0.25 0.25 0.25 0.25 0.25 0.25 0.25 0.25 0.25 0.25 0.25 0.25 0.25 0.25 0.25 0.25 0.25 0.25 0.25 0.25 0.25 0.25 0.25 0.25 0.25 0.25 0.25 0.25 0.25 0.25 0.25 0.25 0.25 0.25 0.25 0.25 0.25 0.25 0.25 0.25 0.25 0.25 0.25 0.25 0.25 0.25 0.25 0.25 0.25 0.25 0.25 0.25 0.25 0.25 0.25 0.25 0.25 0.25 0.25 0.25 0.25 0.25 0.25 0.25 0.25 0.25 0.25 0.25 0.25 0.25 0.25 0.25 0.25 0.25 0.25 0.25 0.25 0.25 0.25 0.25 0.25 0.25 0.25 0.25 0.25 0.25 0.25 0.1436526537864439 0.25 0.25 0.25 0.25 0.25 0.25 0.25 0.25 0.25 0.25 0.25 0.25 0.25 0.25 0.25 0.25 0.25 0.25 0.25 0.25 0.25 0.25 0.25 0.25 0.25 0.25 0.25 0.25 0.25 0.25 0.25 0.25 0.25 0.25 0.25 0.25 0.25 0.25 0.25 0.25 0.25 0.25 0.25 0.25 0.25 0.25 0.25 0.25 0.25 0.25 0.25 0.25 0.25 0.25 0.25 0.25 0.25 0.25 0.25 0.25 0.25 0.25 0.25 0.25 0.25 0.25 0.25 0.25 0.25 0.25 0.25 0.25 0.25 0.25 0.25 0.25 0.25 0.25 0.25 0.25 0.25 0.25 0.25 0.25 0.25 0.25 0.25 0.25 0.25 0.25 0.25 0.25 0.25 0.25 0.25 0.25 0.25 0.25 0.25 0.25 0.25 0.25 0.25 0.25 0.25 0.25 0.25 0.25 0.25 0.25 0.25 0.25 0.25 0.25 0.25 0.25 0.25 0.25 0.25 0.25 0.25 0.25 0.25 0.25 0.25 0.25 0.25 0.25 0.25 0.25 0.25 0.25 0.25 0.25 0.25 0.25 0.25 0.25 0.25 0.25 0.25 0.25 0.25 0.25 0.25 0.25 0.25 0.25 0.25 0.25 0.25 0.25 0.25 0.25 0.25 0.25 0.25 0.25 0.25 0.25 0.25 0.25 0.25 0.25 0.25 0.25 0.25 0.25 0.25 0.25 0.25 0.25 0.25 0.25 0.25 0.25 0.25 0.25 0.25 0.25 0.25 0.25 0.25 0.25 0.25 0.25 0.25 0.25 0.25 0.25 0.25 0.25 0.25 0.25 0.25 0.25 0.25 0.25 0.25 0.25 0.25 0.25 0.25 0.25 0.25 0.25 0.25 0.25 0.25 0.25 0.25 0.25 0.25 0.25 0.25 0.25 0.25 0.25 0.25 0.25 0.25 0.25 0.25 0.25 0.25 0.25 0.25 0.25 0.25 0.25 0.25 0.25 0.25 0.25 0.25 0.25 0.25 0.25 0.25 0.25 0.25 0.25 0.25 0.25 0.25 0.25 0.25 0.25 0.25 0.25 0.25 0.25 0.25 0.25 0.25 0.25 0.25 0.25 0.25 0.25 0.25 0.25 0.25 0.25 0.25 0.25 0.25 0.25 0.25 0.25 0.25 0.25 0.25 0.25 0.25 0.25 0.25 0.25 0.25 0.25 0.25 -0.25 -0.25 -0.25 -0.1392279217698276 -0.25 -0.04614898742686226 -0.25 -0.25 -0.25 -0.25 -0.25 -0.1490543574842339 -0.25 -0.25 -0.25 -0.25 -0.25 -0.25 -0.25 -0.25 -0.25 -0.25 -0.25 -0.25 -0.25 -0.25 -0.25 -0.25 -0.25 -0.25 -0.25 -0.25 -0.25 -0.25 -0.25 -0.25 -0.25 -0.25 -0.25 -0.25 -0.25 -0.25 -0.02224103771225976 -0.25 -0.25 -0.25 -0.25 -0.25 -0.25 -0.25 -0.25 -0.25 -0.25 -0.25 -0.25 -0.25 -0.25 -0.25 -0.25 -0.001203244043518853 -0.25 -0.25 -0.25 -0.25 -0.25 -0.25 -0.25 -0.25 -0.25 -0.25 -0.25 -0.25 -0.25 -0.25 -0.25 -0.25 -0.25 -0.25 -0.25 -0.25 -0.25 -0.25 -0.25 -0.25 -0.25 -0.25 -0.25 -0.25 -0.25 -0.25 -0.25 -0.25 -0.01480303241660566 -0.25 -0.009210818988664524 -0.25 -0.25 -0.25 -0.25 -0.25 -0.25 -0.25 -0.1377654686082937 -0.25 -0.25 -0.25 -0.25 -0.25 -0.25 -0.25 -0.25 -0.25 -0.25 -0.25 -0.25 -0.01077940962122153 -0.25 -0.25 -0.25 -0.1758837565469727 -0.25 -0.25 -0.08876445802194709 -0.25 -0.25 -0.25 -0.25 -0.25 -0.25 -0.25 -0.25 -0.1089918013731665 -0.25 -0.25 -0.25 -0.06492166677227168 -0.25 -0.25 -0.25 -0.25 -0.25 -0.005982335196920878 -0.25 -0.25 -0.25 -0.25 -0.25 -0.25 -0.25 -0.25 -0.25 -0.25 -0.2000412275424321 -0.25 -0.25 -0.25 -0.25 -0.25 -0.25 -0.25 -0.25 -0.25 -0.25 -0.25 -0.25 -0.25 -0.25 -0.1909079877751829 -0.25 -0.25 -0.25 -0.25 -0.25 -0.25 -0.25 -0.25 -0.1924418447944646 -0.25 -0.25 -0.25 -0.25 -0.25 -0.25 -0.25 -0.25 -0.25 -0.25 -0.25 -0.25 -0.25 -0.25 -0.25 -0.25 -0.25 -0.25 -0.25 -0.25 -0.25 -0.25 -0.25 -0.25 -0.25 -0.25 -0.25 -0.25 -0.2476572119129253 -0.25 -0.25 -0.25 -0.25 -0.25 -0.25 -0.25 -0.25 -0.08624398134162892 -0.25 -0.25 -0.25 -0.25 -0.25 -0.25 -0.25 -0.25 -0.25 -0.25 -0.25 -0.25 -0.25 -0.25 -0.25 -0.25 -0.25 -0.25 -0.03852404697267602 -0.25 -0.25 -0.25 -0.25 -0.25 -0.25 -0.25 -0.25 -0.25 -0.25 -0.25 -0.25 -0.25 -0.25 -0.25 -0.25 -0.25 -0.25 -0.25 -0.25 -0.25 -0.25 -0.25 -0.25 -0.25 -0.25 -0.25 -0.1541664570975865 -0.25 -0.25 -0.2178353063754519 -0.25 -0.04816420306707933 -0.25 -0.25 -0.25 -0.25 -0.1833928246768791 -0.25 -0.25 -0.25 -0.25 -0.25 -0.25 -0.08099664460081853 -0.25 -0.25 -0.25 -0.25 -0.25 -0.25 -0.25 -0.25 -0.25 -0.25 -0.25 -0.25 -0.25 -0.25 -0.25 -0.25 -0.25 -0.25 -0.25 -0.25 -0.25 -0.25 -0.25 -0.25 -0.25 -0.25 -0.25 -0.25 -0.25 -0.25 -0.25 -0.25 -0.25 -0.25 -0.25 -0.25 -0.25 -0.25 -0.25 -0.25 -0.25 -0.25 -0.25 -0.25 -0.25 -0.25 -0.25 -0.25 -0.25 -0.25 -0.25 -0.25 -0.25 -0.25 -0.25 -0.25 -0.25 -0.25 -0.25 -0.25 -0.25 -0.25 -0.25 -0.25 -0.25 -0.25 -0.25 -0.25 -0.25 -0.25 -0.25 -0.25 -0.25 -0.25 -0.25 -0.25 -0.25 -0.25 -0.25 -0.25 -0.25 -0.25 -0.25 -0.25 -0.25 -0.25 -0.25 -0.25 -0.25 -0.25 -0.25 -0.25 -0.25 -0.25 -0.25 -0.25 -0.25 -0.25 -0.25 -0.25 -0.25 -0.25 -0.25 -0.25 -0.25 -0.25 -0.25 -0.25 -0.25 -0.25 -0.25 -0.25 -0.25 -0.25 -0.25 -0.25 -0.25 -0.25 -0.25 -0.25 -0.25 -0.25 -0.25 -0.25 -0.25 -0.25 -0.25 -0.25 -0.25 -0.25 -0.25 -0.25 -0.25 -0.25 -0.25 -0.25 -0.25 -0.25 -0.25 -0.25 -0.25 -0.25 -0.25 -0.25 -0.25 -0.1152321525906436 -0.25 -0.25 -0.25 -0.25 -0.25 -0.25 -0.25 -0.1525659560461391 -0.25 -0.25 -0.25 -0.25 -0.25 -0.25 -0.25 -0.25 -0.25 
0 1 2 4 6 8 9 10 11 12 13 14 16 17 20 21 23 24 25 26 29 31 33 34 35 36 37 41 42 44 46 48 55 58 62 63 64 68 69 70 72 73 75 76 77 78 88 90 91 92 96 97 98 102 103 106 107 110 111 112 113 114 117 120 130 132 136 145 147 148 149 152 153 154 157 158 159 160 161 162 163 164 166 168 169 170 171 174 175 176 177 178 179 180 181 183 184 185 187 188 190 191 194 196 197 198 199 200 201 202 203 204 205 206 207 208 209 210 211 213 214 215 216 217 218 220 221 222 223 224 225 226 227 228 229 230 231 232 233 234 235 236 237 238 239 240 241 242 243 246 248 249 253 255 257 258 269 270 271 278 279 286 294 298 300 305 307 309 318 324 332 336 337 338 339 343 344 345 346 347 349 350 352 354 356 357 361 363 365 367 368 369 370 373 374 375 377 378 379 382 383 384 385 386 387 389 390 391 393 394 395 396 397 398 399 400 402 404 405 406 407 408 409 410 411 412 413 414 415 416 417 418 420 421 422 423 424 425 426 427 428 429 430 431 433 434 435 436 437 438 439 440 441 442 443 444 445 446 447 448 449 450 451 452 453 454 455 456 457 458 459 460 461 462 463 464 465 466 467 468 469 470 471 472 473 474 475 476 477 478 479 481 482 485 486 487 489 490 491 492 493 494 495 496 497 499 500 501 502 503 504 506 507 508 509 510 511 512 513 514 515 516 517 518 521 523 525 526 527 528 529 530 531 533 534 535 536 537 538 539 540 541 542 544 545 546 547 548 553 554 555 558 560 561 562 563 566 567 568 569 570 571 572 576 577 578 579 580 581 583 584 586 587 588 589 591 592 593 594 595 596 598 599 600 601 602 603 604 605 607 608 609 610 611 612 614 615 616 617 618 619 620 621 622 623 624 625 626 627 630 631 634 635 636 637 641 642 643 644 645 646 647 649 650 652 653 654 656 658 659 660 661 663 666 667 672 673 676 677 681 682 683 686 687 688 691 694 696 700 701 702 703 704 705 708 709 710 712 713 716 718 730 731 732 738 744 764 765 767 773 776 786 800 801 807 809 810 813 814 818 819 820 823 824 843 844 847 848 849 866 889 895 899 900 902 906 908 920 923 935 937 941 948 949 950 968 969 970 972 973 974 975 978 980 982 984 986 988 989 990 992 995 996 1003 1004 1008 1009 1011 1012 1015 1016 1020 1021 1023 1024 1025 1027 1028 1029 1030 1031 1032 1033 1034 1035 1036 1037 1038 1042 1043 1044 1045 1048 1049 1050 1051 1052 1055 1056 1057 1058 1060 1061 1062 1063 1064 1065 1066 1067 1068 1069 1070 1071 1072 1073 1074 1075 1076 1077 1078 1079 1080 1081 1082 1083 1084 1085 1086 1087 1088 1089 1090 1091 1092 1093 1094 1095 1096 1097 1098 1099 1100 1101 1102 1103 1104 1105 1106 1107 1108 1109 1110 1111 1112 1113 1114 1115 1116 1117 1118 1119 1120 1121 1122 1123 1124 1125 1126 1127 1128 1129 1130 1131 1132 1133 1134 1137 1143 1148 1150 1151 1152 1153 1155 1156 1157 1158 1159 1160 1161 1162 1163 1164 1165 1166 1167 1168 1169 1170 1171 1172 1173 1174 1175 1176 1178 1179 1180 1181 1184 1185 1186 1187 1188 1189 1190 1191 1192 1193 1194 1195 1196 1197 1198 1199 1200 1201 1202 1203 1204 1205 1206 1207 1208 1209 1210 1211 1212 1213 1214 1215 1217 1218 1219 1220 1221 1222 1223 1224 1225 1226 1227 1229 1230 1231 1233 1234 1235 1236 1237 1239 1240 1242 1243 1244 1246 1247 1248 1249 1250 1251 1252 1254 1255 1256 1257 1258 1259 1260 1261 1262 1263 1264 1265 1266 1267 1269 1271 1272 1273 1274 1275 1276 1277 1278 1279 1280 1281 1282 1283 1284 1286 1287 1289 1290 1291 1292 1293 1296 1301 1304 1305 1308 1309 1310 1312 1317 1319 1321 1324 1325 1326 1327 1328 1329 1330 1331 1332 1335 1336 1337 1338 1339 1340 1341 1346 1347 1348 1349 1350 1351 1355 1356 1360 1363 1364 1365 1366 1367 1374 1376 1377 1378 1379 1380 1381 1382 1385 1393 1395 1399 1406 1413 1418 1419 1423 1425 1426 1428 1429 1430 1432 1433 1434 1435 1436 1437 1438 1439 1440 1441 1442 1443 1444 1445 1446 1447 1448 1449 1450 1451 1452 1453 1454 1455 1456 1457 1458 1459 1460 1461 1462 1463 1470 1472 1473 1475 1479 1480 1487 1488 1491 1492 1497 1498 1501 1502 1504 1505 1507 1508 1523 1536 1548 1553 1565 1566 1571 1572 1573 1574 1577 1591 1593 1594 1599 1600 1605 1606 1609 1611 1614 1620 1621 1622 1624 1625 1626 1628 1629 1630 1631 1632 1633 1636 1652 1656 1657 1659 1662 1667 1669 1670 1671 1672 1673 1674 1677 1683 1687 1688 1689 1690 1691 1692 1693 1694 1696 1698 1700 1701 1703 1704 1706 1707 1708 1709 1710 1711 1713 1714 1715 1716 1717 1718 1719 1720 1721 1722 1723 1724 1725 1726 1728 1729 1732 1733 1734 1735 1736 1737 1738 1740 1741 1742 1743 1744 1745 1746 1748 1749 1750 1751 1752 1753 1754 1755 1756 1757 1758 1759 1760 1762 1764 1770 1771 1775 1783 1785 1789 1792 1799 1800 1806 1812 1816 1826 1827 1830 1831 1834 1842 1845 1851 1852 1854 1860 1863 1864 1865 1868 1871 1873 1876 1884 1887 1889 1891 1897 1898 1900 1901 1906 1912 1916 1918 1922 1924 1928 1931 1933 1935 1936 1941 1943 1946 1947 1948 1949 1950 1952 1954 1955 1956 1957 1958 1959 1962 1963 1964 1965 1966 1967 
0.25 0.25 0.25 0.25 0.25 0.1285749558160134 0.25 0.25 0.25 0.25 0.25 0.25 0.1436819388839451 0.25 0.25 0.25 0.25 0.25 0.25 0.25 0.25 0.25 0.25 0.25 0.25 0.1885209350023745 0.25 0.0684647610213837 0.25 0.188650636600126 0.25 0.25 0.25 0.25 0.25 0.03422287352545051 0.25 0.25 0.25 0.25 0.25 0.25 0.25 0.25 0.25 0.1555556141090294 0.1314266354034144 0.25 0.25 0.25 0.25 0.25 0.25 0.25 0.25 0.25 0.25 0.25 0.25 0.25 0.25 0.25 0.25 0.25 0.25 0.1479485219281167 0.25 0.25 0.25 0.25 0.25 0.25 0.25 0.25 0.25 0.25 0.25 0.25 0.25 0.25 0.01599108914587133 0.25 0.25 0.25 0.25 0.25 0.25 0.25 0.25 0.25 0.25 0.25 0.25 0.25 0.25 0.25 0.25 0.25 0.2463976845910432 0.25 0.25 0.1366674152040001 0.25 0.25 0.25 0.25 0.25 0.25 0.25 0.25 0.25 0.25 0.25 0.25 0.25 0.25 0.25 0.25 0.25 0.25 0.25 0.25 0.25 0.25 0.25 0.25 0.25 0.25 0.25 0.25 0.25 0.25 0.25 0.25 0.25 0.25 0.25 0.25 0.25 0.25 0.25 0.25 0.25 0.25 0.25 0.25 0.25 0.1677254790257986 0.25 -0.25 -0.25 -0.25 -0.01318238670062073 -0.25 -0.25 -0.25 -0.25 -0.25 -0.03848801063894702 -0.04050730243837632 -0.1864830704920996 -0.004419290277047771 -0.02336719230089723 -0.0246937677470847 -0.25 -0.25 -0.001578903589997532 -0.25 -0.1202782785564761 -0.25 -0.0280100350034655 -0.25 -0.01742218606798481 -0.1038093197365554 -0.09000168905223499 -0.04894052833220449 -0.007133150427233838 -0.06334709719872032 -0.2091722010961039 -0.0890601558358956 -0.03490307939267129 -0.1668463744498957 -0.01026678078610662 -0.0815451934629097 -0.1956275811033808 -0.25 -0.0244045436769882 -0.25 -0.25 -0.25 -0.25 -0.25 -0.25 -0.105818141622331 -0.25 -0.25 -0.09063219552657879 -0.25 -0.25 -0.25 -0.25 -0.25 -0.25 -0.25 -0.25 -0.25 -0.25 -0.2427614841493786 -0.25 -0.25 -0.25 -0.25 -0.25 -0.25 -0.25 -0.25 -0.25 -0.25 -0.25 -0.25 -0.25 -0.25 -0.25 -0.25 -0.25 -0.25 -0.25 -0.25 -0.25 -0.25 -0.25 -0.25 -0.25 -0.25 -0.25 -0.25 -0.25 -0.25 -0.25 -0.25 -0.25 -0.25 -0.25 -0.25 -0.25 -0.25 -0.25 -0.25 -0.25 -0.25 -0.004395290766022136 -0.25 -0.25 -0.25 -0.25 -0.25 -0.25 -0.25 -0.25 -0.25 -0.25 -0.25 -0.25 -0.25 -0.25 -0.25 -0.25 -0.25 -0.25 -0.25 -0.25 -0.25 -0.25 -0.25 -0.25 -0.25 -0.25 -0.25 -0.25 -0.25 -0.25 -0.25 -0.25 -0.25 -0.25 -0.25 -0.25 -0.25 -0.25 -0.25 -0.25 -0.25 -0.25 -0.25 -0.25 -0.02262360686173893 -0.25 -0.25 -0.25 -0.25 -0.25 -0.25 -0.25 -0.25 -0.25 -0.25 -0.25 -0.25 -0.25 -0.25 -0.25 -0.25 -0.25 -0.25 -0.25 -0.25 -0.25 -0.25 -0.2426921498780553 -0.25 -0.25 -0.25 -0.25 -0.25 -0.25 -0.25 -0.2265178744986462 -0.25 -0.25 -0.25 -0.25 -0.25 -0.25 -0.25 -0.25 -0.25 -0.25 -0.25 -0.25 -0.25 -0.25 -0.25 -0.25 -0.25 -0.1244566596175735 -0.25 -0.25 -0.25 -0.25 -0.25 -0.25 -0.25 -0.25 -0.25 -0.25 -0.25 -0.25 -0.25 -0.25 -0.25 -0.25 -0.25 -0.25 -0.25 -0.25 -0.25 -0.25 -0.25 -0.25 -0.25 -0.25 -0.25 -0.25 -0.25 -0.25 -0.25 -0.25 -0.25 -0.25 -0.25 -0.25 -0.25 -0.25 -0.25 -0.25 -0.25 -0.25 -0.25 -0.25 -0.25 -0.25 -0.25 -0.25 -0.25 -0.25 -0.25 -0.25 -0.25 -0.25 -0.25 -0.25 -0.25 -0.25 -0.25 -0.25 -0.25 -0.25 -0.25 -0.25 -0.25 -0.25 -0.25 -0.2457985040316329 -0.25 -0.25 -0.25 -0.25 -0.25 -0.25 -0.25 -0.25 -0.25 -0.25 -0.25 -0.25 -0.25 -0.25 -0.25 -0.25 -0.25 -0.25 -0.25 -0.25 -0.25 -0.25 -0.25 -0.1122685940900786 -0.25 -0.25 -0.25 -0.04184927437977945 -0.25 -0.06417600352671367 -0.25 -0.25 -0.25 -0.25 -0.25 -0.04093050038396551 -0.25 -0.25 -0.25 -0.25 -0.25 -0.25 -0.25 -0.25 -0.25 -0.25 -0.2096297565262997 -0.25 -0.25 -0.25 -0.25 0.25 0.25 0.25 0.25 0.25 0.25 0.25 0.25 0.25 0.25 0.25 0.25 0.25 0.25 0.25 0.25 0.25 0.25 0.25 0.25 0.25 0.25 0.25 0.25 0.25 0.25 0.25 0.25 0.25 0.25 0.25 0.25 0.25 0.25 0.25 0.25 0.25 0.25 0.25 0.25 0.25 0.25 0.25 0.25 0.25 0.25 0.25 0.25 0.25 0.25 0.25 0.25 0.25 0.25 0.25 0.25 0.25 0.25 0.25 0.25 0.25 0.25 0.25 0.25 0.25 0.25 0.25 0.25 0.25 0.25 0.25 0.25 0.25 0.25 0.25 0.25 0.25 0.25 0.25 0.25 0.25 0.25 0.25 0.25 0.25 0.25 0.25 0.25 0.25 0.25 0.25 0.25 0.25 0.25 0.25 0.25 0.25 0.25 0.25 0.25 0.25 0.25 0.25 0.25 0.25 0.25 0.25 0.25 0.25 0.25 0.25 0.25 0.25 0.25 0.25 0.25 0.25 0.25 0.25 0.25 0.25 0.25 0.25 0.25 0.25 0.25 0.25 0.25 0.25 0.25 0.25 0.25 0.25 0.25 0.25 0.25 0.25 0.25 0.25 0.25 0.25 0.25 0.25 0.25 0.25 0.25 0.25 0.25 0.25 0.25 0.25 0.25 0.25 0.25 0.25 0.25 0.25 0.25 0.25 0.25 0.25 0.25 0.25 0.25 0.25 0.25 0.25 0.25 0.25 0.25 0.25 0.1518218922712647 0.1339745790491008 0.25 -0.25 -0.25 -0.25 -0.25 -0.25 -0.25 -0.25 -0.25 -0.25 -0.25 -0.25 -0.25 -0.25 -0.25 -0.25 -0.25 -0.25 -0.25 -0.2306553559372227 -0.25 -0.25 -0.25 -0.25 -0.25 -0.25 -0.25 -0.25 -0.25 -0.25 -0.25 -0.25 -0.25 -0.25 -0.25 -0.25 -0.25 -0.25 -0.1039987940464378 -0.25 -0.25 -0.25 -0.25 -0.25 -0.25 -0.25 -0.25 -0.25 -0.25 -0.25 -0.25 -0.25 -0.25 -0.25 -0.25 -0.25 -0.25 -0.25 -0.25 -0.25 -0.25 -0.25 -0.25 -0.25 -0.25 -0.25 -0.1390957910050805 -0.25 -0.25 -0.25 -0.25 -0.25 -0.25 -0.25 -0.25 -0.25 -0.25 -0.25 -0.25 -0.25 -0.25 -0.25 -0.25 -0.25 -0.25 -0.25 -0.25 -0.25 -0.25 -0.25 -0.25 -0.25 -0.25 -0.25 -0.25 -0.25 -0.25 -0.1750262533452255 -0.25 -0.25 -0.25 -0.25 -0.25 -0.25 -0.25 -0.25 -0.25 -0.25 -0.25 -0.25 -0.25 -0.25 -0.25 -0.25 -0.25 -0.25 -0.25 -0.25 -0.25 -0.25 -0.25 -0.25 -0.25 -0.25 -0.25 -0.25 -0.25 -0.25 -0.1475289526495506 -0.25 -0.25 -0.25 -0.25 -0.25 -0.25 -0.25 -0.25 -0.25 -0.25 -0.25 -0.25 -0.25 -0.25 -0.25 -0.25 -0.25 -0.25 -0.25 -0.25 -0.25 -0.25 -0.25 -0.25 -0.25 -0.25 -0.25 -0.25 -0.25 -0.25 -0.25 -0.1659117830651455 -0.25 -0.25 -0.25 -0.25 -0.04943941810875968 -0.25 -0.25 -0.25 -0.25 -0.25 -0.25 -0.25 -0.25 -0.25 -0.25 -0.25 -0.25 -0.25 -0.25 -0.25 -0.25 -0.25 -0.2034662633300466 -0.25 -0.25 -0.25 -0.25 -0.25 -0.25 -0.25 -0.25 -0.25 -0.25 -0.25 -0.25 -0.25 -0.25 -0.25 -0.25 -0.25 -0.25 -0.25 -0.06761550516817839 -0.25 -0.25 -0.25 -0.25 -0.25 -0.25 -0.25 -0.25 -0.25 -0.25 -0.25 -0.25 -0.25 -0.25 -0.25 -0.25 -0.25 -0.25 -0.25 -0.25 -0.25 -0.25 0.25 0.25 0.03865641037004398 0.25 0.25 0.25 0.25 0.25 0.25 0.25 0.25 0.25 0.25 0.25 0.25 0.25 0.25 0.25 0.25 0.25 0.25 0.25 0.25 0.25 0.25 0.25 0.25 0.25 0.25 0.25 0.25 0.25 0.25 0.25 0.25 0.25 0.25 0.25 0.25 0.25 0.25 0.25 0.25 0.25 0.25 0.25 0.2001526173026371 0.1413157289515008 0.25 0.07645071220999894 0.25 0.1760848690707471 0.25 0.25 0.25 0.25 0.25 0.25 0.25 0.25 0.25 0.25 0.25 0.25 0.25 0.25 0.25 0.1382938061055071 0.25 0.25 0.25 0.25 0.25 0.25 0.25 0.25 0.25 0.25 0.25 0.25 0.25 0.25 0.25 0.25 0.25 0.2324548216070558 0.25 0.25 0.25 0.25 0.25 0.25 0.25 0.25 0.25 0.25 0.25 0.25 0.25 0.25 0.25 0.25 0.25 0.25 0.25 0.25 0.25 0.25 0.25 0.25 0.004240764867895369 0.25 0.25 0.25 0.25 0.25 0.25 0.25 0.25 0.25 0.25 0.25 0.25 0.25 0.25 0.25 0.25 0.25 0.25 0.25 0.25 0.25 0.25 0.25 0.25 0.25 0.25 0.25 0.25 0.25 0.25 0.25 0.25 0.25 0.25 0.25 0.25 0.25 0.1942214233989602 0.25 0.25 0.25 0.25 0.25 0.25 0.25 0.25 0.25 0.25 0.25 0.25 0.25 0.25 0.25 0.25 0.25 0.25 0.189280105417061 0.25 0.25 0.25 0.25 0.25 0.25 0.25 0.25 0.25 0.25 0.25 0.25 0.25 0.25 0.25 0.25 0.25 0.25 0.25 0.25 0.25 0.25 0.25 0.25 0.25 0.25 0.25 0.25 0.25 0.25 0.25 0.25 
1 3 4 9 10 20 23 24 25 29 33 34 35 46 48 55 61 64 70 72 73 76 83 90 98 103 104 111 113 136 150 152 167 172 188 189 190 197 198 200 202 203 204 206 208 210 211 213 215 216 217 218 220 221 222 223 224 225 226 227 228 229 230 231 232 233 234 235 236 237 238 239 240 241 243 244 245 246 247 248 249 251 255 257 258 259 260 261 262 263 267 269 270 271 272 275 277 279 281 282 283 285 288 289 290 293 295 300 301 303 304 305 308 309 311 312 314 315 317 318 320 323 324 325 327 328 339 341 345 346 351 353 354 355 356 357 358 360 361 363 364 365 366 367 368 369 370 375 376 378 384 385 388 389 390 391 393 394 396 397 398 399 400 402 404 405 406 408 409 410 411 412 413 414 415 416 417 418 420 421 422 424 425 426 427 428 430 431 433 434 435 436 438 440 441 442 443 445 446 448 449 450 451 452 453 454 455 457 458 459 460 461 462 463 464 465 466 469 470 472 473 474 476 477 478 479 480 481 482 486 489 491 492 496 497 499 500 501 502 503 505 507 508 509 510 512 513 514 515 516 521 523 525 526 527 528 529 531 533 534 537 539 540 541 544 546 547 548 554 555 559 560 561 562 563 565 566 568 569 570 572 573 575 576 577 579 583 584 585 586 587 588 591 592 593 594 595 596 599 600 603 604 606 608 609 610 611 612 617 620 623 624 626 627 630 631 633 634 636 637 638 639 640 645 646 648 649 650 651 652 653 654 656 658 659 660 661 672 676 677 682 683 684 685 688 690 696 700 701 702 703 705 708 711 713 730 733 734 735 736 737 738 739 740 741 742 743 744 745 746 747 748 749 750 751 752 753 754 755 758 759 760 761 762 763 764 765 766 767 768 769 771 772 774 775 776 777 778 779 780 781 782 783 784 785 787 788 789 790 791 793 794 795 796 797 798 799 801 802 803 804 805 806 807 808 809 810 811 812 813 814 815 816 817 818 819 820 821 822 823 824 825 826 827 828 829 830 831 832 833 834 835 836 837 838 839 840 841 842 843 844 845 846 847 848 849 850 851 852 853 854 855 856 857 858 859 860 861 862 863 864 865 866 867 868 869 870 871 872 873 874 875 876 877 878 879 880 881 882 883 884 885 886 887 888 889 890 891 892 893 894 895 896 897 898 899 900 901 902 903 904 905 906 907 908 909 910 911 912 913 914 915 916 917 918 919 920 921 922 923 924 925 926 927 928 929 930 931 932 933 934 935 936 937 938 939 940 941 942 943 944 945 946 947 948 949 950 951 952 953 954 955 956 957 958 959 960 961 962 963 964 965 966 967 968 969 970 971 972 973 974 975 976 977 978 979 980 981 982 983 984 985 986 987 988 989 990 991 992 993 994 995 996 997 998 999 1000 1001 1002 1003 1004 1005 1006 1007 1008 1009 1010 1011 1012 1013 1014 1015 1016 1017 1018 1019 1020 1021 1022 1023 1024 1025 1026 1027 1028 1029 1030 1031 1032 1033 1034 1035 1036 1037 1038 1039 1040 1041 1042 1043 1044 1045 1046 1047 1048 1049 1050 1051 1052 1053 1054 1055 1056 1057 1058 1059 1060 1061 1062 1063 1064 1065 1066 1067 1068 1069 1070 1071 1072 1073 1074 1075 1076 1077 1078 1079 1080 1081 1082 1083 1084 1085 1086 1087 1088 1089 1090 1091 1092 1093 1094 1095 1096 1097 1098 1099 1100 1101 1102 1103 1104 1105 1106 1107 1108 1109 1110 1111 1112 1113 1114 1115 1116 1117 1118 1119 1120 1121 1122 1123 1124 1125 1126 1127 1128 1129 1130 1131 1132 1133 1134 1135 1136 1137 1138 1139 1140 1141 1142 1143 1144 1145 1146 1147 1148 1149 1150 1151 1152 1153 1154 1155 1156 1157 1158 1159 1160 1161 1163 1164 1165 1166 1167 1171 1172 1173 1174 1175 1176 1178 1179 1180 1181 1183 1184 1185 1186 1187 1188 1189 1190 1191 1192 1193 1194 1195 1196 1197 1198 1199 1200 1201 1209 1210 1211 1212 1213 1214 1215 1217 1220 1221 1223 1224 1225 1226 1227 1228 1229 1230 1231 1239 1242 1243 1244 1245 1247 1248 1249 1250 1251 1252 1254 1255 1256 1257 1258 1259 1260 1264 1272 1273 1274 1275 1279 1280 1281 1282 1283 1284 1285 1286 1287 1288 1289 1290 1296 1301 1304 1305 1308 1309 1313 1314 1317 1318 1319 1320 1321 1323 1328 1329 1330 1331 1332 1333 1335 1336 1340 1349 1351 1354 1356 1358 1360 1364 1365 1368 1369 1370 1378 1379 1380 1381 1387 1389 1390 1391 1393 1394 1398 1399 1400 1410 1415 1422 1424 1425 1426 1427 1429 1430 1431 1432 1434 1435 1436 1437 1439 1440 1441 1442 1443 1444 1445 1446 1447 1448 1449 1450 1451 1452 1453 1454 1455 1456 1457 1458 1459 1460 1461 1462 1463 1464 1466 1467 1468 1469 1470 1472 1473 1474 1475 1477 1479 1480 1481 1484 1485 1486 1487 1489 1490 1491 1492 1494 1495 1497 1498 1499 1501 1502 1503 1504 1505 1507 1508 1509 1510 1511 1512 1513 1514 1515 1517 1518 1519 1520 1521 1522 1524 1525 1526 1527 1528 1529 1530 1532 1533 1534 1535 1536 1537 1538 1541 1542 1543 1544 1545 1546 1547 1548 1549 1550 1551 1554 1555 1556 1557 1558 1559 1561 1563 1565 1566 1567 1568 1569 1571 1574 1575 1577 1578 1580 1581 1582 1583 1584 1586 1587 1588 1589 1590 1591 1592 1593 1594 1595 1597 1599 1600 1601 1602 1603 1605 1606 1607 1608 1609 1610 1614 1615 1617 1618 1622 1623 1625 1626 1628 1631 1633 1635 1636 1637 1638 1639 1640 1641 1642 1643 1644 1645 1646 1647 1649 1650 1651 1652 1653 1654 1656 1658 1659 1662 1663 1664 1666 1667 1668 1669 1670 1671 1672 1673 1674 1676 1677 1678 1679 1680 1682 1683 1684 1685 1686 1687 1688 1689 1690 1691 1693 1694 1695 1696 1697 1701 1703 1704 1705 1706 1709 1710 1711 1714 1715 1716 1718 1719 1720 1721 1722 1723 1725 1726 1728 1729 1733 1734 1735 1736 1737 1738 1739 1740 1742 1743 1744 1745 1746 1748 1749 1750 1751 1752 1753 1754 1755 1756 1757 1760 1761 1762 1764 1765 1766 1767 1769 1771 1772 1773 1774 1775 1776 1777 1778 1780 1781 1782 1783 1785 1786 1787 1788 1789 1791 1792 1794 1796 1798 1799 1800 1801 1802 1804 1806 1807 1809 1810 1811 1812 1813 1815 1817 1818 1819 1820 1821 1822 1823 1824 1826 1828 1829 1833 1834 1836 1837 1838 1839 1840 1841 1843 1844 1845 1846 1847 1848 1849 1850 1851 1852 1853 1856 1857 1858 1859 1860 1861 1863 1864 1865 1866 1867 1868 1869 1870 1871 1873 1874 1875 1876 1877 1878 1880 1881 1882 1883 1884 1885 1886 1887 1888 1889 1890 1891 1892 1893 1895 1896 1897 1898 1899 1900 1901 1902 1903 1904 1905 1906 1908 1909 1910 1911 1912 1913 1914 1915 1916 1917 1918 1919 1920 1921 1922 1923 1924 1925 1926 1927 1928 1929 1930 1931 1932 1933 1934 1935 1936 1937 1938 1939 1940 1941 1942 1943 1944 1945 1946 1947 1951 1953 1954 1957 1959 1960 1961 1962 1963 1964 1966 1967 1969 1970 1971 1972 1973 1974 1975 1977 
0.25 0.25 0.25 0.25 0.25 0.25 0.25 0.25 0.25 0.25 0.25 0.25 0.25 0.1787937914479067 0.25 0.2186761093949552 0.25 0.25 0.25 0.25 0.25 0.25 0.25 0.25 0.25 0.25 0.09973927642343716 0.25 0.25 0.25 0.1534791495384264 0.04531648503747223 0.0005659792136590339 0.25 0.25 0.25 0.25 0.25 0.25 0.25 0.25 0.25 0.25 0.25 0.25 0.25 0.25 0.25 0.25 0.25 0.25 0.25 0.25 0.25 0.25 0.25 0.25 0.25 0.25 0.25 0.25 0.25 0.25 0.25 0.25 0.25 0.25 0.25 0.25 0.25 0.25 0.25 0.25 0.25 0.25 -0.25 -0.25 -0.25 -0.08889116006103732 -0.25 -0.25 -0.25 -0.25 -0.25 -0.25 -0.25 -0.25 -0.25 -0.1149064528905346 -0.25 -0.25 -0.25 -0.25 -0.25 -0.25 -0.25 -0.25 -0.1142321539842424 -0.25 -0.25 -0.25 -0.25 -0.25 -0.2092405859909919 -0.25 -0.25 -0.25 -0.25 -0.25 -0.25 -0.25 -0.25 -0.25 -0.25 -0.25 -0.25 -0.25 -0.25 -0.1295344443821668 -0.1646153816610866 -0.25 -0.1062495043577184 -0.25 -0.25 -0.2444424495144588 -0.1631974696190646 -0.09467667111448218 -0.25 -0.05321796011810827 -0.0152422623814312 -0.25 -0.09268529915215289 -0.25 -0.25 -0.25 -0.25 -0.183713487847995 -0.25 -0.25 -0.25 -0.25 -0.25 -0.25 -0.25 -0.25 -0.25 -0.25 -0.25 -0.25 -0.25 -0.25 -0.25 -0.03678055867532266 -0.25 -0.25 -0.25 -0.25 -0.25 -0.25 -0.25 -0.25 -0.2154314869569102 -0.25 -0.25 -0.25 -0.25 -0.25 -0.25 -0.25 -0.25 -0.25 -0.25 -0.25 -0.25 -0.25 -0.25 -0.25 -0.25 -0.25 -0.25 -0.25 -0.25 -0.25 -0.25 -0.25 -0.25 -0.25 -0.25 -0.25 -0.25 -0.25 -0.25 -0.25 -0.25 -0.25 -0.25 -0.25 -0.25 -0.25 -0.25 -0.25 -0.2304565391997689 -0.25 -0.25 -0.25 -0.25 -0.25 -0.25 -0.25 -0.1304947871515326 -0.25 -0.25 -0.1218139706926454 -0.25 -0.25 -0.25 -0.25 -0.25 -0.25 -0.25 -0.25 -0.25 -0.25 -0.25 -0.25 -0.25 -0.25 -0.25 -0.25 -0.25 -0.25 -0.2481632163916906 -0.25 -0.25 -0.25 -0.1651648155589082 -0.25 -0.25 -0.25 -0.25 -0.25 -0.25 -0.25 -0.25 -0.25 -0.25 -0.25 -0.25 -0.25 -0.25 -0.25 -0.06426117349231231 -0.25 -0.25 -0.25 -0.25 -0.25 -0.25 -0.25 -0.25 -0.25 -0.25 -0.25 -0.25 -0.25 -0.25 -0.25 -0.25 -0.25 -0.25 -0.1306235013110315 -0.25 -0.25 -0.25 -0.25 -0.25 -0.25 -0.25 -0.25 -0.25 -0.25 -0.25 -0.25 -0.25 -0.25 -0.25 -0.25 -0.25 -0.25 -0.25 -0.25 -0.25 -0.25 -0.25 -0.25 -0.25 -0.25 -0.25 -0.25 -0.25 -0.25 -0.25 -0.25 -0.25 -0.25 -0.25 -0.01978698056727679 -0.2316935961539634 -0.25 -0.1508311192236308 -0.25 -0.25 -0.25 -0.25 -0.25 -0.25 -0.25 -0.25 -0.25 -0.25 -0.25 -0.25 -0.2155634944314252 -0.25 -0.25 -0.25 -0.25 -0.25 -0.1135587613578215 -0.25 -0.25 -0.25 -0.25 -0.25 -0.25 -0.25 -0.25 -0.25 -0.25 -0.25 -0.25 -0.25 -0.06594131995047682 -0.05227208369301298 -0.25 -0.25 -0.25 -0.25 -0.25 -0.1936048043426166 -0.25 -0.25 -0.25 -0.25 -0.25 -0.25 0.25 0.25 0.25 0.25 0.25 0.25 0.25 0.25 0.25 0.25 0.25 0.25 0.25 0.25 0.25 0.25 0.25 0.25 0.25 0.25 0.25 0.25 0.25 0.25 0.25 0.25 0.25 0.25 0.25 0.25 0.25 0.25 0.25 0.25 0.25 0.25 0.25 0.25 0.25 0.25 0.25 0.25 0.25 0.25 0.25 0.25 0.25 0.25 0.25 0.25 0.25 0.25 0.25 0.25 0.25 0.25 0.25 0.25 0.25 0.25 0.25 0.25 0.25 0.25 0.25 0.25 0.25 0.25 0.25 0.25 0.25 0.25 0.25 0.25 0.25 0.25 0.25 0.25 0.25 0.25 0.25 0.25 0.25 0.25 0.25 0.25 0.25 0.25 0.25 0.25 0.25 0.25 0.25 0.25 0.25 0.25 0.25 0.25 0.25 0.25 0.25 0.25 0.25 0.25 0.25 0.25 0.25 0.25 0.25 0.25 0.25 0.25 0.25 0.25 0.25 0.25 0.25 0.25 0.25 0.25 0.25 0.25 0.25 0.25 0.25 0.25 0.25 0.25 0.25 0.25 0.25 0.25 0.25 0.25 0.25 0.25 0.25 0.25 0.25 0.25 0.25 0.25 0.25 0.25 0.25 0.25 0.25 0.25 0.25 0.25 0.25 0.25 0.25 0.25 0.25 0.25 0.25 0.25 0.25 0.25 0.25 0.25 0.25 0.25 0.25 0.25 0.25 0.25 0.25 0.25 0.25 0.25 0.25 0.25 0.25 0.25 0.25 0.25 0.25 0.25 0.25 0.25 0.25 0.25 0.25 0.25 0.25 0.25 0.25 0.25 0.25 0.25 0.25 0.25 0.25 0.25 0.25 0.25 0.25 0.25 0.25 0.25 0.25 0.25 0.25 0.25 0.25 0.25 0.25 0.25 0.25 0.25 0.25 0.25 0.25 0.25 0.25 0.25 0.25 0.25 0.25 0.25 0.25 0.25 0.25 0.25 0.25 0.25 0.25 0.25 0.25 0.25 0.25 0.25 0.25 0.25 0.25 0.25 0.25 0.25 0.25 0.25 0.25 0.25 0.25 0.25 0.25 0.25 0.25 0.25 0.25 0.25 0.25 0.25 0.25 0.25 0.25 0.25 0.25 0.25 0.25 0.25 0.25 0.25 0.25 0.25 0.25 0.25 0.25 0.25 0.25 0.25 0.25 0.25 0.25 0.25 0.25 0.25 0.25 0.25 0.25 0.25 0.25 0.25 0.25 0.25 0.25 0.25 0.25 0.25 0.25 0.25 0.25 0.25 0.25 0.25 0.25 0.25 0.25 0.25 0.25 0.25 0.25 0.25 0.25 0.25 0.25 0.25 0.25 0.25 0.25 0.25 0.25 0.25 0.25 0.25 0.25 0.25 0.25 0.25 0.25 0.25 0.25 0.25 0.25 0.25 0.25 0.25 0.25 0.25 0.25 0.25 0.25 0.25 0.25 0.25 0.25 0.25 0.25 0.25 0.25 0.25 0.25 0.25 0.25 0.25 0.25 0.25 0.25 0.25 0.25 0.25 0.25 0.25 0.25 0.25 0.25 0.25 0.25 0.25 0.25 0.25 0.25 0.25 0.25 0.25 0.25 0.25 0.25 0.25 0.25 0.25 0.25 0.25 0.25 0.25 0.25 0.25 0.25 0.25 0.25 0.25 0.25 0.25 0.25 0.25 0.25 0.25 0.25 0.25 0.25 0.25 0.25 0.25 0.25 0.25 0.25 0.25 0.25 0.25 0.25 0.25 0.25 0.25 0.25 0.25 0.25 0.25 0.25 0.25 0.25 0.25 0.25 0.25 0.25 0.25 0.25 0.25 0.25 0.25 0.25 0.25 0.25 0.25 0.25 0.25 0.25 0.25 0.25 0.25 0.25 0.25 0.25 0.25 0.25 0.25 0.25 0.25 0.1633035851839215 0.25 0.25 0.25 0.25 0.25 0.25 0.25 0.25 0.25 0.25 0.25 0.25 0.25 0.25 0.25 0.1081730436767661 0.25 0.25 0.25 0.25 0.25 0.25 0.25 0.25 0.25 0.25 0.25 0.25 0.25 0.25 0.25 0.25 0.25 0.25 0.25 0.25 0.25 0.25 0.25 0.25 0.05812310698710602 0.25 0.25 0.25 0.25 0.25 0.25 0.25 0.25 0.25 0.25 0.25 0.25 0.25 0.25 0.25 0.25 0.25 0.25 0.25 0.25 0.25 0.25 0.25 0.25 0.1108655806255654 0.25 0.25 0.25 0.25 0.25 0.25 0.25 0.25 0.25 0.25 0.25 0.25 0.25 0.25 0.25 0.25 0.25 0.25 0.25 0.1906633431449928 0.25 0.25 0.25 0.25 0.25 0.25 0.25 0.25 0.25 0.25 0.1469811946144994 0.25 0.25 0.25 0.25 0.25 0.25 0.1096220689885127 0.25 0.25 0.25 0.25 0.25 0.25 0.25 0.25 0.25 0.25 0.25 0.05566114252962879 0.25 0.25 0.25 0.25 0.25 0.25 0.25 0.25 0.113433195875059 0.25 0.25 0.25 0.25 0.25 0.25 0.25 0.25 0.25 0.25 0.25 0.25 0.25 0.25 0.25 0.25 0.25 0.25 0.25 0.25 0.25 0.25 0.25 0.25 0.25 0.25 0.25 0.25 0.25 0.25 0.25 0.25 0.25 -0.25 -0.25 -0.25 -0.25 -0.25 -0.25 -0.25 -0.25 -0.25 -0.25 -0.25 -0.25 -0.25 -0.25 -0.068252432681987 -0.25 -0.25 -0.25 -0.2139063528780701 -0.25 -0.25 -0.25 -0.25 -0.25 -0.25 -0.25 -0.25 -0.25 -0.25 -0.25 -0.25 -0.25 -0.25 -0.04031783415365056 -0.25 -0.25 -0.25 -0.25 -0.25 -0.25 -0.25 -0.25 -0.25 -0.25 -0.25 -0.25 -0.25 -0.25 -0.25 -0.25 -0.25 -0.25 -0.2328641340099322 -0.25 -0.25 -0.25 -0.25 -0.25 -0.25 -0.25 -0.25 -0.25 -0.25 -0.25 -0.25 -0.25 -0.25 -0.25 -0.25 -0.25 -0.25 -0.25 -0.25 -0.25 -0.25 -0.25 -0.25 -0.25 -0.25 -0.25 -0.25 -0.25 -0.25 -0.25 -0.25 -0.25 -0.25 -0.25 -0.25 -0.25 -0.25 -0.25 -0.25 -0.25 -0.25 -0.25 -0.1778206465559383 -0.25 -0.25 -0.25 -0.25 -0.25 -0.25 -0.25 -0.25 -0.25 -0.25 -0.25 -0.25 -0.25 -0.25 -0.25 -0.25 -0.25 -0.25 -0.25 -0.25 -0.25 -0.25 -0.25 -0.25 -0.25 -0.25 -0.25 -0.25 -0.25 -0.25 -0.25 -0.25 -0.25 -0.25 -0.25 -0.25 -0.25 -0.25 -0.25 -0.25 -0.25 -0.25 -0.25 -0.25 -0.25 -0.25 -0.25 -0.25 -0.25 -0.25 -0.25 -0.25 -0.25 -0.25 -0.25 -0.25 -0.25 -0.25 -0.25 -0.25 -0.25 -0.25 -0.25 -0.25 -0.06630395692979128 -0.25 -0.25 -0.25 -0.25 -0.25 -0.25 -0.25 -0.25 -0.03744546906717347 -0.25 -0.25 -0.0770460874708029 -0.25 -0.25 -0.25 -0.25 -0.25 -0.25 -0.25 -0.25 -0.25 -0.25 -0.25 -0.25 -0.25 -0.25 -0.25 -0.25 -0.25 -0.08988940205579692 -0.25 -0.25 -0.25 -0.25 -0.25 -0.25 -0.25 -0.25 -0.25 -0.25 -0.25 -0.25 -0.1079543026984279 -0.25 -0.25 -0.25 -0.25 -0.25 -0.25 -0.25 -0.25 -0.25 -0.25 -0.25 -0.25 -0.25 -0.25 -0.25 -0.25 -0.2042080714262338 -0.25 -0.25 -0.25 -0.25 -0.25 -0.25 -0.25 -0.25 -0.25 -0.25 -0.25 -0.25 -0.25 -0.25 -0.25 -0.25 -0.25 -0.25 -0.25 -0.25 -0.25 -0.25 -0.25 -0.25 -0.25 -0.25 -0.25 -0.25 -0.25 -0.25 -0.25 -0.25 -0.25 -0.25 -0.25 -0.25 -0.25 -0.25 -0.25 -0.25 -0.25 -0.25 -0.25 -0.25 -0.25 -0.25 -0.25 -0.25 -0.25 -0.25 -0.25 -0.25 -0.25 -0.25 -0.25 -0.25 -0.25 -0.25 -0.25 -0.25 -0.25 -0.25 -0.25 -0.25 -0.25 -0.25 -0.25 -0.25 -0.25 -0.25 -0.25 -0.25 -0.25 -0.25 -0.25 -0.25 -0.25 -0.25 -0.25 -0.25 -0.25 -0.25 -0.25 -0.25 -0.25 -0.25 -0.25 -0.25 -0.25 -0.25 -0.25 -0.25 -0.25 -0.25 -0.25 -0.25 -0.25 -0.25 -0.25 -0.25 -0.25 -0.25 -0.25 -0.25 -0.127736079292767 -0.25 -0.25 -0.25 -0.25 -0.25 -0.25 -0.25 -0.25 -0.25 -0.25 -0.25 -0.25 -0.25 -0.25 -0.25 -0.25 -0.25 -0.25 -0.25 -0.25 -0.25 -0.25 -0.25 -0.25 -0.25 -0.25 -0.25 -0.25 -0.25 -0.25 -0.25 -0.25 -0.25 -0.25 -0.25 -0.25 -0.25 -0.25 -0.25 -0.25 -0.25 -0.25 -0.25 -0.25 -0.25 -0.25 -0.25 -0.25 -0.25 -0.25 -0.25 -0.25 -0.25 -0.08218922691769696 -0.25 -0.25 -0.25 -0.25 -0.25 -0.25 -0.25 -0.09146615316277502 -0.25 -0.25 -0.2341189562455905 -0.25 -0.25 -0.25 -0.1462703345912549 -0.25 -0.25 -0.25 -0.25 -0.25 -0.25 -0.25 -0.25 -0.25 -0.09432012031820221 
0 18 19 26 28 30 33 46 47 50 51 55 59 68 70 76 79 83 86 87 90 100 101 103 109 111 112 113 122 124 129 152 191 192 193 218 226 235 244 245 248 249 250 251 252 254 255 257 258 259 260 261 262 263 267 269 270 271 272 275 277 278 279 280 281 282 283 284 285 287 288 289 290 291 293 295 299 300 301 303 304 307 308 309 310 311 312 314 315 317 320 322 323 324 325 327 328 332 333 338 339 341 342 343 345 347 348 350 351 353 354 355 356 357 359 360 361 362 363 364 366 367 368 369 370 372 373 374 375 376 377 378 379 381 382 383 386 387 389 390 394 395 396 397 398 399 400 401 402 404 407 408 409 410 412 413 416 418 420 422 423 424 425 426 427 428 429 430 431 433 434 435 436 437 438 440 442 444 445 446 447 448 449 450 451 452 455 456 457 458 459 460 461 462 464 465 466 467 468 470 471 472 473 474 475 476 478 482 484 485 487 488 489 490 491 492 493 494 495 496 498 499 500 501 502 504 506 508 509 510 511 512 515 516 517 518 519 520 524 526 527 528 529 530 531 532 533 534 535 536 537 538 539 540 541 542 543 544 548 553 554 555 557 558 560 562 563 564 565 566 567 568 570 571 572 576 577 578 579 580 582 583 584 586 587 589 590 591 592 597 598 601 602 603 605 607 608 609 611 614 615 616 617 618 619 620 621 622 623 624 625 626 628 632 634 635 636 637 642 643 644 647 656 657 659 660 661 663 664 665 666 667 669 671 672 673 674 681 686 687 688 691 694 695 696 698 704 705 709 710 712 718 719 720 721 724 725 726 727 731 732 735 744 756 757 758 760 764 765 767 770 772 773 776 781 782 786 789 790 792 800 801 803 807 810 811 813 814 818 819 820 823 824 825 830 840 842 844 848 855 866 889 895 899 900 901 902 903 906 908 920 923 937 941 948 949 950 968 969 970 972 973 974 975 978 980 982 984 986 988 989 990 995 996 1003 1004 1008 1009 1011 1012 1015 1016 1020 1023 1024 1025 1027 1028 1029 1030 1031 1032 1033 1034 1035 1036 1037 1038 1042 1043 1044 1045 1048 1049 1050 1051 1052 1055 1056 1057 1058 1060 1061 1062 1063 1064 1065 1066 1067 1068 1069 1070 1071 1072 1073 1074 1075 1076 1077 1078 1079 1080 1081 1082 1083 1084 1085 1086 1087 1088 1089 1090 1091 1092 1093 1094 1095 1096 1097 1098 1099 1100 1101 1102 1103 1104 1105 1106 1107 1108 1109 1110 1111 1112 1113 1114 1115 1116 1117 1118 1119 1120 1121 1122 1123 1124 1125 1126 1127 1128 1129 1130 1131 1132 1133 1137 1140 1143 1148 1150 1151 1152 1153 1154 1155 1156 1157 1158 1159 1160 1161 1163 1164 1165 1166 1167 1168 1171 1172 1173 1174 1175 1176 1177 1178 1179 1180 1181 1183 1185 1186 1187 1188 1189 1190 1191 1192 1193 1194 1195 1196 1197 1198 1199 1200 1201 1203 1209 1210 1211 1212 1213 1214 1215 1220 1221 1223 1224 1225 1226 1227 1228 1229 1230 1231 1232 1239 1242 1243 1244 1245 1246 1247 1248 1249 1250 1251 1252 1254 1255 1256 1257 1258 1259 1260 1261 1264 1271 1272 1273 1274 1275 1279 1280 1281 1282 1283 1284 1286 1287 1288 1289 1290 1296 1297 1301 1304 1305 1308 1309 1312 1313 1314 1317 1318 1319 1320 1321 1322 1323 1329 1330 1331 1332 1333 1335 1336 1340 1345 1349 1351 1354 1355 1356 1358 1360 1364 1365 1368 1369 1370 1376 1378 1380 1381 1387 1389 1390 1391 1393 1394 1399 1410 1415 1422 1424 1425 1426 1427 1428 1430 1431 1432 1434 1435 1436 1437 1439 1441 1442 1443 1444 1445 1446 1447 1449 1450 1451 1452 1453 1454 1455 1456 1457 1458 1459 1460 1461 1462 1472 1475 1479 1480 1487 1488 1491 1492 1498 1502 1504 1505 1507 1508 1523 1534 1536 1548 1550 1552 1565 1566 1572 1573 1574 1577 1591 1593 1594 1599 1600 1605 1606 1609 1611 1614 1619 1620 1622 1624 1625 1626 1628 1630 1631 1633 1635 1636 1638 1643 1647 1652 1656 1657 1659 1662 1667 1669 1670 1671 1672 1673 1674 1677 1684 1687 1689 1690 1691 1692 1693 1694 1695 1696 1698 1700 1701 1703 1704 1705 1706 1707 1708 1709 1710 1711 1712 1713 1714 1715 1716 1717 1718 1719 1720 1721 1722 1723 1725 1726 1728 1729 1731 1733 1734 1735 1736 1737 1738 1739 1740 1742 1743 1744 1745 1746 1749 1751 1754 1757 1758 1760 1762 1764 1770 1771 1775 1783 1785 1789 1792 1799 1800 1805 1806 1812 1816 1826 1827 1831 1834 1851 1852 1860 1863 1864 1865 1868 1871 1873 1876 1884 1887 1889 1891 1898 1900 1901 1906 1912 1916 1918 1922 1924 1928 1931 1933 1935 1936 1941 1943 1946 1947 1948 1949 1950 1952 1954 1955 1956 1957 1958 1959 1962 1963 1964 1965 1966 1967 1975 
-0.25 -0.25 -0.25 -0.1170318143325811 -0.25 -0.25 -0.25 -0.25 -0.25 -0.25 -0.25 -0.07523784338759869 -0.25 -0.25 -0.25 -0.25 -0.25 -0.25 -0.25 -0.25 -0.25 -0.25 -0.1688780732645946 -0.25 -0.25 -0.25 -0.25 -0.25 -0.25 -0.25 -0.1478259426374425 -0.25 -0.25 -0.25 -0.25 -0.25 -0.25 -0.02724008105493778 0.25 0.25 0.25 0.25 0.01991085851462162 0.25 0.25 0.25 0.25 0.25 0.25 0.25 0.25 0.25 0.25 0.25 0.25 0.25 0.25 0.25 0.25 0.25 0.25 0.0751523178178615 0.25 0.06341020255559954 0.25 0.25 0.25 0.07238493137013646 0.25 0.1196944481149385 0.25 0.25 0.25 0.25 0.25 0.25 0.25 0.25 0.25 0.25 0.25 0.06381854409268252 0.25 0.25 0.2092051977563251 0.25 0.25 0.25 0.25 0.190474939180167 0.25 0.0897300960138009 0.25 0.1671713886717069 0.25 0.2165983591258601 0.25 0.03483357884701857 0.03370462264514432 0.1415222913196693 0.1947245793833727 0.1591754384920125 0.1034869413027788 0.1539765437352553 0.2103241313159226 0.2220139903818593 0.08434013965422425 0.04206425118133277 0.25 0.25 0.25 0.25 0.25 0.25 0.25 0.1924224159256311 0.1652431711313033 0.25 0.244635844299135 0.25 0.25 0.25 0.25 0.25 0.25 0.25 -0.25 -0.25 -0.25 -0.25 -0.25 -0.25 -0.25 -0.25 -0.25 -0.25 -0.25 -0.25 -0.25 -0.25 -0.1245416016273296 -0.25 -0.25 -0.25 -0.25 -0.25 -0.25 -0.25 -0.25 -0.25 -0.07527814137208723 -0.25 -0.25 -0.25 -0.25 -0.25 -0.25 -0.25 -0.25 -0.25 -0.25 -0.25 -0.25 -0.25 -0.25 -0.25 -0.25 -0.25 -0.25 -0.25 -0.25 -0.25 -0.25 -0.25 -0.25 -0.25 -0.25 -0.25 -0.25 -0.25 -0.25 -0.25 -0.25 -0.25 -0.25 -0.25 -0.25 -0.25 -0.25 -0.25 -0.25 -0.25 -0.25 -0.25 -0.25 -0.25 -0.25 -0.25 -0.25 -0.25 -0.25 -0.25 -0.25 -0.25 -0.25 -0.25 -0.25 -0.25 -0.25 -0.25 -0.25 -0.25 -0.25 -0.25 -0.25 -0.25 -0.25 -0.25 -0.25 -0.05979700574260302 -0.25 -0.25 -0.25 -0.25 -0.25 -0.25 -0.25 -0.25 -0.25 -0.25 -0.25 -0.25 -0.25 -0.25 -0.25 -0.25 -0.25 -0.25 -0.25 -0.25 -0.25 -0.25 -0.25 -0.25 -0.25 -0.25 -0.25 -0.25 -0.25 -0.25 -0.25 -0.25 -0.25 -0.25 -0.25 -0.25 -0.25 -0.25 -0.25 -0.25 -0.25 -0.25 -0.25 -0.25 -0.25 -0.25 -0.25 -0.1620096046078228 -0.25 -0.25 -0.25 -0.25 -0.25 -0.25 -0.25 -0.25 -0.25 -0.25 -0.25 -0.25 -0.07197562720971384 -0.25 -0.25 -0.25 -0.25 -0.25 -0.25 -0.25 -0.25 -0.25 -0.25 -0.25 -0.25 -0.25 -0.25 -0.25 -0.25 -0.25 -0.2319370969358607 -0.25 -0.25 -0.25 -0.25 -0.25 -0.25 -0.25 -0.25 -0.25 -0.25 -0.25 -0.25 -0.25 -0.03810089115856202 -0.25 -0.25 -0.25 -0.25 -0.2419617579915879 -0.25 -0.25 -0.25 -0.25 -0.006551596202534559 -0.25 -0.25 -0.0009775289482936006 -0.25 -0.25 -0.25 -0.25 -0.25 -0.25 -0.25 -0.25 -0.25 -0.25 -0.25 -0.25 -0.25 -0.25 -0.25 -0.25 -0.25 -0.25 -0.25 -0.02054057573265433 -0.25 -0.25 -0.25 -0.25 -0.25 -0.25 -0.1239510577708103 -0.2296410261835049 -0.25 -0.1043844131082022 -0.005745333490519243 -0.25 -0.08999695524295162 -0.25 -0.25 0.25 0.25 0.25 0.25 0.25 0.25 0.25 0.25 0.25 0.25 0.25 0.25 0.25 0.25 0.25 0.25 0.25 0.25 0.25 0.25 0.25 0.25 0.25 0.25 0.02215573549453478 0.25 0.25 0.25 0.25 0.1670603177903331 0.09644866866760667 0.25 0.25 0.25 0.25 0.25 0.25 0.25 0.25 0.25 0.25 0.25 0.25 0.25 0.25 0.25 0.25 0.25 0.25 0.25 0.25 0.25 0.25 0.25 0.08497853149103729 0.25 0.25 0.25 0.25 0.25 0.25 0.25 0.25 0.25 0.25 0.25 0.25 0.25 0.25 0.25 0.25 0.25 0.25 0.25 0.05163875725077616 0.25 0.25 0.25 0.25 0.25 0.25 0.25 0.25 0.25 0.25 0.25 0.25 0.25 0.25 0.25 0.25 0.25 0.25 0.25 0.25 0.25 0.25 0.25 0.25 0.25 0.25 0.25 0.25 0.25 0.25 0.25 0.25 0.25 0.25 0.25 0.25 0.25 0.25 0.25 0.25 0.25 0.25 0.25 0.25 0.25 0.25 0.25 0.25 0.25 0.25 0.25 0.25 0.25 0.25 0.25 0.25 0.25 0.25 0.25 0.25 0.25 0.25 0.25 0.25 0.25 0.25 0.25 0.25 0.25 0.25 0.25 0.25 0.25 0.25 0.25 0.25 0.2333676079559709 0.25 0.25 0.25 0.25 0.25 0.25 0.25 0.25 0.25 0.25 0.25 0.25 0.25 0.25 0.25 0.25 0.25 0.25 0.25 0.25 0.25 0.25 0.25 0.25 0.25 0.25 0.25 0.25 0.25 0.25 0.25 0.25 0.25 0.25 0.25 -0.25 -0.25 -0.25 -0.25 -0.25 -0.25 -0.25 -0.25 -0.25 -0.25 -0.25 -0.25 -0.25 -0.25 -0.25 -0.25 -0.25 -0.25 -0.25 -0.25 -0.25 -0.25 -0.25 -0.25 -0.25 -0.25 -0.25 -0.25 -0.25 -0.25 -0.25 -0.25 -0.25 -0.25 -0.25 -0.25 -0.25 -0.25 -0.25 -0.25 -0.25 -0.25 -0.25 -0.25 -0.25 -0.25 -0.25 -0.25 -0.003292800997063255 -0.25 -0.25 -0.25 -0.25 -0.25 -0.25 -0.25 -0.25 -0.25 -0.25 -0.25 -0.25 -0.25 -0.25 -0.25 -0.25 -0.25 -0.25 -0.25 -0.25 -0.25 -0.25 -0.25 -0.25 -0.25 -0.25 -0.25 -0.25 -0.25 -0.25 -0.25 -0.25 -0.25 -0.25 -0.25 -0.25 -0.25 -0.25 -0.25 -0.25 -0.25 -0.25 -0.25 -0.25 -0.25 -0.25 -0.25 -0.25 -0.25 -0.25 -0.25 -0.25 -0.25 -0.25 -0.25 -0.25 -0.25 -0.25 -0.25 -0.25 -0.25 -0.25 -0.25 -0.25 -0.25 -0.25 -0.25 -0.2427255270792227 -0.25 -0.25 -0.25 -0.1574761441384685 -0.25 -0.25 -0.25 -0.25 -0.25 -0.25 -0.25 -0.25 -0.25 -0.25 -0.25 -0.25 -0.0760784429487029 -0.1767335109920619 -0.25 -0.25 -0.25 -0.25 -0.25 -0.25 -0.2082338485905531 -0.25 -0.25 -0.25 -0.25 -0.25 -0.25 -0.25 -0.25 -0.25 -0.25 -0.25 -0.25 -0.25 -0.25 -0.25 -0.25 -0.25 -0.25 -0.25 -0.25 -0.25 -0.25 -0.25 -0.25 -0.25 -0.25 -0.25 -0.25 -0.25 -0.25 -0.25 -0.25 -0.25 -0.25 -0.25 -0.25 -0.25 -0.25 -0.25 -0.25 -0.25 -0.25 -0.25 -0.25 -0.25 -0.25 -0.25 -0.25 -0.25 0.25 0.25 0.25 0.25 0.25 0.25 0.25 0.25 0.25 0.25 0.25 0.25 0.25 0.25 0.25 0.25 0.25 0.25 0.25 0.25 0.25 0.25 0.25 0.25 0.25 0.25 0.25 0.25 0.25 0.25 0.25 0.25 0.25 0.25 0.25 0.25 0.25 0.25 0.25 0.25 0.25 0.25 0.25 0.25 0.25 0.25 0.25 0.25 0.25 0.25 0.25 0.25 0.25 0.25 0.25 0.25 0.25 0.25 0.25 0.25 0.25 0.25 0.25 0.25 0.25 0.25 0.25 0.25 0.25 0.2295695014115104 0.25 0.25 0.25 0.25 0.25 0.25 0.25 0.25 0.25 0.25 0.25 0.25 0.25 0.25 0.25 0.25 0.25 0.25 0.25 0.25 0.25 0.25 0.25 0.25 0.25 0.25 0.25 0.25 0.25 0.25 0.25 0.25 0.25 0.25 0.25 0.25 0.25 0.25 0.25 0.25 0.25 0.25 0.25 0.25 0.25 0.25 0.25 0.25 0.25 0.25 0.25 0.25 0.25 0.25 0.25 0.25 0.25 0.25 0.25 0.25 0.25 0.25 0.25 0.25 0.25 0.25 0.25 0.25 0.25 0.25 0.25 0.25 0.25 0.25 0.25 0.25 0.25 0.25 0.25 0.2202676888576524 0.25 0.25 0.25 0.25 0.25 0.25 0.25 0.25 0.25 0.25 0.25 0.25 0.25 0.25 0.25 0.25 0.25 0.25 0.217668582183642 0.25 0.25 0.25 0.25 0.25 0.25 0.25 0.25 0.25 0.25 0.25 0.25 0.25 0.25 0.25 0.25 0.25 0.25 0.25 0.25 0.1449696288168418 
0 2 17 21 25 26 27 28 31 33 36 37 40 42 45 46 47 49 54 55 56 57 58 61 62 63 64 70 73 74 75 76 79 80 90 91 92 93 94 96 98 100 101 102 103 106 107 108 110 111 112 113 114 116 117 118 119 120 122 128 129 130 131 133 136 137 138 139 141 142 145 146 147 149 150 151 152 153 155 157 158 159 161 162 164 165 167 168 170 172 173 174 175 176 177 178 180 182 183 184 191 192 193 198 218 226 231 232 235 246 248 249 250 252 254 255 257 258 259 260 268 269 270 271 272 278 279 288 294 307 320 323 324 332 337 338 339 341 343 345 346 347 348 349 350 352 354 356 357 359 361 362 363 364 365 367 368 369 370 374 376 378 381 382 383 386 387 388 389 390 391 392 393 394 395 398 399 400 401 402 408 409 423 427 429 432 433 434 442 447 455 457 464 468 485 495 499 511 515 521 532 536 537 554 565 570 571 582 611 628 642 643 647 657 659 667 669 673 681 686 687 697 698 709 710 712 718 720 721 723 724 726 727 732 733 734 735 736 737 738 739 740 741 742 743 744 745 746 747 748 749 750 751 752 753 754 755 759 760 761 762 763 764 765 766 767 768 769 770 771 774 775 776 777 778 779 780 781 782 783 784 785 786 787 788 789 790 791 792 793 794 795 796 797 798 799 800 801 802 803 804 805 806 807 808 809 810 811 812 813 814 815 816 817 818 819 820 821 822 823 824 825 826 827 828 829 830 831 832 833 834 835 836 837 838 839 841 842 843 844 845 846 847 849 850 851 852 853 854 855 856 857 858 859 860 861 862 863 864 865 866 867 868 869 870 871 872 873 874 875 876 877 878 879 880 881 882 883 884 885 886 887 888 890 891 892 893 894 895 896 897 898 903 904 905 907 908 909 910 911 912 913 914 915 916 917 918 921 922 923 924 925 926 927 928 929 930 931 932 933 934 935 936 938 939 940 941 942 943 944 945 947 951 952 953 954 955 956 957 958 959 960 961 962 963 964 965 966 967 971 972 977 979 981 983 985 987 989 991 993 997 998 999 1000 1002 1004 1005 1006 1007 1010 1014 1017 1018 1019 1021 1022 1023 1029 1034 1037 1039 1040 1041 1046 1047 1054 1057 1059 1082 1101 1112 1120 1125 1129 1134 1135 1136 1137 1138 1139 1141 1142 1144 1145 1146 1147 1148 1152 1158 1161 1162 1167 1168 1169 1170 1173 1184 1192 1202 1203 1204 1205 1206 1207 1208 1212 1217 1218 1222 1233 1234 1235 1236 1237 1238 1240 1242 1243 1246 1247 1261 1262 1263 1264 1265 1266 1267 1269 1270 1274 1276 1277 1278 1289 1291 1292 1293 1294 1295 1302 1303 1310 1317 1323 1324 1325 1326 1327 1337 1338 1339 1341 1344 1351 1366 1372 1376 1377 1378 1379 1382 1383 1384 1385 1386 1389 1391 1395 1397 1398 1401 1402 1403 1412 1413 1414 1417 1418 1419 1420 1421 1428 1433 1434 1435 1437 1438 1442 1444 1446 1447 1448 1450 1454 1456 1459 1463 1464 1467 1469 1470 1472 1473 1477 1481 1485 1486 1488 1490 1491 1492 1494 1497 1501 1509 1510 1511 1513 1514 1515 1518 1519 1520 1521 1523 1524 1525 1526 1527 1528 1530 1532 1534 1535 1538 1541 1542 1543 1544 1547 1554 1555 1557 1558 1560 1562 1564 1567 1568 1572 1573 1578 1579 1580 1581 1582 1583 1585 1586 1588 1589 1590 1591 1593 1595 1596 1597 1600 1602 1604 1607 1608 1611 1615 1623 1624 1628 1631 1633 1635 1636 1637 1638 1639 1640 1641 1642 1643 1644 1645 1648 1649 1650 1660 1661 1662 1663 1664 1665 1666 1667 1668 1671 1675 1676 1678 1679 1681 1682 1684 1691 1692 1697 1708 1726 1752 1753 1755 1756 1759 1761 1762 1764 1765 1766 1767 1770 1772 1773 1774 1776 1777 1779 1780 1781 1782 1783 1785 1786 1788 1789 1791 1794 1795 1796 1798 1799 1800 1801 1802 1804 1806 1807 1808 1809 1810 1811 1812 1813 1815 1816 1817 1818 1819 1820 1821 1822 1823 1824 1825 1826 1827 1828 1829 1831 1833 1834 1835 1836 1837 1838 1839 1840 1841 1843 1844 1845 1846 1847 1848 1849 1850 1851 1852 1853 1856 1857 1858 1859 1860 1861 1862 1863 1864 1865 1866 1867 1868 1869 1870 1871 1874 1875 1876 1878 1880 1881 1882 1883 1884 1885 1887 1888 1889 1890 1891 1892 1893 1894 1895 1896 1897 1898 1899 1900 1901 1902 1904 1905 1906 1907 1908 1909 1910 1911 1912 1913 1914 1916 1917 1918 1919 1920 1921 1922 1923 1924 1925 1926 1927 1928 1929 1930 1931 1932 1933 1934 1935 1936 1937 1938 1939 1940 1941 1943 1944 1945 1946 1947 1949 1950 1951 1952 1953 1954 1955 1957 1958 1959 1960 1961 1962 1963 1964 1965 1966 1969 1970 1971 1972 1973 
-0.25 -0.25 -0.25 -0.25 -0.25 -0.25 -0.25 -0.25 -0.25 -0.25 -0.25 -0.25 -0.07067872358131064 -0.07742917093286319 -0.1172883927513245 -0.25 -0.25 -0.25 -0.25 -0.25 -0.02151510556616933 -0.25 -0.25 -0.25 -0.25 -0.25 -0.1900284834137917 -0.25 -0.25 -0.25 -0.25 -0.25 -0.25 -0.25 -0.25 -0.25 -0.25 -0.25 -0.123392943530246 -0.25 -0.25 -0.25 -0.2491150448026786 -0.25 -0.25 -0.25 -0.25 -0.25 -0.25 -0.25 -0.25 -0.25 -0.25 -0.25 -0.25 -0.25 -0.25 -0.25 -0.25 -0.25 -0.25 -0.1317717330862691 -0.25 -0.25 -0.25 -0.25 -0.25 -0.25 -0.08807653382545756 -0.05863967349455211 -0.25 -0.25 -0.25 -0.25 -0.25 -0.25 -0.25 -0.25 -0.25 -0.25 -0.25 -0.25 -0.25 -0.25 -0.25 -0.25 -0.25 -0.25 -0.25 -0.2325090191398267 -0.25 -0.25 -0.25 -0.25 -0.25 -0.25 -0.25 -0.25 -0.25 -0.25 -0.25 -0.1056185153829887 -0.25 -0.25 -0.25 -0.25 -0.0393893131132376 -0.225618783278233 -0.25 0.25 0.25 0.25 0.07628971717369272 0.25 0.25 0.25 0.25 0.25 0.1802014482513213 0.25 0.04495313165612733 0.25 0.25 0.04518211805147539 0.01379774327989457 0.06565174385170315 0.2043349880865115 0.03737944196572354 0.02450701227961875 0.02048147159463201 0.1754928949884966 0.05350871255196103 0.25 0.04909515756094536 0.01985420552061673 0.1550277198972743 0.1598306960899246 0.2291800385344532 0.1102785742200574 0.1092112867128616 0.006976960634257586 0.2011832430975025 0.007282225697098892 0.0432446808656911 0.2433025219519028 0.06334879811448492 0.2463757468867051 0.25 0.25 0.25 0.25 0.25 0.25 0.0118261928179407 0.25 0.25 0.25 0.25 0.25 -0.25 -0.25 -0.1343391955459849 -0.25 -0.25 -0.25 -0.25 -0.25 -0.25 -0.25 -0.25 -0.25 -0.25 -0.1254693351241794 -0.25 -0.25 -0.1082586080921811 -0.25 -0.25 -0.1221642009933537 -0.25 -0.25 -0.25 -0.1663298351271068 -0.25 -0.25 -0.25 -0.25 -0.25 -0.25 -0.25 -0.25 -0.25 -0.25 -0.25 -0.25 -0.1162970057373556 -0.25 -0.25 -0.25 -0.25 -0.25 -0.25 -0.25 -0.25 -0.25 -0.25 -0.25 -0.25 -0.1962928879086916 -0.25 -0.25 -0.25 -0.01189488790699235 -0.25 -0.25 -0.04877204398291472 -0.25 -0.25 -0.25 -0.07526184872203472 -0.25 -0.1210862499188793 -0.2266920500400932 -0.25 -0.25 -0.25 -0.25 -0.1468064413557642 -0.25 -0.25 -0.25 -0.02132443222762441 -0.06372099070995098 -0.25 -0.25 -0.25 -0.25 -0.25 -0.25 -0.25 -0.25 -0.25 -0.25 -0.25 -0.25 -0.25 -0.25 -0.25 -0.25 -0.25 -0.25 -0.25 -0.25 -0.25 -0.25 -0.25 -0.25 -0.25 -0.25 -0.25 -0.25 -0.25 -0.25 -0.25 -0.25 -0.25 -0.25 -0.25 -0.25 -0.25 -0.25 -0.25 -0.25 -0.25 -0.25 -0.25 -0.25 -0.25 -0.25 -0.25 -0.25 -0.25 -0.25 -0.25 -0.25 -0.25 -0.25 -0.25 -0.2073713025757655 -0.25 -0.25 -0.25 -0.25 -0.25 -0.25 -0.25 -0.25 -0.25 -0.25 -0.25 -0.25 -0.25 -0.25 -0.25 -0.25 -0.25 -0.25 -0.25 -0.25 -0.25 -0.25 -0.25 -0.25 -0.25 -0.25 -0.25 -0.25 -0.25 -0.25 -0.25 -0.25 -0.25 -0.25 -0.25 -0.25 -0.25 -0.25 -0.25 -0.25 -0.25 -0.25 -0.25 -0.25 -0.25 -0.25 -0.25 -0.25 -0.25 -0.25 -0.25 -0.25 -0.25 -0.25 -0.25 -0.25 -0.25 -0.25 -0.25 -0.25 -0.25 -0.25 -0.25 -0.25 -0.25 -0.25 -0.25 -0.25 -0.25 -0.25 -0.25 -0.25 -0.25 -0.25 -0.25 -0.25 -0.25 -0.25 -0.25 -0.25 -0.25 -0.25 -0.25 -0.25 -0.25 -0.25 -0.25 -0.25 -0.25 -0.25 -0.25 -0.25 -0.25 -0.25 -0.25 -0.25 -0.25 -0.25 -0.25 -0.25 -0.25 -0.25 -0.25 -0.25 -0.25 -0.25 -0.25 -0.25 -0.25 -0.25 -0.25 -0.25 -0.25 -0.25 -0.25 -0.25 -0.25 -0.25 -0.25 -0.25 -0.25 -0.25 -0.25 -0.25 -0.25 -0.25 -0.25 -0.25 -0.25 -0.25 -0.25 -0.25 -0.25 -0.25 -0.25 -0.25 -0.25 -0.25 -0.25 -0.25 -0.25 -0.25 -0.25 -0.25 -0.25 -0.25 -0.25 -0.25 -0.25 -0.25 -0.25 -0.25 -0.25 -0.25 -0.25 -0.25 -0.25 -0.25 -0.25 -0.25 -0.1187394208295512 -0.25 -0.25 -0.25 -0.25 -0.25 -0.25 -0.25 -0.25 -0.25 -0.25 -0.25 -0.25 -0.25 -0.25 -0.25 -0.25 -0.25 -0.25 -0.25 -0.25 -0.2497724051527121 -0.25 -0.25 -0.25 -0.25 -0.25 -0.25 -0.25 -0.25 -0.25 -0.25 -0.25 -0.25 -0.25 -0.25 -0.25 -0.25 -0.25 -0.25 -0.25 -0.25 -0.25 -0.25 -0.25 -0.25 -0.25 -0.25 -0.25 -0.25 -0.25 -0.25 -0.25 -0.25 -0.25 -0.25 -0.25 0.25 0.25 0.25 0.1659675637857312 0.25 0.25 0.25 0.25 0.25 0.25 0.25 0.25 0.25 0.25 0.25 0.25 0.25 0.25 0.25 0.101028244096877 0.25 0.25 0.25 0.25 0.25 0.25 0.25 0.25 0.25 0.25 0.25 0.25 0.25 0.25 0.25 0.25 0.25 0.25 0.25 0.25 0.25 0.25 0.25 0.25 0.25 0.25 0.25 0.25 0.25 0.25 0.25 0.25 0.25 0.25 0.25 0.25 0.25 0.25 0.25 0.25 0.25 0.25 0.25 0.25 0.25 0.25 0.25 0.1940874412199731 0.25 0.1125629338224274 0.25 0.25 0.25 0.25 0.25 0.04526092305693466 0.1343981101327519 0.25 0.25 0.01019942503915483 0.25 0.25 0.25 0.25 0.25 0.25 0.1110038859511782 0.25 0.25 0.07102620474272565 0.25 0.25 0.2052025854178796 0.2183796739413099 0.25 0.25 0.25 0.25 0.25 0.25 0.25 0.25 0.25 0.25 0.25 0.25 0.25 0.25 0.05862118368648426 0.25 0.25 0.25 0.25 0.25 0.25 0.25 0.25 0.25 0.25 0.25 0.25 0.25 0.25 0.25 0.25 0.25 0.25 0.1926279267710638 0.25 0.25 0.25 0.25 0.25 0.25 0.25 0.25 0.25 0.25 0.25 0.25 0.25 0.25 0.25 0.25 0.25 0.25 0.25 0.25 0.25 0.25 0.2023392754871006 0.25 0.25 0.25 0.25 0.25 0.25 0.25 0.25 0.25 0.25 0.25 0.2297267588602287 0.25 0.25 0.25 0.25 0.25 0.25 0.25 0.25 0.25 0.25 0.25 0.25 0.25 0.25 0.25 0.25 0.25 0.25 0.25 0.25 0.25 0.25 0.25 0.25 0.25 0.25 0.25 0.25 0.25 0.25 0.04837821219471463 0.25 0.25 0.25 0.25 0.25 0.25 0.25 0.25 0.25 0.25 0.25 0.25 0.25 0.25 0.25 0.25 0.25 0.25 0.25 0.25 0.25 0.25 0.25 0.25 0.25 0.25 0.25 0.25 0.25 0.25 0.25 0.25 0.25 0.25 0.25 0.25 0.25 0.25 0.04305575731067437 0.25 0.25 0.25 0.25 0.25 0.25 0.25 0.25 0.25 0.25 0.25 0.25 0.25 0.25 0.25 0.25 0.25 0.25 0.25 0.25 0.25 0.25 0.25 0.25 0.25 0.25 0.25 0.25 0.25 0.25 0.25 0.25 0.25 0.25 0.25 0.25 0.25 0.25 0.25 0.25 0.25 0.25 0.25 0.25 0.25 0.25 0.25 0.25 0.25 0.25 0.25 0.25 0.25 0.25 0.25 0.25 0.25 0.25 0.25 0.25 0.25 0.25 0.25 0.25 0.25 0.25 0.25 0.25 0.25 0.25 0.25 0.25 0.25 0.25 0.25 0.25 0.25 0.25 0.25 0.25 0.25 0.25 0.25 0.25 0.25 0.25 0.25 0.25 0.25 0.25 0.25 0.25 0.25 0.25 0.25 0.25 0.25 0.25 0.25 0.25 0.25 0.25 0.25 0.25 0.25 0.25 0.25 0.25 0.25 0.25 0.25 0.25 0.25 0.25 0.25 0.25 0.25 0.25 0.25 0.25 0.25 0.25 0.25 0.25 0.25 0.25 0.25 0.25 0.25 0.25 0.25 0.25 0.25 0.25 0.25 0.25 0.25 0.25 0.25 0.25 0.25 0.25 0.25 0.25 0.25 0.25 0.25 0.25 0.25 0.25 0.25 0.25 0.25 0.25 0.25 0.25 0.25 0.25 0.25 0.25 0.25 0.25 0.25 0.25 0.25 0.25 0.25 0.25 0.25 0.25 0.25 0.25 0.25 0.25 0.25 0.25 0.25 0.25 0.25 0.25 0.25 0.25 
0 1 2 4 8 10 11 14 18 19 20 22 23 24 25 29 30 33 34 35 37 39 46 48 50 51 59 64 68 70 72 73 76 81 82 87 89 90 101 103 107 111 113 140 186 188 190 191 192 197 198 200 202 203 204 206 207 208 209 210 211 212 213 214 215 216 217 218 220 221 222 223 224 225 226 227 228 229 230 231 232 233 234 235 236 237 238 239 240 241 243 244 248 249 251 252 254 255 257 258 259 260 261 262 263 267 269 270 271 272 275 276 277 279 280 281 282 283 285 287 288 289 290 291 293 295 298 299 300 301 303 304 305 307 308 309 310 311 312 314 315 317 318 320 321 322 323 324 325 327 328 330 338 339 342 343 344 345 347 348 351 353 354 355 356 357 359 362 363 364 366 367 368 369 370 372 374 376 378 380 381 382 383 384 385 386 387 388 389 390 391 392 393 394 395 396 398 399 402 403 405 406 407 408 409 411 414 415 417 421 427 429 432 433 434 441 442 447 453 454 455 457 461 463 468 473 481 485 499 511 514 515 521 525 536 537 550 554 560 565 569 570 571 582 585 588 594 595 596 599 600 609 610 611 612 627 630 631 637 638 642 643 645 646 649 653 654 656 657 658 659 667 676 677 678 681 683 687 701 703 708 709 710 712 713 718 730 732 733 734 735 736 737 738 739 740 741 742 743 744 745 746 747 749 750 751 752 753 754 755 756 757 758 759 760 761 762 763 764 765 766 767 768 769 770 771 772 773 774 775 776 777 778 779 780 781 782 783 784 785 786 787 788 789 790 791 792 793 794 795 796 797 798 799 800 801 802 803 804 805 806 807 808 809 810 811 812 813 814 815 816 817 818 819 820 821 822 823 824 825 826 827 828 829 830 831 832 833 834 835 836 837 838 839 840 841 842 843 844 845 846 847 849 850 851 852 853 854 855 856 857 858 859 860 861 862 863 864 865 866 867 868 869 870 871 872 873 874 875 876 877 878 879 880 881 882 883 884 885 886 887 888 890 891 892 893 894 895 896 897 898 899 900 901 903 904 905 907 909 910 911 912 913 914 915 916 917 918 919 921 922 923 924 925 926 927 928 929 930 931 932 933 934 935 936 938 939 942 943 947 948 951 952 953 954 955 956 957 958 959 960 961 962 963 964 965 966 967 971 972 977 979 981 983 985 987 991 993 994 997 998 999 1000 1001 1002 1004 1005 1006 1007 1010 1013 1014 1017 1018 1019 1021 1022 1023 1029 1034 1037 1039 1040 1041 1046 1047 1054 1057 1059 1082 1106 1112 1125 1127 1129 1134 1135 1136 1137 1138 1139 1140 1141 1142 1143 1144 1145 1146 1147 1148 1152 1154 1161 1167 1168 1173 1177 1198 1205 1216 1217 1228 1232 1237 1242 1243 1246 1247 1253 1256 1264 1272 1289 1293 1297 1298 1302 1306 1307 1313 1314 1315 1316 1317 1323 1334 1342 1351 1354 1358 1359 1370 1373 1375 1387 1388 1389 1390 1391 1392 1394 1398 1399 1404 1410 1411 1415 1416 1421 1422 1424 1427 1434 1435 1437 1441 1442 1444 1446 1447 1448 1449 1450 1452 1454 1456 1459 1463 1464 1465 1467 1469 1470 1472 1473 1475 1481 1483 1485 1486 1488 1489 1490 1491 1492 1493 1494 1497 1500 1501 1509 1510 1511 1512 1513 1514 1515 1516 1518 1519 1520 1521 1523 1524 1525 1526 1527 1528 1529 1530 1532 1534 1535 1537 1538 1539 1541 1542 1544 1547 1554 1555 1557 1558 1560 1564 1566 1567 1570 1572 1573 1578 1579 1580 1581 1582 1586 1589 1591 1593 1595 1600 1603 1607 1611 1615 1623 1624 1628 1631 1633 1636 1637 1639 1640 1641 1644 1648 1650 1660 1662 1667 1668 1671 1676 1683 1691 1692 1693 1697 1708 1726 1747 1748 1750 1751 1752 1753 1755 1756 1758 1759 1761 1762 1763 1764 1765 1766 1767 1768 1769 1770 1772 1773 1774 1777 1779 1780 1781 1782 1783 1784 1785 1786 1788 1789 1790 1791 1794 1795 1796 1797 1798 1799 1800 1801 1802 1803 1804 1806 1807 1809 1810 1811 1812 1813 1815 1816 1817 1818 1819 1820 1821 1822 1823 1824 1825 1826 1827 1828 1829 1831 1832 1833 1834 1835 1836 1837 1838 1839 1840 1841 1843 1844 1845 1846 1847 1848 1849 1850 1851 1852 1853 1855 1856 1857 1858 1859 1860 1861 1862 1863 1864 1865 1866 1867 1868 1869 1870 1871 1874 1875 1876 1878 1879 1880 1881 1882 1883 1884 1885 1886 1887 1888 1889 1890 1891 1892 1893 1894 1895 1896 1897 1898 1899 1900 1901 1902 1904 1905 1906 1907 1908 1909 1910 1911 1912 1913 1914 1915 1916 1917 1918 1919 1920 1921 1922 1923 1924 1925 1926 1927 1928 1929 1930 1931 1932 1933 1934 1935 1936 1937 1938 1939 1940 1941 1943 1944 1945 1946 1947 1949 1950 1951 1952 1953 1954 1955 1957 1958 1959 1960 1961 1962 1963 1964 1965 1966 1969 1971 1972 1973 1976 
0.24083166834971 0.25 0.25 0.09592344448536863 0.25 0.25 0.25 0.25 0.25 0.25 0.1577174750424412 0.25 0.25 0.25 0.25 0.25 0.25 0.07709586840300096 0.25 0.25 0.25 0.1025797179935594 0.25 0.25 0.09825043583007563 0.25 0.25 0.25 0.25 0.25 0.25 0.25 0.07115784004908229 0.25 0.25 0.25 0.0688054465679428 0.25 0.2344781534673777 0.25 0.25 0.25 0.25 0.25 0.01050911731080693 0.25 0.25 0.25 0.25 0.25 0.25 0.25 0.02567511175423502 0.25 0.25 0.25 0.25 0.25 0.25 0.25 0.25 0.25 0.25 0.06821352932732816 0.25 0.25 0.25 0.25 0.25 0.25 0.25 0.25 0.25 0.25 0.25 0.25 0.25 0.25 0.25 0.25 0.25 0.25 0.25 0.25 0.25 0.25 0.25 0.25 0.25 0.25 0.25 -0.25 -0.25 -0.25 -0.25 -0.25 -0.01836121022170406 -0.25 -0.25 -0.25 -0.25 -0.2194834961717557 -0.25 -0.2389470575584498 -0.25 -0.1526152034077609 -0.25 -0.25 -0.25 -0.25 -0.25 -0.03791507586552581 -0.25 -0.25 -0.08133753280036408 -0.25 -0.25 -0.25 -0.25 -0.009134290104671376 -0.25 -0.07409707409327604 -0.25 -0.25 -0.25 -0.2327010197540164 -0.1043303145155092 -0.25 -0.25 -0.07395202999616013 -0.25 -0.25 -0.25 -0.03307213103300273 -0.25 -0.25 -0.25 -0.25 -0.25 -0.25 -0.25 -0.25 -0.25 -0.25 -0.04829655130595319 -0.25 -0.2038218242131915 -0.25 -0.25 -0.25 -0.25 -0.01020005448344317 -0.004804458668942099 -0.1585650543302272 -0.07771667592432101 -0.0588900679046425 -0.25 -0.18478407793569 -0.08189339848521919 -0.0785186161583665 -0.25 -0.25 -0.25 -0.25 -0.1948589241226291 -0.25 -0.09943754186838019 -0.1052519796834487 -0.25 -0.25 -0.25 -0.25 -0.1905092509021608 -0.25 -0.25 -0.2075380779468695 -0.25 -0.25 -0.25 -0.25 -0.02831132662059464 -0.25 -0.25 -0.25 -0.25 -0.25 -0.25 -0.25 -0.25 -0.25 -0.25 -0.25 -0.25 -0.25 -0.25 -0.25 -0.25 -0.25 -0.07362032770398884 -0.25 -0.25 -0.25 -0.25 -0.25 -0.25 -0.25 -0.25 -0.25 -0.25 -0.25 -0.25 -0.25 -0.25 -0.25 -0.25 -0.25 -0.25 -0.25 -0.2136286539134955 -0.25 -0.25 -0.25 -0.25 -0.25 -0.25 -0.1720059410554211 -0.25 -0.25 -0.25 -0.25 -0.25 -0.25 -0.25 -0.25 -0.1926321100997946 -0.25 -0.1882661890910873 -0.25 -0.25 -0.25 -0.25 -0.25 -0.25 -0.04700464003979164 -0.25 -0.25 -0.25 -0.25 -0.25 -0.25 -0.25 -0.25 -0.25 -0.07520731165791776 -0.04911250420483151 -0.25 -0.25 -0.25 -0.25 -0.241235933229715 -0.03537053590437668 -0.25 -0.25 -0.25 -0.25 -0.1042422407134786 -0.25 -0.25 -0.25 -0.25 -0.1921571557666367 -0.1745256586001188 -0.25 -0.25 -0.2258052440851295 -0.25 -0.25 -0.25 -0.25 -0.25 -0.25 -0.25 -0.25 -0.25 -0.25 -0.25 -0.25 -0.25 -0.25 -0.25 -0.25 -0.25 -0.25 -0.25 -0.25 -0.25 -0.25 -0.25 -0.25 -0.25 -0.25 -0.25 -0.25 -0.25 -0.25 -0.25 -0.25 -0.25 -0.25 -0.25 -0.25 -0.25 -0.25 -0.25 -0.25 -0.25 -0.25 -0.25 -0.25 -0.25 -0.25 -0.25 -0.25 -0.25 -0.25 -0.25 -0.25 -0.25 -0.25 -0.25 -0.25 -0.25 -0.25 -0.25 -0.25 -0.25 -0.25 -0.25 -0.25 -0.25 -0.25 -0.25 -0.25 -0.25 -0.25 -0.25 -0.25 -0.25 -0.25 -0.25 -0.25 -0.25 -0.25 -0.25 -0.25 -0.25 -0.25 -0.25 -0.25 -0.25 -0.25 -0.25 -0.25 -0.06547651114250434 -0.25 -0.25 -0.25 -0.25 -0.25 -0.25 -0.25 -0.25 -0.25 -0.25 -0.25 -0.25 -0.25 -0.25 -0.25 -0.25 -0.25 -0.25 -0.25 -0.25 -0.25 -0.25 -0.25 -0.25 -0.25 -0.25 -0.25 -0.25 -0.25 -0.25 -0.25 -0.25 -0.25 -0.25 -0.25 -0.25 -0.25 -0.25 -0.25 -0.25 -0.25 -0.25 -0.25 -0.25 -0.25 -0.25 -0.25 -0.25 -0.25 -0.25 -0.25 -0.25 -0.25 -0.25 -0.25 -0.25 -0.25 -0.25 -0.25 -0.25 -0.25 -0.25 -0.25 -0.25 -0.25 -0.25 -0.25 -0.25 -0.25 -0.25 -0.25 -0.25 -0.25 -0.25 -0.25 -0.25 -0.25 -0.25 -0.25 -0.25 -0.25 -0.25 -0.25 -0.07993201782873545 -0.25 -0.25 -0.25 -0.25 -0.25 -0.25 -0.25 -0.25 -0.25 -0.25 -0.25 -0.25 -0.25 -0.25 -0.25 -0.25 -0.25 -0.25 -0.25 -0.25 -0.25 -0.25 -0.25 -0.25 -0.25 -0.25 -0.25 -0.25 -0.25 -0.25 -0.25 -0.25 -0.25 -0.25 -0.25 -0.25 -0.25 -0.25 -0.25 -0.25 -0.25 -0.25 -0.25 -0.25 -0.25 -0.25 -0.25 -0.25 -0.25 -0.25 -0.25 -0.25 -0.25 -0.25 -0.25 -0.25 -0.25 -0.25 -0.25 -0.25 -0.25 -0.25 -0.25 -0.25 -0.25 -0.25 -0.25 -0.25 -0.25 -0.25 -0.25 -0.25 -0.25 -0.25 -0.25 -0.25 -0.25 -0.25 -0.25 -0.25 -0.25 -0.25 -0.25 -0.25 -0.25 -0.25 -0.25 -0.25 -0.25 -0.25 -0.25 -0.1674258724732017 -0.25 -0.25 -0.25 -0.2418879053336183 -0.25 -0.25 -0.25 -0.25 -0.25 -0.25 -0.25 -0.25 -0.25 -0.25 -0.25 -0.25 -0.25 -0.25 -0.25 -0.25 -0.25 -0.25 -0.25 -0.25 -0.25 -0.25 -0.25 -0.25 -0.25 0.25 0.25 0.25 0.25 0.25 0.25 0.25 0.25 0.25 0.05807963606136573 0.25 0.25 0.25 0.25 0.1743328431887252 0.25 0.06187370005718462 0.25 0.25 0.05651469688934331 0.25 0.25 0.01679874525616756 0.25 0.25 0.25 0.25 0.01136260520586693 0.1925984889989349 0.25 0.25 0.25 0.25 0.1049198208414574 0.25 0.25 0.25 0.01591502998334721 0.1107530178515651 0.25 0.25 0.25 0.25 0.1151508977112153 0.04344040974494576 0.25 0.25 0.25 0.25 0.25 0.25 0.25 0.25 0.25 0.25 0.25 0.25 0.25 0.1602808310325007 0.25 0.25 0.25 0.1523596044216508 0.25 0.25 0.25 0.25 0.25 0.25 0.25 0.25 0.25 0.1127071364513243 0.25 0.1826681539355021 0.25 0.25 0.25 0.25 0.25 0.25 0.25 0.25 0.25 0.25 0.25 0.1601005002802977 0.25 0.25 0.25 0.25 0.25 0.25 0.25 0.25 0.25 0.25 0.25 0.25 0.25 0.25 0.25 0.25 0.25 0.25 0.25 0.25 0.25 0.25 0.25 0.25 0.25 0.25 0.25 0.25 0.25 0.25 0.25 0.25 0.25 0.25 0.25 0.25 0.25 0.25 0.25 0.25 0.25 0.25 0.25 0.25 0.25 0.25 0.25 0.25 0.25 0.25 0.227473632323777 0.25 0.25 0.25 0.25 0.25 0.25 0.25 0.25 0.1495729377625069 0.25 0.25 0.25 0.25 0.25 0.25 0.25 0.25 0.25 0.25 0.25 0.25 0.25 0.25 0.25 0.25 0.25 0.25 0.25 0.25 0.25 0.25 0.25 0.25 0.25 0.25 0.25 0.25 0.25 0.25 0.25 0.25 0.1873203515818546 0.25 0.25 0.25 0.25 0.25 0.1092476625117172 0.25 0.25 0.25 0.25 0.25 0.25 0.25 0.25 0.25 0.25 0.25 0.25 0.25 0.25 0.25 0.06189810416249993 0.25 0.25 0.25 0.25 0.25 0.02933574722348802 0.25 0.25 0.25 0.25 0.1702463031849026 0.25 0.25 0.25 0.25 0.177605111963568 0.25 0.25 0.25 0.25 0.25 0.25 0.25 0.25 0.25 0.25 0.25 0.25 0.25 0.25 0.25 0.25 0.25 0.25 0.25 0.25 0.25 0.25 0.25 0.25 0.25 0.25 0.25 0.25 0.25 0.25 0.25 0.25 0.25 0.25 0.25 0.25 0.25 0.25 0.25 0.25 0.25 0.25 0.25 0.25 0.25 0.25 0.25 0.25 0.25 0.25 0.25 0.25 0.25 0.25 0.25 0.25 0.25 0.25 0.25 0.25 0.25 0.25 0.25 0.25 0.25 0.25 0.25 0.25 0.25 0.25 0.25 0.25 0.25 0.25 0.25 0.25 0.25 0.2050872917134808 0.25 0.25 0.25 0.25 0.25 0.25 0.25 0.25 0.25 0.25 0.25 0.25 0.25 0.25 0.25 0.25 0.25 0.25 0.25 0.25 0.25 0.25 0.25 0.25 0.25 0.25 0.25 0.25 0.25 0.25 0.25 0.25 0.25 0.25 0.25 0.25 0.25 0.25 0.25 0.25 0.25 0.25 0.25 0.25 0.25 0.25 0.25 0.25 0.25 0.25 0.25 0.25 0.25 0.25 0.25 0.25 0.25 0.25 0.25 0.25 0.25 0.25 0.25 0.25 0.25 0.25 0.25 0.25 0.25 0.25 0.25 0.25 0.25 0.25 0.25 0.25 0.25 0.25 0.25 0.25 0.25 0.25 0.25 0.25 0.25 0.25 0.25 0.25 
0 2 11 12 17 18 19 21 25 26 27 28 32 33 37 39 40 42 47 50 58 59 61 62 63 66 67 68 69 70 71 73 74 75 76 77 79 80 83 84 85 86 87 95 96 98 99 100 101 102 103 106 107 108 109 110 112 114 115 117 118 119 120 122 123 124 125 126 127 128 131 133 134 135 136 138 139 144 145 146 147 149 150 151 152 153 155 158 161 162 164 165 167 168 170 173 174 175 176 177 178 183 184 191 192 193 195 198 218 219 224 226 235 244 245 248 249 251 252 255 257 258 260 261 263 267 269 271 272 274 276 277 281 282 283 284 285 290 291 292 293 295 299 300 302 303 304 305 306 308 309 310 311 312 314 315 317 318 319 320 321 322 323 324 325 327 328 330 335 339 341 345 346 351 354 355 356 357 360 361 363 364 365 366 367 368 369 370 372 373 374 375 376 378 379 382 383 384 385 386 387 389 390 391 394 395 396 397 398 399 400 401 402 404 408 409 410 412 413 416 418 420 422 423 424 425 426 427 428 429 430 431 433 434 435 436 437 438 440 441 442 444 445 446 447 448 449 450 451 452 453 455 456 457 458 459 460 461 462 464 465 466 467 468 470 471 472 473 474 475 476 478 482 484 485 486 487 488 489 490 491 492 493 494 495 496 497 499 500 501 502 504 506 508 509 510 511 512 515 516 517 518 519 520 521 526 527 528 529 530 531 532 533 534 535 537 538 539 540 541 543 544 545 548 552 553 554 555 556 557 558 560 562 563 564 566 567 568 570 571 572 576 577 578 579 580 583 584 586 587 588 589 590 591 592 597 598 601 602 603 605 607 608 609 613 614 615 616 617 618 619 620 621 622 623 624 625 626 629 634 635 636 642 643 644 647 655 656 659 660 661 663 664 665 666 667 669 672 674 681 686 688 691 694 695 696 702 704 705 709 710 712 719 731 732 738 744 756 757 758 764 765 767 770 772 773 786 790 792 800 801 809 811 814 818 819 820 823 824 825 842 848 855 866 889 895 899 900 901 902 903 906 908 920 923 924 933 937 941 948 949 950 968 969 970 972 973 974 975 978 980 982 984 986 988 989 990 995 996 1003 1004 1008 1009 1011 1012 1015 1016 1020 1023 1024 1025 1027 1028 1029 1030 1031 1032 1033 1034 1035 1036 1037 1038 1042 1043 1044 1045 1048 1049 1050 1051 1052 1053 1055 1056 1057 1058 1060 1061 1062 1063 1064 1065 1066 1067 1068 1069 1070 1071 1072 1073 1074 1075 1076 1077 1078 1079 1080 1081 1082 1083 1084 1085 1086 1087 1088 1089 1090 1091 1092 1093 1094 1095 1096 1097 1098 1099 1100 1101 1102 1103 1104 1105 1106 1107 1108 1109 1110 1111 1112 1113 1114 1115 1116 1117 1118 1119 1120 1121 1122 1123 1124 1125 1126 1127 1128 1129 1130 1131 1132 1133 1140 1143 1154 1161 1162 1167 1168 1169 1170 1184 1188 1202 1203 1204 1205 1206 1207 1208 1216 1217 1218 1220 1222 1225 1228 1232 1233 1234 1235 1236 1237 1238 1240 1241 1251 1256 1261 1262 1263 1264 1265 1266 1267 1268 1269 1270 1271 1274 1276 1277 1278 1279 1289 1291 1292 1293 1294 1295 1297 1298 1299 1300 1302 1303 1304 1306 1307 1310 1313 1314 1315 1317 1323 1324 1325 1326 1327 1334 1337 1338 1339 1340 1341 1342 1344 1351 1354 1356 1358 1359 1360 1361 1362 1366 1370 1371 1372 1375 1376 1377 1378 1379 1382 1383 1385 1387 1388 1389 1390 1391 1392 1394 1395 1398 1399 1402 1403 1404 1405 1407 1408 1409 1410 1411 1413 1415 1417 1418 1421 1422 1423 1424 1427 1428 1431 1433 1435 1438 1440 1441 1442 1444 1448 1449 1450 1451 1455 1456 1458 1459 1463 1488 1491 1519 1523 1534 1572 1573 1591 1593 1611 1624 1633 1636 1638 1639 1643 1648 1662 1667 1676 1691 1708 1716 1748 1752 1753 1756 1758 1759 1764 1770 1783 1785 1799 1800 1806 1812 1816 1827 1831 1834 1851 1860 1863 1864 1865 1867 1868 1871 1876 1884 1887 1889 1891 1900 1901 1906 1912 1916 1918 1924 1928 1933 1935 1936 1941 1943 1946 1947 1949 1950 1952 1954 1955 1957 1958 1959 1962 1963 1964 1965 1966 
0.25 0.25 0.25 0.25 0.25 0.25 0.25 0.25 0.25 0.25 0.25 0.25 0.25 0.25 0.25 0.25 0.25 0.2175740506572946 0.25 0.0770443843547013 0.25 0.25 0.25 0.25 0.25 0.25 0.25 0.25 0.25 0.1973435102591383 0.25 0.122683321403514 0.25 0.25 0.25 0.25 0.25 0.25 0.25 0.25 0.25 0.25 0.25 0.02534520664199496 0.25 0.25 0.25 0.25 0.25 0.25 0.227102812264834 0.25 0.25 0.25 0.25 0.25 0.25 0.25 0.2256163687238569 0.25 0.25 0.25 0.25 0.25 0.25 0.25 0.25 0.25 0.25 0.25 0.25 0.25 0.25 0.0359136034419894 0.25 0.25 0.25 0.25 0.25 0.25 0.25 0.25 0.25 0.25 0.25 0.25 0.25 0.25 0.25 0.25 0.25 0.25 0.25 0.25 0.25 0.25 0.25 0.25 0.25 0.25 0.25 0.25 0.25 0.25 0.25 0.25 0.25 0.2121251557111072 0.25 0.2351082434444662 0.25 0.25 0.25 0.25 0.2218224911933833 0.25 0.25 0.152217526935217 0.25 0.25 0.25 0.25 0.25 0.25 0.25 0.09019171490691495 0.25 0.09839433905098782 0.25 0.06556121127934285 0.25 0.25 0.25 0.25 0.25 0.1967513368475095 0.25 0.25 0.2424559762172709 0.07712547369868233 0.25 0.25 0.25 0.25 0.09747848245053148 0.25 0.25 0.25 0.25 0.25 0.25 0.0479330941527577 0.25 0.25 0.25 0.25 0.25 0.25 0.25 0.25 0.04802716982392029 0.25 0.03788286915160544 0.25 0.25 0.25 0.25 0.25 0.09395020627801791 0.04376855599995517 0.25 0.005542367199118284 0.25 0.25 0.25 0.25 0.25 0.25 0.25 0.25 0.25 0.2433252822531516 0.25 0.25 0.25 0.25 0.25 0.1113880108267346 0.25 0.2374535342876542 0.25 0.25 0.25 0.25 0.25 0.25 0.25 0.008645927686055873 0.25 0.25 0.25 0.25 0.25 0.25 0.25 0.25 0.25 0.25 0.25 0.25 0.25 0.25 0.25 0.25 0.25 0.25 0.25 0.25 0.25 0.25 0.25 0.25 0.25 0.25 0.25 0.25 0.25 0.25 0.25 0.25 0.25 0.25 0.25 0.25 0.25 0.25 0.25 0.25 0.25 0.08395913930613463 0.25 0.25 0.25 0.25 0.25 0.25 0.25 0.25 0.25 0.25 0.1550342868623901 0.25 0.25 0.25 0.25 0.25 0.25 0.25 0.25 0.25 0.25 0.25 0.25 0.25 0.25 0.25 0.25 0.25 0.25 0.25 0.25 0.25 0.25 0.25 0.25 0.25 0.25 0.25 0.25 0.25 0.25 0.25 0.25 0.25 0.25 0.25 0.25 0.25 0.25 0.25 0.25 0.25 0.25 0.25 0.25 0.25 0.25 0.25 0.25 0.25 0.25 0.25 0.25 0.25 0.25 0.25 0.25 0.25 0.25 0.25 0.25 0.25 0.25 0.25 0.25 0.25 0.25 0.25 0.25 0.25 0.25 0.25 0.1624375803407699 0.25 0.25 0.25 0.25 0.25 0.04126794025207568 0.25 0.25 0.25 0.25 0.25 0.25 0.25 0.25 0.01611072646322632 0.25 0.25 0.25 0.25 0.25 0.25 0.25 0.25 0.25 0.25 0.25 0.25 0.25 0.25 0.25 0.25 0.25 0.25 0.25 0.25 0.25 0.25 0.25 0.25 0.25 0.25 0.01595775595475952 0.25 0.25 0.25 0.25 0.25 0.25 0.25 0.25 0.25 0.25 0.25 0.25 0.25 0.25 0.25 0.25 0.25 0.25 0.25 0.25 0.25 0.25 0.25 0.25 0.25 0.25 0.25 0.25 0.25 0.25 0.25 0.03457034900022367 0.25 0.25 0.25 0.175207822157099 0.25 0.25 0.25 0.25 0.25 0.1537195302522246 0.25 0.25 0.1722069415409483 0.25 0.25 0.01776845526446089 0.25 0.25 -0.25 -0.25 -0.25 -0.25 -0.25 -0.25 -0.25 -0.25 -0.25 -0.25 -0.25 -0.25 -0.25 -0.25 -0.25 -0.25 -0.25 -0.25 -0.2137856542898841 -0.25 -0.25 -0.25 -0.25 -0.25 -0.25 -0.25 -0.25 -0.25 -0.25 -0.25 -0.25 -0.25 -0.25 -0.25 -0.25 -0.25 -0.25 -0.25 -0.25 -0.25 -0.1704786444816881 -0.25 -0.25 -0.25 -0.25 -0.25 -0.25 -0.25 -0.25 -0.25 -0.25 -0.25 -0.25 -0.25 -0.25 -0.25 -0.25 -0.25 -0.25 -0.25 -0.25 -0.25 -0.25 -0.25 -0.25 -0.25 -0.25 -0.25 -0.25 -0.25 -0.25 -0.25 -0.25 -0.04170037746973854 -0.25 -0.25 -0.25 -0.25 -0.25 -0.25 -0.25 -0.25 -0.25 -0.25 -0.25 -0.25 -0.25 -0.25 -0.25 -0.25 -0.25 -0.25 -0.25 -0.25 -0.25 -0.25 -0.25 -0.25 -0.25 -0.25 -0.03649207744935434 -0.25 -0.25 -0.25 -0.25 -0.25 -0.25 -0.25 -0.25 -0.25 -0.25 -0.25 -0.25 -0.25 -0.25 -0.25 -0.25 -0.25 -0.25 -0.25 -0.25 -0.25 -0.25 -0.25 -0.25 -0.25 -0.25 -0.25 -0.25 -0.25 -0.25 -0.25 -0.25 -0.25 -0.25 -0.25 -0.25 -0.25 -0.25 -0.25 -0.25 -0.25 -0.25 -0.25 -0.25 -0.25 -0.25 -0.25 -0.25 -0.25 -0.25 -0.25 -0.25 -0.25 -0.25 -0.25 -0.25 -0.25 -0.25 -0.25 -0.25 -0.25 -0.25 -0.25 -0.25 -0.25 -0.25 -0.25 -0.25 -0.25 -0.25 -0.25 -0.25 -0.25 -0.25 -0.25 -0.25 -0.25 -0.25 -0.25 -0.25 -0.25 -0.25 -0.25 -0.25 -0.25 -0.03598404141681982 -0.25 -0.25 -0.25 -0.25 -0.25 -0.25 -0.25 -0.25 -0.25 -0.25 -0.03164376065547634 -0.25 -0.1219495202977307 -0.25 -0.25 -0.25 -0.25 -0.25 -0.25 -0.25 -0.25 -0.25 -0.25 -0.1240602069748198 -0.25 -0.25 -0.25 -0.25 -0.25 -0.25 -0.25 -0.25 -0.25 -0.25 -0.25 -0.01562466797719176 -0.25 -0.25 -0.25 -0.25 -0.25 -0.25 -0.25 -0.25 -0.25 -0.25 -0.25 -0.25 -0.25 -0.25 -0.2432349547189493 -0.25 -0.25 -0.25 -0.25 -0.01997233578203176 -0.25 -0.25 -0.25 -0.243654216409048 -0.25 -0.25 -0.25 -0.25 -0.25 -0.25 -0.25 -0.25 -0.25 -0.25 -0.04577667136307407 -0.25 -0.25 -0.25 -0.25 -0.25 -0.25 -0.25 -0.25 -0.02263797830185744 -0.25 -0.25 -0.25 -0.25 -0.25 -0.25 -0.25 -0.25 -0.25 -0.25 -0.25 -0.25 -0.0007168588971302619 -0.25 -0.25 -0.25 -0.25 -0.25 -0.25 -0.008967367472256845 -0.25 -0.25 -0.25 -0.25 -0.25 -0.0952317154180025 -0.25 -0.25 -0.25 -0.25 -0.25 -0.25 -0.25 -0.25 -0.25 -0.1507751227058799 -0.25 -0.25 -0.25 -0.1365156019755375 -0.25 -0.25 -0.25 -0.25 -0.25 -0.25 -0.25 -0.25 -0.25 -0.25 -0.25 -0.25 -0.25 -0.25 -0.25 -0.25 -0.25 -0.25 -0.25 -0.25 -0.25 -0.25 -0.25 -0.25 -0.25 -0.25 -0.25 -0.25 -0.25 -0.25 -0.25 -0.25 -0.25 -0.25 -0.25 -0.25 -0.1463851932550388 -0.25 -0.25 -0.25 -0.25 -0.2236197671275618 -0.0947801866958508 -0.25 -0.1766829461649542 -0.25 -0.25 -0.25 -0.25 -0.25 -0.25 -0.25 -0.25 -0.25 -0.25 -0.25 -0.25 -0.25 -0.25 -0.25 -0.25 -0.25 -0.25 -0.25 -0.25 -0.25 -0.03615412941033019 -0.25 -0.25 -0.25 -0.25 -0.25 -0.25 -0.25 -0.25 -0.25 -0.25 -0.25 -0.25 -0.25 -0.25 -0.25 -0.25 -0.25 -0.25 -0.25 -0.03718875782581382 -0.25 -0.25 -0.25 -0.25 -0.25 -0.25 -0.25 -0.25 -0.25 -0.25 -0.25 -0.25 -0.25 -0.25 -0.25 
0 1 2 4 8 9 10 11 12 13 14 16 17 18 19 20 21 22 23 24 25 26 27 28 29 31 32 33 35 37 38 39 47 48 58 60 62 63 64 65 66 67 68 69 70 72 73 75 76 77 79 80 81 82 84 85 86 87 89 90 96 98 99 100 101 102 103 105 106 107 108 109 111 112 114 115 117 118 120 122 123 124 125 126 127 131 133 134 136 145 146 147 148 149 150 151 152 153 155 156 157 158 159 161 162 164 166 168 170 173 174 175 176 177 178 180 183 184 185 188 190 191 192 193 194 195 197 198 199 200 201 202 203 206 207 208 209 210 211 212 213 214 215 216 217 218 219 220 221 222 223 224 225 226 227 228 229 230 231 232 233 234 235 236 237 238 239 240 241 243 244 245 246 247 248 249 251 252 254 255 257 258 260 261 262 263 265 267 269 271 272 274 276 277 281 282 283 284 285 289 290 291 293 295 299 300 302 303 304 305 306 308 309 310 311 312 314 315 317 318 319 320 321 322 323 324 325 327 328 335 339 341 342 345 346 348 351 353 354 355 356 357 359 360 361 362 363 364 365 366 367 368 369 370 372 374 376 378 380 381 382 383 384 385 386 387 388 389 390 391 392 393 394 395 399 402 405 406 407 408 409 411 414 415 417 419 421 427 429 432 433 434 442 447 454 457 461 463 468 481 483 485 499 511 515 521 536 537 554 560 565 569 570 571 574 582 588 594 595 596 599 600 609 610 611 612 627 628 630 631 637 642 643 645 646 649 650 653 654 656 657 658 659 667 673 676 677 678 679 680 681 683 686 687 701 702 703 708 709 710 712 713 716 718 721 723 724 730 732 733 734 735 736 737 738 739 740 741 742 743 744 745 746 747 749 750 751 752 753 754 755 756 757 758 759 760 761 762 763 765 766 767 768 769 770 771 772 773 774 775 776 777 778 779 780 781 782 783 784 785 786 787 788 789 790 791 792 793 794 795 796 797 798 799 800 801 802 803 804 805 806 807 808 809 810 811 812 813 814 815 816 817 818 819 820 821 822 823 824 825 826 827 828 829 830 831 832 833 834 835 836 837 838 839 840 841 842 843 844 845 846 847 849 850 851 852 853 855 856 857 858 859 860 861 862 863 864 865 866 867 868 869 870 871 872 873 874 875 876 877 878 879 880 881 882 883 884 885 886 887 888 890 891 892 893 894 896 897 898 899 900 901 903 904 905 907 908 909 910 911 912 913 914 915 916 917 918 919 921 922 923 924 925 926 927 928 929 930 931 932 933 934 935 936 938 939 940 942 943 944 945 947 948 951 952 953 954 955 956 957 958 960 961 962 963 964 965 966 967 971 972 976 977 979 981 983 985 987 989 991 997 998 999 1000 1001 1002 1004 1005 1006 1007 1010 1013 1017 1018 1019 1021 1022 1023 1029 1034 1037 1039 1040 1041 1046 1047 1054 1057 1059 1078 1082 1101 1112 1125 1127 1129 1134 1135 1136 1138 1139 1140 1141 1142 1143 1144 1145 1146 1147 1148 1149 1150 1151 1152 1153 1154 1155 1156 1157 1158 1159 1160 1161 1162 1163 1164 1165 1166 1168 1169 1170 1171 1172 1173 1174 1175 1176 1178 1179 1180 1181 1182 1183 1184 1185 1186 1187 1188 1189 1190 1191 1192 1193 1194 1195 1196 1197 1198 1199 1200 1201 1202 1203 1204 1205 1206 1207 1208 1209 1210 1211 1212 1213 1214 1215 1217 1218 1219 1220 1221 1222 1223 1224 1225 1226 1227 1228 1229 1230 1231 1232 1233 1234 1235 1236 1237 1238 1239 1240 1241 1242 1243 1244 1245 1246 1247 1248 1249 1250 1251 1252 1254 1255 1256 1257 1258 1259 1260 1261 1262 1263 1264 1265 1266 1267 1268 1269 1270 1271 1272 1273 1274 1275 1276 1277 1278 1279 1280 1281 1282 1283 1284 1286 1287 1289 1290 1291 1292 1293 1294 1295 1296 1297 1298 1301 1302 1304 1305 1306 1308 1309 1310 1313 1314 1317 1318 1319 1323 1324 1325 1326 1327 1328 1329 1330 1331 1332 1333 1335 1336 1337 1338 1339 1340 1341 1342 1344 1347 1348 1349 1350 1351 1355 1356 1358 1359 1360 1361 1362 1364 1365 1366 1367 1368 1369 1370 1372 1374 1376 1377 1378 1379 1380 1381 1382 1385 1387 1389 1390 1391 1393 1394 1395 1396 1398 1399 1400 1410 1411 1413 1415 1418 1419 1421 1422 1423 1424 1425 1426 1427 1428 1429 1430 1431 1432 1433 1434 1435 1436 1437 1438 1439 1440 1441 1442 1443 1444 1445 1446 1447 1448 1449 1450 1451 1452 1453 1454 1455 1456 1457 1458 1459 1460 1461 1462 1463 1464 1466 1467 1468 1469 1470 1472 1473 1474 1475 1479 1480 1481 1483 1484 1485 1487 1488 1489 1490 1491 1492 1493 1494 1495 1497 1498 1499 1500 1501 1502 1503 1504 1505 1507 1508 1509 1510 1512 1513 1516 1518 1519 1520 1521 1523 1524 1525 1526 1527 1528 1529 1530 1532 1533 1534 1535 1536 1537 1538 1539 1540 1541 1542 1543 1544 1545 1546 1547 1548 1549 1550 1551 1554 1555 1556 1557 1559 1563 1564 1565 1566 1567 1569 1571 1572 1573 1574 1575 1576 1577 1578 1579 1580 1581 1582 1584 1586 1589 1591 1593 1594 1599 1600 1601 1603 1605 1606 1607 1608 1609 1610 1611 1613 1614 1615 1617 1618 1620 1622 1623 1624 1625 1626 1628 1631 1632 1633 1635 1636 1637 1639 1640 1644 1647 1648 1651 1652 1653 1654 1656 1657 1658 1659 1660 1662 1667 1668 1669 1670 1671 1672 1673 1674 1677 1683 1684 1686 1687 1688 1689 1690 1691 1692 1693 1694 1695 1696 1697 1698 1700 1701 1703 1704 1705 1706 1707 1708 1709 1710 1711 1714 1715 1716 1718 1719 1720 1721 1722 1723 1725 1726 1728 1729 1733 1734 1735 1736 1737 1738 1740 1742 1743 1744 1745 1746 1748 1749 1750 1751 1753 1754 1755 1756 1757 1758 1760 1761 1762 1763 1764 1765 1766 1767 1769 1770 1771 1772 1773 1774 1775 1776 1777 1778 1780 1782 1783 1784 1785 1786 1787 1788 1789 1791 1792 1794 1795 1796 1797 1798 1799 1800 1801 1802 1804 1806 1807 1809 1810 1811 1812 1813 1814 1815 1816 1817 1818 1819 1820 1821 1822 1823 1824 1825 1826 1827 1828 1829 1831 1832 1833 1834 1836 1837 1838 1839 1840 1841 1843 1844 1845 1846 1847 1848 1849 1850 1851 1852 1853 1855 1856 1857 1858 1859 1860 1861 1863 1864 1865 1866 1867 1868 1869 1870 1871 1872 1873 1874 1875 1876 1877 1878 1879 1880 1881 1882 1883 1884 1885 1886 1887 1888 1889 1890 1891 1892 1893 1894 1895 1896 1897 1898 1899 1900 1901 1902 1904 1905 1906 1907 1908 1909 1910 1911 1912 1913 1914 1915 1916 1917 1918 1919 1920 1921 1922 1923 1924 1925 1926 1927 1928 1929 1930 1931 1932 1933 1934 1935 1936 1937 1938 1939 1940 1941 1942 1943 1944 1945 1946 1947 1948 1949 1950 1951 1952 1953 1954 1955 1956 1957 1958 1959 1960 1961 1962 1963 1964 1965 1966 1967 1969 1971 1972 1973 1974 1975 1976 
0.25 0.25 0.25 0.25 0.25 0.25 0.25 0.25 0.25 0.25 0.25 0.01967486310961888 0.25 0.25 0.25 0.25 0.25 0.25 0.25 0.25 0.25 0.25 0.25 0.25 0.25 0.25 0.25 0.25 0.25 0.25 0.25 0.25 0.25 0.25 0.25 0.1408488692072777 0.25 0.25 0.25 0.01515305354590259 0.25 0.25 0.25 0.25 0.25 0.25 0.25 0.25 0.25 0.25 0.25 0.25 0.2136535156687153 0.25 0.25 0.25 0.25 0.25 0.1860955968553624 0.25 0.25 0.25 0.25 0.25 0.25 0.25 0.25 0.25 0.25 0.25 0.25 0.25 0.206096592248767 0.25 0.25 0.25 0.25 0.1286499722146854 0.25 0.25 0.25 0.25 0.25 0.25 0.25 0.1553059254852794 0.25 0.25 0.06540654034874376 0.25 0.25 0.25 0.1864034798938349 0.25 0.25 0.1868027014083674 0.25 0.25 0.25 0.25 0.25 0.25 0.25 0.25 0.25 0.25 0.25 0.25 0.25 0.25 0.25 0.25 0.25 0.25 0.25 0.25 0.25 0.25 0.0779062540555772 0.25 0.25 0.25 0.25 0.25 0.25 0.25 0.25 0.25 0.25 0.25 0.25 0.1836567984995918 0.25 0.25 0.25 0.25 0.25 0.25 0.25 0.25 0.25 0.25 0.25 0.25 0.25 0.25 0.1293074401738107 0.25 0.25 0.25 0.25 0.25 0.25 0.25 0.25 0.25 0.25 0.25 0.25 0.25 0.25 0.25 0.25 0.25 0.25 0.25 0.25 0.25 0.25 0.25 0.25 0.25 0.25 0.25 0.25 0.25 0.25 0.25 0.25 0.25 0.25 0.25 0.25 0.25 0.1737336892739783 0.25 0.07956157061740281 0.25 0.25 0.1855632655625296 0.25 0.01462154538504316 0.25 0.25 0.25 0.25 0.25 0.25 0.25 0.25 0.25 0.25 0.25 0.25 0.25 0.25 0.06997158910308605 0.25 0.25 0.25 0.25 0.25 0.25 0.003020460010150499 0.25 0.25 0.25 0.25 0.25 0.1502520561692628 0.2300018017855372 0.25 0.020689244448023 0.1784328664722362 0.1730886032074473 0.25 0.25 0.25 0.25 0.25 0.1417968466685089 0.25 0.07526199744338538 0.1186551002143913 0.02865866919589367 0.0228677437556529 0.25 0.0927108262524977 0.25 0.25 0.25 0.25 0.25 0.25 0.25 0.25 0.25 0.25 0.25 0.25 0.25 0.25 0.25 0.25 0.25 -0.25 -0.25 -0.25 -0.25 -0.07414362257732968 -0.25 -0.25 -0.25 -0.25 -0.25 -0.25 -0.25 -0.25 -0.25 -0.25 -0.25 -0.25 -0.25 -0.25 -0.25 -0.25 -0.25 -0.25 -0.25 -0.25 -0.25 -0.25 -0.25 -0.25 -0.25 -0.25 -0.25 -0.25 -0.25 -0.25 -0.25 -0.104589720822197 -0.2415002841469265 -0.25 -0.25 -0.25 -0.25 -0.25 -0.25 -0.25 -0.0671432340178912 -0.25 -0.25 -0.25 -0.25 -0.25 -0.25 -0.25 -0.25 -0.2231598190154455 -0.25 -0.25 -0.25 -0.25 -0.25 -0.25 -0.25 -0.25 -0.25 -0.25 -0.25 -0.25 -0.25 -0.25 -0.25 -0.25 -0.25 -0.02696598868862343 -0.25 -0.25 -0.25 -0.25 -0.25 -0.25 -0.25 -0.25 -0.2077312860102773 -0.25 -0.25 -0.25 -0.25 -0.25 -0.007203331418617906 -0.25 -0.25 -0.25 -0.25 -0.06623733258289238 -0.1907926828356135 -0.1061222902413045 -0.25 -0.09063643478679329 -0.1503818305844297 -0.25 -0.25 -0.25 -0.25 -0.25 -0.25 -0.25 -0.25 -0.25 -0.25 -0.25 -0.25 -0.25 -0.2358042533087731 -0.25 -0.25 -0.25 -0.25 -0.25 -0.25 -0.25 -0.25 -0.25 -0.25 -0.25 -0.25 -0.25 -0.25 -0.25 -0.25 -0.25 -0.25 -0.25 -0.25 -0.25 -0.25 -0.25 -0.25 -0.25 -0.25 -0.25 -0.25 -0.25 -0.25 -0.25 -0.25 -0.25 -0.25 -0.25 -0.25 -0.25 -0.25 -0.25 -0.25 -0.25 -0.25 -0.25 -0.25 -0.25 -0.25 -0.25 -0.25 -0.25 -0.25 -0.25 -0.25 -0.25 -0.25 -0.25 -0.25 -0.25 -0.25 -0.25 -0.25 -0.25 -0.25 -0.25 -0.25 -0.25 -0.25 -0.25 -0.25 -0.25 -0.25 -0.25 -0.25 -0.25 -0.25 -0.25 -0.25 -0.25 -0.25 -0.25 -0.25 -0.25 -0.25 -0.25 -0.25 -0.25 -0.25 -0.25 -0.25 -0.25 -0.25 -0.25 -0.25 -0.25 -0.25 -0.25 -0.25 -0.25 -0.25 -0.25 -0.25 -0.25 -0.25 -0.25 -0.25 -0.25 -0.25 -0.25 -0.25 -0.25 -0.25 -0.25 -0.25 -0.25 -0.25 -0.25 -0.25 -0.25 -0.25 -0.25 -0.25 -0.25 -0.25 -0.25 -0.25 -0.25 -0.25 -0.25 -0.25 -0.25 -0.25 -0.25 -0.25 -0.25 -0.25 -0.25 -0.25 -0.25 -0.25 -0.25 -0.25 -0.25 -0.25 -0.25 -0.25 -0.25 -0.25 -0.25 -0.25 -0.25 -0.25 -0.25 -0.25 -0.25 -0.25 -0.25 -0.25 -0.25 -0.25 -0.25 -0.25 -0.25 -0.25 -0.25 -0.1911042537727952 -0.05717433792530041 -0.25 -0.25 -0.25 -0.25 -0.25 -0.25 -0.25 -0.25 -0.25 -0.25 -0.25 -0.25 -0.25 -0.25 -0.25 -0.25 -0.25 -0.25 -0.25 -0.25 -0.25 -0.25 -0.25 -0.25 -0.25 -0.25 -0.25 -0.25 -0.25 -0.25 -0.25 -0.25 -0.25 -0.25 -0.25 -0.25 -0.25 -0.25 -0.25 -0.25 -0.25 -0.25 -0.25 -0.25 -0.25 -0.25 -0.25 -0.25 -0.25 -0.25 -0.25 -0.25 -0.25 -0.25 -0.25 -0.25 -0.25 -0.25 -0.25 -0.09560044696838288 -0.25 -0.25 -0.25 -0.25 -0.25 -0.25 -0.25 -0.25 -0.25 -0.25 -0.25 -0.25 -0.25 -0.25 -0.25 -0.25 -0.25 -0.25 -0.25 -0.25 -0.25 -0.25 -0.25 -0.25 -0.25 -0.25 -0.25 -0.25 -0.25 -0.25 -0.25 -0.25 -0.25 -0.25 -0.25 -0.25 -0.25 -0.25 -0.25 -0.25 -0.25 -0.25 -0.25 -0.25 -0.25 -0.25 -0.25 -0.25 -0.25 -0.25 -0.25 -0.25 -0.25 -0.25 -0.25 -0.25 -0.25 -0.25 -0.25 -0.25 -0.25 -0.25 -0.25 -0.25 -0.25 -0.25 -0.25 -0.25 -0.25 -0.25 -0.25 -0.25 -0.25 -0.25 -0.25 -0.25 -0.25 -0.25 -0.25 -0.25 -0.25 -0.25 -0.25 -0.25 -0.25 -0.25 -0.25 -0.25 -0.25 -0.25 -0.25 -0.25 -0.25 -0.25 -0.25 -0.25 -0.25 -0.25 -0.25 -0.25 -0.25 -0.25 -0.25 -0.25 -0.25 -0.25 -0.25 -0.25 -0.25 -0.25 -0.25 -0.25 -0.25 -0.25 -0.25 -0.25 -0.25 -0.25 -0.25 -0.25 -0.25 -0.25 -0.25 -0.25 -0.25 -0.25 -0.25 -0.25 -0.25 -0.25 -0.25 -0.25 -0.25 -0.25 -0.25 -0.25 -0.25 -0.25 -0.04870904528623231 -0.25 -0.25 -0.25 -0.25 -0.25 -0.25 -0.25 -0.25 -0.25 -0.25 -0.25 -0.25 -0.25 -0.08482273116953806 -0.25 -0.25 -0.25 -0.25 -0.25 -0.25 -0.25 -0.25 -0.25 -0.25 -0.25 -0.25 -0.25 -0.25 -0.25 -0.25 -0.25 -0.25 -0.25 -0.25 -0.25 -0.25 -0.25 -0.25 -0.25 -0.25 -0.25 -0.25 -0.25 -0.25 -0.25 -0.25 -0.25 -0.25 -0.25 -0.25 -0.25 -0.25 -0.25 -0.25 -0.25 -0.25 -0.25 -0.25 -0.25 -0.25 -0.25 -0.25 -0.25 -0.25 -0.25 -0.25 -0.25 -0.25 -0.25 -0.25 -0.25 -0.25 -0.25 -0.25 -0.25 -0.25 -0.25 -0.25 -0.25 -0.25 -0.25 -0.25 -0.25 -0.25 -0.25 -0.25 -0.25 -0.25 -0.25 -0.25 -0.25 -0.25 -0.25 -0.25 -0.25 -0.25 -0.25 -0.1849151248403694 -0.25 -0.001260341311816773 -0.25 -0.25 -0.25 -0.25 -0.25 -0.25 -0.25 -0.08938384380671374 -0.25 -0.25 -0.25 -0.03273173763517093 -0.25 -0.25 -0.25 -0.25 -0.25 -0.25 -0.25 -0.25 -0.25 -0.25 -0.25 -0.25 -0.25 -0.25 -0.25 -0.25 -0.25 -0.25 -0.25 -0.25 -0.1085274564305181 -0.25 -0.25 -0.25 -0.25 -0.25 -0.25 -0.25 -0.25 -0.25 -0.25 -0.25 -0.25 -0.25 -0.25 -0.25 -0.25 -0.25 -0.25 -0.25 -0.25 -0.25 -0.25 -0.25 -0.25 -0.25 -0.25 -0.25 -0.25 -0.25 -0.25 -0.25 -0.25 -0.25 -0.25 -0.25 -0.25 -0.25 -0.25 -0.25 -0.25 -0.25 -0.25 -0.25 -0.25 -0.25 -0.25 -0.25 -0.25 -0.25 -0.25 -0.25 -0.25 0.25 0.25 0.25 0.25 0.25 0.25 0.25 0.25 0.25 0.25 0.25 0.25 0.25 0.25 0.1826440317052956 0.25 0.25 0.25 0.25 0.25 0.25 0.25 0.25 0.25 0.25 0.25 0.25 0.25 0.25 0.25 0.25 0.25 0.25 0.25 0.25 0.25 0.25 0.25 0.25 0.25 0.25 0.25 0.25 0.25 0.25 0.25 0.25 0.25 0.25 0.25 0.25 0.25 0.25 0.25 0.25 0.25 0.25 0.25 0.25 0.25 0.25 0.25 0.25 0.25 0.25 0.25 0.25 0.25 0.25 0.25 0.25 0.25 0.25 0.25 0.25 0.25 0.25 0.25 0.08980018870114659 0.25 0.25 0.25 0.25 0.25 0.25 0.01345225550216655 0.25 0.25 0.25 0.25 0.25 0.25 0.25 0.25 0.25 0.25 0.1828875216261086 0.25 0.25 0.25 0.25 0.25 0.25 0.25 0.25 0.25 0.25 0.25 0.25 0.25 0.25 0.25 0.25 0.25 0.25 0.25 0.25 0.25 0.2118625863778493 0.25 0.25 0.25 0.25 0.25 0.25 0.25 0.02981681341222506 0.25 0.25 0.25 0.25 0.25 0.25 0.25 0.25 0.25 0.25 0.25 0.25 0.25 0.25 0.25 0.25 0.25 0.25 0.25 0.25 0.25 0.25 0.25 0.25 0.25 0.25 0.25 0.25 0.25 0.25 0.25 0.25 0.25 0.25 0.25 0.25 0.25 0.25 0.25 0.25 0.25 0.25 0.03521267559236256 0.25 0.25 0.25 0.25 0.1216569511679693 0.25 0.009004862238974835 0.25 0.25 0.25 0.25 0.25 0.25 0.25 0.25 0.25 0.25 0.25 0.25 0.25 0.25 0.25 0.25 0.25 0.25 0.25 0.25 0.25 0.25 0.25 0.25 0.25 0.25 0.25 0.25 0.25 0.25 0.25 0.25 0.25 0.1969119356447372 0.25 0.25 0.25 0.25 0.07273822510325648 0.25 0.25 0.25 0.25 0.25 0.25 0.25 0.25 0.25 0.25 0.25 0.25 0.25 0.25 0.25 0.25 0.25 0.25 0.25 0.25 0.25 0.25 0.25 0.25 0.25 0.25 0.25 0.25 0.25 0.25 0.25 0.25 0.09673071473650159 0.25 0.25 0.25 0.25 0.25 0.25 0.25 0.25 0.25 0.25 0.25 0.25 0.25 0.25 0.25 0.25 0.25 0.25 0.25 0.25 0.25 0.25 0.25 0.25 0.25 0.25 0.25 0.25 0.25 0.25 0.25 0.25 0.25 0.25 0.25 0.25 0.25 0.25 0.25 0.25 0.25 0.25 0.25 0.25 0.25 0.25 0.25 0.25 0.25 0.25 0.25 0.25 0.25 0.25 0.25 0.25 0.25 0.25 0.25 0.25 0.25 0.25 0.25 0.25 0.25 0.25 0.25 0.25 0.25 0.25 0.25 0.25 0.25 0.04007319009479791 0.25 0.25 0.25 0.25 0.25 0.25 0.25 0.25 0.25 0.25 0.25 0.25 0.25 0.25 0.25 0.25 0.25 0.25 0.25 0.25 0.25 0.25 0.25 0.25 0.25 0.25 0.25 0.25 0.25 0.25 0.25 0.25 0.25 0.25 0.25 0.25 0.25 0.25 0.25 0.25 0.25 0.25 0.25 0.25 0.25 0.25 0.25 0.25 0.25 0.25 0.25 0.25 0.25 0.25 0.25 0.25 0.25 0.25 0.25 0.25 0.25 0.25 0.25 0.25 0.25 0.25 0.25 0.25 0.25 0.25 0.25 0.25 0.25 0.25 0.25 0.25 0.25 0.25 0.25 0.25 0.25 0.25 0.25 0.25 0.25 0.25 0.25 0.25 0.25 0.25 0.25 0.25 0.25 0.25 
0 1 2 10 11 14 18 19 24 25 28 29 30 33 34 35 37 47 48 50 51 59 64 68 73 76 81 82 83 87 98 100 104 122 136 152 188 190 191 192 193 197 198 200 202 203 204 206 208 210 211 213 215 216 217 218 220 221 222 223 224 225 226 227 228 229 230 231 232 233 234 235 236 237 238 239 240 241 243 246 248 249 252 254 255 256 257 258 260 266 268 269 294 296 297 300 305 307 309 324 332 336 338 339 343 344 345 346 347 349 350 352 356 357 359 361 362 363 365 367 368 369 376 380 384 385 388 389 390 391 392 393 394 399 402 405 406 409 411 414 415 417 427 429 433 441 442 447 457 461 481 485 521 537 554 565 569 574 582 588 594 595 596 599 600 609 610 611 612 627 628 630 631 637 638 645 646 649 650 653 654 656 657 658 673 676 677 681 683 686 687 701 702 703 708 712 713 718 721 723 730 732 735 736 738 756 757 758 759 760 764 765 766 767 770 773 776 786 789 790 792 800 801 803 807 809 810 813 814 815 818 819 820 823 824 825 843 844 847 849 855 866 899 900 908 923 972 989 1004 1023 1029 1034 1037 1127 1143 1148 1150 1151 1152 1153 1155 1156 1157 1158 1159 1160 1161 1163 1164 1165 1166 1167 1171 1172 1173 1174 1175 1176 1178 1179 1180 1181 1185 1186 1187 1188 1189 1191 1192 1193 1194 1195 1196 1197 1198 1199 1201 1209 1210 1211 1212 1213 1214 1215 1217 1220 1221 1223 1224 1225 1226 1227 1229 1230 1231 1239 1242 1243 1244 1246 1247 1248 1249 1250 1251 1252 1254 1255 1256 1257 1258 1259 1260 1272 1273 1274 1275 1279 1280 1281 1282 1284 1286 1287 1288 1289 1290 1296 1301 1304 1305 1308 1309 1312 1317 1319 1320 1321 1329 1330 1331 1332 1335 1336 1340 1349 1351 1352 1360 1364 1365 1368 1376 1378 1380 1381 1393 1399 1425 1426 1429 1430 1431 1432 1434 1435 1436 1437 1439 1440 1441 1442 1443 1444 1445 1446 1447 1448 1449 1450 1451 1452 1453 1454 1455 1456 1457 1458 1459 1460 1461 1462 1463 1464 1473 1475 1479 1480 1487 1498 1502 1504 1505 1507 1508 1536 1545 1548 1550 1565 1566 1571 1572 1573 1574 1577 1594 1599 1600 1605 1606 1609 1610 1612 1614 1620 1622 1624 1625 1626 1630 1631 1634 1635 1638 1643 1647 1652 1653 1655 1656 1657 1659 1669 1670 1671 1672 1673 1674 1677 1684 1687 1688 1689 1690 1693 1694 1695 1696 1698 1701 1702 1703 1704 1705 1706 1707 1709 1710 1711 1713 1714 1716 1717 1718 1719 1720 1721 1722 1723 1724 1725 1726 1728 1729 1733 1734 1735 1736 1737 1738 1740 1742 1743 1744 1745 1746 1748 1749 1750 1751 1752 1753 1754 1755 1756 1757 1758 1759 1760 1771 1775 1776 1792 1805 1830 1852 1871 1873 1889 1914 1922 1931 1948 1956 1967 1975 
