svm_type c_svc
kernel_type rbf
gamma 0.0078125
nr_class 7
nr_binary 21
total_sv 403
rho 2.48231 0.438032 1.77794 -0.744253 -2.9584 -1.54184 -0.100929 -0.584924 -14.0598 -8.24386 -25.3018 0.148776 -0.107234 -0.245525 -0.113819 -2.14171 -2.6423 -1.08182 9.32764 9.11516 -33.5801
label 6 3 2 7 1 4 5
nr_sv 20 107 7 11 27 76 155
nr_sv_binary 10 6 7 6 22 10 5 13 27 46 196 5 5 6 5 7 9 9 25 37 110
I 0
1 0
1 1
1 0
1 2
1 0
1 3
1 0
1 4
1 0
1 5
1 0
1 6
1 1
1 2
1 1
1 3
1 1
1 4
1 1
1 5
1 1
1 6
1 2
1 3
1 2
1 4
1 2
1 5
1 2
1 6
1 3
1 4
1 3
1 5
1 3
1 6
1 4
1 5
1 4
1 6
1 5
1 6
alpha
2 10 11 12 17 21 62 106 115 125 
280.0640668341379 51.35420595963528 69.43247028167116 13.91197206058065 24.26416696133471 -53.51533630488439 -255.7459678871754 -59.68963307146892 -11.67865102242187 -58.39729381140891 
0 3 127 129 132 133 
22.53307487350709 37.47924296673887 -17.95288154984807 -29.88948058037228 -7.066530321572431 -5.103425388453189 
2 7 136 139 140 141 144 
375.2599454003433 59.66298467081116 -317.204708566088 -12.29159189691855 -16.36203799488255 -84.08445283590527 -4.980138777360298 
1 2 5 19 145 155 
121.7530245990524 28.33607834426908 62.53795687806563 59.15459524690456 -13.63799594865829 -258.1436591196334 
4 6 8 9 12 13 14 15 16 17 18 185 190 191 206 209 212 220 221 228 234 235 
215.0182622768184 190.7451090508405 512 512 8.844797838521293 158.1761699560352 512 512 183.1930608410062 512 512 -225.8331039075897 -512 -512 -512 -510.3508700750359 -36.40865113173659 -512 -508.6017340859462 -189.8903953657899 -243.9993127776612 -64.8933326194618 
5 10 17 19 261 298 319 333 374 383 
93.25358195096203 29.65563310024105 232.240611305343 198.3185259306332 -30.16602309094981 -10.08033923923903 -76.84712851971295 -18.8631466583138 -21.16816648970538 -396.3435482892582 
106 115 129 130 131 
2.022024383822517 54.1494838878895 -25.80394364301285 -1.971940457917515 -28.39562417078164 
22 29 35 48 62 71 104 106 135 136 140 142 143 
264.4272555901463 30.23654017337577 129.0000032704144 14.78587543836018 136.2799929562239 92.43227431215531 46.22205309087479 40.58608242380631 -74.58163875274981 -512 -7.589180977675341 -27.34578525745136 -132.4534722674805 
22 26 27 28 29 45 50 51 62 66 80 100 111 112 123 125 147 148 152 153 157 162 163 165 168 170 171 
433.654329133389 455.6583605577062 512 512 8.136892169839713 512 295.8552703617238 52.4292614674356 16.6758655509289 512 1.025028827067575 512 512 178.1402750723197 512 512 -512 -512 -512 -512 -512 -417.5752831404106 -512 -512 -512 -512 -512 
21 23 28 30 33 34 35 37 38 40 41 45 46 47 59 60 61 62 71 79 80 109 115 119 123 125 176 179 180 181 184 187 196 200 201 205 208 211 215 219 224 236 241 242 243 244 
512 512 512 53.72160594151458 33.73654908394235 512 512 49.45011863708061 5.814078355920087 439.4090924263334 512 512 512 512 512 196.1106961956578 480.4720290545224 512 50.02735956510203 5.757446559958145 512 512 35.32186524534811 512 512 512 -512 -512 -512 -512 -512 -512 -512 -512 -411.0391854844848 -512 -512 -512 -512 -512 -512 -358.9879594688221 -512 -67.79369611207247 -512 -512 
20 21 22 23 24 25 26 27 28 29 30 31 32 33 34 35 36 37 39 40 41 42 43 44 45 49 50 52 53 54 55 56 57 58 60 61 62 63 64 65 66 67 68 69 70 72 73 74 75 76 77 78 80 81 82 83 84 85 86 87 88 89 90 91 92 93 94 95 96 97 98 99 100 101 102 103 105 107 108 109 110 111 112 113 114 116 117 118 119 120 121 122 123 124 125 126 248 249 251 252 254 259 260 261 262 263 267 268 269 270 271 273 274 275 276 278 281 282 284 286 287 288 290 292 294 295 297 299 302 303 304 305 306 307 309 311 312 314 315 316 317 318 321 324 328 329 330 331 332 334 335 336 337 338 339 342 345 348 349 350 351 352 355 356 358 359 360 361 362 363 364 365 367 370 371 372 373 376 378 379 380 384 385 386 388 390 391 392 393 395 396 397 399 400 401 402 
512 512 512 512 512 512 512 512 512 512 512 18.52994118543769 512 512 512 512 512 37.70802681413542 512 512 512 512 512 512 512 512 512 512 512 512 512 512 512 512 512 512 512 512 512 512 512 512 512 402.9033885842036 512 512 512 512 512 512 512 512 512 512 512 305.378988483254 512 512 512 512 512 512 512 512 512 512 512 512 512 512 512 512 512 512 512 512 512 512 244.7996161251288 512 512 512 512 512 512 512 512 512 512 512 512 512 512 512 512 512 -512 -512 -512 -512 -512 -512 -512 -512 -512 -512 -512 -512 -512 -512 -18.21834862912241 -512 -512 -512 -512 -508.9640875200694 -512 -512 -512 -512 -179.4662581096817 -512 -512 -512 -512 -512 -13.85001311183273 -512 -512 -512 -512 -512 -512 -512 -127.369094852899 -512 -512 -512 -512 -512 -512 -512 -512 -512 -512 -512 -512 -492.3375367681743 -512 -512 -336.8902731131255 -512 -251.8829247489751 -512 -240.7213363657336 -512 -512 -512 -512 -512 -512 -512 -512 -512 -512 -512 -512 -512 -512 -512 -512 -512 -512 -512 -512 -512 -512 -512 -512 -512 -512 -322.2408129915959 -512 -242.5594601835861 -221.9142140807646 -512 -512 -512 -436.0941148351565 -512 -176.8114858814426 -512 -512 -512 -512 -512 
127 132 136 137 140 
0.8560037654177324 12.52340996150814 -6.922553668710725 -5.326911124713556 -1.129948933501591 
128 129 156 162 166 
13.17633579351695 7.649728995493401 -17.15975875893684 -3.115502916712301 -0.550803113361214 
128 129 133 189 210 227 
97.04988862659187 27.56835802663129 4.088111863237979 -19.21273730158729 -29.70515277083579 -79.78846844403805 
128 129 132 133 375 
2.195344571947195 10.09280486759946 7.588719175896133 5.654915461753139 -25.53178407719594 
136 138 145 148 150 153 154 
251.4729628228606 88.06392311846454 -19.72037037615073 -59.25045416889479 -82.22984501770264 -161.142110669796 -17.19410570878098 
134 136 139 140 143 180 202 209 226 
26.54465819637605 512 1.360215515245913 7.260353309748053 123.4693483850056 -391.4019646863435 -99.00602350290673 -96.68744184064408 -83.53914537648099 
136 139 143 258 293 368 374 383 395 
512 55.03785306274941 281.9114205817644 -285.8991854531703 -61.42364011081364 -48.07305987482103 -210.6920851518027 -149.3804792224061 -93.48082383150017 
145 148 151 153 155 157 158 164 165 168 169 175 180 181 183 184 187 196 198 200 201 219 223 224 238 
512 512 512 512 512 512 137.9660847733472 512 512 512 84.34822364527759 -64.9320568736013 -512 -508.3229805519263 -119.145125874431 -488.9369774665353 -111.4069657267726 -512 -71.21232716654157 -438.3427179570936 -395.3311441107525 -512 -512 -512 -72.68401269097151 
146 147 148 149 152 153 157 158 159 160 161 162 163 165 167 168 170 171 250 257 265 283 285 293 300 308 313 345 353 356 360 368 372 374 385 387 394 
512 512 512 42.62728767272716 512 512 512 512 489.1647982165532 16.87091281778684 245.3370366706581 512 512 512 270.8100965709426 512 512 512 -512 -512 -198.7187771484641 -512 -509.3599539885299 -396.6397974514986 -414.4981727241485 -512 -7.255553812526904 -512 -512 -23.21441596175103 -512 -512 -512 -260.6444485595026 -512 -512 -278.4790123022457 
172 173 174 175 176 177 178 179 180 181 182 184 186 187 188 192 193 194 195 196 197 199 200 201 203 204 207 208 211 213 214 215 216 217 218 219 222 224 225 228 229 230 231 232 233 236 237 238 239 240 241 243 244 245 246 247 252 253 255 256 258 264 265 266 269 272 273 277 279 280 283 285 289 291 296 298 300 301 308 310 319 320 322 323 324 325 326 327 340 341 343 344 346 347 354 357 363 366 368 369 374 375 377 381 382 383 387 389 393 398 
512 512 512 180.4473686416425 512 512 512 512 512 512 512 512 512 512 512 510.5252683497929 512 512 512 512 144.0435250508575 512 512 512 389.7077680403205 512 512 512 512 512 512 512 512 130.684891379387 512 512 254.4842001102108 512 512 512 512 512 111.4699558851128 512 0.6879440524613972 512 512 512 512 512 512 512 512 512 512 512 -512 -512 -512 -512 -30.30359675364878 -512 -512 -512 -512 -512 -512 -512 -512 -512 -512 -512 -203.5474546005581 -512 -512 -512 -512 -512 -512 -512 -512 -512 -512 -201.7905462882624 -512 -512 -439.595917861832 -512 -512 -512 -512 -512 -512 -512 -512 -512 -512 -512 -512 -512 -512 -512 -485.9501744834974 -512 -512 -512 -512 -512 -512 -360.8632315219864 
SV
1:0.715415 2:0.391667 4:-0.333333 5:-1 6:-0.942966 7:-0.998895 8:-0.950311 9:-0.999215 10:-0.168603 11:-0.235008 12:-0.0029455 13:-0.281372 14:-0.0559701 15:0.254118 16:-0.703985 17:-0.0029455 18:-0.362007 19:-0.663025 
1:0.114625 2:0.425 4:-1 5:-1 6:-0.828897 7:-0.997782 8:-0.898137 9:-0.99478 10:-0.518719 11:-0.539708 12:-0.440353 13:-0.582229 14:0.369403 15:-0.247059 16:-0.328273 17:-0.440353 18:-0.413585 19:-0.630284 
1:-0.905138 2:0.5 4:-1 5:-1 6:-0.756654 7:-0.989095 8:-0.652174 9:-0.942251 10:-0.647302 11:-0.656402 12:-0.603829 13:-0.685113 14:0.492537 15:-0.444706 16:-0.134725 17:-0.600884 18:-0.525775 19:-0.60182 
1:-0.16996 2:0.5 4:-1 5:-1 6:-0.78327 7:-0.993887 8:-0.873292 9:-0.995822 10:-0.121611 11:-0.19611 12:0.0544919 13:-0.237724 14:-0.126866 15:0.315294 16:-0.73055 17:0.0544919 18:-0.364954 19:-0.670322 
1:0.533597 2:0.25 4:-1 5:-1 6:-0.855513 7:-0.996355 8:-0.530435 9:-0.868253 10:-0.421637 11:-0.474878 12:-0.322533 13:-0.476228 14:0.115672 15:-0.124706 16:-0.267552 17:-0.32106 18:-0.410587 19:-0.755679 
1:0.802372 2:0.366667 4:-1 5:-1 6:-0.920152 7:-0.998947 8:-0.746584 9:-0.962299 10:-0.539892 11:-0.576985 12:-0.456554 13:-0.593141 14:0.264925 15:-0.228235 16:-0.252372 17:-0.456554 18:-0.426332 19:-0.680033 
1:-0.201581 2:0.4 4:-0.333333 5:-1 6:-0.874525 7:-0.996912 8:-0.890683 9:-0.997285 10:-0.314227 11:-0.345219 12:-0.207658 13:-0.398285 14:0.235075 15:-0.0635294 16:-0.487666 17:-0.207658 18:-0.434626 19:-0.63947 
1:0.280632 2:0.408333 4:-1 5:-1 6:-0.878327 7:-0.99761 8:-0.590062 9:-0.90775 10:-0.576556 11:-0.599676 12:-0.518409 13:-0.616524 14:0.373134 15:-0.357647 16:-0.1537 17:-0.518409 18:-0.523019 19:-0.7223 
1:0.881423 2:0.241667 4:-1 5:-1 6:-0.874525 7:-0.99814 8:-0.734162 9:-0.993369 10:-0.370514 11:-0.447326 12:-0.226804 13:-0.449727 14:-0.0634328 15:0.101177 16:-0.449715 17:-0.226804 18:-0.295748 19:-0.704137 
1:0.683794 2:0.25 4:-1 5:-1 6:-0.745247 7:-0.998529 8:-0.485714 9:-0.972702 10:-0.436096 11:-0.484603 12:-0.341679 13:-0.490257 14:0.152985 15:-0.150588 16:-0.263757 17:-0.341679 18:-0.403888 19:-0.716204 
1:-0.715415 2:0.283333 4:-1 5:-1 6:-0.836502 7:-0.98365 8:-0.264596 9:-0.965526 10:-0.500645 11:-0.551053 12:-0.431517 13:-0.526111 14:0.160448 15:-0.287059 16:-0.0512334 17:-0.431517 18:-0.452707 19:-0.807267 
1:1 2:0.233333 4:-1 5:-1 6:-0.756654 7:-0.984793 8:-0.336646 9:-0.779706 10:-0.489285 11:-0.54295 12:-0.387334 13:-0.546376 14:0.134328 15:-0.127059 16:-0.282732 17:-0.387334 18:-0.410309 19:-0.755801 
1:0.328063 2:0.458333 4:-1 5:1 6:-0.840304 7:-0.996652 8:-0.754037 9:-0.996366 10:-0.310612 11:-0.34846 12:-0.189985 13:-0.402962 14:0.186567 15:0.00470588 16:-0.548387 17:-0.189985 18:-0.393104 19:-0.640811 
1:0.683794 2:0.25 4:-1 5:-1 6:-0.745247 7:-0.998529 8:-0.485714 9:-0.972702 10:-0.436096 11:-0.484603 12:-0.341679 13:-0.490257 14:0.152985 15:-0.150588 16:-0.263757 17:-0.341679 18:-0.403888 19:-0.716204 
1:-0.992095 2:0.333333 4:-1 5:-1 6:-0.86692 7:-0.997542 8:-0.836025 9:-0.995489 10:-0.361735 11:-0.401945 12:-0.253314 13:-0.438815 14:0.186567 15:-0.0658824 16:-0.434535 17:-0.253314 18:-0.424034 19:-0.660465 
1:-0.936759 2:0.333333 4:-1 5:-1 6:-0.897338 7:-0.997972 8:-0.875776 9:-0.997631 10:-0.359669 11:-0.401945 12:-0.241532 13:-0.445051 14:0.171642 15:-0.0188235 16:-0.495256 17:-0.241532 18:-0.384115 19:-0.653009 
1:-0.928854 2:0.341667 4:-1 5:-1 6:-0.707224 7:-0.991149 8:-0.701863 9:-0.989381 10:-0.375678 11:-0.411669 12:-0.275405 13:-0.448168 14:0.220149 15:-0.108235 16:-0.40038 17:-0.275405 18:-0.443912 19:-0.66702 
1:0.968379 2:0.241667 4:-1 5:-1 6:-0.855513 7:-0.99761 8:-0.930435 9:-0.996046 10:-0.403047 11:-0.468395 12:-0.266568 13:-0.485581 14:0.0261194 15:0.0588236 16:-0.472486 17:-0.266568 18:-0.305716 19:-0.683763 
1:0.952569 2:0.241667 4:-1 5:-1 6:-0.794677 7:-0.982074 8:-0.903106 9:-0.994566 10:-0.387555 11:-0.458671 12:-0.243004 13:-0.47311 14:-0.0186567 15:0.101177 16:-0.495256 17:-0.243004 18:-0.291926 19:-0.687615 
1:-0.675889 2:0.475 4:-1 5:-1 6:-0.874525 7:-0.996348 8:-0.937888 9:-0.997473 10:-0.570875 11:-0.598055 12:-0.494845 13:-0.625877 14:0.343284 15:-0.270588 16:-0.263757 17:-0.494845 18:-0.396506 19:-0.65493 
1:-0.114625 2:-0.00833333 4:-1 5:-1 6:-0.980989 7:-0.999494 8:-0.985093 9:-0.999473 10:-0.987607 11:-1 12:-0.966127 13:-0.998441 14:0.578358 15:-0.630588 16:0.0777989 17:-0.966127 18:1 19:-0.690793 
1:-0.146245 2:0.125 4:-1 5:-1 6:-0.996198 7:-0.999726 8:-0.997516 9:-0.999804 10:-0.999484 11:-1 12:-0.998527 13:-1 14:0.664179 15:-0.731765 16:0.1537 17:-0.998527 18:-0.777778 19:-0.681103 
1:-0.15415 2:0.125 4:-1 5:-1 6:-1 7:-1 8:-1 9:-1 10:-1 11:-1 12:-1 13:-1 14:0.66791 15:-0.736471 16:0.157495 17:-1 18:-1 19:0.0221088 
1:-0.288538 2:-0.0916667 4:-1 5:-1 6:-0.904943 7:-0.998127 8:-0.972671 9:-0.998886 10:-0.76504 11:-0.836305 12:-0.658321 13:-0.809821 14:0.100746 15:-0.169412 16:-0.180266 17:-0.658321 18:0.124316 19:-0.726909 
1:-0.0434783 2:-0.0666667 4:-1 5:-1 6:-0.958175 7:-0.999246 8:-0.97764 9:-0.999695 10:-0.983475 11:-1 12:-0.955817 13:-0.996882 14:0.548507 15:-0.6 16:0.0588235 17:-0.955817 18:1 19:-0.697313 
1:0.0988142 2:-0.05 4:-1 5:-1 6:-0.954373 7:-0.999552 8:-0.880745 9:-0.99455 10:-0.945262 11:-0.97731 12:-0.896907 13:-0.965705 14:0.429104 15:-0.491765 16:0.00569261 17:-0.896907 18:0.706397 19:-0.728057 
1:-0.0355731 2:0.1 4:-1 5:-1 6:-0.980989 7:-0.999214 8:-0.987578 9:-0.999804 10:-0.99432 11:-1 12:-0.9838 13:-1 14:0.626866 15:-0.684706 16:0.11575 17:-0.9838 18:0.555556 19:-0.681103 
1:-0.620553 2:0.0666667 4:-1 5:-1 6:-0.988593 7:-0.999843 8:-0.985093 9:-0.999872 10:-0.993803 11:-1 12:-0.982327 13:-1 14:0.623134 15:-0.68 16:0.111954 17:-0.982327 18:0.555556 19:-0.681103 
1:-0.470356 2:-0.0333333 4:-1 5:-1 6:-0.927757 7:-0.998032 8:-0.942857 9:-0.998806 10:-0.771753 11:-0.841167 12:-0.649485 13:-0.834762 14:0.115672 15:-0.0964706 16:-0.313093 17:-0.649485 18:0.202887 19:-0.661432 
1:-0.233202 2:0.108333 4:-1 5:-1 6:-0.984791 7:-0.99994 8:-0.985093 9:-0.999872 10:-0.986057 11:-1 12:-0.960236 13:-1 14:0.567164 15:-0.609412 16:0.0550285 17:-0.960236 18:1 19:-0.681103 
1:-0.367589 2:0.116667 4:-1 6:-0.688213 7:-0.990855 8:-0.664596 9:-0.991181 10:-0.812548 11:-0.855754 12:-0.733432 13:-0.855027 14:0.309701 15:-0.312941 16:-0.16129 17:-0.733432 18:0.0654557 19:-0.670333 
1:-0.857708 2:0.0166667 4:-1 5:-1 6:-1 7:-1 8:-1 9:-1 10:-1 11:-1 12:-1 13:-1 14:0.66791 15:-0.736471 16:0.157495 17:-1 18:-1 19:0.0221088 
1:-0.826087 2:-0.0166667 4:-1 5:-1 6:-0.965779 7:-0.999843 8:-0.982609 9:-0.999781 10:-0.99277 11:-1 12:-0.979381 13:-1 14:0.615672 15:-0.670588 16:0.104364 17:-0.979381 18:0.555556 19:-0.681103 
1:-0.675889 2:0.0583333 4:-1 5:-1 6:-0.969582 7:-0.99761 8:-0.980124 9:-0.99829 10:-0.995869 11:-0.998379 12:-0.991163 13:-0.998441 14:0.649254 15:-0.712941 16:0.13852 17:-0.991163 18:-0.814815 19:-0.681103 
1:-0.470356 2:-0.133333 4:-1 5:-1 6:-0.771863 7:-0.993737 8:-0.878261 9:-0.995972 10:-0.636974 11:-0.730956 12:-0.483063 13:-0.710055 14:-0.0970149 15:0.0870588 16:-0.392789 17:-0.483063 18:0.0470752 19:-0.679845 
1:-0.272727 2:0.133333 4:-1 5:-1 6:-0.790875 7:-0.992767 8:-0.840994 9:-0.995361 10:-0.89259 11:-0.905997 12:-0.868925 13:-0.90491 14:0.541045 15:-0.597647 16:0.0626186 17:-0.868925 18:-0.301058 19:-0.67107 
1:-0.083004 2:0.05 4:-1 5:-1 6:-0.980989 7:-0.999214 8:-0.982609 9:-0.999638 10:-0.989156 11:-1 12:-0.970545 13:-0.998441 14:0.589552 15:-0.644706 16:0.0891841 17:-0.970545 18:1 19:-0.690793 
1:0.905138 2:-0.416667 4:-1 5:-1 6:0.532319 7:-0.617955 8:-0.321739 9:-0.840041 10:-0.41544 11:-0.517018 12:-0.263623 13:-0.479345 14:-0.220149 15:0.129412 16:-0.335863 17:-0.263623 18:-0.159649 19:-0.741561 
1:-0.0118577 2:-0.425 4:-1 5:-1 6:0.441065 7:0.0699647 8:0.547826 9:-0.409381 10:-0.0410534 11:-0.119935 12:0.0544919 13:-0.0678099 14:-0.182836 15:-0.0517647 16:-0.0815939 17:0.0544919 18:-0.420752 19:-0.795193 
1:-0.209486 2:0.05 4:-1 5:-1 6:-0.969582 7:-0.998988 8:-0.962733 9:-0.998832 10:-0.983992 11:-0.996759 12:-0.964654 13:-0.992206 14:0.574627 15:-0.64 16:0.0967742 17:-0.964654 18:0.9 19:-0.716758 
1:0.865613 2:0.05 4:-1 5:-1 6:-0.973384 7:-0.999783 8:-0.985093 9:-0.999936 10:-0.990705 11:-1 12:-0.97349 13:-1 14:0.600746 15:-0.651765 16:0.0891841 17:-0.97349 18:1 19:-0.681103 
1:-0.747036 2:0.00833333 4:-0.333333 5:-1 6:-0.927757 7:-0.997987 8:-0.922981 9:-0.99856 10:-0.972631 11:-0.990276 12:-0.944035 13:-0.98597 14:0.537313 15:-0.592941 16:0.0588235 17:-0.944035 18:0.353776 19:-0.700589 
1:-0.15415 2:0.108333 4:-1 5:-1 6:-0.973384 7:-0.999694 8:-0.990062 9:-0.999893 10:-0.986574 11:-1 12:-0.961708 13:-1 14:0.570896 15:-0.614118 16:0.0588235 17:-0.961708 18:1 19:-0.681103 
1:-0.249012 2:-0.1 4:-1 5:-1 6:-0.977186 7:-0.999821 8:-0.975155 9:-0.999701 10:-0.979861 11:-1 12:-0.944035 13:-0.998441 14:0.522388 15:-0.56 16:0.0208729 17:-0.944035 18:1 19:-0.687591 
1:-0.00395257 2:-0.0916667 4:-1 5:-1 6:-0.965779 7:-0.999036 8:-0.967702 9:-0.99914 10:-0.978828 11:-0.998379 12:-0.945508 13:-0.995323 14:0.526119 15:-0.571765 16:0.0360531 17:-0.945508 18:0.968254 19:-0.694097 
1:-0.454545 2:-0.075 4:-1 5:-1 6:-0.749049 7:-0.991866 8:-0.816149 9:-0.994545 10:-0.722696 11:-0.73906 12:-0.667158 13:-0.766173 14:0.466418 15:-0.404706 16:-0.172676 17:-0.649485 18:-0.195015 19:-0.495032 
1:-0.549407 2:-0.025 4:-0.333333 5:-1 6:-0.798479 7:-0.996458 8:-0.890683 9:-0.997573 10:-0.770204 11:-0.852512 12:-0.656848 13:-0.81138 14:0.0261194 15:-0.138824 16:-0.1537 17:-0.656848 18:0.226769 19:-0.75561 
1:-0.296443 2:-0.075 4:-0.333333 5:-1 6:-0.885932 7:-0.99718 8:-0.947826 9:-0.999003 10:-0.774335 11:-0.850891 12:-0.664212 13:-0.817615 14:0.0671642 15:-0.155294 16:-0.16888 17:-0.664212 18:0.169488 19:-0.732431 
1:-0.715415 2:-0.225 4:-1 5:-1 6:-0.463878 7:-0.980412 8:-0.0111803 9:-0.968812 10:-0.740253 11:-0.78282 12:-0.689249 13:-0.753702 14:0.291045 15:-0.430588 16:0.0474383 17:-0.689249 18:0.215227 19:-0.79213 
1:0.818182 2:-0.0583333 4:-1 5:-1 6:-0.764259 7:-0.969824 8:-0.918012 9:-0.990719 10:-0.958172 11:-0.97893 12:-0.921944 13:-0.976617 14:0.511194 15:-0.552941 16:0.0208729 17:-0.921944 18:0.790738 19:-0.689343 
1:-0.747036 4:-1 5:-1 6:-0.969582 7:-0.998372 8:-0.95528 9:-0.99842 10:-0.989672 11:-0.996759 12:-0.976436 13:-0.996882 14:0.615672 15:-0.670588 16:0.104364 17:-0.976436 18:-0.185185 19:-0.681103 
1:-0.897233 2:0.0416667 4:-1 5:-1 6:-1 7:-1 8:-1 9:-1 10:-1 11:-1 12:-1 13:-1 14:0.66791 15:-0.736471 16:0.157495 17:-1 18:-1 19:0.0221088 
1:0.818182 2:-0.0583333 4:-1 5:-1 6:-0.764259 7:-0.969824 8:-0.918012 9:-0.990719 10:-0.958172 11:-0.97893 12:-0.921944 13:-0.976617 14:0.511194 15:-0.552941 16:0.0208729 17:-0.921944 18:0.790738 19:-0.689343 
1:-0.114625 2:-0.025 4:-1 5:-1 6:-0.984791 7:-0.999851 8:-0.982609 9:-0.999781 10:-0.989672 11:-1 12:-0.970545 13:-1 14:0.593284 15:-0.642353 16:0.0815939 17:-0.970545 18:1 19:-0.681103 
1:0.549407 2:-0.216667 4:-1 5:-1 6:-0.745247 7:-0.968412 8:-0.836025 9:-0.979226 10:-0.942164 11:-0.975689 12:-0.889543 13:-0.965705 14:0.41791 15:-0.470588 16:-0.0170778 17:-0.889543 18:0.772097 19:-0.718386 
1:-0.16996 2:0.0416667 4:-1 5:-1 6:-0.977186 7:-0.999641 8:-0.982609 9:-0.999845 10:-0.990188 11:-0.998379 12:-0.974963 13:-0.998441 14:0.608209 15:-0.661176 16:0.0967742 17:-0.974963 18:0.925926 19:-0.681103 
1:0.565217 2:-0.258333 4:-1 5:-1 6:-0.836502 7:-0.997094 8:-0.890683 9:-0.991301 10:-0.915311 11:-0.959481 12:-0.846834 13:-0.94544 14:0.335821 15:-0.388235 16:-0.0664136 17:-0.846834 18:0.547631 19:-0.725373 
1:0.794466 2:-0.0666667 4:-1 5:-1 6:-0.988593 7:-0.999843 8:-0.980124 9:-0.999701 10:-0.990188 11:-1 12:-0.97349 13:-0.998441 14:0.597015 15:-0.654118 16:0.0967742 17:-0.97349 18:1 19:-0.690793 
1:0.778656 2:-0.491667 4:-1 5:-1 6:-0.912548 7:-0.998349 8:-0.937888 9:-0.997922 10:-0.937 11:-0.97731 12:-0.874816 13:-0.964147 14:0.369403 15:-0.423529 16:-0.0436432 17:-0.874816 18:0.68338 19:-0.722175 
1:-0.72332 2:0.116667 4:-1 5:-1 6:-0.980989 7:-0.999604 8:-0.942857 9:-0.997024 10:-0.988123 11:-0.995138 12:-0.980854 13:-0.989088 14:0.615672 15:-0.698824 16:0.149905 17:-0.980854 18:-0.496296 19:-0.82768 
1:0.581028 2:-0.0916667 4:-0.333333 5:-1 6:-0.730038 7:-0.970205 8:-0.83354 9:-0.986124 10:-0.947844 11:-0.97893 12:-0.89838 13:-0.970382 14:0.436567 15:-0.487059 16:-0.00948765 17:-0.89838 18:0.786108 19:-0.709943 
1:-0.280632 2:-0.0833333 4:-1 5:-1 6:-0.901141 7:-0.996326 8:-0.908075 9:-0.997029 10:-0.791376 11:-0.860616 12:-0.689249 13:-0.833203 14:0.123134 15:-0.197647 16:-0.157495 17:-0.689249 18:0.192844 19:-0.728432 
1:-0.462451 2:0.0666667 4:-1 5:-1 6:-0.806084 7:-0.996424 8:-0.90559 9:-0.997592 10:-0.747999 11:-0.766613 12:-0.701031 13:-0.780203 14:0.458955 15:-0.451765 16:-0.089184 17:-0.683358 18:-0.226776 19:-0.549633 
1:0.0355731 2:-0.0583333 4:-1 5:-1 6:-0.984791 7:-0.999851 8:-0.990062 9:-0.999893 10:-0.985025 11:-1 12:-0.95729 13:-1 14:0.559701 15:-0.6 16:0.0474383 17:-0.95729 18:1 19:-0.681103 
1:-0.549407 2:-0.05 4:-1 5:-1 6:-0.851711 7:-0.99776 8:-0.952795 9:-0.998695 10:-0.741286 11:-0.837925 12:-0.59352 13:-0.805144 14:-0.0820896 15:0.0329412 16:-0.320683 17:-0.59352 18:0.276911 19:-0.730648 
1:-0.422925 2:-0.0166667 4:-1 5:-1 6:-0.984791 7:-0.99994 8:-0.995031 9:-0.999957 10:-0.99277 11:-1 12:-0.979381 13:-1 14:0.615672 15:-0.670588 16:0.104364 17:-0.979381 18:1 19:-0.681103 
1:-0.992095 2:-0.141667 4:-1 5:-1 6:-0.942966 7:-0.999754 8:-0.987578 9:-0.999909 10:-0.975729 11:-0.988655 12:-0.948454 13:-0.992206 14:0.570896 15:-0.6 16:0.0360531 17:-0.948454 18:0.762963 19:-0.658484 
1:0.525692 2:-0.0583333 4:-1 5:-1 6:-0.897338 7:-0.999126 8:-0.937888 9:-0.998691 10:-0.960754 11:-0.985413 12:-0.926362 13:-0.9735 14:0.485075 15:-0.562353 16:0.0626186 17:-0.926362 18:0.673545 19:-0.744969 
1:-0.193676 2:-0.00833333 4:-1 5:-1 6:-0.977186 7:-1 8:-0.987578 9:-0.999438 10:-0.989156 11:-1 12:-0.969072 13:-1 14:0.589552 15:-0.637647 16:0.0777989 17:-0.969072 18:1 19:-0.681103 
1:0.897233 2:-0.341667 4:-1 6:-0.612167 7:-0.952854 8:-0.696894 9:-0.908012 10:-0.874516 11:-0.930308 12:-0.792342 13:-0.908028 14:0.242537 15:-0.312941 16:-0.0929791 17:-0.792342 18:0.525838 19:-0.738852 
1:-0.320158 2:0.0333333 4:-1 5:-1 6:-0.973384 7:-0.999514 8:-0.985093 9:-0.999744 10:-0.986574 11:-1 12:-0.963181 13:-0.998441 14:0.570896 15:-0.621176 16:0.0702087 17:-0.963181 18:1 19:-0.688877 
1:-0.541502 2:0.0833333 4:-0.333333 5:-1 6:-0.836502 7:-0.996893 8:-0.903106 9:-0.998156 10:-0.823393 11:-0.884927 12:-0.75405 13:-0.83788 14:0.186567 15:-0.362353 16:0.0436433 17:-0.75405 18:0.171551 19:-0.801028 
1:0.881423 2:-0.0666667 4:-1 5:-1 6:-0.965779 7:-0.999843 8:-0.97764 9:-0.99976 10:-0.978828 11:-1 12:-0.944035 13:-0.995323 14:0.514925 15:-0.564706 16:0.0360531 17:-0.944035 18:1 19:-0.704505 
1:-0.225296 2:0.00833333 4:-1 5:-1 6:-0.969582 7:-0.999223 8:-0.975155 9:-0.998867 10:-0.989672 11:-0.998379 12:-0.97349 13:-0.998441 14:0.604478 15:-0.656471 16:0.0929791 17:-0.97349 18:0.962963 19:-0.681103 
1:0.778656 2:-0.175 4:-1 5:-1 6:-0.977186 7:-0.999821 8:-0.97764 9:-0.999695 10:-0.976762 11:-0.998379 12:-0.94109 13:-0.993765 14:0.511194 15:-0.56 16:0.0322581 17:-0.94109 18:0.955556 19:-0.701782 
1:-0.588933 2:0.0333333 4:-1 5:-1 6:-0.961977 7:-0.999582 8:-0.985093 9:-0.999872 10:-0.989672 11:-1 12:-0.972018 13:-0.998441 14:0.593284 15:-0.649412 16:0.0929791 17:-0.972018 18:0.777778 19:-0.695558 
1:-0.422925 2:-0.0166667 4:-1 5:-1 6:-0.984791 7:-0.99994 8:-0.995031 9:-0.999957 10:-0.99277 11:-1 12:-0.979381 13:-1 14:0.615672 15:-0.670588 16:0.104364 17:-0.979381 18:1 19:-0.681103 
1:0.841897 2:-0.175 4:-1 5:-1 6:-0.942966 7:-0.999574 8:-0.97764 9:-0.999182 10:-0.974697 11:-0.998379 12:-0.935199 13:-0.993765 14:0.496269 15:-0.541176 16:0.0170778 17:-0.935199 18:0.968254 19:-0.700614 
1:0.620553 2:-0.425 4:-1 5:-1 6:-0.665399 7:-0.970093 8:-0.828571 9:-0.947888 10:-0.860057 11:-0.904376 12:-0.799705 13:-0.881528 14:0.317164 15:-0.414118 16:-0.00569258 17:-0.799705 18:0.195531 19:-0.758953 
1:-0.72332 2:0.116667 4:-1 5:-1 6:-0.980989 7:-0.999604 8:-0.942857 9:-0.997024 10:-0.988123 11:-0.995138 12:-0.980854 13:-0.989088 14:0.615672 15:-0.698824 16:0.149905 17:-0.980854 18:-0.496296 19:-0.82768 
1:-0.462451 2:0.0666667 4:-1 5:-1 6:-0.806084 7:-0.996424 8:-0.90559 9:-0.997592 10:-0.747999 11:-0.766613 12:-0.701031 13:-0.780203 14:0.458955 15:-0.451765 16:-0.089184 17:-0.683358 18:-0.226776 19:-0.549633 
1:-0.256917 2:-0.0333333 4:-1 5:-1 6:-0.984791 7:-0.999851 8:-0.990062 9:-0.999957 10:-0.991221 11:-1 12:-0.974963 13:-1 14:0.604478 15:-0.656471 16:0.0929791 17:-0.974963 18:1 19:-0.681103 
1:-0.794466 2:-0.158333 4:-1 5:-1 6:-0.984791 7:-0.999306 8:-0.995031 9:-0.999607 10:-0.997934 11:-1 12:-0.994109 13:-1 14:0.652985 15:-0.717647 16:0.142315 17:-0.994109 18:-0.555556 19:-0.681103 
1:-0.185771 2:0.0666667 4:-1 5:-1 6:-0.977186 7:-0.998959 8:-0.985093 9:-0.999255 10:-0.990705 11:-1 12:-0.976436 13:-0.996882 14:0.600746 15:-0.665882 16:0.111954 17:-0.976436 18:1 19:-0.700018 
1:-0.581028 2:0.0583333 4:-1 5:-1 6:-0.984791 7:-0.999402 8:-0.982609 9:-0.999396 10:-0.996385 11:-1 12:-0.991163 13:-0.998441 14:0.641791 15:-0.710588 16:0.142315 17:-0.991163 18:-0.333333 19:-0.710329 
1:-0.241107 2:-0.0666667 4:-1 5:-1 6:-0.973384 7:-0.999963 8:-0.992547 9:-0.999888 10:-0.983992 11:-1 12:-0.954345 13:-1 14:0.552239 15:-0.590588 16:0.0398482 17:-0.954345 18:1 19:-0.681103 
1:0.0988142 2:-0.05 4:-1 5:-1 6:-0.954373 7:-0.999552 8:-0.880745 9:-0.99455 10:-0.945262 11:-0.97731 12:-0.896907 13:-0.965705 14:0.429104 15:-0.491765 16:0.00569261 17:-0.896907 18:0.706397 19:-0.728057 
1:0.73913 2:-0.166667 4:-1 5:-1 6:-0.958175 7:-0.999514 8:-0.982609 9:-0.999653 10:-0.98141 11:-1 12:-0.946981 13:-1 14:0.533582 15:-0.567059 16:0.0208729 17:-0.946981 18:1 19:-0.681103 
1:-0.114625 2:-0.291667 4:-1 5:-1 6:-0.935361 7:-0.998977 8:-0.950311 9:-0.999508 10:-0.946811 11:-0.983793 12:-0.886598 13:-0.975058 14:0.395522 15:-0.435294 16:-0.0512334 17:-0.886598 18:0.744444 19:-0.711939 
1:-0.928854 2:-0.158333 4:-1 5:-1 6:-0.977186 7:-0.99915 8:-0.97764 9:-0.999737 10:-0.993803 11:-1 12:-0.9838 13:-0.998441 14:0.623134 15:-0.687059 16:0.12334 17:-0.9838 18:0.333333 19:-0.700415 
1:-0.0988142 2:0.0583333 4:-1 5:-1 6:-0.977186 7:-0.999821 8:-0.985093 9:-0.999744 10:-0.989156 11:-1 12:-0.969072 13:-1 14:0.589552 15:-0.637647 16:0.0777989 17:-0.969072 18:1 19:-0.681103 
1:-0.41502 4:-1 5:-1 6:-0.984791 7:-0.99994 8:-0.985093 9:-0.999936 10:-0.99277 11:-1 12:-0.979381 13:-1 14:0.615672 15:-0.670588 16:0.104364 17:-0.979381 18:1 19:-0.681103 
1:0.731225 2:-0.0916667 4:-1 5:-1 6:-0.973384 7:-0.999873 8:-0.982609 9:-0.999909 10:-0.986057 11:-1 12:-0.960236 13:-1 14:0.567164 15:-0.609412 16:0.0550285 17:-0.960236 18:1 19:-0.681103 
1:0.731225 2:-0.0583333 4:-1 5:-1 6:-0.984791 7:-0.99994 8:-0.980124 9:-0.999893 10:-0.987607 11:-1 12:-0.967599 13:-0.996882 14:0.578358 15:-0.637647 16:0.0891841 17:-0.967599 18:1 19:-0.703721 
1:0.810277 2:-0.0583333 4:-1 5:-1 6:-0.980989 7:-0.999783 8:-0.987578 9:-0.999781 10:-0.990705 11:-1 12:-0.97349 13:-1 14:0.600746 15:-0.651765 16:0.0891841 17:-0.97349 18:1 19:-0.681103 
1:0.810277 2:-0.0583333 4:-1 5:-1 6:-0.980989 7:-0.999783 8:-0.987578 9:-0.999781 10:-0.990705 11:-1 12:-0.97349 13:-1 14:0.600746 15:-0.651765 16:0.0891841 17:-0.97349 18:1 19:-0.681103 
1:0.826087 2:-0.0416667 4:-1 6:-0.836502 7:-0.976031 8:-0.945342 9:-0.990917 10:-0.978828 11:-0.993517 12:-0.952872 13:-0.992206 14:0.559701 15:-0.607059 16:0.0588235 17:-0.952872 18:0.931624 19:-0.685437 
1:-0.43083 2:-0.116667 4:-1 5:-1 6:-0.893536 7:-0.998058 8:-0.972671 9:-0.998883 10:-0.98141 11:-0.996759 12:-0.952872 13:-0.996882 14:0.55597 15:-0.595294 16:0.0436433 17:-0.952872 18:0.936508 19:-0.681103 
1:-0.249012 2:0.0166667 4:-1 5:-1 6:-0.996198 7:-0.999963 8:-0.990062 9:-0.999957 10:-0.993287 11:-1 12:-0.980854 13:-1 14:0.619403 15:-0.675294 16:0.108159 17:-0.980854 18:1 19:-0.681103 
1:0.810277 2:-0.275 4:-1 5:-1 6:-0.973384 7:-0.999694 8:-0.982609 9:-0.999909 10:-0.980377 11:-1 12:-0.945508 13:-0.998441 14:0.526119 15:-0.564706 16:0.024668 17:-0.945508 18:1 19:-0.687591 
1:-0.264822 2:0.108333 4:-1 5:-1 6:-0.969582 7:-0.999761 8:-0.97764 9:-0.99976 10:-0.983992 11:-1 12:-0.954345 13:-1 14:0.552239 15:-0.590588 16:0.0398482 17:-0.954345 18:1 19:-0.681103 
1:0.897233 2:0.05 4:-1 6:-0.707224 7:-0.962318 8:-0.828571 9:-0.9459 10:-0.930287 11:-0.962723 12:-0.880707 13:-0.951676 14:0.421642 15:-0.482353 16:-0.00189751 17:-0.880707 18:0.674956 19:-0.714535 
1:-0.826087 2:-0.0166667 4:-1 5:-1 6:-0.965779 7:-0.999843 8:-0.982609 9:-0.999781 10:-0.99277 11:-1 12:-0.979381 13:-1 14:0.615672 15:-0.670588 16:0.104364 17:-0.979381 18:0.555556 19:-0.681103 
1:-0.533597 2:0.00833333 4:-1 5:-1 6:-0.992395 7:-0.99994 8:-0.990062 9:-0.999957 10:-0.994836 11:-1 12:-0.985272 13:-1 14:0.630597 15:-0.689412 16:0.119545 17:-0.985272 18:0.777778 19:-0.681103 
1:-0.857708 2:0.116667 4:-1 5:-1 6:-0.939163 7:-0.996624 8:-0.90559 9:-0.993674 10:-0.971082 11:-0.990276 12:-0.952872 13:-0.971941 14:0.526119 15:-0.642353 16:0.149905 17:-0.952872 18:-0.0846561 19:-0.840714 
1:-0.865613 2:0.0916667 4:-1 5:-1 6:-0.946768 7:-0.998685 8:-0.987578 9:-0.999781 10:-0.992254 11:-0.998379 12:-0.982327 13:-0.996882 14:0.623134 15:-0.687059 16:0.12334 17:-0.982327 18:-0.166667 19:-0.702984 
1:-0.98419 2:-0.441667 4:-1 6:0.0152091 7:-0.281718 8:0.937888 9:-0.0444471 10:0.110767 11:0.0324149 12:0.212077 13:0.0771629 14:-0.227612 15:0.0117647 16:-0.13852 17:0.212077 18:-0.460534 19:-0.787623 
1:-0.833992 2:0.0166667 4:-1 5:-1 6:-1 7:-1 8:-1 9:-1 10:-1 11:-1 12:-1 13:-1 14:0.66791 15:-0.736471 16:0.157495 17:-1 18:-1 19:0.0221088 
1:0.533597 2:-0.266667 4:-1 5:-1 6:-0.790875 7:-0.991 8:-0.875776 9:-0.993289 10:-0.906016 11:-0.949757 12:-0.846834 13:-0.926734 14:0.335821 15:-0.430588 16:0.00189756 17:-0.846834 18:0.423796 19:-0.756477 
1:-0.747036 2:0.0916667 4:-1 5:-1 6:-0.992395 7:-0.99994 8:-0.995031 9:-0.999957 10:-0.999484 11:-1 12:-0.998527 13:-1 14:0.664179 15:-0.731765 16:0.1537 17:-0.998527 18:-0.777778 19:-0.681103 
1:-0.731225 2:0.0333333 4:-1 5:-1 6:-0.984791 7:-0.999761 8:-0.990062 9:-0.999829 10:-0.996902 11:-1 12:-0.991163 13:-1 14:0.645522 15:-0.708235 16:0.134725 17:-0.991163 18:-0.333333 19:-0.681103 
1:-0.264822 2:0.108333 4:-1 5:-1 6:-0.969582 7:-0.999761 8:-0.97764 9:-0.99976 10:-0.983992 11:-1 12:-0.954345 13:-1 14:0.552239 15:-0.590588 16:0.0398482 17:-0.954345 18:1 19:-0.681103 
1:-0.849802 2:0.05 4:-1 5:-1 6:-0.992395 7:-0.99994 8:-0.987578 9:-0.999973 10:-0.996902 11:-1 12:-0.991163 13:-1 14:0.645522 15:-0.708235 16:0.134725 17:-0.991163 18:0.333333 19:-0.681103 
1:0.683794 2:-0.0833333 4:-1 5:-1 6:-0.980989 7:-0.999873 8:-0.995031 9:-0.999893 10:-0.983992 11:-1 12:-0.955817 13:-0.998441 14:0.552239 15:-0.597647 16:0.0512334 17:-0.955817 18:1 19:-0.693942 
1:0.778656 2:-0.175 4:-1 5:-1 6:-0.977186 7:-0.999821 8:-0.97764 9:-0.999695 10:-0.976762 11:-0.998379 12:-0.94109 13:-0.993765 14:0.511194 15:-0.56 16:0.0322581 17:-0.94109 18:0.955556 19:-0.701782 
1:0.928854 2:-0.483333 4:-1 5:-1 6:-0.437262 7:-0.987347 8:-0.520497 9:-0.988919 10:-0.349342 11:-0.531605 12:-0.0706921 13:-0.469992 14:-0.798507 15:0.752941 16:-0.753321 17:-0.0706921 18:0.0980648 19:-0.73377 
1:-0.0355731 2:0.0416667 4:-1 5:-1 6:-0.961977 7:-0.997789 8:-0.970186 9:-0.998076 10:-0.984508 11:-0.998379 12:-0.960236 13:-0.996882 14:0.567164 15:-0.616471 16:0.0664137 17:-0.960236 18:0.972222 19:-0.68667 
1:0.027668 2:-0.05 4:-1 5:-1 6:-0.958175 7:-0.999246 8:-0.97764 9:-0.999567 10:-0.980893 11:-1 12:-0.948454 13:-0.996882 14:0.529851 15:-0.576471 16:0.0398482 17:-0.948454 18:1 19:-0.693172 
1:0.841897 2:-0.075 4:-1 5:-1 6:-0.882129 7:-0.984188 8:-0.937888 9:-0.989073 10:-0.9685 11:-0.991896 12:-0.930781 13:-0.98597 14:0.496269 15:-0.548235 16:0.028463 17:-0.930781 18:0.920635 19:-0.707564 
1:-0.470356 2:-0.075 4:-1 5:-1 6:-0.809886 7:-0.995907 8:-0.930435 9:-0.99712 10:-0.719081 11:-0.792545 12:-0.587629 13:-0.787997 14:0.0708955 15:-0.04 16:-0.358634 17:-0.587629 18:0.0916591 19:-0.669612 
1:-0.0750988 2:0.0166667 4:-1 5:-1 6:-0.984791 7:-0.99994 8:-0.990062 9:-0.999957 10:-0.989672 11:-1 12:-0.970545 13:-1 14:0.593284 15:-0.642353 16:0.0815939 17:-0.970545 18:1 19:-0.681103 
1:0.770751 2:-0.333333 4:-1 5:-1 6:-0.954373 7:-0.999283 8:-0.970186 9:-0.999551 10:-0.948877 11:-0.983793 12:-0.893962 13:-0.9735 14:0.410448 15:-0.461176 16:-0.0246679 17:-0.893962 18:0.735626 19:-0.722516 
1:0.865613 2:-0.208333 4:-1 5:-1 6:-0.935361 7:-0.999694 8:-0.962733 9:-0.999311 10:-0.966434 11:-0.993517 12:-0.918999 13:-0.990647 14:0.470149 15:-0.501176 16:-0.0208729 17:-0.918999 18:0.880952 19:-0.694097 
1:-0.44664 2:-0.05 4:-1 5:-1 6:-0.954373 7:-0.999049 8:-0.967702 9:-0.999292 10:-0.771237 11:-0.818477 12:-0.686303 13:-0.816056 14:0.268657 15:-0.275294 16:-0.180266 17:-0.664212 18:0.12208 19:-0.580042 
1:-0.802372 2:0.05 4:-1 5:-1 6:-0.996198 7:-0.999963 8:-0.995031 9:-0.999957 10:-0.996385 11:-1 12:-0.989691 13:-1 14:0.641791 15:-0.703529 16:0.13093 17:-0.989691 18:0.555556 19:-0.681103 
1:-0.462451 2:0.0416667 4:-1 5:-1 6:-0.787072 7:-0.994333 8:-0.875776 9:-0.995431 10:-0.728892 11:-0.753647 12:-0.658321 13:-0.780203 14:0.410448 15:-0.334118 16:-0.229601 17:-0.646539 18:-0.149414 19:-0.520384 
1:-0.233202 2:0.0166667 4:-1 5:-1 6:-0.961977 7:-0.999653 8:-0.982609 9:-0.999527 10:-0.986574 11:-1 12:-0.963181 13:-0.998441 14:0.570896 15:-0.621176 16:0.0702087 17:-0.963181 18:1 19:-0.690793 
1:-0.936759 2:-0.308333 4:-1 5:-1 6:-0.958175 7:-0.998887 8:-0.955279 9:-0.999038 10:0.578105 11:0.559157 12:0.690722 13:0.474669 14:0.0335821 15:0.176471 16:-0.669829 17:0.690722 18:-0.646421 19:-0.654548 
1:-0.256917 2:-0.5 4:-1 5:-1 6:-0.927757 7:-0.997812 8:-0.900621 9:-0.994571 10:0.473277 11:0.410049 12:0.622975 13:0.373344 14:-0.238806 15:0.329412 16:-0.639469 17:0.622975 18:-0.575473 19:-0.697476 
1:0.928854 2:-0.316667 4:-0.333333 5:-1 6:-0.802281 7:-0.992142 8:-0.913044 9:-0.99292 10:0.203202 11:0.0307942 12:0.486009 13:0.0678099 14:-0.906716 15:0.903529 16:-0.886148 17:0.486009 18:-0.260725 19:-0.727156 
1:0.581028 2:-0.325 4:-1 5:-1 6:-0.942966 7:-0.999574 8:-0.965217 9:-0.999573 10:0.259489 11:0.0923824 12:0.530191 13:0.131723 14:-0.88806 15:0.858824 16:-0.833017 17:0.530191 18:-0.29756 19:-0.730932 
1:0.98419 2:-0.5 4:-1 5:-1 6:-0.95057 7:-0.999335 8:-0.940373 9:-0.998974 10:0.242964 11:0.0615883 12:0.531664 13:0.109899 14:-0.981343 15:0.941176 16:-0.870968 17:0.531664 18:-0.259805 19:-0.733173 
1:-0.280632 2:-0.225 4:-1 5:-1 6:-0.882129 7:-0.997103 8:-0.918012 9:-0.998011 10:0.401498 11:0.272285 12:0.589102 13:0.325019 14:-0.671642 15:0.494118 16:-0.464896 17:0.589102 18:-0.455195 19:-0.758934 
1:0.494071 2:-0.291667 4:-1 5:-1 6:-0.973384 7:-0.999604 8:-0.957764 9:-0.999396 10:0.266202 11:0.10859 12:0.533137 13:0.133281 14:-0.824627 15:0.842353 16:-0.870968 17:0.533137 18:-0.314124 19:-0.723269 
1:0.731225 2:0.741667 4:-0.333333 5:-1 6:-0.844106 7:-0.997722 8:-0.898137 9:-0.99401 10:-0.910147 11:-0.917342 12:-0.929308 13:-0.883087 14:0.589552 15:-0.807059 16:0.351044 17:-0.889543 18:-0.145292 19:0.688377 
1:-0.0750988 2:0.3 4:-0.333333 5:-1 6:-0.939164 7:-0.998954 8:-0.908075 9:-0.998563 10:-0.79654 11:-0.811994 12:-0.817378 13:-0.759938 14:0.496269 15:-0.788235 16:0.41556 17:-0.773196 18:-0.503102 19:0.796278 
1:-0.715415 2:0.3 4:-1 5:-1 6:-0.939163 7:-0.998865 8:-0.662112 9:-0.993353 10:-0.80377 11:-0.829822 12:-0.777614 13:-0.806703 14:0.425373 15:-0.564706 16:0.127135 17:-0.765832 18:-0.370987 19:-0.990231 
1:-0.225296 2:0.241667 4:-1 5:-1 6:-0.863118 7:-0.998299 8:-0.863354 9:-0.996594 10:-0.609089 11:-0.692058 12:-0.606775 13:-0.532346 14:-0.0298508 15:-0.632941 16:0.70019 17:-0.558174 18:-0.264973 19:0.971335 
1:0.944664 2:0.55 4:-1 5:-1 6:-0.977186 7:-0.99991 8:-0.972671 9:-0.999909 10:-0.916344 11:-0.940032 12:-0.946981 13:-0.861263 14:0.477612 15:-0.863529 16:0.555977 17:-0.868925 18:0.234119 19:0.718794 
1:-0.881423 2:0.958333 4:-0.333333 5:-1 6:-0.836502 7:-0.997812 8:-0.922981 9:-0.997473 10:-0.868836 11:-0.860616 12:-0.865979 13:-0.879969 14:0.682836 15:-0.691765 16:0.0702087 17:-0.863034 18:-0.673297 19:-0.377632 
1:0.193676 2:0.966667 4:-1 5:1 6:-0.889734 7:-0.997543 8:-0.681988 9:-0.993738 10:-0.694294 11:-0.692058 12:-0.667158 13:-0.725643 14:0.585821 15:-0.534118 16:-0.085389 17:-0.667158 18:-0.568424 19:-0.56731 
1:-0.770751 2:1 4:-1 5:-1 6:-0.8327 7:-0.996205 8:-0.642236 9:-0.997684 10:-0.711851 11:-0.687196 12:-0.764359 13:-0.680436 14:0.746269 15:-0.92 16:0.373814 17:-0.698085 18:-0.537167 19:0.454251 
1:-0.73913 2:0.275 4:-1 5:-1 6:-0.939163 7:-0.999186 8:-0.942857 9:-0.999292 10:-0.841983 11:-0.865478 12:-0.863034 13:-0.79735 14:0.455224 15:-0.8 16:0.476281 17:-0.808542 18:-0.264154 19:0.791372 
1:0.841897 2:0.275 4:-1 5:-1 6:-0.965779 7:-0.999574 8:-0.865839 9:-0.988395 10:-0.80945 11:-0.829822 12:-0.801178 13:-0.798909 14:0.466418 15:-0.651765 16:0.225806 17:-0.776141 18:-0.4017 19:0.987456 
1:-0.470356 2:0.341667 4:-1 5:-1 6:-0.927757 7:-0.997857 8:-0.895652 9:-0.997548 10:-0.58017 11:-0.641815 12:-0.600884 13:-0.49961 14:0.108209 15:-0.736471 16:0.726755 17:-0.527246 18:-0.375411 19:0.901059 
1:-0.00395257 2:-0.0916667 4:-0.333333 5:-1 6:-0.885932 7:-0.998297 8:-0.855901 9:-0.994187 10:-0.670023 11:-0.677472 12:-0.596465 13:-0.741231 14:0.511194 15:-0.305882 16:-0.377609 17:-0.596465 18:-0.210274 19:-0.570469 
1:0.747036 2:-0.141667 4:-1 5:-1 6:-0.980989 7:-0.999873 8:-0.980124 9:-0.999893 10:-0.92409 11:-0.910859 12:-0.902798 13:-0.95947 14:0.735075 15:-0.616471 16:-0.104364 17:-0.902798 18:0.206349 19:-0.419257 
1:-0.826087 2:0.133333 4:-1 5:-1 6:-0.977186 7:-0.999731 8:-0.967702 9:-0.999396 10:-0.935967 11:-0.940032 12:-0.901325 13:-0.968823 14:0.619403 15:-0.555294 16:-0.085389 17:-0.89838 18:0.39689 19:-0.502264 
1:-0.41502 2:0.15 4:-1 5:-1 6:-0.965779 7:-0.999754 8:-0.952795 9:-0.999268 10:-0.895172 11:-0.918963 12:-0.842415 13:-0.928293 14:0.470149 15:-0.458824 16:-0.089184 17:-0.842415 18:0.157417 19:-0.655664 
1:-0.976285 2:-0.758333 4:-1 5:-1 6:-0.908745 7:-0.994532 8:-0.950311 9:-0.996944 10:-0.760392 11:-0.771475 12:-0.690722 13:-0.82385 14:0.514925 15:-0.345882 16:-0.316888 17:-0.690722 18:-0.0738802 19:-0.576751 
1:0.565217 2:0.075 4:-1 5:-1 6:-0.969582 7:-0.999492 8:-0.97764 9:-0.999439 10:-0.916344 11:-0.89141 12:-0.908689 13:-0.948558 14:0.813433 15:-0.68 16:-0.0815939 17:-0.899853 18:0.0277778 19:-0.286662 
1:-0.00395257 2:-0.108333 4:0.333333 5:-1 6:-0.882129 7:-0.996915 8:-0.845963 9:-0.9863 10:-0.682933 11:-0.685575 12:-0.615611 13:-0.752143 14:0.548507 15:-0.338824 16:-0.362429 17:-0.615611 18:-0.219203 19:-0.551163 
1:-0.177866 2:-0.175 4:-1 5:-1 6:-0.965779 7:-0.999754 8:-0.913043 9:-0.996575 10:-0.941131 11:-0.936791 12:-0.916053 13:-0.971941 14:0.679104 15:-0.602353 16:-0.0702087 17:-0.916053 18:0.416667 19:-0.49488 
1:-0.747036 2:0.15 4:-1 5:-1 6:-0.961977 7:-0.999492 8:-0.967702 9:-0.999781 10:-0.92409 11:-0.940032 12:-0.885125 13:-0.950117 14:0.533582 15:-0.531765 16:-0.0360531 17:-0.885125 18:0.156678 19:-0.644608 
1:-0.312253 2:-0.133333 4:-1 5:-1 6:-0.885932 7:-0.996325 8:-0.813665 9:-0.993925 10:-0.692745 11:-0.688817 12:-0.628866 13:-0.764614 14:0.597015 15:-0.357647 16:-0.381404 17:-0.628866 18:-0.205275 19:-0.521669 
1:-0.00395257 2:-0.0833333 4:-1 5:-1 6:-0.885932 7:-0.998387 8:-0.910559 9:-0.996474 10:-0.677769 11:-0.683955 12:-0.600884 13:-0.753702 14:0.522388 15:-0.291765 16:-0.411765 17:-0.600884 18:-0.168951 19:-0.562359 
1:0.0750988 2:-0.541667 4:-1 5:-1 6:-0.821293 7:-0.993868 8:-0.868323 9:-0.994395 10:-0.603925 11:-0.63047 12:-0.493373 13:-0.696025 14:0.358209 15:-0.112941 16:-0.533207 17:-0.493373 18:-0.138884 19:-0.597364 
1:-0.083004 2:0.133333 4:-1 5:-1 6:-0.958175 7:-0.999783 8:-0.965217 9:-0.999188 10:-0.9055 11:-0.920583 12:-0.854197 13:-0.94544 14:0.533582 15:-0.468235 16:-0.13852 17:-0.854197 18:0.287356 19:-0.576679 
1:0.106719 2:-0.575 4:-1 5:-1 6:-0.870722 7:-0.995728 8:-0.848447 9:-0.990804 10:-0.618384 11:-0.65316 12:-0.500736 13:-0.710055 14:0.30597 15:-0.0823529 16:-0.529412 17:-0.500736 18:-0.0993894 19:-0.611941 
1:-0.675889 2:-0.566667 4:-0.333333 5:-1 6:-0.897338 7:-0.997782 8:-0.913044 9:-0.996447 10:-0.688097 11:-0.703404 12:-0.606775 13:-0.759938 14:0.462687 15:-0.272941 16:-0.381404 17:-0.606775 18:-0.154697 19:-0.586919 
1:-0.0513834 2:-0.0666667 4:-1 5:-1 6:-0.893536 7:-0.995011 8:-0.960248 9:-0.998418 10:-0.902918 11:-0.884927 12:-0.888071 13:-0.936087 14:0.761194 15:-0.642353 16:-0.089184 17:-0.888071 18:-0.05 19:-0.374315 
1:0.70751 2:0.116667 4:-1 5:-1 6:-0.961977 7:-0.999671 8:-0.967702 9:-0.999909 10:-0.926155 11:-0.907618 12:-0.913108 13:-0.957911 14:0.772388 15:-0.656471 16:-0.0777988 17:-0.907216 18:0.128307 19:-0.336807 
1:-0.304348 2:-0.65 4:-1 5:-1 6:-0.855513 7:-0.996534 8:-0.873292 9:-0.995656 10:-0.622515 11:-0.667747 12:-0.4919 13:-0.717849 14:0.235075 15:-0.0211765 16:-0.555977 17:-0.4919 18:-0.0504548 19:-0.628418 
1:-0.15415 2:-0.166667 4:-1 5:-1 6:-0.961977 7:-0.999671 8:-0.885714 9:-0.999444 10:-0.946811 11:-0.940032 12:-0.926362 13:-0.975058 14:0.697761 15:-0.625882 16:-0.0512334 17:-0.926362 18:0.431217 19:-0.460457 
1:0.0988142 2:-0.125 4:-1 5:-1 6:-0.935361 7:-0.999425 8:-0.960248 9:-0.999893 10:-0.691712 11:-0.688817 12:-0.627393 13:-0.763055 14:0.589552 15:-0.355294 16:-0.377609 17:-0.627393 18:-0.203103 19:-0.538714 
1:-0.747036 2:0.15 4:-1 5:-1 6:-0.961977 7:-0.999492 8:-0.967702 9:-0.999781 10:-0.92409 11:-0.940032 12:-0.885125 13:-0.950117 14:0.533582 15:-0.531765 16:-0.0360531 17:-0.885125 18:0.156678 19:-0.644608 
1:0.0671937 2:-0.45 4:0.333333 5:-1 6:-0.870722 7:-0.996982 8:-0.863354 9:-0.991894 10:-0.63181 11:-0.641815 12:-0.543446 13:-0.71629 14:0.481343 15:-0.225882 16:-0.476281 17:-0.543446 18:-0.173565 19:-0.571806 
1:0.70751 2:0.116667 4:-1 5:-1 6:-0.961977 7:-0.999671 8:-0.967702 9:-0.999909 10:-0.926155 11:-0.907618 12:-0.913108 13:-0.957911 14:0.772388 15:-0.656471 16:-0.0777988 17:-0.907216 18:0.128307 19:-0.336807 
1:-0.905138 2:0.15 4:-1 5:-1 6:-0.939163 7:-0.998417 8:-0.95528 9:-0.998205 10:-0.923057 11:-0.940032 12:-0.883652 13:-0.948558 14:0.526119 15:-0.529412 16:-0.032258 17:-0.883652 18:0.176327 19:-0.652467 
1:-0.826087 2:-0.358333 4:-1 5:-1 6:-0.863118 7:-0.993547 8:-0.868323 9:-0.998499 10:-0.712884 11:-0.726094 12:-0.637702 13:-0.780203 14:0.485075 15:-0.308235 16:-0.347249 17:-0.637702 18:-0.150192 19:-0.57727 
1:0.185771 2:0.133333 4:-1 5:-1 6:-0.969582 7:-0.999134 8:-0.967702 9:-0.999845 10:-0.915828 11:-0.917342 12:-0.877761 13:-0.954793 14:0.630597 15:-0.534118 16:-0.13093 17:-0.873343 18:0.304495 19:-0.48434 
1:-0.857708 2:0.133333 4:-1 5:-1 6:-0.984791 7:-0.999851 8:-0.97764 9:-0.999888 10:-0.942164 11:-0.943274 12:-0.911635 13:-0.9735 14:0.641791 15:-0.576471 16:-0.0740038 17:-0.907216 18:0.426455 19:-0.473351 
1:0.193676 2:-0.4 4:-1 5:-1 6:-0.695817 7:-0.997322 8:-0.957764 9:-0.999018 10:-0.630261 11:-0.659643 12:-0.559647 13:-0.677319 14:0.347015 15:-0.310588 16:-0.203036 17:-0.559647 18:-0.38517 19:-0.670643 
1:-0.162055 2:0.125 4:-1 5:-1 6:-0.870722 7:-0.997968 8:-0.90559 9:-0.998098 10:-0.70204 11:-0.755267 12:-0.606775 13:-0.752143 14:0.205224 15:-0.209412 16:-0.222011 17:-0.606775 18:-0.134428 19:-0.704799 
1:0.114625 2:0.075 4:-1 5:-1 6:-0.711027 7:-0.997391 8:-0.932919 9:-0.998957 10:-0.631294 11:-0.658023 12:-0.571429 13:-0.669525 14:0.365672 15:-0.362353 16:-0.13852 17:-0.571429 18:-0.429801 19:-0.683148 
1:-0.557312 2:-0.741667 4:-1 5:-1 6:-0.840304 7:-0.998247 8:-0.95528 9:-0.998991 10:-0.477924 11:-0.52188 12:-0.366716 13:-0.55417 14:0.197761 15:-0.08 16:-0.42315 17:-0.366716 18:-0.330676 19:-0.659331 
1:0.0355731 2:-0.391667 4:-1 5:-1 6:-0.794677 7:-0.997521 8:-0.960248 9:-0.999343 10:-0.876065 11:-0.893031 12:-0.843888 13:-0.893998 14:0.511194 15:-0.552941 16:0.0208729 17:-0.843888 18:-0.239033 19:-0.695388 
1:0.0118577 2:0.216667 4:-1 5:-1 6:-0.8327 7:-0.992859 8:-0.900621 9:-0.997521 10:-0.677253 11:-0.734198 12:-0.575847 13:-0.73032 14:0.171642 15:-0.174118 16:-0.244782 17:-0.575847 18:-0.139522 19:-0.706276 
1:-0.509881 2:-0.933333 4:-1 5:-1 6:-0.8327 7:-0.997608 8:-0.935404 9:-0.998722 10:-0.369997 11:-0.445705 12:-0.220913 13:-0.455963 14:-0.0559701 15:0.127059 16:-0.499051 17:-0.220913 18:-0.289547 19:-0.694292 
1:-0.841897 2:-0.0666667 4:-1 5:-1 6:-0.939164 7:-0.999223 8:-0.95528 9:-0.999487 10:-0.730958 11:-0.771475 12:-0.650957 13:-0.777085 14:0.302239 15:-0.289412 16:-0.191651 17:-0.650957 18:-0.182173 19:-0.688268 
1:-0.754941 2:0.225 4:-1 5:-1 6:-0.935361 7:-0.99826 8:-0.962733 9:-0.999118 10:-0.888975 11:-0.907618 12:-0.842415 13:-0.920499 14:0.503731 15:-0.487059 16:-0.0777988 17:-0.842415 18:0.0411564 19:-0.643645 
1:-0.897233 2:0.125 4:-0.333333 5:-1 6:-0.939163 7:-0.999044 8:-0.950311 9:-0.998931 10:-0.852311 11:-0.883306 12:-0.792342 13:-0.886204 14:0.406716 15:-0.414118 16:-0.0967742 17:-0.792342 18:-0.0242715 19:-0.685977 
1:0.0671937 2:-0.0166667 4:-0.333333 5:-1 6:-0.86692 7:-0.993778 8:-0.910559 9:-0.995448 10:-0.655564 11:-0.721232 12:-0.537555 13:-0.717849 14:0.104478 15:-0.0894118 16:-0.313093 17:-0.537555 18:-0.100505 19:-0.703482 
1:-0.715415 2:-0.441667 4:-1 5:-1 6:-0.931559 7:-0.999641 8:-0.885714 9:-0.995854 10:-0.389104 11:-0.400324 12:-0.312224 13:-0.460639 14:0.395522 15:-0.223529 16:-0.392789 17:-0.312224 18:-0.482167 19:-0.611157 
1:-0.897233 2:0.125 4:-0.333333 5:-1 6:-0.939163 7:-0.999044 8:-0.950311 9:-0.998931 10:-0.852311 11:-0.883306 12:-0.792342 13:-0.886204 14:0.406716 15:-0.414118 16:-0.0967742 17:-0.792342 18:-0.0242715 19:-0.685977 
1:0.130435 2:0.0666667 4:-1 5:-1 6:-0.623574 7:-0.992045 8:-0.937888 9:-0.99914 10:-0.0983734 11:-0.155592 12:0.0441827 13:-0.195635 14:-0.0149254 15:0.16 16:-0.593928 17:0.0441827 18:-0.44862 19:-0.671391 
1:0.225296 2:-0.683333 4:-1 5:-1 6:-0.927757 7:-0.998842 8:-0.945342 9:-0.999215 10:-0.469662 11:-0.479741 12:-0.415317 13:-0.518316 14:0.429104 15:-0.350588 16:-0.222011 17:-0.415317 18:-0.557626 19:-0.632535 
1:-0.146245 2:-0.00833333 4:-1 5:-1 6:-0.923954 7:-0.998506 8:-0.562733 9:-0.968603 10:-0.818229 11:-0.855754 12:-0.749632 13:-0.855027 14:0.350746 15:-0.364706 16:-0.119545 17:-0.749632 18:0.0962481 19:-0.695532 
1:0.399209 2:-0.883333 4:-1 5:-1 6:-0.95057 7:-0.999339 8:-0.930435 9:-0.998209 10:-0.375161 11:-0.423015 12:-0.270987 13:-0.440374 14:0.13806 15:-0.0894118 16:-0.347249 17:-0.270987 18:-0.430837 19:-0.689301 
1:-0.794466 2:-0.616667 4:-0.333333 5:-1 6:-0.95057 7:-0.999339 8:-0.967702 9:-0.999438 10:-0.0188484 11:-0.124797 12:0.194404 13:-0.144193 14:-0.376866 15:0.517647 16:-0.802657 17:0.194404 18:-0.329227 19:-0.692655 
1:-0.320158 2:0.125 4:-1 5:-1 6:-0.935361 7:-0.998767 8:-0.771429 9:-0.993202 10:-0.398399 11:-0.461912 12:-0.259205 13:-0.485581 14:0.0373134 15:0.0729412 16:-0.506641 17:-0.259205 18:-0.305093 19:-0.676888 
1:-0.0434783 2:-0.0166667 4:-1 5:-1 6:-0.844106 7:-0.99826 8:-0.113044 9:-0.982768 10:-0.288923 11:-0.316045 12:-0.195876 13:-0.362432 14:0.253731 15:-0.122353 16:-0.411765 17:-0.195876 18:-0.503816 19:-0.648483 
1:0.201581 2:-0.441667 4:-1 5:-1 6:-0.357414 7:-0.988565 8:-0.868323 9:-0.994925 10:-0.577588 11:-0.604538 12:-0.503682 13:-0.630553 14:0.347015 15:-0.282353 16:-0.248577 17:-0.503682 18:-0.399584 19:-0.655378 
1:0.328063 2:-0.116667 4:-1 5:-1 6:-0.91635 7:-0.998748 8:-0.950311 9:-0.998133 10:-0.564162 11:-0.599676 12:-0.483063 13:-0.616524 14:0.283582 15:-0.244706 16:-0.244782 17:-0.483063 18:-0.3857 19:-0.679263 
1:-0.517787 2:0.075 4:-1 5:-1 6:-0.8327 7:-0.997968 8:-0.937888 9:-0.999012 10:-0.679318 11:-0.73906 12:-0.572901 13:-0.734996 14:0.152985 15:-0.150588 16:-0.263757 17:-0.572901 18:-0.111294 19:-0.705569 
1:0.359684 2:0.225 4:-0.333333 5:-1 6:-0.870722 7:-0.99259 8:-0.947826 9:-0.999311 10:-0.883295 11:-0.896272 12:-0.843888 13:-0.912705 14:0.541045 15:-0.52 16:-0.0626186 17:-0.843888 18:-0.0540497 19:-0.617395 
1:0.00395257 2:0.25 4:-1 5:-1 6:-0.961977 7:-0.999492 8:-0.965217 9:-0.999765 10:-0.900336 11:-0.918963 12:-0.85567 13:-0.929852 14:0.507463 15:-0.498824 16:-0.0626186 17:-0.85567 18:0.0818354 19:-0.648169 
1:0.106719 2:-0.95 4:-0.333333 5:1 6:-0.745247 7:-0.991027 8:-0.776398 9:-0.996654 10:-0.37826 11:-0.411669 12:-0.284242 13:-0.44661 14:0.238806 15:-0.138824 16:-0.370019 17:-0.284242 18:-0.463628 19:-0.659498 
1:-0.715415 2:-0.441667 4:-1 5:-1 6:-0.931559 7:-0.999641 8:-0.885714 9:-0.995854 10:-0.389104 11:-0.400324 12:-0.312224 13:-0.460639 14:0.395522 15:-0.223529 16:-0.392789 17:-0.312224 18:-0.482167 19:-0.611157 
1:0.802372 2:-0.891667 4:-1 5:-1 6:-0.878327 7:-0.997764 8:-0.945342 9:-0.998489 10:-0.314227 11:-0.382496 12:-0.188513 13:-0.382697 14:-0.022388 15:0.0282353 16:-0.373814 17:-0.188513 18:-0.38276 19:-0.712128 
1:-0.249012 2:-0.0666667 4:-1 5:-1 6:-0.912548 7:-0.999694 8:-0.918012 9:-0.997002 10:-0.698425 11:-0.784441 12:-0.546392 13:-0.777085 14:-0.022388 15:0.0635294 16:-0.43074 17:-0.546392 18:0.119092 19:-0.699692 
1:0.177866 2:0.225 4:-1 5:-1 6:-0.851711 7:-0.996706 8:-0.937888 9:-0.999396 10:-0.882262 11:-0.897893 12:-0.837997 13:-0.914263 14:0.522388 15:-0.496471 16:-0.0815939 17:-0.837997 18:0.0061729 19:-0.630421 
1:0.335968 2:0.233333 4:-0.333333 5:-1 6:-0.844106 7:-0.997135 8:-0.92795 9:-0.998295 10:-0.713917 11:-0.703404 12:-0.703976 13:-0.734996 14:0.649254 15:-0.621176 16:-0.00948765 17:-0.703976 18:-0.69744 19:-0.51399 
1:-0.367589 2:0.225 4:-1 5:-1 6:-0.806084 7:-0.997692 8:-0.935404 9:-0.997457 10:-0.706687 11:-0.755267 12:-0.615611 13:-0.75682 14:0.238806 15:-0.230588 16:-0.222011 17:-0.615611 18:-0.161681 19:-0.697322 
1:0.70751 2:-0.00833333 4:-1 5:-1 6:-0.840304 7:-0.994891 8:-0.935404 9:-0.999316 10:-0.70204 11:-0.769854 12:-0.57732 13:-0.769291 14:0.104478 15:-0.0682353 16:-0.347249 17:-0.57732 18:0.0108827 19:-0.694711 
1:-0.913043 2:0.191667 4:-1 5:-1 6:-0.779468 7:-0.993845 8:-0.895652 9:-0.995383 10:-0.725278 11:-0.78282 12:-0.621502 13:-0.780203 14:0.182836 15:-0.174118 16:-0.256167 17:-0.621502 18:-0.0405694 19:-0.697264 
1:0.517787 2:0.191667 4:-1 5:-1 6:-0.882129 7:-0.994854 8:-0.910559 9:-0.997307 10:-0.607539 11:-0.685575 12:-0.4757 13:-0.672642 14:0.00373133 15:-0.0117647 16:-0.335863 17:-0.4757 18:-0.0929337 19:-0.713563 
1:0.201581 2:-0.125 4:-1 5:-1 6:-0.775665 7:-0.995016 8:-0.950311 9:-0.998796 10:-0.589466 11:-0.635332 12:-0.4919 13:-0.64926 14:0.220149 15:-0.171765 16:-0.297913 17:-0.4919 18:-0.288488 19:-0.67989 
1:-0.588933 2:-0.741667 4:-1 5:-1 6:-0.775665 7:-0.998563 8:-0.972671 9:-0.99923 10:-0.60599 11:-0.643436 12:-0.519882 13:-0.66173 14:0.283582 15:-0.230588 16:-0.267552 17:-0.519882 18:-0.324213 19:-0.669892 
1:0.272727 2:0.233333 4:-1 5:-1 6:-0.851711 7:-0.998063 8:-0.900621 9:-0.9979 10:-0.635941 11:-0.632091 12:-0.608247 13:-0.669525 14:0.578358 15:-0.517647 16:-0.104364 17:-0.608247 18:-0.594309 19:-0.583115 
1:0.217391 2:0.0333333 4:-1 5:-1 6:-0.836502 7:-0.99342 8:-0.962733 9:-0.999824 10:-0.0250452 11:-0.0713128 12:0.111929 13:-0.127046 14:0.0373134 15:0.150588 16:-0.631879 17:0.111929 18:-0.483393 19:-0.657784 
1:0.833992 2:0.233333 4:-1 5:-1 6:-0.828897 7:-0.998947 8:-0.942857 9:-0.997729 10:-0.907565 11:-0.925446 12:-0.865979 13:-0.934528 14:0.514925 15:-0.515294 16:-0.0436432 17:-0.865979 18:0.0833334 19:-0.649222 
1:0.272727 2:0.233333 4:-1 5:-1 6:-0.851711 7:-0.998063 8:-0.900621 9:-0.9979 10:-0.635941 11:-0.632091 12:-0.608247 13:-0.669525 14:0.578358 15:-0.517647 16:-0.104364 17:-0.608247 18:-0.594309 19:-0.583115 
1:0.233202 2:-0.925 4:-1 5:-1 6:-0.908745 7:-0.998467 8:-0.778882 9:-0.993538 10:-0.505293 11:-0.533225 12:-0.43299 13:-0.555729 14:0.317164 15:-0.272941 16:-0.233397 17:-0.43299 18:-0.476084 19:-0.664586 
1:-0.683794 2:0.158333 4:-1 5:-1 6:-0.878327 7:-0.996086 8:-0.903106 9:-0.997836 10:-0.710818 11:-0.763371 12:-0.612666 13:-0.764614 14:0.212687 15:-0.197647 16:-0.248577 17:-0.612666 18:-0.116855 19:-0.694695 
1:-0.0750988 2:-0.0416667 4:-1 5:-1 6:-0.954373 7:-0.999193 8:-0.918012 9:-0.996938 10:-0.7134 11:-0.764992 12:-0.620029 13:-0.763055 14:0.220149 15:-0.221176 16:-0.218216 17:-0.620029 18:-0.125844 19:-0.702729 
1:-0.225296 2:0.15 4:-1 5:-1 6:-0.749049 7:-0.990768 8:-0.90559 9:-0.997713 10:-0.70204 11:-0.756888 12:-0.602356 13:-0.755261 14:0.19403 15:-0.188235 16:-0.244782 17:-0.602356 18:-0.109656 19:-0.697015 
1:0.588933 2:-0.916667 4:-1 5:-1 6:-0.977186 7:-0.999264 8:-0.76646 9:-0.99623 10:-0.431965 11:-0.458671 12:-0.346097 13:-0.498051 14:0.302239 15:-0.190588 16:-0.351044 17:-0.346097 18:-0.450962 19:-0.646322 
1:0.928854 2:-0.441667 4:-0.333333 5:-1 6:-0.870722 7:-0.997968 8:-0.818634 9:-0.99183 10:-0.579138 11:-0.633712 12:-0.46539 13:-0.647701 14:0.156716 15:-0.0917647 16:-0.362429 17:-0.46539 18:-0.215932 19:-0.671803 
1:-0.841897 2:0.133333 4:-0.333333 5:-1 6:-0.86692 7:-0.996736 8:-0.940373 9:-0.998782 10:-0.912729 11:-0.915721 12:-0.888071 13:-0.936087 14:0.619403 15:-0.597647 16:-0.0170778 17:-0.885125 18:-0.0718614 19:-0.509848 
1:0.833992 2:0.191667 4:-1 5:-1 6:-0.745247 7:-0.976569 8:-0.970186 9:-0.999166 10:-0.539892 11:-0.633712 12:-0.382916 13:-0.616524 14:-0.126866 15:0.124706 16:-0.42315 17:-0.382916 18:-0.0824299 19:-0.71745 
1:0.217391 2:0.0583333 4:-1 5:-1 6:-0.863118 7:-0.998656 8:-0.952795 9:-0.999396 10:-0.0312419 11:-0.0680713 12:0.0942563 13:-0.130164 14:0.104478 15:0.0941176 16:-0.609108 17:0.0942563 18:-0.502005 19:-0.649088 
1:0.391304 2:-0.458333 4:-1 5:-1 6:-0.904943 7:-0.997264 8:-0.329193 9:-0.983436 10:-0.584302 11:-0.581848 12:-0.556701 13:-0.616524 14:0.552239 15:-0.505882 16:-0.0967742 17:-0.556701 18:-0.598677 19:-0.61705 
1:0.407115 2:-0.516667 4:-1 5:-1 6:-0.95057 7:-0.99901 8:-0.957764 9:-0.998928 10:-0.432998 11:-0.403566 12:-0.409426 13:-0.487139 14:0.690299 15:-0.489412 16:-0.263757 17:-0.409426 18:-0.64262 19:-0.487829 
1:0.494071 2:0.0416667 4:-1 5:-1 6:-0.844106 7:-0.996915 8:-0.873292 9:-0.999118 10:-0.932352 11:-0.957861 12:-0.886598 13:-0.956352 14:0.470149 15:-0.501176 16:-0.0208729 17:-0.886598 18:0.419503 19:-0.691011 
1:-0.533597 2:-0.0416667 4:-1 5:-1 6:-0.942966 7:-0.998768 8:-0.975155 9:-0.999765 10:-0.719597 11:-0.76013 12:-0.637702 13:-0.767732 14:0.298507 15:-0.277647 16:-0.206831 17:-0.637702 18:-0.188128 19:-0.684362 
1:0.217391 2:-0.0333333 4:-1 5:-1 6:-0.851711 7:-0.996553 8:-0.311801 9:-0.994021 10:-0.490834 11:-0.476499 12:-0.456554 13:-0.541699 14:0.604478 15:-0.451765 16:-0.237192 17:-0.456554 18:-0.590928 19:-0.540881 
1:-0.114625 2:-0.808333 4:-1 5:-1 6:-0.863118 7:-0.99771 8:-0.962733 9:-0.998793 10:0.0162664 11:-0.0518639 12:0.181149 13:-0.0943102 14:-0.126866 15:0.294118 16:-0.696395 17:0.181149 18:-0.441648 19:-0.67565 
1:0.438735 2:0.183333 4:-1 5:-1 6:-0.657795 7:-0.975262 8:-0.865839 9:-0.990062 10:-0.609605 11:-0.688817 12:-0.486009 13:-0.664848 14:-0.00373133 15:-0.0517647 16:-0.263757 17:-0.486009 18:-0.104509 19:-0.730911 
1:0.70751 2:0.141667 4:-1 5:-1 6:-0.859316 7:-0.994854 8:-0.952795 9:-0.999268 10:-0.594629 11:-0.687196 12:-0.44919 13:-0.660171 14:-0.100746 15:0.0564706 16:-0.339658 17:-0.44919 18:-0.0324584 19:-0.72931 
1:0.802372 2:0.133333 4:-1 6:-0.722433 7:-0.971639 8:-0.888199 9:-0.998157 10:-0.619416 11:-0.6953 12:-0.487482 13:-0.686672 14:0.0223881 15:-0.0141177 16:-0.351044 17:-0.487482 18:-0.0851899 19:-0.707988 
1:0.0750988 2:0.133333 4:-0.333333 5:-1 6:-0.893536 7:-0.997431 8:-0.908075 9:-0.995934 10:-0.620449 11:-0.700162 12:-0.487482 13:-0.685113 14:-0.00373133 15:-0.00941179 16:-0.332068 17:-0.487482 18:-0.0636706 19:-0.718097 
1:0.70751 2:0.141667 4:-1 5:-1 6:-0.859316 7:-0.994854 8:-0.952795 9:-0.999268 10:-0.594629 11:-0.687196 12:-0.44919 13:-0.660171 14:-0.100746 15:0.0564706 16:-0.339658 17:-0.44919 18:-0.0324584 19:-0.72931 
1:0.106719 2:-0.95 4:-0.333333 5:1 6:-0.745247 7:-0.991027 8:-0.776398 9:-0.996654 10:-0.37826 11:-0.411669 12:-0.284242 13:-0.44661 14:0.238806 15:-0.138824 16:-0.370019 17:-0.284242 18:-0.463628 19:-0.659498 
1:-0.106719 2:0.116667 4:-0.333333 5:-1 6:-0.851711 7:-0.997353 8:-0.95528 9:-0.998991 10:-0.147947 11:-0.235008 12:0.0176731 13:-0.240842 14:-0.205224 15:0.258824 16:-0.559772 17:0.0176731 18:-0.36572 19:-0.705196 
1:-0.952569 2:0.191667 4:-1 6:-0.790875 7:-0.992272 8:-0.828571 9:-0.996858 10:-0.293054 11:-0.350081 12:-0.151694 13:-0.388932 14:0.0485075 15:0.108235 16:-0.574953 17:-0.151694 18:-0.35731 19:-0.660515 
1:-0.944664 2:0.258333 4:-0.333333 5:-1 6:-0.889734 7:-0.99584 8:-0.985093 9:-0.999808 10:-0.883295 11:-0.902755 12:-0.840943 13:-0.909587 14:0.496269 15:-0.505882 16:-0.0398482 17:-0.840943 18:-0.0303894 19:-0.6645 
1:-0.596838 2:-0.35 4:-1 5:-1 6:-0.642586 7:-0.994511 8:-0.967702 9:-0.999292 10:-0.596695 11:-0.632091 12:-0.511046 13:-0.653936 14:0.294776 15:-0.230588 16:-0.278937 17:-0.511046 18:-0.337745 19:-0.66568 
1:0.177866 2:0.225 4:-1 5:-1 6:-0.851711 7:-0.996706 8:-0.937888 9:-0.999396 10:-0.882262 11:-0.897893 12:-0.837997 13:-0.914263 14:0.522388 15:-0.496471 16:-0.0815939 17:-0.837997 18:0.0061729 19:-0.630421 
1:-0.027668 2:0.258333 4:-0.333333 5:-1 6:-0.904943 7:-0.997722 8:-0.910559 9:-0.998718 10:-0.860057 11:-0.883306 12:-0.807069 13:-0.893998 14:0.462687 15:-0.449412 16:-0.0967742 17:-0.807069 18:-0.0401374 19:-0.659251 
1:0.944664 2:-0.133333 4:-1 5:-1 6:-0.756654 7:-0.996351 8:-0.937888 9:-0.998115 10:-0.597728 11:-0.636953 12:-0.512518 13:-0.650818 14:0.268657 15:-0.232941 16:-0.248577 17:-0.512518 18:-0.336674 19:-0.681102 
1:-0.0750988 2:-0.0416667 4:-1 5:-1 6:-0.954373 7:-0.999193 8:-0.918012 9:-0.996938 10:-0.7134 11:-0.764992 12:-0.620029 13:-0.763055 14:0.220149 15:-0.221176 16:-0.218216 17:-0.620029 18:-0.125844 19:-0.702729 
1:-0.596838 2:-0.816667 4:-1 5:-1 6:-0.0494296 7:-0.973734 8:-0.987578 9:-0.999638 10:-0.500645 11:-0.54295 12:-0.396171 13:-0.571317 14:0.216418 15:-0.117647 16:-0.381404 17:-0.396171 18:-0.32546 19:-0.659626 
1:-0.660079 2:-0.05 4:-1 5:-1 6:-0.965779 7:-0.999574 8:-0.980124 9:-0.999765 10:-0.745933 11:-0.78282 12:-0.671576 13:-0.789556 14:0.33209 15:-0.32 16:-0.172676 17:-0.671576 18:-0.202621 19:-0.684356 
1:-0.541502 2:0.0666667 4:-1 5:-1 6:-0.528517 7:-0.985958 8:-0.925466 9:-0.998846 10:-0.771753 11:-0.818477 12:-0.686303 13:-0.817615 14:0.272388 15:-0.272941 16:-0.187856 17:-0.686303 18:-0.0345499 19:-0.689103 
1:0.280632 2:0.166667 4:-1 5:-1 6:-0.737643 7:-0.977704 8:-0.930435 9:-0.996751 10:-0.575006 11:-0.662885 12:-0.43299 13:-0.641465 14:-0.0746268 15:0.0447059 16:-0.347249 17:-0.43299 18:-0.0851047 19:-0.72315 
1:0.130435 2:-0.8 4:-1 5:-1 6:-0.840304 7:-0.9959 8:-0.908075 9:-0.997503 10:-0.475858 11:-0.528363 12:-0.371134 13:-0.537023 14:0.13806 15:-0.110588 16:-0.313093 17:-0.371134 18:-0.360573 19:-0.695999 
1:-0.652174 2:0.15 4:-1 5:-1 6:-0.828897 7:-0.9933 8:-0.970186 9:-0.999615 10:-0.765556 11:-0.80389 12:-0.684831 13:-0.814497 14:0.328358 15:-0.294118 16:-0.210626 17:-0.684831 18:-0.0933176 19:-0.672661 
1:0.952569 2:0.183333 4:-1 5:-1 6:-0.980989 7:-0.999873 8:-0.995031 9:-0.999957 10:-0.994836 11:-1 12:-0.985272 13:-1 14:0.630597 15:-0.689412 16:0.119545 17:-0.985272 18:0.777778 19:-0.681103 
1:0.628458 2:-0.133333 4:-1 5:-1 6:-0.927757 7:-0.999335 8:-0.992547 9:-0.999952 10:-0.982959 11:-0.993517 12:-0.961708 13:-0.995323 14:0.589552 15:-0.630588 16:0.0664137 17:-0.961708 18:0.866667 19:-0.671413 
1:-0.264822 2:0.075 4:-1 5:-1 6:-0.988593 7:-0.999933 8:-0.985093 9:-0.999936 10:-0.957656 11:-0.974068 12:-0.918999 13:-0.982853 14:0.541045 15:-0.541176 16:-0.028463 17:-0.918999 18:0.595767 19:-0.644631 
1:-0.581028 2:0.0916667 4:-1 5:-1 6:-0.95057 7:-0.998331 8:-0.910559 9:-0.996959 10:-0.974697 11:-0.987034 12:-0.951399 13:-0.987529 14:0.574627 15:-0.618824 16:0.0626186 17:-0.951399 18:0.538889 19:-0.681103 
1:-0.667984 2:0.175 4:-1 5:-1 6:-0.86692 7:-0.996557 8:-0.945342 9:-0.998803 10:-0.978828 11:-0.985413 12:-0.961708 13:-0.990647 14:0.615672 15:-0.649412 16:0.0702087 17:-0.961708 18:0.297354 19:-0.626993 
1:0.715415 2:-0.133333 4:-1 5:-1 6:-0.935361 7:-0.998923 8:-0.982609 9:-0.999438 10:-0.679835 11:-0.71637 12:-0.60972 13:-0.719408 14:0.313433 15:-0.324706 16:-0.14611 17:-0.60972 18:-0.321702 19:-0.699326 
1:0.256917 2:-0.75 4:-1 5:-1 6:-0.942966 7:-0.998367 8:-0.990062 9:-0.999752 10:-0.990188 11:-0.991896 12:-0.9838 13:-0.995323 14:0.652985 15:-0.703529 16:0.119545 17:-0.9838 18:0.074074 19:-0.597407 
1:0.470356 2:0.025 4:-0.333333 5:-1 6:-0.794677 7:-0.995877 8:-0.950311 9:-0.999444 10:-0.627679 11:-0.703404 12:-0.503682 13:-0.686672 14:0.0261194 15:-0.0541177 16:-0.290323 17:-0.503682 18:-0.0844969 19:-0.722087 
1:-0.541502 2:-0.125 4:-1 5:-1 6:-0.794677 7:-0.994328 8:-0.965217 9:-0.999343 10:-0.693777 11:-0.73906 12:-0.608247 13:-0.741231 14:0.257463 15:-0.254118 16:-0.203036 17:-0.608247 18:-0.208674 19:-0.698019 
1:0.541502 2:-0.3 4:-1 5:-1 6:-0.882129 7:-0.997734 8:-0.940373 9:-0.998175 10:-0.893623 11:-0.901135 12:-0.857143 13:-0.925175 14:0.58209 15:-0.536471 16:-0.0777988 17:-0.857143 18:0.0251317 19:-0.56522 
1:0.264822 2:0.191667 4:-1 5:-1 6:-1 7:-1 8:-1 9:-1 10:-1 11:-1 12:-1 13:-1 14:0.66791 15:-0.736471 16:0.157495 17:-1 18:-1 19:0.0221088 
1:0.304348 2:0.191667 4:-1 5:-1 6:-0.992395 7:-0.99994 8:-0.980124 9:-0.999893 10:-0.990188 11:-0.996759 12:-0.974963 13:-1 14:0.619403 15:-0.661176 16:0.085389 17:-0.974963 18:1 19:-0.655288 
1:0.913043 2:-0.308333 4:-1 5:-1 6:-0.954373 7:-0.999373 8:-0.990062 9:-0.999957 10:-0.983475 11:-0.996759 12:-0.95729 13:-0.998441 14:0.570896 15:-0.607059 16:0.0474383 17:-0.95729 18:0.955556 19:-0.673329 
1:-0.0671937 2:0.183333 4:-1 5:-1 6:-0.653992 7:-0.988829 8:-0.997516 9:-0.999804 10:-0.953008 11:-0.95624 12:-0.948454 13:-0.954793 14:0.630597 15:-0.703529 16:0.142315 17:-0.948454 18:-0.829966 19:-0.723852 
1:0.913043 2:-0.308333 4:-1 5:-1 6:-0.954373 7:-0.999373 8:-0.990062 9:-0.999957 10:-0.983475 11:-0.996759 12:-0.95729 13:-0.998441 14:0.570896 15:-0.607059 16:0.0474383 17:-0.95729 18:0.955556 19:-0.673329 
1:-0.667984 2:0.05 4:-1 5:-1 6:-0.988593 7:-0.999843 8:-0.937888 9:-0.997473 10:-0.976762 11:-0.990276 12:-0.949926 13:-0.992206 14:0.567164 15:-0.602353 16:0.0436433 17:-0.949926 18:0.835979 19:-0.673329 
1:-0.549407 2:-0.166667 4:-1 5:-1 6:-0.779468 7:-0.993039 8:-0.908075 9:-0.998627 10:-0.730442 11:-0.773096 12:-0.65243 13:-0.772408 14:0.287313 15:-0.298824 16:-0.16129 17:-0.65243 18:-0.181548 19:-0.701021 
1:-0.249012 2:-0.308333 4:-1 5:-1 6:-0.95057 7:-0.999425 8:-0.980124 9:-0.99938 10:-0.718048 11:-0.766613 12:-0.618557 13:-0.777085 14:0.242537 15:-0.192941 16:-0.286527 17:-0.618557 18:-0.0969085 19:-0.677912 
1:0.0909091 2:-0.15 4:-1 5:-1 6:-0.935361 7:-0.998032 8:-0.970186 9:-0.999392 10:-0.591015 11:-0.636953 12:-0.509573 13:-0.633671 14:0.220149 15:-0.249412 16:-0.172676 17:-0.509573 18:-0.345231 19:-0.716502 
1:-0.264822 2:0.0416667 4:-1 5:-1 6:-0.984791 7:-0.99994 8:-0.990062 9:-0.999957 10:-0.964369 11:-0.985413 12:-0.923417 13:-0.987529 14:0.511194 15:-0.531765 16:-0.0132827 17:-0.923417 18:0.69418 19:-0.673329 
1:0.13834 2:0.2 4:-1 6:-0.661597 7:-0.928168 8:-0.55528 9:-0.824867 10:-0.842499 11:-0.886548 12:-0.767305 13:-0.879969 14:0.313433 15:-0.338824 16:-0.12334 17:-0.767305 18:0.494589 19:-0.696594 
1:-0.486166 2:0.2 4:-1 5:-1 6:-0.745247 7:-0.956043 8:-0.654658 9:-0.896743 10:-0.884844 11:-0.9141 12:-0.832106 13:-0.912705 14:0.429104 15:-0.456471 16:-0.0512334 17:-0.832106 18:-0.398753 19:-0.698974 
1:0.747036 2:-0.316667 4:-1 5:-1 6:-0.882129 7:-0.999873 8:-0.992547 9:-0.999952 10:-0.965918 11:-0.985413 12:-0.927835 13:-0.987529 14:0.522388 15:-0.545882 16:-0.00189751 17:-0.927835 18:0.75679 19:-0.674615 
1:-0.581028 2:0.0166667 4:-1 5:-1 6:-0.893536 7:-0.997968 8:-0.97764 9:-0.999503 10:-0.925123 11:-0.946515 12:-0.880707 13:-0.951676 14:0.496269 15:-0.505882 16:-0.0398482 17:-0.880707 18:0.260943 19:-0.665525 
1:0.920949 2:-0.191667 4:-1 5:-1 6:-0.555133 7:-0.98971 8:-0.922981 9:-0.998806 10:-0.669507 11:-0.708266 12:-0.596465 13:-0.710055 14:0.294776 15:-0.308235 16:-0.1537 17:-0.596465 18:-0.269337 19:-0.701247 
1:-0.833992 2:-0.141667 4:-0.333333 5:-1 6:-0.935361 7:-0.997655 8:-0.947826 9:-0.999411 10:-0.575006 11:-0.643436 12:-0.459499 13:-0.632112 14:0.0597015 15:-0.0823529 16:-0.278937 17:-0.459499 18:-0.198928 19:-0.718964 
1:-0.849802 2:0.025 4:-1 5:-1 6:-0.954373 7:-0.999821 8:-0.972671 9:-0.999653 10:-0.958688 11:-0.983793 12:-0.91458 13:-0.981294 14:0.481343 15:-0.515294 16:-0.00948765 17:-0.91458 18:0.658466 19:-0.694097 
1:0.636364 2:-0.341667 4:-1 5:-1 6:-0.802281 7:-0.994831 8:-0.967702 9:-0.999909 10:-0.928221 11:-0.959481 12:-0.867452 13:-0.962588 14:0.429104 15:-0.428235 16:-0.0967742 17:-0.867452 18:0.594424 19:-0.674063 
1:-0.928854 2:0.05 4:-1 5:-1 6:-0.961977 7:-0.999851 8:-0.987578 9:-0.999973 10:-0.98709 11:-0.998379 12:-0.964654 13:-1 14:0.585821 15:-0.625882 16:0.0626186 17:-0.964654 18:1 19:-0.668264 
1:-0.731225 2:-0.158333 4:-0.333333 5:-1 6:-0.939163 7:-0.999402 8:-0.975155 9:-0.999765 10:-0.774335 11:-0.823339 12:-0.683358 13:-0.82385 14:0.257463 15:-0.247059 16:-0.214421 17:-0.683358 18:-0.014948 19:-0.69417 
1:-0.557312 2:-0.35 4:-1 5:-1 6:-0.882129 7:-0.997365 8:-0.724224 9:-0.993215 10:-0.762974 11:-0.810373 12:-0.674521 13:-0.81138 14:0.264925 15:-0.256471 16:-0.206831 17:-0.674521 18:-0.045023 19:-0.692972 
1:-0.328063 2:0.2 4:-1 5:-1 6:-0.707224 7:-0.97872 8:-0.759006 9:-0.913093 10:-0.878131 11:-0.902755 12:-0.829161 13:-0.906469 14:0.458955 15:-0.472941 16:-0.0550284 17:-0.829161 18:-0.215229 19:-0.676033 
1:0.367589 2:-0.133333 4:-1 5:-1 6:-0.8327 7:-0.993128 8:-0.836025 9:-0.982303 10:-0.588949 11:-0.662885 12:-0.468336 13:-0.646142 14:0.0261194 15:-0.0611765 16:-0.278937 17:-0.468336 18:-0.157013 19:-0.722824 
1:-0.581028 2:0.025 4:-1 5:-1 6:-0.984791 7:-0.99994 8:-0.997516 9:-0.999973 10:-0.99277 11:-1 12:-0.979381 13:-1 14:0.615672 15:-0.670588 16:0.104364 17:-0.979381 18:1 19:-0.681103 
1:-0.70751 2:0.025 4:-1 5:-1 6:-0.988593 7:-0.999632 8:-0.985093 9:-0.999696 10:-0.985541 11:-1 12:-0.958763 13:-1 14:0.563433 15:-0.604706 16:0.0512334 17:-0.958763 18:1 19:-0.681103 
1:-0.351779 2:-0.116667 4:-1 5:-1 6:-0.874525 7:-0.99722 8:-0.967702 9:-0.999292 10:-0.761425 11:-0.787682 12:-0.69514 13:-0.806703 14:0.410448 15:-0.362353 16:-0.184061 17:-0.69514 18:-0.195594 19:-0.651134 
1:0.280632 4:-1 5:-1 6:-0.988593 7:-0.999632 8:-0.987578 9:-0.999638 10:-0.978311 11:-0.987034 12:-0.951399 13:-0.998441 14:0.600746 15:-0.602353 16:0.00948768 17:-0.951399 18:0.944444 19:-0.606112 
1:-0.249012 2:-0.308333 4:-1 5:-1 6:-0.95057 7:-0.999425 8:-0.980124 9:-0.99938 10:-0.718048 11:-0.766613 12:-0.618557 13:-0.777085 14:0.242537 15:-0.192941 16:-0.286527 17:-0.618557 18:-0.0969085 19:-0.677912 
1:-0.73913 4:-1 5:-1 6:-0.977186 7:-0.999641 8:-0.967702 9:-0.999204 10:-0.988639 11:-0.995138 12:-0.974963 13:-0.996882 14:0.619403 15:-0.668235 16:0.0967742 17:-0.974963 18:0.851852 19:-0.668264 
1:0.636364 2:0.191667 4:-1 6:-0.201521 7:-0.746164 8:-0.957764 9:-0.999012 10:-0.878647 11:-0.9141 12:-0.815906 13:-0.911146 14:0.384328 15:-0.407059 16:-0.085389 17:-0.815906 18:0.543033 19:-0.671876 
1:-0.383399 2:0.191667 4:-1 5:-1 6:-0.923954 7:-0.996803 8:-0.992547 9:-0.999888 10:-0.989672 11:-0.993517 12:-0.979381 13:-0.996882 14:0.63806 15:-0.684706 16:0.104364 17:-0.979381 18:-0.422222 19:-0.622427 
1:0.754941 2:0.0833333 4:-0.333333 5:-1 6:-0.855513 7:-0.996355 8:-0.965217 9:-0.999765 10:-0.862639 11:-0.91248 12:-0.78056 13:-0.901793 14:0.279851 15:-0.310588 16:-0.134725 17:-0.78056 18:0.280447 19:-0.713761 
1:0.565217 2:-0.125 4:-1 5:-1 6:-0.961977 7:-0.999402 8:-0.980124 9:-0.999957 10:-0.972631 11:-0.990276 12:-0.935199 13:-0.995323 14:0.537313 15:-0.550588 16:-0.00948765 17:-0.935199 18:0.881482 19:-0.655763 
1:0.920949 2:-0.216667 4:-1 5:-1 6:-0.593156 7:-0.990071 8:-0.932919 9:-0.998832 10:-0.68345 11:-0.721232 12:-0.608247 13:-0.727202 14:0.30597 15:-0.301176 16:-0.176471 17:-0.608247 18:-0.271001 19:-0.691563 
1:0.565217 2:0.108333 4:-1 5:-1 6:-0.977186 7:-0.998959 8:-0.985093 9:-0.999473 10:-0.993803 11:-0.998379 12:-0.985272 13:-0.998441 14:0.634328 15:-0.694118 16:0.12334 17:-0.985272 18:0.481481 19:-0.681103 
1:-0.0355731 2:0.175 4:-1 5:-1 6:-1 7:-1 8:-1 9:-1 10:-1 11:-1 12:-1 13:-1 14:0.66791 15:-0.736471 16:0.157495 17:-1 18:-1 19:0.0221088 
1:-0.264822 2:0.0333333 4:-1 5:-1 6:-0.844106 7:-0.997453 8:-0.975155 9:-0.999444 10:-0.969533 11:-0.988655 12:-0.935199 13:-0.987529 14:0.526119 15:-0.564706 16:0.024668 17:-0.935199 18:0.776014 19:-0.68667 
1:0.264822 2:0.0583333 4:-1 5:-1 6:-0.984791 7:-0.999653 8:-0.990062 9:-0.999607 10:-0.982959 11:-0.993517 12:-0.95729 13:-1 14:0.589552 15:-0.609412 16:0.0322581 17:-0.95729 18:1 19:-0.632341 
1:0.335968 2:-0.15 4:-1 5:-1 6:-0.806084 7:-0.998742 8:-0.945342 9:-0.999007 10:-0.604957 11:-0.645057 12:-0.537555 13:-0.638348 14:0.264925 15:-0.32 16:-0.104364 17:-0.537555 18:-0.395859 19:-0.728732 
1:-0.581028 2:0.0166667 4:-1 5:-1 6:-0.893536 7:-0.997968 8:-0.97764 9:-0.999503 10:-0.925123 11:-0.946515 12:-0.880707 13:-0.951676 14:0.496269 15:-0.505882 16:-0.0398482 17:-0.880707 18:0.260943 19:-0.665525 
1:0.249012 2:-0.125 4:-0.333333 5:-1 6:-0.969582 7:-0.999306 8:-0.908075 9:-0.998407 10:-0.584302 11:-0.625608 12:-0.5081 13:-0.625877 14:0.25 15:-0.272941 16:-0.165085 17:-0.5081 18:-0.379428 19:-0.709009 
1:-0.343874 2:0.025 4:-1 5:-1 6:-0.969582 7:-0.999761 8:-0.967702 9:-0.999781 10:-0.970565 11:-0.985413 12:-0.938144 13:-0.990647 14:0.55597 15:-0.574118 16:0.00948768 17:-0.938144 18:0.748148 19:-0.653822 
1:-0.652174 2:-0.166667 4:-1 5:-1 6:-0.965779 7:-0.999295 8:-0.95528 9:-0.998862 10:-0.775368 11:-0.821718 12:-0.684831 13:-0.826968 14:0.276119 15:-0.249412 16:-0.229601 17:-0.684831 18:-0.0202068 19:-0.68321 
1:0.114625 2:-0.166667 4:-1 5:-1 6:-0.923954 7:-0.999082 8:-0.975155 9:-0.999503 10:-0.599277 11:-0.641815 12:-0.5243 13:-0.638348 14:0.246269 15:-0.282353 16:-0.14611 17:-0.5243 18:-0.369033 19:-0.717456 
1:-0.675889 2:0.0166667 4:-1 5:-1 6:-0.920152 7:-0.996156 8:-0.878261 9:-0.995444 10:-0.962303 11:-0.982172 12:-0.933726 13:-0.9735 14:0.518657 15:-0.590588 16:0.0740038 17:-0.933726 18:0.721212 19:-0.719387 
1:0.905138 2:-0.35 4:-1 5:-1 6:-0.965779 7:-0.999036 8:-0.957764 9:-0.999204 10:-0.974697 11:-0.988655 12:-0.945508 13:-0.992206 14:0.563433 15:-0.590588 16:0.028463 17:-0.945508 18:0.792593 19:-0.663598 
1:0.328063 2:0.0416667 4:-1 5:-1 6:-0.980989 7:-0.999873 8:-0.962733 9:-0.999695 10:-0.971082 11:-0.990276 12:-0.935199 13:-0.990647 14:0.526119 15:-0.557647 16:0.0132827 17:-0.935199 18:0.755026 19:-0.681103 
1:0.596838 2:0.0166667 4:-1 5:-1 6:-0.992395 7:-0.99994 8:-0.995031 9:-0.999957 10:-0.991738 11:-1 12:-0.976436 13:-1 14:0.608209 15:-0.661176 16:0.0967742 17:-0.976436 18:1 19:-0.681103 
1:0.620553 2:0.0166667 4:-1 5:-1 6:-0.996198 7:-0.999726 8:-0.997516 9:-0.999804 10:-0.994836 11:-1 12:-0.985272 13:-1 14:0.630597 15:-0.689412 16:0.119545 17:-0.985272 18:1 19:-0.681103 
1:0.256917 2:-0.75 4:-1 5:-1 6:-0.942966 7:-0.998367 8:-0.990062 9:-0.999752 10:-0.990188 11:-0.991896 12:-0.9838 13:-0.995323 14:0.652985 15:-0.703529 16:0.119545 17:-0.9838 18:0.074074 19:-0.597407 
1:-0.873518 2:-0.308333 4:-1 5:-1 6:-0.882129 7:-0.993599 8:-0.952795 9:-0.998627 10:-0.72063 11:-0.769854 12:-0.620029 13:-0.780203 14:0.238806 15:-0.188235 16:-0.290323 17:-0.620029 18:-0.0844563 19:-0.677698 
1:-0.557312 2:-0.35 4:-1 5:-1 6:-0.882129 7:-0.997365 8:-0.724224 9:-0.993215 10:-0.762974 11:-0.810373 12:-0.674521 13:-0.81138 14:0.264925 15:-0.256471 16:-0.206831 17:-0.674521 18:-0.045023 19:-0.692972 
1:-0.533597 2:-0.125 4:-1 5:-1 6:-0.95057 7:-0.999214 8:-0.965217 9:-0.999503 10:-0.673638 11:-0.71799 12:-0.583211 13:-0.727202 14:0.257463 15:-0.225882 16:-0.248577 17:-0.583211 18:-0.215701 19:-0.684656 
1:0.304348 2:0.0333333 4:-1 5:-1 6:-0.969582 7:-0.999451 8:-0.990062 9:-0.999418 10:-0.980377 11:-0.988655 12:-0.955817 13:-0.998441 14:0.604478 15:-0.614118 16:0.024668 17:-0.955817 18:0.944444 19:-0.609361 
1:0.581028 2:0.0166667 4:-1 5:-1 6:-0.958175 7:-0.999514 8:-0.990062 9:-0.999893 10:-0.989672 11:-0.995138 12:-0.976436 13:-0.998441 14:0.626866 15:-0.670588 16:0.0929791 17:-0.976436 18:0.925926 19:-0.649094 
1:-0.0355731 2:0.175 4:-1 5:-1 6:-1 7:-1 8:-1 9:-1 10:-1 11:-1 12:-1 13:-1 14:0.66791 15:-0.736471 16:0.157495 17:-1 18:-1 19:0.0221088 
1:0.0118577 2:0.0416667 4:-1 5:-1 6:-0.863118 7:-0.996863 8:-0.962733 9:-0.999824 10:-0.913762 11:-0.946515 12:-0.858616 13:-0.940764 14:0.414179 15:-0.451765 16:-0.0436432 17:-0.858616 18:0.315488 19:-0.708266 
1:0.399209 2:0.025 4:-1 5:-1 6:-0.992395 7:-0.999653 8:-0.990062 9:-0.999607 10:-0.97418 11:-0.985413 12:-0.948454 13:-0.990647 14:0.58209 15:-0.607059 16:0.0360531 17:-0.948454 18:0.666667 19:-0.648669 
1:-0.399209 2:0.0333333 4:-1 5:-1 6:-0.984791 7:-0.99994 8:-0.990062 9:-0.999957 10:-0.989156 11:-1 12:-0.969072 13:-1 14:0.589552 15:-0.637647 16:0.0777989 17:-0.969072 18:1 19:-0.681103 
1:-0.644269 4:-1 5:-1 6:-0.980989 7:-0.999873 8:-0.920497 9:-0.997328 10:-0.980377 11:-0.988655 12:-0.963181 13:-0.990647 14:0.604478 15:-0.649412 16:0.0815939 17:-0.963181 18:0.540741 19:-0.666648 
1:0.462451 2:-0.991667 4:-1 5:-1 6:-0.969582 7:-0.999451 8:-0.895652 9:-0.997163 10:-0.912729 11:-0.943274 12:-0.849779 13:-0.950117 14:0.429104 15:-0.414118 16:-0.119545 17:-0.849779 18:0.374603 19:-0.668876 
1:0.256917 2:-0.175 4:-1 5:-1 6:-0.942966 7:-0.998606 8:-0.980124 9:-0.999607 10:-0.558998 11:-0.602917 12:-0.478645 13:-0.602494 14:0.223881 15:-0.247059 16:-0.180266 17:-0.478645 18:-0.385112 19:-0.712277 
1:-0.549407 2:-0.15 4:-1 5:-1 6:-0.764259 7:-0.997533 8:-0.967702 9:-0.999438 10:-0.709269 11:-0.753647 12:-0.622975 13:-0.758379 14:0.268657 15:-0.254118 16:-0.214421 17:-0.622975 18:-0.170386 19:-0.691611 
1:0.596838 2:0.0166667 4:-1 5:-1 6:-0.996198 7:-0.999726 8:-0.997516 9:-0.999804 10:-0.995869 11:-1 12:-0.988218 13:-1 14:0.63806 15:-0.698824 16:0.127135 17:-0.988218 18:0.777778 19:-0.681103 
1:0.249012 2:-0.216667 4:-1 5:-1 6:-0.961977 7:-0.998988 8:-0.821118 9:-0.997366 10:-0.627162 11:-0.670989 12:-0.549337 13:-0.667966 14:0.246269 15:-0.275294 16:-0.157495 17:-0.549337 18:-0.325013 19:-0.714011 
1:0.0909091 2:-0.183333 4:-1 5:-1 6:-0.939164 7:-0.998317 8:-0.987578 9:-0.999438 10:-0.589982 11:-0.638574 12:-0.5081 13:-0.630553 14:0.201493 15:-0.247059 16:-0.157495 17:-0.5081 18:-0.336092 19:-0.725344 
1:-0.667984 2:0.175 4:-1 5:-1 6:-0.86692 7:-0.996557 8:-0.945342 9:-0.998803 10:-0.978828 11:-0.985413 12:-0.961708 13:-0.990647 14:0.615672 15:-0.649412 16:0.0702087 17:-0.961708 18:0.297354 19:-0.626993 
1:0.114625 2:-0.158333 4:-1 5:-1 6:-0.927757 7:-0.99901 8:-0.975155 9:-0.999503 10:-0.597728 11:-0.641815 12:-0.519882 13:-0.638348 14:0.235075 15:-0.268235 16:-0.157495 17:-0.519882 18:-0.356501 19:-0.716613 
1:0.0513834 2:-0.316667 4:-1 5:-1 6:-0.973384 7:-0.999494 8:-0.960248 9:-0.999215 10:-0.708237 11:-0.756888 12:-0.608247 13:-0.767732 14:0.238806 15:-0.188235 16:-0.290323 17:-0.608247 18:-0.11324 19:-0.678312 
1:0.296443 2:-0.1 4:-1 5:-1 6:-0.927757 7:-0.996826 8:-0.935404 9:-0.998803 10:-0.588949 11:-0.661264 12:-0.46539 13:-0.650818 14:0.0373134 15:-0.0470588 16:-0.313093 17:-0.46539 18:-0.148573 19:-0.712458 
1:0.264822 2:0.0333333 4:-1 5:-1 6:-0.996198 7:-0.999726 8:-0.995031 9:-0.999752 10:-0.982443 11:-0.988655 12:-0.960236 13:-1 14:0.619403 15:-0.625882 16:0.028463 17:-0.960236 18:1 19:-0.589716 
1:0.549407 2:0.108333 4:-1 5:-1 6:-0.935361 7:-0.998563 8:-0.982609 9:-0.999292 10:-0.990188 11:-0.995138 12:-0.977909 13:-0.998441 14:0.630597 15:-0.675294 16:0.0967742 17:-0.977909 18:0.722222 19:-0.645023 
1:-0.541502 2:0.0333333 4:-1 5:-1 6:-0.988593 7:-0.999632 8:-0.997516 9:-0.999804 10:-0.993287 11:-1 12:-0.980854 13:-1 14:0.619403 15:-0.675294 16:0.108159 17:-0.980854 18:1 19:-0.681103 
1:0.865613 2:-0.4 4:-1 5:-1 6:-0.95057 7:-0.999156 8:-0.73913 9:-0.969816 10:-0.862122 11:-0.91248 12:-0.774669 13:-0.906469 14:0.276119 15:-0.284706 16:-0.172676 17:-0.774669 18:0.353162 19:-0.699859 
1:-0.849802 2:0.025 4:-1 5:-1 6:-0.954373 7:-0.999821 8:-0.972671 9:-0.999653 10:-0.958688 11:-0.983793 12:-0.91458 13:-0.981294 14:0.481343 15:-0.515294 16:-0.00948765 17:-0.91458 18:0.658466 19:-0.694097 
1:0.652174 2:0.183333 4:-1 5:-1 6:-1 7:-1 8:-1 9:-1 10:-1 11:-1 12:-1 13:-1 14:0.66791 15:-0.736471 16:0.157495 17:-1 18:-1 19:0.0221088 
1:-0.083004 2:0.05 4:-1 5:-1 6:-0.984791 7:-0.999851 8:-0.970186 9:-0.999744 10:-0.956623 11:-0.97731 12:-0.916053 13:-0.979735 14:0.511194 15:-0.531765 16:-0.0132827 17:-0.916053 18:0.544973 19:-0.674615 
1:0.462451 2:-0.991667 4:-1 5:-1 6:-0.969582 7:-0.999451 8:-0.895652 9:-0.997163 10:-0.912729 11:-0.943274 12:-0.849779 13:-0.950117 14:0.429104 15:-0.414118 16:-0.119545 17:-0.849779 18:0.374603 19:-0.668876 
1:-0.683794 2:0.0666667 4:-1 5:-1 6:-0.996198 7:-0.999963 8:-0.995031 9:-0.999957 10:-0.981926 11:-1 12:-0.948454 13:-1 14:0.537313 15:-0.571765 16:0.024668 17:-0.948454 18:1 19:-0.681103 
1:0.0513834 2:0.141667 4:-1 5:-1 6:-0.992395 7:-0.999653 8:-0.997516 9:-0.999804 10:-0.999484 11:-1 12:-0.998527 13:-1 14:0.664179 15:-0.731765 16:0.1537 17:-0.998527 18:-0.777778 19:-0.681103 
1:0.391304 2:-0.00833333 4:-1 5:-1 6:-0.996198 7:-0.999726 8:-0.990062 9:-0.999607 10:-0.983475 11:-0.990276 12:-0.961708 13:-1 14:0.615672 15:-0.628235 16:0.0360531 17:-0.961708 18:1 19:-0.60279 
1:0.960474 2:0.191667 4:-1 6:-0.711027 7:-0.963371 8:-0.922981 9:-0.995421 10:-0.940098 11:-0.962723 12:-0.89838 13:-0.962588 14:0.492537 15:-0.522353 16:-0.00948765 17:-0.89838 18:0.630688 19:-0.681579 
1:0.470356 2:0.0333333 4:-1 5:-1 6:-0.775665 7:-0.995033 8:-0.962733 9:-0.999311 10:-0.631294 11:-0.705024 12:-0.509573 13:-0.68979 14:0.0410448 15:-0.0658824 16:-0.286527 17:-0.509573 18:-0.0915366 19:-0.720585 
1:-0.549407 2:-0.15 4:-1 5:-1 6:-0.764259 7:-0.997533 8:-0.967702 9:-0.999438 10:-0.709269 11:-0.753647 12:-0.622975 13:-0.758379 14:0.268657 15:-0.254118 16:-0.214421 17:-0.622975 18:-0.170386 19:-0.691611 
1:-0.15415 2:0.0583333 4:-1 5:-1 6:-0.980989 7:-0.999873 8:-0.97764 9:-0.999824 10:-0.95559 11:-0.97893 12:-0.911635 13:-0.979735 14:0.492537 15:-0.515294 16:-0.0208729 17:-0.911635 18:0.599206 19:-0.678899 
1:0.12253 2:-0.141667 4:-1 5:-1 6:-0.897338 7:-0.998367 8:-0.982609 9:-0.999438 10:-0.620966 11:-0.664506 12:-0.543446 13:-0.66173 14:0.246269 15:-0.275294 16:-0.157495 17:-0.543446 18:-0.336224 19:-0.71536 
1:0.256917 2:-0.175 4:-1 5:-1 6:-0.942966 7:-0.998606 8:-0.980124 9:-0.999607 10:-0.558998 11:-0.602917 12:-0.478645 13:-0.602494 14:0.223881 15:-0.247059 16:-0.180266 17:-0.478645 18:-0.385112 19:-0.712277 
1:0.399209 2:0.0583333 4:-1 5:-1 6:-0.992395 7:-0.999653 8:-0.997516 9:-0.999804 10:-0.980893 11:-0.985413 12:-0.958763 13:-1 14:0.630597 15:-0.625882 16:0.0170778 17:-0.958763 18:1 19:-0.567154 
1:0.114625 2:-0.166667 4:-1 5:-1 6:-0.923954 7:-0.999082 8:-0.975155 9:-0.999503 10:-0.599277 11:-0.641815 12:-0.5243 13:-0.638348 14:0.246269 15:-0.282353 16:-0.14611 17:-0.5243 18:-0.369033 19:-0.717456 
1:0.6917 2:-0.35 4:0.333333 5:-1 6:-0.870722 7:-0.9968 8:-0.895652 9:-0.997511 10:-0.748515 11:-0.789303 12:-0.667158 13:-0.795791 14:0.30597 15:-0.287059 16:-0.199241 17:-0.667158 18:-0.137241 19:-0.683755 
1:0.249012 2:0.0583333 4:-1 5:-1 6:-0.988593 7:-0.999664 8:-0.985093 9:-0.999808 10:-0.96282 11:-0.983793 12:-0.921944 13:-0.98597 14:0.511194 15:-0.531765 16:-0.0132827 17:-0.921944 18:0.653704 19:-0.675536 
1:-0.6917 2:0.0916667 4:-1 5:-1 6:-0.980989 7:-0.999726 8:-0.990062 9:-0.999752 10:-0.982959 11:-0.998379 12:-0.952872 13:-1 14:0.55597 15:-0.588235 16:0.0322581 17:-0.952872 18:1 19:-0.668264 
1:-0.944664 2:-0.316667 4:-1 5:-1 6:-0.942966 7:-0.999073 8:-0.952795 9:-0.99866 10:-0.722696 11:-0.779579 12:-0.617084 13:-0.780203 14:0.186567 15:-0.164706 16:-0.275142 17:-0.617084 18:-0.0395086 19:-0.695144 
1:0.533597 2:0.0416667 4:-1 5:-1 6:-0.920152 7:-0.998947 8:-0.947826 9:-0.999311 10:-0.965918 11:-0.990276 12:-0.923417 13:-0.987529 14:0.488806 15:-0.524706 16:-0.00189751 17:-0.923417 18:0.82231 19:-0.693172 
1:0.335968 2:0.0666667 4:-1 5:-1 6:-0.927757 7:-0.998977 8:-0.967702 9:-0.999589 10:-0.941647 11:-0.972447 12:-0.886598 13:-0.970382 14:0.436567 15:-0.458824 16:-0.0550284 17:-0.886598 18:0.572351 19:-0.692247 
1:0.541502 2:-0.3 4:-1 5:-1 6:-0.882129 7:-0.997734 8:-0.940373 9:-0.998175 10:-0.893623 11:-0.901135 12:-0.857143 13:-0.925175 14:0.58209 15:-0.536471 16:-0.0777988 17:-0.857143 18:0.0251317 19:-0.56522 
1:0.328063 2:0.05 4:-1 5:-1 6:-0.897338 7:-0.999036 8:-0.62236 9:-0.92776 10:-0.646785 11:-0.727715 12:-0.515464 13:-0.708496 14:-0.00373133 15:-0.0235294 16:-0.309298 17:-0.515464 18:0.00513709 19:-0.720936 
1:-0.296443 2:0.025 4:-1 5:-1 6:-0.961977 7:-0.999313 8:-0.952795 9:-0.99946 10:-0.96282 11:-0.985413 12:-0.918999 13:-0.987529 14:0.5 15:-0.517647 16:-0.0246679 17:-0.918999 18:0.752205 19:-0.673329 
1:0.280632 2:0.0166667 4:-1 5:-1 6:-0.992395 7:-0.999653 8:-0.990062 9:-0.999607 10:-0.978311 11:-0.985413 12:-0.952872 13:-0.998441 14:0.61194 15:-0.609412 16:0.00948768 17:-0.952872 18:0.944444 19:-0.589833 
1:-0.557312 2:-0.108333 4:-1 5:-1 6:-0.806084 7:-0.988908 8:-0.945342 9:-0.998739 10:-0.729409 11:-0.773096 12:-0.648012 13:-0.773967 14:0.279851 15:-0.282353 16:-0.180266 17:-0.648012 18:-0.162575 19:-0.698826 
1:-0.588933 2:0.025 4:-1 5:-1 6:-0.851711 7:-0.999395 8:-0.987578 9:-0.999973 10:-0.902918 11:-0.931929 12:-0.851252 13:-0.929852 14:0.436567 15:-0.465882 16:-0.0436432 17:-0.851252 18:0.174468 19:-0.695898 
1:0.225296 2:0.191667 4:-1 5:-1 6:-0.980989 7:-0.999339 8:-0.965217 9:-0.999215 10:-0.975729 11:-0.985413 12:-0.952872 13:-0.990647 14:0.593284 15:-0.621176 16:0.0474383 17:-0.952872 18:0.677778 19:-0.645448 
1:-0.897233 2:0.0333333 4:-1 5:-1 6:-0.980989 7:-0.999873 8:-0.987578 9:-0.999909 10:-0.959721 11:-0.975689 12:-0.920471 13:-0.98597 14:0.544776 15:-0.538824 16:-0.0360531 17:-0.920471 18:0.66455 19:-0.63549 
1:0.905138 2:-0.616667 4:-1 6:-0.8327 7:-0.995253 8:-0.585093 9:-0.996018 10:-0.785696 11:-0.834684 12:-0.723122 13:-0.805144 14:0.261194 15:-0.385882 16:0.00569261 17:-0.723122 18:-0.0673847 19:-0.773846 
1:0.604743 4:-1 5:-1 6:-0.992395 7:-0.999653 8:-0.995031 9:-0.999752 10:-0.996902 11:-1 12:-0.991163 13:-1 14:0.645522 15:-0.708235 16:0.134725 17:-0.991163 18:0.333333 19:-0.681103 
1:0.6917 2:0.183333 4:-1 6:0.346008 7:-0.983777 8:-0.950311 9:-0.994379 10:-0.883811 11:-0.922204 12:-0.821797 13:-0.912705 14:0.365672 15:-0.411765 16:-0.0588235 17:-0.821797 18:0.539153 19:-0.697721 
1:-0.936759 2:-0.00833333 4:-1 5:-1 6:-0.996198 7:-0.999963 8:-0.88323 9:-0.990997 10:-0.975729 11:-0.985413 12:-0.95729 13:-0.98597 14:0.593284 15:-0.642353 16:0.0815939 17:-0.95729 18:0.101852 19:-0.681103 
1:-0.549407 2:0.075 4:-1 5:-1 6:-0.996198 7:-0.999963 8:-0.990062 9:-0.999957 10:-0.996385 11:-1 12:-0.989691 13:-1 14:0.641791 15:-0.703529 16:0.13093 17:-0.989691 18:0.555556 19:-0.681103 
1:0.486166 2:-0.2 4:-1 5:-1 6:-0.81749 7:-0.99859 8:-0.962733 9:-0.998957 10:-0.612703 11:-0.658023 12:-0.53461 13:-0.652377 14:0.231343 15:-0.270588 16:-0.149905 17:-0.53461 18:-0.335185 19:-0.717063 
1:-0.470356 2:0.0333333 4:-1 5:-1 6:-0.942966 7:-0.999036 8:-0.985093 9:-0.999615 10:-0.913246 11:-0.941653 12:-0.861561 13:-0.940764 14:0.44403 15:-0.468235 16:-0.0474383 17:-0.861561 18:0.235185 19:-0.691552 
1:-0.644269 2:0.191667 4:-0.333333 5:-1 6:-0.78327 7:-0.983441 8:-0.92795 9:-0.998242 10:-0.91118 11:-0.858995 12:-0.938144 13:-0.93297 14:1 15:-0.844706 16:-0.00569258 17:-0.87187 18:0.123854 19:0.0204546 
1:-0.0513834 2:-0.158333 4:-1 5:-1 6:-0.836502 7:-0.996432 8:-0.97764 9:-0.999598 10:-0.669507 11:-0.71637 12:-0.571429 13:-0.728761 14:0.238806 15:-0.188235 16:-0.290323 17:-0.571429 18:-0.180911 19:-0.678032 
1:-0.296443 2:0.025 4:-1 5:-1 6:-0.973384 7:-0.999963 8:-0.957764 9:-0.999781 10:-0.970565 11:-0.985413 12:-0.938144 13:-0.990647 14:0.55597 15:-0.574118 16:0.00948768 17:-0.938144 18:0.762963 19:-0.653822 
1:0.43083 2:0.175 4:-1 5:-1 6:-0.946768 7:-0.998021 8:-0.962733 9:-0.998427 10:-0.989156 11:-0.995138 12:-0.977909 13:-0.995323 14:0.623134 15:-0.68 16:0.111954 17:-0.977909 18:0.411111 19:-0.681103 
1:-0.675889 2:0.0333333 4:-1 5:-1 6:-0.973384 7:-0.999694 8:-0.980124 9:-0.999765 10:-0.966434 11:-0.980551 12:-0.932253 13:-0.989088 14:0.559701 15:-0.564706 16:-0.00948765 17:-0.932253 18:0.699471 19:-0.64007 
1:-0.715415 2:-0.00833333 4:-1 5:-1 6:-0.946768 7:-0.998058 8:-0.942857 9:-0.998627 10:-0.977279 11:-0.983793 12:-0.960236 13:-0.989088 14:0.615672 15:-0.649412 16:0.0702087 17:-0.960236 18:0.711111 19:-0.635919 
1:-0.810277 2:0.2 4:-1 5:-1 6:-0.608365 7:-0.79883 8:-0.195031 9:-0.781165 10:-0.800155 11:-0.810373 12:-0.752577 13:-0.840998 14:0.533582 15:-0.461176 16:-0.149905 17:-0.715758 18:0.292596 19:-0.581396 
1:0.367589 2:-0.15 4:-1 5:-1 6:-0.828897 7:-0.997961 8:-0.95528 9:-0.998654 10:-0.556933 11:-0.643436 12:-0.419735 13:-0.619641 14:-0.0708955 15:0.0258824 16:-0.320683 17:-0.419735 18:-0.116987 19:-0.729589 
1:-0.604743 2:0.0833333 4:-1 5:-1 6:-0.961977 7:-0.999761 8:-0.990062 9:-0.999893 10:-0.990188 11:-0.995138 12:-0.976436 13:-1 14:0.630597 15:-0.668235 16:0.085389 17:-0.976436 18:0.777778 19:-0.622957 
1:-0.241107 2:-0.341667 4:-1 5:-1 6:-0.870722 7:-0.994831 8:-0.838509 9:-0.987727 10:-0.719081 11:-0.771475 12:-0.615611 13:-0.778644 14:0.216418 15:-0.174118 16:-0.290323 17:-0.615611 18:-0.069444 19:-0.683493 
1:0.683794 2:0.1 4:-1 5:-1 6:-0.992395 7:-0.999653 8:-0.980124 9:-0.999752 10:-0.990705 11:-0.996759 12:-0.976436 13:-1 14:0.623134 15:-0.665882 16:0.0891841 17:-0.976436 18:0.777778 19:-0.645023 
1:0.438735 2:0.0666667 4:-1 5:-1 6:-0.988593 7:-0.999632 8:-0.990062 9:-0.999607 10:-0.980893 11:-0.987034 12:-0.95729 13:-1 14:0.619403 15:-0.618824 16:0.0170778 17:-0.95729 18:1 19:-0.583288 
1:-0.0513834 2:0.025 4:-1 5:-1 6:-0.984791 7:-0.99994 8:-0.962733 9:-0.999888 10:-0.976762 11:-0.990276 12:-0.946981 13:-0.995323 14:0.567164 15:-0.588235 16:0.0208729 17:-0.946981 18:0.874074 19:-0.653822 
1:0.786561 2:-0.183333 4:-1 5:-1 6:-0.920152 7:-0.998017 8:-0.982609 9:-0.999438 10:-0.695327 11:-0.730956 12:-0.618557 13:-0.74279 14:0.324627 15:-0.296471 16:-0.203036 17:-0.618557 18:-0.265718 19:-0.677197 
1:-0.12253 2:-0.0916667 4:-0.333333 5:-1 6:-0.908745 7:-0.997917 8:-0.900621 9:-0.997535 10:-0.699458 11:-0.743922 12:-0.620029 13:-0.741231 14:0.264925 15:-0.284706 16:-0.16129 17:-0.620029 18:-0.226499 19:-0.708978 
1:0.312253 2:0.0333333 4:-1 5:-1 6:-0.958175 7:-0.999783 8:-0.972671 9:-0.999781 10:-0.565195 11:-0.649919 12:-0.428571 13:-0.628995 14:-0.0559701 15:0.0211765 16:-0.328273 17:-0.428571 18:-0.113729 19:-0.725895 
1:0.857708 2:-0.775 4:-0.333333 5:-1 6:-0.908745 7:-0.996994 8:-0.868323 9:-0.99669 10:-0.798606 11:-0.852512 12:-0.708395 13:-0.842557 14:0.231343 15:-0.256471 16:-0.172676 17:-0.708395 18:0.0944649 19:-0.714243 
1:-0.249012 2:0.0333333 4:-1 5:-1 6:-0.973384 7:-0.999873 8:-0.992547 9:-0.999952 10:-0.973147 11:-0.985413 12:-0.94109 13:-0.995323 14:0.574627 15:-0.576471 16:-0.00569258 17:-0.94109 18:0.855556 19:-0.626353 
1:0.391304 2:-0.816667 4:-1 5:-1 6:-0.885932 7:-0.996818 8:-0.806211 9:-0.99571 10:-0.878131 11:-0.905997 12:-0.826215 13:-0.906469 14:0.436567 15:-0.458824 16:-0.0550284 17:-0.826215 18:0.094206 19:-0.668252 
1:-0.351779 2:-0.291667 4:-1 5:-1 6:-0.965779 7:-0.999073 8:-0.970186 9:-0.999255 10:-0.726827 11:-0.777958 12:-0.622975 13:-0.787997 14:0.227612 15:-0.174118 16:-0.301708 17:-0.622975 18:-0.054471 19:-0.678312 
1:0.272727 2:-0.308333 4:-1 5:-1 6:-0.342205 7:-0.920818 8:-0.975155 9:-0.999637 10:-0.785696 11:-0.844408 12:-0.684831 13:-0.836321 14:0.19403 15:-0.202353 16:-0.222011 17:-0.684831 18:0.199187 19:-0.697341 
1:-0.114625 2:-0.141667 4:-1 5:-1 6:-0.935361 7:-0.998977 8:-0.985093 9:-0.999872 10:-0.640072 11:-0.693679 12:-0.540501 13:-0.694466 14:0.182836 15:-0.174118 16:-0.256167 17:-0.540501 18:-0.212146 19:-0.700693 
1:-0.747036 2:-0.141667 4:-1 5:-1 6:-0.961977 7:-0.999851 8:-0.97764 9:-0.999695 10:-0.775368 11:-0.828201 12:-0.680412 13:-0.825409 14:0.231343 15:-0.228235 16:-0.218216 17:-0.680412 18:0.0218481 19:-0.699462 
1:0.628458 2:-0.133333 4:-1 5:-1 6:-0.927757 7:-0.999335 8:-0.992547 9:-0.999952 10:-0.982959 11:-0.993517 12:-0.961708 13:-0.995323 14:0.589552 15:-0.630588 16:0.0664137 17:-0.961708 18:0.866667 19:-0.671413 
1:-0.296443 2:0.025 4:-1 5:-1 6:-0.973384 7:-0.999963 8:-0.957764 9:-0.999781 10:-0.970565 11:-0.985413 12:-0.938144 13:-0.990647 14:0.55597 15:-0.574118 16:0.00948768 17:-0.938144 18:0.762963 19:-0.653822 
1:0.367589 2:-0.158333 4:-1 5:-1 6:-0.836502 7:-0.997991 8:-0.970186 9:-0.998846 10:-0.558998 11:-0.646677 12:-0.421208 13:-0.6212 14:-0.0783582 15:0.0282353 16:-0.316888 17:-0.421208 18:-0.109921 19:-0.731593 
1:-0.0513834 2:0.191667 4:-1 5:-1 6:-0.969582 7:-0.999761 8:-0.88323 9:-0.991702 10:-0.97418 11:-0.97731 12:-0.960236 13:-0.98597 14:0.63806 15:-0.663529 16:0.0702087 17:-0.960236 18:0.068783 19:-0.617823 
1:-0.960474 2:0.191667 4:-1 5:-1 6:-0.992395 7:-0.99994 8:-0.995031 9:-0.999957 10:-0.998967 11:-1 12:-0.997054 13:-1 14:0.660448 15:-0.727059 16:0.149905 17:-0.997054 18:-0.555556 19:-0.681103 
1:-0.747036 2:-0.341667 4:-0.333333 5:-1 6:-0.965779 7:-0.999177 8:-0.918012 9:-0.99921 10:-0.767622 11:-0.82658 12:-0.658321 13:-0.826968 14:0.186567 15:-0.157647 16:-0.286527 17:-0.658321 18:0.0782311 19:-0.691706 
1:-0.960474 2:-0.3 4:-1 5:-1 6:-0.946768 7:-0.998775 8:-0.982609 9:-0.999909 10:-0.718564 11:-0.773096 12:-0.618557 13:-0.772408 14:0.201493 15:-0.190588 16:-0.248577 17:-0.618557 18:-0.0810618 19:-0.698492 
1:0.304348 2:-0.175 4:-1 6:-0.958175 7:-0.999514 8:-0.90559 9:-0.996687 10:-0.591531 11:-0.664506 12:-0.463918 13:-0.657054 14:0.0335821 15:-0.0282353 16:-0.339658 17:-0.463918 18:-0.13635 19:-0.710523 
1:-0.565217 2:0.0833333 4:-1 5:-1 6:-0.988593 7:-0.999632 8:-0.985093 9:-1 10:-0.997418 11:-1 12:-0.992636 13:-1 14:0.649254 15:-0.712941 16:0.13852 17:-0.992636 18:0.111111 19:-0.681103 
1:-0.0671937 2:0.0583333 4:-1 5:-1 6:-0.946768 7:-0.998954 8:-0.967702 9:-0.999589 10:-0.950426 11:-0.974068 12:-0.904271 13:-0.976617 14:0.488806 15:-0.503529 16:-0.0360531 17:-0.904271 18:0.558995 19:-0.673329 
1:-0.699605 2:0.05 4:-1 5:-1 6:-0.984791 7:-0.99994 8:-0.987578 9:-0.999845 10:-0.980893 11:-1 12:-0.945508 13:-1 14:0.529851 15:-0.562353 16:0.0170778 17:-0.945508 18:1 19:-0.681103 
1:-0.667984 2:0.0833333 4:-1 5:-1 6:-0.969582 7:-0.999653 8:-0.992547 9:-0.999737 10:-0.989156 11:-1 12:-0.969072 13:-1 14:0.589552 15:-0.637647 16:0.0777989 17:-0.969072 18:1 19:-0.681103 
0.015152	0.009091	0.010606	0.009091	0.033333	0.015152	0.007576	0.019697	0.040909	0.069697	0.296970	0.007576	0.007576	0.009091	0.007576	0.010606	0.013636	0.013636	0.037879	0.056061	0.166667	
Margin:0.033749	0.091270	0.033911	0.042891	0.012429	0.030059	0.094339	0.031137	0.012438	0.012238	0.005704	0.193346	0.154943	0.062333	0.139939	0.038373	0.029777	0.028828	0.012954	0.011601	0.007944	
Accuracy:0.97	1.00	1.00	0.99	0.98	0.94	0.98	0.97	0.97	0.95	0.92	1.00	0.99	0.98	0.95	0.99	0.98	0.94	0.97	0.94	0.92	
Span0.042503	0.010561	0.062622	0.006971	0.012613	0.013258	0.109046	0.049300	0.009902	0.025279	0.005272	0.080847	0.037635	0.015003	0.078334	0.022981	0.063213	0.023363	0.028902	0.014978	0.019259	