svm_type c_svc
kernel_type rbf
gamma 0.0625
nr_class 4
nr_binary 10
total_sv 436
rho 14.7408 -2.25459 2.09988 4.27334 4.23766 2.76481 -2.38491 1.12742 -16.9869 -13.3094
label 4 2 3 1
nr_sv 61 158 61 156
nr_sv_binary 60 39 36 26 43 65 285 45 270 246
I 3
1 2
2 0 1
1 0
1 1
1 2
1 1
1 2
1 0
1 2
2 1 3
2 0 2
1 3
2 1 2
1 3
1 0
2 1 2
3 0 2 3
1 1
2 2 3
1 1
alpha
6 9 10 14 15 27 29 30 33 35 37 42 51 56 58 59 70 71 72 74 75 84 87 94 95 98 117 132 149 162 176 181 185 220 221 222 224 225 227 229 230 231 234 235 236 239 240 243 245 248 250 253 254 255 256 258 268 269 271 276 
-396.9374978317594 -264.5775080895058 -104.952627766468 -87.36157868362173 -139.8414492555712 -179.3315262644201 -512 -8.293035028727557 -512 -96.01214066652257 -39.38961243416186 -243.11551950346 -433.862280412154 -183.3605975094059 -428.5346258024017 -147.3903720811608 -25.9954709154209 -114.5374964589949 -475.7045943177444 -139.4715927240434 -512 -83.3097656395237 -181.9956845918771 -14.55876887156439 -512 -512 -93.70520321485566 -38.00527635110511 -512 -231.2705885796659 -231.9284361395422 -55.34401911728602 -48.85830604285992 94.1932507843448 203.1255402372627 512 14.90289454402809 299.6194240059589 4.133562251420546 247.3580269691895 40.99865973154659 512 512 242.6629930992848 512 96.53308377947482 512 362.2369636714911 512 1.405868496787513 26.88300679409902 512 512 132.2076865471144 21.41494762829479 512 97.39881017004689 512 42.57085558348203 512 
0 6 8 13 18 21 24 27 28 34 36 38 40 43 44 53 54 55 59 60 65 68 78 79 80 87 90 96 99 124 148 151 164 183 185 201 209 212 217 
55.97491999169846 86.5146616909083 264.6198907385308 23.258515806024 120.5127471950361 30.226609653131 288.2192102107981 62.53016768628407 134.926228296162 382.546158389919 512 141.224366381253 53.93195725469376 206.7641887021014 95.26433038558389 47.18172742809467 9.391802204798342 512 16.85491954923195 269.7134080016099 -213.3693709809721 -512 -60.5997611621831 -6.563278788513366 -87.56645878908883 -512 -421.3613726594197 -168.0455409843162 -48.33173446780898 -125.509819818691 -50.6378448872609 -1.457791142519834 -509.4346195756281 -512 -12.40154916085308 -7.957034881671481 -48.98908113844068 -4.257176765456443 -11.17337436303468 
68 72 75 87 95 98 114 130 132 141 154 158 164 181 185 200 220 222 230 231 233 236 240 242 244 247 251 252 253 254 264 268 269 275 276 277 
-119.039753576815 -337.4121885680867 -346.1542019182655 -468.4857015696957 -372.429929150298 -512 -25.64438564735156 -272.8054487295289 -14.5567831132786 -282.0228031869929 -9.350151444500524 -11.35288058514241 -22.17799283563442 -365.1969147738274 -91.57419325067808 -98.98668272552564 63.99097146023843 164.0180084219752 69.55769048876154 512 14.18779960660174 56.37800862104527 91.03096991101158 33.85530047355626 61.20613999022014 470.4783097176756 220.9641312849756 221.8651678659993 279.7776778584123 301.7925235322621 137.5375963181404 170.3615090270485 19.6210737000841 12.55104794164187 359.5558680556551 88.46021680031689 
5 6 7 9 11 29 33 35 36 39 41 54 59 219 222 225 229 234 240 241 246 253 257 258 276 278 
-145.141563279959 -411.6592206727032 -3.906187491908009 -126.5875217614395 -190.2427257027873 -485.5580855581003 -512 -68.94587873485607 -303.9401513847458 -52.00027724873222 -38.61024838076406 -100.4198588219137 -49.63035202246569 15.08593371652989 512 11.20835450434565 176.4735028552897 512 422.7141909733277 228.1617428839811 8.596698910173519 29.0486649240037 4.829318770249208 393.9998531953 171.8853828931269 2.638427434047554 
68 72 75 87 95 98 130 141 185 220 222 228 229 230 231 236 239 240 242 244 245 247 249 251 252 253 254 255 264 267 269 275 276 298 312 330 333 356 359 394 399 405 407 
-12.71460514589921 -301.1145309498328 -512 -422.3346992965308 -62.48581610030597 -512 -33.13845328807185 -226.5694940125963 -32.59715953187241 36.24524103969441 266.9529082416153 81.52071358874538 77.74749734862066 109.3906846040372 512 33.2600811677847 107.3654968474514 71.36647488389264 60.09897179835237 3.701597312513524 74.58031971290141 421.450886625627 71.76806707239676 319.4130991374006 469.4123243615343 483.066085491957 28.4864159057996 92.9846619251305 153.8118782874166 17.73001940878757 86.73220333173225 77.62415304632005 272.576658584126 -39.83742590407162 -512 -4.5302681890696 -257.8228230893521 -123.5599721750134 -47.6692122264716 -174.6539551292701 -436.1825548758262 -158.3754189282699 -59.70005088137918 
0 2 3 17 18 21 22 23 28 34 36 40 44 45 46 50 55 60 220 226 229 231 233 236 242 244 245 248 252 253 263 264 269 275 282 287 289 290 296 297 298 299 304 312 313 321 328 329 330 333 335 339 356 357 359 380 384 390 393 394 399 405 407 419 425 
512 302.8985219545966 33.50179018038288 406.409844399142 7.281299373477204 177.85014563739 140.3988158922957 281.911462650566 261.962712830385 512 512 19.69901322152739 189.8403692015156 88.43985069720513 12.36080708152984 43.12008137519673 136.208980668523 47.68247420764285 226.7102238885977 512 10.18951016636774 102.6601487258262 17.78607338726727 72.28954754591818 452.107030974891 512 44.92046700004492 17.29980192998088 60.65269717046831 109.7321572558949 203.9849810327851 196.6363008801244 285.6321217169116 99.49900135760103 -84.46784316342942 -77.24277569644411 -18.14305146709106 -6.765267607928426 -190.651547417884 -55.35925922107452 -116.9024746233463 -18.15965991980503 -464.0139726995786 -512 -108.1179589672003 -22.83615853985365 -512 -64.97969066439686 -445.4126323591985 -358.0543189094431 -3.29978035785143 -129.9073419426952 -402.547891915039 -112.0263536164851 -5.250695136467767 -5.107093954683917 -512 -1.485076519650888 -309.1377356113147 -394.0494704215441 -305.0469725655894 -292.1973591331695 -512 -58.50384997288831 -512 
61 62 63 64 65 66 68 69 73 74 76 77 78 80 81 82 83 84 85 86 87 88 89 90 92 93 94 95 96 100 101 102 103 104 105 108 109 110 111 112 113 115 117 119 120 121 122 124 125 126 127 128 129 131 132 133 134 135 136 137 138 139 142 143 145 146 147 148 150 151 152 153 155 157 158 159 160 161 163 164 165 166 167 168 169 171 172 173 175 177 178 179 180 181 182 184 186 188 190 191 192 193 194 195 196 197 199 200 202 203 206 207 208 209 211 212 213 214 215 216 217 218 223 229 232 233 237 238 240 244 248 252 253 259 260 262 264 265 266 270 272 274 275 279 281 282 283 284 285 286 287 288 291 292 293 294 295 296 297 298 300 301 302 303 304 305 306 307 308 309 310 311 312 313 314 315 316 317 318 319 321 322 323 324 325 326 327 328 329 330 331 332 333 334 335 336 337 338 339 340 341 342 344 345 346 347 348 349 350 351 352 353 354 355 356 357 359 360 361 363 364 365 366 367 368 369 370 371 372 373 374 375 376 377 378 379 380 381 382 383 384 385 386 388 389 391 392 393 395 397 398 399 400 401 402 403 404 405 406 407 408 410 411 412 413 414 415 416 418 419 420 421 422 423 424 425 426 427 428 429 430 431 433 434 435 
512 512 462.7378512495263 512 512 512 512 239.438872533753 512 512 512 512 239.4357525863928 272.9589441208782 512 512 512 512 489.8705431420439 512 343.2593767659851 512 512 257.8132725102497 408.4871528983998 444.0251233724093 512 512 369.5839644169922 512 512 512 512 251.9877156758015 512 297.8581398061485 512 512 239.0879080773508 512 512 512 512 512 8.307219696972277 512 238.1484980691416 444.1481501265193 512 512 512 512 512 104.7762965575889 512 512 512 512 512 426.0632548502901 512 512 512 512 512 30.38952284706761 512 388.7973609120319 512 81.15016304951119 512 512 512 512 512 242.9119660859509 512 20.52769818003213 512 512 512 512 139.0377974009211 286.6508670706589 512 325.2815557055297 116.9878595997719 512 512 512 512 512 512 435.5358376672623 273.6419896650123 444.7726802537609 512 512 512 512 512 512 116.1439663398485 512 512 100.6745827313227 512 512 512 229.4651534156515 512 512 512 512 512 512 512 284.6096404665391 512 512 512 512 1.463593420740553 291.7745752830733 512 512 32.58676441561547 0.6893038548454368 512 512 385.276003618414 512 402.0114822809914 238.3848989720113 512 336.2904888299541 241.9856585817595 183.7775461763545 229.0089034322413 155.6862491391094 343.6096509196524 17.78764627488313 512 95.76230446398692 -399.2810850369978 -512 -512 -512 -512 -512 -512 -512 -512 -512 -512 -209.647823514834 -512 -292.7419674375568 -306.4840713725109 -512 -150.3942728077476 -312.2763984636836 -512 -512 -184.0534128764976 -512 -512 -272.1020801056235 -512 -512 -512 -125.0563626816457 -512 -512 -217.0628596379238 -512 -512 -512 -512 -512 -512 -512 -512 -512 -425.0343953835829 -512 -512 -512 -512 -512 -512 -512 -512 -497.6597485197335 -104.3752151446883 -512 -512 -512 -512 -512 -512 -512 -512 -512 -512 -417.1574392807667 -512 -512 -512 -76.43501062131644 -512 -512 -164.6381847177964 -179.7474531002889 -512 -512 -411.5234398610832 -512 -356.4970105343785 -512 -512 -344.3036528243701 -512 -512 -512 -512 -512 -512 -25.11531769337349 -512 -512 -387.0725935718751 -152.520680785129 -83.07793128190737 -33.53550065372193 -217.8924802814359 -512 -512 -512 -512 -512 -512 -512 -512 -506.0733818098437 -276.7809918181613 -262.4920720793224 -394.8691190918767 -42.66729479718229 -9.517580887783561 -451.3791357931386 -512 -512 -512 -512 -512 -373.219563942413 -512 -34.67493520854337 -437.7171037023429 -512 -512 -512 -512 -512 -512 -92.04920491806551 -117.7561722655576 -512 -512 -512 -512 -512 -512 -319.7612424705545 -512 -512 -512 -26.84718634074212 -83.6065739534116 -512 -512 -512 -187.5638002415448 -512 
6 7 11 12 18 24 27 28 29 32 33 34 36 38 40 41 43 44 48 52 53 54 55 59 60 68 80 87 90 108 110 124 164 183 187 217 219 222 225 229 234 240 241 258 278 
375.2386384272418 39.98571627622307 264.169584476706 104.831508020689 83.82621852329909 120.7601025456557 254.0309952305965 152.6519736093924 479.3779749960435 232.1398345191808 295.526756797024 254.7955247345344 512 239.4983466486971 12.10356076085798 7.212176898215588 512 11.59113252303435 10.12720343130665 161.4183351662162 25.81357601687781 167.4956603703903 512 328.1619544113652 117.8699340009996 -512 -109.2844789255844 -512 -512 -9.427936248225985 -21.5749820800795 -257.1007645229332 -426.2583682395259 -512 -16.75019601844044 -7.398827875790004 -18.15353014401917 -512 -160.779473041949 -265.8885765347446 -512 -132.8376166490177 -361.838323277456 -399.4467011368798 -15.88693368990134 
1 4 16 18 19 20 23 24 25 26 31 34 40 43 47 49 55 57 61 62 64 65 66 67 68 69 70 71 72 73 74 75 77 78 80 81 82 83 84 85 86 87 89 90 91 92 93 94 95 96 97 100 101 102 103 105 106 107 109 110 111 112 113 115 116 117 118 119 121 122 124 125 126 127 129 130 131 132 133 135 136 138 139 140 141 142 143 144 145 146 147 148 149 150 151 152 153 154 155 156 157 158 159 160 161 162 163 164 166 167 169 170 171 172 173 175 176 177 178 179 180 181 182 183 184 186 189 190 191 192 193 195 196 197 198 199 200 202 204 205 206 207 209 210 211 212 213 214 215 216 218 226 231 239 245 261 268 280 282 283 284 285 286 287 288 291 292 293 295 297 301 302 303 305 306 308 309 310 312 313 314 315 316 317 318 319 320 321 322 323 324 327 328 329 330 331 332 333 334 336 337 338 340 341 343 344 346 348 350 351 352 353 356 357 358 360 361 362 363 364 367 368 369 370 371 372 373 374 379 380 382 383 385 386 387 388 389 391 393 396 398 401 402 403 404 405 406 408 409 410 412 413 414 416 417 418 419 420 421 422 423 424 425 426 428 430 431 432 433 435 
512 231.5531637522863 186.6655474973669 512 512 67.52080449335769 83.73929723075207 512 14.82651287309857 14.84172671613552 512 110.834710647253 408.6795307975207 192.6925972089035 102.5253728403724 33.82494604772322 512 2.258335230253055 -512 -512 -512 -512 -512 -156.4472741984353 -512 -275.7349892714483 -353.6726653159966 -91.45120688815125 -512 -512 -512 -512 -512 -512 -366.2380313874935 -512 -332.0903942460409 -509.3261440922008 -512 -174.1540293893045 -512 -512 -269.4912549164301 -512 -190.4826059437926 -512 -512 -512 -512 -512 -512 -159.7063895335351 -512 -512 -512 -512 -67.34187039393959 -9.93086593692707 -512 -512 -512 -512 -512 -512 -116.9805168178666 -512 -227.1469963268774 -512 -34.07643751780699 -512 -512 -428.8015023783308 -458.4159818991671 -512 -512 -506.4661788794327 -512 -512 -512 -512 -512 -512 -512 -512 -512 -300.615297156597 -512 -512 -512 -512 -512 -512 -512 -512 -8.417914230315551 -512 -512 -512 -512 -512 -512 -512 -86.27457960707218 -98.09984491189739 -108.8138967158196 -512 -512 -512 -512 -235.5295196230927 -512 -512 -467.1204933133171 -267.5046865514914 -512 -512 -512 -512 -512 -512 -512 -512 -512 -85.66516663802361 -148.9021953994303 -512 -105.2908236066626 -214.6958545743994 -230.6845884521355 -512 -512 -512 -512 -70.69634095693264 -512 -512 -512 -14.39380715047477 -512 -295.3535094380825 -512 -58.33449408910047 -512 -220.6503036259521 -177.9898658675128 -512 -512 -462.0748948609951 -512 -512 -512 512 512 512 88.37919739261284 261.4838625860332 5.39592513521857 44.40000874151286 512 446.4878110191802 512 512 512 512 360.9882209476798 512 512 512 69.46217568087583 173.8229121285722 180.0255048467532 512 468.6283780912057 512 512 512 512 512 512 512 512 512 512 512 512 128.0462839175967 512 434.261951019846 512 512 512 512 512 512 121.3666231970585 512 512 512 512 481.8756923018414 512 512 512 512 512 512 512 512 512 364.3916774624126 512 512 512 458.0905356071017 512 512 512 498.2623164776285 195.3997254657381 512 512 512 512 512 512 59.35866734786985 512 512 512 429.8432995116456 512 512 512 10.05538702167529 512 75.2819409767621 512 512 246.7627796768418 405.9663651199491 512 296.6503273920476 512 512 350.9712463402893 512 105.2445892734812 512 6.385034348633146 512 288.5487436545438 512 375.1010300925621 512 67.03962505296813 512 512 512 164.4455456110979 512 512 512 512 512 512 390.0441155062693 512 512 512 418.6333678219527 
61 62 64 65 66 67 68 69 70 71 72 73 74 75 77 78 80 81 82 83 84 85 86 87 89 92 93 94 95 96 97 98 100 101 102 103 105 109 110 111 112 113 115 116 117 118 119 121 122 123 124 125 126 127 129 130 131 132 133 135 136 138 139 140 141 142 143 145 146 147 148 149 150 151 152 153 154 155 156 157 158 159 160 161 162 163 164 165 166 167 169 170 171 173 174 175 176 177 178 179 180 181 182 186 190 191 192 193 195 196 197 199 200 204 205 206 209 210 212 213 214 215 216 218 231 235 239 245 247 255 261 268 273 276 280 282 283 284 285 286 287 288 291 292 293 295 297 301 302 303 305 306 308 309 310 312 313 314 315 316 318 320 321 322 323 324 326 327 328 329 330 331 332 333 334 336 337 338 339 340 341 343 344 346 348 349 350 352 353 356 357 358 360 361 362 364 365 367 368 369 370 371 372 373 374 379 380 382 383 384 385 386 387 389 391 393 396 398 401 402 403 404 405 406 408 410 412 413 414 416 417 418 419 420 421 422 423 424 425 426 428 430 431 432 433 435 
-506.4601750024736 -512 -512 -512 -512 -298.2368611833975 -512 -257.2108158551649 -407.0548683079064 -342.2843804496115 -512 -512 -512 -512 -512 -512 -248.5035696062358 -512 -373.4527656899993 -344.3591611091835 -512 -196.4361056696634 -512 -512 -324.6496915316606 -512 -512 -512 -512 -512 -507.4392011915023 -239.7477025633324 -11.20686140652168 -512 -512 -512 -512 -512 -512 -483.4640218899053 -512 -512 -512 -263.1935258683633 -512 -512 -512 -280.971252596141 -326.9606014712995 -82.93341819623691 -512 -314.436287415014 -512 -512 -512 -150.8998502740673 -325.4399903852583 -512 -512 -120.8900402551579 -41.19830641550069 -512 -512 -418.5180972466968 -191.2688809535082 -324.17945224624 -318.7018003377364 -498.4710483897178 -512 -512 -512 -512 -512 -171.1793894620773 -512 -512 -512 -512 -512 -512 -512 -200.0611881404526 -208.8912238062179 -132.1004669431888 -512 -80.68026147296443 -512 -114.1049043956291 -225.3258054741229 -139.5977820931581 -396.3610341088121 -512 -512 -512 -13.02795770699497 -512 -512 -512 -512 -512 -512 -512 -512 -512 -337.5595604111503 -282.2686948852963 -512 -512 -512 -512 -132.5352706979027 -512 -512 -512 -305.9567230434299 -512 -512 -206.4448892573937 -512 -512 -125.6203186086026 -512 -512 -512 512 185.2126542882849 512 357.5117787495548 512 195.87669297635 312.8920124199838 498.2106920195442 310.3884250738765 512 47.84612776481681 512 512 512 512 512 181.956598829974 512 512 512 512 233.9542299846688 223.5361445294177 178.7882997678968 512 182.1565296286932 473.830316031101 512 512 512 512 512 512 512 512 512 394.1926851640677 258.3319944314075 512 512 512 512 48.14410024708801 512 512 145.3466326761807 295.9627400386644 392.5944482493903 512 512 178.0700175714634 342.2978461533659 512 126.8748376152998 512 512 512 512 512 512 512 78.04211866253129 512 512 512 512 332.6198880811046 335.4823070615339 512 512 459.5461245623669 512 107.9176985532909 512 512 512 512 512 63.37725207106889 512 512 512 512 512 512 476.4236927193308 512 66.59492928093033 393.2354033336338 311.1083175938969 512 512 301.0510408949584 512 512 512 512 434.0195382639922 512 13.83440937908634 512 505.0478999661637 286.5273663100773 512 456.3621185255786 512 60.63695990106545 512 512 512 115.5833958471532 512 512 512 512 512 512 396.8979387960363 512 512 512 512 
SV
1:-0.521739 2:-0.692308 3:-0.638889 4:-0.851528 5:-0.736264 6:-0.886792 7:-0.856209 8:0.657143 9:-1 10:-0.8 11:-0.884211 12:-0.911271 13:-0.698113 14:-0.394737 15:-0.363636 16:-0.95122 17:-0.8 18:-0.866667 
1:0.173913 3:0.388889 4:-0.406114 5:-0.56044 6:-0.735849 7:-0.411765 8:-0.0285714 9:-0.5 10:-0.0857143 11:-0.578947 12:-0.570743 13:-0.0566038 14:-0.789474 15:0.545455 16:-0.658537 17:0.0666667 18:0.266667 
1:-0.478261 2:-0.538462 3:-0.222222 4:-0.868996 5:-0.89011 6:-0.886792 7:-0.79085 8:0.542857 9:-0.833333 10:-0.514286 11:-0.810526 12:-0.863309 13:-0.584906 14:-0.578947 15:-0.272727 16:-0.609756 17:-0.6 18:-0.6 
1:-0.0869565 2:-0.769231 3:-0.222222 4:-0.799127 5:-0.846154 6:-0.811321 7:-0.803922 8:0.485714 9:-0.833333 10:-0.6 11:-0.736842 12:-0.860911 13:-0.91195 14:-0.815789 15:-0.909091 16:-0.902439 17:0.266667 
1:-0.0434783 2:-0.307692 3:0.25 4:-0.388646 5:-0.582418 6:-0.735849 7:-0.464052 8:0.0285714 9:-0.666667 10:-0.257143 11:-0.6 12:-0.609113 13:-0.484277 14:-0.842105 16:-0.756098 17:0.333333 18:0.533333 
1:-0.173913 2:-0.461538 3:0.166667 4:-0.484716 5:-0.648352 6:-0.735849 7:-0.555556 8:0.0857143 9:-0.666667 10:-0.371429 11:-0.631579 12:-0.676259 13:-0.647799 14:-0.868421 15:-0.181818 16:-1 17:0.533333 18:0.666667 
1:-0.478261 2:-0.0769231 3:-0.138889 4:-0.598253 5:-0.648352 6:-0.773585 7:-0.594771 8:0.142857 9:-0.666667 10:-0.171429 11:-0.568421 12:-0.705036 13:-0.119497 14:-0.657895 15:-0.818182 16:-0.853659 17:-0.266667 
1:-0.130435 2:-0.769231 3:-0.333333 4:-0.467249 5:-0.516484 6:-0.773585 7:-0.686275 8:0.314286 9:-0.833333 10:-0.485714 11:-0.673684 12:-0.772182 13:-0.773585 14:-0.789474 15:-0.818182 16:0.414634 17:0.133333 18:0.533333 
1:-0.0869565 2:-0.0769231 3:0.138889 4:-0.458515 5:-0.56044 6:-0.735849 7:-0.568627 8:0.142857 9:-0.666667 10:-0.171429 11:-0.642105 12:-0.690647 13:-0.119497 14:-0.815789 16:-0.317073 17:0.2 18:0.4 
1:-0.304348 2:-0.153846 3:-0.166667 4:-0.71179 5:-0.758242 6:-0.849057 7:-0.686275 8:0.314286 9:-0.833333 10:-0.2 11:-0.6 12:-0.786571 13:-0.283019 14:-0.5 15:-0.0909091 16:-0.853659 17:-0.333333 18:-0.6 
1:-0.391304 2:-0.461538 3:0.138889 4:-0.49345 5:-0.538462 6:-0.698113 7:-0.555556 8:0.142857 9:-0.666667 10:-0.4 11:-0.610526 12:-0.681055 13:-0.396226 14:-0.710526 15:-1 16:-0.365854 17:-0.133333 18:0.2 
1:-0.434783 2:-0.692308 3:-0.194444 4:-0.598253 5:-0.648352 6:-0.773585 7:-0.660131 8:0.257143 9:-0.833333 10:-0.542857 11:-0.652632 12:-0.760192 13:-0.811321 14:-0.684211 15:-0.909091 16:-0.707317 17:-0.133333 18:-0.0666667 
1:-0.0869565 2:-0.846154 3:-0.277778 4:-0.624454 5:-0.67033 6:-0.735849 7:-0.751634 8:0.371429 9:-0.833333 10:-0.742857 11:-0.694737 12:-0.822542 13:-0.924528 14:-0.815789 15:-0.272727 16:-0.658537 17:0.333333 18:0.333333 
1:-0.478261 2:-0.846154 3:-0.805556 4:-0.947598 5:-0.824176 6:-0.962264 7:-0.934641 8:0.771429 9:-1 10:-0.885714 11:-0.936842 12:-0.954436 13:-0.622642 14:-0.210526 15:-0.545455 16:-0.560976 17:-0.733333 18:-0.8 
1:-0.130435 2:-0.307692 3:-0.333333 4:-0.528384 5:-0.538462 6:-0.735849 7:-0.712418 8:0.314286 9:-0.833333 10:-0.314286 11:-0.652632 12:-0.798561 13:-0.232704 14:-0.684211 15:-0.363636 16:-0.365854 17:0.0666667 18:0.333333 
1:-0.478261 2:0.0769231 3:-0.0277778 4:-0.851528 5:-0.868132 6:-0.735849 7:-0.411765 8:0.0285714 9:-0.5 10:0.342857 11:-0.6 12:-0.582734 13:-0.157233 14:-0.526316 15:-0.909091 16:-0.658537 17:-0.6 18:-0.333333 
1:-0.0434783 2:-0.615385 3:-0.277778 4:-0.80786 5:-0.89011 6:-0.773585 7:-0.72549 8:0.485714 9:-0.833333 10:-0.371429 11:-0.705263 12:-0.834532 13:-0.610063 14:-0.5 16:-0.609756 17:-0.466667 18:-0.866667 
1:-0.565217 2:-0.692308 3:-0.388889 4:-0.921397 5:-0.868132 6:-0.849057 7:-0.869281 8:0.657143 9:-1 10:-0.685714 11:-0.863158 12:-0.918465 13:-0.672956 14:-0.473684 15:-1 16:-0.658537 17:-0.666667 18:-0.733333 
1:-0.130435 2:-0.769231 3:-0.361111 4:-0.694323 5:-0.78022 6:-0.773585 7:-0.738562 8:0.371429 9:-0.833333 10:-0.485714 11:-0.705263 12:-0.817746 13:-0.849057 14:-0.789474 15:-0.727273 16:0.317073 17:0.133333 18:0.333333 
1:-0.130435 2:-0.0769231 3:0.194444 4:-0.668122 5:-0.802198 6:-0.698113 7:-0.411765 8:-0.0285714 9:-0.5 10:0.0571429 11:-0.473684 12:-0.568345 13:-0.00628931 14:-0.578947 15:-0.909091 16:0.0243902 17:-0.466667 18:0.0666667 
1:-0.304348 2:-0.692308 3:-0.694444 4:-0.938865 5:-0.846154 6:-0.886792 7:-0.895425 8:0.714286 9:-1 10:-0.742857 11:-0.915789 12:-0.930456 13:-0.522013 14:-0.394737 15:-0.363636 16:-0.804878 17:-0.666667 18:-0.866667 
1:0.0434783 2:-0.0769231 3:0.416667 4:-0.502183 5:-0.648352 6:-0.698113 7:-0.490196 8:0.0857143 9:-0.666667 10:-0.142857 11:-0.621053 12:-0.640288 13:-0.220126 14:-0.842105 15:0.636364 16:-0.0243902 17:0.4 18:0.6 
1:-0.304348 2:0.0769231 3:0.25 4:-0.624454 5:-0.758242 6:-0.698113 7:-0.464052 8:0.0285714 9:-0.666667 10:-0.0571429 11:-0.526316 12:-0.604317 13:-0.0314465 14:-0.605263 15:0.181818 16:-0.658537 17:-0.333333 18:0.0666667 
1:0.0434783 2:0.0769231 3:0.305556 4:-0.475983 5:-0.626374 6:-0.735849 7:-0.424837 8:-0.0285714 9:-0.5 10:-0.114286 11:-0.547368 12:-0.580336 13:-0.081761 14:-0.763158 15:-0.909091 16:-0.365854 17:0.0666667 18:0.4 
1:-0.391304 2:-0.769231 3:-0.638889 4:-0.886463 5:-0.758242 6:-0.924528 7:-0.921569 8:0.771429 9:-1 10:-0.8 11:-0.915789 12:-0.94964 13:-0.63522 14:-0.315789 15:-0.181818 16:-0.268293 17:-0.733333 18:-0.866667 
1:-0.0869565 2:0.230769 3:0.305556 4:-0.519651 5:-0.626374 6:-0.698113 7:-0.411765 8:-0.0285714 9:-0.5 10:0.142857 11:-0.484211 12:-0.570743 13:0.18239 14:-0.578947 15:-0.636364 16:-1 17:-0.533333 18:-0.133333 
2:-0.538462 3:0.0277778 4:-0.510917 5:-0.67033 6:-0.773585 7:-0.633987 8:0.2 9:-0.833333 10:-0.0857143 11:-0.673684 12:-0.736211 13:-0.811321 14:-0.921053 15:0.363636 16:-0.853659 17:0.666667 18:0.8 
1:-0.521739 2:-0.692308 3:-0.166667 4:-0.641921 5:-0.67033 6:-0.735849 7:-0.686275 8:0.257143 9:-0.833333 10:-0.542857 11:-0.694737 12:-0.769784 13:-0.610063 14:-0.763158 16:-0.560976 17:0.2 18:0.4 
1:-0.478261 2:-0.692308 3:-0.222222 4:-0.641921 5:-0.714286 6:-0.849057 7:-0.764706 8:0.428571 9:-0.833333 10:-0.657143 11:-0.789474 12:-0.834532 13:-0.849057 14:-0.842105 15:-0.727273 16:-0.317073 17:0.266667 18:0.466667 
1:-0.26087 2:0.0769231 3:-0.0833333 4:-0.720524 5:-0.758242 6:-0.660377 7:-0.359477 8:-0.0857143 9:-0.5 11:-0.557895 12:-0.539568 13:-0.0440252 14:-0.526316 16:-0.609756 17:-0.533333 18:-0.333333 
1:-0.304348 3:-0.0555556 4:-0.729258 5:-0.736264 6:-0.735849 7:-0.411765 8:0.0285714 9:-0.5 10:0.142857 11:-0.578947 12:-0.58753 13:-0.144654 14:-0.473684 15:0.0909091 16:-0.853659 17:-0.466667 18:-0.333333 
1:-0.217391 2:-0.538462 3:0.166667 4:-0.475983 5:-0.538462 6:-0.698113 7:-0.594771 8:0.142857 9:-0.666667 10:-0.457143 11:-0.642105 12:-0.702638 13:-0.383648 14:-0.763158 15:0.181818 16:-0.560976 18:0.333333 
1:-0.173913 2:-0.230769 3:-0.166667 4:-0.825328 5:-0.89011 6:-0.849057 7:-0.647059 8:0.314286 9:-0.833333 10:-0.257143 11:-0.642105 12:-0.764988 13:-0.207547 14:-0.473684 15:-0.636364 16:-0.219512 17:-0.533333 18:-0.733333 
1:-0.565217 2:-0.0769231 3:-0.0833333 4:-0.502183 5:-0.538462 6:-0.773585 7:-0.607843 8:0.142857 9:-0.833333 10:-0.257143 11:-0.589474 12:-0.709832 13:-0.119497 14:-0.684211 15:-0.0909091 16:-0.853659 18:0.2 
1:-0.26087 2:-0.384615 3:-0.388889 4:-0.624454 5:-0.714286 6:-0.849057 7:-0.79085 8:0.485714 9:-0.833333 10:-0.342857 11:-0.8 12:-0.851319 13:-0.396226 14:-0.947368 15:0.181818 16:-0.804878 17:0.666667 18:0.8 
1:-0.217391 2:-0.153846 3:-0.277778 4:-0.58952 5:-0.648352 6:-0.811321 7:-0.673203 8:0.257143 9:-0.833333 10:-0.2 11:-0.621053 12:-0.769784 13:-0.27044 14:-0.657895 15:-0.909091 16:-0.560976 17:-0.2 18:-0.133333 
1:-0.434783 2:-0.615385 4:-0.659389 5:-0.736264 6:-0.773585 7:-0.607843 8:0.2 9:-0.833333 10:-0.628571 11:-0.610526 12:-0.719424 13:-0.63522 14:-0.684211 15:-0.545455 16:-0.512195 17:-0.133333 
1:-0.347826 2:-0.538462 4:-0.554585 5:-0.67033 6:-0.773585 7:-0.673203 8:0.257143 9:-0.833333 10:-0.457143 11:-0.726316 12:-0.767386 13:-0.811321 14:-0.894737 15:-0.727273 16:-0.707317 17:0.666667 18:0.866667 
1:-0.130435 2:-0.461538 3:-0.0833333 4:-0.694323 5:-0.758242 6:-0.849057 7:-0.686275 8:0.314286 9:-0.833333 10:-0.428571 11:-0.621053 12:-0.781775 13:-0.647799 14:-0.631579 15:-1 16:-1 17:-0.266667 18:-0.533333 
1:-0.26087 2:-0.538462 3:-0.527778 4:-0.912664 5:-0.978022 6:-0.811321 7:-0.699346 8:0.428571 9:-0.833333 10:-0.4 11:-0.736842 12:-0.815348 13:-0.471698 14:-0.315789 15:0.0909091 16:-0.609756 17:-0.533333 18:-0.933333 
1:-0.347826 2:-0.923077 3:-0.5 4:-0.68559 5:-0.736264 6:-0.849057 7:-0.803922 8:0.485714 9:-0.833333 10:-0.657143 11:-0.810526 12:-0.858513 13:-0.949686 14:-0.894737 15:-0.636364 16:-0.512195 17:0.533333 18:0.666667 
1:-0.304348 2:-0.769231 3:-0.222222 4:-0.676856 5:-0.736264 6:-0.773585 7:-0.647059 8:0.2 9:-0.833333 10:-0.657143 11:-0.621053 12:-0.743405 13:-0.773585 14:-0.631579 15:-0.363636 16:-0.95122 17:-0.133333 
1:-0.130435 2:-0.538462 3:0.0555556 4:-0.475983 5:-0.582418 6:-0.773585 7:-0.647059 8:0.257143 9:-0.833333 10:-0.371429 11:-0.715789 12:-0.745803 13:-0.786164 14:-0.868421 15:-0.636364 16:-0.658537 17:0.666667 18:0.8 
1:-0.565217 2:-0.692308 3:-0.75 4:-0.930131 5:-0.824176 6:-0.886792 7:-0.869281 8:0.657143 9:-1 10:-0.714286 11:-0.852632 12:-0.916067 13:-0.534591 14:-0.315789 15:-0.272727 16:-0.219512 17:-0.733333 18:-0.8 
1:-0.434783 2:-0.846154 3:-0.888889 4:-0.947598 5:-0.846154 6:-1 7:-0.908497 8:0.771429 9:-1 10:-0.914286 11:-0.905263 12:-0.942446 13:-0.647799 14:-0.184211 15:-0.454545 16:-0.95122 17:-0.733333 18:-0.866667 
1:-0.217391 2:-0.538462 3:0.0277778 4:-0.572052 5:-0.736264 6:-0.773585 7:-0.647059 8:0.257143 9:-0.833333 10:-0.4 11:-0.694737 12:-0.748201 13:-0.823899 14:-0.921053 15:-0.272727 16:-0.170732 17:0.666667 18:0.866667 
1:-0.347826 2:-0.846154 3:-0.444444 4:-0.659389 5:-0.736264 6:-0.811321 7:-0.79085 8:0.485714 9:-0.833333 10:-0.685714 11:-0.821053 12:-0.851319 13:-1 14:-0.921053 15:-0.909091 16:-0.707317 17:0.733333 18:0.866667 
1:-0.0869565 3:0.416667 4:-0.379913 5:-0.494505 6:-0.622642 7:-0.411765 8:-0.0285714 9:-0.5 10:0.0571429 11:-0.557895 12:-0.582734 13:0.0440252 14:-0.736842 15:0.363636 16:0.0243902 17:-0.0666667 18:0.266667 
1:-0.130435 2:-0.230769 3:0.0555556 4:-0.49345 5:-0.626374 6:-0.773585 7:-0.673203 8:0.257143 9:-0.833333 10:-0.228571 11:-0.726316 12:-0.767386 13:-0.371069 14:-0.894737 15:0.545455 16:-0.414634 17:0.8 18:0.933333 
1:-0.0869565 2:-0.0769231 3:0.25 4:-0.510917 5:-0.648352 6:-0.698113 7:-0.398693 8:-0.0285714 9:-0.5 10:0.114286 11:-0.536842 12:-0.561151 13:-0.333333 14:-0.763158 15:-0.909091 16:-0.707317 17:-0.133333 18:0.2 
1:-0.217391 2:-0.692308 4:-0.703057 5:-0.824176 6:-0.773585 7:-0.738562 8:0.428571 9:-0.833333 10:-0.514286 11:-0.715789 12:-0.827338 13:-0.811321 14:-0.736842 15:-1 16:-0.414634 18:-0.266667 
1:-0.478261 2:-0.0769231 3:-0.0833333 4:-0.449782 5:-0.516484 6:-0.773585 7:-0.594771 8:0.142857 9:-0.833333 10:-0.142857 11:-0.547368 12:-0.705036 13:-0.157233 14:-0.684211 15:-0.818182 16:-1 17:-0.0666667 18:0.2 
3:0.333333 4:-0.388646 5:-0.538462 6:-0.698113 7:-0.437908 8:-0.0285714 9:-0.666667 10:-0.142857 11:-0.547368 12:-0.592326 13:-0.081761 14:-0.736842 15:0.272727 16:-0.268293 17:0.2 18:0.4 
1:-0.130435 3:0.25 4:-0.432314 5:-0.582418 6:-0.735849 7:-0.490196 8:0.0285714 9:-0.666667 10:-0.171429 11:-0.589474 12:-0.628297 13:-0.119497 14:-0.789474 15:-1 16:-0.804878 17:0.266667 18:0.533333 
1:-0.347826 2:-0.307692 3:-0.333333 4:-0.58952 5:-0.67033 6:-0.773585 7:-0.764706 8:0.428571 9:-0.833333 10:-0.314286 11:-0.789474 12:-0.834532 13:-0.345912 14:-0.894737 15:-0.727273 16:-0.902439 17:0.8 18:0.933333 
1:-0.391304 2:-0.692308 3:-0.666667 4:-0.895197 5:-0.846154 6:-0.849057 7:-0.960784 8:0.828571 9:-1 10:-0.771429 11:-0.947368 12:-0.971223 13:-0.559748 14:-0.605263 16:0.0731707 17:-0.333333 18:-0.4 
1:-0.434783 2:-0.230769 3:-0.222222 4:-0.598253 5:-0.626374 6:-0.735849 7:-0.660131 8:0.257143 9:-0.833333 10:-0.285714 11:-0.673684 12:-0.757794 13:-0.18239 14:-0.736842 15:-0.454545 16:-1 17:0.0666667 18:0.333333 
1:-0.0434783 2:-0.384615 3:0.166667 4:-0.423581 5:-0.604396 6:-0.735849 7:-0.568627 8:0.142857 9:-0.666667 10:-0.228571 11:-0.652632 12:-0.688249 13:-0.610063 14:-0.868421 15:-0.636364 16:-0.609756 17:0.533333 18:0.733333 
1:-0.391304 2:-0.0769231 3:-0.277778 4:-0.694323 5:-0.758242 6:-0.773585 7:-0.633987 8:0.2 9:-0.833333 10:-0.142857 11:-0.6 12:-0.736211 13:-0.169811 14:-0.631579 15:-0.727273 16:-0.414634 17:-0.2 
1:-0.26087 2:-0.153846 3:-0.111111 4:-0.537118 5:-0.626374 6:-0.773585 7:-0.673203 8:0.257143 9:-0.833333 10:-0.257143 11:-0.694737 12:-0.76259 13:-0.220126 14:-0.842105 15:-0.181818 16:-0.804878 17:0.333333 18:0.466667 
1:-0.478261 2:-0.769231 3:-0.277778 4:-0.834061 5:-0.824176 6:-0.886792 7:-0.895425 8:0.714286 9:-1 10:-0.714286 11:-0.894737 12:-0.932854 13:-0.72327 14:-0.631579 15:-0.909091 16:-0.121951 17:-0.333333 18:-0.4 
1:-0.130435 2:-0.153846 3:0.611111 4:-0.187773 5:-0.67033 6:-0.660377 7:-0.0718954 8:-0.428571 9:-0.166667 10:-0.2 11:-0.242105 12:-0.230216 13:-0.459119 14:-0.868421 15:-0.636364 16:-0.317073 17:0.266667 18:0.533333 
1:-0.26087 2:-0.923077 3:-0.277778 4:-0.720524 5:-0.824176 6:-0.849057 7:-0.856209 8:0.6 9:-1 10:-1 11:-0.810526 12:-0.904077 13:-0.886792 14:-0.842105 15:-0.545455 16:0.268293 17:0.333333 18:0.4 
1:0.347826 2:0.615385 3:0.666667 4:-0.283843 5:-0.692308 6:-0.698113 7:0.359477 8:-0.714286 9:0.166667 10:0.571429 12:0.203837 13:0.396226 14:-0.605263 15:-0.545455 16:-0.463415 17:-0.4 18:-0.0666667 
1:0.130435 2:0.538462 3:0.805556 4:0.00436681 5:-0.582418 6:-0.660377 7:0.202614 8:-0.657143 10:0.342857 11:-0.0421053 12:0.0527578 13:0.446541 14:-0.763158 15:-1 16:-0.707317 18:0.333333 
1:-0.565217 2:-0.769231 3:-0.611111 4:-0.868996 5:-0.78022 6:-0.849057 7:-0.79085 8:0.542857 9:-0.833333 10:-0.8 11:-0.863158 12:-0.870504 13:-0.622642 14:-0.394737 15:-0.454545 16:-0.853659 17:-0.8 18:-0.866667 
1:0.478261 2:0.615385 3:0.611111 4:-0.135371 5:-0.604396 6:-0.660377 7:0.385621 8:-0.714286 9:0.333333 10:0.4 11:0.0421053 12:0.227818 13:0.345912 14:-0.657895 15:-0.909091 16:0.365854 17:-0.266667 18:0.2 
1:-0.695652 2:-0.615385 3:-0.361111 4:-0.781659 5:-0.824176 6:-0.811321 7:-0.555556 8:0.142857 9:-0.666667 10:-0.657143 11:-0.6 12:-0.688249 13:-0.383648 14:-0.368421 15:-0.181818 16:-0.0243902 17:-0.733333 18:-0.733333 
1:-0.347826 2:-0.307692 3:0.0277778 4:-0.58952 5:-0.758242 6:-0.773585 7:-0.633987 8:0.2 9:-0.833333 10:-0.314286 11:-0.631579 12:-0.738609 13:-0.383648 14:-0.868421 15:-0.0909091 16:-0.463415 17:0.466667 18:0.6 
1:0.434783 2:0.538462 3:0.611111 4:-0.371179 5:-0.846154 6:-0.698113 7:0.359477 8:-0.714286 9:0.166667 10:0.514286 11:0.105263 12:0.215827 13:0.371069 14:-0.605263 15:-0.909091 16:-0.560976 17:-0.266667 18:0.0666667 
1:-0.130435 2:-0.692308 4:-0.310044 5:-0.648352 6:-0.773585 7:-0.320261 8:-0.2 9:-0.5 10:-0.542857 11:-0.357895 12:-0.470024 13:-0.622642 14:-0.789474 15:-0.636364 16:-0.658537 17:0.0666667 18:0.0666667 
1:-0.782609 2:-0.615385 3:-0.361111 4:-0.90393 5:-0.912088 6:-0.849057 7:-0.607843 8:0.2 9:-0.666667 10:-0.657143 11:-0.663158 12:-0.724221 13:-0.534591 14:-0.526316 15:-0.818182 16:-0.804878 17:-0.666667 18:-0.733333 
1:-0.173913 2:-0.615385 3:-0.138889 4:-0.388646 5:-0.582418 6:-0.811321 7:-0.45098 8:-0.0285714 9:-0.666667 10:-0.571429 11:-0.463158 12:-0.589928 13:-0.735849 14:-0.710526 15:-0.636364 16:0.170732 17:-0.133333 18:-0.0666667 
1:0.0434783 2:-0.153846 3:0.555556 4:-0.20524 5:-0.648352 6:-0.735849 7:-0.0457516 8:-0.428571 9:-0.166667 10:-0.257143 11:-0.242105 12:-0.213429 13:-0.295597 14:-0.815789 15:-0.636364 16:-0.609756 18:0.2 
1:-0.217391 2:-0.538462 3:0.194444 4:-0.423581 5:-0.714286 6:-0.773585 7:-0.215686 8:-0.314286 9:-0.333333 10:-0.542857 11:-0.294737 12:-0.374101 13:-0.459119 14:-0.657895 15:-1 16:-0.512195 17:-0.2 18:-0.133333 
1:-0.434783 2:-0.461538 3:-0.388889 4:-0.68559 5:-0.67033 6:-0.811321 7:-0.503268 8:0.0857143 9:-0.666667 10:-0.571429 11:-0.631579 12:-0.64988 13:-0.194969 14:-0.394737 15:-0.818182 16:-0.853659 17:-0.733333 18:-0.733333 
1:0.347826 2:0.692308 3:0.861111 4:0.0305677 5:-0.538462 6:-0.660377 7:0.385621 8:-0.714286 9:0.166667 10:0.571429 11:0.0736842 12:0.244604 13:0.509434 14:-0.684211 15:-0.727273 16:-0.512195 17:-0.2 18:0.2 
1:0.347826 2:0.461538 3:0.666667 4:-0.240175 5:-0.736264 6:-0.735849 7:0.111111 8:-0.6 10:0.142857 11:-0.0736842 12:-0.0431655 13:0.572327 14:-0.710526 15:-0.0909091 16:-0.512195 18:0.133333 
1:-0.304348 2:-0.307692 3:0.111111 4:-0.58952 5:-0.67033 6:-0.849057 7:-0.581699 8:0.142857 9:-0.666667 10:-0.4 11:-0.621053 12:-0.702638 13:-0.232704 14:-0.605263 15:0.545455 16:-0.365854 17:-0.4 18:-0.466667 
1:0.565217 2:0.538462 3:0.916667 4:0.0218341 5:-0.516484 6:-0.622642 7:0.424837 8:-0.714286 9:0.333333 10:0.457143 11:0.0105263 12:0.266187 13:0.295597 14:-0.657895 15:0.181818 16:0.365854 17:-0.2 18:0.333333 
1:-0.26087 2:-0.769231 3:-0.527778 4:-0.772926 5:-0.78022 6:-0.849057 7:-0.882353 8:0.714286 9:-1 10:-0.742857 11:-0.926316 12:-0.923261 13:-0.710692 14:-0.763158 15:1 16:0.121951 17:-0.0666667 18:-0.0666667 
1:-0.434783 2:-0.769231 3:0.0277778 4:-0.467249 5:-0.714286 6:-0.811321 7:-0.503268 8:0.0857143 9:-0.666667 10:-0.714286 11:-0.536842 12:-0.647482 13:-0.72327 14:-0.815789 15:-1 16:0.560976 17:0.333333 18:0.466667 
1:0.0434783 2:-0.307692 3:0.694444 4:-0.283843 5:-0.736264 6:-0.735849 7:-0.0326797 8:-0.428571 9:-0.166667 10:-0.428571 11:-0.178947 12:-0.215827 13:-0.257862 14:-0.789474 15:-0.363636 16:1 17:0.2 18:0.666667 
1:-0.26087 2:-0.692308 3:0.111111 4:-0.414847 5:-0.758242 6:-0.735849 7:-0.411765 8:-0.0857143 9:-0.5 10:-0.6 11:-0.557895 12:-0.546763 13:-0.924528 14:-0.973684 15:-0.727273 16:-0.121951 17:0.666667 18:0.866667 
1:-0.26087 2:-0.230769 3:-0.111111 4:-0.406114 5:-0.736264 6:-0.773585 7:-0.45098 8:-0.0857143 9:-0.666667 10:-0.257143 11:-0.536842 12:-0.577938 13:-0.383648 14:-0.947368 15:0.363636 16:-0.560976 17:0.8 18:0.866667 
1:-0.391304 2:-0.538462 3:-0.0555556 4:-0.580786 5:-0.758242 6:-0.849057 7:-0.490196 8:0.0285714 9:-0.666667 10:-0.485714 11:-0.536842 12:-0.633094 13:-0.610063 14:-0.710526 15:-0.909091 16:0.609756 17:-0.266667 
1:0.0869565 2:-0.538462 3:0.138889 4:-0.240175 5:-0.626374 6:-0.735849 7:-0.294118 8:-0.2 9:-0.5 10:-0.428571 11:-0.431579 12:-0.446043 13:-0.72327 14:-0.921053 15:-0.272727 16:-0.0731707 17:0.4 18:0.6 
1:-0.478261 2:-0.461538 3:-0.111111 4:-0.694323 5:-0.736264 6:-0.886792 7:-0.738562 8:0.371429 9:-0.833333 10:-0.514286 11:-0.694737 12:-0.817746 13:-0.484277 14:-0.763158 15:-0.727273 16:-0.560976 18:-0.0666667 
1:-0.173913 2:-0.769231 3:0.0555556 4:-0.467249 5:-0.78022 6:-0.773585 7:-0.464052 8:-0.0285714 9:-0.666667 10:-0.714286 11:-0.589474 12:-0.604317 13:-0.811321 14:-0.973684 15:-0.636364 16:-0.0731707 17:0.8 18:1 
1:0.608696 2:0.384615 3:0.777778 4:-0.240175 5:-0.78022 6:-0.622642 7:0.320261 8:-0.714286 9:0.166667 10:0.257143 11:0.0105263 12:0.17506 13:0.0188679 14:-0.763158 15:0.636364 16:-0.902439 18:0.2 
1:-0.521739 2:-0.846154 3:-0.638889 4:-0.842795 5:-0.78022 6:-0.924528 7:-0.947712 8:0.885714 9:-1 10:-0.857143 11:-0.947368 12:-0.971223 13:-0.761006 14:-0.552632 15:-0.0909091 16:0.317073 17:-0.533333 18:-0.4 
1:0.304348 3:0.833333 4:-0.0829694 5:-0.582418 6:-0.698113 7:0.189542 8:-0.6 10:-0.114286 11:-0.0842105 12:0.0263789 13:0.27044 14:-0.710526 15:-0.181818 16:-0.512195 18:0.2 
1:-0.130435 2:-0.230769 4:-0.606987 5:-0.78022 6:-0.811321 7:-0.51634 8:0.0285714 9:-0.666667 10:-0.285714 11:-0.557895 12:-0.63789 13:-0.157233 14:-0.736842 15:0.272727 16:-1 17:-0.133333 18:-0.133333 
1:0.478261 2:0.769231 3:0.777778 4:0.10917 5:-0.472527 6:-0.660377 7:0.398693 8:-0.714286 9:0.333333 10:0.542857 11:0.0105263 12:0.2494 13:0.358491 14:-0.684211 15:0.727273 16:-0.463415 17:-0.133333 
1:-0.26087 2:-0.769231 3:-0.0555556 4:-0.414847 5:-0.714286 6:-0.773585 7:-0.411765 8:-0.0857143 9:-0.666667 10:-0.714286 11:-0.505263 12:-0.561151 13:-0.823899 14:-0.947368 15:-0.454545 16:0.0243902 17:0.4 18:0.533333 
1:-0.521739 2:-0.153846 3:0.0277778 4:-0.598253 5:-0.736264 6:-0.886792 7:-0.477124 8:0.0285714 9:-0.666667 10:-0.285714 11:-0.526316 12:-0.616307 13:-0.144654 14:-0.526316 15:-0.272727 16:-0.902439 17:-0.533333 18:-0.6 
1:-0.434783 2:-0.384615 3:-0.277778 4:-0.746725 5:-0.802198 6:-0.849057 7:-0.686275 8:0.314286 9:-0.833333 10:-0.485714 11:-0.736842 12:-0.784173 13:-0.333333 14:-0.605263 15:-0.545455 16:-0.317073 17:-0.533333 18:-0.466667 
1:0.478261 2:0.615385 3:0.611111 4:-0.0742358 5:-0.582418 6:-0.660377 7:0.385621 8:-0.714286 9:0.166667 10:0.457143 11:-0.0421053 12:0.247002 13:0.345912 14:-0.684211 15:0.272727 16:-1 17:-0.2 18:0.0666667 
1:-0.434783 2:-0.384615 3:-0.333333 4:-0.615721 5:-0.692308 6:-0.886792 7:-0.503268 8:0.0857143 9:-0.666667 10:-0.428571 11:-0.631579 12:-0.642686 13:-0.194969 14:-0.447368 15:-0.545455 16:-0.609756 17:-0.6 18:-0.733333 
1:-0.478261 2:-1 3:-1 4:-0.90393 5:-0.78022 6:-0.962264 7:-1 8:1 9:-1 10:-0.971429 11:-1 12:-1 13:-0.773585 14:-0.289474 15:0.0909091 16:0.0243902 17:-0.666667 18:-0.866667 
1:0.173913 2:0.461538 3:0.777778 4:-0.257642 5:-0.736264 6:-0.698113 7:0.254902 8:-0.657143 9:0.166667 10:0.285714 11:-0.0526316 12:0.0983213 13:0.106918 14:-0.710526 15:-0.909091 16:0.0731707 17:-0.266667 18:0.133333 
1:0.217391 2:0.692308 3:0.888889 4:0.0829694 5:-0.516484 6:-0.622642 7:0.346405 8:-0.714286 9:0.166667 10:0.428571 11:0.0421053 12:0.199041 13:0.320755 14:-0.684211 15:-0.818182 16:-0.219512 17:-0.2 18:0.2 
1:-0.217391 2:-0.538462 3:0.194444 4:-0.371179 5:-0.736264 6:-0.811321 7:-0.254902 8:-0.257143 9:-0.5 10:-0.6 11:-0.368421 12:-0.419664 13:-0.584906 14:-0.789474 15:-1 16:0.170732 17:0.0666667 18:0.2 
1:-0.217391 2:-0.769231 3:0.0277778 4:-0.537118 5:-0.802198 6:-0.811321 7:-0.437908 8:-0.0857143 9:-0.666667 10:-0.771429 11:-0.505263 12:-0.57554 13:-0.823899 14:-0.842105 15:-0.272727 16:-0.268293 17:0.266667 18:0.333333 
1:0.130435 2:0.153846 3:0.777778 4:-0.196507 5:-0.648352 6:-0.698113 7:0.163399 8:-0.6 10:-0.0285714 11:-0.0421053 12:0.00719424 13:0.132075 14:-0.631579 15:-0.272727 16:-0.804878 17:-0.2 18:0.0666667 
1:-0.217391 2:-0.538462 3:0.333333 4:-0.257642 5:-0.648352 6:-0.735849 7:-0.176471 8:-0.314286 9:-0.333333 10:-0.6 11:-0.294737 12:-0.345324 13:-0.408805 14:-0.736842 15:-1 16:0.121951 18:0.133333 
1:0.304348 2:0.230769 3:0.666667 4:-0.213974 5:-0.714286 6:-0.698113 7:-0.0457516 8:-0.485714 9:-0.166667 10:0.2 11:-0.242105 12:-0.199041 13:-0.132075 14:-0.921053 15:0.181818 16:-0.609756 17:0.466667 18:0.8 
1:-0.130435 2:0.0769231 3:0.333333 4:-0.161572 5:-0.582418 6:-0.811321 7:-0.202614 8:-0.314286 9:-0.333333 10:-0.0571429 11:-0.294737 12:-0.357314 13:0.207547 14:-0.815789 15:-1 16:-0.853659 17:0.266667 18:0.4 
1:0.565217 2:0.615385 3:0.916667 4:0.0567686 5:-0.538462 6:-0.660377 7:0.333333 8:-0.714286 9:0.166667 10:0.457143 11:0.0105263 12:0.177458 13:0.295597 14:-0.763158 16:0.560976 17:-0.133333 18:0.4 
1:-0.304348 2:0.153846 3:0.25 4:-0.257642 5:-0.626374 6:-0.773585 7:-0.254902 8:-0.257143 9:-0.5 11:-0.389474 12:-0.417266 13:0.0188679 14:-0.868421 15:0.454545 16:-0.756098 17:0.266667 18:0.333333 
1:-0.608696 2:-0.692308 3:-0.277778 4:-0.80786 5:-0.846154 6:-0.811321 7:-0.738562 8:0.485714 9:-0.833333 10:-0.742857 11:-0.810526 12:-0.83693 13:-0.584906 14:-0.657895 15:0.545455 16:-0.658537 17:-0.533333 18:-0.6 
1:-0.217391 2:-0.461538 3:0.611111 4:-0.231441 5:-0.626374 6:-0.735849 7:-0.150327 8:-0.314286 9:-0.333333 10:-0.514286 11:-0.326316 12:-0.326139 13:-0.295597 14:-0.815789 15:-0.181818 16:0.707317 17:0.266667 18:0.6 
1:0.434783 2:0.538462 3:0.611111 4:-0.222707 5:-0.714286 6:-0.698113 7:0.346405 8:-0.714286 9:0.166667 10:0.457143 11:-0.0105263 12:0.191847 13:0.371069 14:-0.631579 15:-0.272727 16:0.0243902 17:-0.2 18:0.0666667 
1:-0.26087 2:0.307692 3:0.388889 4:-0.266376 5:-0.692308 6:-0.698113 7:-0.0980392 8:-0.428571 9:-0.333333 10:0.142857 11:-0.147368 12:-0.261391 13:0.396226 14:-0.736842 15:-0.454545 16:-0.0731707 18:0.2 
1:0.391304 2:0.615385 3:0.666667 4:0.0131004 5:-0.516484 6:-0.698113 7:0.424837 8:-0.771429 9:0.333333 10:0.485714 11:0.0736842 12:0.280576 13:0.169811 14:-0.631579 15:-1 16:-0.365854 17:-0.266667 18:0.2 
1:0.0869565 2:0.384615 3:0.555556 4:-0.135371 5:-0.582418 6:-0.698113 7:-0.00653595 8:-0.485714 9:-0.166667 10:0.114286 11:-0.189474 12:-0.16307 13:0.534591 14:-0.763158 15:-0.0909091 16:-0.95122 18:0.2 
1:-0.0869565 2:-0.615385 3:0.333333 4:-0.344978 5:-0.714286 6:-0.811321 7:-0.24183 8:-0.257143 9:-0.333333 10:-0.628571 11:-0.389474 12:-0.398082 13:-0.559748 14:-0.815789 15:-0.818182 16:0.365854 17:0.266667 18:0.533333 
1:-0.304348 2:-0.615385 3:0.111111 4:-0.432314 5:-0.736264 6:-0.811321 7:-0.359477 8:-0.142857 9:-0.5 10:-0.628571 11:-0.410526 12:-0.508393 13:-0.647799 14:-0.763158 15:-0.545455 16:-0.268293 17:0.0666667 18:0.0666667 
1:-0.565217 2:-0.692308 3:-0.611111 4:-0.764192 5:-0.692308 6:-0.924528 7:-0.699346 8:0.371429 9:-0.833333 10:-0.742857 11:-0.768421 12:-0.791367 13:-0.597484 14:-0.315789 15:-0.727273 16:-0.707317 17:-0.733333 18:-0.866667 
1:0.0869565 2:0.307692 3:0.388889 4:-0.231441 5:-0.648352 6:-0.735849 7:-0.150327 8:-0.371429 9:-0.333333 10:0.0571429 11:-0.315789 12:-0.309353 13:0.106918 14:-0.842105 15:-0.0909091 16:-0.95122 17:0.133333 18:0.333333 
1:0.521739 2:0.461538 3:0.916667 4:-0.318777 5:-0.824176 6:-0.622642 7:0.359477 8:-0.714286 9:0.166667 10:0.514286 11:0.0421053 12:0.206235 13:0.320755 14:-0.657895 15:-0.0909091 16:0.365854 17:-0.133333 18:0.333333 
1:-0.0434783 2:0.0769231 3:0.138889 4:-0.371179 5:-0.736264 6:-0.811321 7:-0.267974 8:-0.257143 9:-0.5 10:-0.0285714 11:-0.305263 12:-0.422062 13:-0.0440252 14:-0.789474 15:-0.636364 16:-0.804878 18:0.133333 
1:-0.608696 2:-0.692308 3:-0.472222 4:-0.737991 5:-0.648352 6:-0.811321 7:-0.699346 8:0.428571 9:-0.833333 10:-0.714286 11:-0.778947 12:-0.808153 13:-0.572327 14:-0.394737 16:0.170732 17:-0.8 18:-0.733333 
1:0.347826 2:0.384615 3:0.888889 4:-0.222707 5:-0.736264 6:-0.660377 7:0.372549 8:-0.714286 9:0.166667 10:0.285714 11:0.0736842 12:0.223022 13:0.18239 14:-0.657895 15:0.363636 16:0.0731707 17:-0.0666667 18:0.333333 
1:-0.391304 2:-0.692308 3:-0.444444 4:-0.755459 5:-0.78022 6:-0.849057 7:-0.79085 8:0.485714 9:-0.833333 10:-0.685714 11:-0.747368 12:-0.858513 13:-0.710692 14:-0.684211 15:-0.909091 16:-0.317073 17:-0.333333 18:-0.266667 
1:-0.608696 2:-0.769231 3:-0.611111 4:-0.886463 5:-0.868132 6:-0.811321 7:-0.830065 8:0.6 9:-0.833333 10:-0.771429 11:-0.831579 12:-0.892086 13:-0.761006 14:-0.5 15:-0.909091 16:-0.756098 17:-0.733333 18:-0.8 
1:0.130435 2:-0.230769 3:0.361111 4:-0.20524 5:-0.648352 6:-0.773585 7:-0.0326797 8:-0.485714 9:-0.166667 10:-0.257143 11:-0.157895 12:-0.191847 13:-0.283019 14:-0.763158 15:-0.454545 16:-0.365854 18:0.2 
1:-0.26087 2:0.230769 3:0.194444 4:-0.275109 5:-0.648352 6:-0.811321 7:-0.163399 8:-0.371429 9:-0.333333 10:0.0285714 11:-0.210526 12:-0.321343 13:0.421384 14:-0.710526 15:-0.909091 16:-0.902439 17:-0.133333 18:-0.0666667 
1:-0.217391 2:-0.615385 3:-0.0277778 4:-0.720524 5:-0.868132 6:-0.849057 7:-0.581699 8:0.2 9:-0.666667 10:-0.628571 11:-0.631579 12:-0.709832 13:-0.496855 14:-0.736842 15:-0.909091 16:-0.658537 17:-0.333333 18:-0.333333 
1:-0.434783 2:-0.615385 3:0.277778 4:-0.379913 5:-0.714286 6:-0.735849 7:-0.24183 8:-0.257143 9:-0.333333 10:-0.542857 11:-0.357895 12:-0.402878 13:-0.63522 14:-0.763158 15:-0.909091 16:0.365854 18:0.2 
1:-0.304348 2:-0.0769231 3:0.0277778 4:-0.266376 5:-0.626374 6:-0.735849 7:-0.359477 8:-0.142857 9:-0.5 10:-0.0571429 11:-0.368421 12:-0.505995 13:-0.18239 14:-0.815789 15:-0.636364 16:-0.902439 17:0.2 18:0.333333 
1:-0.130435 2:-0.923077 3:-0.111111 4:-0.650655 5:-0.802198 6:-0.849057 7:-0.72549 8:0.371429 9:-0.833333 10:-0.857143 11:-0.705263 12:-0.810552 13:-0.798742 14:-0.894737 15:-0.545455 16:-0.0243902 17:0.6 18:0.666667 
1:-0.26087 2:-0.923077 3:-0.277778 4:-0.528384 5:-0.736264 6:-0.811321 7:-0.633987 8:0.2 9:-0.833333 10:-0.828571 11:-0.631579 12:-0.726619 13:-0.899371 14:-0.947368 15:-0.909091 16:-0.853659 17:0.666667 18:0.733333 
1:-0.521739 2:-0.615385 3:0.194444 4:-0.676856 5:-0.846154 6:-0.811321 7:-0.51634 8:0.0857143 9:-0.666667 10:-0.6 11:-0.505263 12:-0.657074 13:-0.496855 14:-0.605263 15:-0.454545 16:0.414634 17:-0.4 18:-0.333333 
1:0.0869565 2:0.0769231 3:0.916667 4:-0.144105 5:-0.736264 6:-0.660377 7:0.137255 8:-0.542857 10:0.0285714 11:-0.189474 12:-0.0359712 13:-0.295597 14:-0.947368 15:-0.909091 16:0.609756 17:0.2 18:0.8 
1:0.217391 2:0.384615 3:0.611111 4:-0.213974 5:-0.714286 6:-0.698113 7:0.0849673 8:-0.542857 9:-0.166667 10:0.228571 11:-0.0631579 12:-0.0695444 13:0.383648 14:-0.789474 15:-1 16:-0.512195 17:0.0666667 18:0.333333 
1:0.217391 2:0.461538 3:0.694444 4:-0.187773 5:-0.67033 6:-0.735849 7:-0.00653595 8:-0.485714 9:-0.166667 10:0.257143 11:-0.178947 12:-0.177458 13:0.18239 14:-0.789474 15:0.272727 16:-0.268293 17:0.133333 18:0.4 
1:0.434783 2:0.461538 3:0.694444 4:-0.0480349 5:-0.626374 6:-0.660377 7:0.163399 8:-0.6 10:0.142857 11:-0.115789 12:0.0143885 13:0.194969 14:-0.842105 15:-0.818182 16:-0.804878 17:0.0666667 18:0.533333 
1:0.0869565 2:-0.307692 3:0.388889 4:-0.231441 5:-0.692308 6:-0.735849 7:-0.137255 8:-0.371429 9:-0.333333 10:-0.257143 11:-0.378947 12:-0.290168 13:-0.63522 14:-0.947368 15:-0.727273 16:-0.609756 17:0.533333 18:0.8 
1:0.0434783 2:0.692308 3:0.777778 4:0.00436681 5:-0.472527 6:-0.735849 7:0.294118 8:-0.657143 9:0.166667 10:0.514286 11:-0.0315789 12:0.136691 13:0.433962 14:-0.605263 15:-0.909091 16:0.170732 17:-0.333333 
1:0.347826 2:0.692308 3:0.666667 4:-0.152838 5:-0.582418 6:-0.698113 7:0.333333 8:-0.714286 9:0.166667 10:0.571429 11:-0.0105263 12:0.189448 13:0.408805 14:-0.605263 15:-0.909091 16:-0.95122 17:-0.4 18:-0.133333 
1:-0.130435 2:-0.0769231 3:0.138889 4:-0.362445 5:-0.626374 6:-0.811321 7:-0.372549 8:-0.142857 9:-0.5 10:-0.171429 11:-0.473684 12:-0.522782 13:-0.00628931 14:-0.710526 16:-0.463415 17:0.0666667 18:0.2 
1:0.521739 2:0.615385 3:0.916667 4:-0.257642 5:-0.78022 6:-0.660377 7:0.411765 8:-0.714286 9:0.333333 10:0.6 11:0.0421053 12:0.258993 13:0.320755 14:-0.710526 15:0.0909091 16:0.121951 17:-0.133333 18:0.333333 
1:0.0434783 2:-0.0769231 4:-0.379913 5:-0.714286 6:-0.735849 7:-0.411765 8:-0.0857143 9:-0.5 10:-0.114286 11:-0.473684 12:-0.553957 13:-0.245283 14:-0.894737 15:0.454545 16:-0.414634 17:0.466667 18:0.666667 
1:-0.217391 2:-0.538462 3:-0.111111 4:-0.746725 5:-0.824176 6:-0.811321 7:-0.555556 8:0.142857 9:-0.666667 10:-0.6 11:-0.578947 12:-0.688249 13:-0.496855 14:-0.526316 15:-0.181818 16:-0.121951 17:-0.466667 18:-0.466667 
1:-0.0434783 2:-0.692308 3:-0.138889 4:-0.414847 5:-0.692308 6:-0.735849 7:-0.411765 8:-0.0285714 9:-0.5 10:-0.542857 11:-0.494737 12:-0.565947 13:-0.798742 14:-0.894737 15:-0.545455 16:0.95122 17:0.333333 18:0.8 
1:-0.478261 2:-0.461538 3:-0.0277778 4:-0.71179 5:-0.802198 6:-0.811321 7:-0.477124 8:0.0285714 9:-0.666667 10:-0.542857 11:-0.547368 12:-0.628297 13:-0.358491 14:-0.552632 15:-0.363636 16:-0.219512 17:-0.6 18:-0.6 
1:-0.304348 2:-0.461538 3:0.361111 4:-0.388646 5:-0.758242 6:-0.773585 7:-0.150327 8:-0.371429 9:-0.333333 10:-0.571429 11:-0.242105 12:-0.311751 13:-0.421384 14:-0.710526 15:-0.363636 16:-0.121951 17:-0.133333 
1:-0.304348 2:-0.769231 3:-0.194444 4:-0.49345 5:-0.648352 6:-0.849057 7:-0.633987 8:0.257143 9:-0.833333 10:-0.628571 11:-0.642105 12:-0.743405 13:-0.786164 14:-0.815789 15:-0.909091 16:0.853659 17:0.133333 18:0.533333 
1:-0.173913 2:-0.0769231 4:-0.49345 5:-0.78022 6:-0.811321 7:-0.385621 8:-0.142857 9:-0.5 10:-0.171429 11:-0.431579 12:-0.527578 13:-0.144654 14:-0.736842 15:-0.272727 16:-0.512195 17:-0.0666667 18:-0.0666667 
1:-0.347826 2:0.153846 3:0.388889 4:-0.353712 5:-0.714286 6:-0.773585 7:-0.176471 8:-0.314286 9:-0.333333 10:-0.0285714 11:-0.263158 12:-0.338129 13:0.119497 14:-0.763158 15:0.181818 16:-0.219512 17:0.0666667 18:0.2 
1:0.347826 2:0.230769 3:0.805556 4:-0.0829694 5:-0.692308 6:-0.660377 7:0.24183 8:-0.657143 9:0.166667 10:0.114286 11:-0.0842105 12:0.0863309 13:-0.257862 14:-0.868421 15:-1 16:-0.0731707 17:0.133333 18:0.733333 
1:0.26087 2:0.692308 3:0.694444 4:-0.0480349 5:-0.56044 6:-0.622642 7:0.437908 8:-0.771429 9:0.333333 10:0.685714 11:0.0105263 12:0.282974 13:0.308176 14:-0.684211 15:-0.818182 16:0.0243902 17:-0.266667 18:0.2 
1:-0.130435 2:-0.538462 3:0.277778 4:-0.336245 5:-0.736264 6:-0.735849 7:-0.281046 8:-0.257143 9:-0.5 10:-0.542857 11:-0.410526 12:-0.438849 13:-0.748428 14:-0.894737 15:-0.454545 16:-0.170732 17:0.4 18:0.533333 
2:-0.692308 3:-0.0555556 4:-0.275109 5:-0.538462 6:-0.773585 7:-0.385621 8:-0.0857143 9:-0.5 10:-0.542857 11:-0.442105 12:-0.534772 13:-0.685535 14:-0.736842 15:-0.727273 16:-0.219512 17:-0.0666667 18:0.0666667 
1:-0.26087 2:-0.538462 3:0.361111 4:-0.327511 5:-0.67033 6:-0.773585 7:-0.176471 8:-0.314286 9:-0.333333 10:-0.6 11:-0.263158 12:-0.342926 13:-0.433962 14:-0.710526 16:-0.268293 17:-0.133333 18:-0.0666667 
1:-0.434783 2:-0.461538 3:-0.277778 4:-0.703057 5:-0.736264 6:-0.924528 7:-0.673203 8:0.314286 9:-0.833333 10:-0.571429 11:-0.663158 12:-0.772182 13:-0.471698 14:-0.605263 15:-0.454545 16:-0.317073 17:-0.333333 18:-0.4 
1:0.217391 2:0.769231 3:0.694444 4:0.10917 5:-0.450549 6:-0.698113 7:0.372549 8:-0.714286 9:0.166667 10:0.514286 11:0.0736842 12:0.232614 13:0.345912 14:-0.657895 15:-0.818182 16:-0.707317 17:-0.266667 18:0.0666667 
1:0.73913 2:0.538462 3:0.472222 4:-0.187773 5:-0.67033 6:-0.660377 7:0.359477 8:-0.714286 9:0.166667 10:0.342857 11:-0.0421053 12:0.208633 13:0.0943396 14:-0.657895 15:-0.454545 16:0.219512 17:-0.2 18:0.2 
1:0.521739 2:0.615385 3:0.75 4:-0.0567686 5:-0.604396 6:-0.660377 7:0.254902 8:-0.657143 9:0.166667 10:0.257143 11:0.0315789 12:0.11271 13:0.647799 14:-0.684211 15:-0.181818 16:-1 17:-0.133333 18:0.0666667 
1:-0.217391 2:-0.461538 3:0.194444 4:-0.458515 5:-0.714286 6:-0.773585 7:-0.372549 8:-0.142857 9:-0.5 10:-0.571429 11:-0.378947 12:-0.522782 13:-0.421384 14:-0.657895 15:-0.545455 16:-0.658537 17:-0.333333 18:-0.333333 
1:0.391304 2:0.538462 3:0.888889 4:-0.10917 5:-0.648352 6:-0.622642 7:0.437908 8:-0.714286 9:0.333333 10:0.428571 11:0.0105263 12:0.266187 13:0.157233 14:-0.684211 15:0.363636 16:0.707317 17:-0.133333 18:0.466667 
1:-0.0869565 2:-0.230769 3:-0.194444 4:-0.502183 5:-0.736264 6:-0.811321 7:-0.477124 8:-0.0285714 9:-0.666667 10:-0.285714 11:-0.526316 12:-0.604317 13:-0.0188679 14:-0.789474 15:0.0909091 16:-0.463415 17:0.133333 18:0.133333 
1:-0.304348 2:-0.230769 3:0.0277778 4:-0.624454 5:-0.846154 6:-0.773585 7:-0.581699 8:0.142857 9:-0.666667 10:-0.2 11:-0.652632 12:-0.702638 13:-0.18239 14:-0.868421 15:0.181818 16:-0.756098 17:0.2 18:0.333333 
1:-0.130435 2:-0.538462 3:-0.361111 4:-0.633188 5:-0.758242 6:-0.811321 7:-0.79085 8:0.485714 9:-0.833333 10:-0.542857 11:-0.8 12:-0.851319 13:-0.383648 14:-0.894737 15:-0.181818 16:-0.658537 17:0.466667 18:0.533333 
1:-0.26087 2:-0.769231 3:0.25 4:-0.30131 5:-0.626374 6:-0.849057 7:-0.372549 8:-0.142857 9:-0.5 10:-0.8 11:-0.4 12:-0.517986 13:-0.622642 14:-0.815789 15:-0.181818 16:0.512195 17:0.266667 18:0.466667 
1:0.0434783 2:0.538462 3:0.805556 4:0.0567686 5:-0.472527 6:-0.622642 7:0.424837 8:-0.771429 9:0.333333 10:0.4 11:0.0105263 12:0.268585 13:0.169811 14:-0.710526 15:-0.727273 16:-0.0243902 17:-0.333333 18:0.266667 
1:0.521739 2:0.769231 3:0.75 4:0.135371 5:-0.428571 6:-0.698113 7:0.424837 8:-0.771429 9:0.333333 10:0.6 11:0.0736842 12:0.280576 13:0.320755 14:-0.631579 15:-0.272727 16:-0.853659 17:-0.266667 18:0.0666667 
2:-0.461538 3:0.666667 4:-0.353712 5:-0.758242 6:-0.773585 7:-0.0980392 8:-0.371429 9:-0.333333 10:-0.542857 11:-0.210526 12:-0.275779 13:-0.358491 14:-0.763158 15:-0.545455 16:0.658537 17:0.0666667 18:0.4 
1:-0.521739 2:-0.769231 3:-0.0277778 4:-0.720524 5:-0.824176 6:-0.849057 7:-0.633987 8:0.257143 9:-0.833333 10:-0.8 11:-0.621053 12:-0.745803 13:-0.63522 14:-0.684211 15:-0.636364 16:0.756098 17:-0.133333 18:-0.0666667 
1:0.347826 2:0.538462 3:0.694444 4:-0.248908 5:-0.648352 6:-0.698113 7:0.320261 8:-0.657143 9:0.166667 10:0.371429 11:-0.0736842 12:0.151079 13:0.169811 14:-0.605263 15:0.181818 16:0.0243902 17:-0.2 18:0.133333 
1:-0.434783 2:-0.461538 3:-0.361111 4:-0.729258 5:-0.802198 6:-0.886792 7:-0.72549 8:0.371429 9:-0.833333 10:-0.514286 11:-0.768421 12:-0.81295 13:-0.283019 14:-0.710526 15:-0.181818 16:-0.902439 17:-0.266667 18:-0.333333 
2:-0.384615 3:-0.194444 4:-0.572052 5:-0.802198 6:-0.811321 7:-0.620915 8:0.2 9:-0.833333 10:-0.342857 11:-0.663158 12:-0.729017 13:-0.245283 14:-0.947368 16:-0.609756 17:0.733333 18:0.866667 
1:-0.0434783 3:0.777778 4:-0.0917031 5:-0.582418 6:-0.735849 7:0.0326797 8:-0.485714 9:-0.166667 10:-0.142857 11:-0.157895 12:-0.139089 13:-0.245283 14:-0.763158 15:-1 16:0.365854 17:-0.0666667 18:0.266667 
1:-0.304348 2:-0.615385 3:0.0277778 4:-0.502183 5:-0.67033 6:-0.811321 7:-0.51634 8:0.0857143 9:-0.666667 10:-0.685714 11:-0.536842 12:-0.657074 13:-0.446541 14:-0.684211 15:-0.454545 16:0.0243902 17:-0.2 18:-0.2 
1:0.0869565 2:0.692308 3:0.777778 4:-0.0480349 5:-0.56044 6:-0.735849 7:0.228758 8:-0.657143 10:0.4 11:-0.0210526 12:0.0671463 13:0.396226 14:-0.657895 15:-0.545455 16:-0.0731707 17:-0.266667 
1:-0.478261 2:-0.461538 3:-0.277778 4:-0.720524 5:-0.758242 6:-0.849057 7:-0.607843 8:0.257143 9:-0.666667 10:-0.457143 11:-0.642105 12:-0.733813 13:-0.308176 14:-0.526316 15:-0.818182 16:0.0731707 17:-0.6 18:-0.666667 
1:0.173913 2:0.0769231 3:0.333333 4:-0.248908 5:-0.714286 6:-0.698113 7:-0.228758 8:-0.314286 9:-0.333333 10:0.0571429 11:-0.410526 12:-0.386091 13:-0.245283 14:-1 15:0.363636 16:-0.121951 17:0.666667 18:0.933333 
2:0.307692 3:0.5 4:-0.0305677 5:-0.56044 6:-0.735849 7:-0.0196078 8:-0.485714 9:-0.166667 10:0.142857 11:-0.115789 12:-0.182254 13:0.320755 14:-0.789474 15:-0.272727 16:-0.707317 17:0.133333 18:0.333333 
1:0.608696 3:0.666667 4:-0.187773 5:-0.692308 6:-0.735849 7:0.0588235 8:-0.542857 9:-0.166667 10:-0.114286 11:-0.168421 12:-0.0959233 13:-0.358491 14:-0.842105 16:-0.658537 17:0.2 18:0.466667 
1:-0.391304 2:-0.384615 3:-0.277778 4:-0.68559 5:-0.758242 6:-0.849057 7:-0.529412 8:0.142857 9:-0.666667 10:-0.485714 11:-0.642105 12:-0.678657 13:-0.132075 14:-0.473684 15:0.727273 16:-0.902439 17:-0.666667 18:-0.733333 
1:-0.304348 2:0.0769231 3:0.194444 4:-0.432314 5:-0.692308 6:-0.773585 7:-0.320261 8:-0.2 9:-0.5 10:-0.0857143 11:-0.378947 12:-0.477218 13:0.0188679 14:-0.657895 15:-0.363636 16:-0.512195 17:-0.266667 18:-0.2 
1:-0.173913 2:-0.692308 3:0.111111 4:-0.336245 5:-0.56044 6:-0.773585 7:-0.45098 8:-0.0285714 9:-0.666667 10:-0.685714 11:-0.473684 12:-0.594724 13:-0.559748 14:-0.736842 15:-0.454545 16:-0.560976 17:-0.0666667 18:-0.0666667 
1:-0.304348 2:-0.846154 3:-0.666667 4:-0.851528 5:-0.78022 6:-0.924528 7:-0.869281 8:0.657143 9:-1 10:-0.8 11:-0.905263 12:-0.913669 13:-0.761006 14:-0.394737 15:-0.545455 16:-0.365854 17:-0.666667 18:-0.8 
1:0.391304 2:0.384615 3:0.805556 4:-0.187773 5:-0.714286 6:-0.660377 7:0.0326797 8:-0.485714 9:-0.166667 10:0.257143 11:-0.189474 12:-0.134293 13:0.0691824 14:-0.868421 15:0.636364 16:-0.804878 17:0.333333 18:0.6 
1:-0.0869565 2:-0.461538 3:0.25 4:-0.283843 5:-0.67033 6:-0.735849 7:-0.254902 8:-0.257143 9:-0.5 10:-0.4 11:-0.431579 12:-0.410072 13:-0.698113 14:-0.947368 15:-0.818182 16:-0.560976 17:0.6 18:0.933333 
1:-0.304348 2:-0.615385 3:0.166667 4:-0.545852 5:-0.736264 6:-0.773585 7:-0.464052 8:-0.0285714 9:-0.666667 10:-0.685714 11:-0.484211 12:-0.59952 13:-0.647799 14:-0.710526 15:-0.909091 16:-0.95122 17:-0.266667 18:-0.266667 
1:0.608696 2:0.615385 3:0.722222 4:-0.152838 5:-0.626374 6:-0.660377 7:0.320261 8:-0.714286 9:0.166667 10:0.514286 11:-0.0315789 12:0.16307 13:0.408805 14:-0.631579 15:0.545455 16:-0.219512 17:-0.2 18:0.133333 
1:0.173913 2:0.615385 3:0.722222 4:-0.10917 5:-0.604396 6:-0.698113 7:0.124183 8:-0.6 10:0.314286 11:-0.0105263 12:-0.0335731 13:0.647799 14:-0.657895 15:-0.636364 16:-0.463415 17:-0.266667 
1:0.391304 2:-0.0769231 3:0.666667 4:-0.20524 5:-0.692308 6:-0.698113 7:0.124183 8:-0.6 10:-0.114286 11:-0.115789 12:-0.0359712 13:-0.0314465 14:-0.789474 15:-0.272727 16:-0.756098 17:0.0666667 18:0.266667 
1:0.0434783 2:-0.384615 3:0.333333 4:-0.30131 5:-0.736264 6:-0.735849 7:-0.176471 8:-0.314286 9:-0.333333 10:-0.371429 11:-0.347368 12:-0.340528 13:-0.522013 14:-0.894737 15:-0.909091 16:-0.756098 17:0.333333 18:0.6 
1:0.391304 2:0.615385 3:0.888889 4:0.135371 5:-0.494505 6:-0.622642 7:0.346405 8:-0.714286 9:0.166667 10:0.428571 11:0.0105263 12:0.206235 13:0.496855 14:-0.763158 15:-0.636364 16:0.0731707 17:-0.133333 18:0.333333 
1:0.26087 2:0.153846 3:0.805556 4:-0.0393013 5:-0.626374 6:-0.698113 7:0.163399 8:-0.6 10:-0.0285714 11:-0.115789 12:-0.00239808 13:-0.132075 14:-0.868421 15:-1 16:0.219512 17:0.0666667 18:0.533333 
1:0.26087 2:0.384615 3:0.777778 4:-0.0131004 5:-0.56044 6:-0.698113 7:0.202614 8:-0.657143 10:0.257143 11:-0.0526316 12:0.0479616 13:0.081761 14:-0.763158 15:-0.727273 16:-0.0731707 17:-0.2 18:0.0666667 
1:0.565217 2:0.461538 3:0.777778 4:-0.170306 5:-0.714286 6:-0.622642 7:0.346405 8:-0.714286 9:0.166667 10:0.257143 11:-0.0526316 12:0.215827 13:0.295597 14:-0.789474 16:-0.658537 17:-0.133333 18:0.2 
1:0.0869565 2:0.153846 3:0.694444 4:-0.135371 5:-0.604396 6:-0.735849 7:0.111111 8:-0.6 10:-0.0285714 11:-0.0947368 12:-0.0407674 13:-0.18239 14:-0.763158 15:-0.818182 16:-0.756098 17:-0.133333 18:0.0666667 
1:-0.130435 2:0.384615 3:0.388889 4:-0.0829694 5:-0.516484 6:-0.773585 7:-0.0718954 8:-0.428571 9:-0.166667 10:0.0857143 11:-0.147368 12:-0.227818 13:0.522013 14:-0.710526 15:-0.454545 16:-0.95122 17:-0.133333 
2:-0.461538 3:0.0555556 4:-0.423581 5:-0.758242 6:-0.811321 7:-0.189542 8:-0.314286 9:-0.333333 10:-0.4 11:-0.294737 12:-0.35012 13:-0.358491 14:-0.763158 15:-0.727273 16:0.414634 18:0.266667 
1:-0.217391 2:-0.769231 3:-0.111111 4:-0.49345 5:-0.714286 6:-0.773585 7:-0.503268 8:0.0285714 9:-0.666667 10:-0.571429 11:-0.621053 12:-0.640288 13:-0.849057 14:-0.894737 15:-0.818182 16:0.0731707 17:0.333333 18:0.6 
1:-0.0434783 2:0.538462 3:0.527778 4:-0.144105 5:-0.604396 6:-0.698113 7:0.0588235 8:-0.542857 9:-0.166667 10:0.2 11:-0.0526316 12:-0.100719 13:0.610063 14:-0.684211 15:-0.727273 16:-0.902439 17:-0.2 
1:-0.217391 2:-0.230769 3:-0.111111 4:-0.668122 5:-0.802198 6:-0.811321 7:-0.51634 8:0.0857143 9:-0.666667 10:-0.371429 11:-0.6 12:-0.657074 13:-0.295597 14:-0.657895 15:0.181818 16:0.121951 17:-0.333333 18:-0.333333 
1:0.826087 2:0.384615 3:0.666667 4:-0.152838 5:-0.714286 6:-0.622642 7:0.0980392 8:-0.542857 10:0.257143 11:-0.189474 12:-0.0671463 13:-0.0566038 14:-0.921053 15:1 16:-0.95122 17:0.466667 18:0.8 
1:0.304348 2:0.538462 3:0.833333 4:-0.406114 5:-0.824176 6:-0.698113 7:0.30719 8:-0.657143 9:0.166667 10:0.428571 11:-0.0526316 12:0.141487 13:0.433962 14:-0.631579 15:0.454545 16:0.170732 17:-0.266667 18:0.0666667 
1:-0.217391 2:-0.769231 3:0.194444 4:-0.49345 5:-0.692308 6:-0.773585 7:-0.607843 8:0.2 9:-0.666667 10:-0.714286 11:-0.652632 12:-0.726619 13:-0.647799 14:-0.894737 15:-1 16:0.512195 17:0.133333 18:0.266667 
2:-0.0769231 3:0.694444 4:-0.152838 5:-0.582418 6:-0.735849 7:0.0457516 8:-0.542857 9:-0.166667 10:-0.285714 11:-0.0736842 12:-0.117506 13:0.081761 14:-0.631579 15:-0.727273 16:-0.0731707 17:-0.133333 18:0.0666667 
1:0.565217 2:0.0769231 3:0.555556 4:-0.10917 5:-0.626374 6:-0.735849 7:0.124183 8:-0.6 10:-0.0857143 11:-0.0631579 12:-0.0359712 13:0.0314465 14:-0.710526 15:-0.636364 16:-0.365854 17:-0.0666667 18:0.133333 
1:0.478261 2:0.615385 3:0.555556 4:-0.152838 5:-0.67033 6:-0.622642 7:0.385621 8:-0.714286 9:0.166667 10:0.485714 11:-0.0421053 12:0.223022 13:0.358491 14:-0.684211 15:-0.818182 16:0.0243902 17:-0.266667 18:0.133333 
1:0.478261 2:0.692308 3:0.75 4:-0.0480349 5:-0.538462 6:-0.660377 7:0.398693 8:-0.771429 9:0.333333 10:0.542857 11:-0.0421053 12:0.258993 13:0.345912 14:-0.710526 15:-0.0909091 16:-0.658537 17:-0.266667 18:0.0666667 
1:-0.26087 2:-0.538462 3:0.25 4:-0.510917 5:-0.736264 6:-0.811321 7:-0.333333 8:-0.142857 9:-0.5 10:-0.628571 11:-0.378947 12:-0.491607 13:-0.383648 14:-0.684211 15:-0.363636 16:-0.365854 17:-0.333333 18:-0.266667 
1:-0.347826 2:-0.0769231 3:0.166667 4:-0.554585 5:-0.802198 6:-0.773585 7:-0.45098 8:-0.0285714 9:-0.666667 10:-0.114286 11:-0.473684 12:-0.585132 13:-0.232704 14:-0.736842 15:-0.727273 16:-1 17:-0.2 18:-0.2 
1:0.304348 2:0.384615 3:0.805556 4:-0.388646 5:-0.802198 6:-0.660377 7:0.281046 8:-0.657143 9:0.166667 10:0.285714 11:-0.0315789 12:0.117506 13:0.421384 14:-0.631579 15:-0.272727 16:-0.560976 17:-0.266667 
1:-0.130435 2:-0.307692 3:0.611111 4:-0.231441 5:-0.648352 6:-0.735849 7:-0.0457516 8:-0.428571 9:-0.166667 10:-0.428571 11:-0.2 12:-0.223022 13:-0.194969 14:-0.710526 15:-0.0909091 16:0.0243902 17:-0.133333 18:0.0666667 
1:-0.391304 2:-0.615385 3:-0.138889 4:-0.834061 5:-0.868132 6:-0.773585 7:-0.673203 8:0.314286 9:-0.833333 10:-0.742857 11:-0.705263 12:-0.776978 13:-0.54717 14:-0.578947 15:-1 16:-0.560976 17:-0.666667 18:-0.666667 
1:-0.173913 3:0.194444 4:-0.563319 5:-0.802198 6:-0.849057 7:-0.372549 8:-0.142857 9:-0.5 10:-0.142857 11:-0.421053 12:-0.52518 13:-0.0566038 14:-0.684211 15:-0.0909091 16:-0.756098 17:-0.333333 18:-0.333333 
1:-0.608696 2:-0.769231 3:-0.694444 4:-0.912664 5:-0.868132 6:-0.924528 7:-0.699346 8:0.371429 9:-0.833333 10:-0.771429 11:-0.789474 12:-0.798561 13:-0.559748 14:-0.289474 15:0.363636 16:-0.804878 17:-0.666667 18:-0.933333 
1:-0.0869565 3:0.0277778 4:-0.432314 5:-0.714286 6:-0.773585 7:-0.398693 8:-0.0857143 9:-0.5 10:-0.142857 11:-0.463158 12:-0.546763 13:-0.0943396 14:-0.789474 15:0.0909091 16:-0.902439 17:0.133333 18:0.2 
1:-0.130435 2:-0.538462 3:0.305556 4:-0.310044 5:-0.626374 6:-0.773585 7:-0.254902 8:-0.2 9:-0.5 10:-0.542857 11:-0.263158 12:-0.429257 13:-0.496855 14:-0.657895 15:-0.363636 16:0.219512 17:-0.2 18:-0.0666667 
1:0.434783 2:0.615385 3:0.694444 4:0.0305677 5:-0.56044 6:-0.622642 7:0.437908 8:-0.771429 9:0.333333 10:0.571429 11:0.0315789 12:0.28777 13:0.144654 14:-0.710526 15:-0.727273 16:-0.804878 17:-0.266667 18:0.333333 
1:-0.434783 2:-0.769231 3:0.0555556 4:-0.633188 5:-0.758242 6:-0.811321 7:-0.699346 8:0.371429 9:-0.833333 10:-0.828571 11:-0.736842 12:-0.793765 13:-0.509434 14:-0.815789 15:-1 16:0.219512 17:-0.0666667 18:-0.0666667 
1:-0.478261 2:-0.153846 3:-0.166667 4:-0.117904 5:0.230769 6:0.886792 7:-0.51634 8:0.0857143 9:-0.666667 10:-0.257143 11:0.168421 12:-0.661871 13:-0.00628931 14:0.789474 15:-0.181818 16:-0.463415 17:-0.733333 18:-0.866667 
1:0.0434783 2:-0.230769 3:-0.0833333 4:-0.39738 5:-0.604396 6:-0.849057 7:-0.464052 8:-0.0857143 9:-0.666667 10:-0.285714 11:-0.515789 12:-0.57554 13:-0.207547 14:-0.815789 15:0.181818 16:-0.95122 17:0.6 18:0.533333 
1:-0.347826 3:-0.0555556 4:-0.414847 5:-0.538462 6:-0.849057 7:-0.477124 8:-0.0285714 9:-0.666667 10:-0.142857 11:-0.473684 12:-0.604317 13:0.0440252 14:-0.684211 15:-0.545455 16:-0.463415 17:-0.133333 18:-0.0666667 
1:-0.391304 2:-0.538462 3:-0.166667 4:-0.615721 5:-0.692308 6:-0.811321 7:-0.594771 8:0.142857 9:-0.833333 10:-0.485714 11:-0.642105 12:-0.705036 13:-0.597484 14:-0.736842 15:-0.909091 16:-0.902439 17:0.0666667 18:0.2 
1:0.217391 2:0.769231 3:0.777778 4:-0.292576 5:-0.868132 6:-0.849057 7:0.895425 8:-1 9:0.833333 10:0.428571 11:0.526316 12:0.851319 13:0.522013 14:-0.368421 15:-0.545455 16:0.268293 17:-0.733333 18:-0.8 
1:0.347826 2:0.461538 3:0.5 4:-0.0917031 5:-0.582418 6:-0.886792 7:0.254902 8:-0.714286 9:0.166667 10:0.228571 11:0.0210526 12:0.155875 13:0.371069 14:-0.552632 16:-0.804878 17:0.133333 18:-0.333333 
1:-0.304348 2:-0.153846 3:-0.222222 4:-0.921397 5:-0.934066 6:-0.811321 7:-0.503268 8:0.0857143 9:-0.666667 10:-0.171429 11:-0.568421 12:-0.654676 13:0.00628931 14:-0.236842 15:-0.454545 16:-0.756098 17:-0.8 18:-0.933333 
1:-0.521739 2:-0.0769231 3:-0.277778 4:-0.563319 5:-0.604396 6:-0.849057 7:-0.568627 8:0.142857 9:-0.666667 10:-0.257143 11:-0.6 12:-0.693046 13:-0.144654 14:-0.631579 15:-0.818182 16:-0.853659 17:-0.466667 18:-0.533333 
1:-0.608696 2:-0.0769231 3:-0.277778 4:0.292576 5:0.736264 6:0.886792 7:-0.529412 8:0.0857143 9:-0.666667 10:-0.257143 11:0.126316 12:-0.659472 13:-0.0440252 14:0.578947 15:-0.909091 16:-0.95122 17:-0.666667 18:-0.733333 
1:-0.130435 2:0.230769 3:0.0833333 4:-0.336245 5:-0.604396 6:-0.811321 7:-0.202614 8:-0.371429 9:-0.333333 10:0.142857 11:-0.378947 12:-0.330935 13:0.0691824 14:-0.710526 15:-0.545455 16:-0.512195 17:0.4 18:0.4 
1:-0.478261 2:-0.384615 3:-0.277778 4:-0.554585 5:-0.604396 6:-0.245283 7:-0.51634 8:0.0857143 9:-0.666667 10:-0.4 11:-0.547368 12:-0.64988 13:-0.421384 14:-0.578947 15:-0.454545 16:-0.219512 17:-0.466667 18:-0.333333 
1:0.173913 2:0.153846 3:0.527778 4:-0.0829694 5:-0.538462 6:-0.811321 7:0.137255 8:-0.657143 10:-0.0857143 11:-0.0947368 12:0.00959233 13:0.144654 14:-0.631579 15:-0.363636 16:-0.463415 17:0.0666667 18:-0.133333 
1:-0.217391 2:-0.461538 4:-0.414847 5:-0.56044 6:-0.811321 7:-0.51634 8:0.0285714 9:-0.666667 10:-0.514286 11:-0.589474 12:-0.645084 13:-0.559748 14:-0.763158 15:-0.636364 16:-0.170732 17:0.0666667 18:0.266667 
1:-0.0869565 2:-0.153846 3:0.222222 4:-0.0218341 5:-0.406593 6:-0.849057 7:-0.0588235 8:-0.485714 9:-0.166667 10:-0.228571 11:-0.178947 12:-0.182254 13:-0.433962 14:-0.631579 15:-0.636364 16:0.0731707 17:0.333333 18:0.0666667 
2:0.230769 3:0.611111 4:-0.275109 5:-0.736264 6:-0.849057 7:0.320261 8:-0.714286 9:0.166667 10:-0.0285714 11:0.0315789 12:0.189448 13:0.27044 14:-0.526316 15:-0.272727 16:0.365854 17:-0.2 18:-0.466667 
1:-0.304348 2:-0.153846 3:-0.111111 4:-0.510917 5:-0.582418 6:-0.811321 7:-0.581699 8:0.142857 9:-0.666667 10:-0.171429 11:-0.621053 12:-0.693046 13:-0.245283 14:-0.736842 16:-0.95122 18:0.133333 
1:-0.130435 2:-0.692308 3:-0.0833333 4:-0.388646 5:-0.538462 6:-0.811321 7:-0.490196 8:-0.0285714 9:-0.666667 10:-0.628571 11:-0.526316 12:-0.609113 13:-0.672956 14:-0.763158 15:-0.909091 16:0.0731707 17:0.333333 18:0.6 
1:-0.565217 2:-0.153846 3:-0.222222 4:-0.650655 5:-0.692308 6:-0.773585 7:-0.542484 8:0.0857143 9:-0.666667 10:-0.285714 11:-0.578947 12:-0.661871 13:-0.106918 14:-0.605263 15:-0.909091 16:-0.95122 17:-0.4 18:-0.333333 
1:0.173913 2:0.307692 3:0.138889 4:-0.187773 5:-0.56044 6:-0.849057 7:-0.0326797 8:-0.542857 9:-0.166667 10:0.142857 11:-0.2 12:-0.167866 13:0.119497 14:-0.605263 15:-0.454545 16:-0.95122 17:0.4 18:0.133333 
2:-0.692308 3:-0.0555556 4:-0.170306 5:-0.406593 6:-0.886792 7:-0.30719 8:-0.257143 9:-0.5 10:-0.714286 11:-0.389474 12:-0.436451 13:-0.660377 14:-0.657895 15:-0.909091 16:-0.853659 17:0.333333 18:0.266667 
1:-0.478261 2:-0.307692 3:-0.472222 4:-0.755459 5:-0.758242 6:-0.811321 7:-0.51634 8:0.142857 9:-0.666667 10:-0.257143 11:-0.621053 12:-0.673861 13:-0.207547 14:-0.368421 15:-0.272727 16:-0.804878 17:-0.8 18:-0.933333 
1:-0.565217 3:-0.0833333 4:-0.71179 5:-0.736264 6:-0.849057 7:-0.529412 8:0.0857143 9:-0.666667 10:-0.2 11:-0.610526 12:-0.657074 13:-0.0691824 14:-0.578947 15:-0.272727 16:-1 17:-0.4 18:-0.333333 
1:-0.434783 3:-0.0833333 4:-0.816594 5:-0.78022 6:-0.849057 7:-0.490196 8:0.0857143 9:-0.666667 10:-0.171429 11:-0.578947 12:-0.640288 13:-0.00628931 14:-0.394737 15:-0.181818 16:-0.463415 17:-0.733333 18:-0.8 
1:-0.26087 2:-0.615385 3:-0.0277778 4:-0.475983 5:-0.626374 6:-0.811321 7:-0.490196 8:-0.0285714 9:-0.666667 10:-0.628571 11:-0.6 12:-0.613909 13:-0.622642 14:-0.815789 15:-1 16:-1 17:0.266667 18:0.533333 
1:-0.434783 2:-0.0769231 3:-0.0833333 4:-0.580786 5:-0.648352 6:-0.849057 7:-0.51634 8:0.0285714 9:-0.666667 10:-0.228571 11:-0.578947 12:-0.63789 13:-0.157233 14:-0.684211 15:-0.454545 16:-0.95122 17:-0.133333 
1:-0.608696 2:-0.384615 3:-0.166667 4:-0.554585 5:-0.626374 6:-0.811321 7:-0.529412 8:0.0857143 9:-0.666667 10:-0.428571 11:-0.557895 12:-0.654676 13:-0.459119 14:-0.657895 15:-0.545455 16:-0.170732 17:-0.266667 18:-0.0666667 
1:-0.26087 2:-0.307692 3:-0.361111 4:-0.80786 5:-0.824176 6:-0.811321 7:-0.477124 8:0.0857143 9:-0.666667 10:-0.314286 11:-0.547368 12:-0.635492 13:-0.194969 14:-0.421053 15:-1 16:-0.268293 17:-0.733333 18:-0.8 
1:0.73913 2:0.846154 3:0.916667 4:-0.213974 5:-0.802198 6:-0.849057 7:0.934641 8:-1 9:0.833333 10:0.628571 11:0.663158 12:0.913669 13:0.91195 14:-0.315789 16:0.0243902 17:-0.6 18:-0.866667 
1:-0.434783 2:-0.307692 3:-0.305556 4:-0.816594 5:-0.846154 6:-0.811321 7:-0.503268 8:0.0857143 9:-0.666667 10:-0.371429 11:-0.568421 12:-0.657074 13:-0.207547 14:-0.315789 15:-0.818182 16:-0.609756 17:-0.733333 18:-0.933333 
1:0.478261 2:0.846154 3:0.722222 4:-0.30131 5:-0.824176 6:-0.811321 7:0.594771 8:-0.885714 9:0.5 10:0.514286 11:0.189474 12:0.529976 13:0.509434 14:-0.526316 15:-0.363636 16:-0.463415 17:-0.266667 18:-0.6 
1:-0.304348 2:-0.461538 3:-0.111111 4:-0.554585 5:-0.648352 6:-0.811321 7:-0.555556 8:0.0857143 9:-0.666667 10:-0.514286 11:-0.526316 12:-0.671463 13:-0.54717 14:-0.657895 15:-0.636364 16:-0.512195 17:0.0666667 
1:-0.217391 2:-0.0769231 4:-0.414847 5:-0.516484 6:-0.811321 7:-0.503268 8:0.0285714 9:-0.666667 10:-0.257143 11:-0.578947 12:-0.625899 13:-0.119497 14:-0.736842 15:0.0909091 16:-0.95122 17:0.266667 18:0.333333 
1:-0.521739 2:-0.0769231 3:-0.222222 4:-0.615721 5:-0.626374 6:-0.849057 7:-0.555556 8:0.142857 9:-0.666667 10:-0.314286 11:-0.6 12:-0.681055 13:-0.106918 14:-0.578947 15:-0.545455 16:-0.95122 17:-0.533333 18:-0.6 
1:-0.304348 2:-0.384615 3:-0.0277778 4:-0.49345 5:-0.582418 6:-0.886792 7:-0.464052 8:-0.0285714 9:-0.666667 10:-0.485714 11:-0.526316 12:-0.597122 13:-0.433962 14:-0.657895 15:-0.818182 16:-1 17:-0.2 18:-0.0666667 
1:-0.304348 2:-0.153846 3:-0.166667 4:-0.528384 5:-0.626374 6:-0.849057 7:-0.620915 8:0.2 9:-0.833333 10:-0.285714 11:-0.642105 12:-0.724221 13:-0.194969 14:-0.815789 15:-0.181818 16:-0.463415 17:0.133333 18:0.2 
1:-0.478261 2:-0.307692 3:-0.166667 4:-0.772926 5:-0.802198 6:-0.811321 7:-0.503268 8:0.0857143 9:-0.666667 10:-0.228571 11:-0.505263 12:-0.654676 13:-0.207547 14:-0.394737 15:-0.0909091 16:-0.317073 17:-0.666667 18:-0.733333 
1:-0.0434783 2:-0.230769 3:-0.138889 4:-0.519651 5:-0.626374 6:-0.849057 7:-0.568627 8:0.0857143 9:-0.666667 10:-0.342857 11:-0.589474 12:-0.669065 13:-0.220126 14:-0.789474 15:-0.272727 16:-0.804878 17:0.266667 18:0.266667 
1:0.434783 2:0.615385 3:0.805556 4:-0.475983 5:-0.978022 6:-0.886792 7:0.764706 8:-0.942857 9:0.666667 10:0.342857 11:0.463158 12:0.695444 13:0.685535 14:-0.342105 15:0.0909091 16:-0.95122 17:-0.666667 18:-0.933333 
1:0.478261 2:0.692308 3:0.75 4:-0.449782 5:-0.956044 6:-0.811321 7:0.830065 8:-0.942857 9:0.833333 10:0.542857 11:0.463158 12:0.726619 13:0.63522 14:-0.368421 15:-0.545455 16:0.463415 17:-0.8 18:-0.666667 
1:-0.347826 2:-0.153846 3:-0.166667 4:-0.58952 5:-0.692308 6:-0.773585 7:-0.594771 8:0.142857 9:-0.833333 10:-0.285714 11:-0.652632 12:-0.695444 13:-0.194969 14:-0.763158 15:-0.363636 16:-0.609756 17:0.333333 18:0.466667 
1:0.0869565 2:-0.846154 3:-0.166667 4:-0.318777 5:-0.538462 6:-0.886792 7:-0.437908 8:-0.142857 9:-0.666667 10:-0.828571 11:-0.431579 12:-0.551559 13:-0.899371 14:-0.684211 15:-0.727273 16:0.0731707 17:0.733333 18:0.6 
1:0.173913 2:0.384615 3:0.361111 4:-0.170306 5:-0.604396 6:-0.849057 7:0.163399 8:-0.657143 10:0.171429 11:-0.0631579 12:0.0503597 13:0.207547 14:-0.605263 15:-0.454545 16:-0.658537 17:0.133333 18:-0.2 
1:-0.391304 2:-0.307692 3:-0.444444 4:-0.895197 5:-0.912088 6:-0.849057 7:-0.503268 8:0.142857 9:-0.666667 10:-0.342857 11:-0.589474 12:-0.664269 13:-0.220126 14:-0.315789 15:-0.818182 16:-0.317073 17:-0.866667 18:-0.933333 
1:0.0869565 2:0.384615 3:0.222222 4:-0.100437 5:-0.450549 6:-0.811321 7:-0.0588235 8:-0.485714 9:-0.333333 10:0.228571 11:-0.273684 12:-0.194245 13:0.119497 14:-0.657895 15:-0.181818 16:-0.463415 17:0.333333 18:0.2 
1:-0.0434783 2:-0.230769 3:0.194444 4:-0.179039 5:-0.516484 6:-0.849057 7:-0.150327 8:-0.428571 9:-0.333333 10:-0.4 11:-0.378947 12:-0.280576 13:-0.320755 14:-0.763158 15:-0.454545 16:-0.804878 17:0.333333 18:0.133333 
1:0.0434783 2:0.0769231 3:0.333333 4:-0.310044 5:-0.714286 6:-0.811321 7:0.111111 8:-0.6 10:-0.142857 11:-0.115789 12:-0.0119904 13:0.157233 14:-0.605263 15:-0.272727 16:-1 17:0.0666667 18:-0.333333 
3:-0.166667 4:-0.213974 5:-0.494505 6:-0.849057 7:-0.281046 8:-0.257143 9:-0.5 10:-0.142857 11:-0.442105 12:-0.417266 13:-0.220126 14:-0.736842 15:0.545455 16:-0.512195 17:0.6 18:0.466667 
1:0.130435 2:-0.615385 3:-0.0555556 4:-0.30131 5:-0.582418 6:-0.849057 7:-0.320261 8:-0.257143 9:-0.5 10:-0.628571 11:-0.336842 12:-0.448441 13:-0.647799 14:-0.684211 15:-0.818182 16:0.0731707 17:0.6 18:0.4 
1:-0.478261 2:-0.307692 3:-0.277778 4:-0.860262 5:-0.868132 6:-0.811321 7:-0.51634 8:0.142857 9:-0.666667 10:-0.285714 11:-0.589474 12:-0.671463 13:-0.358491 14:-0.315789 15:-0.0909091 16:-0.658537 17:-0.733333 18:-0.933333 
1:-0.434783 2:-0.0769231 3:-0.138889 4:-0.423581 5:-0.494505 6:-0.849057 7:-0.555556 8:0.0857143 9:-0.666667 10:-0.2 11:-0.557895 12:-0.671463 13:0.00628931 14:-0.684211 15:-0.0909091 16:-0.609756 17:-0.266667 18:-0.333333 
1:-0.565217 2:-0.307692 3:-0.138889 4:-0.580786 5:-0.626374 6:-0.811321 7:-0.51634 8:0.0857143 9:-0.666667 10:-0.314286 11:-0.557895 12:-0.647482 13:-0.383648 14:-0.605263 15:-0.818182 16:-0.902439 17:-0.466667 18:-0.4 
1:0.26087 2:0.615385 3:0.611111 4:-0.152838 5:-0.692308 6:-0.849057 7:0.477124 8:-0.828571 9:0.333333 10:0.342857 11:0.221053 12:0.395683 13:0.534591 14:-0.473684 15:-0.181818 16:-0.317073 17:-0.2 18:-0.6 
1:0.391304 2:0.384615 3:0.472222 4:-0.510917 5:-0.912088 6:-0.811321 7:0.372549 8:-0.771429 9:0.166667 10:0.342857 11:0.157895 12:0.244604 13:0.245283 14:-0.421053 15:-0.181818 16:0.219512 17:-0.2 18:-0.533333 
1:0.173913 2:0.307692 3:0.611111 4:-0.126638 5:-0.648352 6:-0.849057 7:0.385621 8:-0.771429 9:0.166667 10:0.0857143 11:0.0736842 12:0.282974 13:0.308176 14:-0.526316 15:-0.272727 16:-0.658537 17:-0.133333 18:-0.466667 
1:-0.347826 2:-0.538462 3:-0.166667 4:-0.458515 5:-0.582418 6:-0.811321 7:-0.529412 8:0.0285714 9:-0.666667 10:-0.542857 11:-0.610526 12:-0.645084 13:-0.572327 14:-0.736842 15:-0.545455 16:-0.365854 17:0.133333 18:0.333333 
1:0.0434783 2:-0.615385 3:-0.0277778 4:-0.266376 5:-0.538462 6:-0.849057 7:-0.228758 8:-0.371429 9:-0.5 10:-0.685714 11:-0.273684 12:-0.36211 13:-0.647799 14:-0.605263 15:-0.818182 16:-0.707317 17:0.4 18:0.2 
1:0.0869565 3:0.333333 4:-0.240175 5:-0.648352 6:-0.849057 7:0.0457516 8:-0.542857 9:-0.166667 10:-0.171429 11:-0.105263 12:-0.0911271 13:-0.18239 14:-0.631579 15:-0.818182 16:0.268293 17:0.2 18:0.0666667 
1:-0.391304 2:-0.384615 4:-0.467249 5:-0.56044 6:-0.811321 7:-0.529412 8:0.0857143 9:-0.666667 10:-0.371429 11:-0.568421 12:-0.657074 13:-0.459119 14:-0.657895 15:-0.363636 16:-0.365854 17:-0.2 18:-0.0666667 
1:-0.130435 2:0.0769231 3:0.222222 4:-0.117904 5:-0.472527 6:-0.811321 7:-0.163399 8:-0.428571 9:-0.333333 10:-0.0285714 11:-0.368421 12:-0.29976 13:0.157233 14:-0.710526 15:-0.363636 16:-0.0731707 17:0.466667 18:0.333333 
1:-0.652174 2:-0.0769231 3:-0.222222 4:-0.563319 5:-0.516484 6:-0.245283 7:-0.490196 8:0.0857143 9:-0.666667 10:-0.171429 11:-0.410526 12:-0.63789 13:-0.0314465 14:-0.236842 15:-0.909091 16:-0.512195 17:-0.733333 18:-0.733333 
1:0.0434783 2:-0.692308 3:-0.166667 4:-0.39738 5:-0.582418 6:-0.811321 7:-0.490196 8:-0.0285714 9:-0.666667 10:-0.685714 11:-0.610526 12:-0.611511 13:-0.874214 14:-0.842105 15:-1 16:-0.219512 17:0.666667 18:0.8 
2:0.692308 3:0.75 4:-0.152838 5:-0.604396 6:-0.735849 7:0.202614 8:-0.657143 10:0.371429 11:0.0210526 12:0.0551559 13:0.72327 14:-0.605263 15:-0.454545 16:-0.902439 17:-0.333333 18:-0.133333 
1:0.217391 2:0.769231 3:0.666667 4:-0.0305677 5:-0.516484 6:-0.698113 7:0.254902 8:-0.657143 9:0.166667 10:0.457143 11:0.0210526 12:0.119904 13:0.433962 14:-0.605263 15:-0.454545 16:-0.756098 17:-0.333333 18:-0.2 
1:-0.130435 2:-0.846154 3:-0.277778 4:-0.563319 5:-0.736264 6:-0.849057 7:-0.607843 8:0.142857 9:-0.833333 10:-0.714286 11:-0.663158 12:-0.71223 13:-0.861635 14:-0.868421 15:-0.545455 16:-0.365854 17:0.4 18:0.4 
1:0.217391 2:0.153846 3:0.861111 4:0.0305677 5:-0.538462 6:-0.698113 7:0.254902 8:-0.657143 9:0.166667 10:0.0285714 11:0.0736842 12:0.0959233 13:0.194969 14:-0.710526 15:-0.545455 16:0.853659 17:-0.0666667 18:0.4 
1:-0.391304 2:-0.615385 3:0.25 4:-0.362445 5:-0.692308 6:-0.773585 7:-0.320261 8:-0.2 9:-0.5 10:-0.685714 11:-0.410526 12:-0.477218 13:-0.735849 14:-0.894737 15:-0.909091 16:0.219512 17:0.466667 18:0.6 
1:0.0869565 2:0.692308 3:0.694444 4:0.0829694 5:-0.494505 6:-0.735849 7:0.281046 8:-0.714286 9:0.166667 10:0.428571 11:0.115789 12:0.143885 13:0.710692 14:-0.657895 15:-0.909091 16:-0.707317 17:-0.2 18:0.0666667 
1:0.478261 2:0.538462 3:0.75 4:0.0218341 5:-0.582418 6:-0.660377 7:0.267974 8:-0.657143 9:0.166667 10:0.285714 11:-0.0315789 12:0.1247 13:0.295597 14:-0.815789 15:-1 16:-0.95122 18:0.333333 
1:-0.826087 2:-0.615385 3:-0.361111 4:-0.729258 5:-0.736264 6:-0.886792 7:-0.764706 8:0.485714 9:-0.833333 10:-0.657143 11:-0.842105 12:-0.848921 13:-0.622642 14:-0.473684 15:0.181818 16:0.0243902 17:-0.533333 18:-0.6 
1:-0.304348 2:-0.384615 3:-0.0277778 4:-0.659389 5:-0.802198 6:-0.811321 7:-0.555556 8:0.142857 9:-0.666667 10:-0.457143 11:-0.578947 12:-0.681055 13:-0.408805 14:-0.552632 15:0.636364 16:-0.756098 17:-0.466667 18:-0.533333 
1:0.0869565 2:0.692308 3:0.694444 4:0.00436681 5:-0.516484 6:-0.660377 7:0.477124 8:-0.771429 9:0.333333 10:0.714286 11:0.0631579 12:0.352518 13:0.345912 14:-0.605263 15:-0.454545 16:-0.317073 17:-0.266667 18:-0.0666667 
2:0.692308 3:0.611111 4:-0.502183 5:-0.846154 6:-0.698113 7:0.346405 8:-0.714286 9:0.166667 10:0.628571 11:0.0105263 12:0.196643 13:0.408805 14:-0.552632 15:-0.727273 16:-0.707317 17:-0.4 18:-0.2 
1:-0.173913 2:-0.538462 3:0.416667 4:-0.240175 5:-0.67033 6:-0.773585 7:-0.163399 8:-0.371429 9:-0.333333 10:-0.457143 11:-0.305263 12:-0.323741 13:-0.471698 14:-0.789474 15:-0.727273 16:0.121951 17:0.0666667 18:0.266667 
1:0.217391 2:0.538462 3:0.75 4:-0.135371 5:-0.648352 6:-0.735849 7:0.0849673 8:-0.542857 9:-0.166667 10:0.257143 11:-0.157895 12:-0.0719424 13:0.27044 14:-0.763158 15:-0.545455 16:-0.756098 18:0.133333 
1:-0.0869565 2:-0.615385 3:0.222222 4:-0.528384 5:-0.824176 6:-0.735849 7:-0.254902 8:-0.257143 9:-0.5 10:-0.657143 11:-0.305263 12:-0.410072 13:-0.421384 14:-0.736842 15:-0.181818 16:-0.268293 17:-0.0666667 18:-0.0666667 
1:-0.0434783 3:0.805556 4:0.00436681 5:-0.538462 6:-0.735849 7:0.163399 8:-0.6 10:-0.142857 11:-0.0210526 12:0.00239808 13:0.157233 14:-0.736842 15:-0.545455 16:0.853659 18:0.4 
1:0.130435 3:0.805556 4:-0.0829694 5:-0.626374 6:-0.660377 7:0.111111 8:-0.542857 10:-0.0285714 11:-0.136842 12:-0.0623501 13:-0.371069 14:-0.842105 15:-1 16:0.609756 17:0.2 18:0.6 
1:-0.478261 2:-0.538462 3:0.0277778 4:-0.58952 5:-0.736264 6:-0.773585 7:-0.503268 8:0.0857143 9:-0.666667 10:-0.542857 11:-0.515789 12:-0.647482 13:-0.698113 14:-0.631579 15:-1 16:-0.219512 17:-0.466667 18:-0.2 
1:-0.347826 2:-0.846154 3:-0.722222 4:-0.851528 5:-0.758242 6:-0.886792 7:-0.973856 8:0.885714 9:-1 10:-0.885714 11:-0.978947 12:-0.980815 13:-0.63522 14:-0.605263 15:0.909091 16:-0.804878 17:-0.6 18:-0.6 
1:0.173913 2:-0.0769231 3:0.666667 4:-0.0829694 5:-0.604396 6:-0.773585 7:0.163399 8:-0.657143 10:-0.171429 11:0.0631579 12:0.0239808 13:0.00628931 14:-0.657895 15:-0.545455 16:-0.756098 17:-0.133333 18:-0.0666667 
1:0.26087 2:0.615385 3:0.666667 4:-0.484716 5:-0.868132 6:-0.698113 7:0.320261 8:-0.714286 9:0.166667 10:0.571429 11:-0.0631579 12:0.16307 13:0.157233 14:-0.552632 15:0.0909091 16:0.317073 17:-0.266667 18:-0.0666667 
1:-0.0434783 2:-0.0769231 3:0.111111 4:-0.283843 5:-0.67033 6:-0.811321 7:-0.320261 8:-0.2 9:-0.5 10:-0.228571 11:-0.389474 12:-0.467626 13:-0.132075 14:-0.842105 16:-0.121951 17:0.533333 18:0.533333 
1:-0.130435 2:-0.846154 3:-0.111111 4:-0.406114 5:-0.67033 6:-0.811321 7:-0.51634 8:0.0285714 9:-0.666667 10:-0.828571 11:-0.589474 12:-0.640288 13:-0.798742 14:-0.921053 15:-0.545455 16:0.463415 17:0.8 18:0.933333 
1:-0.478261 2:-0.769231 3:0.0555556 4:-0.606987 5:-0.824176 6:-0.811321 7:-0.542484 8:0.0857143 9:-0.666667 10:-0.714286 11:-0.6 12:-0.671463 13:-0.685535 14:-0.868421 15:-0.0909091 16:0.170732 17:0.4 18:0.466667 
1:-0.217391 2:-0.0769231 3:-0.0277778 4:-0.563319 5:-0.78022 6:-0.849057 7:-0.503268 8:0.0285714 9:-0.666667 10:-0.2 11:-0.578947 12:-0.63789 13:-0.106918 14:-0.815789 15:0.454545 16:-0.902439 17:0.133333 18:0.133333 
1:-0.608696 2:-0.615385 3:-0.638889 4:-0.816594 5:-0.736264 6:-0.886792 7:-0.72549 8:0.428571 9:-0.833333 10:-0.714286 11:-0.768421 12:-0.820144 13:-0.534591 14:-0.263158 15:-1 16:-1 17:-0.933333 18:-0.866667 
1:0.478261 2:0.461538 3:0.694444 4:-0.00436681 5:-0.626374 6:-0.660377 7:0.176471 8:-0.6 10:0.314286 11:-0.0631579 12:0.0215827 13:0.0440252 14:-0.842105 15:0.545455 16:-0.902439 17:0.4 18:0.666667 
1:0.521739 2:0.384615 3:0.75 4:-0.187773 5:-0.714286 6:-0.660377 7:0.294118 8:-0.714286 9:0.166667 10:0.2 11:-0.0315789 12:0.143885 13:-0.0188679 14:-0.789474 15:-0.363636 16:-0.853659 17:-0.0666667 18:0.266667 
1:-0.521739 2:-0.538462 3:0.388889 4:-0.336245 5:-0.714286 6:-0.811321 7:-0.150327 8:-0.371429 9:-0.333333 10:-0.628571 11:-0.168421 12:-0.316547 13:-0.54717 14:-0.684211 15:-0.636364 16:0.853659 17:-0.0666667 18:0.133333 
1:0.0869565 2:-0.0769231 4:-0.458515 5:-0.714286 6:-0.811321 7:-0.411765 8:-0.0857143 9:-0.5 10:-0.142857 11:-0.431579 12:-0.551559 13:-0.0314465 14:-0.736842 15:0.181818 16:-0.512195 17:-0.0666667 
1:0.217391 2:0.384615 3:0.805556 4:-0.0567686 5:-0.538462 6:-0.698113 7:0.267974 8:-0.657143 9:0.166667 10:0.257143 11:-0.0315789 12:0.1247 13:0.446541 14:-0.631579 15:-0.545455 16:0.121951 17:-0.333333 18:-0.0666667 
1:-0.26087 2:-0.769231 3:0.0555556 4:-0.344978 5:-0.626374 6:-0.773585 7:-0.411765 8:-0.0857143 9:-0.666667 10:-0.771429 11:-0.452632 12:-0.561151 13:-0.584906 14:-0.815789 15:-0.909091 16:-0.0243902 17:0.0666667 18:0.133333 
1:0.652174 2:0.615385 3:0.75 4:-0.414847 5:-0.934066 6:-0.660377 7:0.424837 8:-0.771429 9:0.333333 10:0.542857 11:0.0210526 12:0.302158 13:0.157233 14:-0.736842 15:0.363636 16:-0.707317 17:-0.0666667 18:0.133333 
1:-0.173913 3:0.0833333 4:-0.371179 5:-0.626374 6:-0.773585 7:-0.346405 8:-0.142857 9:-0.5 10:-0.114286 11:-0.442105 12:-0.491607 13:-0.132075 14:-0.789474 15:-0.818182 16:-0.512195 18:0.133333 
1:-0.0869565 2:-0.538462 3:0.361111 4:-0.213974 5:-0.67033 6:-0.735849 7:-0.215686 8:-0.314286 9:-0.333333 10:-0.514286 11:-0.357895 12:-0.376499 13:-0.849057 14:-0.894737 15:-0.636364 16:0.121951 17:0.666667 18:0.866667 
1:-0.304348 2:-0.769231 3:-0.111111 4:-0.676856 5:-0.802198 6:-0.811321 7:-0.660131 8:0.257143 9:-0.833333 10:-0.771429 11:-0.652632 12:-0.755396 13:-0.735849 14:-0.657895 15:-0.909091 16:-0.95122 17:-0.266667 18:-0.266667 
1:-0.26087 2:-0.538462 3:0.277778 4:-0.432314 5:-0.67033 6:-0.811321 7:-0.346405 8:-0.142857 9:-0.5 10:-0.628571 11:-0.326316 12:-0.510791 13:-0.522013 14:-0.605263 15:-0.909091 16:0.0731707 17:-0.4 18:-0.333333 
1:0.347826 2:0.846154 3:0.75 4:-0.0218341 5:-0.516484 6:-0.660377 7:0.398693 8:-0.771429 9:0.333333 10:0.657143 11:0.0315789 12:0.256595 13:0.383648 14:-0.631579 15:-0.636364 16:-0.853659 17:-0.333333 
1:-0.304348 2:-0.769231 3:0.0277778 4:-0.406114 5:-0.67033 6:-0.773585 7:-0.411765 8:-0.0857143 9:-0.666667 10:-0.8 11:-0.536842 12:-0.561151 13:-0.786164 14:-0.894737 15:-0.545455 16:0.0731707 17:0.466667 18:0.6 
1:-0.130435 2:-0.0769231 3:-0.0833333 4:-0.475983 5:-0.736264 6:-0.811321 7:-0.385621 8:-0.0857143 9:-0.5 10:-0.2 11:-0.452632 12:-0.532374 13:-0.00628931 14:-0.842105 16:-0.268293 17:0.266667 18:0.333333 
1:0.304348 2:0.692308 3:0.75 4:-0.0655022 5:-0.604396 6:-0.660377 7:0.30719 8:-0.714286 9:0.166667 10:0.342857 11:0.0421053 12:0.172662 13:0.761006 14:-0.657895 15:-0.545455 16:-0.219512 17:-0.2 
1:-0.173913 2:-0.230769 3:-0.194444 4:-0.528384 5:-0.802198 6:-0.811321 7:-0.51634 8:0.0285714 9:-0.666667 10:-0.285714 11:-0.578947 12:-0.642686 13:-0.257862 14:-0.894737 15:0.272727 16:-0.121951 17:0.466667 18:0.466667 
1:-0.434783 2:-0.384615 3:-0.277778 4:-0.781659 5:-0.824176 6:-0.811321 7:-0.699346 8:0.371429 9:-0.833333 10:-0.485714 11:-0.747368 12:-0.803357 13:-0.295597 14:-0.605263 15:-0.727273 16:-0.804878 17:-0.733333 18:-0.6 
2:0.0769231 3:0.75 4:-0.0305677 5:-0.516484 6:-0.698113 7:0.150327 8:-0.6 10:-0.171429 11:-0.0526316 12:-0.00719424 13:0.144654 14:-0.631579 15:-0.454545 16:-0.707317 17:-0.266667 18:-0.133333 
1:-0.130435 2:-0.230769 3:0.0555556 4:-0.458515 5:-0.736264 6:-0.811321 7:-0.490196 8:0.0285714 9:-0.666667 10:-0.342857 11:-0.452632 12:-0.621103 13:-0.18239 14:-0.763158 15:0.363636 16:-0.902439 17:0.133333 18:0.0666667 
2:0.461538 3:0.777778 4:0.0305677 5:-0.56044 6:-0.735849 7:0.124183 8:-0.6 10:0.285714 11:-0.0842105 12:-0.028777 13:0.471698 14:-0.789474 15:0.0909091 16:-0.0243902 17:0.0666667 18:0.333333 
1:0.434783 2:0.230769 3:0.555556 4:-0.152838 5:-0.692308 6:-0.698113 7:-0.0980392 8:-0.428571 9:-0.333333 10:0.142857 11:-0.294737 12:-0.256595 13:-0.106918 14:-0.921053 15:0.727273 16:-0.268293 17:0.733333 18:0.866667 
1:-0.304348 2:-0.153846 3:0.166667 4:-0.720524 5:-0.846154 6:-0.849057 7:-0.51634 8:0.0857143 9:-0.666667 10:-0.257143 11:-0.578947 12:-0.645084 13:-0.257862 14:-0.763158 15:-0.0909091 16:-0.317073 17:-0.2 18:-0.2 
1:0.347826 2:0.461538 3:0.555556 4:-0.266376 5:-0.736264 6:-0.735849 7:-0.00653595 8:-0.485714 9:-0.166667 10:0.228571 11:-0.2 12:-0.170264 13:0.207547 14:-0.789474 16:-0.609756 17:0.133333 18:0.266667 
1:-0.434783 2:-0.461538 3:-0.0277778 4:-0.633188 5:-0.67033 6:-0.849057 7:-0.633987 8:0.257143 9:-0.833333 10:-0.514286 11:-0.705263 12:-0.745803 13:-0.333333 14:-0.657895 15:-0.727273 16:0.0243902 17:-0.533333 18:-0.4 
1:-0.347826 2:-0.153846 3:0.0277778 4:-0.449782 5:-0.736264 6:-0.849057 7:-0.490196 8:0.0285714 9:-0.666667 10:-0.228571 11:-0.526316 12:-0.618705 13:-0.144654 14:-0.868421 15:-0.181818 16:-0.414634 17:0.733333 18:0.8 
1:-0.304348 2:-0.461538 3:-0.194444 4:-0.624454 5:-0.758242 6:-0.849057 7:-0.738562 8:0.371429 9:-0.833333 10:-0.457143 11:-0.736842 12:-0.817746 13:-0.471698 14:-0.947368 15:0.454545 16:-0.707317 17:0.8 18:0.866667 
1:0.0434783 3:0.694444 4:-0.0742358 5:-0.582418 6:-0.773585 7:0.0457516 8:-0.485714 9:-0.166667 10:-0.0571429 11:-0.178947 12:-0.131894 13:-0.245283 14:-0.815789 15:-0.909091 16:0.560976 18:0.266667 
1:-0.130435 2:-0.307692 3:0.333333 4:-0.266376 5:-0.67033 6:-0.698113 7:-0.0718954 8:-0.428571 9:-0.333333 10:-0.342857 11:-0.178947 12:-0.232614 13:-0.257862 14:-0.710526 15:-0.727273 16:-0.414634 17:-0.133333 18:0.0666667 
1:-0.391304 2:-0.0769231 3:0.166667 4:-0.475983 5:-0.714286 6:-0.773585 7:-0.424837 8:-0.0857143 9:-0.666667 10:-0.257143 11:-0.463158 12:-0.563549 13:-0.18239 14:-0.710526 15:-0.818182 16:-0.902439 17:-0.0666667 
1:0.173913 2:0.230769 3:0.555556 4:-0.10917 5:-0.648352 6:-0.735849 7:-0.0326797 8:-0.485714 9:-0.166667 10:0.0857143 11:-0.242105 12:-0.196643 13:-0.157233 14:-0.921053 15:-0.727273 16:-0.756098 17:0.4 18:0.6 
1:-0.391304 2:-0.0769231 3:0.0277778 4:-0.572052 5:-0.736264 6:-0.811321 7:-0.45098 8:0.0285714 9:-0.666667 10:-0.228571 11:-0.463158 12:-0.601918 13:-0.207547 14:-0.578947 15:0.363636 16:-0.317073 17:-0.466667 18:-0.466667 
1:-0.304348 2:0.0769231 3:0.138889 4:-0.545852 5:-0.78022 6:-0.773585 7:-0.359477 8:-0.142857 9:-0.5 10:-0.114286 11:-0.4 12:-0.510791 13:0.106918 14:-0.657895 15:-0.181818 16:-0.268293 17:-0.266667 18:-0.2 
1:0.391304 2:0.769231 3:0.611111 4:-0.0829694 5:-0.626374 6:-0.660377 7:0.372549 8:-0.714286 9:0.166667 10:0.571429 12:0.227818 13:0.345912 14:-0.657895 15:-0.818182 16:-0.0731707 17:-0.2 18:0.2 
1:0.173913 2:0.384615 3:0.916667 4:0.0480349 5:-0.56044 6:-0.735849 7:0.372549 8:-0.771429 9:0.166667 10:0.257143 11:0.136842 12:0.247002 13:0.220126 14:-0.657895 15:-0.454545 16:-0.121951 17:-0.133333 18:0.2 
1:-0.347826 2:-0.153846 3:-0.138889 4:-0.641921 5:-0.802198 6:-0.773585 7:-0.607843 8:0.257143 9:-0.666667 10:-0.285714 11:-0.694737 12:-0.731415 13:-0.18239 14:-0.763158 15:-0.363636 16:-0.121951 17:-0.2 18:0.0666667 
1:0.0434783 2:-0.692308 4:-0.432314 5:-0.714286 6:-0.773585 7:-0.359477 8:-0.142857 9:-0.5 10:-0.628571 11:-0.378947 12:-0.503597 13:-0.660377 14:-0.657895 15:-1 16:-1 17:-0.2 18:-0.266667 
1:-0.478261 2:-0.692308 3:0.111111 4:-0.528384 5:-0.736264 6:-0.773585 7:-0.464052 8:0.0285714 9:-0.666667 10:-0.771429 11:-0.484211 12:-0.606715 13:-0.660377 14:-0.736842 15:-0.454545 16:0.0243902 18:0.0666667 
1:0.217391 2:0.461538 3:0.805556 4:-0.49345 5:-0.868132 6:-0.698113 7:0.30719 8:-0.714286 9:0.166667 10:0.285714 11:0.0105263 12:0.16307 13:0.194969 14:-0.605263 15:0.0909091 16:-0.463415 17:-0.333333 18:-0.133333 
1:0.304348 2:0.153846 3:0.694444 4:-0.126638 5:-0.67033 6:-0.622642 7:0.150327 8:-0.6 10:0.142857 11:-0.105263 12:-0.0143885 13:-0.308176 14:-0.815789 15:-0.272727 16:0.0731707 17:0.0666667 18:0.4 
1:-0.347826 2:-0.769231 3:0.0555556 4:-0.510917 5:-0.67033 6:-0.849057 7:-0.633987 8:0.257143 9:-0.833333 10:-0.857143 11:-0.673684 12:-0.752998 13:-0.748428 14:-0.815789 15:-0.636364 16:0.707317 17:0.2 18:0.4 
1:-0.217391 2:-0.384615 3:0.472222 4:-0.187773 5:-0.604396 6:-0.735849 7:-0.0718954 8:-0.428571 9:-0.333333 10:-0.457143 11:-0.242105 12:-0.232614 13:-0.446541 14:-0.815789 16:0.170732 17:0.133333 18:0.266667 
1:-0.304348 2:-0.769231 3:-0.194444 4:-0.668122 5:-0.78022 6:-0.811321 7:-0.699346 8:0.371429 9:-0.833333 10:-0.771429 11:-0.747368 12:-0.803357 13:-0.761006 14:-0.815789 15:-0.727273 16:0.756098 17:0.133333 18:0.466667 
1:0.434783 2:0.538462 3:0.611111 4:-0.135371 5:-0.648352 6:-0.660377 7:0.411765 8:-0.771429 9:0.333333 10:0.4 11:0.0315789 12:0.261391 13:0.320755 14:-0.684211 15:-0.0909091 16:0.170732 17:-0.2 18:0.0666667 
1:-0.434783 2:-0.615385 3:0.361111 4:-0.371179 5:-0.736264 6:-0.735849 7:-0.254902 8:-0.257143 9:-0.5 10:-0.6 11:-0.368421 12:-0.414868 13:-0.509434 14:-0.789474 15:-0.363636 16:0.609756 17:0.133333 18:0.4 
1:-0.521739 2:-0.461538 3:-0.138889 4:-0.764192 5:-0.824176 6:-0.811321 7:-0.503268 8:0.0857143 9:-0.666667 10:-0.542857 11:-0.610526 12:-0.64988 13:-0.295597 14:-0.447368 15:0.0909091 16:-0.95122 17:-0.733333 18:-0.666667 
1:-0.217391 2:0.230769 3:0.277778 4:-0.20524 5:-0.648352 6:-0.773585 7:-0.150327 8:-0.371429 9:-0.333333 10:0.0857143 11:-0.231579 12:-0.306954 13:0.157233 14:-0.789474 15:-0.363636 16:-0.756098 17:0.0666667 18:0.133333 
1:0.130435 2:0.307692 3:0.333333 4:-0.126638 5:-0.626374 6:-0.698113 7:-0.0457516 8:-0.485714 9:-0.166667 10:0.171429 11:-0.168421 12:-0.201439 13:0.0566038 14:-0.815789 15:0.0909091 16:-0.463415 17:0.2 18:0.333333 
1:-0.0869565 2:-0.692308 3:-0.0555556 4:-0.432314 5:-0.736264 6:-0.811321 7:-0.346405 8:-0.142857 9:-0.5 10:-0.571429 11:-0.494737 12:-0.496403 13:-0.735849 14:-0.894737 15:-0.454545 16:-0.707317 17:0.466667 18:0.533333 
1:-0.173913 2:-0.615385 3:-0.0555556 4:-0.353712 5:-0.67033 6:-0.735849 7:-0.359477 8:-0.142857 9:-0.5 10:-0.514286 11:-0.463158 12:-0.510791 13:-0.710692 14:-0.894737 15:-0.363636 16:0.414634 17:0.4 18:0.666667 
1:0.304348 2:0.846154 3:0.805556 4:0.0218341 5:-0.516484 6:-0.660377 7:0.385621 8:-0.771429 9:0.166667 10:0.571429 11:0.0105263 12:0.251799 13:0.773585 14:-0.631579 15:-0.0909091 16:-0.902439 17:-0.266667 18:-0.0666667 
1:0.434783 2:0.461538 3:0.861111 4:-0.0655022 5:-0.67033 6:-0.773585 7:0.150327 8:-0.6 10:0.228571 11:-0.0736842 12:0.00239808 13:0.144654 14:-0.789474 15:-0.181818 16:-0.170732 17:0.2 18:0.333333 
1:0.0434783 2:0.0769231 3:0.138889 4:-0.310044 5:-0.626374 6:-0.773585 7:-0.267974 8:-0.257143 9:-0.5 10:-0.0857143 11:-0.336842 12:-0.419664 13:-0.081761 14:-0.710526 16:-0.902439 17:0.0666667 18:0.133333 
1:-0.478261 2:-0.461538 3:-0.277778 4:-0.851528 5:-0.89011 6:-0.924528 7:-0.477124 8:0.0285714 9:-0.666667 10:-0.571429 11:-0.578947 12:-0.625899 13:-0.320755 14:-0.263158 15:0.181818 16:-0.853659 17:-0.733333 18:-0.866667 
1:-0.608696 2:-0.461538 3:-0.0833333 4:-0.676856 5:-0.78022 6:-0.773585 7:-0.464052 8:0.0285714 9:-0.666667 10:-0.571429 11:-0.547368 12:-0.621103 13:-0.446541 14:-0.578947 16:-0.560976 17:-0.666667 18:-0.6 
1:0.347826 2:0.615385 3:0.416667 4:-0.0829694 5:-0.56044 6:-0.660377 7:0.385621 8:-0.714286 9:0.166667 10:0.485714 11:-0.0210526 12:0.230216 13:0.0943396 14:-0.605263 15:-0.636364 16:0.0243902 17:-0.266667 
1:-0.0869565 3:0.0833333 4:-0.327511 5:-0.67033 6:-0.773585 7:-0.281046 8:-0.2 9:-0.5 10:-0.142857 11:-0.368421 12:-0.438849 13:0.0566038 14:-0.789474 15:0.0909091 16:-0.268293 18:0.133333 
1:0.347826 2:0.846154 3:0.75 4:0.0305677 5:-0.450549 6:-0.622642 7:0.424837 8:-0.771429 9:0.333333 10:0.685714 11:-0.0210526 12:0.280576 13:0.371069 14:-0.657895 16:-0.414634 17:-0.333333 18:-0.0666667 
1:-0.608696 2:-0.538462 3:0.277778 4:-0.68559 5:-0.846154 6:-0.811321 7:-0.464052 8:0.0857143 9:-0.666667 10:-0.542857 11:-0.536842 12:-0.630695 13:-0.622642 14:-0.684211 16:-0.121951 17:-0.533333 18:-0.466667 
1:0.26087 2:0.615385 3:0.611111 4:-0.362445 5:-0.802198 6:-0.698113 7:0.398693 8:-0.714286 9:0.333333 10:0.514286 11:-0.0631579 12:0.251799 13:0.433962 14:-0.657895 15:-0.545455 16:-0.170732 17:-0.333333 
1:0.434783 2:0.692308 3:0.611111 4:0.0480349 5:-0.538462 6:-0.660377 7:0.346405 8:-0.714286 9:0.166667 10:0.485714 11:-0.0315789 12:0.18705 13:0.320755 14:-0.763158 15:-0.818182 16:0.414634 17:-0.133333 18:0.333333 
1:0.26087 2:0.615385 3:0.611111 4:-0.449782 5:-0.868132 6:-0.698113 7:0.372549 8:-0.714286 9:0.166667 10:0.6 11:0.0315789 12:0.218225 13:0.433962 14:-0.657895 15:-1 16:0.512195 17:-0.266667 18:0.133333 
1:0.391304 2:0.615385 3:0.555556 4:-0.292576 5:-0.78022 6:-0.698113 7:0.398693 8:-0.771429 9:0.333333 10:0.485714 11:0.0631579 12:0.251799 13:0.358491 14:-0.578947 15:-0.545455 16:-0.414634 17:-0.266667 18:-0.0666667 
1:-0.434783 2:-0.769231 3:-0.277778 4:-0.790393 5:-0.78022 6:-0.773585 7:-0.751634 8:0.485714 9:-0.833333 10:-0.742857 11:-0.810526 12:-0.83693 13:-0.622642 14:-0.552632 15:-0.545455 16:0.317073 17:-0.533333 18:-0.6 
1:0.0434783 3:0.5 4:-0.0829694 5:-0.56044 6:-0.698113 7:0.0849673 8:-0.542857 9:-0.166667 10:-0.171429 11:-0.0105263 12:-0.0671463 13:0.0691824 14:-0.710526 15:-1 16:-0.317073 17:-0.2 18:0.0666667 
1:-0.130435 2:-0.846154 3:0.0555556 4:-0.49345 5:-0.714286 6:-0.773585 7:-0.503268 8:0.0857143 9:-0.666667 10:-0.8 11:-0.557895 12:-0.647482 13:-0.647799 14:-0.789474 15:-0.818182 16:0.609756 18:0.133333 
1:-0.347826 2:-0.615385 3:0.0277778 4:-0.545852 5:-0.802198 6:-0.811321 7:-0.333333 8:-0.142857 9:-0.5 10:-0.685714 11:-0.431579 12:-0.494005 13:-0.610063 14:-0.789474 15:-0.909091 16:-0.560976 17:0.0666667 18:0.133333 
1:0.304348 2:0.615385 3:0.861111 4:-0.257642 5:-0.802198 6:-0.660377 7:0.45098 8:-0.771429 9:0.333333 10:0.6 12:0.306954 13:0.144654 14:-0.710526 15:-1 16:0.414634 17:-0.266667 18:0.333333 
1:-0.173913 2:-0.307692 3:-0.0277778 4:-0.406114 5:-0.714286 6:-0.773585 7:-0.542484 8:0.0857143 9:-0.666667 10:-0.314286 11:-0.536842 12:-0.669065 13:-0.358491 14:-0.921053 15:1 16:-0.512195 17:1 18:1 
1:0.391304 2:0.461538 3:0.861111 4:-0.100437 5:-0.714286 6:-0.660377 7:0.385621 8:-0.714286 9:0.166667 10:0.4 11:-0.0421053 12:0.239808 13:0.106918 14:-0.815789 15:-1 16:-0.0243902 18:0.466667 
1:0.565217 2:0.230769 3:0.75 4:-0.283843 5:-0.78022 6:-0.660377 7:0.228758 8:-0.657143 10:0.0857143 11:-0.136842 12:0.0695444 13:-0.0314465 14:-0.842105 15:0.0909091 16:0.0243902 17:0.0666667 18:0.333333 
1:0.217391 2:0.230769 3:0.75 4:-0.0567686 5:-0.56044 6:-0.698113 7:0.163399 8:-0.6 10:0.0857143 11:-0.105263 13:-0.18239 14:-0.736842 15:-0.636364 16:-0.463415 17:-0.133333 
1:-0.73913 2:-0.538462 3:-0.111111 4:-0.799127 5:-0.868132 6:-0.735849 7:-0.607843 8:0.257143 9:-0.666667 10:-0.514286 11:-0.631579 12:-0.733813 13:-0.559748 14:-0.526316 15:-0.363636 16:0.0243902 17:-0.666667 18:-0.466667 
1:-0.391304 2:0.230769 3:0.277778 4:-0.248908 5:-0.626374 6:-0.735849 7:-0.150327 8:-0.371429 9:-0.333333 11:-0.294737 12:-0.311751 13:0.257862 14:-0.789474 16:-0.658537 17:0.0666667 18:0.2 
1:0.391304 2:0.692308 3:0.555556 4:-0.327511 5:-0.802198 6:-0.735849 7:0.398693 8:-0.771429 9:0.333333 10:0.628571 11:0.0631579 12:0.268585 13:0.345912 14:-0.605263 15:-0.636364 16:-0.756098 17:-0.266667 18:-0.133333 
1:-0.347826 2:-0.538462 3:0.333333 4:-0.213974 5:-0.516484 6:-0.773585 7:-0.267974 8:-0.2 9:-0.5 10:-0.571429 11:-0.273684 12:-0.443645 13:-0.471698 14:-0.605263 15:-0.727273 16:0.0731707 17:-0.333333 18:-0.266667 
1:-0.304348 2:-0.307692 3:-0.0277778 4:-0.68559 5:-0.824176 6:-0.849057 7:-0.568627 8:0.142857 9:-0.666667 10:-0.4 11:-0.578947 12:-0.693046 13:-0.283019 14:-0.684211 15:0.363636 16:0.268293 18:0.133333 
1:0.347826 2:0.692308 3:0.805556 4:-0.0218341 5:-0.538462 6:-0.660377 7:0.215686 8:-0.657143 10:0.457143 11:-0.0421053 12:0.0527578 13:0.345912 14:-0.684211 15:-0.181818 16:-0.121951 17:-0.133333 
1:0.130435 2:0.615385 3:0.666667 4:-0.170306 5:-0.67033 6:-0.735849 7:0.150327 8:-0.6 10:0.371429 11:-0.0315789 12:-0.00239808 13:0.660377 14:-0.710526 15:-0.818182 16:-0.658537 17:-0.133333 18:0.133333 
1:-0.173913 3:0.166667 4:-0.423581 5:-0.758242 6:-0.773585 7:-0.30719 8:-0.2 9:-0.5 10:-0.114286 11:-0.463158 12:-0.460432 13:-0.308176 14:-0.947368 15:-0.272727 16:-0.463415 17:0.6 18:0.8 
1:-0.521739 2:-0.615385 3:-0.277778 4:-0.703057 5:-0.67033 6:-0.849057 7:-0.816993 8:0.6 9:-0.833333 10:-0.6 11:-0.852632 12:-0.884892 13:-0.622642 14:-0.710526 15:-0.636364 16:-0.658537 17:-0.4 18:-0.4 
1:-0.304348 2:-0.615385 3:0.0555556 4:-0.572052 5:-0.692308 6:-0.811321 7:-0.555556 8:0.142857 9:-0.666667 10:-0.742857 11:-0.621053 12:-0.688249 13:-0.584906 14:-0.736842 15:-1 16:-0.560976 17:-0.266667 18:-0.133333 
1:0.347826 2:0.692308 3:0.805556 4:0.0393013 5:-0.494505 6:-0.698113 7:0.45098 8:-0.771429 9:0.333333 10:0.685714 11:0.126316 12:0.326139 13:0.371069 14:-0.578947 15:0.272727 16:-0.463415 17:-0.2 
1:-0.695652 2:-0.769231 3:-0.194444 4:-0.799127 5:-0.802198 6:-0.811321 7:-0.79085 8:0.542857 9:-0.833333 10:-0.828571 11:-0.821053 12:-0.865707 13:-0.698113 14:-0.710526 15:-0.818182 16:0.0243902 17:-0.533333 18:-0.333333 
1:-0.304348 2:0.307692 3:0.194444 4:-0.20524 5:-0.604396 6:-0.849057 7:-0.137255 8:-0.371429 9:-0.333333 10:0.0857143 11:-0.189474 12:-0.28777 13:0.27044 14:-0.684211 15:-0.909091 16:-0.707317 17:-0.133333 18:-0.133333 
1:-0.26087 2:-0.461538 3:0.194444 4:-0.353712 5:-0.692308 6:-0.773585 7:-0.137255 8:-0.371429 9:-0.333333 10:-0.6 11:-0.273684 12:-0.309353 13:-0.396226 14:-0.684211 15:-0.909091 16:-0.317073 17:-0.266667 18:-0.2 
1:0.173913 2:0.384615 3:0.916667 4:0.10917 5:-0.494505 6:-0.660377 7:0.411765 8:-0.771429 9:0.333333 10:0.285714 11:0.136842 12:0.290168 13:0.220126 14:-0.631579 16:-0.0731707 17:-0.133333 18:0.133333 
1:-0.347826 2:-0.461538 3:0.0833333 4:-0.310044 5:-0.67033 6:-0.811321 7:-0.163399 8:-0.314286 9:-0.333333 10:-0.428571 11:-0.263158 12:-0.333333 13:-0.484277 14:-0.815789 15:-1 16:0.414634 17:-0.133333 18:0.2 
1:-0.478261 2:-0.615385 3:-0.111111 4:-0.772926 5:-0.868132 6:-0.735849 7:-0.712418 8:0.428571 9:-0.833333 10:-0.6 11:-0.842105 12:-0.815348 13:-0.823899 14:-0.842105 15:-0.909091 16:0.170732 17:-0.2 18:0.133333 
1:-0.695652 2:-0.923077 3:-0.944444 4:-0.947598 5:-0.78022 6:-0.962264 7:-0.973856 8:0.885714 9:-1 10:-0.971429 11:-0.989474 12:-0.983213 13:-0.849057 14:-0.263158 15:-0.636364 16:-0.658537 17:-0.8 18:-0.866667 
