svm_type c_svc
kernel_type rbf
gamma 0.03125
nr_class 4
nr_binary 3
total_sv 838
rho 0.387272 0.36169 0.317104
label 4 2 3 1
nr_sv 191 217 218 212
nr_sv_binary 615 791 770
I 2
2 0 2
2 1 3
2 1 2
2 0 3
2 2 3
2 0 1
alpha
0 1 2 4 5 6 9 10 11 12 14 15 17 18 19 20 21 22 23 25 27 28 30 31 32 33 34 35 37 38 40 43 44 45 46 49 50 52 53 54 55 56 57 58 60 61 63 64 65 66 67 69 70 71 72 73 74 75 76 77 81 82 83 84 85 86 87 88 89 90 91 92 93 94 95 97 98 100 101 102 103 104 105 106 108 109 111 112 113 114 116 117 118 120 123 124 125 126 128 129 130 131 132 135 136 137 141 143 145 146 147 148 149 150 151 152 153 154 155 157 158 159 160 161 164 165 167 168 171 173 174 176 177 180 182 183 184 185 187 188 189 190 192 193 194 195 196 198 199 200 201 203 204 205 206 207 208 210 211 214 215 217 219 220 221 222 224 225 226 227 230 232 233 235 236 237 238 240 241 244 245 247 248 249 250 251 252 253 256 257 258 262 265 266 267 269 271 272 276 277 278 280 281 282 283 285 286 287 288 289 292 295 296 297 298 300 301 302 304 305 308 310 311 312 313 314 315 318 319 320 321 323 324 326 327 328 330 334 335 336 337 339 343 345 346 347 348 349 350 351 352 353 354 355 356 357 359 360 361 362 364 365 368 369 371 375 377 378 379 380 381 382 385 386 387 389 390 393 395 396 397 399 400 402 403 404 405 407 409 410 411 412 413 414 415 416 417 420 421 422 424 425 426 427 430 431 432 433 435 438 439 440 441 442 443 444 445 448 449 450 452 453 454 455 456 457 458 459 460 461 462 463 464 467 468 470 471 473 475 477 478 479 482 483 485 486 487 488 489 490 491 492 493 494 496 497 498 499 500 504 505 506 507 508 510 512 513 514 515 516 517 518 519 520 521 522 523 524 525 526 527 528 530 531 532 533 534 535 537 538 540 541 545 546 548 550 551 552 553 554 555 557 559 562 564 565 566 567 568 569 571 574 575 576 577 578 580 581 582 584 585 586 587 588 589 590 591 592 593 594 595 596 597 598 599 600 601 603 604 606 607 608 609 610 611 614 615 616 617 620 621 623 624 625 626 627 628 630 631 632 633 634 635 636 637 638 640 641 642 643 644 645 649 650 651 652 655 657 658 659 660 662 665 666 667 669 670 672 673 674 675 676 677 678 679 681 682 683 684 685 686 687 688 689 690 692 695 696 697 699 702 703 705 706 707 708 709 710 711 713 715 716 717 719 720 721 723 724 725 727 728 729 730 731 732 733 734 736 737 738 741 743 744 746 748 750 751 752 753 754 755 757 759 760 763 764 765 766 767 768 769 770 771 772 774 775 777 778 779 781 782 784 785 786 787 790 792 793 794 795 796 797 798 799 801 802 804 805 806 809 810 811 812 814 815 816 817 818 819 820 821 822 823 824 825 826 827 828 829 830 831 834 835 836 837 
0.25 0.25 0.25 0.25 0.25 0.25 0.25 0.25 0.25 0.25 0.25 0.25 0.25 0.25 0.25 0.25 0.25 0.25 0.25 0.25 0.25 0.25 0.25 0.25 0.25 0.25 0.25 0.25 0.25 0.25 0.25 0.25 0.25 0.25 0.25 0.25 0.25 0.25 0.25 0.25 0.25 0.25 0.25 0.25 0.25 0.25 0.25 0.25 0.25 0.25 0.25 0.25 0.25 0.25 0.25 0.25 0.25 0.25 0.25 0.25 0.25 0.25 0.25 0.25 0.25 0.25 0.25 0.25 0.25 0.25 0.25 0.25 0.25 0.25 0.25 0.25 0.25 0.25 0.25 0.25 0.25 0.25 0.25 0.25 0.25 0.25 0.25 0.25 0.25 0.25 0.25 0.25 0.25 0.25 0.25 0.25 0.25 0.25 0.25 0.25 0.25 0.25 0.25 0.25 0.25 0.25 0.25 0.25 0.25 0.25 0.25 0.25 0.25 0.25 0.25 0.25 0.25 0.25 0.25 0.25 0.25 0.25 0.25 0.25 0.25 0.25 0.25 0.07860005040566066 0.25 0.25 0.25 0.25 0.1318105384786215 0.25 0.25 0.25 0.25 0.25 0.25 0.25 0.25 0.25 -0.25 -0.25 -0.25 -0.25 -0.25 -0.25 -0.25 -0.25 -0.25 -0.25 -0.25 -0.25 -0.25 -0.25 -0.25 -0.25 -0.25 -0.25 -0.25 -0.25 -0.25 -0.25 -0.25 -0.25 -0.25 -0.25 -0.25 -0.25 -0.25 -0.25 -0.25 -0.25 -0.25 -0.25 -0.25 -0.25 -0.25 -0.25 -0.25 -0.25 -0.25 -0.25 -0.25 -0.25 -0.25 -0.25 -0.25 -0.25 -0.25 -0.25 -0.25 -0.25 -0.25 -0.25 -0.25 -0.25 -0.25 -0.25 -0.25 -0.25 -0.25 -0.25 -0.25 -0.25 -0.25 -0.25 -0.25 -0.25 -0.25 -0.25 -0.25 -0.25 -0.25 -0.25 -0.25 -0.25 -0.25 -0.25 -0.25 -0.25 -0.25 -0.25 -0.25 -0.25 -0.25 -0.25 -0.25 -0.25 -0.25 -0.25 -0.25 -0.25 -0.25 -0.25 -0.25 -0.25 -0.25 -0.25 -0.25 -0.25 -0.25 -0.25 -0.25 -0.25 -0.25 -0.25 -0.25 -0.25 -0.25 -0.25 -0.25 -0.25 -0.25 -0.25 -0.25 -0.25 -0.25 -0.25 -0.25 -0.25 -0.25 -0.25 -0.25 -0.25 -0.25 -0.25 -0.25 -0.25 -0.25 -0.25 -0.25 -0.25 -0.25 -0.25 -0.25 -0.25 -0.25 -0.25 -0.25 -0.25 -0.25 -0.25 -0.25 -0.25 -0.25 -0.25 0.25 0.25 0.25 0.25 0.25 0.25 0.25 0.25 0.25 0.25 0.25 0.25 0.25 0.25 0.25 0.25 0.25 0.25 0.25 0.25 0.25 0.25 0.25 0.25 0.25 0.25 0.2350850175633455 0.25 0.25 0.25 0.25 0.25 0.25 0.25 0.25 0.25 0.25 0.25 0.25 0.25 0.25 0.25 0.25 0.25 0.25 0.25 0.25 0.25 0.25 0.25 0.25 0.25 0.25 0.25 0.25 0.25 0.25 0.25 0.25 0.25 0.25 0.25 0.25 0.25 0.25 0.25 0.25 0.25 0.25 0.25 0.25 0.25 0.25 0.25 0.25 0.25 0.25 0.25 0.25 0.25 0.25 0.25 0.25 0.25 0.25 0.25 0.25 0.25 0.25 0.25 0.25 0.25 0.25 0.25 0.25 0.25 0.25 0.25 0.25 0.25 0.25 0.25 0.25 0.25 0.25 0.25 0.25 0.25 0.25 0.25 0.25 0.25 0.25 0.25 0.25 0.25 0.25 0.25 0.25 0.25 0.25 0.25 0.25 0.25 0.25 0.25 0.25 0.25 0.25 0.25 0.25 0.25 0.25 0.25 0.25 0.25 0.25 0.25 0.25 0.25 0.25 0.25 0.25 0.25 0.25 0.25 0.25 0.25 0.25 0.25 0.25 0.1040697912358856 0.25 0.25 0.25 0.25 0.25 0.25 0.25 0.25 0.25 0.25 0.25 0.25 0.25 0.25 -0.25 -0.25 -0.25 -0.25 -0.25 -0.25 -0.25 -0.25 -0.25 -0.25 -0.25 -0.25 -0.25 -0.25 -0.25 -0.25 -0.25 -0.25 -0.25 -0.25 -0.25 -0.25 -0.25 -0.25 -0.25 -0.25 -0.25 -0.25 -0.25 -0.25 -0.25 -0.25 -0.25 -0.25 -0.25 -0.25 -0.25 -0.25 -0.25 -0.25 -0.25 -0.25 -0.25 -0.1141427627716266 -0.25 -0.25 -0.25 -0.25 -0.25 -0.25 -0.25 -0.25 -0.25 -0.25 -0.25 -0.25 -0.25 -0.25 -0.25 -0.25 -0.25 -0.25 -0.25 -0.25 -0.25 -0.25 -0.25 -0.25 -0.25 -0.25 -0.25 -0.25 -0.25 -0.25 -0.25 -0.25 -0.25 -0.25 -0.25 -0.25 -0.25 -0.25 -0.25 -0.25 -0.25 -0.1854226349118866 -0.25 -0.25 -0.25 -0.25 -0.25 -0.25 -0.25 -0.25 -0.25 -0.25 -0.25 -0.25 -0.25 -0.25 -0.25 -0.25 -0.25 -0.25 -0.25 -0.25 -0.25 -0.25 -0.25 -0.25 -0.25 -0.25 -0.25 -0.25 -0.25 -0.25 -0.25 -0.25 -0.25 -0.25 -0.25 -0.25 -0.25 -0.25 -0.25 -0.25 -0.25 -0.25 -0.25 -0.25 -0.25 -0.25 -0.25 -0.25 -0.25 -0.25 -0.25 -0.25 -0.25 -0.25 -0.25 -0.25 -0.25 -0.25 -0.25 -0.25 -0.25 -0.25 -0.25 -0.25 -0.25 -0.25 -0.25 -0.25 -0.25 -0.25 -0.25 -0.25 -0.25 -0.25 -0.25 
0 1 2 3 5 6 7 8 9 10 11 12 13 14 15 16 17 18 19 20 21 22 23 24 25 26 27 28 29 30 31 32 33 34 35 36 37 38 39 40 41 42 43 44 45 46 47 48 49 50 51 52 53 54 55 56 57 58 59 60 61 62 63 64 65 66 68 69 70 71 72 73 74 75 76 77 78 79 80 81 82 83 84 85 86 87 88 89 90 91 92 93 94 95 96 97 98 99 100 101 102 103 105 106 107 108 110 111 112 113 114 115 116 117 118 119 120 121 122 123 124 125 126 127 128 129 130 131 133 135 136 137 138 139 140 141 142 143 144 145 146 147 148 149 150 151 152 153 154 155 156 158 159 160 161 162 163 164 165 166 167 168 169 170 171 172 173 174 175 176 177 178 179 180 181 182 183 184 185 186 187 188 189 190 191 192 193 194 195 196 197 198 199 200 201 202 203 204 205 206 207 208 209 210 211 212 213 214 215 216 217 218 219 220 221 222 223 224 225 226 227 228 229 230 231 232 233 234 235 236 237 238 239 240 241 242 243 244 245 246 247 248 249 250 251 252 253 254 255 256 257 258 259 260 261 262 263 264 265 266 267 268 269 270 271 272 273 274 275 276 277 278 279 280 281 282 283 284 285 286 287 288 289 290 291 292 293 294 295 296 297 298 299 300 301 302 303 304 305 306 307 308 309 310 311 312 313 314 315 316 317 318 319 320 321 322 323 324 325 326 327 328 329 330 331 332 333 334 335 336 337 338 339 340 341 342 343 344 345 346 347 348 349 350 351 352 353 354 355 356 357 358 359 360 361 362 363 364 365 366 367 368 369 370 371 372 373 374 375 376 377 378 379 380 381 382 383 384 385 386 387 388 389 390 391 392 393 394 395 396 397 398 399 400 401 402 403 404 405 406 407 408 410 411 412 413 414 415 416 417 418 419 420 421 423 424 425 428 429 431 433 434 435 436 437 439 440 441 442 443 444 446 447 448 449 451 454 455 456 457 458 459 461 462 463 464 465 466 467 469 470 471 472 473 474 475 476 477 478 479 480 481 483 484 485 486 487 488 489 491 492 493 494 495 496 497 498 501 502 503 506 507 509 510 511 512 513 514 517 518 519 521 522 523 524 525 526 527 528 529 531 534 535 536 537 538 539 541 542 543 544 546 547 548 549 550 552 553 554 555 556 558 559 560 561 562 563 564 565 566 567 568 569 570 571 572 573 574 575 576 577 578 579 581 582 583 584 585 587 588 590 591 592 594 595 596 599 601 602 603 604 605 606 607 608 609 610 612 613 614 615 616 617 618 619 620 621 622 623 624 626 627 628 629 630 631 632 633 634 635 636 637 638 639 640 641 642 643 644 645 646 647 648 649 650 651 652 653 654 655 656 657 658 659 660 661 662 663 664 665 666 667 668 669 670 671 672 673 674 675 676 677 678 679 680 681 682 683 684 685 686 687 688 689 690 691 692 693 694 695 696 697 698 699 700 701 702 703 704 705 706 707 708 709 710 711 712 713 714 715 716 717 718 719 720 721 722 723 724 725 726 727 728 729 730 731 732 733 734 735 736 737 738 739 740 741 742 743 744 745 746 747 748 749 750 751 752 753 754 755 756 757 758 759 760 761 762 763 764 765 766 767 768 769 770 771 772 773 774 775 776 777 778 779 780 781 782 783 784 785 786 787 788 789 790 791 792 793 794 795 796 797 798 799 800 801 802 803 804 805 806 807 808 809 810 811 812 813 814 815 816 817 818 819 820 821 822 824 825 826 827 828 829 830 831 832 833 834 835 836 837 
-0.25 -0.25 -0.25 -0.25 -0.25 -0.25 -0.25 -0.25 -0.25 -0.25 -0.25 -0.25 -0.25 -0.25 -0.25 -0.25 -0.25 -0.25 -0.25 -0.25 -0.25 -0.25 -0.25 -0.25 -0.25 -0.25 -0.25 -0.25 -0.25 -0.25 -0.25 -0.25 -0.25 -0.25 -0.25 -0.25 -0.25 -0.25 -0.25 -0.25 -0.25 -0.25 -0.25 -0.25 -0.25 -0.25 -0.25 -0.25 -0.25 -0.25 -0.25 -0.25 -0.25 -0.25 -0.25 -0.25 -0.25 -0.25 -0.25 -0.25 -0.25 -0.25 -0.25 -0.25 -0.25 -0.25 -0.25 -0.25 -0.25 -0.25 -0.25 -0.25 -0.25 -0.25 -0.25 -0.25 -0.25 -0.25 -0.25 -0.25 -0.25 -0.25 -0.25 -0.25 -0.25 -0.25 -0.25 -0.25 -0.25 -0.25 -0.25 -0.25 -0.25 -0.25 -0.25 -0.25 -0.25 -0.25 -0.25 -0.25 -0.25 -0.25 -0.25 -0.25 -0.25 -0.25 -0.25 -0.25 -0.25 -0.25 -0.25 -0.25 -0.25 -0.25 -0.25 -0.25 -0.25 -0.25 -0.25 -0.25 -0.25 -0.25 -0.25 -0.25 -0.25 -0.25 -0.25 -0.25 -0.25 -0.25 -0.25 -0.25 -0.25 -0.25 -0.25 -0.25 -0.25 -0.25 -0.25 -0.25 -0.25 -0.25 -0.25 -0.25 -0.25 -0.25 -0.25 -0.25 -0.25 -0.25 -0.25 -0.25 -0.25 -0.25 -0.25 -0.25 -0.25 -0.25 -0.25 -0.25 -0.25 -0.25 -0.25 -0.1875216729008017 -0.25 -0.25 -0.25 -0.25 -0.25 -0.25 -0.25 -0.25 -0.25 -0.25 -0.25 -0.25 -0.25 -0.25 -0.25 -0.25 -0.25 -0.25 -0.25 -0.25 0.25 0.25 0.25 0.25 0.25 0.25 0.25 0.25 0.25 0.25 0.25 0.25 0.25 0.25 0.25 0.25 0.25 0.25 0.25 0.25 0.25 0.25 0.25 0.25 0.25 0.25 0.25 0.25 0.25 0.25 0.25 0.25 0.25 0.25 0.25 0.25 0.25 0.25 0.25 0.25 0.25 0.25 0.25 0.25 0.25 0.25 0.25 0.25 0.25 0.25 0.25 0.25 0.25 0.25 0.25 0.25 0.25 0.25 0.25 0.25 0.25 0.25 0.25 0.25 0.25 0.25 0.25 0.25 0.25 0.25 0.25 0.25 0.25 0.25 0.25 0.25 0.25 0.25 0.25 0.25 0.25 0.25 0.25 0.25 0.25 0.25 0.25 0.25 0.25 0.25 0.25 0.25 0.25 0.25 0.25 0.25 0.25 0.25 0.25 0.25 0.25 0.25 0.25 0.25 0.25 0.25 0.25 0.25 0.25 0.25 0.25 0.25 0.25 0.25 0.25 0.25 0.25 0.25 0.25 0.25 0.25 0.25 0.25 0.25 0.25 0.25 0.25 0.25 0.25 0.25 0.25 0.25 0.25 0.25 0.25 0.25 0.25 0.25 0.25 0.25 0.25 0.25 0.25 0.25 0.25 0.25 0.25 0.25 0.25 0.25 0.25 0.25 0.25 0.25 0.25 0.25 0.25 0.25 0.25 0.25 0.25 0.25 0.25 0.25 0.25 0.25 0.25 0.25 0.25 0.25 0.25 0.25 0.25 0.25 0.25 0.25 0.25 0.25 0.25 0.25 0.25 0.25 0.25 0.25 0.25 0.25 0.25 0.25 0.25 0.25 0.25 0.25 0.25 0.25 0.25 0.25 0.25 0.25 0.25 0.25 0.25 0.25 0.25 0.25 0.25 0.25 0.25 0.25 0.25 0.25 0.25 0.25 0.25 0.25 0.25 0.25 0.25 0.25 0.25 0.25 0.25 0.25 0.25 0.25 0.25 0.1214387578850186 0.25 0.25 0.25 0.25 0.25 0.25 0.25 0.25 0.25 0.25 0.25 0.25 0.25 0.25 0.25 0.25 0.25 0.25 0.25 0.25 0.25 0.25 0.25 0.25 0.25 0.25 0.25 0.25 0.25 0.25 0.25 0.25 0.25 0.25 0.25 0.25 0.25 0.25 0.25 0.25 0.25 0.25 0.25 0.25 0.25 0.25 0.25 0.25 0.25 0.25 0.25 0.25 0.25 0.25 0.25 0.25 0.25 0.25 0.25 0.25 0.25 0.25 0.25 0.25 0.25 0.25 0.25 0.25 0.25 0.25 0.25 0.25 0.25 0.25 0.25 0.25 0.25 0.25 0.25 0.25 0.25 0.25 0.25 0.25 0.25 0.25 0.25 0.25 0.25 0.25 0.25 0.25 0.25 0.25 0.25 0.25 0.25 0.25 0.25 0.25 0.25 0.25 0.25 0.25 0.25 0.06608291501578316 0.25 0.25 0.25 0.25 0.25 0.25 0.25 0.25 0.25 0.25 0.25 0.25 0.25 0.25 0.25 0.25 0.25 0.25 0.25 0.25 0.25 0.25 0.25 0.25 0.25 0.25 0.25 0.25 0.25 0.25 0.25 0.25 0.25 0.25 0.25 0.25 0.25 0.25 0.25 0.25 0.25 0.25 0.25 0.25 0.25 0.25 0.25 0.25 0.25 0.25 0.25 0.25 0.25 0.25 0.25 0.25 0.25 0.25 0.25 0.25 0.25 0.25 0.25 0.25 -0.25 -0.25 -0.25 -0.25 -0.25 -0.25 -0.25 -0.25 -0.25 -0.25 -0.25 -0.25 -0.25 -0.25 -0.25 -0.25 -0.25 -0.25 -0.25 -0.25 -0.25 -0.25 -0.25 -0.25 -0.25 -0.25 -0.25 -0.25 -0.25 -0.25 -0.25 -0.25 -0.25 -0.25 -0.25 -0.25 -0.25 -0.25 -0.25 -0.25 -0.25 -0.25 -0.25 -0.25 -0.25 -0.25 -0.25 -0.25 -0.25 -0.25 -0.25 -0.25 -0.25 -0.25 -0.25 -0.25 -0.25 -0.25 -0.25 -0.25 -0.25 -0.25 -0.25 -0.25 -0.25 -0.25 -0.25 -0.25 -0.25 -0.25 -0.25 -0.25 -0.25 -0.25 -0.25 -0.25 -0.25 -0.25 -0.25 -0.25 -0.25 -0.25 -0.25 -0.25 -0.25 -0.25 -0.25 -0.25 -0.25 -0.25 -0.25 -0.25 -0.25 -0.25 -0.25 -0.25 -0.25 -0.25 -0.25 -0.25 -0.25 -0.25 -0.25 -0.25 -0.25 -0.25 -0.25 -0.25 -0.25 -0.25 -0.25 -0.25 -0.25 -0.25 -0.25 -0.25 -0.25 -0.25 -0.25 -0.25 -0.25 -0.25 -0.25 -0.25 -0.25 -0.25 -0.25 -0.25 -0.25 -0.25 -0.25 -0.25 -0.25 -0.25 -0.25 -0.25 -0.25 -0.25 -0.25 -0.25 -0.25 -0.25 -0.25 -0.25 -0.25 -0.25 -0.25 -0.25 -0.25 -0.25 -0.25 -0.25 -0.25 -0.25 -0.25 -0.25 -0.25 -0.25 -0.25 -0.25 -0.25 -0.25 -0.25 -0.25 -0.25 -0.25 -0.25 -0.25 -0.25 -0.25 -0.25 -0.25 -0.25 -0.25 -0.25 -0.25 -0.25 -0.25 -0.25 -0.25 -0.25 -0.25 -0.25 -0.25 -0.25 -0.25 -0.25 -0.25 -0.25 -0.25 -0.25 -0.25 -0.25 -0.25 -0.25 -0.25 -0.25 -0.25 -0.25 -0.25 -0.25 -0.25 -0.25 -0.25 -0.25 -0.25 -0.25 -0.25 -0.25 -0.25 -0.25 
0 1 2 3 5 6 7 8 9 10 11 12 13 14 15 16 17 19 20 21 22 23 24 25 26 27 28 30 31 32 33 34 35 36 37 38 39 40 41 42 43 44 45 46 47 48 49 50 51 52 53 54 55 56 57 59 60 61 62 63 64 65 66 68 69 70 71 72 73 74 75 77 78 79 80 81 83 85 86 87 88 89 90 91 92 93 94 95 96 98 99 100 101 102 103 105 106 107 108 110 111 112 113 114 115 116 117 118 119 120 121 122 123 124 125 126 127 129 130 131 133 134 135 136 137 138 139 140 142 143 144 145 147 148 149 150 151 152 153 154 156 158 159 160 161 162 163 164 165 166 167 168 169 170 171 172 173 174 175 177 178 179 180 181 182 183 184 185 186 187 188 189 190 191 192 194 195 196 197 198 199 200 201 202 203 204 205 206 207 208 209 210 211 212 213 214 216 217 218 219 220 221 222 223 224 225 226 227 228 229 230 231 232 233 234 235 236 237 238 239 240 241 242 243 244 245 246 247 248 249 250 251 252 253 254 255 256 257 258 259 260 261 262 263 264 265 266 267 268 269 270 271 272 273 274 275 276 277 278 279 280 281 282 283 284 285 286 287 289 290 291 292 293 294 295 296 297 298 299 300 301 302 303 304 305 306 307 308 309 310 311 312 313 314 315 316 317 318 319 320 321 322 323 324 325 326 327 328 329 330 331 332 333 334 335 337 338 339 340 341 342 343 344 345 347 348 349 350 351 352 353 354 355 356 357 358 359 360 361 362 363 364 365 366 367 368 369 370 371 372 373 374 375 376 377 378 379 380 381 382 383 384 385 386 387 388 389 390 391 392 393 394 395 396 397 398 399 400 401 402 403 404 405 406 407 408 410 411 412 413 414 415 416 417 418 419 420 421 423 424 425 426 427 428 429 431 433 434 435 436 437 439 440 441 442 443 444 445 446 447 448 449 451 454 455 456 457 458 459 461 462 463 464 465 466 467 469 470 471 472 473 474 475 476 477 478 479 480 481 483 484 485 486 487 488 489 491 492 493 494 495 496 497 498 501 502 503 506 507 509 510 511 512 513 514 517 518 519 521 522 523 524 525 526 527 528 529 531 534 535 536 537 538 539 541 542 543 544 546 547 548 549 552 553 554 555 556 558 559 560 561 562 563 564 565 566 567 568 569 570 571 572 573 574 575 576 577 578 579 580 581 582 583 584 585 587 588 590 591 592 594 595 596 599 601 602 603 604 605 606 607 608 609 610 612 613 614 615 616 617 618 619 620 621 622 623 624 626 627 628 629 630 631 633 634 635 636 637 639 640 641 642 643 644 645 646 647 648 649 650 651 652 653 654 655 656 657 658 659 660 661 662 663 664 665 666 667 668 669 670 671 672 673 675 676 677 678 680 681 682 683 684 685 686 687 688 689 690 691 692 693 694 695 696 697 698 699 700 701 702 703 704 705 706 707 708 709 710 711 712 713 714 715 716 717 718 719 720 721 722 723 724 725 726 727 728 729 730 732 733 734 735 736 737 738 739 740 741 742 743 744 745 746 747 748 749 750 752 753 754 755 756 757 758 759 760 761 762 763 764 765 766 767 768 769 770 771 772 773 774 775 776 777 779 780 781 782 783 784 785 786 788 789 790 791 792 793 794 795 796 797 798 799 800 801 802 803 804 805 806 807 808 809 810 811 812 813 814 815 816 818 819 820 821 822 823 824 825 826 827 828 829 830 831 832 833 834 835 836 837 
-0.25 -0.25 -0.25 -0.25 -0.25 -0.25 -0.25 -0.25 -0.25 -0.25 -0.25 -0.25 -0.25 -0.25 -0.25 -0.25 -0.25 -0.25 -0.25 -0.25 -0.25 -0.25 -0.25 -0.25 -0.25 -0.25 -0.25 -0.25 -0.25 -0.25 -0.25 -0.25 -0.25 -0.25 -0.25 -0.25 -0.25 -0.25 -0.25 -0.25 -0.25 -0.25 -0.25 -0.25 -0.25 -0.25 -0.25 -0.25 -0.25 -0.25 -0.25 -0.25 -0.25 -0.25 -0.25 -0.25 -0.25 -0.25 -0.25 -0.25 -0.25 -0.25 -0.25 -0.25 -0.25 -0.25 -0.25 -0.25 -0.25 -0.25 -0.25 -0.25 -0.25 -0.25 -0.25 -0.25 -0.25 -0.25 -0.25 -0.25 -0.25 -0.25 -0.25 -0.25 -0.25 -0.25 -0.25 -0.25 -0.25 -0.25 -0.25 -0.25 -0.25 -0.25 -0.25 -0.25 -0.25 -0.25 -0.25 -0.25 -0.25 -0.25 -0.25 -0.25 -0.25 -0.25 -0.25 -0.25 -0.25 -0.25 -0.25 -0.25 -0.25 -0.1793098039777712 -0.25 -0.25 -0.25 -0.25 -0.25 -0.25 -0.25 -0.25 -0.25 -0.25 -0.25 -0.25 -0.25 -0.25 -0.25 -0.25 -0.25 -0.25 -0.25 -0.25 -0.25 -0.25 -0.25 -0.25 -0.25 -0.25 -0.25 -0.25 -0.25 -0.25 -0.25 -0.25 -0.25 -0.25 -0.25 -0.25 -0.25 -0.25 -0.25 -0.25 -0.25 -0.25 -0.25 -0.25 -0.25 -0.25 -0.25 -0.25 -0.25 -0.25 -0.25 -0.25 -0.25 -0.25 -0.25 -0.25 -0.25 -0.25 -0.25 -0.25 -0.25 -0.25 -0.25 -0.25 -0.25 -0.25 -0.25 -0.25 -0.25 -0.25 -0.25 -0.25 -0.25 -0.25 -0.25 -0.25 -0.25 -0.25 -0.25 -0.25 -0.25 -0.25 -0.25 -0.25 -0.25 -0.25 -0.25 -0.25 -0.25 -0.25 -0.25 -0.25 -0.25 -0.25 -0.25 -0.25 -0.1195577239905078 -0.25 -0.25 -0.25 -0.25 -0.25 -0.25 -0.25 -0.25 -0.25 -0.25 -0.25 -0.25 -0.25 -0.25 -0.25 -0.25 -0.25 -0.25 -0.25 -0.25 -0.25 -0.25 -0.25 -0.25 -0.25 -0.25 -0.25 -0.25 -0.25 -0.25 -0.25 -0.25 -0.25 -0.25 -0.25 -0.25 -0.25 -0.25 -0.25 -0.25 -0.25 -0.25 -0.25 -0.25 -0.25 -0.25 -0.25 -0.25 -0.25 -0.25 -0.25 -0.25 -0.25 -0.25 -0.25 -0.25 -0.25 -0.25 -0.25 -0.25 -0.25 -0.25 -0.25 -0.25 -0.25 -0.25 -0.25 -0.25 -0.25 -0.25 -0.25 -0.25 -0.25 -0.25 -0.25 -0.25 -0.25 -0.25 -0.25 -0.25 -0.25 -0.25 -0.25 -0.25 -0.25 -0.25 -0.25 -0.25 -0.25 -0.25 -0.25 -0.25 -0.25 -0.25 -0.25 -0.25 -0.25 -0.25 -0.25 -0.25 -0.25 -0.25 -0.25 -0.25 -0.25 -0.25 -0.25 -0.25 -0.25 -0.25 -0.25 -0.25 -0.25 -0.25 -0.25 -0.25 -0.25 -0.25 -0.25 -0.25 -0.25 -0.25 -0.25 -0.25 -0.25 -0.25 -0.25 -0.25 -0.25 -0.25 -0.25 -0.25 -0.25 -0.25 -0.25 -0.25 -0.25 -0.25 -0.25 -0.25 -0.25 -0.25 -0.25 -0.25 -0.25 -0.25 -0.25 -0.25 -0.25 -0.25 -0.25 -0.25 -0.25 -0.25 -0.25 -0.25 -0.25 -0.25 -0.25 -0.25 -0.25 -0.25 -0.25 -0.25 -0.25 -0.25 -0.25 -0.25 -0.25 -0.25 -0.25 -0.25 -0.25 -0.25 0.25 0.25 0.25 0.25 0.25 0.25 0.25 0.25 0.25 0.25 0.25 0.25 0.25 0.25 0.25 0.25 0.25 0.25 0.25 0.25 0.25 0.25 0.25 0.25 0.25 0.25 0.25 0.25 0.25 0.25 0.25 0.25 0.25 0.25 0.25 0.25 0.25 0.25 0.25 0.25 0.25 0.25 0.25 0.25 0.25 0.25 0.25 0.25 0.25 0.25 0.25 0.25 0.25 0.25 0.25 0.25 0.25 0.25 0.25 0.25 0.25 0.25 0.25 0.25 0.25 0.25 0.25 0.25 0.25 0.25 0.25 0.25 0.2362404891914377 0.25 0.25 0.25 0.25 0.25 0.25 0.25 0.25 0.25 0.25 0.25 0.25 0.25 0.25 0.25 0.25 0.25 0.25 0.25 0.25 0.25 0.25 0.25 0.25 0.25 0.25 0.25 0.25 0.25 0.25 0.25 0.25 0.25 0.25 0.25 0.25 0.25 0.25 0.25 0.25 0.25 0.25 0.25 0.25 0.25 0.25 0.25 0.25 0.25 0.25 0.25 0.25 0.25 0.25 0.25 0.25 0.25 0.25 0.25 0.25 0.25 0.25 0.25 0.25 0.25 0.25 0.25 0.25 0.25 0.25 0.25 0.25 0.25 0.25 0.25 0.25 0.25 0.25 0.25 0.25 0.25 0.25 0.25 0.25 0.25 0.25 0.25 0.25 0.25 0.25 0.25 0.25 0.25 0.25 0.25 0.25 0.25 0.25 0.25 0.25 0.25 0.25 0.25 0.25 0.25 0.25 0.25 0.25 0.25 0.25 0.25 0.25 0.25 0.25 0.1029436737448379 0.25 0.25 0.25 0.25 0.25 0.25 0.25 0.25 0.25 0.25 0.25 0.25 0.25 0.25 0.25 0.25 0.25 0.25 0.25 0.25 0.25 0.25 0.25 0.25 0.25 0.25 0.25 0.25 0.25 0.25 0.25 0.25 0.25 0.25 0.25 0.25 0.25 0.25 0.25 0.25 0.25 0.25 0.25 0.25 0.25 0.25 0.25 0.25 0.25 0.25 0.25 0.25 0.25 0.25 0.25 0.25 0.25 0.25 0.25 0.25 0.25 0.25 0.25 0.25 0.25 0.25 0.25 0.25 0.25 0.25 0.25 0.25 0.25 0.25 0.25 0.25 0.25 0.25 0.25 0.25 0.25 0.25 0.25 0.25 0.25 0.25 0.25 0.25 0.25 0.25 0.25 0.25 0.25 0.25 0.25 0.25 0.25 0.25 0.25 0.25 0.25 0.25 0.25 0.25 0.25 0.25 0.25 0.25 0.25 0.25 0.25 0.25 0.25 0.25 0.25 0.25 0.25 0.25 0.25 0.25 0.25 0.25 0.25 0.25 0.25 0.25 0.25 0.25 0.25 0.25 0.25 0.25 0.25 0.25 0.25 0.25 0.25 0.25 0.25 0.25 0.25 0.25 0.25 0.25 0.25 0.25 0.25 0.25 0.25 0.25 0.25 0.25 0.25 0.25 0.25 0.25 0.25 0.25 0.25 0.25 0.2096833650320035 0.25 0.25 0.25 0.25 0.25 0.25 0.25 0.25 0.25 0.25 0.25 0.25 0.25 0.25 0.25 0.25 0.25 0.25 0.25 0.25 0.25 0.25 0.25 0.25 0.25 0.25 0.25 0.25 0.25 0.25 0.25 0.25 0.25 0.25 0.25 0.25 
SV
1:-0.0434783 2:0.153846 3:0.194444 4:-0.353712 5:-0.450549 6:-0.698113 7:-0.346405 8:-0.0857143 9:-0.5 10:0.171429 11:-0.515789 12:-0.532374 13:-0.0566038 14:-0.710526 15:-0.454545 16:-0.219512 17:-0.266667 18:0.0666667 
1:-0.217391 2:-0.384615 3:0.222222 4:-0.676856 5:-0.78022 6:-0.735849 7:-0.51634 8:0.0857143 9:-0.666667 10:-0.285714 11:-0.578947 12:-0.64988 13:-0.383648 14:-0.657895 15:-0.181818 16:-0.317073 17:-0.133333 18:0.2 
1:-0.130435 2:-0.384615 3:0.166667 4:-0.519651 5:-0.648352 6:-0.735849 7:-0.581699 8:0.142857 9:-0.666667 10:-0.285714 11:-0.684211 12:-0.70024 13:-0.773585 14:-0.894737 15:-0.454545 16:-0.512195 17:0.533333 18:0.733333 
1:-0.26087 2:-0.230769 3:-0.277778 4:-0.537118 5:-0.604396 6:-0.735849 7:-0.673203 8:0.257143 9:-0.833333 10:-0.2 11:-0.663158 12:-0.767386 13:-0.308176 14:-0.789474 15:-0.727273 16:-0.853659 17:0.133333 18:0.4 
1:-0.434783 2:-0.923077 3:-0.388889 4:-0.68559 5:-0.692308 6:-0.811321 7:-0.869281 8:0.6 9:-1 10:-0.742857 11:-0.884211 12:-0.906475 13:-0.962264 14:-0.868421 15:-0.818182 16:-0.317073 17:0.6 18:0.8 
1:-0.434783 2:-0.769231 3:-0.166667 4:-0.659389 5:-0.692308 6:-0.735849 7:-0.72549 8:0.371429 9:-0.833333 10:-0.657143 11:-0.757895 12:-0.803357 13:-0.773585 14:-0.815789 15:-0.818182 16:-0.512195 17:0.2 18:0.4 
1:-0.304348 2:-0.307692 3:0.25 4:-0.650655 5:-0.758242 6:-0.698113 7:-0.477124 8:0.0285714 9:-0.666667 10:-0.257143 11:-0.547368 12:-0.613909 13:-0.345912 14:-0.657895 15:-0.272727 16:-0.365854 17:-0.266667 18:0.0666667 
1:-0.304348 2:-0.769231 3:-0.694444 4:-0.956332 5:-0.89011 6:-0.849057 7:-0.921569 8:0.771429 9:-1 10:-0.685714 11:-0.926316 12:-0.947242 13:-0.798742 14:-0.447368 15:-0.818182 16:-0.317073 17:-0.666667 18:-0.733333 
1:-0.521739 2:-0.692308 3:-0.638889 4:-0.851528 5:-0.736264 6:-0.886792 7:-0.856209 8:0.657143 9:-1 10:-0.8 11:-0.884211 12:-0.911271 13:-0.698113 14:-0.394737 15:-0.363636 16:-0.95122 17:-0.8 18:-0.866667 
1:-0.478261 2:-0.0769231 3:0.111111 4:-0.563319 5:-0.626374 6:-0.735849 7:-0.542484 8:0.0857143 9:-0.666667 10:-0.142857 11:-0.589474 12:-0.664269 13:-0.18239 14:-0.684211 15:-0.909091 16:-0.804878 17:-0.2 18:0.2 
1:-0.304348 2:-0.230769 3:0.25 4:-0.510917 5:-0.626374 6:-0.660377 7:-0.437908 8:-0.0285714 9:-0.666667 10:-0.0571429 11:-0.547368 12:-0.58753 13:-0.18239 14:-0.657895 15:-0.545455 16:-0.560976 17:-0.4 
1:0.173913 3:0.388889 4:-0.406114 5:-0.56044 6:-0.735849 7:-0.411765 8:-0.0285714 9:-0.5 10:-0.0857143 11:-0.578947 12:-0.570743 13:-0.0566038 14:-0.789474 15:0.545455 16:-0.658537 17:0.0666667 18:0.266667 
1:-0.26087 2:0.153846 3:0.277778 4:0.764192 5:0.736264 6:0.773585 7:-0.464052 8:0.0285714 9:-0.666667 10:0.0857143 11:0.494737 12:-0.611511 13:0.144654 14:0.552632 15:-1 16:-0.268293 17:-0.4 18:-0.133333 
1:-0.347826 2:-0.692308 3:-0.694444 4:-0.991266 5:-0.89011 6:-0.886792 7:-0.908497 8:0.771429 9:-1 10:-0.714286 11:-0.947368 12:-0.944844 13:-0.798742 14:-0.289474 15:-0.272727 16:-0.219512 17:-0.8 18:-0.866667 
1:-0.0869565 2:0.230769 3:0.305556 4:-0.71179 5:-0.846154 6:-0.660377 7:-0.398693 8:-0.0285714 9:-0.5 10:0.257143 11:-0.494737 12:-0.563549 13:-0.0314465 14:-0.578947 15:-0.545455 16:-0.756098 17:-0.533333 18:-0.133333 
1:-0.130435 3:0.166667 4:-0.641921 5:-0.758242 6:-0.660377 7:-0.385621 8:-0.0285714 9:-0.5 10:0.2 11:-0.473684 12:-0.551559 13:0.00628931 14:-0.526316 15:-0.818182 16:-0.804878 17:-0.533333 18:-0.133333 
1:-0.217391 2:-0.230769 3:-0.166667 4:-0.746725 5:-0.824176 6:-0.773585 7:-0.764706 8:0.428571 9:-0.833333 10:-0.2 11:-0.694737 12:-0.834532 13:-0.408805 14:-0.710526 15:-0.909091 16:-0.609756 17:-0.0666667 18:-0.133333 
1:-0.304348 2:0.0769231 3:0.138889 4:-0.624454 5:-0.626374 6:-0.660377 7:-0.424837 8:0.0285714 9:-0.5 10:0.285714 11:-0.578947 12:-0.597122 13:-0.00628931 14:-0.552632 15:-0.454545 16:-0.365854 17:-0.466667 18:-0.2 
1:-0.0869565 2:-0.769231 3:-0.277778 4:-0.58952 5:-0.692308 6:-0.773585 7:-0.72549 8:0.371429 9:-0.833333 10:-0.514286 11:-0.747368 12:-0.805755 13:-0.874214 14:-0.921053 15:-0.181818 16:-0.853659 17:0.666667 18:0.8 
1:-0.304348 2:0.0769231 3:0.222222 4:-0.746725 5:-0.824176 6:-0.660377 7:-0.411765 8:0.0285714 9:-0.5 10:0.2 11:-0.589474 12:-0.592326 13:-0.157233 14:-0.605263 15:-0.545455 16:-0.560976 17:-0.6 18:-0.266667 
1:-0.478261 2:-0.538462 3:-0.222222 4:-0.868996 5:-0.89011 6:-0.886792 7:-0.79085 8:0.542857 9:-0.833333 10:-0.514286 11:-0.810526 12:-0.863309 13:-0.584906 14:-0.578947 15:-0.272727 16:-0.609756 17:-0.6 18:-0.6 
2:-0.461538 3:-0.166667 4:-0.860262 5:-0.934066 6:-0.773585 7:-0.673203 8:0.371429 9:-0.833333 10:-0.342857 11:-0.663158 12:-0.796163 13:-0.622642 14:-0.447368 15:-0.0909091 16:-0.365854 17:-0.533333 18:-0.866667 
1:-0.434783 2:-0.153846 3:0.0555556 4:-0.475983 5:-0.538462 6:-0.735849 7:-0.607843 8:0.142857 9:-0.833333 10:-0.171429 11:-0.6 12:-0.709832 13:-0.220126 14:-0.710526 15:-0.909091 16:-0.463415 17:-0.0666667 18:0.333333 
1:-0.304348 2:-0.307692 3:0.361111 4:-0.624454 5:-0.692308 6:-0.660377 7:-0.490196 8:0.0285714 9:-0.666667 10:-0.228571 11:-0.578947 12:-0.630695 13:-0.320755 14:-0.657895 16:0.121951 17:-0.266667 18:0.2 
1:-0.0869565 2:-0.769231 3:-0.222222 4:-0.799127 5:-0.846154 6:-0.811321 7:-0.803922 8:0.485714 9:-0.833333 10:-0.6 11:-0.736842 12:-0.860911 13:-0.91195 14:-0.815789 15:-0.909091 16:-0.902439 17:0.266667 
1:-0.304348 2:-0.384615 3:0.222222 4:-0.676856 5:-0.758242 6:-0.735849 7:-0.51634 8:0.0857143 9:-0.666667 10:-0.228571 11:-0.557895 12:-0.64988 13:-0.333333 14:-0.657895 15:-0.636364 16:-0.121951 17:-0.2 18:0.266667 
1:-0.434783 2:-0.692308 3:-0.444444 4:-0.90393 5:-0.846154 6:-0.886792 7:-0.908497 8:0.714286 9:-1 10:-0.6 11:-0.884211 12:-0.940048 13:-0.748428 14:-0.657895 15:-0.818182 16:-0.609756 17:-0.333333 18:-0.4 
1:-0.0869565 2:0.153846 3:0.305556 4:-0.49345 5:-0.626374 6:-0.698113 7:-0.411765 8:-0.0285714 9:-0.5 10:0.228571 11:-0.484211 12:-0.570743 13:-0.0314465 14:-0.578947 15:-0.636364 16:-0.268293 17:-0.466667 18:-0.0666667 
1:-0.0434783 2:-0.307692 3:0.25 4:-0.388646 5:-0.582418 6:-0.735849 7:-0.464052 8:0.0285714 9:-0.666667 10:-0.257143 11:-0.6 12:-0.609113 13:-0.484277 14:-0.842105 16:-0.756098 17:0.333333 18:0.533333 
1:-0.0869565 2:-0.307692 3:-0.222222 4:-0.598253 5:-0.626374 6:-0.811321 7:-0.79085 8:0.485714 9:-0.833333 10:-0.285714 11:-0.747368 12:-0.851319 13:-0.371069 14:-0.736842 15:0.272727 16:-0.756098 17:0.0666667 
1:-0.304348 2:-0.461538 3:0.0277778 4:-0.519651 5:-0.604396 6:-0.735849 7:-0.581699 8:0.142857 9:-0.666667 10:-0.342857 11:-0.6 12:-0.688249 13:-0.572327 14:-0.710526 15:-1 16:-0.756098 17:-0.0666667 18:0.266667 
1:-0.0869565 2:0.153846 3:0.194444 4:-0.49345 5:-0.626374 6:-0.698113 7:-0.424837 8:-0.0285714 9:-0.666667 11:-0.505263 12:-0.585132 13:-0.0188679 14:-0.605263 15:-0.636364 16:-0.317073 17:-0.4 
1:-0.130435 2:-0.230769 3:0.25 4:-0.746725 5:-0.846154 6:-0.698113 7:-0.437908 8:0.0285714 9:-0.666667 11:-0.536842 12:-0.59952 13:-0.295597 14:-0.578947 15:0.0909091 16:-0.365854 17:-0.466667 
1:-0.0434783 2:0.0769231 3:0.333333 4:-0.49345 5:-0.626374 6:-0.660377 7:-0.385621 8:-0.0285714 9:-0.5 10:0.114286 11:-0.515789 12:-0.551559 13:-0.0440252 14:-0.684211 15:0.0909091 16:-0.365854 17:-0.133333 18:0.133333 
1:-0.26087 2:0.153846 3:0.0555556 4:-0.668122 5:-0.736264 6:-0.660377 7:-0.372549 8:-0.0285714 9:-0.5 10:0.2 11:-0.547368 12:-0.553957 13:-0.0440252 14:-0.552632 15:-0.0909091 16:-0.463415 17:-0.533333 18:-0.266667 
1:-0.173913 2:-0.461538 3:0.166667 4:-0.484716 5:-0.648352 6:-0.735849 7:-0.555556 8:0.0857143 9:-0.666667 10:-0.371429 11:-0.631579 12:-0.676259 13:-0.647799 14:-0.868421 15:-0.181818 16:-1 17:0.533333 18:0.666667 
1:-0.478261 2:-0.0769231 3:-0.138889 4:-0.598253 5:-0.648352 6:-0.773585 7:-0.594771 8:0.142857 9:-0.666667 10:-0.171429 11:-0.568421 12:-0.705036 13:-0.119497 14:-0.657895 15:-0.818182 16:-0.853659 17:-0.266667 
1:-0.26087 3:0.111111 4:-0.659389 5:-0.67033 6:-0.660377 7:-0.385621 8:-0.0285714 9:-0.5 10:0.0857143 11:-0.589474 12:-0.563549 13:-0.0314465 14:-0.605263 15:0.545455 16:-0.658537 17:-0.4 18:-0.2 
1:0.0434783 2:-0.0769231 3:0.333333 4:-0.39738 5:-0.56044 6:-0.698113 7:-0.411765 8:-0.0285714 9:-0.5 10:0.114286 11:-0.547368 12:-0.565947 13:-0.396226 14:-0.789474 15:-0.272727 16:-0.414634 17:0.0666667 18:0.266667 
1:0.0869565 2:-0.538462 3:-0.222222 4:-0.851528 5:-0.956044 6:-0.811321 7:-0.712418 8:0.428571 9:-0.833333 10:-0.314286 11:-0.642105 12:-0.815348 13:-0.685535 14:-0.578947 15:-0.636364 16:-0.95122 17:-0.333333 18:-0.666667 
1:-0.304348 2:0.0769231 3:0.194444 4:0.90393 5:0.89011 6:0.735849 7:-0.398693 8:-0.0285714 9:-0.5 10:0.285714 11:0.0421053 12:-0.568345 13:-0.157233 15:-1 16:-0.317073 17:-0.466667 18:-0.133333 
1:-0.434783 2:0.153846 3:-0.0277778 4:-0.720524 5:-0.758242 6:-0.698113 7:-0.359477 8:-0.0285714 9:-0.5 10:0.285714 11:-0.578947 12:-0.551559 13:-0.0440252 14:-0.578947 15:-0.727273 16:-0.95122 17:-0.533333 18:-0.266667 
1:-0.391304 2:-0.307692 3:-0.333333 4:-0.598253 5:-0.626374 6:-0.698113 7:-0.72549 8:0.371429 9:-0.833333 10:-0.314286 11:-0.715789 12:-0.808153 13:-0.371069 14:-0.789474 15:-0.363636 16:-0.95122 17:0.133333 18:0.333333 
1:-0.217391 2:-0.307692 3:0.111111 4:-0.49345 5:-0.582418 6:-0.773585 7:-0.529412 8:0.0285714 9:-0.666667 10:-0.228571 11:-0.568421 12:-0.647482 13:-0.522013 14:-0.710526 15:-0.727273 16:-0.756098 17:-0.133333 18:0.2 
1:0.173913 3:0.25 4:-0.475983 5:-0.626374 6:-0.660377 7:-0.333333 8:-0.0857143 9:-0.5 10:0.285714 11:-0.515789 12:-0.513189 13:-0.232704 14:-0.684211 15:0.636364 16:-1 17:-0.133333 
1:-0.130435 2:-0.769231 3:-0.333333 4:-0.467249 5:-0.516484 6:-0.773585 7:-0.686275 8:0.314286 9:-0.833333 10:-0.485714 11:-0.673684 12:-0.772182 13:-0.773585 14:-0.789474 15:-0.818182 16:0.414634 17:0.133333 18:0.533333 
1:-0.304348 2:-0.461538 3:0.0833333 4:-0.563319 5:-0.626374 6:-0.735849 7:-0.581699 8:0.142857 9:-0.666667 10:-0.4 11:-0.6 12:-0.695444 13:-0.496855 14:-0.684211 15:-0.272727 16:-0.658537 17:-0.2 18:0.0666667 
1:-0.130435 2:-0.307692 3:-0.166667 4:-0.764192 5:-0.802198 6:-0.811321 7:-0.803922 8:0.542857 9:-0.833333 10:-0.228571 11:-0.726316 12:-0.865707 13:-0.459119 14:-0.605263 15:-0.545455 16:-0.804878 17:-0.133333 18:-0.4 
1:0.0869565 2:-0.615385 3:-0.166667 4:-0.816594 5:-0.89011 6:-0.773585 7:-0.764706 8:0.542857 9:-0.833333 10:-0.4 11:-0.715789 12:-0.858513 13:-0.710692 14:-0.605263 15:-1 16:-0.365854 17:-0.333333 18:-0.733333 
1:-0.0869565 2:-0.0769231 3:0.138889 4:-0.458515 5:-0.56044 6:-0.735849 7:-0.568627 8:0.142857 9:-0.666667 10:-0.171429 11:-0.642105 12:-0.690647 13:-0.119497 14:-0.815789 16:-0.317073 17:0.2 18:0.4 
1:-0.130435 2:0.153846 3:0.222222 4:-0.598253 5:-0.648352 6:-0.660377 7:-0.424837 8:0.0285714 9:-0.5 10:0.342857 11:-0.568421 12:-0.592326 13:-0.00628931 14:-0.631579 15:-0.272727 16:-0.268293 17:-0.4 18:-0.0666667 
1:-0.304348 2:-0.153846 3:-0.166667 4:-0.71179 5:-0.758242 6:-0.849057 7:-0.686275 8:0.314286 9:-0.833333 10:-0.2 11:-0.6 12:-0.786571 13:-0.283019 14:-0.5 15:-0.0909091 16:-0.853659 17:-0.333333 18:-0.6 
1:-0.391304 2:-0.461538 3:0.138889 4:-0.49345 5:-0.538462 6:-0.698113 7:-0.555556 8:0.142857 9:-0.666667 10:-0.4 11:-0.610526 12:-0.681055 13:-0.396226 14:-0.710526 15:-1 16:-0.365854 17:-0.133333 18:0.2 
1:-0.130435 2:0.0769231 3:0.25 4:-0.484716 5:-0.582418 6:-0.660377 7:-0.424837 8:0.0285714 9:-0.5 10:0.142857 11:-0.557895 12:-0.589928 13:-0.132075 14:-0.605263 15:-0.363636 16:-0.268293 17:-0.533333 18:-0.0666667 
1:-0.391304 2:0.0769231 3:0.138889 4:-0.606987 5:-0.67033 6:-0.735849 7:-0.542484 8:0.0857143 9:-0.666667 10:-0.0285714 11:-0.568421 12:-0.661871 13:-0.0943396 14:-0.657895 15:-1 16:-0.707317 17:-0.2 18:0.133333 
1:-0.434783 2:-0.692308 3:-0.194444 4:-0.598253 5:-0.648352 6:-0.773585 7:-0.660131 8:0.257143 9:-0.833333 10:-0.542857 11:-0.652632 12:-0.760192 13:-0.811321 14:-0.684211 15:-0.909091 16:-0.707317 17:-0.133333 18:-0.0666667 
1:-0.347826 2:-0.153846 3:0.25 4:-0.694323 5:-0.802198 6:-0.660377 7:-0.411765 8:-0.0285714 9:-0.5 10:0.0571429 11:-0.515789 12:-0.570743 13:-0.169811 14:-0.552632 15:-0.545455 16:-0.219512 17:-0.466667 18:-0.0666667 
1:-0.130435 2:-0.384615 3:0.0833333 4:-0.519651 5:-0.648352 6:-0.773585 7:-0.581699 8:0.142857 9:-0.666667 10:-0.0857143 11:-0.631579 12:-0.70024 13:-0.685535 14:-0.789474 15:-0.636364 16:-0.560976 17:0.266667 18:0.466667 
1:-0.0869565 2:-0.846154 3:-0.277778 4:-0.624454 5:-0.67033 6:-0.735849 7:-0.751634 8:0.371429 9:-0.833333 10:-0.742857 11:-0.694737 12:-0.822542 13:-0.924528 14:-0.815789 15:-0.272727 16:-0.658537 17:0.333333 18:0.333333 
1:-0.478261 2:-0.846154 3:-0.805556 4:-0.947598 5:-0.824176 6:-0.962264 7:-0.934641 8:0.771429 9:-1 10:-0.885714 11:-0.936842 12:-0.954436 13:-0.622642 14:-0.210526 15:-0.545455 16:-0.560976 17:-0.733333 18:-0.8 
1:-0.130435 2:-0.307692 3:-0.333333 4:-0.528384 5:-0.538462 6:-0.735849 7:-0.712418 8:0.314286 9:-0.833333 10:-0.314286 11:-0.652632 12:-0.798561 13:-0.232704 14:-0.684211 15:-0.363636 16:-0.365854 17:0.0666667 18:0.333333 
1:-0.26087 2:0.153846 3:0.0555556 4:-0.737991 5:-0.802198 6:-0.660377 7:-0.372549 8:-0.0285714 9:-0.5 10:0.4 11:-0.589474 12:-0.563549 13:-0.0440252 14:-0.552632 15:-0.909091 16:-0.317073 17:-0.6 18:-0.266667 
1:-0.478261 2:0.0769231 3:-0.0277778 4:-0.851528 5:-0.868132 6:-0.735849 7:-0.411765 8:0.0285714 9:-0.5 10:0.342857 11:-0.6 12:-0.582734 13:-0.157233 14:-0.526316 15:-0.909091 16:-0.658537 17:-0.6 18:-0.333333 
1:-0.130435 2:-0.384615 3:-0.0277778 4:-0.825328 5:-0.912088 6:-0.811321 7:-0.633987 8:0.314286 9:-0.833333 10:-0.342857 11:-0.642105 12:-0.760192 13:-0.496855 14:-0.526316 15:-0.545455 16:-0.268293 17:-0.466667 18:-0.733333 
1:-0.0434783 2:-0.615385 3:-0.277778 4:-0.80786 5:-0.89011 6:-0.773585 7:-0.72549 8:0.485714 9:-0.833333 10:-0.371429 11:-0.705263 12:-0.834532 13:-0.610063 14:-0.5 16:-0.609756 17:-0.466667 18:-0.866667 
1:-0.521739 2:-0.153846 3:0.111111 4:-0.68559 5:-0.758242 6:-0.660377 7:-0.424837 8:0.0285714 9:-0.5 10:0.114286 11:-0.621053 12:-0.604317 13:-0.157233 14:-0.605263 15:-0.545455 16:-0.170732 17:-0.533333 18:-0.2 
1:-0.130435 2:0.0769231 3:0.25 4:-0.502183 5:-0.604396 6:-0.622642 7:-0.437908 8:-0.0285714 9:-0.666667 10:0.114286 11:-0.484211 12:-0.592326 13:-0.132075 14:-0.552632 15:-0.818182 16:-0.560976 17:-0.466667 
1:-0.304348 2:-0.846154 3:-0.166667 4:-0.703057 5:-0.758242 6:-0.811321 7:-0.816993 8:0.542857 9:-1 10:-0.714286 11:-0.821053 12:-0.872902 13:-0.962264 14:-0.868421 15:-0.636364 16:-0.0731707 17:0.533333 18:0.733333 
1:-0.565217 2:-0.692308 3:-0.388889 4:-0.921397 5:-0.868132 6:-0.849057 7:-0.869281 8:0.657143 9:-1 10:-0.685714 11:-0.863158 12:-0.918465 13:-0.672956 14:-0.473684 15:-1 16:-0.658537 17:-0.666667 18:-0.733333 
1:-0.217391 2:-0.230769 3:0.333333 4:-0.537118 5:-0.692308 6:-0.735849 7:-0.51634 8:0.0857143 9:-0.666667 10:0.114286 11:-0.631579 12:-0.659472 13:-0.610063 14:-0.868421 15:-0.909091 16:0.268293 17:0.4 18:0.733333 
2:-0.0769231 3:0.111111 4:-0.49345 5:-0.648352 6:-0.735849 7:-0.555556 8:0.142857 9:-0.666667 10:-0.142857 11:-0.673684 12:-0.683453 13:-0.345912 14:-0.868421 15:-0.545455 16:-0.512195 17:0.533333 18:0.733333 
1:-0.304348 3:0.0277778 4:-0.816594 5:-0.89011 6:-0.698113 7:-0.424837 8:0.0285714 9:-0.5 10:0.2 11:-0.568421 12:-0.59952 13:-0.144654 14:-0.5 15:-0.363636 16:-0.170732 17:-0.533333 18:-0.333333 
1:-0.347826 2:-0.230769 3:0.222222 4:-0.720524 5:-0.824176 6:-0.660377 7:-0.45098 8:0.0285714 9:-0.666667 10:-0.0857143 11:-0.536842 12:-0.601918 13:-0.308176 14:-0.631579 15:-0.454545 16:-0.902439 17:-0.4 
1:0.0869565 2:-0.615385 3:-0.277778 4:-0.772926 5:-0.824176 6:-0.811321 7:-0.764706 8:0.428571 9:-0.833333 10:-0.428571 11:-0.684211 12:-0.839329 13:-0.823899 14:-0.736842 15:-0.727273 16:-0.414634 18:-0.133333 
1:-0.304348 2:-0.0769231 3:0.138889 4:0.240175 5:0.208791 6:0.54717 7:-0.437908 8:0.0285714 9:-0.5 10:0.2 11:-0.263158 12:-0.609113 13:-0.144654 14:-0.184211 15:-0.181818 16:-0.170732 17:-0.533333 18:-0.266667 
1:-0.130435 2:-0.769231 3:-0.361111 4:-0.694323 5:-0.78022 6:-0.773585 7:-0.738562 8:0.371429 9:-0.833333 10:-0.485714 11:-0.705263 12:-0.817746 13:-0.849057 14:-0.789474 15:-0.727273 16:0.317073 17:0.133333 18:0.333333 
1:-0.304348 2:-0.769231 3:-0.222222 4:-0.606987 5:-0.714286 6:-0.773585 7:-0.72549 8:0.371429 9:-0.833333 10:-0.542857 11:-0.757895 12:-0.805755 13:-0.874214 14:-0.921053 15:-0.454545 16:-0.121951 17:0.666667 18:0.866667 
1:-0.130435 2:-0.0769231 3:0.194444 4:-0.668122 5:-0.802198 6:-0.698113 7:-0.411765 8:-0.0285714 9:-0.5 10:0.0571429 11:-0.473684 12:-0.568345 13:-0.00628931 14:-0.578947 15:-0.909091 16:0.0243902 17:-0.466667 18:0.0666667 
1:-0.130435 2:-0.461538 3:-0.388889 4:-0.886463 5:-0.956044 6:-0.811321 7:-0.751634 8:0.485714 9:-0.833333 10:-0.228571 11:-0.684211 12:-0.844125 13:-0.408805 14:-0.5 15:-0.272727 16:-0.707317 17:-0.466667 18:-0.8 
1:-0.217391 2:-0.384615 3:-0.277778 4:-0.764192 5:-0.802198 6:-0.735849 7:-0.816993 8:0.542857 9:-0.833333 10:-0.257143 11:-0.694737 12:-0.872902 13:-0.421384 14:-0.657895 15:-0.727273 16:-0.512195 18:-0.133333 
1:-0.304348 2:-0.692308 3:-0.694444 4:-0.938865 5:-0.846154 6:-0.886792 7:-0.895425 8:0.714286 9:-1 10:-0.742857 11:-0.915789 12:-0.930456 13:-0.522013 14:-0.394737 15:-0.363636 16:-0.804878 17:-0.666667 18:-0.866667 
1:-0.130435 2:-0.230769 3:0.333333 4:-0.423581 5:-0.582418 6:-0.735849 7:-0.503268 8:0.0857143 9:-0.666667 10:-0.171429 11:-0.642105 12:-0.640288 13:-0.572327 14:-0.842105 15:-0.818182 16:-0.170732 17:0.333333 18:0.666667 
1:0.0869565 2:-0.153846 3:0.0555556 4:-0.510917 5:-0.648352 6:-0.773585 7:-0.607843 8:0.2 9:-0.833333 10:-0.142857 11:-0.684211 12:-0.721823 13:-0.220126 14:-0.894737 15:0.727273 16:-0.902439 17:0.666667 18:0.733333 
1:-0.304348 2:-0.153846 4:-0.816594 5:-0.846154 6:-0.698113 7:-0.424837 8:0.0285714 9:-0.5 10:-0.0571429 11:-0.652632 12:-0.597122 13:-0.157233 14:-0.552632 15:0.0909091 16:-0.414634 17:-0.466667 18:-0.2 
1:0.0434783 2:-0.0769231 3:0.416667 4:-0.502183 5:-0.648352 6:-0.698113 7:-0.490196 8:0.0857143 9:-0.666667 10:-0.142857 11:-0.621053 12:-0.640288 13:-0.220126 14:-0.842105 15:0.636364 16:-0.0243902 17:0.4 18:0.6 
1:-0.0434783 2:-0.153846 3:0.222222 4:-0.528384 5:-0.67033 6:-0.698113 7:-0.568627 8:0.142857 9:-0.666667 10:-0.142857 11:-0.652632 12:-0.693046 13:-0.283019 14:-0.868421 15:-0.0909091 16:-0.707317 17:0.533333 18:0.666667 
1:-0.217391 3:0.0555556 4:-0.615721 5:-0.692308 6:-0.735849 7:-0.542484 8:0.0857143 9:-0.666667 10:-0.0285714 11:-0.6 12:-0.666667 13:0.132075 14:-0.710526 15:0.181818 16:-0.463415 17:-0.133333 18:0.266667 
1:-0.304348 2:0.0769231 3:0.25 4:-0.624454 5:-0.758242 6:-0.698113 7:-0.464052 8:0.0285714 9:-0.666667 10:-0.0571429 11:-0.526316 12:-0.604317 13:-0.0314465 14:-0.605263 15:0.181818 16:-0.658537 17:-0.333333 18:0.0666667 
1:-0.26087 2:0.0769231 3:0.25 4:-0.606987 5:-0.714286 6:-0.698113 7:-0.437908 8:-0.0285714 9:-0.666667 10:0.0571429 11:-0.484211 12:-0.589928 13:-0.0314465 14:-0.578947 15:-0.909091 16:-0.756098 17:-0.4 
1:0.0434783 2:0.0769231 3:0.305556 4:-0.475983 5:-0.626374 6:-0.735849 7:-0.424837 8:-0.0285714 9:-0.5 10:-0.114286 11:-0.547368 12:-0.580336 13:-0.081761 14:-0.763158 15:-0.909091 16:-0.365854 17:0.0666667 18:0.4 
1:-0.391304 2:-0.769231 3:-0.638889 4:-0.886463 5:-0.758242 6:-0.924528 7:-0.921569 8:0.771429 9:-1 10:-0.8 11:-0.915789 12:-0.94964 13:-0.63522 14:-0.315789 15:-0.181818 16:-0.268293 17:-0.733333 18:-0.866667 
1:-0.0869565 2:0.230769 3:0.305556 4:-0.519651 5:-0.626374 6:-0.698113 7:-0.411765 8:-0.0285714 9:-0.5 10:0.142857 11:-0.484211 12:-0.570743 13:0.18239 14:-0.578947 15:-0.636364 16:-1 17:-0.533333 18:-0.133333 
1:-0.26087 2:0.0769231 3:0.25 4:-0.641921 5:-0.758242 6:-0.735849 7:-0.477124 8:0.0285714 9:-0.666667 10:0.0571429 11:-0.526316 12:-0.613909 13:-0.0566038 14:-0.631579 15:-0.636364 16:-0.902439 17:-0.333333 18:0.0666667 
1:-0.0869565 2:0.0769231 3:0.25 4:1 5:1 6:0.773585 7:-0.437908 8:-0.0285714 9:-0.666667 10:0.0571429 11:1 12:-0.592326 13:-0.0188679 14:1 15:0.0909091 16:-0.560976 17:-0.2 
1:-0.217391 2:-0.615385 3:-0.166667 4:-0.510917 5:-0.582418 6:-0.132075 7:-0.633987 8:0.2 9:-0.833333 10:-0.4 11:-0.663158 12:-0.731415 13:-0.735849 14:-0.789474 15:-0.636364 16:-0.463415 17:0.0666667 18:0.4 
1:-0.130435 2:-0.153846 3:0.388889 4:-0.458515 5:-0.604396 6:-0.698113 7:-0.464052 8:0.0285714 9:-0.666667 10:0.0857143 11:-0.578947 12:-0.606715 13:-0.572327 14:-0.815789 15:-0.181818 16:-0.170732 17:0.2 18:0.466667 
1:-0.391304 2:-0.307692 3:-0.333333 4:-0.598253 5:-0.626374 6:-0.698113 7:-0.72549 8:0.371429 9:-0.833333 10:-0.342857 11:-0.715789 12:-0.805755 13:-0.371069 14:-0.789474 15:-0.363636 16:-1 17:0.133333 18:0.333333 
2:-0.538462 3:0.0277778 4:-0.510917 5:-0.67033 6:-0.773585 7:-0.633987 8:0.2 9:-0.833333 10:-0.0857143 11:-0.673684 12:-0.736211 13:-0.811321 14:-0.921053 15:0.363636 16:-0.853659 17:0.666667 18:0.8 
1:-0.478261 2:-0.0769231 3:0.166667 4:-0.746725 5:-0.802198 6:-0.660377 7:-0.385621 8:-0.0285714 9:-0.5 10:0.0857143 11:-0.578947 12:-0.573141 13:-0.194969 14:-0.552632 15:-0.0909091 16:0.0243902 17:-0.533333 18:-0.2 
2:-0.538462 3:-0.5 4:-0.886463 5:-0.912088 6:-0.849057 7:-0.72549 8:0.485714 9:-0.833333 10:-0.4 11:-0.747368 12:-0.829736 13:-0.484277 14:-0.289474 15:-0.454545 16:-1 17:-0.666667 18:-0.933333 
1:-0.521739 2:-0.692308 3:-0.166667 4:-0.641921 5:-0.67033 6:-0.735849 7:-0.686275 8:0.257143 9:-0.833333 10:-0.542857 11:-0.694737 12:-0.769784 13:-0.610063 14:-0.763158 16:-0.560976 17:0.2 18:0.4 
1:-0.478261 2:-0.692308 3:-0.222222 4:-0.641921 5:-0.714286 6:-0.849057 7:-0.764706 8:0.428571 9:-0.833333 10:-0.657143 11:-0.789474 12:-0.834532 13:-0.849057 14:-0.842105 15:-0.727273 16:-0.317073 17:0.266667 18:0.466667 
1:-0.130435 2:-0.307692 3:-0.333333 4:-0.834061 5:-0.912088 6:-0.811321 7:-0.699346 8:0.428571 9:-0.833333 10:-0.257143 11:-0.642105 12:-0.81295 13:-0.421384 14:-0.5 15:0.454545 16:-0.414634 17:-0.4 18:-0.733333 
1:-0.26087 2:0.0769231 3:-0.0833333 4:-0.720524 5:-0.758242 6:-0.660377 7:-0.359477 8:-0.0857143 9:-0.5 11:-0.557895 12:-0.539568 13:-0.0440252 14:-0.526316 16:-0.609756 17:-0.533333 18:-0.333333 
1:-0.217391 2:-0.769231 3:-0.444444 4:-0.80786 5:-0.802198 6:-0.849057 7:-0.908497 8:0.714286 9:-1 10:-0.657143 11:-0.905263 12:-0.935252 13:-0.886792 14:-0.789474 15:-0.454545 16:-0.317073 17:0.0666667 18:0.133333 
1:-0.304348 3:-0.0555556 4:-0.729258 5:-0.736264 6:-0.735849 7:-0.411765 8:0.0285714 9:-0.5 10:0.142857 11:-0.578947 12:-0.58753 13:-0.144654 14:-0.473684 15:0.0909091 16:-0.853659 17:-0.466667 18:-0.333333 
1:-0.217391 2:-0.538462 3:0.166667 4:-0.475983 5:-0.538462 6:-0.698113 7:-0.594771 8:0.142857 9:-0.666667 10:-0.457143 11:-0.642105 12:-0.702638 13:-0.383648 14:-0.763158 15:0.181818 16:-0.560976 18:0.333333 
1:-0.173913 2:-0.230769 3:-0.166667 4:-0.825328 5:-0.89011 6:-0.849057 7:-0.647059 8:0.314286 9:-0.833333 10:-0.257143 11:-0.642105 12:-0.764988 13:-0.207547 14:-0.473684 15:-0.636364 16:-0.219512 17:-0.533333 18:-0.733333 
1:-0.565217 2:-0.0769231 3:-0.0833333 4:-0.502183 5:-0.538462 6:-0.773585 7:-0.607843 8:0.142857 9:-0.833333 10:-0.257143 11:-0.589474 12:-0.709832 13:-0.119497 14:-0.684211 15:-0.0909091 16:-0.853659 18:0.2 
1:-0.26087 2:-0.384615 3:-0.388889 4:-0.624454 5:-0.714286 6:-0.849057 7:-0.79085 8:0.485714 9:-0.833333 10:-0.342857 11:-0.8 12:-0.851319 13:-0.396226 14:-0.947368 15:0.181818 16:-0.804878 17:0.666667 18:0.8 
1:-0.217391 2:-0.153846 3:-0.277778 4:-0.58952 5:-0.648352 6:-0.811321 7:-0.673203 8:0.257143 9:-0.833333 10:-0.2 11:-0.621053 12:-0.769784 13:-0.27044 14:-0.657895 15:-0.909091 16:-0.560976 17:-0.2 18:-0.133333 
1:-0.304348 3:0.0555556 4:-0.598253 5:-0.648352 6:-0.660377 7:-0.372549 8:-0.0285714 9:-0.5 10:0.2 11:-0.578947 12:-0.561151 13:-0.157233 14:-0.631579 15:-0.545455 16:-0.560976 17:-0.4 18:-0.133333 
1:-0.434783 2:-0.615385 4:-0.659389 5:-0.736264 6:-0.773585 7:-0.607843 8:0.2 9:-0.833333 10:-0.628571 11:-0.610526 12:-0.719424 13:-0.63522 14:-0.684211 15:-0.545455 16:-0.512195 17:-0.133333 
1:-0.26087 2:0.153846 3:0.0555556 4:-0.659389 5:-0.714286 6:-0.660377 7:-0.359477 8:-0.0285714 9:-0.5 10:0.171429 11:-0.557895 12:-0.544365 13:-0.0314465 14:-0.578947 15:-0.818182 16:-0.902439 17:-0.466667 18:-0.2 
1:-0.0869565 2:-0.230769 3:0.166667 4:-0.720524 5:-0.846154 6:-0.698113 7:-0.437908 8:-0.0285714 9:-0.666667 10:-0.114286 11:-0.515789 12:-0.580336 13:-0.345912 14:-0.605263 15:-0.909091 16:-0.707317 17:-0.333333 18:0.0666667 
1:-0.347826 2:-0.769231 3:-0.638889 4:-0.921397 5:-0.78022 6:-0.962264 7:-0.921569 8:0.771429 9:-1 10:-0.714286 11:-0.926316 12:-0.952038 13:-0.660377 14:-0.236842 15:-0.363636 16:-0.317073 17:-0.733333 18:-0.866667 
1:-0.0434783 3:0.444444 4:-0.519651 5:-0.648352 6:-0.660377 7:-0.372549 8:-0.0857143 9:-0.5 10:0.114286 11:-0.515789 12:-0.549161 13:-0.220126 14:-0.710526 15:-0.363636 16:0.0243902 17:-0.133333 18:0.266667 
1:-0.304348 2:-0.615385 3:-0.0555556 4:-0.703057 5:-0.736264 6:-0.811321 7:-0.686275 8:0.314286 9:-0.833333 10:-0.571429 11:-0.610526 12:-0.77458 13:-0.761006 14:-0.657895 15:-0.363636 16:-0.658537 17:-0.133333 18:-0.2 
1:-0.347826 2:-0.538462 4:-0.554585 5:-0.67033 6:-0.773585 7:-0.673203 8:0.257143 9:-0.833333 10:-0.457143 11:-0.726316 12:-0.767386 13:-0.811321 14:-0.894737 15:-0.727273 16:-0.707317 17:0.666667 18:0.866667 
1:-0.130435 2:-0.461538 3:-0.0833333 4:-0.694323 5:-0.758242 6:-0.849057 7:-0.686275 8:0.314286 9:-0.833333 10:-0.428571 11:-0.621053 12:-0.781775 13:-0.647799 14:-0.631579 15:-1 16:-1 17:-0.266667 18:-0.533333 
1:-0.26087 2:-0.230769 3:0.138889 4:0.10917 5:0.0989011 6:0.660377 7:-0.503268 8:0.0857143 9:-0.666667 10:-0.114286 11:-0.263158 12:-0.645084 13:-0.308176 14:-0.157895 15:-0.545455 16:-0.560976 17:-0.333333 
1:-0.304348 2:-0.384615 3:-0.361111 4:-0.737991 5:-0.736264 6:-0.849057 7:-0.856209 8:0.657143 9:-1 10:-0.457143 11:-0.810526 12:-0.906475 13:-0.484277 14:-0.552632 15:0.0909091 16:-0.853659 17:-0.333333 18:-0.533333 
1:-0.26087 2:-0.538462 3:-0.527778 4:-0.912664 5:-0.978022 6:-0.811321 7:-0.699346 8:0.428571 9:-0.833333 10:-0.4 11:-0.736842 12:-0.815348 13:-0.471698 14:-0.315789 15:0.0909091 16:-0.609756 17:-0.533333 18:-0.933333 
1:0.0869565 2:-0.153846 3:0.333333 4:-0.371179 5:-0.56044 6:-0.698113 7:-0.398693 8:-0.0285714 9:-0.5 10:-0.114286 11:-0.547368 12:-0.561151 13:-0.433962 14:-0.815789 15:0.272727 16:-0.560976 17:0.2 18:0.4 
1:-0.347826 2:-0.923077 3:-0.5 4:-0.68559 5:-0.736264 6:-0.849057 7:-0.803922 8:0.485714 9:-0.833333 10:-0.657143 11:-0.810526 12:-0.858513 13:-0.949686 14:-0.894737 15:-0.636364 16:-0.512195 17:0.533333 18:0.666667 
1:-0.347826 2:-0.153846 3:0.222222 4:-0.729258 5:-0.824176 6:-0.622642 7:-0.437908 8:0.0285714 9:-0.5 10:0.142857 11:-0.515789 12:-0.59952 13:-0.308176 14:-0.578947 15:-0.363636 16:-0.463415 17:-0.533333 18:-0.0666667 
1:-0.173913 2:-0.461538 3:-0.277778 4:-0.938865 5:-0.978022 6:-0.811321 7:-0.647059 8:0.371429 9:-0.666667 10:-0.371429 11:-0.694737 12:-0.776978 13:-0.509434 14:-0.315789 15:0.0909091 16:-0.0731707 17:-0.6 18:-0.866667 
1:-0.434783 2:-0.615385 3:-0.5 4:-0.868996 5:-0.802198 6:-0.924528 7:-0.921569 8:0.771429 9:-1 10:-0.685714 11:-0.894737 12:-0.942446 13:-0.459119 14:-0.5 15:-0.181818 16:-0.902439 17:-0.466667 18:-0.666667 
1:0.0434783 2:-0.846154 3:-0.277778 4:-0.58952 5:-0.626374 6:-0.773585 7:-0.79085 8:0.485714 9:-0.833333 10:-0.685714 11:-0.810526 12:-0.851319 13:-0.962264 14:-0.815789 15:-0.454545 16:-0.902439 17:0.266667 18:0.266667 
2:-0.0769231 3:0.305556 4:-0.432314 5:-0.56044 6:-0.698113 7:-0.45098 8:0.0285714 9:-0.666667 10:-0.114286 11:-0.610526 12:-0.59952 13:-0.18239 14:-0.789474 15:-0.181818 16:-0.609756 17:0.0666667 18:0.333333 
1:-0.304348 2:0.0769231 3:0.111111 4:-0.764192 5:-0.846154 6:-0.660377 7:-0.372549 8:-0.0285714 9:-0.5 10:0.285714 11:-0.526316 12:-0.556355 13:-0.18239 14:-0.526316 15:-0.909091 16:-0.658537 17:-0.6 18:-0.2 
1:-0.304348 2:-0.769231 3:-0.222222 4:-0.676856 5:-0.736264 6:-0.773585 7:-0.647059 8:0.2 9:-0.833333 10:-0.657143 11:-0.621053 12:-0.743405 13:-0.773585 14:-0.631579 15:-0.363636 16:-0.95122 17:-0.133333 
1:-0.478261 2:-0.846154 3:-0.333333 4:-0.781659 5:-0.78022 6:-0.849057 7:-0.947712 8:0.771429 9:-1 10:-0.8 11:-0.915789 12:-0.961631 13:-0.823899 14:-0.842105 15:-0.909091 16:0.121951 17:0.333333 18:0.466667 
1:-0.565217 2:-0.461538 3:-0.472222 4:-0.895197 5:-0.868132 6:-0.811321 7:-0.738562 8:0.485714 9:-0.833333 10:-0.457143 11:-0.842105 12:-0.841727 13:-0.396226 14:-0.342105 15:0.0909091 16:-0.707317 17:-0.933333 18:-0.866667 
1:-0.347826 2:-0.307692 3:-0.277778 4:-0.746725 5:-0.78022 6:-0.849057 7:-0.856209 8:0.6 9:-1 10:-0.257143 11:-0.821053 12:-0.896882 13:-0.358491 14:-0.815789 15:-0.272727 16:-0.804878 17:0.133333 18:0.133333 
1:-0.130435 2:-0.538462 3:0.0555556 4:-0.475983 5:-0.582418 6:-0.773585 7:-0.647059 8:0.257143 9:-0.833333 10:-0.371429 11:-0.715789 12:-0.745803 13:-0.786164 14:-0.868421 15:-0.636364 16:-0.658537 17:0.666667 18:0.8 
1:-0.521739 2:-0.692308 3:-0.166667 4:-0.598253 5:-0.692308 6:-0.811321 7:-0.673203 8:0.314286 9:-0.833333 10:-0.371429 11:-0.726316 12:-0.77458 13:-0.849057 14:-0.868421 15:-1 16:0.121951 17:0.333333 18:0.6 
1:-0.26087 2:0.230769 3:0.25 4:-0.676856 5:-0.78022 6:-0.660377 7:-0.385621 8:-0.0285714 9:-0.5 10:0.4 11:-0.547368 12:-0.565947 13:-0.0314465 14:-0.578947 15:-0.909091 16:-0.463415 17:-0.6 18:-0.266667 
1:-0.565217 2:-0.692308 3:-0.75 4:-0.930131 5:-0.824176 6:-0.886792 7:-0.869281 8:0.657143 9:-1 10:-0.714286 11:-0.852632 12:-0.916067 13:-0.534591 14:-0.315789 15:-0.272727 16:-0.219512 17:-0.733333 18:-0.8 
1:0.0869565 2:-0.538462 3:-0.222222 4:-0.720524 5:-0.802198 6:-0.773585 7:-0.751634 8:0.485714 9:-0.833333 10:-0.257143 11:-0.694737 12:-0.839329 13:-0.685535 14:-0.657895 15:-0.636364 16:-0.512195 17:-0.333333 18:-0.6 
1:-0.26087 2:0.153846 3:0.138889 4:-0.650655 5:-0.714286 6:-0.735849 7:-0.503268 8:0.0285714 9:-0.666667 10:0.0857143 11:-0.547368 12:-0.642686 13:0.144654 14:-0.578947 15:-0.818182 16:-1 17:-0.4 18:-0.0666667 
1:-0.26087 2:-0.307692 3:-0.361111 4:-0.650655 5:-0.736264 6:-0.811321 7:-0.751634 8:0.371429 9:-0.833333 10:-0.314286 11:-0.747368 12:-0.820144 13:-0.333333 14:-0.842105 15:0.363636 16:-0.853659 17:0.4 18:0.533333 
1:0.0434783 2:-0.384615 3:-0.388889 4:-0.746725 5:-0.802198 6:-0.811321 7:-0.764706 8:0.485714 9:-0.833333 10:-0.285714 11:-0.705263 12:-0.848921 13:-0.396226 14:-0.5 15:-0.545455 16:-0.658537 17:-0.466667 18:-0.666667 
3:0.333333 4:-0.510917 5:-0.626374 6:-0.735849 7:-0.490196 8:0.0285714 9:-0.666667 10:-0.142857 11:-0.547368 12:-0.628297 13:-0.081761 14:-0.710526 15:0.363636 16:-0.463415 17:0.0666667 18:0.2 
1:-0.434783 2:-0.846154 3:-0.888889 4:-0.947598 5:-0.846154 6:-1 7:-0.908497 8:0.771429 9:-1 10:-0.914286 11:-0.905263 12:-0.942446 13:-0.647799 14:-0.184211 15:-0.454545 16:-0.95122 17:-0.733333 18:-0.866667 
1:-0.304348 2:-0.0769231 3:0.25 4:-0.606987 5:-0.736264 6:-0.660377 7:-0.398693 8:-0.0285714 9:-0.5 10:0.142857 11:-0.505263 12:-0.573141 13:-0.194969 14:-0.578947 15:0.0909091 16:-0.219512 17:-0.533333 18:-0.2 
1:-0.217391 2:-0.538462 3:0.0277778 4:-0.572052 5:-0.736264 6:-0.773585 7:-0.647059 8:0.257143 9:-0.833333 10:-0.4 11:-0.694737 12:-0.748201 13:-0.823899 14:-0.921053 15:-0.272727 16:-0.170732 17:0.666667 18:0.866667 
1:-0.347826 2:-0.846154 3:-0.444444 4:-0.659389 5:-0.736264 6:-0.811321 7:-0.79085 8:0.485714 9:-0.833333 10:-0.685714 11:-0.821053 12:-0.851319 13:-1 14:-0.921053 15:-0.909091 16:-0.707317 17:0.733333 18:0.866667 
1:-0.26087 2:-0.230769 3:-0.111111 4:-0.537118 5:-0.626374 6:-0.773585 7:-0.686275 8:0.314286 9:-0.833333 10:-0.228571 11:-0.705263 12:-0.772182 13:-0.27044 14:-0.868421 15:-0.636364 16:-0.707317 17:0.666667 18:0.866667 
1:-0.26087 2:0.0769231 3:0.25 4:-0.502183 5:-0.626374 6:-0.698113 7:-0.333333 8:-0.0857143 9:-0.5 10:0.2 11:-0.505263 12:-0.508393 13:-0.0440252 14:-0.631579 15:-0.181818 16:-1 17:-0.4 18:-0.0666667 
1:-0.0869565 3:0.416667 4:-0.379913 5:-0.494505 6:-0.622642 7:-0.411765 8:-0.0285714 9:-0.5 10:0.0571429 11:-0.557895 12:-0.582734 13:0.0440252 14:-0.736842 15:0.363636 16:0.0243902 17:-0.0666667 18:0.266667 
1:-0.0434783 4:-0.49345 5:-0.582418 6:-0.660377 7:-0.346405 8:-0.0857143 9:-0.5 10:0.0571429 11:-0.526316 12:-0.527578 13:-0.207547 14:-0.605263 15:-0.272727 16:-0.804878 17:-0.466667 18:-0.2 
1:-0.26087 3:-0.0833333 4:-0.71179 5:-0.758242 6:-0.660377 7:-0.359477 8:-0.0285714 9:-0.5 10:0.142857 11:-0.578947 12:-0.546763 13:-0.0314465 14:-0.552632 15:-1 16:-0.560976 17:-0.6 18:-0.2 
1:-0.26087 3:-0.0277778 4:-0.746725 5:-0.824176 6:-0.660377 7:-0.372549 8:-0.0285714 9:-0.5 10:0.228571 11:-0.547368 12:-0.556355 13:-0.220126 14:-0.526316 15:-1 16:-0.219512 17:-0.6 18:-0.266667 
1:-0.173913 2:-0.384615 3:-0.277778 4:-0.816594 5:-0.89011 6:-0.811321 7:-0.647059 8:0.371429 9:-0.833333 10:-0.285714 11:-0.684211 12:-0.781775 13:-0.345912 14:-0.421053 15:-0.363636 16:-0.0731707 17:-0.6 18:-0.8 
1:-0.130435 2:-0.230769 3:0.0555556 4:-0.49345 5:-0.626374 6:-0.773585 7:-0.673203 8:0.257143 9:-0.833333 10:-0.228571 11:-0.726316 12:-0.767386 13:-0.371069 14:-0.894737 15:0.545455 16:-0.414634 17:0.8 18:0.933333 
1:-0.608696 2:-0.230769 3:-0.166667 4:0.275109 5:0.274725 6:1 7:-0.647059 8:0.257143 9:-0.833333 10:-0.228571 11:0.0631579 12:-0.748201 13:-0.207547 14:0.0526316 15:-0.636364 16:-0.560976 17:-0.0666667 18:0.2 
1:-0.173913 2:-0.846154 3:-0.5 4:-0.720524 5:-0.758242 6:-0.849057 7:-0.869281 8:0.657143 9:-1 10:-0.6 11:-0.873684 12:-0.908873 13:-0.91195 14:-0.868421 15:-0.454545 16:-0.170732 17:0.4 18:0.466667 
1:-0.0869565 2:0.230769 3:0.166667 4:-0.71179 5:-0.802198 6:-0.698113 7:-0.385621 8:-0.0285714 9:-0.5 10:0.2 11:-0.515789 12:-0.561151 13:-0.0314465 14:-0.552632 15:-0.0909091 16:-0.658537 17:-0.533333 18:-0.266667 
1:-0.0869565 2:-0.0769231 3:0.25 4:-0.484716 5:-0.538462 6:-0.698113 7:-0.411765 8:0.0285714 9:-0.5 10:0.0857143 11:-0.578947 12:-0.585132 13:-0.157233 14:-0.631579 15:0.545455 16:-0.463415 17:-0.266667 18:-0.0666667 
1:-0.0869565 2:-0.0769231 3:0.25 4:-0.510917 5:-0.648352 6:-0.698113 7:-0.398693 8:-0.0285714 9:-0.5 10:0.114286 11:-0.536842 12:-0.561151 13:-0.333333 14:-0.763158 15:-0.909091 16:-0.707317 17:-0.133333 18:0.2 
1:-0.217391 2:-0.692308 4:-0.703057 5:-0.824176 6:-0.773585 7:-0.738562 8:0.428571 9:-0.833333 10:-0.514286 11:-0.715789 12:-0.827338 13:-0.811321 14:-0.736842 15:-1 16:-0.414634 18:-0.266667 
1:-0.478261 2:-0.0769231 3:-0.0833333 4:-0.449782 5:-0.516484 6:-0.773585 7:-0.594771 8:0.142857 9:-0.833333 10:-0.142857 11:-0.547368 12:-0.705036 13:-0.157233 14:-0.684211 15:-0.818182 16:-1 17:-0.0666667 18:0.2 
1:-0.347826 2:-0.461538 3:-0.583333 4:-0.912664 5:-0.868132 6:-0.811321 7:-0.738562 8:0.542857 9:-0.833333 10:-0.4 11:-0.873684 12:-0.844125 13:-0.383648 14:-0.263158 15:-1 16:-0.658537 17:-1 18:-0.866667 
2:-0.153846 3:0.25 4:-0.458515 5:-0.582418 6:-0.698113 7:-0.437908 8:-0.0285714 9:-0.666667 10:-0.0857143 11:-0.610526 12:-0.589928 13:-0.371069 14:-0.789474 15:-0.727273 16:-0.512195 17:0.0666667 18:0.4 
3:0.333333 4:-0.388646 5:-0.538462 6:-0.698113 7:-0.437908 8:-0.0285714 9:-0.666667 10:-0.142857 11:-0.547368 12:-0.592326 13:-0.081761 14:-0.736842 15:0.272727 16:-0.268293 17:0.2 18:0.4 
1:-0.217391 2:-0.307692 3:-0.277778 4:-0.668122 5:-0.758242 6:-0.735849 7:-0.712418 8:0.371429 9:-0.833333 10:-0.314286 11:-0.652632 12:-0.798561 13:-0.308176 14:-0.736842 15:-0.454545 16:-0.756098 18:0.0666667 
1:-0.130435 3:0.25 4:-0.432314 5:-0.582418 6:-0.735849 7:-0.490196 8:0.0285714 9:-0.666667 10:-0.171429 11:-0.589474 12:-0.628297 13:-0.119497 14:-0.789474 15:-1 16:-0.804878 17:0.266667 18:0.533333 
1:-0.478261 2:-0.769231 3:-0.694444 4:-0.90393 5:-0.802198 6:-0.886792 7:-0.908497 8:0.771429 9:-1 10:-0.828571 11:-0.905263 12:-0.944844 13:-0.773585 14:-0.421053 15:0.181818 16:-0.756098 17:-0.666667 18:-0.8 
1:-0.217391 2:-0.384615 3:-0.333333 4:-0.615721 5:-0.692308 6:-0.773585 7:-0.777778 8:0.428571 9:-0.833333 10:-0.314286 11:-0.673684 12:-0.844125 13:-0.446541 14:-0.763158 15:-0.454545 16:-0.414634 17:0.2 18:0.333333 
1:-0.434783 2:-0.538462 3:-0.5 4:-0.816594 5:-0.824176 6:-0.886792 7:-0.934641 8:0.771429 9:-1 10:-0.542857 11:-0.894737 12:-0.952038 13:-0.509434 14:-0.736842 15:-0.363636 16:-0.707317 17:-0.0666667 18:-0.133333 
1:-0.0869565 2:0.307692 3:0.222222 4:-0.703057 5:-0.78022 6:-0.698113 7:-0.424837 8:0.0285714 9:-0.5 10:0.485714 11:-0.568421 12:-0.59952 13:-0.0188679 14:-0.526316 15:-0.545455 16:-0.707317 17:-0.6 18:-0.333333 
1:-0.26087 2:-0.153846 3:-0.194444 4:-0.580786 5:-0.626374 6:-0.811321 7:-0.699346 8:0.314286 9:-0.833333 10:-0.228571 11:-0.631579 12:-0.788969 13:-0.333333 14:-0.578947 15:-0.727273 16:-0.902439 17:-0.266667 18:-0.333333 
1:-0.0869565 2:-0.692308 3:-0.111111 4:-0.633188 5:-0.714286 6:-0.735849 7:-0.72549 8:0.371429 9:-0.833333 10:-0.514286 11:-0.673684 12:-0.81295 13:-0.761006 14:-0.736842 15:-0.818182 16:-0.658537 17:0.0666667 18:-0.0666667 
2:-0.538462 3:-0.333333 4:-0.938865 5:-0.978022 6:-0.773585 7:-0.712418 8:0.485714 9:-0.833333 10:-0.342857 11:-0.684211 12:-0.822542 13:-0.622642 14:-0.447368 15:-0.363636 16:-0.0243902 17:-0.533333 18:-0.8 
1:-0.347826 2:-0.307692 3:-0.333333 4:-0.58952 5:-0.67033 6:-0.773585 7:-0.764706 8:0.428571 9:-0.833333 10:-0.314286 11:-0.789474 12:-0.834532 13:-0.345912 14:-0.894737 15:-0.727273 16:-0.902439 17:0.8 18:0.933333 
1:-0.391304 2:-0.692308 3:-0.666667 4:-0.895197 5:-0.846154 6:-0.849057 7:-0.960784 8:0.828571 9:-1 10:-0.771429 11:-0.947368 12:-0.971223 13:-0.559748 14:-0.605263 16:0.0731707 17:-0.333333 18:-0.4 
1:-0.130435 2:-0.692308 3:-0.166667 4:-0.80786 5:-0.89011 6:-0.735849 7:-0.803922 8:0.542857 9:-0.833333 10:-0.457143 11:-0.726316 12:-0.870504 13:-0.874214 14:-0.684211 15:-0.818182 16:-0.365854 18:-0.4 
1:-0.434783 2:-0.230769 3:-0.222222 4:-0.598253 5:-0.626374 6:-0.735849 7:-0.660131 8:0.257143 9:-0.833333 10:-0.285714 11:-0.673684 12:-0.757794 13:-0.18239 14:-0.736842 15:-0.454545 16:-1 17:0.0666667 18:0.333333 
1:-0.565217 2:-0.461538 3:-0.638889 4:-0.912664 5:-0.868132 6:-0.849057 7:-0.738562 8:0.542857 9:-0.833333 10:-0.371429 11:-0.873684 12:-0.848921 13:-0.396226 14:-0.289474 15:-0.272727 16:-0.658537 17:-1 18:-0.866667 
1:-0.347826 2:-0.384615 3:0.111111 4:-0.624454 5:-0.67033 6:-0.773585 7:-0.555556 8:0.0857143 9:-0.666667 10:-0.257143 11:-0.589474 12:-0.678657 13:-0.345912 14:-0.684211 15:-0.636364 16:-0.219512 17:-0.2 18:0.0666667 
1:-0.26087 2:0.153846 3:0.0277778 4:-0.755459 5:-0.802198 6:-0.698113 7:-0.411765 8:0.0285714 9:-0.5 10:0.314286 11:-0.589474 12:-0.592326 13:-0.0188679 14:-0.5 15:-0.909091 16:-0.853659 17:-0.6 18:-0.333333 
1:-0.26087 2:0.153846 3:0.25 4:-0.537118 5:-0.626374 6:-0.660377 7:-0.359477 8:-0.0285714 9:-0.5 10:0.4 11:-0.526316 12:-0.541966 13:-0.0314465 14:-0.605263 15:-0.727273 16:-0.219512 17:-0.4 18:-0.0666667 
1:-0.0434783 2:-0.384615 3:0.166667 4:-0.423581 5:-0.604396 6:-0.735849 7:-0.568627 8:0.142857 9:-0.666667 10:-0.228571 11:-0.652632 12:-0.688249 13:-0.610063 14:-0.868421 15:-0.636364 16:-0.609756 17:0.533333 18:0.733333 
1:-0.304348 2:-0.307692 3:-0.277778 4:-0.816594 5:-0.868132 6:-0.811321 7:-0.751634 8:0.428571 9:-0.833333 10:-0.257143 11:-0.663158 12:-0.832134 13:-0.333333 14:-0.631579 15:-0.0909091 16:-0.170732 17:-0.2 18:-0.333333 
1:-0.0434783 2:0.230769 3:0.166667 4:-0.694323 5:-0.802198 6:-0.660377 7:-0.385621 8:-0.0285714 9:-0.5 10:0.257143 11:-0.547368 12:-0.565947 13:-0.0440252 14:-0.578947 15:-0.363636 16:-0.512195 17:-0.6 18:-0.333333 
1:-0.391304 2:-0.0769231 3:-0.277778 4:-0.694323 5:-0.758242 6:-0.773585 7:-0.633987 8:0.2 9:-0.833333 10:-0.142857 11:-0.6 12:-0.736211 13:-0.169811 14:-0.631579 15:-0.727273 16:-0.414634 17:-0.2 
1:-0.0434783 2:-0.230769 4:-0.668122 5:-0.78022 6:-0.698113 7:-0.490196 8:0.0285714 9:-0.666667 10:-0.114286 11:-0.547368 12:-0.628297 13:-0.371069 14:-0.684211 15:-0.818182 16:0.121951 17:-0.266667 18:0.266667 
1:-0.26087 2:-0.153846 3:-0.111111 4:-0.537118 5:-0.626374 6:-0.773585 7:-0.673203 8:0.257143 9:-0.833333 10:-0.257143 11:-0.694737 12:-0.76259 13:-0.220126 14:-0.842105 15:-0.181818 16:-0.804878 17:0.333333 18:0.466667 
1:-0.304348 3:0.222222 4:-0.484716 5:-0.582418 6:-0.660377 7:-0.385621 8:-0.0285714 9:-0.5 10:0.171429 11:-0.547368 12:-0.558753 13:-0.157233 14:-0.657895 15:-0.909091 16:-0.0243902 17:-0.333333 18:0.0666667 
1:-0.478261 2:-0.769231 3:-0.277778 4:-0.834061 5:-0.824176 6:-0.886792 7:-0.895425 8:0.714286 9:-1 10:-0.714286 11:-0.894737 12:-0.932854 13:-0.72327 14:-0.631579 15:-0.909091 16:-0.121951 17:-0.333333 18:-0.4 
1:0.347826 2:0.307692 3:0.833333 4:-0.0829694 5:-0.582418 6:-0.698113 7:0.24183 8:-0.657143 10:0.142857 11:-0.0210526 12:0.0815348 13:0.396226 14:-0.631579 15:0.272727 16:-0.560976 17:-0.2 
1:-0.130435 2:-0.153846 3:0.611111 4:-0.187773 5:-0.67033 6:-0.660377 7:-0.0718954 8:-0.428571 9:-0.166667 10:-0.2 11:-0.242105 12:-0.230216 13:-0.459119 14:-0.868421 15:-0.636364 16:-0.317073 17:0.266667 18:0.533333 
1:-0.26087 2:-0.923077 3:-0.277778 4:-0.720524 5:-0.824176 6:-0.849057 7:-0.856209 8:0.6 9:-1 10:-1 11:-0.810526 12:-0.904077 13:-0.886792 14:-0.842105 15:-0.545455 16:0.268293 17:0.333333 18:0.4 
1:0.347826 2:0.615385 3:0.666667 4:-0.283843 5:-0.692308 6:-0.698113 7:0.359477 8:-0.714286 9:0.166667 10:0.571429 12:0.203837 13:0.396226 14:-0.605263 15:-0.545455 16:-0.463415 17:-0.4 18:-0.0666667 
1:0.130435 2:0.538462 3:0.805556 4:0.00436681 5:-0.582418 6:-0.660377 7:0.202614 8:-0.657143 10:0.342857 11:-0.0421053 12:0.0527578 13:0.446541 14:-0.763158 15:-1 16:-0.707317 18:0.333333 
1:-0.565217 2:-0.769231 3:-0.611111 4:-0.868996 5:-0.78022 6:-0.849057 7:-0.79085 8:0.542857 9:-0.833333 10:-0.8 11:-0.863158 12:-0.870504 13:-0.622642 14:-0.394737 15:-0.454545 16:-0.853659 17:-0.8 18:-0.866667 
1:0.478261 2:0.615385 3:0.611111 4:-0.135371 5:-0.604396 6:-0.660377 7:0.385621 8:-0.714286 9:0.333333 10:0.4 11:0.0421053 12:0.227818 13:0.345912 14:-0.657895 15:-0.909091 16:0.365854 17:-0.266667 18:0.2 
1:-0.695652 2:-0.615385 3:-0.361111 4:-0.781659 5:-0.824176 6:-0.811321 7:-0.555556 8:0.142857 9:-0.666667 10:-0.657143 11:-0.6 12:-0.688249 13:-0.383648 14:-0.368421 15:-0.181818 16:-0.0243902 17:-0.733333 18:-0.733333 
1:-0.347826 2:-0.307692 3:0.0277778 4:-0.58952 5:-0.758242 6:-0.773585 7:-0.633987 8:0.2 9:-0.833333 10:-0.314286 11:-0.631579 12:-0.738609 13:-0.383648 14:-0.868421 15:-0.0909091 16:-0.463415 17:0.466667 18:0.6 
1:0.434783 2:0.538462 3:0.611111 4:-0.371179 5:-0.846154 6:-0.698113 7:0.359477 8:-0.714286 9:0.166667 10:0.514286 11:0.105263 12:0.215827 13:0.371069 14:-0.605263 15:-0.909091 16:-0.560976 17:-0.266667 18:0.0666667 
1:-0.130435 2:-0.692308 4:-0.310044 5:-0.648352 6:-0.773585 7:-0.320261 8:-0.2 9:-0.5 10:-0.542857 11:-0.357895 12:-0.470024 13:-0.622642 14:-0.789474 15:-0.636364 16:-0.658537 17:0.0666667 18:0.0666667 
1:1 2:0.615385 3:0.833333 4:0.0131004 5:-0.604396 6:-0.622642 7:0.320261 8:-0.714286 9:0.166667 10:0.4 11:-0.0210526 12:0.177458 13:0.54717 14:-0.815789 15:0.818182 16:-0.95122 17:0.0666667 18:0.4 
1:-0.217391 2:-0.0769231 3:0.0833333 4:-0.371179 5:-0.736264 6:-0.735849 7:-0.333333 8:-0.2 9:-0.5 10:-0.142857 11:-0.431579 12:-0.472422 13:-0.119497 14:-0.921053 15:-1 16:-0.512195 17:0.533333 18:0.8 
1:-0.782609 2:-0.615385 3:-0.361111 4:-0.90393 5:-0.912088 6:-0.849057 7:-0.607843 8:0.2 9:-0.666667 10:-0.657143 11:-0.663158 12:-0.724221 13:-0.534591 14:-0.526316 15:-0.818182 16:-0.804878 17:-0.666667 18:-0.733333 
1:-0.173913 2:-0.615385 3:-0.138889 4:-0.388646 5:-0.582418 6:-0.811321 7:-0.45098 8:-0.0285714 9:-0.666667 10:-0.571429 11:-0.463158 12:-0.589928 13:-0.735849 14:-0.710526 15:-0.636364 16:0.170732 17:-0.133333 18:-0.0666667 
1:0.0434783 2:-0.153846 3:0.555556 4:-0.20524 5:-0.648352 6:-0.735849 7:-0.0457516 8:-0.428571 9:-0.166667 10:-0.257143 11:-0.242105 12:-0.213429 13:-0.295597 14:-0.815789 15:-0.636364 16:-0.609756 18:0.2 
1:-0.217391 2:-0.538462 3:0.194444 4:-0.423581 5:-0.714286 6:-0.773585 7:-0.215686 8:-0.314286 9:-0.333333 10:-0.542857 11:-0.294737 12:-0.374101 13:-0.459119 14:-0.657895 15:-1 16:-0.512195 17:-0.2 18:-0.133333 
1:-0.434783 2:-0.461538 3:-0.388889 4:-0.68559 5:-0.67033 6:-0.811321 7:-0.503268 8:0.0857143 9:-0.666667 10:-0.571429 11:-0.631579 12:-0.64988 13:-0.194969 14:-0.394737 15:-0.818182 16:-0.853659 17:-0.733333 18:-0.733333 
1:0.347826 2:0.692308 3:0.861111 4:0.0305677 5:-0.538462 6:-0.660377 7:0.385621 8:-0.714286 9:0.166667 10:0.571429 11:0.0736842 12:0.244604 13:0.509434 14:-0.684211 15:-0.727273 16:-0.512195 17:-0.2 18:0.2 
1:0.347826 2:0.461538 3:0.666667 4:-0.240175 5:-0.736264 6:-0.735849 7:0.111111 8:-0.6 10:0.142857 11:-0.0736842 12:-0.0431655 13:0.572327 14:-0.710526 15:-0.0909091 16:-0.512195 18:0.133333 
1:-0.304348 2:-0.307692 3:0.111111 4:-0.58952 5:-0.67033 6:-0.849057 7:-0.581699 8:0.142857 9:-0.666667 10:-0.4 11:-0.621053 12:-0.702638 13:-0.232704 14:-0.605263 15:0.545455 16:-0.365854 17:-0.4 18:-0.466667 
1:0.521739 2:0.538462 3:0.75 4:-0.144105 5:-0.626374 6:-0.698113 7:0.411765 8:-0.771429 9:0.333333 10:0.428571 11:-0.0105263 12:0.263789 13:0.320755 14:-0.631579 16:-0.512195 17:-0.2 18:0.2 
1:0.565217 2:0.538462 3:0.916667 4:0.0218341 5:-0.516484 6:-0.622642 7:0.424837 8:-0.714286 9:0.333333 10:0.457143 11:0.0105263 12:0.266187 13:0.295597 14:-0.657895 15:0.181818 16:0.365854 17:-0.2 18:0.333333 
1:-0.304348 2:-0.692308 3:-0.611111 4:-0.868996 5:-0.868132 6:-0.886792 7:-0.712418 8:0.371429 9:-0.833333 10:-0.742857 11:-0.778947 12:-0.803357 13:-0.534591 14:-0.473684 15:0.454545 16:-0.317073 17:-0.466667 18:-0.733333 
1:-0.26087 2:-0.769231 3:-0.527778 4:-0.772926 5:-0.78022 6:-0.849057 7:-0.882353 8:0.714286 9:-1 10:-0.742857 11:-0.926316 12:-0.923261 13:-0.710692 14:-0.763158 15:1 16:0.121951 17:-0.0666667 18:-0.0666667 
1:0.173913 3:0.777778 4:-0.30131 5:-0.714286 6:-0.735849 7:0.111111 8:-0.542857 10:-0.171429 11:-0.0315789 12:-0.0551559 13:0.119497 14:-0.631579 15:0.181818 16:-0.365854 17:-0.133333 18:0.0666667 
1:-0.434783 2:-0.769231 3:0.0277778 4:-0.467249 5:-0.714286 6:-0.811321 7:-0.503268 8:0.0857143 9:-0.666667 10:-0.714286 11:-0.536842 12:-0.647482 13:-0.72327 14:-0.815789 15:-1 16:0.560976 17:0.333333 18:0.466667 
1:0.0434783 2:-0.307692 3:0.694444 4:-0.283843 5:-0.736264 6:-0.735849 7:-0.0326797 8:-0.428571 9:-0.166667 10:-0.428571 11:-0.178947 12:-0.215827 13:-0.257862 14:-0.789474 15:-0.363636 16:1 17:0.2 18:0.666667 
1:-0.347826 2:-0.692308 3:-0.361111 4:-0.772926 5:-0.758242 6:-0.886792 7:-0.830065 8:0.6 9:-0.833333 10:-0.657143 11:-0.884211 12:-0.889688 13:-0.54717 14:-0.605263 15:0.272727 16:-0.0243902 17:-0.466667 18:-0.533333 
1:-0.26087 2:-0.692308 3:0.111111 4:-0.414847 5:-0.758242 6:-0.735849 7:-0.411765 8:-0.0857143 9:-0.5 10:-0.6 11:-0.557895 12:-0.546763 13:-0.924528 14:-0.973684 15:-0.727273 16:-0.121951 17:0.666667 18:0.866667 
1:-0.26087 2:-0.230769 3:-0.111111 4:-0.406114 5:-0.736264 6:-0.773585 7:-0.45098 8:-0.0857143 9:-0.666667 10:-0.257143 11:-0.536842 12:-0.577938 13:-0.383648 14:-0.947368 15:0.363636 16:-0.560976 17:0.8 18:0.866667 
1:0.347826 2:0.307692 3:0.555556 4:-0.0655022 5:-0.604396 6:-0.698113 7:-0.0196078 8:-0.485714 9:-0.166667 10:0.0857143 11:-0.189474 12:-0.177458 13:0.081761 14:-0.842105 15:-0.727273 16:-0.658537 17:0.266667 18:0.666667 
1:0.434783 2:0.230769 3:0.833333 4:-0.0655022 5:-0.626374 6:-0.735849 7:0.254902 8:-0.657143 9:0.166667 10:0.142857 11:-0.0105263 12:0.105516 13:-0.0566038 14:-0.763158 15:-0.909091 16:0.170732 17:-0.0666667 18:0.4 
1:-0.391304 2:-0.538462 3:-0.0555556 4:-0.580786 5:-0.758242 6:-0.849057 7:-0.490196 8:0.0285714 9:-0.666667 10:-0.485714 11:-0.536842 12:-0.633094 13:-0.610063 14:-0.710526 15:-0.909091 16:0.609756 17:-0.266667 
1:0.0869565 2:-0.538462 3:0.138889 4:-0.240175 5:-0.626374 6:-0.735849 7:-0.294118 8:-0.2 9:-0.5 10:-0.428571 11:-0.431579 12:-0.446043 13:-0.72327 14:-0.921053 15:-0.272727 16:-0.0731707 17:0.4 18:0.6 
1:-0.478261 2:-0.461538 3:-0.111111 4:-0.694323 5:-0.736264 6:-0.886792 7:-0.738562 8:0.371429 9:-0.833333 10:-0.514286 11:-0.694737 12:-0.817746 13:-0.484277 14:-0.763158 15:-0.727273 16:-0.560976 18:-0.0666667 
1:-0.173913 2:-0.769231 3:0.0555556 4:-0.467249 5:-0.78022 6:-0.773585 7:-0.464052 8:-0.0285714 9:-0.666667 10:-0.714286 11:-0.589474 12:-0.604317 13:-0.811321 14:-0.973684 15:-0.636364 16:-0.0731707 17:0.8 18:1 
1:0.608696 2:0.384615 3:0.777778 4:-0.240175 5:-0.78022 6:-0.622642 7:0.320261 8:-0.714286 9:0.166667 10:0.257143 11:0.0105263 12:0.17506 13:0.0188679 14:-0.763158 15:0.636364 16:-0.902439 18:0.2 
1:0.26087 2:0.615385 3:0.833333 4:0.0218341 5:-0.538462 6:-0.660377 7:0.24183 8:-0.657143 9:0.166667 10:0.314286 11:0.0315789 12:0.088729 13:0.622642 14:-0.684211 15:-1 16:0.268293 17:-0.133333 18:0.266667 
1:-0.521739 2:-0.846154 3:-0.638889 4:-0.842795 5:-0.78022 6:-0.924528 7:-0.947712 8:0.885714 9:-1 10:-0.857143 11:-0.947368 12:-0.971223 13:-0.761006 14:-0.552632 15:-0.0909091 16:0.317073 17:-0.533333 18:-0.4 
1:0.304348 3:0.833333 4:-0.0829694 5:-0.582418 6:-0.698113 7:0.189542 8:-0.6 10:-0.114286 11:-0.0842105 12:0.0263789 13:0.27044 14:-0.710526 15:-0.181818 16:-0.512195 18:0.2 
1:-0.130435 2:-0.230769 4:-0.606987 5:-0.78022 6:-0.811321 7:-0.51634 8:0.0285714 9:-0.666667 10:-0.285714 11:-0.557895 12:-0.63789 13:-0.157233 14:-0.736842 15:0.272727 16:-1 17:-0.133333 18:-0.133333 
1:-0.173913 2:-0.692308 3:0.277778 4:-0.449782 5:-0.714286 6:-0.811321 7:-0.398693 8:-0.0857143 9:-0.5 10:-0.628571 11:-0.463158 12:-0.546763 13:-0.559748 14:-0.763158 15:-0.181818 16:0.0243902 17:-0.0666667 
1:0.478261 2:0.769231 3:0.777778 4:0.10917 5:-0.472527 6:-0.660377 7:0.398693 8:-0.714286 9:0.333333 10:0.542857 11:0.0105263 12:0.2494 13:0.358491 14:-0.684211 15:0.727273 16:-0.463415 17:-0.133333 
1:-0.26087 2:-0.769231 3:-0.0555556 4:-0.414847 5:-0.714286 6:-0.773585 7:-0.411765 8:-0.0857143 9:-0.666667 10:-0.714286 11:-0.505263 12:-0.561151 13:-0.823899 14:-0.947368 15:-0.454545 16:0.0243902 17:0.4 18:0.533333 
1:-0.521739 2:-0.153846 3:0.0277778 4:-0.598253 5:-0.736264 6:-0.886792 7:-0.477124 8:0.0285714 9:-0.666667 10:-0.285714 11:-0.526316 12:-0.616307 13:-0.144654 14:-0.526316 15:-0.272727 16:-0.902439 17:-0.533333 18:-0.6 
1:-0.434783 2:-0.384615 3:-0.277778 4:-0.746725 5:-0.802198 6:-0.849057 7:-0.686275 8:0.314286 9:-0.833333 10:-0.485714 11:-0.736842 12:-0.784173 13:-0.333333 14:-0.605263 15:-0.545455 16:-0.317073 17:-0.533333 18:-0.466667 
1:0.478261 2:0.615385 3:0.611111 4:-0.0742358 5:-0.582418 6:-0.660377 7:0.385621 8:-0.714286 9:0.166667 10:0.457143 11:-0.0421053 12:0.247002 13:0.345912 14:-0.684211 15:0.272727 16:-1 17:-0.2 18:0.0666667 
1:0.391304 2:0.615385 3:0.833333 4:-0.0305677 5:-0.538462 6:-0.698113 7:0.254902 8:-0.657143 9:0.166667 10:0.371429 11:-0.0842105 12:0.0935252 13:0.371069 14:-0.736842 15:0.272727 16:0.121951 17:-0.133333 18:0.2 
1:-0.434783 2:-0.384615 3:-0.333333 4:-0.615721 5:-0.692308 6:-0.886792 7:-0.503268 8:0.0857143 9:-0.666667 10:-0.428571 11:-0.631579 12:-0.642686 13:-0.194969 14:-0.447368 15:-0.545455 16:-0.609756 17:-0.6 18:-0.733333 
1:-0.478261 2:-1 3:-1 4:-0.90393 5:-0.78022 6:-0.962264 7:-1 8:1 9:-1 10:-0.971429 11:-1 12:-1 13:-0.773585 14:-0.289474 15:0.0909091 16:0.0243902 17:-0.666667 18:-0.866667 
1:0.173913 2:0.461538 3:0.777778 4:-0.257642 5:-0.736264 6:-0.698113 7:0.254902 8:-0.657143 9:0.166667 10:0.285714 11:-0.0526316 12:0.0983213 13:0.106918 14:-0.710526 15:-0.909091 16:0.0731707 17:-0.266667 18:0.133333 
1:0.217391 2:0.692308 3:0.888889 4:0.0829694 5:-0.516484 6:-0.622642 7:0.346405 8:-0.714286 9:0.166667 10:0.428571 11:0.0421053 12:0.199041 13:0.320755 14:-0.684211 15:-0.818182 16:-0.219512 17:-0.2 18:0.2 
1:-0.217391 2:-0.538462 3:0.194444 4:-0.371179 5:-0.736264 6:-0.811321 7:-0.254902 8:-0.257143 9:-0.5 10:-0.6 11:-0.368421 12:-0.419664 13:-0.584906 14:-0.789474 15:-1 16:0.170732 17:0.0666667 18:0.2 
1:-0.478261 2:-0.923077 3:-0.638889 4:-0.799127 5:-0.758242 6:-0.849057 7:-0.947712 8:0.828571 9:-1 10:-0.914286 11:-0.926316 12:-0.968825 13:-0.773585 14:-0.710526 15:-0.727273 16:-0.0243902 17:-0.4 18:-0.466667 
1:0.695652 2:0.307692 3:0.944444 4:-0.283843 5:-0.802198 6:-0.660377 7:0.333333 8:-0.714286 9:0.166667 10:0.171429 11:0.0736842 12:0.179856 13:0.18239 14:-0.684211 15:0.636364 16:0.317073 18:0.4 
1:-0.217391 2:-0.769231 3:0.0277778 4:-0.537118 5:-0.802198 6:-0.811321 7:-0.437908 8:-0.0857143 9:-0.666667 10:-0.771429 11:-0.505263 12:-0.57554 13:-0.823899 14:-0.842105 15:-0.272727 16:-0.268293 17:0.266667 18:0.333333 
1:0.130435 2:0.153846 3:0.777778 4:-0.196507 5:-0.648352 6:-0.698113 7:0.163399 8:-0.6 10:-0.0285714 11:-0.0421053 12:0.00719424 13:0.132075 14:-0.631579 15:-0.272727 16:-0.804878 17:-0.2 18:0.0666667 
1:-0.565217 2:-0.692308 3:-0.611111 4:-0.877729 5:-0.824176 6:-0.924528 7:-0.777778 8:0.485714 9:-0.833333 10:-0.742857 11:-0.831579 12:-0.853717 13:-0.610063 14:-0.421053 15:-0.636364 16:-0.365854 17:-0.733333 18:-0.8 
1:-0.217391 2:-0.538462 3:0.333333 4:-0.257642 5:-0.648352 6:-0.735849 7:-0.176471 8:-0.314286 9:-0.333333 10:-0.6 11:-0.294737 12:-0.345324 13:-0.408805 14:-0.736842 15:-1 16:0.121951 18:0.133333 
1:0.304348 2:0.230769 3:0.666667 4:-0.213974 5:-0.714286 6:-0.698113 7:-0.0457516 8:-0.485714 9:-0.166667 10:0.2 11:-0.242105 12:-0.199041 13:-0.132075 14:-0.921053 15:0.181818 16:-0.609756 17:0.466667 18:0.8 
1:0.173913 3:0.138889 4:-0.275109 5:-0.692308 6:-0.735849 7:-0.294118 8:-0.2 9:-0.5 10:0.0285714 11:-0.378947 12:-0.446043 13:-0.169811 14:-0.894737 15:0.181818 16:-0.560976 17:0.466667 18:0.733333 
1:-0.130435 2:0.0769231 3:0.333333 4:-0.161572 5:-0.582418 6:-0.811321 7:-0.202614 8:-0.314286 9:-0.333333 10:-0.0571429 11:-0.294737 12:-0.357314 13:0.207547 14:-0.815789 15:-1 16:-0.853659 17:0.266667 18:0.4 
1:0.565217 2:0.615385 3:0.916667 4:0.0567686 5:-0.538462 6:-0.660377 7:0.333333 8:-0.714286 9:0.166667 10:0.457143 11:0.0105263 12:0.177458 13:0.295597 14:-0.763158 16:0.560976 17:-0.133333 18:0.4 
1:0.869565 2:0.538462 3:0.944444 4:0.10917 5:-0.56044 6:-0.622642 7:0.372549 8:-0.714286 9:0.166667 10:0.342857 11:0.0631579 12:0.218225 13:0.421384 14:-0.789474 15:0.454545 16:0.365854 17:0.0666667 18:0.666667 
1:-0.304348 2:0.153846 3:0.25 4:-0.257642 5:-0.626374 6:-0.773585 7:-0.254902 8:-0.257143 9:-0.5 11:-0.389474 12:-0.417266 13:0.0188679 14:-0.868421 15:0.454545 16:-0.756098 17:0.266667 18:0.333333 
1:-0.347826 2:-0.692308 3:-0.527778 4:-0.755459 5:-0.67033 6:-0.849057 7:-0.699346 8:0.371429 9:-0.833333 10:-0.8 11:-0.778947 12:-0.805755 13:-0.559748 14:-0.368421 15:0.454545 16:-0.219512 17:-0.733333 18:-0.8 
1:-0.608696 2:-0.692308 3:-0.277778 4:-0.80786 5:-0.846154 6:-0.811321 7:-0.738562 8:0.485714 9:-0.833333 10:-0.742857 11:-0.810526 12:-0.83693 13:-0.584906 14:-0.657895 15:0.545455 16:-0.658537 17:-0.533333 18:-0.6 
1:-0.217391 2:-0.461538 3:0.611111 4:-0.231441 5:-0.626374 6:-0.735849 7:-0.150327 8:-0.314286 9:-0.333333 10:-0.514286 11:-0.326316 12:-0.326139 13:-0.295597 14:-0.815789 15:-0.181818 16:0.707317 17:0.266667 18:0.6 
1:0.434783 2:0.538462 3:0.611111 4:-0.222707 5:-0.714286 6:-0.698113 7:0.346405 8:-0.714286 9:0.166667 10:0.457143 11:-0.0105263 12:0.191847 13:0.371069 14:-0.631579 15:-0.272727 16:0.0243902 17:-0.2 18:0.0666667 
1:0.434783 2:0.153846 3:0.861111 4:-0.144105 5:-0.692308 6:-0.698113 7:0.24183 8:-0.657143 9:0.166667 11:0.0210526 12:0.0815348 13:0.144654 14:-0.710526 15:-0.545455 16:0.365854 17:-0.0666667 18:0.466667 
1:-0.26087 2:0.307692 3:0.388889 4:-0.266376 5:-0.692308 6:-0.698113 7:-0.0980392 8:-0.428571 9:-0.333333 10:0.142857 11:-0.147368 12:-0.261391 13:0.396226 14:-0.736842 15:-0.454545 16:-0.0731707 18:0.2 
1:-0.0434783 2:-0.0769231 3:0.805556 4:-0.0917031 5:-0.626374 6:-0.698113 7:-0.0196078 8:-0.428571 9:-0.166667 10:-0.0857143 11:-0.242105 12:-0.194245 13:-0.383648 14:-0.868421 15:-0.363636 16:0.560976 17:0.466667 18:1 
1:0.391304 2:0.615385 3:0.666667 4:0.0131004 5:-0.516484 6:-0.698113 7:0.424837 8:-0.771429 9:0.333333 10:0.485714 11:0.0736842 12:0.280576 13:0.169811 14:-0.631579 15:-1 16:-0.365854 17:-0.266667 18:0.2 
1:0.0869565 2:0.384615 3:0.555556 4:-0.135371 5:-0.582418 6:-0.698113 7:-0.00653595 8:-0.485714 9:-0.166667 10:0.114286 11:-0.189474 12:-0.16307 13:0.534591 14:-0.763158 15:-0.0909091 16:-0.95122 18:0.2 
1:-0.0869565 2:-0.615385 3:0.333333 4:-0.344978 5:-0.714286 6:-0.811321 7:-0.24183 8:-0.257143 9:-0.333333 10:-0.628571 11:-0.389474 12:-0.398082 13:-0.559748 14:-0.815789 15:-0.818182 16:0.365854 17:0.266667 18:0.533333 
1:-0.304348 2:-0.615385 3:0.111111 4:-0.432314 5:-0.736264 6:-0.811321 7:-0.359477 8:-0.142857 9:-0.5 10:-0.628571 11:-0.410526 12:-0.508393 13:-0.647799 14:-0.763158 15:-0.545455 16:-0.268293 17:0.0666667 18:0.0666667 
1:0.565217 2:0.615385 3:0.75 4:-0.117904 5:-0.648352 6:-0.660377 7:0.437908 8:-0.771429 9:0.333333 10:0.628571 11:0.0421053 12:0.285372 13:0.308176 14:-0.684211 15:-0.454545 16:-0.317073 17:-0.266667 18:0.266667 
1:-0.565217 2:-0.692308 3:-0.611111 4:-0.764192 5:-0.692308 6:-0.924528 7:-0.699346 8:0.371429 9:-0.833333 10:-0.742857 11:-0.768421 12:-0.791367 13:-0.597484 14:-0.315789 15:-0.727273 16:-0.707317 17:-0.733333 18:-0.866667 
1:0.913043 2:0.461538 3:0.944444 4:0.0829694 5:-0.604396 6:-0.622642 7:0.30719 8:-0.714286 9:0.166667 10:0.285714 11:0.0315789 12:0.160671 13:0.396226 14:-0.815789 15:0.909091 16:0.219512 17:0.2 18:0.6 
1:-0.347826 2:-0.615385 3:-0.5 4:-0.71179 5:-0.714286 6:-0.886792 7:-0.529412 8:0.142857 9:-0.666667 10:-0.628571 11:-0.652632 12:-0.676259 13:-0.396226 14:-0.289474 15:0.0909091 16:-1 17:-0.733333 18:-0.866667 
1:0.0869565 2:0.307692 3:0.388889 4:-0.231441 5:-0.648352 6:-0.735849 7:-0.150327 8:-0.371429 9:-0.333333 10:0.0571429 11:-0.315789 12:-0.309353 13:0.106918 14:-0.842105 15:-0.0909091 16:-0.95122 17:0.133333 18:0.333333 
1:0.565217 2:0.230769 3:0.916667 4:-0.222707 5:-0.736264 6:-0.698113 7:0.24183 8:-0.657143 9:0.166667 10:0.0857143 12:0.0815348 13:0.308176 14:-0.710526 15:0.181818 16:0.512195 18:0.4 
1:0.521739 2:0.461538 3:0.916667 4:-0.318777 5:-0.824176 6:-0.622642 7:0.359477 8:-0.714286 9:0.166667 10:0.514286 11:0.0421053 12:0.206235 13:0.320755 14:-0.657895 15:-0.0909091 16:0.365854 17:-0.133333 18:0.333333 
1:0.217391 3:0.805556 4:-0.20524 5:-0.692308 6:-0.698113 7:0.124183 8:-0.542857 10:-0.0857143 11:-0.126316 12:-0.0551559 13:0.081761 14:-0.815789 15:-0.363636 16:0.853659 17:0.0666667 18:0.6 
1:-0.0434783 2:0.0769231 3:0.138889 4:-0.371179 5:-0.736264 6:-0.811321 7:-0.267974 8:-0.257143 9:-0.5 10:-0.0285714 11:-0.305263 12:-0.422062 13:-0.0440252 14:-0.789474 15:-0.636364 16:-0.804878 18:0.133333 
1:0.521739 2:0.615385 3:0.805556 4:-0.135371 5:-0.67033 6:-0.660377 7:0.176471 8:-0.6 10:0.314286 11:-0.0947368 12:0.0167866 13:0.584906 14:-0.763158 15:0.0909091 16:-0.853659 17:-0.0666667 18:0.266667 
1:-0.608696 2:-0.692308 3:-0.472222 4:-0.737991 5:-0.648352 6:-0.811321 7:-0.699346 8:0.428571 9:-0.833333 10:-0.714286 11:-0.778947 12:-0.808153 13:-0.572327 14:-0.394737 16:0.170732 17:-0.8 18:-0.733333 
1:0.347826 2:0.384615 3:0.888889 4:-0.222707 5:-0.736264 6:-0.660377 7:0.372549 8:-0.714286 9:0.166667 10:0.285714 11:0.0736842 12:0.223022 13:0.18239 14:-0.657895 15:0.363636 16:0.0731707 17:-0.0666667 18:0.333333 
1:-0.391304 2:-0.692308 3:-0.444444 4:-0.755459 5:-0.78022 6:-0.849057 7:-0.79085 8:0.485714 9:-0.833333 10:-0.685714 11:-0.747368 12:-0.858513 13:-0.710692 14:-0.684211 15:-0.909091 16:-0.317073 17:-0.333333 18:-0.266667 
1:-0.608696 2:-0.769231 3:-0.611111 4:-0.886463 5:-0.868132 6:-0.811321 7:-0.830065 8:0.6 9:-0.833333 10:-0.771429 11:-0.831579 12:-0.892086 13:-0.761006 14:-0.5 15:-0.909091 16:-0.756098 17:-0.733333 18:-0.8 
1:0.130435 2:-0.230769 3:0.361111 4:-0.20524 5:-0.648352 6:-0.773585 7:-0.0326797 8:-0.485714 9:-0.166667 10:-0.257143 11:-0.157895 12:-0.191847 13:-0.283019 14:-0.763158 15:-0.454545 16:-0.365854 18:0.2 
1:-0.26087 2:0.230769 3:0.194444 4:-0.275109 5:-0.648352 6:-0.811321 7:-0.163399 8:-0.371429 9:-0.333333 10:0.0285714 11:-0.210526 12:-0.321343 13:0.421384 14:-0.710526 15:-0.909091 16:-0.902439 17:-0.133333 18:-0.0666667 
1:0.478261 2:0.538462 3:0.888889 4:-0.0480349 5:-0.626374 6:-0.622642 7:0.228758 8:-0.657143 10:0.285714 11:-0.0947368 12:0.0623501 13:0.169811 14:-0.842105 15:0.909091 16:0.0731707 17:0.2 18:0.6 
1:-0.217391 2:-0.615385 3:-0.0277778 4:-0.720524 5:-0.868132 6:-0.849057 7:-0.581699 8:0.2 9:-0.666667 10:-0.628571 11:-0.631579 12:-0.709832 13:-0.496855 14:-0.736842 15:-0.909091 16:-0.658537 17:-0.333333 18:-0.333333 
1:-0.434783 2:-0.615385 3:0.277778 4:-0.379913 5:-0.714286 6:-0.735849 7:-0.24183 8:-0.257143 9:-0.333333 10:-0.542857 11:-0.357895 12:-0.402878 13:-0.63522 14:-0.763158 15:-0.909091 16:0.365854 18:0.2 
1:-0.304348 2:-0.0769231 3:0.0277778 4:-0.266376 5:-0.626374 6:-0.735849 7:-0.359477 8:-0.142857 9:-0.5 10:-0.0571429 11:-0.368421 12:-0.505995 13:-0.18239 14:-0.815789 15:-0.636364 16:-0.902439 17:0.2 18:0.333333 
1:-0.130435 2:-0.923077 3:-0.111111 4:-0.650655 5:-0.802198 6:-0.849057 7:-0.72549 8:0.371429 9:-0.833333 10:-0.857143 11:-0.705263 12:-0.810552 13:-0.798742 14:-0.894737 15:-0.545455 16:-0.0243902 17:0.6 18:0.666667 
1:-0.26087 2:-0.923077 3:-0.277778 4:-0.528384 5:-0.736264 6:-0.811321 7:-0.633987 8:0.2 9:-0.833333 10:-0.828571 11:-0.631579 12:-0.726619 13:-0.899371 14:-0.947368 15:-0.909091 16:-0.853659 17:0.666667 18:0.733333 
1:0.695652 2:0.307692 3:0.777778 4:-0.187773 5:-0.758242 6:-0.660377 7:0.254902 8:-0.657143 9:0.166667 10:0.171429 11:-0.0210526 12:0.0911271 13:-0.0314465 14:-0.789474 15:0.363636 16:0.0731707 18:0.4 
1:0.347826 2:0.538462 3:0.888889 4:-0.10917 5:-0.692308 6:-0.660377 7:0.372549 8:-0.714286 9:0.166667 10:0.428571 11:0.0105263 12:0.223022 13:0.257862 14:-0.789474 15:-1 16:-0.560976 17:-0.2 18:0.333333 
1:-0.521739 2:-0.615385 3:0.194444 4:-0.676856 5:-0.846154 6:-0.811321 7:-0.51634 8:0.0857143 9:-0.666667 10:-0.6 11:-0.505263 12:-0.657074 13:-0.496855 14:-0.605263 15:-0.454545 16:0.414634 17:-0.4 18:-0.333333 
1:0.347826 2:0.384615 3:0.805556 4:-0.441048 5:-0.846154 6:-0.698113 7:0.254902 8:-0.657143 9:0.166667 10:0.257143 11:-0.0526316 12:0.0959233 13:0.408805 14:-0.657895 15:-0.181818 16:-0.0243902 17:-0.266667 18:0.0666667 
1:0.0869565 2:0.0769231 3:0.916667 4:-0.144105 5:-0.736264 6:-0.660377 7:0.137255 8:-0.542857 10:0.0285714 11:-0.189474 12:-0.0359712 13:-0.295597 14:-0.947368 15:-0.909091 16:0.609756 17:0.2 18:0.8 
1:0.217391 2:0.384615 3:0.611111 4:-0.213974 5:-0.714286 6:-0.698113 7:0.0849673 8:-0.542857 9:-0.166667 10:0.228571 11:-0.0631579 12:-0.0695444 13:0.383648 14:-0.789474 15:-1 16:-0.512195 17:0.0666667 18:0.333333 
1:0.217391 2:0.461538 3:0.694444 4:-0.187773 5:-0.67033 6:-0.735849 7:-0.00653595 8:-0.485714 9:-0.166667 10:0.257143 11:-0.178947 12:-0.177458 13:0.18239 14:-0.789474 15:0.272727 16:-0.268293 17:0.133333 18:0.4 
1:0.434783 2:0.461538 3:0.694444 4:-0.0480349 5:-0.626374 6:-0.660377 7:0.163399 8:-0.6 10:0.142857 11:-0.115789 12:0.0143885 13:0.194969 14:-0.842105 15:-0.818182 16:-0.804878 17:0.0666667 18:0.533333 
1:0.0869565 2:-0.307692 3:0.388889 4:-0.231441 5:-0.692308 6:-0.735849 7:-0.137255 8:-0.371429 9:-0.333333 10:-0.257143 11:-0.378947 12:-0.290168 13:-0.63522 14:-0.947368 15:-0.727273 16:-0.609756 17:0.533333 18:0.8 
1:0.391304 2:0.384615 3:0.888889 4:-0.152838 5:-0.67033 6:-0.660377 7:0.411765 8:-0.771429 9:0.333333 10:0.285714 11:0.0736842 12:0.263789 13:0.169811 14:-0.657895 15:0.0909091 16:-0.219512 17:-0.133333 18:0.266667 
1:0.0434783 2:0.692308 3:0.777778 4:0.00436681 5:-0.472527 6:-0.735849 7:0.294118 8:-0.657143 9:0.166667 10:0.514286 11:-0.0315789 12:0.136691 13:0.433962 14:-0.605263 15:-0.909091 16:0.170732 17:-0.333333 
1:0.347826 2:0.692308 3:0.666667 4:-0.152838 5:-0.582418 6:-0.698113 7:0.333333 8:-0.714286 9:0.166667 10:0.571429 11:-0.0105263 12:0.189448 13:0.408805 14:-0.605263 15:-0.909091 16:-0.95122 17:-0.4 18:-0.133333 
1:-0.130435 2:-0.0769231 3:0.138889 4:-0.362445 5:-0.626374 6:-0.811321 7:-0.372549 8:-0.142857 9:-0.5 10:-0.171429 11:-0.473684 12:-0.522782 13:-0.00628931 14:-0.710526 16:-0.463415 17:0.0666667 18:0.2 
1:0.521739 2:0.615385 3:0.916667 4:-0.257642 5:-0.78022 6:-0.660377 7:0.411765 8:-0.714286 9:0.333333 10:0.6 11:0.0421053 12:0.258993 13:0.320755 14:-0.710526 15:0.0909091 16:0.121951 17:-0.133333 18:0.333333 
1:0.0434783 2:-0.0769231 4:-0.379913 5:-0.714286 6:-0.735849 7:-0.411765 8:-0.0857143 9:-0.5 10:-0.114286 11:-0.473684 12:-0.553957 13:-0.245283 14:-0.894737 15:0.454545 16:-0.414634 17:0.466667 18:0.666667 
1:-0.217391 2:-0.538462 3:-0.111111 4:-0.746725 5:-0.824176 6:-0.811321 7:-0.555556 8:0.142857 9:-0.666667 10:-0.6 11:-0.578947 12:-0.688249 13:-0.496855 14:-0.526316 15:-0.181818 16:-0.121951 17:-0.466667 18:-0.466667 
1:0.826087 2:0.538462 3:0.666667 4:-0.117904 5:-0.626374 6:-0.660377 7:0.411765 8:-0.771429 9:0.333333 10:0.371429 11:0.0421053 12:0.261391 13:0.320755 14:-0.684211 15:0.909091 16:-0.463415 17:-0.133333 18:0.2 
1:0.217391 2:0.384615 3:1 4:-0.152838 5:-0.736264 6:-0.660377 7:0.333333 8:-0.657143 9:0.166667 10:0.257143 11:-0.0210526 12:0.158273 13:0.0691824 14:-0.842105 15:-1 16:0.756098 17:-0.0666667 18:0.666667 
1:-0.0434783 2:-0.692308 3:-0.138889 4:-0.414847 5:-0.692308 6:-0.735849 7:-0.411765 8:-0.0285714 9:-0.5 10:-0.542857 11:-0.494737 12:-0.565947 13:-0.798742 14:-0.894737 15:-0.545455 16:0.95122 17:0.333333 18:0.8 
1:0.478261 2:0.615385 3:0.888889 4:0.0829694 5:-0.538462 6:-0.622642 7:0.385621 8:-0.714286 9:0.333333 10:0.485714 11:-0.0210526 12:0.23741 13:0.446541 14:-0.789474 15:0.181818 16:0.219512 17:-0.0666667 18:0.533333 
1:-0.478261 2:-0.461538 3:-0.0277778 4:-0.71179 5:-0.802198 6:-0.811321 7:-0.477124 8:0.0285714 9:-0.666667 10:-0.542857 11:-0.547368 12:-0.628297 13:-0.358491 14:-0.552632 15:-0.363636 16:-0.219512 17:-0.6 18:-0.6 
1:-0.304348 2:-0.461538 3:0.361111 4:-0.388646 5:-0.758242 6:-0.773585 7:-0.150327 8:-0.371429 9:-0.333333 10:-0.571429 11:-0.242105 12:-0.311751 13:-0.421384 14:-0.710526 15:-0.363636 16:-0.121951 17:-0.133333 
1:-0.304348 2:-0.769231 3:-0.194444 4:-0.49345 5:-0.648352 6:-0.849057 7:-0.633987 8:0.257143 9:-0.833333 10:-0.628571 11:-0.642105 12:-0.743405 13:-0.786164 14:-0.815789 15:-0.909091 16:0.853659 17:0.133333 18:0.533333 
1:-0.173913 2:-0.0769231 4:-0.49345 5:-0.78022 6:-0.811321 7:-0.385621 8:-0.142857 9:-0.5 10:-0.171429 11:-0.431579 12:-0.527578 13:-0.144654 14:-0.736842 15:-0.272727 16:-0.512195 17:-0.0666667 18:-0.0666667 
1:0.0434783 2:-0.153846 3:0.527778 4:-0.144105 5:-0.582418 6:-0.735849 7:-0.00653595 8:-0.485714 9:-0.166667 10:-0.257143 11:-0.0947368 12:-0.179856 13:-0.169811 14:-0.657895 15:0.363636 16:-0.463415 17:-0.0666667 18:0.0666667 
1:-0.347826 2:0.153846 3:0.388889 4:-0.353712 5:-0.714286 6:-0.773585 7:-0.176471 8:-0.314286 9:-0.333333 10:-0.0285714 11:-0.263158 12:-0.338129 13:0.119497 14:-0.763158 15:0.181818 16:-0.219512 17:0.0666667 18:0.2 
1:0.347826 2:0.230769 3:0.805556 4:-0.0829694 5:-0.692308 6:-0.660377 7:0.24183 8:-0.657143 9:0.166667 10:0.114286 11:-0.0842105 12:0.0863309 13:-0.257862 14:-0.868421 15:-1 16:-0.0731707 17:0.133333 18:0.733333 
1:0.26087 2:0.692308 3:0.694444 4:-0.0480349 5:-0.56044 6:-0.622642 7:0.437908 8:-0.771429 9:0.333333 10:0.685714 11:0.0105263 12:0.282974 13:0.308176 14:-0.684211 15:-0.818182 16:0.0243902 17:-0.266667 18:0.2 
1:-0.130435 2:-0.538462 3:0.277778 4:-0.336245 5:-0.736264 6:-0.735849 7:-0.281046 8:-0.257143 9:-0.5 10:-0.542857 11:-0.410526 12:-0.438849 13:-0.748428 14:-0.894737 15:-0.454545 16:-0.170732 17:0.4 18:0.533333 
2:-0.692308 3:-0.0555556 4:-0.275109 5:-0.538462 6:-0.773585 7:-0.385621 8:-0.0857143 9:-0.5 10:-0.542857 11:-0.442105 12:-0.534772 13:-0.685535 14:-0.736842 15:-0.727273 16:-0.219512 17:-0.0666667 18:0.0666667 
1:0.478261 2:0.384615 3:0.75 4:-0.318777 5:-0.802198 6:-0.660377 7:0.320261 8:-0.714286 9:0.166667 10:0.257143 11:0.0105263 12:0.172662 13:0.358491 14:-0.657895 15:-0.818182 16:-0.804878 17:-0.2 18:0.133333 
1:-0.26087 2:-0.538462 3:0.361111 4:-0.327511 5:-0.67033 6:-0.773585 7:-0.176471 8:-0.314286 9:-0.333333 10:-0.6 11:-0.263158 12:-0.342926 13:-0.433962 14:-0.710526 16:-0.268293 17:-0.133333 18:-0.0666667 
1:0.73913 2:0.153846 3:0.611111 4:-0.0917031 5:-0.67033 6:-0.735849 7:0.189542 8:-0.6 10:-0.0571429 11:-0.0947368 12:0.028777 13:-0.0691824 14:-0.868421 15:0.545455 16:0.414634 17:0.133333 18:0.533333 
1:-0.434783 2:-0.461538 3:-0.277778 4:-0.703057 5:-0.736264 6:-0.924528 7:-0.673203 8:0.314286 9:-0.833333 10:-0.571429 11:-0.663158 12:-0.772182 13:-0.471698 14:-0.605263 15:-0.454545 16:-0.317073 17:-0.333333 18:-0.4 
1:0.217391 2:0.769231 3:0.694444 4:0.10917 5:-0.450549 6:-0.698113 7:0.372549 8:-0.714286 9:0.166667 10:0.514286 11:0.0736842 12:0.232614 13:0.345912 14:-0.657895 15:-0.818182 16:-0.707317 17:-0.266667 18:0.0666667 
1:0.73913 2:0.538462 3:0.472222 4:-0.187773 5:-0.67033 6:-0.660377 7:0.359477 8:-0.714286 9:0.166667 10:0.342857 11:-0.0421053 12:0.208633 13:0.0943396 14:-0.657895 15:-0.454545 16:0.219512 17:-0.2 18:0.2 
1:0.217391 2:0.153846 3:0.25 4:-0.240175 5:-0.714286 6:-0.660377 7:-0.176471 8:-0.314286 9:-0.333333 11:-0.347368 12:-0.342926 13:-0.0188679 14:-0.921053 15:-0.545455 16:0.0731707 17:0.4 18:0.933333 
1:0.521739 2:0.615385 3:0.75 4:-0.0567686 5:-0.604396 6:-0.660377 7:0.254902 8:-0.657143 9:0.166667 10:0.257143 11:0.0315789 12:0.11271 13:0.647799 14:-0.684211 15:-0.181818 16:-1 17:-0.133333 18:0.0666667 
1:-0.217391 2:-0.461538 3:0.194444 4:-0.458515 5:-0.714286 6:-0.773585 7:-0.372549 8:-0.142857 9:-0.5 10:-0.571429 11:-0.378947 12:-0.522782 13:-0.421384 14:-0.657895 15:-0.545455 16:-0.658537 17:-0.333333 18:-0.333333 
1:0.391304 2:0.538462 3:0.888889 4:-0.10917 5:-0.648352 6:-0.622642 7:0.437908 8:-0.714286 9:0.333333 10:0.428571 11:0.0105263 12:0.266187 13:0.157233 14:-0.684211 15:0.363636 16:0.707317 17:-0.133333 18:0.466667 
1:-0.0869565 2:-0.230769 3:-0.194444 4:-0.502183 5:-0.736264 6:-0.811321 7:-0.477124 8:-0.0285714 9:-0.666667 10:-0.285714 11:-0.526316 12:-0.604317 13:-0.0188679 14:-0.789474 15:0.0909091 16:-0.463415 17:0.133333 18:0.133333 
1:0.565217 2:0.615385 3:0.75 4:0.0131004 5:-0.582418 6:-0.660377 7:0.333333 8:-0.714286 9:0.166667 10:0.4 11:0.0421053 12:0.182254 13:0.295597 14:-0.710526 15:-0.909091 16:0.121951 17:-0.2 18:0.333333 
1:0.565217 2:0.538462 3:0.75 4:-0.0742358 5:-0.648352 6:-0.660377 7:0.398693 8:-0.771429 9:0.333333 10:0.542857 11:0.0421053 12:0.254197 13:0.295597 14:-0.684211 15:-0.454545 16:-0.853659 17:-0.2 18:0.2 
1:0.521739 2:0.538462 3:0.777778 4:-0.327511 5:-0.802198 6:-0.660377 7:0.411765 8:-0.714286 9:0.333333 10:0.4 11:0.0105263 12:0.266187 13:0.320755 14:-0.657895 15:0.363636 16:-0.121951 17:-0.133333 18:0.2 
1:0.347826 2:0.615385 3:0.694444 4:-0.187773 5:-0.626374 6:-0.660377 7:0.320261 8:-0.714286 9:0.166667 10:0.542857 11:-0.0736842 12:0.16307 13:0.421384 14:-0.605263 15:0.272727 16:-0.804878 17:-0.266667 
1:-0.304348 2:-0.230769 3:0.0277778 4:-0.624454 5:-0.846154 6:-0.773585 7:-0.581699 8:0.142857 9:-0.666667 10:-0.2 11:-0.652632 12:-0.702638 13:-0.18239 14:-0.868421 15:0.181818 16:-0.756098 17:0.2 18:0.333333 
1:-0.130435 2:-0.538462 3:-0.361111 4:-0.633188 5:-0.758242 6:-0.811321 7:-0.79085 8:0.485714 9:-0.833333 10:-0.542857 11:-0.8 12:-0.851319 13:-0.383648 14:-0.894737 15:-0.181818 16:-0.658537 17:0.466667 18:0.533333 
1:-0.26087 2:-0.769231 3:0.25 4:-0.30131 5:-0.626374 6:-0.849057 7:-0.372549 8:-0.142857 9:-0.5 10:-0.8 11:-0.4 12:-0.517986 13:-0.622642 14:-0.815789 15:-0.181818 16:0.512195 17:0.266667 18:0.466667 
1:0.0434783 2:0.538462 3:0.805556 4:0.0567686 5:-0.472527 6:-0.622642 7:0.424837 8:-0.771429 9:0.333333 10:0.4 11:0.0105263 12:0.268585 13:0.169811 14:-0.710526 15:-0.727273 16:-0.0243902 17:-0.333333 18:0.266667 
1:-0.478261 2:-1 3:-0.722222 4:-1 5:-0.868132 6:-0.924528 7:-0.960784 8:0.885714 9:-1 10:-1 11:-0.936842 12:-0.978417 13:-0.773585 14:-0.368421 15:-0.909091 16:0.463415 17:-0.8 18:-0.733333 
1:0.521739 2:0.769231 3:0.75 4:0.135371 5:-0.428571 6:-0.698113 7:0.424837 8:-0.771429 9:0.333333 10:0.6 11:0.0736842 12:0.280576 13:0.320755 14:-0.631579 15:-0.272727 16:-0.853659 17:-0.266667 18:0.0666667 
2:-0.461538 3:0.666667 4:-0.353712 5:-0.758242 6:-0.773585 7:-0.0980392 8:-0.371429 9:-0.333333 10:-0.542857 11:-0.210526 12:-0.275779 13:-0.358491 14:-0.763158 15:-0.545455 16:0.658537 17:0.0666667 18:0.4 
1:0.434783 2:0.461538 3:0.888889 4:-0.100437 5:-0.626374 6:-0.622642 7:0.424837 8:-0.714286 9:0.333333 10:0.428571 11:0.0421053 12:0.258993 13:0.144654 14:-0.631579 15:1 16:0.853659 17:-0.0666667 18:0.6 
1:-0.521739 2:-0.769231 3:-0.0277778 4:-0.720524 5:-0.824176 6:-0.849057 7:-0.633987 8:0.257143 9:-0.833333 10:-0.8 11:-0.621053 12:-0.745803 13:-0.63522 14:-0.684211 15:-0.636364 16:0.756098 17:-0.133333 18:-0.0666667 
1:0.347826 2:0.538462 3:0.694444 4:-0.248908 5:-0.648352 6:-0.698113 7:0.320261 8:-0.657143 9:0.166667 10:0.371429 11:-0.0736842 12:0.151079 13:0.169811 14:-0.605263 15:0.181818 16:0.0243902 17:-0.2 18:0.133333 
1:-0.434783 2:-0.461538 3:-0.361111 4:-0.729258 5:-0.802198 6:-0.886792 7:-0.72549 8:0.371429 9:-0.833333 10:-0.514286 11:-0.768421 12:-0.81295 13:-0.283019 14:-0.710526 15:-0.181818 16:-0.902439 17:-0.266667 18:-0.333333 
2:-0.384615 3:-0.194444 4:-0.572052 5:-0.802198 6:-0.811321 7:-0.620915 8:0.2 9:-0.833333 10:-0.342857 11:-0.663158 12:-0.729017 13:-0.245283 14:-0.947368 16:-0.609756 17:0.733333 18:0.866667 
1:-0.0434783 3:0.777778 4:-0.0917031 5:-0.582418 6:-0.735849 7:0.0326797 8:-0.485714 9:-0.166667 10:-0.142857 11:-0.157895 12:-0.139089 13:-0.245283 14:-0.763158 15:-1 16:0.365854 17:-0.0666667 18:0.266667 
1:-0.478261 2:-0.615385 3:-0.0277778 4:-0.755459 5:-0.846154 6:-0.811321 7:-0.542484 8:0.142857 9:-0.666667 10:-0.628571 11:-0.568421 12:-0.678657 13:-0.54717 14:-0.578947 15:-0.363636 16:0.219512 17:-0.533333 18:-0.533333 
1:0.391304 2:0.538462 3:0.805556 4:-0.30131 5:-0.78022 6:-0.660377 7:0.294118 8:-0.714286 9:0.166667 10:0.428571 11:-0.0105263 12:0.143885 13:0.371069 14:-0.684211 15:-1 16:-0.268293 17:-0.333333 18:0.0666667 
1:-0.304348 2:-0.615385 3:0.0277778 4:-0.502183 5:-0.67033 6:-0.811321 7:-0.51634 8:0.0857143 9:-0.666667 10:-0.685714 11:-0.536842 12:-0.657074 13:-0.446541 14:-0.684211 15:-0.454545 16:0.0243902 17:-0.2 18:-0.2 
1:0.0869565 2:0.692308 3:0.777778 4:-0.0480349 5:-0.56044 6:-0.735849 7:0.228758 8:-0.657143 10:0.4 11:-0.0210526 12:0.0671463 13:0.396226 14:-0.657895 15:-0.545455 16:-0.0731707 17:-0.266667 
1:-0.478261 2:-0.461538 3:-0.277778 4:-0.720524 5:-0.758242 6:-0.849057 7:-0.607843 8:0.257143 9:-0.666667 10:-0.457143 11:-0.642105 12:-0.733813 13:-0.308176 14:-0.526316 15:-0.818182 16:0.0731707 17:-0.6 18:-0.666667 
1:0.173913 2:0.0769231 3:0.333333 4:-0.248908 5:-0.714286 6:-0.698113 7:-0.228758 8:-0.314286 9:-0.333333 10:0.0571429 11:-0.410526 12:-0.386091 13:-0.245283 14:-1 15:0.363636 16:-0.121951 17:0.666667 18:0.933333 
2:0.307692 3:0.5 4:-0.0305677 5:-0.56044 6:-0.735849 7:-0.0196078 8:-0.485714 9:-0.166667 10:0.142857 11:-0.115789 12:-0.182254 13:0.320755 14:-0.789474 15:-0.272727 16:-0.707317 17:0.133333 18:0.333333 
1:0.608696 3:0.666667 4:-0.187773 5:-0.692308 6:-0.735849 7:0.0588235 8:-0.542857 9:-0.166667 10:-0.114286 11:-0.168421 12:-0.0959233 13:-0.358491 14:-0.842105 16:-0.658537 17:0.2 18:0.466667 
1:-0.391304 2:-0.384615 3:-0.277778 4:-0.68559 5:-0.758242 6:-0.849057 7:-0.529412 8:0.142857 9:-0.666667 10:-0.485714 11:-0.642105 12:-0.678657 13:-0.132075 14:-0.473684 15:0.727273 16:-0.902439 17:-0.666667 18:-0.733333 
1:-0.304348 2:0.0769231 3:0.194444 4:-0.432314 5:-0.692308 6:-0.773585 7:-0.320261 8:-0.2 9:-0.5 10:-0.0857143 11:-0.378947 12:-0.477218 13:0.0188679 14:-0.657895 15:-0.363636 16:-0.512195 17:-0.266667 18:-0.2 
1:0.608696 2:0.538462 3:0.777778 4:0.0393013 5:-0.582418 6:-0.698113 7:0.294118 8:-0.657143 9:0.166667 10:0.314286 11:-0.0210526 12:0.139089 13:0.27044 14:-0.789474 15:-0.545455 16:-0.219512 17:-0.0666667 18:0.466667 
1:-0.173913 2:-0.692308 3:0.111111 4:-0.336245 5:-0.56044 6:-0.773585 7:-0.45098 8:-0.0285714 9:-0.666667 10:-0.685714 11:-0.473684 12:-0.594724 13:-0.559748 14:-0.736842 15:-0.454545 16:-0.560976 17:-0.0666667 18:-0.0666667 
1:-0.304348 2:-0.846154 3:-0.666667 4:-0.851528 5:-0.78022 6:-0.924528 7:-0.869281 8:0.657143 9:-1 10:-0.8 11:-0.905263 12:-0.913669 13:-0.761006 14:-0.394737 15:-0.545455 16:-0.365854 17:-0.666667 18:-0.8 
1:0.391304 2:0.384615 3:0.805556 4:-0.187773 5:-0.714286 6:-0.660377 7:0.0326797 8:-0.485714 9:-0.166667 10:0.257143 11:-0.189474 12:-0.134293 13:0.0691824 14:-0.868421 15:0.636364 16:-0.804878 17:0.333333 18:0.6 
1:-0.0869565 2:-0.461538 3:0.25 4:-0.283843 5:-0.67033 6:-0.735849 7:-0.254902 8:-0.257143 9:-0.5 10:-0.4 11:-0.431579 12:-0.410072 13:-0.698113 14:-0.947368 15:-0.818182 16:-0.560976 17:0.6 18:0.933333 
1:0.521739 2:0.384615 3:0.666667 4:-0.10917 5:-0.648352 6:-0.698113 7:0.0980392 8:-0.542857 10:0.171429 11:-0.115789 12:-0.059952 13:0.157233 14:-0.842105 15:-0.363636 16:-0.219512 17:0.2 18:0.6 
1:0.173913 2:-0.230769 3:0.444444 4:-0.187773 5:-0.67033 6:-0.698113 7:-0.111111 8:-0.428571 9:-0.333333 10:-0.285714 11:-0.263158 12:-0.268585 13:-0.446541 14:-0.868421 15:-0.454545 16:-0.560976 17:0.266667 18:0.6 
1:-0.304348 2:-0.615385 3:0.166667 4:-0.545852 5:-0.736264 6:-0.773585 7:-0.464052 8:-0.0285714 9:-0.666667 10:-0.685714 11:-0.484211 12:-0.59952 13:-0.647799 14:-0.710526 15:-0.909091 16:-0.95122 17:-0.266667 18:-0.266667 
1:0.521739 2:0.230769 3:0.75 4:-0.161572 5:-0.67033 6:-0.698113 7:0.228758 8:-0.657143 10:0.0571429 11:0.0210526 12:0.0815348 13:0.333333 14:-0.657895 15:-0.454545 16:-0.219512 17:-0.133333 18:0.133333 
1:0.608696 2:0.615385 3:0.722222 4:-0.152838 5:-0.626374 6:-0.660377 7:0.320261 8:-0.714286 9:0.166667 10:0.514286 11:-0.0315789 12:0.16307 13:0.408805 14:-0.631579 15:0.545455 16:-0.219512 17:-0.2 18:0.133333 
1:0.173913 2:0.615385 3:0.722222 4:-0.10917 5:-0.604396 6:-0.698113 7:0.124183 8:-0.6 10:0.314286 11:-0.0105263 12:-0.0335731 13:0.647799 14:-0.657895 15:-0.636364 16:-0.463415 17:-0.266667 
1:0.391304 2:-0.0769231 3:0.666667 4:-0.20524 5:-0.692308 6:-0.698113 7:0.124183 8:-0.6 10:-0.114286 11:-0.115789 12:-0.0359712 13:-0.0314465 14:-0.789474 15:-0.272727 16:-0.756098 17:0.0666667 18:0.266667 
1:0.478261 2:0.538462 3:0.888889 4:-0.0655022 5:-0.648352 6:-0.660377 7:0.398693 8:-0.714286 9:0.333333 10:0.428571 11:0.0315789 12:0.247002 13:0.119497 14:-0.736842 15:-0.0909091 16:0.0243902 17:-0.0666667 18:0.466667 
1:0.0434783 2:-0.384615 3:0.333333 4:-0.30131 5:-0.736264 6:-0.735849 7:-0.176471 8:-0.314286 9:-0.333333 10:-0.371429 11:-0.347368 12:-0.340528 13:-0.522013 14:-0.894737 15:-0.909091 16:-0.756098 17:0.333333 18:0.6 
1:0.347826 2:0.538462 3:0.694444 4:-0.170306 5:-0.604396 6:-0.660377 7:0.320261 8:-0.714286 9:0.166667 10:0.428571 11:-0.0947368 12:0.158273 13:0.408805 14:-0.657895 15:0.0909091 16:-0.414634 17:-0.266667 18:0.133333 
1:0.391304 2:0.615385 3:0.888889 4:0.135371 5:-0.494505 6:-0.622642 7:0.346405 8:-0.714286 9:0.166667 10:0.428571 11:0.0105263 12:0.206235 13:0.496855 14:-0.763158 15:-0.636364 16:0.0731707 17:-0.133333 18:0.333333 
1:0.26087 2:0.153846 3:0.805556 4:-0.0393013 5:-0.626374 6:-0.698113 7:0.163399 8:-0.6 10:-0.0285714 11:-0.115789 12:-0.00239808 13:-0.132075 14:-0.868421 15:-1 16:0.219512 17:0.0666667 18:0.533333 
