svm_type c_svc
kernel_type rbf
gamma 0.25
nr_class 28
nr_binary 72
total_sv 4177
rho 4.34801 0.127492 -0.99741 11.995 -4.68131 -3.99065 -5.64532 -2.0902 0.428492 0.449578 6.75563 -1.1181 6.19362 -5.34056 -2.85027 9.03378 1.61452 4.04733 0.582304 5.11344 -1.11341 -2.71756 -0.73767 1.49751 12.2508 1.57236 -2.85203 -4.29119 -5.58771 1.17677 3.4818 -0.937869 2.73884 -2.8093 0.159387 0.418807 -5.36669 4.63303 0.10575 -1.07904 -0.587524 -1.03265 -2.72813 -0.975304 -9.13032 -2.63244 -1.57226 4.61342 -3.44204 3.91822 -7.34698 0.0568217 -4.24264 -1.75033 7.89334 -8.53529 0.100051 -0.414423 -0.16199 1.76571 3.71612 7.18989 -2.26969 5.30589 -1.05878 0.152745 7.3684 5.29542 0.684567 -2.58144 2.7866 5.01412
label 15 7 9 10 8 20 16 19 14 11 12 18 13 5 4 6 21 17 22 1 3 26 23 29 2 27 25 24
nr_sv 103 391 689 634 568 26 67 32 126 487 267 42 203 115 57 259 14 58 6 1 15 1 9 1 1 2 1 2
nr_sv_binary 286 1711 1721 232 784 835 474 2155 684 1788 1567 2189 344 1097 1569 1881 1716 807 1265 1331 1458 1607 2391 940 1245 1378 303 740 1498 1454 1483 1149 2437 727 531 1816 1956 1350 2160 3408 722 674 366 860 149 631 654 2495 1396 809 10 1985 1357 2133 1230 1602 410 1719 1006 2552 2494 1672 491 2871 984 716 2005 894 1680 16 1575 485
I 3
7 9 12 17 18 20 22 27
7 1 13 14 19 21 23 25
3 2 13 17
11 1 3 10 11 18 20 21 22 24 26 27
8 1 5 8 10 12 20 25 26
5 2 4 7 13 16
4 5 6 11 18
5 4 8 20 23 25
7 0 1 6 11 13 16 21
6 9 12 14 20 23 25
9 2 4 8 18 21 24 25 26 27
6 0 5 6 10 20 22
6 0 1 14 19 22 23
7 5 8 10 12 16 18 25
7 1 2 12 13 15 22 25
5 4 5 9 17 21
6 14 15 16 17 18 24
8 0 2 9 10 12 13 20 23
6 3 5 10 24 25 27
8 1 7 8 9 12 17 21 22
8 2 3 9 16 18 20 25 27
8 0 1 6 7 8 11 12 14
4 1 2 7 17
6 3 4 8 10 18 26
6 6 7 10 15 21 25
5 11 13 16 23 24
8 1 5 6 13 16 18 21 25
4 2 9 15 24
5 2 5 10 11 20
7 1 6 7 9 16 22 23
3 0 3 9
8 1 2 5 7 12 18 20 24
8 1 9 12 14 16 17 23 25
11 4 6 7 11 15 18 19 21 22 24 27
4 1 5 19 21
9 2 3 4 9 11 12 22 23 24
6 1 11 13 17 25 27
7 2 3 4 10 14 15 23
7 0 6 9 14 17 20 25
7 1 8 10 12 15 21 22
5 5 6 9 11 13
7 0 1 2 3 7 15 22
5 3 5 7 13 19
8 1 9 12 15 16 17 21 25
5 0 1 3 7 19
11 2 4 6 10 11 15 17 21 22 25 26
7 6 10 11 13 16 23 25
8 2 7 8 9 17 20 21 27
8 0 6 9 11 12 21 22 27
9 4 7 10 13 17 18 19 23 26
8 1 3 5 7 16 20 21 23
5 2 22 24 25 26
4 7 15 20 26
6 2 10 16 17 21 22
6 2 9 11 14 20 21
8 1 6 7 16 18 22 25 27
11 0 4 5 6 10 11 16 18 20 22 25
4 3 14 15 21
5 7 9 14 15 24
7 3 5 8 10 11 13 17
3 2 13 21
9 3 11 14 15 17 19 22 23 26
5 7 9 16 17 22
8 3 5 6 13 15 18 23 25
9 0 4 8 9 13 16 17 22 27
10 2 7 10 12 14 18 19 24 25 26
8 1 4 5 14 17 21 22 23
7 0 12 13 16 24 25 26
3 12 16 25
10 0 1 3 7 11 17 18 23 26 27
9 0 2 3 7 8 10 14 19 27
8 1 9 11 17 18 22 24 25
12 1 4 5 7 12 13 14 15 16 17 23 25
7 0 2 3 8 11 21 27
3 9 12 23
14 1 2 4 5 10 13 14 15 16 17 18 19 21 26
12 1 6 8 9 10 14 15 19 20 21 22 27
3 3 4 11
8 2 4 10 12 15 17 21 24
12 1 3 6 8 9 11 13 18 22 25 26 27
10 3 4 6 12 15 16 19 23 25 26
7 0 5 7 8 11 18 22
6 15 16 18 19 22 24
11 0 1 2 4 8 11 12 13 17 21 23
7 3 7 9 15 18 22 24
5 0 17 23 25 27
5 0 8 12 17 23
8 1 3 5 6 14 16 20 21
4 11 16 22 27
6 5 6 13 17 20 21
2 6 15
5 0 1 5 12 26
4 0 13 15 26
7 2 3 4 5 17 22 24
4 2 9 12 24
11 0 1 3 4 6 14 16 18 20 21 23
10 2 4 15 16 17 20 21 22 23 24
9 5 7 9 12 13 19 25 26 27
4 1 8 10 19
9 0 11 14 15 21 22 24 25 27
12 3 4 6 12 15 16 18 19 22 23 24 27
2 25 26
7 4 8 12 16 18 23 24
12 1 3 7 9 10 11 15 19 21 22 25 27
7 0 9 14 16 19 21 25
6 1 3 5 10 15 20
10 0 1 7 10 12 13 17 22 23 27
6 3 4 5 6 15 25
5 9 15 16 24 26
7 0 4 12 14 17 20 21
9 0 4 5 6 13 19 21 22 26
6 3 10 12 15 23 27
2 6 8
7 0 3 15 18 20 23 27
8 0 3 10 14 15 18 22 27
10 7 8 9 11 12 16 19 20 24 26
6 9 11 19 22 23 24
10 0 5 6 7 10 12 15 16 25 27
8 4 9 10 12 15 16 17 23
9 1 3 5 8 11 18 24 26 27
6 0 3 10 12 15 20
10 1 4 7 9 11 14 16 18 22 24
12 1 2 6 10 13 15 16 18 22 24 25 26
7 4 8 11 14 19 20 23
10 0 2 5 7 8 14 15 17 22 25
4 12 18 21 23
8 0 3 4 7 10 12 19 23
9 2 5 9 15 16 17 18 20 26
4 12 14 15 26
6 4 9 13 16 18 25
8 1 3 4 5 12 14 16 18
7 15 17 19 23 25 26 27
4 2 6 9 11
6 1 3 7 8 13 27
4 1 4 10 27
7 7 8 15 17 22 24 25
6 3 5 10 13 22 26
8 2 6 15 16 17 23 24 25
7 5 7 8 9 12 18 20
4 19 24 26 27
9 1 2 3 4 12 15 22 25 27
6 0 9 13 16 17 26
9 6 7 11 12 14 18 19 24 25
4 1 8 13 23
alpha
105 106 108 109 111 112 114 121 125 126 133 136 138 139 142 144 145 147 151 154 158 179 180 183 190 191 194 195 197 198 199 211 216 217 218 219 221 222 232 238 239 240 250 251 270 271 272 273 274 275 276 289 290 291 293 294 306 310 312 315 318 324 326 328 329 331 336 337 338 342 344 349 353 355 356 357 358 359 367 370 372 373 385 397 399 403 404 412 413 416 418 419 426 430 432 434 438 439 447 449 450 452 454 459 460 462 466 467 468 471 474 475 482 488 2636 2637 2640 2647 2648 2651 2657 2659 2660 2662 2663 2664 2667 2668 2673 2674 2676 2680 2682 2683 2687 2691 2692 2693 2694 2695 2696 2703 2704 2705 2706 2714 2715 2725 2726 2727 2728 2743 2751 2752 2754 2755 2823 2826 2827 2831 2834 2841 2857 2864 2868 2869 2870 2878 2884 2885 2887 2888 2890 2892 2912 2916 2932 2935 2949 2951 2954 2955 2971 2975 2984 2985 2991 2996 2997 2998 3002 3004 3005 3006 3007 3008 3009 3010 3011 3012 3025 3037 3040 3062 3073 3087 3088 3091 3092 3095 3449 3452 3457 3461 3463 3470 3472 3475 3476 3478 3482 3483 3493 3503 3508 3515 3518 3524 3542 3551 3552 3554 3583 3593 3598 3600 3603 3616 3621 3622 3638 3641 3645 3651 3703 3706 3728 3746 3756 3761 3762 3763 3777 3780 3794 3799 3800 3801 3802 4087 4107 4108 4109 4125 4139 4144 4145 4146 4147 4148 4149 4150 4151 4152 4153 4154 4155 4156 4157 4158 4159 4160 4170 4172 4173 4175 
-512 -512 -512 -320.5966927318703 -512 -512 -512 -512 -512 -512 -512 -512 -167.3181801461893 -290.9551671536524 -512 -512 -512 -512 -512 -512 -512 -512 -512 -512 -512 -81.0779711858346 -512 -512 -512 -512 -512 -10.0253700001523 -58.070380564005 -512 -512 -512 -512 -512 -512 -512 -512 -512 -512 -512 -512 -512 -512 -512 -512 -512 -512 -283.5772040042148 -512 -512 -505.9757665172003 -512 -512 -512 -512 -512 -512 -512 -512 -512 -512 -512 -512 -118.7495324996257 -512 -512 -286.9310004982927 -512 -512 -512 -430.5374743943631 -512 -512 -512 -512 -512 -512 -512 -512 -512 -512 -349.5025355925902 -512 -512 -512 -512 -512 -512 -512 -512 -512 -512 -512 -512 -512 -219.1759499962392 -512 -512 -512 -512 -512 -512 -512 -512 -512 -512 -512 -512 -512 -512 275.8166364967386 512 512 512 395.7449335704259 512 512 512 512 512 155.7281438299643 512 512 512 512 512 512 512 512 512 512 512 512 512 512 512 512 512 512 512 512 165.8067481156033 512 512 0.4096476589106552 34.36830433714575 512 166.4406731220091 1.290883892862812 512 51.42828731938602 512 512 512 512 512 498.1937457442897 32.86029787466173 512 512 512 512 512 512 512 512 512 499.6807004825562 98.29852771431914 512 512 512 512 420.8898266815357 43.99343167336197 113.3381968765523 512 512 68.63154128611181 512 512 512 481.4760016570647 512 512 512 512 512 512 512 512 512 512 237.1251287560479 512 512 12.4440503372569 512 512 512 512 512 135.2022259782741 512 79.21717837723227 512 512 512 493.4653009111369 512 512 512 512 512 512 512 512 512 512 512 512 512 157.6745380719627 512 23.91285594263804 512 512 512 512 512 512 512 20.20760726155943 123.9039128249782 512 512 -512 -512 -70.3424578225476 -246.4464269258794 -512 -512 -207.2205173550965 -512 -486.2774606974653 -512 -512 -512 -209.8838435758966 -512 -272.6591196614988 -512 -282.8873091264203 -512 -512 512 18.90258601905506 51.07897227676261 189.8742939926551 512 31.49471978091638 -19.75600323832305 512 512 512 512 512 512 512 512 512 512 512 512 512 512 512 -512 -512 -177.6465208281801 -512 16.71298565155215 
104 108 109 111 115 117 118 119 120 121 122 124 126 127 128 129 130 131 132 133 134 135 138 139 140 141 142 143 145 146 147 148 149 150 151 152 153 154 155 156 157 158 159 160 162 163 169 170 171 172 184 186 187 188 189 190 192 193 194 195 196 197 198 199 200 214 216 217 218 219 220 221 222 223 224 225 226 229 232 237 238 239 240 241 242 247 248 249 250 251 252 253 254 255 256 265 266 267 269 270 271 272 273 274 276 277 278 279 280 281 282 283 284 289 290 292 293 294 295 296 297 298 299 301 304 308 309 311 312 315 317 319 320 321 322 323 324 325 326 327 328 333 334 335 336 337 341 342 343 344 351 352 353 354 355 356 357 358 359 364 365 366 367 368 369 370 371 372 373 374 375 376 383 384 385 386 387 392 393 394 395 396 397 399 400 403 404 405 412 414 415 416 417 419 420 421 422 426 427 429 430 431 432 433 434 438 439 440 441 442 443 446 449 450 451 452 453 454 455 456 460 461 464 465 466 472 474 476 477 478 479 482 485 489 490 494 495 496 497 498 499 500 501 502 503 504 505 506 507 508 509 510 511 512 513 514 515 516 517 518 519 520 521 522 523 524 525 526 527 528 529 530 531 532 533 534 535 536 537 538 539 540 541 542 543 544 545 546 547 548 549 550 551 552 553 554 555 556 557 558 559 560 561 562 563 564 565 566 567 568 569 570 571 572 573 574 575 576 577 578 579 580 581 582 583 584 585 586 587 588 589 590 591 592 593 594 595 596 597 598 599 600 601 602 603 604 605 606 607 608 609 610 611 612 613 614 615 616 617 618 619 620 621 622 623 624 625 626 627 628 629 630 631 632 633 634 635 636 637 638 639 640 641 642 643 644 645 646 647 648 649 650 651 652 653 654 655 656 657 658 659 660 661 662 663 664 665 666 667 668 669 670 671 672 673 674 675 676 677 678 679 680 681 682 683 684 685 686 687 688 689 690 691 692 693 694 695 696 697 698 699 700 701 702 703 704 705 706 707 708 709 710 711 712 713 714 715 716 717 718 719 720 721 722 723 724 725 726 727 728 729 730 731 732 733 734 735 736 737 738 739 740 741 742 743 744 746 748 749 750 751 752 753 754 755 756 757 759 760 761 762 763 764 765 766 767 768 769 770 771 772 773 774 775 776 777 778 779 780 781 782 783 784 785 786 787 788 789 790 791 792 793 794 795 796 797 798 799 800 801 802 803 804 805 806 807 808 809 810 811 812 813 814 815 816 817 818 819 820 821 822 823 824 825 826 827 828 829 830 831 832 833 834 835 836 837 838 839 840 841 842 843 844 845 846 847 848 849 850 851 852 853 854 855 856 857 858 859 860 861 862 863 864 865 866 867 868 869 870 871 872 873 874 875 876 877 878 879 880 881 882 883 884 885 886 887 888 889 890 891 892 893 894 895 896 897 898 899 900 901 902 903 904 905 906 907 908 909 910 911 912 913 914 915 916 917 918 919 920 921 922 923 924 925 926 927 928 929 930 931 932 933 934 935 936 937 938 939 940 942 943 944 945 946 947 948 949 950 951 952 953 954 955 956 957 958 959 960 961 962 963 964 965 966 967 968 969 970 971 972 973 975 976 977 978 979 980 981 982 983 984 985 986 987 988 989 990 991 992 993 994 995 996 997 999 1000 1001 1002 1003 1004 1005 1006 1007 1008 1009 1010 1011 1012 1013 1014 1015 1016 1017 1018 1019 1020 1021 1022 1023 1024 1025 1026 1027 1028 1029 1030 1031 1032 1033 1034 1035 1036 1037 1038 1039 1040 1041 1042 1043 1044 1045 1046 1047 1048 1049 1050 1051 1052 1053 1054 1055 1056 1057 1058 1059 1060 1061 1062 1063 1064 1065 1066 1067 1068 1069 1070 1071 1072 1073 1074 1075 1076 1077 1078 1079 1080 1081 1082 1083 1084 1085 1086 1087 1088 1089 1090 1091 1092 1093 1094 1095 1096 1098 1099 1100 1101 1102 1103 1104 1105 1106 1107 1108 1109 1110 1111 1112 1113 1114 1115 1116 1117 1118 1119 1120 1121 1122 1124 1126 1127 1128 1129 1130 1131 1132 1133 1134 1135 1136 1137 1138 1139 1140 1141 1142 1143 1144 1145 1146 1147 1148 1149 1150 1151 1152 1153 1154 1155 1156 1157 1158 1159 1160 1161 1162 1163 1164 1165 1166 1167 1168 1169 1170 1171 1172 1173 1174 1175 1176 1177 1178 1179 1180 1181 1182 1183 1184 1185 1188 1189 1191 1193 1194 1195 1199 1202 1203 1204 1206 1209 1210 1211 1213 1215 1217 1218 1219 1223 1224 1225 1226 1227 1228 1229 1230 1231 1234 1235 1236 1237 1238 1242 1243 1245 1247 1248 1249 1250 1251 1253 1254 1255 1256 1258 1259 1260 1262 1263 1264 1266 1269 1271 1272 1274 1275 1276 1277 1279 1280 1281 1282 1283 1284 1285 1286 1287 1288 1289 1290 1291 1293 1294 1297 1298 1299 1300 1301 1303 1304 1305 1307 1308 1311 1313 1317 1318 1319 1320 1321 1322 1323 1324 1325 1326 1327 1328 1329 1334 1335 1336 1337 1338 1339 1340 1341 1342 1343 1344 1345 1346 1347 1348 1349 1350 1351 1352 1353 1355 1356 1357 1358 1359 1360 1363 1364 1366 1367 1368 1369 1370 1371 1372 1374 1376 1378 1382 1383 1386 1387 1388 1389 1390 1391 1395 1397 1401 1402 1403 1404 1405 1406 1407 1408 1409 1410 1411 1412 1414 1415 1416 1417 1418 1420 1421 1422 1423 1424 1425 1427 1428 1429 1430 1431 1432 1433 1434 1435 1439 1441 1442 1445 1448 1449 1450 1451 1452 1453 1454 1455 1456 1457 1458 1459 1461 1462 1464 1465 1466 1467 1469 1470 1471 1472 1473 1474 1475 1476 1477 1479 1481 1483 1484 1485 1487 1494 1495 1496 1497 1498 1499 1500 1501 1502 1503 1506 1508 1510 1514 1515 1516 1518 1520 1528 1529 1530 1531 1533 1534 1536 1537 1538 1539 1540 1541 1542 1544 1545 1546 1548 1551 1552 1553 1554 1555 1556 1558 1559 1560 1561 1562 1563 1567 1568 1569 1570 1571 1572 1573 1574 1576 1577 1578 1579 1580 1581 1582 1583 1584 1585 1587 1588 1589 1590 1591 1592 1593 1594 1595 1596 1597 1598 1600 1601 1602 1603 1604 1605 1606 1609 1610 1611 1612 1613 1614 1615 1616 1617 1618 1619 1620 1622 1623 1624 1626 1629 1630 1631 1632 1633 1634 1635 1636 1638 1639 1640 1642 1644 1645 1646 1648 1649 1651 1652 1653 1654 1655 1657 1658 1666 1668 1670 1671 1673 1674 1677 1678 1679 1680 1681 1684 1688 1690 1691 1692 1693 1694 1695 1696 1699 1701 1702 1703 1704 1705 1706 1707 1708 1709 1710 1712 1717 1718 1719 1720 1721 1722 1723 1724 1725 1726 1727 1729 1730 1731 1732 1733 1738 1739 1740 1741 1742 1743 1744 1745 1746 1747 1749 1750 1752 1753 1754 1758 1759 1761 1762 1764 1765 1767 1769 1771 1772 1774 1776 1777 1778 1779 1780 1781 1784 1785 1786 1787 1789 1790 1791 1792 1793 1794 1796 1799 1800 1801 1802 1804 1805 1806 1808 1809 1812 1813 1814 1815 1816 3123 3124 3125 3126 3128 3129 3131 3132 3133 3134 3135 3136 3137 3139 3140 3142 3143 3144 3147 3149 3150 3151 3152 3156 3157 3159 3160 3161 3162 3166 3167 3168 3169 3170 3171 3173 3176 3177 3178 3181 3187 3188 3189 3191 3192 3195 3196 3197 3198 3199 3200 3202 3204 3205 3207 3209 3210 3211 3212 3213 3214 3215 3216 3217 3218 3219 3220 3223 3226 3227 3228 3230 3231 3232 3233 3235 3236 3239 3240 3244 3245 3246 3247 3249 3250 3256 3258 3259 3261 3264 3265 3271 3272 3274 3275 3276 3278 3279 3280 3281 3282 3284 3285 3286 3289 3291 3292 3296 3297 3299 3305 3306 3310 3311 3312 3314 3315 3316 3317 3319 3322 3323 3324 3325 3326 3329 3330 3331 3333 3334 3335 3336 3338 3339 3341 3342 3344 3345 3347 3352 3353 3354 3356 3359 3360 3364 3374 3375 3378 3379 3381 3382 3385 3386 3387 3390 3391 3392 3393 3394 3395 3397 3401 3402 3403 3404 3405 3407 3410 3411 3412 3415 3416 3421 3429 3431 3637 3638 3640 3641 3642 3644 3645 3646 3647 3649 3650 3651 3652 3653 3654 3655 3656 3657 3659 3661 3662 3663 3664 3665 3667 3668 3669 3671 3672 3673 3674 3675 3676 3677 3678 3679 3680 3681 3682 3683 3684 3685 3686 3688 3689 3690 3691 3692 3694 3695 3696 3697 3698 3699 3700 3701 3703 3704 3705 3706 3707 3710 3711 3712 3713 3715 3716 3717 3719 3720 3721 3723 3724 3725 3726 3728 3729 3730 3731 3732 3733 3734 3736 3737 3738 3739 3740 3742 3743 3744 3745 3747 3748 4080 4081 4082 4083 4084 4085 4086 4087 4088 4089 4090 4091 4092 4093 4094 4095 4096 4097 4098 4099 4100 4101 4102 4103 4104 4105 4106 4108 4109 4110 4111 4112 4113 4114 4115 4116 4117 4118 4119 4120 4121 4122 4123 4124 4125 4126 4127 4128 4129 4130 4131 4132 4133 4134 4135 4136 4137 4138 4139 4140 4141 4145 4147 4148 4150 4151 4152 4153 4154 4155 4156 4157 4158 4159 4166 4169 4171 4175 4176 
-512 -512 -464.309373807123 -512 -512 -512 -512 -512 -512 -512 -512 -512 -512 -512 -512 -512 -512 -512 -164.0716223422085 -512 -512 -512 -512 -512 -512 -512 -512 -512 -512 -512 -512 -218.4380619133355 -512 -512 -316.8015351454371 -512 -512 -512 -512 -512 -512 -512 -512 -512 -78.26292659343054 -512 -512 -512 -512 -512 -512 -512 -512 -440.3015604228214 -512 -512 -512 -512 -512 -512 -512 -512 -287.4853129573638 -512 -512 -512 -512 -512 -512 -512 -512 -512 -512 -512 -512 -512 -512 -512 -512 -512 -512 -512 -512 -512 -512 -512 -275.888214947463 -512 -512 -512 -512 -512 -512 -512 -512 -512 -512 -512 -512 -512 -512 -512 -512 -512 -7.498128877229814 -16.04159374747174 -512 -325.1682029968768 -512 -512 -512 -512 -512 -512 -512 -512 -512 -100.80545868641 -512 -512 -512 -512 -512 -512 -512 -512 -512 -512 -512 -189.2619679552032 -512 -512 -379.3747400877619 -512 -512 -512 -512 -512 -512 -512 -512 -17.26479722401597 -512 -512 -512 -512 -512 -512 -512 -512 -512 -512 -512 -512 -512 -512 -512 -512 -512 -512 -512 -512 -512 -512 -512 -512 -512 -512 -512 -512 -512 -512 -512 -512 -512 -512 -512 -512 -512 -512 -512 -512 -512 -512 -512 -512 -512 -512 -512 -512 -32.86330801051401 -512 -512 -512 -512 -512 -512 -512 -512 -512 -512 -512 -512 -512 -512 -512 -512 -512 -512 -512 -512 -512 -512 -512 -512 -512 -512 -512 -446.7751210574157 -18.00826160858738 -512 -512 -512 -512 -512 -512 -512 -512 -512 -512 -89.03723272441711 -512 -512 -512 -512 512 512 512 512 512 512 512 512 512 512 512 512 512 512 512 512 512 512 512 512 512 512 512 512 512 512 512 512 512 512 512 512 512 512 512 512 512 512 512 512 512 512 512 512 512 512 512 512 512 512 512 512 512 512 512 512 512 512 512 512 512 512 512 512 512 512 512 512 512 512 512 512 512 512 512 512 512 512 512 512 512 512 512 512 512 512 512 512 512 512 512 512 512 512 512 512 512 512 512 512 512 512 512 512 512 512 512 512 512 512 512 512 512 512 512 512 512 512 512 512 512 512 512 512 512 512 512 512 512 512 512 512 512 512 512 512 512 512 512 512 512 512 512 512 512 512 512 512 512 512 512 512 512 512 512 512 512 512 512 512 512 512 512 512 512 512 512 512 512 512 512 512 512 512 512 512 512 512 512 512 512 512 512 512 512 512 512 512 229.2618173358402 214.6362133740055 512 512 512 512 512 512 512 512 512 512 512 512 512 512 512 512 512 512 512 512 512 512 512 512 512 512 512 512 512 512 512 512 512 512 512 512 512 512 512 512 512 512 512 512 512 512 512 512 512 512 512 512 512 512 512 512 512 512 512 512 512 512 512 512 512 512 512 512 512 512 512 512 512 512 512 512 512 512 512 512 512 512 512 512 512 512 512 512 512 512 512 512 512 512 512 512 512 512 512 512 512 512 512 512 512 512 512 512 512 512 512 512 512 512 512 512 512 512 512 512 512 512 512 512 512 512 512 512 512 512 512 512 512 512 512 512 512 512 512 512 512 512 512 512 512 512 512 512 512 512 512 512 512 512 512 512 512 512 512 512 512 512 512 512 512 512 512 512 512 512 512 512 512 512 512 512 512 512 512 512 512 512 512 512 512 512 512 512 512 512 512 512 512 512 512 512 512 512 512 512 512 512 512 512 512 512 512 512 512 512 512 512 512 512 512 512 512 512 512 512 512 512 512 512 512 512 512 512 512 512 512 512 512 512 512 512 512 512 512 512 512 512 512 512 512 512 512 512 512 512 512 512 512 512 512 512 512 512 512 512 512 512 512 512 512 512 512 512 512 512 512 512 512 512 512 512 512 512 512 512 512 512 512 512 512 512 512 512 512 512 512 512 512 512 512 512 512 512 512 512 512 512 512 512 512 512 512 512 512 512 512 512 512 512 512 512 512 512 512 512 512 512 512 512 512 512 512 512 512 512 512 512 512 512 512 512 512 512 512 512 512 512 512 512 512 512 512 512 512 512 512 512 512 512 512 512 512 512 512 512 512 512 512 512 512 512 512 512 512 512 512 512 512 512 512 512 512 512 512 512 512 512 512 512 512 512 512 512 512 512 512 512 512 512 512 512 512 512 512 512 512 512 512 512 512 512 512 512 512 512 512 512 512 512 512 512 512 512 512 512 512 512 512 512 512 512 512 512 512 512 512 512 512 512 512 512 512 512 512 512 512 512 512 512 512 512 512 512 512 512 512 512 512 512 512 512 512 512 512 512 512 512 512 512 512 512 512 512 512 512 512 512 512 512 512 512 512 512 512 512 512 512 512 512 512 512 512 512 512 512 -202.164183024502 -512 -512 -512 -512 -512 -512 -512 -512 -512 -512 -512 -106.2236350291776 -512 -512 -512 -512 -512 -512 -512 -512 -512 -512 -512 -512 -512 -512 -512 -512 -512 -512 -512 -512 -512 -512 -512 -512 -512 -509.8507774909743 -512 -512 -512 -512 -512 -512 -512 -512 -512 -512 -512 -512 -512 -512 -512 -512 -512 -512 -512 -512 -512 -512 -184.5205703003578 -512 -501.6903169842068 -512 -512 -512 -512 -512 -512 -512 -512 -512 -512 -512 -512 -512 -512 -512 -512 -512 -512 -512 -512 -512 -512 -512 -165.3124718147764 -305.9904109001857 -512 -512 -512 -512 -512 -512 -512 -512 -512 -512 -512 -512 -512 -512 -512 -512 -512 -512 -512 -512 -512 -512 -67.23729001020509 -512 -512 -512 -512 -512 -512 -512 -512 -512 -512 -512 -512 -512 -512 -512 -512 -512 -512 -512 -512 -512 -512 -512 -512 -512 -166.3738941925094 -67.21922987488718 -178.9579712596212 -512 -512 -5.754609068103208 -512 -512 -512 -512 -512 -512 -8.960417333677297 -512 -512 -512 -512 -512 -512 -512 -512 -512 -512 -512 -299.1463092418362 -512 -512 -512 -512 -512 -512 -512 -512 -512 -512 -512 -512 -512 -512 -512 -512 -512 -355.9412385527614 -512 -512 -512 -512 -512 -512 -512 -512 -512 -512 -512 -512 -388.1766806886383 -512 -512 -512 -512 -512 -56.69630927711173 -512 -512 -512 -512 -512 -512 -512 -512 -479.6684158119166 -512 -512 -512 -512 -512 -512 -512 -512 -512 -512 -346.5279688229522 -3.144033146103896 -512 -512 -512 -512 -512 -512 -512 -512 -512 -414.0754282699795 -512 -512 -512 -512 -512 -512 -512 -512 -512 -512 -512 -350.5594638472959 -512 -512 -512 -512 -512 -320.7216917277202 -512 -512 -512 -357.5535322183484 -512 -512 -512 -512 -512 -177.8822954492813 -512 -512 -512 -57.37034407311427 -512 -29.09234340259665 -512 -320.6234858241069 -219.2986869726228 -512 -512 -512 -512 -512 -512 -512 -512 -512 -512 -512 -512 -512 -512 -512 -512 -512 -512 -512 -512 -512 -209.1147325367367 -512 -512 -512 -512 -512 -512 -512 -512 -512 -512 -512 -512 -512 -512 -512 -512 -512 -512 -512 -512 -512 -512 -321.7505052672626 -512 -226.1813263923996 -512 -512 -512 -512 -512 -512 -512 -512 -512 -512 -512 -88.65775834906009 -512 -512 -512 -512 -512 -512 -512 -176.5012345141198 -512 -512 -512 -512 -512 -512 -512 -512 -512 -512 -327.0977941372287 -512 -512 -512 -512 -512 -512 -512 -512 -512 -373.2376846594132 -2.638872583539536 -192.5517039550149 -512 -512 -512 -512 -343.9636630413434 -512 -512 -512 -512 -512 -512 -512 -512 -512 -512 -512 -512 -512 -512 -512 -512 -512 -512 -512 -512 -512 -512 -512 -512 -512 -512 -512 -512 -387.176459923657 -219.4662797403635 -512 -304.4522171762326 -512 -512 -512 -512 -512 -512 -512 -512 -512 -512 -512 -512 -512 -512 -512 -512 -512 -512 -512 -512 -512 -37.6336927343504 -512 -512 -512 -507.3212758235598 -386.664639891255 -512 -512 -512 -512 -512 -512 -512 -512 -512 -512 -512 -512 -21.87144475286623 -512 -512 -512 -512 -512 -512 -512 -512 -512 -512 -512 -512 -512 -512 -512 -512 -369.054491992671 -512 -30.62862412131915 -512 -512 -512 -299.2465913457546 -512 -298.2780961183366 -512 -512 -512 -512 -512 -512 -512 -512 -512 -322.276104538026 -512 -512 -512 -512 -512 -512 -493.1973133888977 -512 -512 -512 -512 -512 -512 -512 -512 -512 -512 -512 -512 -512 -512 -512 -512 -512 -512 -512 -512 -512 -221.1035196960594 -512 -362.3036868674161 -37.32017390107109 -172.6504141845279 -512 -324.7720346499084 -512 -512 -512 -512 -512 -512 -512 -462.1146971162017 -512 -459.4016988829158 -435.3646965891209 -512 -512 -512 -512 -512 -512 -512 -512 -512 -512 -512 -512 -6.819884592040235 -35.71075839007518 -64.22307907536664 -512 -512 -512 -45.14699355082659 -512 -512 -502.1100676725858 -512 -512 -512 -512 -512 -512 -512 -512 -512 -512 -512 -512 -512 -512 -512 -512 -512 -512 -458.3988469375545 -0.8175546915067617 -266.2726968664282 -512 -512 -512 -512 -512 -512 -512 -512 -512 -119.8102204532406 -512 -512 -512 -512 -512 -383.8258595806325 -512 -512 -512 -512 -512 -512 -512 -512 -512 -512 -512 -512 -512 -512 -512 -512 -512 -512 -512 -512 -512 -512 -512 -512 -512 -512 -512 -512 -512 -512 -70.29156241575005 -145.8495015166087 -512 -512 -96.64385447261937 -5.166759221231549 -512 -396.8958246514838 -512 -512 -360.7223311997998 -512 -512 -512 -512 -512 -512 -276.5875524076203 -321.0583436548808 -512 512 512 512 512 512 512 512 512 512 512 512 512 512 512 512 512 512 512 227.3073219713417 512 512 512 512 512 512 512 512 512 512 461.41588080169 512 512 512 512 512 512 512 512 512 512 512 512 512 512 512 512 512 512 512 512 512 512 512 512 512 512 512 512 512 512 512 512 512 512 512 512 512 512 512 512 512 512 512 512 50.65473629990237 0.3876452785943714 512 512 512 512 512 512 512 512 512 512 512 512 512 512 512 512 512 512 512 512 512 512 512 512 512 512 512 512 512 512 512 512 512 512 512 512 512 512 512 512 512 512 512 512 512 512 512 512 512 512 512 512 512 512 512 512 512 512 512 512 512 512 512 512 512 512 512 512 512 512 512 512 512 512 -35.49820523165732 -512 -334.4661364188687 -512 -512 -512 -512 -512 -512 -512 -512 -512 -349.8612898220767 -512 -512 -512 -512 -512 -512 -512 -507.1014376532204 -512 
103 104 105 106 107 108 109 110 111 112 113 114 115 116 117 118 119 120 121 122 123 124 125 126 127 128 129 130 131 132 133 134 135 136 137 138 139 140 141 142 143 144 145 146 147 148 149 150 151 152 153 154 155 156 157 158 159 160 161 162 163 164 165 166 167 168 169 170 171 172 173 174 175 176 177 178 179 180 181 182 183 184 185 186 187 188 189 190 191 192 193 194 195 196 197 198 199 200 201 202 203 204 205 206 207 208 209 210 211 212 213 214 215 216 217 218 219 220 221 222 223 224 225 226 227 228 229 231 232 233 234 235 236 237 238 239 240 241 242 244 245 246 247 248 249 250 251 252 253 254 255 256 257 258 259 260 261 262 263 264 265 266 267 268 269 270 271 272 273 274 275 276 277 278 279 280 281 282 283 284 285 286 287 288 289 290 291 292 293 294 295 296 297 298 299 300 301 302 303 304 305 306 307 308 309 310 311 312 313 314 315 316 317 318 319 320 321 322 323 324 325 326 327 328 329 330 331 332 333 334 335 336 337 338 339 340 341 342 343 344 345 346 347 348 349 350 351 352 353 354 355 356 357 358 359 360 361 362 363 364 365 366 367 368 369 370 371 372 373 374 375 376 378 379 380 381 382 383 384 385 386 387 388 389 390 391 392 393 394 395 396 397 398 399 400 401 402 403 404 405 406 407 408 409 410 411 412 413 414 415 416 417 418 419 420 421 422 423 424 425 426 427 428 429 430 431 432 433 434 435 436 437 438 439 440 441 442 443 444 445 446 447 448 449 450 451 452 453 454 455 456 457 458 459 460 461 462 463 464 465 466 467 468 469 470 471 472 473 474 475 476 477 478 479 480 481 482 483 484 485 486 487 488 489 490 492 493 494 495 496 498 499 501 503 504 505 506 507 508 510 511 512 513 514 515 516 517 518 519 520 521 522 523 524 525 526 527 528 529 530 531 532 533 535 536 538 539 540 541 542 544 545 546 547 548 550 552 553 554 555 557 558 559 560 563 564 565 566 567 569 571 572 573 574 575 576 577 578 579 580 581 584 585 586 587 588 589 590 592 593 594 595 598 599 608 609 610 611 612 615 623 630 633 638 639 642 645 646 647 648 649 650 651 652 653 654 655 656 657 658 659 660 661 674 676 678 684 685 686 689 690 691 692 693 694 696 698 699 700 701 702 703 704 708 714 715 716 717 718 720 721 723 725 726 727 729 731 741 749 753 754 756 759 760 761 762 763 764 766 767 769 770 771 773 774 776 778 780 781 783 784 785 786 787 792 797 800 802 805 807 809 811 813 814 816 818 820 821 822 825 827 828 829 832 833 834 835 837 842 843 844 845 846 847 848 849 850 851 852 853 854 855 856 857 858 859 860 861 862 864 865 866 867 868 869 870 871 872 874 875 876 878 879 880 881 882 883 884 886 888 889 890 892 893 894 895 898 899 900 902 904 906 913 917 922 923 925 930 931 932 935 940 946 947 948 949 950 958 959 961 962 963 966 971 973 977 981 982 983 988 991 993 994 997 999 1002 1003 1004 1005 1006 1007 1008 1009 1013 1014 1015 1016 1017 1018 1019 1020 1021 1022 1025 1026 1028 1029 1030 1031 1032 1034 1035 1036 1039 1041 1042 1043 1046 1047 1049 1050 1051 1054 1056 1057 1058 1059 1060 1061 1068 1069 1070 1071 1073 1076 1078 1081 1083 1084 1085 1086 1087 1091 1092 1093 1098 1099 1100 1101 1102 1103 1104 1111 1115 1116 1118 1122 1124 1126 1127 1130 1132 1133 1134 1135 1137 1138 1139 1140 1141 1142 1144 1145 1147 1148 1153 1154 1155 1156 1157 1162 1163 1164 1165 1166 1167 1168 1169 1174 1175 1176 1178 1179 1180 1182 1817 1819 1821 1822 1823 1824 1826 1827 1829 1830 1831 1832 1833 1834 1836 1837 1838 1839 1840 1841 1843 1845 1846 1847 1848 1850 1851 1852 1853 1854 1856 1857 1858 1860 1864 1865 1866 1867 1868 1869 1870 1871 1872 1873 1875 1876 1877 1879 1883 1884 1889 1891 1892 1894 1895 1899 1901 1903 1905 1906 1907 1908 1909 1910 1912 1916 1929 1940 1942 1943 1944 1945 1946 1947 1948 1949 1950 1951 1952 1953 1954 1955 1956 1957 1958 1959 1960 1961 1962 1963 1973 1974 1975 1976 1978 1989 1994 1995 1996 1997 1998 1999 2000 2001 2002 2003 2004 2005 2006 2007 2008 2014 2017 2018 2027 2028 2029 2033 2034 2035 2037 2038 2040 2042 2044 2048 2050 2051 2052 2053 2054 2055 2056 2057 2058 2067 2069 2070 2071 2072 2073 2074 2075 2076 2077 2078 2079 2080 2082 2083 2084 2085 2089 2091 2093 2094 2096 2097 2098 2099 2100 2101 2102 2103 2104 2105 2106 2107 2109 2111 2112 2113 2114 2115 2117 2119 2120 2121 2122 2123 2124 2125 2126 2127 2128 2129 2130 2131 2142 2143 2144 2145 2146 2147 2148 2161 2163 2164 2165 2166 2167 2168 2169 2170 2172 2173 2174 2175 2181 2185 2186 2187 2189 2192 2193 2194 2195 2196 2197 2198 2199 2208 2213 2214 2215 2216 2218 2222 2223 2224 2225 2226 2227 2228 2229 2235 2236 2237 2238 2239 2240 2241 2242 2243 2245 2247 2248 2249 2250 2251 2252 2253 2254 2255 2257 2258 2260 2261 2262 2264 2265 2267 2270 2273 2275 2276 2277 2278 2282 2287 2288 2289 2290 2291 2293 2294 2298 2301 2302 2303 2304 2305 2306 2309 2310 2311 2312 2313 2314 2318 2320 2321 2322 2323 2326 2327 2328 2329 2330 2332 2333 2337 2339 2340 2341 2342 2343 2344 2345 2346 2347 2348 2349 2353 2355 2356 2359 2362 2364 2367 2368 2370 2371 2374 2375 2377 2378 2379 2380 2381 2382 2383 2384 2386 2387 2391 2393 2394 2395 2396 2397 2401 2403 2409 2478 2479 2480 2481 2482 2483 2484 2485 2486 2487 2488 2489 2490 2491 2492 2493 2494 2495 2496 2497 2498 2499 2500 2501 2502 2503 2504 2505 2506 2507 2508 2509 2510 2511 2512 2513 2515 2516 2519 2521 2523 2525 2527 2528 2529 2530 2531 2533 2535 2536 2537 2539 2540 2541 2542 2543 2544 2545 2546 2547 2548 2549 2550 2551 2553 2554 2555 2557 2560 2562 2563 2564 2566 2568 2572 2573 2575 2576 2578 2579 2580 2582 2583 2584 2586 2587 2588 2589 2590 2592 2593 2594 2595 2598 2599 2600 2603 2604 2605 2606 2607 2608 2610 2611 2612 2613 2614 2615 2616 2617 2618 2619 2620 2621 2622 2623 2624 2625 2626 2627 2633 2634 3123 3124 3125 3126 3130 3131 3132 3133 3134 3136 3137 3138 3139 3140 3141 3142 3143 3144 3146 3147 3148 3149 3150 3151 3152 3153 3154 3156 3157 3158 3159 3160 3161 3162 3164 3166 3168 3169 3170 3171 3172 3173 3174 3175 3177 3178 3179 3180 3181 3182 3183 3184 3185 3186 3187 3188 3189 3190 3192 3193 3195 3197 3198 3199 3200 3201 3203 3204 3206 3210 3211 3212 3213 3214 3215 3216 3217 3218 3219 3220 3223 3226 3227 3228 3230 3231 3232 3233 3234 3235 3236 3237 3238 3239 3240 3241 3242 3245 3246 3247 3248 3249 3250 3251 3252 3253 3254 3255 3256 3258 3259 3260 3263 3264 3265 3267 3269 3270 3271 3272 3273 3274 3275 3276 3277 3278 3279 3280 3281 3282 3283 3284 3285 3286 3287 3288 3289 3290 3291 3292 3293 3295 3299 3301 3305 3306 3307 3308 3310 3311 3312 3313 3314 3316 3321 3322 3323 3324 3325 3326 3327 3328 3329 3330 3331 3332 3333 3334 3335 3336 3337 3338 3339 3341 3342 3343 3344 3345 3346 3347 3348 3349 3350 3351 3352 3353 3354 3355 3356 3357 3359 3360 3361 3362 3363 3365 3366 3367 3369 3371 3373 3374 3375 3378 3379 3380 3381 3382 3383 3385 3386 3387 3388 3434 3435 3436 3438 3439 3441 3442 3443 3444 3448 3449 3450 3451 3452 3456 3457 3458 3459 3460 3461 3462 3463 3464 3466 3467 3468 3470 3471 3472 3474 3475 3476 3477 3478 3479 3480 3481 3482 3483 3484 3485 3488 3489 3490 3491 3492 3493 3494 3495 3497 3498 3499 3500 3501 3502 3503 3504 3506 3507 3508 3509 3511 3512 3515 3516 3517 3519 3521 3522 3524 3527 3528 3530 3531 3533 3535 3536 3538 3539 3540 3541 3542 3543 3545 3547 3548 3549 3551 3552 3553 3554 3556 3557 3564 3565 3566 3568 3569 3570 3572 3573 3574 3576 3577 3578 3579 3580 3581 3582 3583 3587 3588 3589 3590 3591 3593 3594 3595 3596 3597 3598 3599 3600 3601 3603 3604 3605 3606 3607 3609 3613 3614 3615 3616 3617 3620 3621 3622 3624 3627 3630 3632 3633 3634 3638 3640 3641 3642 3644 3645 3646 3647 3649 3651 3653 3654 3655 3657 3661 3662 3663 3664 3665 3667 3668 3669 3671 3672 3673 3674 3675 3676 3677 3678 3679 3680 3681 3682 3683 3684 3685 3686 3687 3688 3689 3690 3691 3694 3695 3696 3697 3698 3699 3700 3701 3703 3704 3705 3706 3707 3710 3712 3713 3714 3715 3716 3717 3719 3720 3721 3723 3724 3725 3729 3730 3731 3732 3733 3736 3737 3738 3739 3740 3741 3742 3743 3744 3745 3747 4066 4067 4068 4069 4070 4071 4072 4073 4074 4075 4076 4077 4078 4079 4145 4147 4148 4150 4151 4152 4153 4154 4155 4156 4157 4158 4159 4172 
512 512 512 512 512 512 512 512 512 512 512 512 512 512 512 512 512 512 512 512 512 512 512 512 512 512 512 512 512 512 512 512 512 512 512 512 512 512 512 512 512 512 512 512 512 512 512 512 512 512 512 512 512 512 512 512 512 512 437.2139566685114 512 512 512 512 512 512 512 512 512 512 512 512 512 512 512 512 512 512 512 512 512 512 512 512 512 512 512 512 512 512 512 512 512 512 512 512 512 512 512 512 512 512 512 512 512 512 512 512 512 512 512 512 512 512 512 512 512 512 512 512 512 512 512 512 512 512 512 512 512 512 512 512 512 512 512 512 512 512 512 512 512 512 512 512 512 512 512 512 512 512 512 512 512 512 512 512 512 512 512 512 512 512 512 512 512 512 512 512 512 512 512 512 512 59.23223110911385 512 512 512 512 512 512 512 512 512 512 512 512 512 512 512 512 512 512 512 512 512 512 512 512 512 512 512 512 512 512 512 512 512 512 512 512 512 512 512 512 512 512 512 512 512 512 512 512 512 512 512 512 512 512 512 512 512 512 512 512 512 512 512 512 512 512 512 512 512 512 512 512 512 512 512 512 512 512 512 512 512 512 512 512 512 512 512 512 512 512 512 512 512 512 512 512 512 512 512 512 512 512 512 512 512 512 512 512 512 512 512 512 512 512 512 512 512 512 512 512 512 512 512 512 512 512 512 512 512 512 512 512 512 512 512 512 512 512 512 512 512 512 512 512 512 512 512 512 512 512 512 512 512 512 512 512 512 512 512 512 512 512 512 512 512 512 512 512 512 512 512 512 512 512 512 512 512 512 425.999005278342 512 512 512 512 512 512 512 512 512 512 512 512 512 512 512 512 512 512 512 512 512 512 512 512 512 512 512 512 512 512 512 512 512 512 512 -512 -512 -512 -512 -512 -512 -512 -512 -512 -512 -512 -512 -512 -512 -512 -512 -512 -512 -383.2445122774729 -512 -512 -512 -512 -512 -512 -512 -512 -512 -512 -512 -512 -512 -512 -512 -512 -512 -512 -512 -512 -512 -512 -512 -512 -512 -512 -512 -512 -512 -512 -512 -512 -512 -512 -512 -512 -512 -512 -512 -512 -415.6391858826394 -512 -512 -512 -512 -512 -512 -512 -512 -512 -512 -512 -512 -512 -512 -512 -512 -512 -512 -512 -512 -512 -512 -512 -512 -512 -512 -512 -512 -512 -512 -21.31629310803067 -512 -512 -512 -175.5901610994383 -512 -512 -512 -512 -512 -512 -512 -512 -512 -512 -512 -342.9567661453231 -512 -512 -512 -512 -512 -512 -512 -512 -512 -512 -512 -512 -512 -512 -512 -512 -512 -295.434835560042 -512 -512 -512 -512 -512 -512 -512 -512 -512 -512 -512 -512 -359.4128639128942 -512 -512 -512 -512 -512 -512 -512 -512 -512 -314.3568468562419 -512 -512 -512 -512 -512 -512 -512 -512 -512 -512 -512 -512 -512 -512 -512 -512 -164.1336287061654 -512 -512 -165.2360192597709 -512 -512 -512 -512 -512 -512 -512 -512 -512 -512 -512 -230.6053244391667 -512 -512 -512 -512 -512 -512 -512 -512 -512 -512 -512 -512 -273.1694454084403 -512 -512 -512 -512 -512 -512 -512 -512 -512 -512 -512 -512 -512 -512 -512 -512 -512 -512 -512 -512 -512 -512 -512 -512 -512 -512 -512 -512 -512 -512 -512 -512 -512 -512 -512 -512 -512 -512 -512 -512 -512 -512 -512 -512 -512 -512 -512 -512 -512 -512 -512 -512 -512 -512 -512 -512 -512 -512 -512 -512 -512 -512 -512 -512 -512 -36.96631216302175 -512 -512 -494.2678717665554 -512 -512 -512 -512 -512 -512 -512 -512 -512 -512 -512 -512 -512 -512 -512 -512 -512 -512 -512 -512 -512 -512 -512 -512 -512 -512 -512 -512 -512 -512 -512 -512 -512 -512 -512 -512 -512 -512 -512 -512 -512 -512 -512 -512 -512 -512 -512 -234.4955709471437 -512 -512 -512 -512 -512 -512 -512 -512 -292.177541966407 -512 -512 -512 -512 -512 -512 -512 -6.324182793455305 -512 -512 -512 -512 -512 -512 -512 -512 -512 -512 -512 -512 -512 -512 -512 -512 -512 -512 -512 -512 -512 -512 -512 -512 -512 -512 -512 -512 -512 -512 -512 -512 -512 -512 -512 -15.66479273125929 -512 -512 -512 -512 -512 -512 -512 -512 -512 -512 -512 -512 -512 -512 -512 -512 -512 -512 -512 -512 -512 -512 -402.5551157657521 -512 -512 -512 -512 -512 -512 -512 -512 -512 -512 -512 -512 -512 -512 -512 -512 -512 -512 -512 -512 -512 -512 -512 -512 -512 -156.1525619174109 -512 -512 -512 -512 -512 -512 -512 -512 -512 -512 -512 -512 -512 -512 -512 -512 -512 -512 -512 -512 -512 -512 -512 -512 -512 -512 -512 -512 -512 -512 -512 -512 -512 -512 -512 -512 -512 -512 -512 -512 -512 -512 -512 -356.7441815250253 -512 -512 -512 -512 -512 -512 -512 -512 -512 -512 -512 -512 -512 -512 -512 -512 -512 -512 -512 -512 -58.68346503129391 -512 -512 -512 -512 -512 -39.48956958953145 -512 -512 -512 -512 -512 -512 -512 -281.7511122049917 -512 -512 -512 -512 -505.6029919200107 -512 -512 -512 -512 -512 -512 -512 -512 -512 -512 -512 -512 -512 -512 -512 -512 -512 -512 -512 -512 -512 -512 -512 -512 -512 -512 -512 -498.5430287928668 -512 -512 -512 -512 -512 -512 -512 -512 -512 -512 -509.9729544837337 -512 -512 -512 -512 -512 -512 -512 -512 -512 -512 -17.73125468211709 -512 -512 -512 -512 -512 -512 -512 -512 -512 -512 -512 -512 -512 -512 -512 -163.7737162304114 -512 -512 -512 -512 -512 -512 -512 -512 -512 -512 -512 -512 -512 -512 -512 -512 -512 -512 -512 -512 -512 -512 -512 -512 -512 -512 -512 -512 -512 -512 -512 -512 -512 -512 -512 -512 -512 -512 -512 -512 -512 -512 -512 -512 -512 -512 -512 -512 -512 -512 -512 -512 -512 -512 -512 -512 -512 -512 -512 -512 -512 -512 -148.7300542345281 -512 -512 -512 -512 -512 -512 -512 -512 -512 -512 -512 -512 -512 -512 -512 -512 -512 -512 -512 -512 -512 -512 -512 -512 -512 -512 -512 -156.3792346987279 -512 -512 -440.4655398801845 -512 -512 -512 -512 -512 -512 -512 -512 -219.6859279569688 -512 -512 -512 -512 -512 -512 -512 -512 -512 -512 -512 -512 -512 -512 -512 -512 -512 -512 -512 -512 -512 -512 -512 -512 -512 -512 -512 -512 -512 -512 -512 -512 -512 -512 -512 -512 -512 -111.8905097138047 -512 -512 -512 -512 -512 -512 -512 -512 -512 -512 -512 -512 -512 -512 -512 -102.9864915687051 -512 -512 -512 -512 -512 -512 -512 -512 -512 -512 -512 -512 512 106.7276378670085 512 512 40.02089045784377 512 512 512 512 72.09744599685003 512 -512 -512 -512 -512 -512 -512 -512 -512 -512 -512 -512 -512 -512 -512 -512 -512 -512 -512 -512 -512 -512 -512 -512 -512 -512 -512 -512 -512 -512 -512 -512 -512 512 512 512 512 512 10.0953376003384 512 253.5888144061844 512 512 512 512 512 512 512 512 512 512 512 512 512 512 512 512 512 512 512 512 512 512 512 512 512 512 512 512 109.965035267743 512 512 359.0363098855424 512 354.2237448872038 512 512 512 512 436.6832133274473 512 512 512 512 512 512 512 512 512 512 512 512 512 512 512 512 287.0271681369348 512 512 512 512 512 512 512 512 512 512 512 512 512 512 512 512 512 512 512 512 512 481.2519122441163 512 512 512 512 512 512 512 512 512 512 512 512 512 512 512 512 512 512 512 512 512 512 118.6876729636195 512 512 512 512 512 512 512 512 512 512 512 512 512 512 512 512 512 512 512 512 512 512 512 512 512 512 512 512 512 512 512 512 512 512 512 512 512 512 512 512 512 512 512 512 512 512 512 512 141.647676000532 512 512 512 512 512 512 512 512 512 512 512 512 512 512 512 512 512 512 512 512 512 512 512 512 512 512 512 512 381.9698741439078 77.86766139074328 42.37483556565016 512 512 512 512 512 512 512 512 512 512 512 512 512 512 512 512 512 512 512 512 512 512 512 512 512 512 512 512 512 512 512 512 512 512 512 512 512 512 88.13668680940833 512 512 512 34.0194670108851 512 512 512 512 512 512 512 512 512 512 512 512 512 512 512 512 512 512 512 512 512 512 512 512 512 512 512 512 512 512 512 512 512 512 512 512 512 512 512 512 512 512 512 512 512 358.0154573144418 512 512 512 512 512 512 512 512 512 70.88089141404102 512 512 512 512 512 512 512 512 512 512 512 512 512 512 512 471.5520233643825 512 512 512 512 512 512 512 512 512 512 512 512 512 512 512 512 512 512 512 512 512 512 512 512 512 512 512 512 512 512 512 512 512 512 512 512 512 512 512 512 512 512 512 512 512 512 512 512 208.2728024730327 512 512 512 512 512 512 512 512 321.8457941179683 512 512 512 512 512 512 512 512 512 512 512 512 512 512 512 512 512 512 512 512 512 512 512 512 512 512 512 512 512 512 512 512 512 512 512 512 512 512 512 512 512 165.2461384881782 512 512 512 512 512 512 512 512 512 512 512 512 512 512 512 512 512 512 512 512 512 512 512 512 512 512 512 512 46.09156861328709 512 512 512 512 512 395.9914002931488 512 512 512 65.466485734632 512 512 512 512 -512 -512 -512 -512 -512 -512 -512 -261.8143563612524 -352.4420777968837 -512 -512 -512 -512 -512 -512 -512 -512 -512 -512 -512 -512 -512 -512 -512 -512 -512 -512 -512 -512 -512 -512 -512 -512 -512 -512 -512 -512 -512 -512 -512 -512 -512 -512 -512 -512 -512 -512 -512 -512 -512 -449.6209897136371 -512 -512 -512 -512 -512 -512 -512 -512 -168.9581110508022 -512 -512 -512 -512 -512 -512 -512 -512 -512 -512 -512 -512 -512 -512 -512 -512 -512 -512 -512 -73.48018276575705 -512 -512 -512 -512 -512 -512 -512 -512 -512 -512 -512 -512 -512 -512 -512 -512 -512 -512 -512 512 512 512 512 512 512 512 512 512 512 512 512 512 205.2164440768058 
1856 1864 1872 1885 1901 1955 1994 2005 2017 2027 2028 2029 2037 2042 2046 2059 2091 2102 2115 2119 2129 2143 2166 2213 2238 2242 2250 2262 2270 2278 2303 2318 2319 2326 2341 2385 2386 2390 2391 2393 2394 2395 2396 2397 2398 2401 2403 2404 2405 2407 2408 2409 2411 2412 2413 2414 2419 2420 2421 2422 2423 2424 2426 2427 2428 2429 2430 2432 2433 2434 2435 2436 2438 2439 2440 2441 2443 2445 2446 2447 2449 2450 2451 2452 2453 2454 2455 2456 2458 2460 2461 2462 2463 2464 2465 2466 2467 2468 2469 2470 2472 2473 2474 2475 2476 2477 2510 2512 2513 2514 2515 2516 2517 2518 2519 2520 2521 2522 2523 2524 2525 2526 2527 2529 2530 2532 2534 2537 2538 2543 2545 2546 2550 2552 2553 2555 2556 2557 2558 2559 2561 2564 2565 2566 2567 2568 2569 2570 2571 2574 2575 2576 2578 2581 2582 2583 2585 2586 2589 2590 2591 2593 2595 2596 2597 2598 2599 2600 2602 2606 2608 2609 2610 2611 2612 2614 2617 2619 2621 2625 2627 2628 2629 2630 2631 2632 2635 3390 3391 3392 3393 3394 3395 3396 3397 3398 3399 3400 3401 3402 3403 3404 3407 3408 3411 3412 3413 3414 3415 3416 3417 3418 3419 3420 3421 3422 3423 3424 3425 3427 3428 3429 3430 3431 4139 4140 4141 4142 4143 4170 4172 4173 
-29.5539780146389 -483.1025274399054 -512 -420.5899356759344 -512 -512 -512 -15.01570572626172 -512 -512 -512 -512 -512 -269.7519003321656 -317.3900769340523 -45.2856285770665 -512 -512 -512 -467.7325916965214 -426.8432920994894 -512 -70.39388517156473 -512 -512 -414.7081745921067 -512 -512 -512 -226.8370344905217 -343.4974173323787 -331.5179606989155 -512 -194.4445764051267 -106.5787702534483 512 512 67.44197252425954 512 512 512 512 512 512 512 512 265.8352915728078 512 99.77670682932087 512 7.949304028428618 512 512 512 512 512 208.1901977068514 512 512 512 512 512 512 512 512 512 512 512 512 512 512 512 512 512 512 512 512 512 512 512 512 512 512 278.9275902816854 64.86803568203997 512 512 512 105.1202304680003 512 512 512 512 512 512 512 135.6558215763064 512 512 512 61.01129985443898 512 512 512 512 512 -512 -512 -512 -512 -512 -15.79925981341217 -512 -110.7070086398406 -512 -512 -512 -512 -445.6812266304705 -512 -512 -512 -508.9574377514432 -341.8354270620346 -512 -512 -53.24595732933073 -512 -512 -291.6155147497538 -512 -83.50997619372426 -372.1109993873308 -512 -512 -512 -512 -512 -512 -512 -99.1729570604337 -274.0204471349095 -512 -512 -512 -512 -512 -512 -512 -512 -512 -512 -143.0973263038536 -512 -431.0483888590633 -188.7411815773225 -512 -512 -512 -512 -512 -512 -512 -290.0879618769169 -512 -512 -151.3394891740609 -512 -512 -512 -512 -416.9791930752206 -512 -512 -408.9098296866302 -512 -512 -512 -512 -512 -512 -512 -512 -358.3257121280803 -512 -353.938030866907 -512 512 382.0816159239396 107.3666098953753 189.6150759641513 512 512 512 512 71.86363203245486 512 512 512 512 512 512 512 512 512 512 512 512 512 512 512 512 512 512 512 512 512 512 512 512 295.3886348251777 512 512 512 240.6023018471842 315.6422110754754 512 512 229.1106363473718 -512 -280.0803876944232 -512 
0 1 2 3 4 5 6 7 8 9 10 11 12 13 14 15 16 17 18 19 20 21 22 23 24 25 26 27 28 29 30 31 32 33 34 35 36 37 38 39 40 41 42 43 44 45 46 47 48 49 50 51 52 53 54 55 56 57 58 59 60 61 62 63 64 65 66 67 68 69 70 71 72 73 74 75 76 77 78 79 80 81 82 83 84 85 86 87 88 89 90 91 92 93 94 95 96 97 98 99 101 102 105 106 108 109 111 112 114 119 121 126 133 136 140 141 143 144 145 147 151 158 180 183 190 191 193 194 195 197 198 199 200 216 217 218 219 221 222 232 238 239 240 241 250 251 269 270 271 272 273 274 275 276 281 285 289 290 291 293 294 295 306 310 312 315 318 324 327 328 329 331 336 337 338 342 349 353 354 355 356 357 358 359 364 367 368 370 371 372 373 385 392 393 397 399 403 404 412 413 415 416 418 419 426 427 430 432 433 434 438 439 447 449 450 452 453 454 459 460 462 466 467 468 471 482 488 2411 2412 2413 2414 2418 2420 2421 2422 2423 2424 2425 2426 2427 2428 2429 2430 2431 2432 2434 2435 2436 2437 2438 2439 2440 2441 2442 2443 2445 2446 2447 2448 2449 2450 2451 2452 2453 2454 2455 2456 2458 2460 2461 2462 2463 2464 2465 2466 2468 2469 2470 2472 2473 2474 2475 2476 2477 2636 2637 2638 2640 2641 2642 2645 2647 2648 2649 2651 2652 2653 2654 2655 2656 2657 2659 2660 2662 2664 2667 2668 2669 2670 2671 2672 2673 2674 2676 2677 2679 2680 2681 2682 2683 2684 2685 2686 2687 2691 2692 2693 2694 2695 2696 2699 2701 2703 2704 2705 2706 2707 2708 2710 2712 2714 2715 2716 2719 2725 2726 2727 2728 2737 2745 2750 2751 2752 2753 2754 2755 2772 2773 2785 2787 2812 2817 2819 2823 2824 2825 2826 2827 2828 2829 2831 2832 2837 2840 2843 2845 2848 2849 2852 2856 2857 2858 2861 2862 2863 2864 2867 2868 2869 2870 2873 2875 2876 2877 2878 2879 2880 2883 2884 2885 2886 2887 2888 2889 2890 2891 2892 2893 2896 2897 2898 2899 2902 2912 2916 2917 2930 2932 2944 2946 2949 2954 2955 2960 2963 2971 2975 2976 2977 2978 2979 2980 2983 2984 2985 2986 2987 2988 2991 2994 2995 2996 2997 2998 2999 3001 3002 3003 3004 3005 3006 3007 3008 3009 3010 3011 3012 3016 3018 3019 3028 3029 3030 3037 3040 3041 3042 3056 3057 3062 3067 3068 3069 3071 3072 3073 3074 3075 3076 3080 3081 3085 3087 3088 3091 3092 3093 3094 3096 3099 3102 3103 3105 3109 3110 3112 3117 3120 3390 3391 3392 3394 3395 3396 3397 3398 3399 3400 3401 3402 3403 3404 3405 3407 3408 3409 3411 3412 3413 3414 3415 3416 3417 3418 3419 3420 3421 3422 3423 3424 3425 3427 3428 3429 3430 3431 3432 3433 3436 3437 3438 3440 3441 3442 3444 3445 3446 3447 3448 3449 3450 3451 3452 3453 3454 3455 3457 3459 3461 3462 3463 3465 3466 3468 3469 3470 3472 3473 3474 3475 3476 3477 3478 3479 3482 3483 3484 3486 3487 3488 3489 3490 3491 3492 3493 3496 3497 3499 3500 3501 3503 3507 3508 3509 3510 3511 3514 3515 3518 3519 3523 3524 3525 3526 3528 3529 3530 3532 3533 3534 3535 3537 3538 3540 3542 3543 3545 3546 3548 3549 3550 3551 3552 3554 3555 3557 3561 3563 3569 3572 3575 3578 3579 3580 3582 3583 3585 3587 3590 3591 3593 3594 3597 3598 3599 3600 3601 3602 3603 3604 3606 3607 3608 3611 3613 3616 3618 3619 3620 3621 3622 3623 3631 3635 3636 3637 3638 3639 3641 3642 3643 3644 3647 3648 3649 3651 3652 3653 3654 3655 3656 3658 3659 3660 3666 3667 3670 3671 3687 3688 3692 3693 3695 3702 3703 3705 3706 3707 3708 3709 3711 3718 3722 3726 3727 3728 3731 3734 3735 3741 3742 3743 3746 3748 3749 3750 3751 3752 3753 3754 3755 3756 3757 3758 3759 3760 3761 3765 3766 3767 3768 3769 3770 3771 3772 3773 3774 3775 3776 3781 3782 3783 3784 3785 3786 3787 3788 3789 3790 3791 3792 3793 3794 3795 3796 3797 3798 3803 3804 3805 3806 4068 4069 4070 4071 4072 4073 4074 4075 4076 4077 4079 4148 4149 4151 4152 4154 4155 4156 4158 4159 4160 4172 4173 
512 512 512 512 512 512 512 512 512 512 512 512 512 512 512 512 512 512 512 512 512 512 512 512 512 512 512 512 512 512 512 512 512 512 512 512 512 512 512 512 512 512 512 512 512 512 512 512 512 512 512 512 512 512 512 512 512 512 512 512 512 512 512 512 512 512 512 512 512 512 512 512 512 512 512 512 512 512 512 512 512 512 512 512 512 512 512 512 512 512 512 512 199.8621717098965 512 512 512 512 512 512 512 512 512 212.5012906026293 512 512 322.147304923534 512 512 512 512 512 512 512 512 512 512 512 512 156.2116340052571 127.00369229215 512 512 512 218.3015238812603 512 512 512 512 512 512 512 512 512 512 512 512 512 512 512 512 512 512 512 512 512 512 512 512 512 512 512 512 512 512 512 277.7107689070633 512 512 512 512 512 512 412.4582666004365 512 512 512 512 512 512 512 512 512 512 512 512 512 512 512 512 512 512 512 512 512 512 512 512 512 512 512 512 512 512 512 512 512 225.3070348120425 512 512 512 243.7255673667034 512 512 512 512 512 512 512 512 512 512 512 375.4239544743909 512 512 512 512 512 141.1974622941125 512 512 512 512 512 512 512 512 512 512 512 512 512 512 512 512 512 512 512 512 512 512 512 512 512 512 512 512 512 512 512 512 512 512 512 512 512 512 512 512 512 512 512 512 179.273820008933 512 512 512 512 512 512 512 512 512 512 512 512 512 512 512 512 512 512 512 512 -512 -512 -512 -512 -76.05868247508428 -512 -512 -512 -512 -512 -512 -512 -512 -512 -512 -512 -512 -512 -512 -512 -512 -34.38401833969044 -512 -512 -512 -512 -512 -512 -512 -512 -421.2534426800054 -512 -512 -512 -512 -512 -512 -512 -512 -512 -512 -512 -512 -512 -512 -512 -164.5096807877997 -512 -512 -512 -512 -512 -263.4452399039704 -512 -512 -512 -512 -512 -512 -471.6232776595222 -512 -512 -512 -512 -512 -512 -51.56419650669235 -1.962686482190881 -512 -512 -512 -512 -512 -291.1813395250758 -512 -512 -512 -512 -512 -512 -512 -512 -512 -512 -512 -512 -512 -512 -512 -512 -512 -512 -412.8574761367215 -512 -512 -512 -512 -512 -512 -512 -512 -512 -512 -512 -512 -512 -512 -512 -512 -512 -512 -150.6455485634497 -512 -512 -512 -512 -512 -512 -512 -512 -512 -512 -512 -443.8005617621475 -512 -512 -512 -512 -512 -512 -512 -512 -358.7726858934975 -512 -512 -512 -512 -512 -512 -512 -512 -512 -512 -512 -512 -259.7373343762488 -512 -512 -505.8033546479293 -512 -512 -512 -512 -512 -512 -512 -512 -512 -512 -512 -512 -107.633647837552 -512 -27.155422855393 -512 -512 -512 -512 -512 -512 -512 -512 -512 -512 -512 -512 -165.93337981847 -512 -512 -324.4182532485525 -512 -512 -379.1385608951111 -140.1788663940297 -235.3467426732638 -512 -512 -512 -512 -512 -512 -512 -512 -512 -375.9205935681321 -512 -512 -512 -512 -4.668300496096327 -512 -228.6746589191937 -512 -512 -512 -512 -401.4683940426494 -265.2099735972855 -512 -512 -512 -512 -512 -512 512 188.5786067967652 94.75281465580314 512 512 512 512 512 512 512 512 512 512 512 512 512 512 512 512 512 512 512 512 512 512 512 512 512 512 512 512 512 512 512 512 512 512 512 -512 -512 -512 -512 -512 -512 -512 -512 -512 -65.65765443340344 -512 -512 -512 -512 -512 -250.376164321319 -512 -512 -512 -512 -512 -512 -512 -512 -512 -512 -512 -512 -512 -512 -512 -512 -512 -512 -512 -512 -512 -512 -512 -512 -512 -512 -512 -512 -512 -512 -512 -512 -512 -512 -512 -512 -512 -512 -512 -54.63124855229224 -512 -512 -323.5961060008466 -512 -512 -512 -512 -512 -512 -512 -512 -512 -512 -512 -512 -512 -512 -511.3235063976609 -512 -423.9182345938409 -512 -512 -512 -512 -512 -512 -288.9190709058756 -512 -512 -512 -512 -512 -512 -512 -475.8871502097476 -482.0203840791799 -512 -512 -261.1943688562376 -512 -512 -512 -343.2209930165622 -512 -512 -512 -477.1991906371577 -512 -512 -512 -512 -512 -512 -512 -512 -135.646322728017 -512 -512 -512 -512 -512 -21.15878432334083 -512 -512 -512 -512 -131.4461217257322 -512 -512 -435.9723778564932 -192.0611674539056 512 512 512 512 512 512 512 512 293.9824555908669 512 512 512 512 20.82540345185563 512 512 512 512 512 512 512 512 512 512 512 512 512 512 512 512 512 512 512 512 512 512 512 512 512 512 512 512 512 512 512 512 512 512 255.2194086114096 512 512 512 -512 -512 -8.34554412036657 -512 -512 -512 -512 -512 -512 -512 -512 -512 -512 -512 -512 -512 -512 -512 -512 -512 -512 -512 -512 -512 -512 -512 -512 -512 -512 -512 -512 -512 -512 -512 -512 -512 -512 -512 -512 -512 -512 -512 -512 -512 -512 -512 512 512 512 334.1930157775179 512 512 512 512 13.84766913914215 512 512 -512 -34.89121311061781 -512 -512 -512 -512 -512 -512 -512 512 -491.7119424933909 -512 
0 1 2 3 4 5 6 7 8 9 10 11 12 13 14 16 17 18 19 21 22 23 24 25 26 27 28 29 31 32 33 34 35 36 38 39 40 41 42 43 44 45 46 47 48 49 50 52 54 56 58 59 61 62 63 64 65 66 68 69 70 71 72 73 74 76 77 78 79 80 82 83 84 85 86 87 88 89 91 93 94 95 96 97 98 99 100 101 102 494 501 503 505 506 507 512 513 515 519 520 521 523 525 526 527 529 531 532 533 536 542 544 546 548 555 558 560 563 564 566 569 571 572 573 574 576 580 584 586 587 590 592 593 594 598 608 609 610 611 612 638 645 646 647 648 649 650 651 661 663 674 678 685 690 693 694 696 699 715 716 717 718 721 729 731 741 743 745 753 754 759 760 761 763 764 769 774 783 784 785 793 797 800 802 805 809 811 813 814 816 818 820 821 828 829 832 842 848 850 854 855 858 859 860 861 869 871 878 884 888 890 892 900 902 917 925 930 931 940 946 947 948 949 950 958 959 963 969 971 973 977 981 982 983 988 990 991 997 1002 1003 1004 1006 1007 1013 1014 1015 1016 1017 1025 1026 1032 1034 1043 1047 1049 1051 1058 1068 1069 1076 1078 1084 1098 1099 1100 1101 1104 1111 1115 1116 1118 1122 1126 1130 1134 1138 1139 1140 1141 1142 1144 1145 1147 1148 1153 1154 1155 1162 1163 1165 1166 1168 1169 1175 1180 1821 1824 1826 1830 1832 1837 1839 1843 1846 1847 1848 1850 1853 1856 1864 1868 1870 1871 1872 1873 1879 1892 1894 1899 1901 1905 1906 1908 1929 1936 1940 1953 1955 1963 1973 1994 2017 2027 2028 2029 2033 2035 2037 2042 2055 2067 2080 2083 2085 2089 2091 2094 2098 2102 2115 2117 2119 2125 2129 2143 2144 2145 2163 2166 2181 2189 2196 2213 2214 2216 2222 2238 2242 2245 2247 2248 2250 2262 2270 2275 2298 2301 2302 2303 2318 2326 2330 2340 2341 2343 2348 2353 2367 2385 2386 2389 2391 2393 2394 2395 2396 2397 2398 2401 2403 2404 2407 2409 2411 2412 2413 2414 2416 2420 2421 2423 2424 2426 2427 2429 2430 2431 2432 2433 2434 2435 2436 2438 2439 2440 2441 2443 2445 2446 2447 2449 2450 2451 2454 2455 2456 2458 2460 2461 2462 2463 2464 2465 2466 2467 2468 2469 2470 2473 2474 2476 2477 2510 2511 2512 2513 2514 2515 2516 2517 2518 2519 2520 2521 2522 2523 2524 2525 2526 2527 2529 2530 2532 2534 2535 2537 2538 2540 2541 2542 2543 2544 2545 2546 2548 2549 2550 2551 2552 2553 2554 2555 2556 2557 2558 2559 2561 2563 2564 2565 2566 2567 2568 2569 2570 2571 2572 2573 2574 2575 2576 2577 2578 2579 2580 2581 2582 2583 2584 2585 2586 2587 2589 2590 2591 2592 2593 2594 2596 2597 2598 2599 2600 2601 2602 2603 2604 2606 2607 2608 2609 2610 2611 2612 2613 2614 2615 2616 2617 2619 2621 2622 2623 2624 2625 2626 2627 2628 2629 2630 2631 2632 2633 2634 2635 3123 3124 3125 3126 3127 3129 3130 3131 3132 3133 3134 3136 3137 3138 3139 3140 3141 3142 3143 3144 3145 3146 3147 3148 3149 3150 3151 3152 3153 3154 3155 3156 3157 3158 3159 3160 3161 3162 3163 3164 3166 3167 3168 3169 3170 3171 3172 3173 3174 3175 3176 3177 3178 3179 3180 3181 3182 3183 3184 3185 3186 3187 3188 3189 3190 3191 3192 3193 3195 3196 3197 3198 3199 3200 3201 3203 3204 3206 3207 3208 3209 3210 3211 3212 3213 3214 3215 3216 3217 3218 3219 3220 3221 3222 3223 3224 3226 3227 3228 3229 3230 3231 3232 3233 3234 3235 3236 3237 3238 3239 3240 3241 3244 3246 3247 3248 3249 3250 3251 3252 3253 3254 3255 3256 3258 3259 3260 3262 3263 3264 3265 3267 3268 3269 3270 3271 3272 3273 3274 3275 3276 3277 3278 3279 3280 3281 3282 3283 3284 3285 3286 3287 3288 3289 3290 3291 3292 3293 3294 3295 3296 3297 3298 3299 3301 3302 3303 3305 3306 3307 3308 3309 3310 3311 3312 3313 3314 3315 3316 3317 3319 3321 3322 3323 3324 3325 3326 3327 3328 3329 3330 3331 3332 3333 3334 3335 3336 3337 3338 3339 3340 3341 3342 3343 3344 3345 3346 3347 3348 3349 3350 3351 3352 3353 3354 3355 3356 3357 3358 3359 3360 3361 3362 3363 3365 3366 3369 3370 3371 3372 3373 3374 3375 3377 3378 3379 3380 3381 3382 3383 3385 3386 3387 3388 3389 4138 4139 4140 4141 4142 4143 4148 4151 4152 4155 4158 4159 4160 4161 4163 4164 4165 4166 4168 4169 4171 4173 4174 4175 4176 
-512 -512 -512 -512 -512 -512 -512 -512 -512 -512 -512 -512 -512 -512 -512 -512 -512 -512 -512 -512 -512 -512 -512 -512 -512 -512 -512 -512 -512 -512 -512 -512 -512 -512 -512 -512 -512 -512 -474.0027797767951 -512 -512 -512 -512 -512 -512 -512 -512 -512 -293.6476771317861 -512 -512 -512 -512 -512 -512 -512 -512 -512 -512 -453.691062581826 -512 -512 -512 -512 -204.4722793576987 -512 -512 -512 -512 -512 -512 -512 -512 -512 -512 -512 -512 -512 -512 -512 -512 -512 -512 -512 -512 -512 -512 -512 -512 512 512 512 512 512 512 83.91234954032583 512 512 512 512 391.6313572701409 512 512 512 512 512 512 512 512 512 512 512 512 105.7270156042661 512 512 512 512 512 512 268.0932639849609 512 512 512 512 512 512 512 512 512 512 512 512 512 512 512 512 512 11.81190329641505 512 512 512 512 512 512 512 512 446.6077099845868 512 512 512 512 512 512 512 512 512 512 512 512 512 512 512 512 512 512 512 512 512 512 512 512 512 512 512 512 512 512 512 226.475233456736 207.3301298001666 512 113.8335628530828 512 512 512 512 512 512 512 512 512 512 351.828076552604 512 512 512 512 512 512 512 512 512 512 512 129.0542572325812 120.1105797753718 512 71.295987866391 241.1089167567132 512 512 512 512 512 220.8509862010022 512 512 512 512 512 512 512 503.0961805723052 512 512 512 512 512 512 512 512 84.20285976081792 512 512 87.90316753145717 512 209.3525148495216 512 512 512 512 512 512 512 512 512 512 276.9833917950505 512 512 512 512 512 512 512 512 512 512 512 129.3393143577624 512 512 512 512 512 512 512 512 512 512 512 512 512 512 512 512 512 445.5499938410521 119.9212979187677 50.69044878704739 512 512 512 512 512 512 512 512 512 512 512 512 512 512 512 512 512 512 512 512 158.3883688765719 341.6195029415415 51.72776349936747 512 122.4470935281004 512 512 512 512 512 512 512 512 318.4885346052208 345.628867554889 512 512 512 512 512 512 512 512 512 512 512 512 129.6556169616049 512 512 512 512 512 512 512 512 512 442.4283327585994 512 512 9.673214236850075 512 512 33.71793914627135 512 512 260.3281477048004 512 512 512 512 512 511.604469519099 512 512 512 276.9554956389045 59.91890839725511 512 366.5681547921361 255.0989040199982 512 512 512 216.0658677592725 512 512 512 512 512 512 512 512 512 512 512 512 512 512 512 512 512 512 512 248.6570277081134 512 512 -512 -512 -367.2562919572516 -512 -512 -512 -512 -512 -512 -512 -512 -512 -512 -512 -512 -512 -512 -512 -512 -144.7893868067079 -512 -512 -512 -512 -512 -512 -230.9612236797821 -512 -7.040929853594256 -512 -512 -512 -512 -512 -512 -512 -512 -512 -512 -512 -512 -512 -512 -512 -512 -512 -512 -512 -4.803169690544689 -512 -512 -512 -512 -512 -512 -253.7387026949367 -512 -512 -512 -512 -512 -512 -512 -512 512 512 512 512 512 512 479.4670493749026 512 512 512 512 512 512 512 512 512 512 512 512 512 512 512 512 512 512 512 512 512 512 466.2402356673672 512 512 512 141.9467097885873 512 512 512 512 512 512 512 512 512 512 298.9143286989358 512 512 512 512 512 512 512 512 512 512 512 512 512 512 512 512 512 512 512 512 512 512 512 512 146.170710893791 512 512 512 512 512 512 512 512 512 512 512 512 512 512 512 512 512 512 512 512 512 512 512 512 512 512 512 512 512 512 512 328.1683289127617 512 512 512 512 512 512 512 512 512 512 512 -512 -512 -512 -512 -32.12983600103992 -512 -512 -512 -512 -512 -512 -512 -512 -512 -512 -512 -512 -512 -512 -512 -512 -512 -512 -512 -512 -512 -512 -512 -512 -512 -512 -512 -512 -512 -512 -512 -512 -512 -512 -512 -512 -512 -512 -512 -512 -512 -512 -512 -512 -512 -512 -512 -512 -512 -512 -512 -512 -512 -512 -512 -512 -512 -512 -512 -512 -512 -512 -512 -512 -512 -512 -512 -512 -512 -512 -512 -512 -512 -512 -512 -512 -512 -512 -512 -512 -512 -512 -512 -512 -512 -512 -512 -167.3860704631086 -512 -512 -512 -512 -512 -512 -512 -512 -512 -512 -512 -512 -512 -512 -512 -512 -512 -512 -512 -12.9526222328171 -142.1739005666938 -512 -512 -512 -512 -512 -512 -512 -512 -512 -512 -512 -512 -512 -512 -512 -512 -512 -512 -512 -512 -512 -512 -512 -512 -512 -512 -512 -512 -512 -512 -512 -512 -512 -512 -512 -512 -512 -512 -512 -512 -512 -512 -512 -512 -512 -512 -512 -512 -512 -360.3266411674994 -512 -512 -15.70796752179942 -512 -512 -512 -512 -512 -512 -512 -512 -447.7314659410709 -512 -512 -512 -181.24506200801 -431.0114153619197 -512 -512 -457.7482215727889 -512 -512 -512 -512 -512 -512 -512 -512 -512 -512 -512 -512 -512 -512 -512 -512 -512 -512 -512 -512 -512 -512 -512 -512 -512 -512 -512 -512 -512 -512 -512 -512 -512 -512 -332.507068915522 -512 -512 -512 -512 -512 -512 -512 -512 -205.1819515217761 -512 -512 -512 -512 -512 -512 -512 -512 -512 -512 -512 -512 -512 -512 -512 -512 -512 512 512 512 512 512 512 -512 -512 -454.3044389969698 -137.0351718408307 -512 -512 512 -512 -226.0262720523203 -512 -512 -512 -512 -31.24398296734605 512 512 512 282.5255200883408 512 
0 1 2 3 4 5 6 7 8 9 10 11 12 13 14 15 16 17 18 19 20 21 22 23 24 25 26 27 28 29 30 31 32 33 35 36 37 38 39 40 41 42 43 44 45 46 47 48 49 50 51 52 53 54 55 56 57 58 59 60 61 62 63 64 65 66 67 68 69 70 71 72 73 74 75 76 77 78 79 80 81 82 83 84 85 86 87 88 89 90 91 92 93 94 95 96 97 98 99 100 101 102 105 106 108 111 112 114 121 125 126 131 133 136 144 145 151 154 158 179 180 183 190 191 193 194 195 197 198 199 211 216 217 218 219 221 222 232 238 239 240 250 251 269 270 271 272 273 274 275 276 279 281 285 289 290 291 293 294 306 310 312 315 318 324 326 328 329 331 337 338 342 349 353 355 356 357 358 359 370 371 372 373 385 392 393 399 404 412 413 415 416 418 419 426 427 430 432 433 434 438 447 449 450 452 454 459 460 462 466 467 468 471 474 476 482 488 2394 2396 2399 2400 2409 2511 2514 2515 2516 2518 2519 2523 2524 2527 2528 2531 2532 2533 2534 2535 2536 2538 2539 2541 2542 2545 2546 2547 2548 2549 2550 2567 2570 2573 2576 2577 2580 2584 2588 2599 2602 2605 2606 2608 2613 2615 2618 2620 2622 2630 2631 2633 3124 3125 3127 3128 3132 3139 3141 3142 3143 3144 3145 3146 3147 3149 3150 3151 3154 3156 3157 3159 3160 3163 3164 3165 3166 3168 3169 3170 3171 3173 3174 3177 3178 3181 3183 3185 3186 3187 3188 3193 3195 3197 3198 3211 3212 3213 3214 3218 3222 3226 3227 3232 3243 3245 3252 3257 3258 3259 3261 3263 3264 3265 3269 3270 3274 3275 3277 3278 3280 3283 3284 3285 3286 3287 3288 3289 3291 3292 3293 3295 3299 3306 3309 3310 3312 3319 3321 3324 3326 3328 3330 3335 3336 3338 3339 3341 3342 3343 3344 3345 3346 3349 3350 3352 3360 3370 3373 3375 3376 3378 3379 3380 3381 3383 3385 3386 3432 3435 3444 3448 3449 3451 3452 3455 3457 3461 3462 3463 3470 3472 3474 3475 3476 3478 3481 3482 3483 3489 3490 3491 3493 3499 3501 3503 3506 3508 3510 3514 3515 3518 3519 3524 3528 3530 3535 3540 3542 3543 3545 3546 3548 3551 3552 3554 3560 3572 3575 3576 3582 3583 3585 3586 3593 3596 3597 3598 3599 3600 3603 3604 3606 3607 3616 3621 3622 3630 3631 4066 4067 4070 4073 4138 4139 4140 4161 4162 4163 4164 4165 4166 4167 4168 4169 4170 4173 
512 512 512 512 512 512 512 512 512 512 512 512 512 512 512 512 512 512 512 512 512 512 512 512 512 512 512 512 512 512 512 512 512 512 512 512 512 512 512 512 512 512 512 512 512 512 512 512 512 512 512 512 512 512 512 512 512 512 512 512 512 512 512 512 512 512 512 512 512 512 512 512 512 512 512 512 512 512 512 512 512 512 512 512 512 512 512 512 512 512 512 212.0402591115864 512 512 512 512 512 512 512 79.51921571406642 512 512 512 512 512 512 512 512 512 512 512 217.9550550096507 21.05476091185042 512 512 226.06060162047 512 299.2174467851617 512 512 512 512 512 512 512 512 512 512 512 512 512 512 512 512 512 512 512 124.3599241631428 512 287.4517476938308 512 512 512 512 387.2347701729075 512 512 62.76952124381816 512 512 512 26.04426423572304 512 48.70240072716648 512 512 198.2095844383997 512 512 512 512 512 512 512 512 512 512 512 512 376.1748071955731 512 512 512 512 512 512 512 512 512 512 440.9475665860853 512 512 512 512 512 512 512 512 512 185.7710129173722 512 512 512 512 512 512 512 512 512 512 512 512 512 487.6804832414037 512 512 512 512 512 512 512 512 512 409.4733706456967 512 512 -512 -411.869066192966 -512 -55.95697828332802 -512 -512 -512 -512 -86.54359614020089 -130.2623187478631 -512 -512 -512 -512 -512 -512 -173.0388529631161 -512 -512 -102.6457304837744 -512 -512 -512 -512 -512 -512 -512 -512 -512 -512 -161.8044608421267 -512 -512 -481.1067565485777 -450.7856526317682 -92.02854604471513 -512 -512 -512 -423.4586854266912 -128.2206840974543 -512 -512 -412.5023451950937 -84.91386348330633 -512 -512 -512 -512 -396.224835186886 -512 -512 -512 -273.906956582471 -126.9351258575263 -147.1827786664056 -512 -512 -512 -512 -512 -512 -465.5828364213943 -512 -512 -134.533004100161 -512 -512 -512 -512 -512 -512 -512 -493.2786475003942 -512 -512 -512 -512 -512 -512 -512 -512 -512 -512 -512 -512 -512 -512 -512 -512 -512 -512 -512 -512 -512 -37.26108768377308 -512 -512 -512 -254.0732457510551 -50.63929310507215 -512 -512 -56.89496878379023 -107.2388930386142 -47.47756824240502 -512 -512 -512 -512 -186.1622746964124 -512 -512 -512 -512 -512 -512 -512 -512 -512 -512 -512 -512 -512 -512 -512 -512 -144.9279721957131 -512 -512 -512 -512 -389.3448735617229 -512 -173.5818229019726 -134.9085277420207 -495.9188756107034 -24.42299892864811 -512 -512 -512 -512 -512 -512 -512 -512 -512 -512 -512 -512 -30.41634800303406 -512 -512 -512 -512 -512 -512 -512 -512 -512 -512 -512 -512 -512 -512 -512 -512 -512 -260.0218359612525 -266.9100237178718 -512 -195.4389524574087 -512 -395.0836872554841 -512 -512 -512 -512 -512 -512 -512 -512 -512 -512 -512 -512 -493.7208015578889 -512 -512 -512 -512 -512 -512 -512 -512 -512 -62.64334426910523 -512 -364.9743642306983 -345.6576705527135 -512 -512 -506.4853145940432 -512 -512 -511.8687022286808 -512 -512 -512 -512 -512 -252.7832749984912 -512 -512 -512 -512 -495.2360832631109 -512 -49.44326813448285 -376.1165745615455 -512 -512 -512 -223.4540402523399 -512 -512 -512 -512 -512 -512 -512 -207.4069754278594 -512 -512 -512 -512 -512 -136.2378526763998 -87.76915451446389 -512 -512 -68.50493295355385 -512 -512 -240.7342172282849 -348.6636892596539 512 512 512 512 512 512 220.5374344793267 512 512 512 -271.9989951567426 
103 107 108 109 110 111 112 113 114 121 122 125 126 133 136 139 144 145 151 152 153 158 166 167 175 176 177 178 179 180 181 182 183 184 185 186 187 188 190 191 192 193 194 195 196 197 198 199 204 205 207 209 210 211 213 215 216 217 219 221 222 232 234 236 237 238 239 240 241 246 247 248 249 250 251 261 263 264 265 266 267 268 269 270 271 272 273 274 275 276 279 281 285 286 289 290 291 292 293 294 302 304 306 308 310 312 313 314 315 316 318 319 320 329 330 331 332 338 339 340 342 347 348 349 351 352 354 355 357 358 359 363 364 365 366 367 368 370 372 381 383 384 385 389 390 391 392 393 395 397 399 400 402 403 404 410 413 416 418 419 425 426 427 429 430 431 432 434 439 440 441 445 446 447 449 450 451 452 454 456 458 459 460 461 462 463 466 470 474 475 477 479 481 482 485 487 488 489 494 495 496 498 499 501 503 504 505 506 508 509 510 511 512 513 514 515 518 520 521 522 524 525 526 528 530 531 532 533 535 536 537 538 539 541 542 543 544 545 546 548 549 551 552 553 554 559 560 562 563 564 565 566 568 572 573 574 575 576 577 578 579 580 581 583 584 585 586 587 588 589 590 591 592 593 594 595 596 598 599 600 601 602 603 604 605 606 607 608 609 610 611 612 613 614 615 616 617 618 619 620 621 622 623 624 625 626 627 629 631 632 633 634 635 636 637 638 640 641 642 643 644 645 646 647 648 649 650 651 652 654 655 656 657 658 659 660 661 662 663 664 665 666 667 668 669 670 671 672 673 674 675 676 677 678 679 680 681 682 683 684 685 686 687 688 689 690 691 692 693 694 695 696 697 698 699 700 701 702 703 704 706 708 714 715 716 717 718 719 720 721 722 723 724 725 727 728 729 730 731 732 733 734 735 736 737 738 739 740 741 742 743 744 745 746 747 748 749 750 751 752 753 754 755 756 757 758 759 760 761 762 763 764 765 766 767 768 769 770 771 772 774 776 777 778 779 780 781 782 783 784 785 786 787 788 789 790 791 792 793 794 795 796 797 798 799 800 801 802 803 804 805 806 807 808 809 810 811 812 813 814 815 816 817 818 819 820 821 824 825 826 827 828 829 830 831 832 833 834 835 837 839 840 841 842 845 846 847 848 849 850 851 852 853 854 855 856 857 858 860 861 862 864 865 867 869 870 871 872 873 877 878 879 882 883 886 887 888 889 890 891 892 893 894 895 896 897 898 899 900 901 902 903 904 905 906 907 908 909 912 913 914 915 916 917 918 919 921 922 923 924 925 926 927 928 929 930 931 932 933 934 936 937 938 939 940 941 942 943 944 945 946 947 948 949 950 951 954 955 956 957 958 959 960 961 962 963 964 965 966 967 968 969 970 971 972 973 974 975 976 977 978 979 980 981 982 983 984 987 988 989 990 991 992 993 994 995 996 997 998 999 1000 1001 1003 1004 1005 1006 1007 1008 1009 1010 1011 1012 1013 1014 1015 1016 1017 1018 1019 1020 1021 1022 1023 1024 1025 1026 1031 1032 1033 1034 1035 1036 1038 1039 1040 1042 1043 1044 1045 1046 1047 1048 1049 1050 1051 1052 1053 1054 1055 1056 1057 1058 1060 1061 1062 1063 1064 1065 1066 1067 1068 1069 1070 1071 1072 1073 1074 1075 1076 1077 1078 1080 1081 1082 1083 1084 1085 1086 1087 1088 1089 1090 1091 1092 1093 1094 1095 1096 1097 1098 1099 1100 1101 1104 1106 1108 1109 1110 1111 1112 1113 1114 1115 1116 1117 1118 1119 1120 1121 1122 1123 1124 1125 1126 1127 1128 1129 1130 1131 1133 1134 1135 1136 1138 1139 1140 1141 1143 1144 1145 1146 1147 1148 1150 1151 1152 1153 1154 1155 1156 1157 1158 1159 1160 1161 1162 1163 1164 1165 1166 1167 1168 1169 1170 1171 1173 1174 1175 1176 1177 1178 1179 1180 1181 1182 1817 1818 1819 1820 1821 1822 1823 1824 1825 1826 1827 1828 1829 1830 1831 1832 1833 1834 1835 1836 1837 1838 1839 1840 1841 1842 1843 1844 1845 1846 1847 1848 1849 1850 1851 1852 1853 1854 1855 1856 1857 1858 1859 1860 1861 1862 1863 1864 1865 1866 1867 1868 1869 1870 1871 1872 1873 1874 1875 1876 1877 1878 1879 1880 1881 1882 1883 1884 1885 1886 1887 1888 1889 1890 1891 1892 1893 1894 1895 1896 1897 1898 1899 1900 1901 1902 1903 1904 1905 1906 1907 1908 1909 1910 1911 1912 1913 1914 1915 1916 1917 1918 1919 1920 1921 1922 1923 1924 1925 1926 1927 1928 1929 1930 1931 1932 1933 1934 1935 1936 1937 1938 1939 1940 1941 1942 1943 1944 1945 1946 1947 1948 1949 1950 1951 1952 1953 1954 1955 1956 1957 1958 1959 1960 1961 1962 1963 1964 1965 1966 1967 1968 1969 1970 1971 1972 1973 1974 1975 1976 1977 1978 1979 1980 1981 1982 1983 1984 1985 1986 1987 1988 1989 1990 1991 1992 1993 1994 1995 1996 1997 1998 1999 2000 2001 2002 2003 2004 2005 2006 2007 2008 2009 2010 2011 2012 2013 2014 2015 2016 2017 2018 2019 2020 2021 2022 2023 2024 2025 2026 2027 2028 2029 2030 2031 2032 2033 2034 2035 2036 2037 2038 2039 2040 2041 2042 2043 2044 2045 2047 2048 2049 2050 2051 2052 2053 2054 2055 2056 2057 2058 2059 2060 2061 2062 2063 2064 2065 2066 2067 2068 2069 2070 2071 2072 2073 2074 2075 2076 2077 2078 2079 2080 2081 2082 2083 2084 2085 2086 2087 2088 2089 2090 2091 2092 2093 2094 2095 2096 2097 2098 2099 2100 2101 2102 2103 2104 2105 2106 2107 2108 2109 2110 2111 2112 2113 2114 2115 2116 2117 2118 2119 2120 2121 2122 2123 2124 2125 2126 2127 2128 2129 2130 2131 2132 2133 2134 2135 2136 2137 2138 2139 2140 2141 2142 2143 2144 2146 2147 2148 2149 2150 2151 2152 2153 2154 2155 2156 2157 2158 2159 2160 2161 2162 2163 2164 2165 2166 2167 2168 2169 2170 2171 2172 2173 2174 2175 2176 2177 2178 2179 2180 2181 2182 2183 2184 2185 2186 2187 2188 2189 2190 2191 2192 2193 2194 2195 2196 2197 2198 2199 2200 2201 2202 2203 2204 2205 2206 2207 2208 2209 2210 2211 2212 2213 2214 2215 2216 2217 2218 2219 2220 2221 2222 2223 2224 2225 2226 2227 2228 2229 2230 2231 2232 2233 2234 2235 2236 2237 2238 2239 2240 2241 2242 2243 2244 2245 2246 2247 2248 2249 2250 2251 2252 2253 2254 2255 2256 2257 2258 2259 2260 2261 2262 2263 2264 2265 2266 2267 2268 2269 2270 2271 2272 2273 2274 2275 2276 2277 2278 2279 2280 2281 2282 2283 2284 2285 2286 2287 2288 2289 2290 2291 2292 2293 2294 2295 2296 2297 2298 2299 2300 2301 2302 2303 2304 2305 2306 2307 2308 2309 2310 2311 2312 2313 2314 2315 2316 2317 2318 2319 2320 2321 2322 2323 2324 2325 2326 2327 2328 2329 2330 2331 2332 2333 2334 2335 2336 2337 2338 2339 2340 2341 2342 2343 2344 2345 2346 2347 2348 2349 2350 2351 2352 2353 2354 2355 2356 2357 2358 2359 2360 2361 2362 2363 2364 2365 2366 2367 2368 2369 2370 2371 2372 2373 2374 2375 2376 2377 2378 2379 2380 2381 2382 2383 2384 2385 2386 2388 2389 2390 2391 2393 2394 2395 2396 2397 2398 2400 2401 2403 2404 2405 2406 2407 2409 2410 2636 2637 2638 2639 2640 2641 2642 2643 2644 2645 2646 2647 2648 2649 2650 2651 2652 2653 2654 2655 2656 2657 2658 2659 2660 2661 2662 2663 2664 2665 2666 2667 2668 2669 2670 2671 2672 2673 2674 2675 2676 2677 2678 2679 2680 2681 2682 2683 2684 2685 2686 2687 2688 2689 2690 2691 2692 2693 2694 2695 2696 2697 2698 2699 2700 2701 2702 2703 2704 2705 2706 2707 2708 2709 2710 2711 2712 2713 2714 2715 2716 2717 2718 2719 2720 2721 2722 2723 2725 2726 2727 2728 2729 2730 2731 2732 2733 2734 2735 2736 2738 2740 2741 2742 2743 2744 2745 2746 2747 2749 2750 2751 2752 2753 2754 2755 2756 2757 2758 2760 2761 2762 2763 2764 2765 2767 2768 2771 2773 2774 2775 2776 2777 2778 2779 2780 2781 2782 2783 2784 2787 2788 2789 2790 2791 2792 2793 2794 2795 2796 2797 2798 2799 2800 2801 2802 2803 2805 2806 2808 2811 2812 2813 2814 2815 2816 2817 2818 2819 2823 2824 2825 2826 2827 2828 2829 2830 2831 2832 2833 2834 2835 2836 2837 2838 2839 2840 2841 2842 2843 2844 2845 2846 2847 2849 2850 2851 2852 2853 2855 2856 2857 2858 2861 2862 2863 2864 2865 2867 2868 2869 2870 2872 2873 2874 2875 2876 2877 2878 2879 2880 2881 2882 2883 2884 2885 2886 2887 2888 2889 2890 2891 2892 2893 2894 2895 2896 2897 2898 2899 2900 2901 2902 2903 2904 2905 2906 2908 2909 2911 2912 2913 2914 2915 2916 2917 2918 2919 2920 2921 2923 2924 2925 2926 2928 2929 2930 2931 2932 2933 2934 2935 2936 2937 2938 2939 2940 2941 2942 2943 2945 2946 2947 2949 2950 2951 2952 2954 2955 2956 2957 2958 2959 2960 2961 2962 2963 2964 2965 2966 2968 2969 2970 2971 2972 2973 2975 2976 2977 2978 2980 2981 2982 2983 2984 2985 2986 2987 2988 2989 2990 2991 2992 2993 2994 2995 2996 2997 2998 2999 3000 3001 3002 3004 3005 3006 3007 3008 3009 3010 3011 3012 3013 3014 3015 3016 3017 3019 3020 3021 3024 3025 3027 3028 3029 3030 3031 3032 3034 3035 3036 3037 3038 3039 3040 3041 3042 3043 3044 3045 3046 3047 3048 3049 3050 3051 3052 3053 3054 3055 3058 3059 3060 3061 3062 3063 3064 3065 3066 3067 3068 3069 3070 3071 3072 3073 3074 3075 3076 3077 3078 3079 3080 3081 3084 3086 3087 3088 3089 3091 3092 3093 3094 3095 3098 3099 3100 3101 3102 3103 3104 3105 3109 3110 3111 3112 3113 3114 3115 3120 3121 3122 3432 3433 3434 3435 3436 3437 3438 3439 3440 3441 3442 3443 3444 3445 3446 3447 3448 3450 3451 3453 3454 3455 3456 3457 3458 3459 3460 3461 3462 3464 3465 3466 3467 3468 3469 3470 3471 3472 3473 3474 3475 3476 3477 3478 3479 3480 3481 3482 3483 3486 3487 3489 3490 3491 3492 3493 3494 3497 3498 3499 3500 3501 3502 3503 3504 3505 3506 3507 3508 3509 3510 3511 3512 3513 3514 3515 3516 3517 3518 3519 3520 3521 3522 3523 3524 3525 3526 3527 3528 3529 3530 3531 3532 3533 3534 3535 3536 3537 3538 3539 3540 3541 3542 3543 3544 3545 3546 3547 3548 3549 3550 3551 3553 3554 3555 3556 3557 3560 3561 3562 3563 3564 3565 3566 3567 3568 3569 3570 3571 3572 3573 3574 3575 3576 3577 3578 3579 3580 3581 3582 3583 3584 3585 3586 3587 3588 3589 3590 3591 3592 3593 3594 3595 3596 3597 3598 3599 3600 3601 3602 3603 3604 3605 3606 3607 3608 3609 3610 3611 3612 3613 3614 3615 3616 3617 3618 3620 3621 3622 3623 3625 3626 3629 3630 3631 3632 3633 3634 3646 3665 3668 3672 3675 3717 3719 3729 3733 3745 3809 3810 3829 3835 3840 3842 3846 3857 3858 3859 3860 3861 3862 3864 3865 3867 3876 3879 3882 3883 3884 3886 3907 3908 3910 3912 3915 3916 3917 3920 3922 3924 3925 3927 3929 3930 3943 3954 3963 3969 3970 3971 3972 3974 3975 3978 3980 3987 3989 3996 3999 4000 4001 4002 4003 4005 4018 4019 4022 4034 4035 4037 4038 4048 4049 4050 4051 4056 4058 4080 4081 4082 4083 4084 4086 4088 4089 4090 4091 4092 4093 4094 4095 4096 4097 4098 4099 4100 4101 4102 4104 4105 4106 4107 4108 4109 4110 4111 4112 4113 4114 4115 4116 4117 4118 4119 4120 4122 4123 4125 4126 4127 4128 4129 4130 4131 4132 4133 4134 4135 4136 4137 4160 4161 4162 4163 4165 4166 4167 4168 4169 4172 4173 
336.7413915540986 512 512 298.7895974831098 425.5796928780201 512 512 512 512 512 512 327.1224531523675 512 512 354.8193673322405 512 512 163.7967461198741 512 512 512 512 512 512 512 512 511.0856282074897 512 512 512 512 512 512 512 512 512 512 512 512 512 512 512 512 512 297.1957715636281 512 512 512 512 512 512 512 512 512 512 512 33.03995492746454 512 512 512 512 512 512 512 512 512 512 512 512 512 512 512 512 512 512 107.9144135842467 512 512 512 512 512 512 512 512 512 512 512 512 512 512 512 512 512 176.5471567901994 512 512 512 512 512 512 399.5797626949659 512 20.07923087154324 512 512 386.3199350772325 512 512 264.2622917986897 179.5758101447821 512 512 59.11778373380382 512 512 512 512 512 512 512 512 512 512 512 512 512 512 512 512 512 512 512 512 512 185.0099850809965 512 512 512 172.1612067183447 510.1531252132079 512 512 512 512 512 512 512 512 512 512 512 512 512 512 512 512 512 512 512 512 512 512 512 512 512 512 512 512 512 512 512 512 512 512 512 512 331.3891659375495 512 512 512 317.5443779295193 512 512 512 512 512 512 512 512 512 512 442.8469217594742 512 512 512 512 31.30418739046808 512 512 512 512 512 512 512 512 512 512 512 174.761747665927 512 512 512 512 512 512 512 512 512 128.7941201530033 512 512 512 512 512 512 512 512 512 512 512 512 512 512 512 512 512 512 512 512 512 512 512 512 512 512 512 512 512 512 512 508.2704883138135 512 512 512 512 512 512 512 512 512 512 512 512 512 512 512 512 512 512 512 512 512 512 512 512 512 512 512 512 512 512 512 512 512 512 512 512 512 512 512 512 512 512 512 512 512 512 512 422.6986285064528 512 512 512 512 512 512 512 512 512 512 512 512 512 512 512 512 512 512 512 512 512 512 512 512 512 512 512 512 512 512 512 512 512 512 512 512 512 512 512 512 512 512 512 512 512 512 512 512 512 512 512 512 512 512 512 512 512 512 512 512 512 512 512 512 512 512 512 512 512 512 512 512 512 512 512 512 512 512 512 512 512 512 512 512 512 512 512 512 512 512 512 512 512 512 512 512 512 512 512 512 512 512 512 512 512 512 512 512 512 512 512 512 512 512 512 512 512 512 512 512 22.03441255241424 512 512 512 512 512 512 512 512 512 512 512 512 512 512 512 512 512 512 512 512 512 84.01784551399165 492.1536765038237 512 512 512 512 512 512 512 512 512 512 512 512 512 512 512 512 512 512 512 512 512 512 512 512 512 512 512 512 512 512 512 512 19.22991614077542 512 500.7566813593308 512 512 512 512 512 512 512 512 512 512 512 512 512 512 512 512 512 512 512 512 512 512 512 512 512 512 512 512 512 512 512 512 512 512 512 512 512 512 512 512 512 512 512 512 459.065197125904 512 512 512 512 512 512 236.0957557105542 512 512 373.4809658610786 512 512 512 512 512 512 512 512 512 512 512 512 512 512 512 512 512 512 512 512 512 512 512 512 512 512 512 512 512 512 512 512 164.5139405023242 512 512 512 512 512 512 512 512 512 512 512 512 512 512 512 512 512 512 512 512 512 512 512 512 512 512 512 512 512 512 512 512 512 512 512 512 512 512 512 512 512 512 512 512 512 512 512 512 512 512 512 512 512 512 512 512 512 512 512 512 512 512 512 512 512 512 512 512 512 512 512 512 512 512 512 512 512 512 512 512 512 512 512 512 512 512 512 512 512 512 512 512 512 512 512 512 512 512 512 512 512 512 512 512 512 512 512 512 31.54039989548126 512 512 512 512 512 512 512 512 512 512 512 512 512 512 512 512 512 512 512 512 512 512 512 512 512 512 512 512 512 512 512 512 512 512 512 512 512 512 512 512 512 512 512 512 512 512 512 512 512 512 512 512 512 512 512 512 512 512 512 512 512 512 512 512 512 512 512 512 512 512 512 512 512 512 512 512 512 512 512 512 512 512 512 512 512 512 512 512 512 512 397.407437276345 127.8318829335107 512 512 483.49576600071 512 512 512 512 512 512 512 512 512 512 512 512 512 512 512 512 512 116.2795235368244 512 512 512 512 512 512 512 512 512 512 512 512 512 512 512 512 512 -512 -512 -512 -512 -512 -512 -512 -512 -512 -512 -512 -512 -512 -512 -512 -512 -512 -512 -512 -512 -512 -512 -512 -512 -512 -512 -512 -512 -512 -512 -512 -512 -512 -512 -512 -512 -512 -512 -512 -512 -512 -512 -512 -512 -512 -512 -512 -512 -512 -512 -512 -512 -512 -512 -512 -512 -512 -512 -512 -512 -512 -512 -512 -512 -512 -512 -512 -512 -512 -512 -512 -512 -512 -512 -512 -512 -512 -512 -512 -512 -512 -512 -512 -512 -512 -512 -512 -512 -512 -512 -512 -147.8555285204034 -512 -512 -512 -512 -512 -512 -512 -512 -512 -512 -512 -512 -512 -512 -512 -512 -512 -512 -512 -512 -512 -512 -512 -512 -512 -512 -512 -512 -512 -512 -512 -512 -17.08547922692601 -512 -512 -512 -512 -512 -512 -512 -512 -512 -512 -512 -512 -512 -512 -512 -512 -512 -512 -512 -512 -512 -512 -512 -512 -512 -512 -512 -512 -512 -512 -512 -512 -512 -512 -512 -512 -512 -512 -512 -512 -512 -512 -512 -512 -512 -512 -512 -512 -512 -512 -512 -512 -512 -512 -512 -512 -512 -512 -512 -512 -512 -512 -512 -512 -512 -512 -512 -512 -512 -512 -512 -512 -512 -512 -512 -512 -512 -512 -512 -512 -512 -512 -512 -512 -512 -512 -512 -512 -512 -512 -512 -512 -512 -512 -512 -512 -512 -512 -512 -512 -512 -512 -512 -512 -512 -512 -512 -512 -512 -512 -512 -512 -512 -512 -512 -512 -512 -512 -512 -512 -512 -512 -512 -512 -512 -512 -512 -512 -512 -512 -512 -512 -512 -512 -512 -512 -512 -9.880569426225067 -512 -512 -512 -512 -512 -512 -512 -512 -512 -512 -512 -512 -512 -512 -512 -512 -512 -512 -512 -512 -512 -512 -512 -512 -512 -512 -512 -512 -512 -512 -512 -512 -512 -512 -512 -512 -512 -512 -512 -512 -512 -512 -512 -512 -512 -512 -512 -512 -512 -512 -512 -512 -512 -512 -512 -512 -512 -512 -512 -512 -512 -512 -512 -512 -512 -512 -512 -512 -512 -512 -512 -512 -512 -512 -512 -512 -512 -512 -512 -512 -512 -512 -512 -512 -470.4377653331628 -512 -512 -512 -512 -512 -512 -512 -512 -512 -512 -512 -512 -512 -512 -512 -512 -512 -512 -512 -512 -512 -512 -512 -512 -512 -512 -512 -512 -512 -512 -512 -512 -512 -512 -512 -512 -512 -512 -512 -512 -512 -512 -512 -512 -512 -512 -512 -512 -512 -512 -512 -512 -512 -512 -512 -512 -512 -512 -512 -512 -512 -512 -512 -512 -512 -512 -512 -512 -512 -512 -512 -512 -512 -512 -512 -512 -512 -512 -512 -512 -512 -512 -512 -512 -512 -512 -512 -512 -512 -512 -512 -512 -512 -512 -512 -512 -512 -512 -512 -512 -512 -512 -512 -512 -512 -512 -512 -512 -512 -512 -512 -512 -512 -512 -512 -512 -512 -512 -512 -512 -512 -512 -512 -512 -512 -512 -512 -512 -512 -512 -512 -512 -512 -512 -512 -512 -512 -512 -512 -512 -512 -512 -512 -512 -512 -512 -512 -512 -512 -512 -512 -512 -512 -512 -512 -512 -512 -512 -512 -512 -512 -512 -512 -512 -512 -512 -512 -512 -512 -512 -512 -512 -512 -512 -512 -512 -512 -512 -512 -512 -512 -512 -512 -512 -512 -512 -512 -512 -512 -512 -512 -512 -512 -512 -512 -512 -512 -512 -512 -512 -512 -512 -512 -512 -512 -512 -512 -512 -512 -512 -512 -512 -512 -512 -512 -512 -512 -512 -512 -512 -512 -512 -512 -512 -512 -512 -512 -512 -512 -512 -512 -512 -467.1933056772716 -512 -512 -426.4884145088483 -512 -512 -512 -512 -512 -512 -512 -512 -512 -512 -512 -512 -512 -512 -512 -512 -512 -512 -512 -512 -512 -512 -512 -512 -512 -512 -512 -512 -512 -512 -512 -512 -512 -512 -512 -512 -512 -512 -512 -512 -512 -512 -512 -512 -512 -512 -512 -512 -512 -512 -512 -512 -512 -512 -512 -512 -512 -512 -512 -512 -512 -512 -512 -512 -512 -512 -512 -512 -512 -512 -512 -512 -512 -512 -512 -512 -512 -512 -512 -512 -512 -512 -512 -512 -512 -512 -512 -512 -512 -512 -231.6143223763176 -512 -512 -512 -512 -512 -512 -512 -512 -512 -512 -512 -512 -512 -512 -512 -488.5696512970974 -512 -512 -512 -471.902645315106 -512 -512 -306.8921431151803 -16.40985918969363 -512 -512 -512 -512 -512 -512 -512 -512 -512 -512 -512 -80.68983471614855 -512 -512 -157.1440916620562 -512 -512 -512 -512 -512 -512 -512 -512 -512 -512 -6.698537224382904 -512 -512 -512 -512 -512 -512 -512 -512 -512 -512 -512 -295.8790419032158 -290.6279870883213 -512 -512 -512 -512 -512 -512 -512 -512 -414.0062471555738 -51.12832760052223 -512 -512 -512 -512 -512 -512 -512 -512 -512 -512 -512 -512 -512 -512 -512 -512 -512 -512 -512 -512 -512 -512 -512 -512 -512 -512 -512 -512 -512 -512 -512 -512 -512 -512 -147.6136607703328 -512 -126.252079257836 -416.4930718381182 -512 -512 -512 -512 -512 -512 -512 -512 -512 -512 -512 -512 -512 -512 -512 -512 -512 -512 -512 -512 -512 -512 -512 -512 -512 -512 -512 -512 -512 -512 -512 -512 -512 -512 -512 -512 -512 -512 -512 -512 -273.9432107884542 -512 -512 -512 -512 -512 -512 -512 -512 -512 -512 -512 -512 -512 -512 -512 -512 -512 -512 -512 -512 -512 -512 -512 -512 -512 -308.2437866372391 -512 -512 -512 -512 -512 -512 -512 -512 -512 -512 -512 -512 -512 -512 -512 -512 -512 -512 -512 -512 -512 -512 -512 -512 -512 -512 -512 -512 -512 -512 -512 -512 -512 -512 -512 -512 -512 -512 -512 -512 -512 -512 -512 -512 -512 -512 -512 -512 -512 -512 -512 -512 -512 -512 -512 -512 -512 -512 -512 -512 -512 -512 -512 -512 -512 -512 -512 -512 -512 -512 -512 -512 -512 -512 -512 -512 -512 -512 -512 -512 -512 -512 -512 -512 -512 -512 -512 -512 -512 -512 -512 -512 -512 -512 -512 -512 -512 -512 -512 -512 -512 -512 -512 -512 -512 -370.3967043174034 -512 -512 -512 -512 -512 -512 -512 -512 -512 -512 -162.5512994383481 -512 -512 -512 -512 -512 -512 -512 -512 -305.7035509848243 -512 -512 -512 -512 -512 -512 -242.7429804817617 -512 -512 -512 -512 -512 -512 -17.36739536088842 -512 -512 -512 -512 -512 -512 -512 -512 -512 -512 -512 -512 -512 -512 -512 -512 -512 -512 -512 -512 -512 -512 -512 -512 -512 -512 512 512 512 512 512 512 512 512 512 512 512 512 512 512 512 55.8933632515789 512 512 512 512 512 512 512 78.75865945058602 512 512 512 512 512 512 512 512 512 512 512 512 512 512 512 512 512 512 512 512 512 512 512 512 512 512 512 512 512 512 512 512 512 512 512 512 512 512 512 512 512 512 512 120.5573710569667 512 512 512 512 512 512 512 512 512 512 512 512 512 512 512 512 512 512 512 512 512 512 512 512 512 512 512 512 512 512 512 512 512 512 512 512 512 512 512 512 512 512 512 512 512 512 512 512 512 512 512 512 512 512 512 512 512 512 512 512 512 512 512 512 512 512 512 512 512 512 512 512 512 512 512 512 512 512 512 445.0014361164378 512 512 512 512 512 512 512 512 512 512 512 512 512 512 512 512 512 512 14.31557344440965 512 512 512 512 512 512 512 512 512 512 512 512 512 512 512 114.4054585184384 512 512 512 512 512 319.829746969448 90.10148339900309 512 100.3563364904442 512 512 512 512 512 512 512 512 512 216.0908135946873 512 512 512 512 512 512 512 512 512 498.4613238632805 512 512 512 512 512 512 512 135.4245343014836 512 512 512 316.6196636142011 419.5132158091216 512 512 512 512 512 512 512 512 512 512 512 512 512 512 512 512 512 512 512 512 512 512 512 512 512 512 512 483.2888332291485 512 512 512 512 417.2453620894924 512 512 512 512 19.85867678168575 512 512 512 512 -512 -512 -512 -512 -332.6373645141113 -512 -512 -45.31260718216306 -512 -512 -512 -512 -512 -512 -512 -512 -512 -512 -512 -512 -512 -512 -512 -226.2258458634725 -0.9975743812197031 -512 -48.55440488274454 -133.5279069549242 -512 -197.9282016465399 -512 -512 -512 -512 -512 -512 -512 -512 -329.1801809215182 -512 -512 -512 -512 -512 -512 -512 -512 -512 -512 -58.07282130023818 -127.535790777171 -512 -512 -512 512 512 512 185.3112002285285 512 445.3736023512087 512 512 350.9731915800064 512 
2 15 28 30 33 34 37 40 42 54 55 57 60 61 65 75 81 93 97 99 100 496 498 499 503 511 516 519 524 526 529 530 535 539 540 542 543 545 547 548 549 550 552 553 558 559 563 564 566 567 568 577 579 596 615 622 647 653 654 655 656 657 658 667 701 702 703 705 723 749 774 786 788 796 801 811 822 833 834 843 845 847 850 851 863 865 866 870 874 875 876 885 893 911 932 953 984 993 994 1006 1012 1028 1030 1031 1035 1036 1041 1046 1058 1059 1060 1061 1086 1087 1103 1104 1115 1127 1137 1141 1142 1144 1152 1162 1170 1176 2657 2664 2673 2685 2687 2691 2694 2695 2696 2711 2727 2737 2752 2785 2819 2822 2823 2848 2851 2856 2868 2870 2875 2884 2885 2887 2894 2899 2960 2972 2984 2985 2988 2999 3005 3011 3012 3041 3047 3053 3068 3069 3085 3117 3127 3128 3135 3142 3145 3163 3174 3176 3181 3185 3191 3199 3252 3268 3285 3287 3288 3290 3294 3297 3310 3319 3320 3323 3342 3343 3345 3358 3366 3368 3371 3373 3379 3380 3384 3433 3434 3440 3449 3455 3463 3476 3478 3483 3486 3492 3500 3511 3520 3523 3524 3526 3529 3530 3534 3543 3544 3550 3551 3552 3555 3557 3578 3583 3587 3600 3603 3608 3625 3635 3636 3637 3638 3639 3640 3641 3642 3643 3644 3645 3646 3647 3648 3649 3650 3651 3653 3654 3655 3656 3657 3658 3659 3660 3661 3662 3663 3664 3665 3666 3667 3668 3669 3670 3671 3672 3673 3674 3675 3676 3677 3678 3679 3680 3681 3682 3683 3684 3685 3686 3687 3688 3689 3690 3691 3692 3693 3694 3695 3696 3697 3698 3699 3702 3703 3706 3707 3708 3709 3710 3711 3712 3713 3715 3716 3717 3718 3719 3720 3721 3722 3723 3724 3725 3726 3727 3728 3729 3730 3731 3732 3733 3734 3735 3736 3737 3738 3739 3740 3741 3742 3743 3744 3745 3746 3747 3748 3749 3750 3751 3752 3753 3754 3755 3756 3757 3758 3759 3760 3761 3762 3763 3764 3765 3766 3768 3769 3770 3771 3772 3773 3774 3775 3776 3777 3778 3780 3781 3782 3783 3784 3785 3786 3787 3788 3789 3791 3792 3793 3794 3795 3796 3797 3798 3799 3800 3801 3802 3803 3805 3809 3810 3811 3812 3813 3814 3815 3816 3818 3819 3820 3821 3822 3823 3824 3825 3826 3827 3828 3829 3830 3831 3833 3834 3835 3836 3837 3838 3839 3840 3841 3842 3843 3844 3845 3850 3851 3853 3854 3855 3856 3857 3858 3859 3860 3861 3862 3863 3864 3865 3866 3867 3868 3876 3877 3878 3879 3880 3881 3882 3883 3884 3885 3887 3888 3892 3894 3895 3896 3897 3898 3901 3902 3903 3904 3905 3906 3907 3908 3909 3910 3913 3914 3915 3916 3917 3918 3920 3921 3922 3923 3924 3925 3927 3929 3936 3938 3939 3940 3941 3942 3943 3945 3946 3947 3948 3949 3950 3951 3952 3953 3954 3955 3956 3957 3959 3961 3962 3963 3968 3969 3970 3971 3972 3973 3974 3975 3977 3978 3979 3980 3981 3983 3984 3985 3989 3990 3991 3992 3993 3994 3995 3996 3997 3998 3999 4000 4001 4002 4003 4004 4005 4007 4011 4013 4014 4016 4017 4018 4022 4024 4026 4027 4028 4029 4030 4031 4032 4033 4034 4035 4036 4037 4038 4039 4040 4044 4045 4046 4047 4048 4049 4050 4051 4052 4056 4057 4059 4060 4061 4064 4065 4066 4067 4068 4069 4070 4071 4072 4073 4074 4075 4076 4077 4078 4079 4080 4081 4082 4083 4084 4085 4086 4087 4088 4089 4090 4091 4092 4093 4094 4095 4096 4097 4098 4099 4100 4101 4102 4103 4104 4105 4106 4108 4109 4110 4111 4112 4113 4114 4115 4116 4117 4118 4119 4120 4121 4122 4123 4124 4125 4126 4127 4128 4129 4130 4131 4132 4133 4134 4135 4136 4137 4138 4139 4140 4141 4142 4143 4145 4146 4147 4148 4149 4150 4151 4152 4153 4154 4155 4156 4157 4158 4159 
-241.8783726603874 -59.41696916551802 -377.9535696892963 -489.6628359696224 -512 -512 -512 -512 -512 -512 -494.8559600554959 -512 -512 -512 -112.5643343518024 -512 -512 -512 -349.4984097985364 -512 -512 -512 -50.93880957911501 -512 -137.2825819698575 -512 -512 -512 -512 -512 -512 -512 -39.82244009029964 -512 -512 -4.48297676638568 -166.058130785122 -512 -512 -197.959722774727 -512 -512 -512 -512 -512 -512 -11.50723461710698 -512 -512 -359.0988998035633 -512 -512 -512 -103.9484757278903 -215.0032591654403 -27.60413640792891 -91.11241444541656 -512 -512 -512 -512 -512 -512 -481.4465542322977 -512 -512 -512 -512 -512 -487.6940236970629 -320.3079523008415 -512 -512 -394.7516818578174 -187.9056883917848 -364.5903815758642 -512 -512 -512 -512 -512 -430.459222372888 -304.7131141216685 -512 -512 -512 -512 -512 -512 -323.2706193189548 -512 -47.98787754426127 -512 -512 -512 -20.56117614439601 -26.94231462095883 -512 -512 -512 -259.6914227860962 -512 -512 -512 -512 -512 -512 -512 -512 -512 -512 -512 -512 -512 -512 -512 -0.3162685178718579 -512 -512 -505.2559150274415 -512 -358.4618432726504 -101.5233486717019 -323.1174625668738 -346.3384495343957 -512 -195.3283497832165 -512 -512 -512 -512 -512 -512 -512 -287.3266008019584 -55.21395465781821 -512 -187.1007295706789 -512 -512 -512 -281.1233863227685 -512 -27.16020007808328 -158.3422169767689 -512 -512 -512 -90.44308947092226 -512 -29.01987413204807 -35.1690216387507 -480.4881354904009 -367.7787011151755 -399.9762340690309 -77.01241005885815 -512 -512 -390.0523278779438 -512 -512 -512 -512 -439.4536487654682 -365.8380441193191 -342.6141691160445 -329.5559618098367 -434.0766177055627 -35.81688558990282 -512 -512 -512 -512 -512 -512 -512 -512 -88.35875955056306 -397.4193249105301 -473.7423464354428 -512 -209.5604332291655 -472.7257878585629 -512 -512 -512 -512 -305.4445596106274 -253.5031459709019 -512 -152.5469824603547 -301.6853133546538 -41.34227653520077 -512 -255.6571965477405 -512 -512 -26.39935905141938 -512 -59.48794251750783 -156.1132107311938 -388.1637000900417 -512 -499.4163586295157 -396.2415671270242 -512 -133.3307096011354 -512 -512 -512 -512 -512 -91.54896890586862 -512 -512 -15.3663813987289 -512 -512 -329.7616078108875 -512 -512 -512 -512 -200.1817862535693 -62.10885520931986 -512 -394.6933690366608 -512 -512 -512 -249.0441186255692 -488.3415914448645 -512 -512 -246.6326640699151 -512 -351.023242988215 -512 -297.4560111403489 -512 -512 -512 -512 -512 -512 -512 -512 -512 -512 -512 -512 -512 -512 -512 -512 -512 -512 -512 -512 -512 -512 -512 -512 -512 -512 -512 -512 -512 -512 -512 -512 -512 -512 -512 -512 -512 -444.3553906281588 -512 -512 -512 -512 -512 -512 -512 -512 -512 -512 -512 -512 -512 -512 -512 -512 -512 -512 -512 -512 -512 -512 -512 -512 -512 -512 -512 -512 -512 -512 -512 -512 -512 -512 -512 -512 -512 -512 -512 -512 -512 -512 -512 -512 -512 -512 -512 -512 -512 -512 -512 -512 -512 -486.8256660270312 -512 -512 -512 -512 -512 -512 -512 -512 -512 -512 -512 -512 -512 -512 -512 -512 -512 512 512 512 512 512 512 512 512 512 512 512 512 512 227.2826997104071 512 512 512 512 512 512 512 512 512 512 512 512 512 512 512 512 512 512 512 512 512 512 512 419.1343128466897 512 512 512 512 512 512 512 512 512 475.6771230434104 413.5434954158437 512 512 512 512 512 512 512 512 512 512 512 512 512 512 512 512 512 512 512 512 512 512 512 512 512 512 32.73762512398404 512 512 512 512 512 512 512 512 512 512 512 512 512 512 512 512 512 512 512 512 512 512 512 512 512 512 512 512 512 512 512 512 512 512 512 512 512 512 512 512 512 512 512 512 512 512 512 512 512 512 512 512 512 512 512 275.2006344319221 512 512 512 512 512 512 512 512 512 512 512 512 512 512 512 512 512 512 512 512 512 512 512 512 1.855483917244435 512 512 512 512 512 512 512 512 512 512 398.3494431162494 512 512 512 512 512 512 512 512 512 512 512 512 512 512 512 512 512 512 512 512 512 512 512 512 512 512 512 512 512 512 512 512 512 512 512 512 512 512 512 512 512 512 512 180.257260472527 512 512 512 512 512 512 512 512 512 512 512 512 512 512 512 512 512 512 512 512 512 512 512 512 218.4037689594829 512 512 512 512 512 512 512 512 512 512 512 512 512 512 512 512 512 512 512 512 512 512 512 512 512 512 512 512 512 512 512 512 512 512 512 512 512 512 512 512 512 512 512 512 512 512 512 512 512 512 102.8941604873175 512 512 512 512 512 512 512 512 512 512 512 512 512 512 512 512 512 512 512 512 512 512 512 512 512 512 512 512 512 512 512 512 512 -512 -512 -512 -512 -107.9819702444663 -512 -512 -512 -512 -512 -512 -512 -512 -512 -512 
